svm_type c_svc
kernel_type rbf
gamma 0.001953125
nr_class 2
total_sv 38
rho -7.012112692787315E-5
label 1 -1
nr_sv 19 19
SV
128.0 1:-0.1093687262857478 2:-0.058491376925805305 
128.0 1:-0.2314357984123312 2:-0.058491376925805305 
128.0 1:-0.2314357984123312 2:-0.1093687262857478 
128.0 1:0.9167962287143719 2:-0.058491376925805305 
128.0 1:0.9167962287143719 2:-0.1093687262857478 
128.0 1:0.9167962287143719 2:-0.2314357984123312 
128.0 1:2.1927356339901385 2:-0.058491376925805305 
128.0 1:2.1927356339901385 2:-0.1093687262857478 
128.0 1:2.1927356339901385 2:-0.2314357984123312 
128.0 1:2.1927356339901385 2:0.9167962287143719 
74.63562722577332 1:4.068533672923195 2:0.9167962287143719 
128.0 1:4.068533672923195 2:2.1927356339901385 
15.947684583616045 1:-3.761828914337123 2:-0.2314357984123312 
128.0 1:-3.761828914337123 2:0.9167962287143719 
128.0 1:-3.761828914337123 2:2.1927356339901385 
128.0 1:-3.761828914337123 2:4.068533672923195 
128.0 1:5.2363075948625095 2:4.068533672923195 
104.04401548212955 1:-16.072490166920623 2:9.369848871888884 
128.0 1:10.507135808114988 2:-16.072490166920623 
-128.0 1:-0.058491376925805305 2:-0.1093687262857478 
-128.0 1:-0.058491376925805305 2:-0.2314357984123312 
-128.0 1:-0.058491376925805305 2:0.9167962287143719 
-128.0 1:-0.058491376925805305 2:2.1927356339901385 
-128.0 1:-0.1093687262857478 2:-0.2314357984123312 
-128.0 1:-0.1093687262857478 2:0.9167962287143719 
-128.0 1:-0.1093687262857478 2:2.1927356339901385 
-128.0 1:-0.2314357984123312 2:0.9167962287143719 
-128.0 1:-0.2314357984123312 2:2.1927356339901385 
-15.947824566058381 1:-0.2314357984123312 2:-3.761828914337123 
-128.0 1:0.9167962287143719 2:2.1927356339901385 
-74.63573494977057 1:0.9167962287143719 2:4.068533672923195 
-128.0 1:0.9167962287143719 2:-3.761828914337123 
-128.0 1:2.1927356339901385 2:4.068533672923195 
-128.0 1:2.1927356339901385 2:-3.761828914337123 
-128.0 1:4.068533672923195 2:-3.761828914337123 
-128.0 1:4.068533672923195 2:5.2363075948625095 
-104.04376777569013 1:9.369848871888884 2:-16.072490166920623 
-128.0 1:-16.072490166920623 2:10.507135808114988 
