svm_type c_svc
kernel_type rbf
gamma 0.125
nr_class 2
total_sv 52
rho -3.3812622728258466E-5
label 1 -1
nr_sv 26 26
SV
8.0 1:0.1340325126751054 2:-0.10928967470157311 
8.0 1:0.76003449708438 2:0.1340325126751054 
8.0 1:0.6349972270387804 2:-0.10928967470157311 
8.0 1:0.6349972270387804 2:0.1340325126751054 
8.0 1:0.6349972270387804 2:0.76003449708438 
0.4409708756580152 1:0.6963358283207245 2:-0.10928967470157311 
8.0 1:0.6963358283207245 2:0.1340325126751054 
8.0 1:0.6963358283207245 2:0.76003449708438 
8.0 1:0.6963358283207245 2:0.6349972270387804 
8.0 1:1.1171826976907875 2:0.76003449708438 
8.0 1:1.1171826976907875 2:0.6963358283207245 
8.0 1:1.2053705308771612 2:1.1171826976907875 
5.067834294922419 1:-1.6175403575197858 2:1.1171826976907875 
8.0 1:-1.6175403575197858 2:1.2053705308771612 
0.3019736770674538 1:7.162892312355133 2:1.2053705308771612 
0.19573038218178496 1:7.162892312355133 2:-1.6175403575197858 
0.5755799514812007 1:7.162892312355133 2:-3.9192994960847933 
0.6432221172401039 1:8.910989356037682 2:1.2053705308771612 
0.11457395788431776 1:8.910989356037682 2:-1.6175403575197858 
0.4584660762633948 1:8.910989356037682 2:-3.9192994960847933 
1.8540463505151212 1:8.910989356037682 2:7.162892312355133 
0.8697276579353815 1:-10.065338179515383 2:1.2053705308771612 
0.24393509648322337 1:-10.065338179515383 2:-1.6175403575197858 
0.8417581308590646 1:-10.065338179515383 2:-3.9192994960847933 
0.5798464015055014 1:-10.065338179515383 2:7.162892312355133 
0.6113597004209077 1:-10.065338179515383 2:8.910989356037682 
-8.0 1:-0.10928967470157311 2:0.1340325126751054 
-8.0 1:-0.10928967470157311 2:0.6349972270387804 
-0.4409708756580152 1:-0.10928967470157311 2:0.6963358283207245 
-8.0 1:0.1340325126751054 2:0.76003449708438 
-8.0 1:0.1340325126751054 2:0.6349972270387804 
-8.0 1:0.1340325126751054 2:0.6963358283207245 
-8.0 1:0.76003449708438 2:0.6349972270387804 
-8.0 1:0.76003449708438 2:0.6963358283207245 
-8.0 1:0.76003449708438 2:1.1171826976907875 
-8.0 1:0.6349972270387804 2:0.6963358283207245 
-8.0 1:0.6963358283207245 2:1.1171826976907875 
-8.0 1:1.1171826976907875 2:1.2053705308771612 
-5.068147588905868 1:1.1171826976907875 2:-1.6175403575197858 
-8.0 1:1.2053705308771612 2:-1.6175403575197858 
-0.3007106548357485 1:1.2053705308771612 2:7.162892312355133 
-0.644289080191919 1:1.2053705308771612 2:8.910989356037682 
-0.8691666227353098 1:1.2053705308771612 2:-10.065338179515383 
-0.19856329764255667 1:-1.6175403575197858 2:7.162892312355133 
-0.11191150991333343 1:-1.6175403575197858 2:8.910989356037682 
-0.24438171810915577 1:-1.6175403575197858 2:-10.065338179515383 
-0.572935833260871 1:-3.9192994960847933 2:7.162892312355133 
-0.46140773410136354 1:-3.9192994960847933 2:8.910989356037682 
-0.8412301928903568 1:-3.9192994960847933 2:-10.065338179515383 
-1.8540463505151212 1:7.162892312355133 2:8.910989356037682 
-0.581510832107079 1:7.162892312355133 2:-10.065338179515383 
-0.6097523795511927 1:8.910989356037682 2:-10.065338179515383 
