svm_type c_svc
kernel_type rbf
gamma 2.0
nr_class 2
total_sv 38
rho -9.422144105288061E-5
label 1 -1
nr_sv 19 19
SV
8192.0 1:0.3478591020898589 2:0.3374693831494365 
147.22833549097138 1:-0.37561541043634405 2:0.3478591020898589 
1096.0807254046604 1:-0.37561541043634405 2:0.9894746361102471 
722.8939803515789 1:0.4391348800449658 2:0.9894746361102471 
629.6744109796293 1:1.085360861786857 2:0.9894746361102471 
711.5806697844206 1:1.085360861786857 2:-0.37561541043634405 
657.4629238275675 1:1.085360861786857 2:0.4391348800449658 
450.85802472585806 1:0.7865232799627515 2:-0.37561541043634405 
313.3931564541694 1:0.7865232799627515 2:1.085360861786857 
0.46384426299899745 1:-2.1450136332702776 2:0.30848551801232477 
0.3502792384725252 1:-2.1450136332702776 2:0.7865232799627515 
0.8983980404249016 1:-2.1450136332702776 2:-0.6702258138982603 
0.9272164889974812 1:-2.1450136332702776 2:1.6296216945508333 
0.6100210117777743 1:-4.053842099039053 2:0.30848551801232477 
0.08365659081468457 1:-4.053842099039053 2:0.9894746361102471 
0.31355379501213754 1:-4.053842099039053 2:0.7865232799627515 
0.8919179955731731 1:-4.053842099039053 2:-0.6702258138982603 
0.8677570602394882 1:-4.053842099039053 2:1.6296216945508333 
0.9884355751543873 1:-4.053842099039053 2:-2.1450136332702776 
-0.46465901929476733 1:0.30848551801232477 2:-2.1450136332702776 
-0.6074570035340884 1:0.30848551801232477 2:-4.053842099039053 
-8192.0 1:0.3374693831494365 2:0.3478591020898589 
-147.23722423487868 1:0.3478591020898589 2:-0.37561541043634405 
-1096.2295504479848 1:0.9894746361102471 2:-0.37561541043634405 
-722.8946048283661 1:0.9894746361102471 2:0.4391348800449658 
-629.6765116946425 1:0.9894746361102471 2:1.085360861786857 
-0.07547304331154024 1:0.9894746361102471 2:-4.053842099039053 
-711.4828130928414 1:-0.37561541043634405 2:1.085360861786857 
-450.79668916917484 1:-0.37561541043634405 2:0.7865232799627515 
-657.4630347276619 1:0.4391348800449658 2:1.085360861786857 
-313.39066876977256 1:1.085360861786857 2:0.7865232799627515 
-0.349731428791389 1:0.7865232799627515 2:-2.1450136332702776 
-0.3227742365887484 1:0.7865232799627515 2:-4.053842099039053 
-0.8980643855189213 1:-0.6702258138982603 2:-2.1450136332702776 
-0.8926564577732293 1:-0.6702258138982603 2:-4.053842099039053 
-0.9273381146926992 1:1.6296216945508333 2:-2.1450136332702776 
-0.869811931350174 1:1.6296216945508333 2:-4.053842099039053 
-0.9882444921439398 1:-2.1450136332702776 2:-4.053842099039053 
