svm_type c_svc
kernel_type rbf
gamma 0.03125
nr_class 2
total_sv 76
rho -1.4950386669913708E-5
label 1 -1
nr_sv 38 38
SV
2.0 1:6.455798788890881 2:4.843856527991472 
0.532787530008889 1:7.553374662835111 2:4.843856527991472 
2.0 1:7.553374662835111 2:6.455798788890881 
2.0 1:-13.99214253266139 2:-12.094532182210965 
2.0 1:-9.727563153514495 2:-12.094532182210965 
2.0 1:-9.727563153514495 2:-13.99214253266139 
0.44526088213254184 1:-9.600990839147766 2:4.843856527991472 
0.5746718305701443 1:-9.600990839147766 2:7.553374662835111 
0.6166863843085587 1:-9.600990839147766 2:-12.094532182210965 
2.0 1:-9.600990839147766 2:-13.99214253266139 
2.0 1:-9.600990839147766 2:-9.727563153514495 
0.18307571945802653 1:-16.953814992437934 2:4.843856527991472 
0.5053704563598945 1:-16.953814992437934 2:7.553374662835111 
0.2914400124598479 1:-16.953814992437934 2:-13.99214253266139 
1.6718084420972275 1:-16.953814992437934 2:-9.727563153514495 
2.0 1:-16.953814992437934 2:-9.600990839147766 
0.30534153626670235 1:17.112843288294115 2:4.843856527991472 
0.45660204152564454 1:17.112843288294115 2:7.553374662835111 
0.6049109100912058 1:17.112843288294115 2:-9.600990839147766 
1.3969135772958001 1:17.112843288294115 2:-16.953814992437934 
0.5820871072416324 1:23.84748702191598 2:4.843856527991472 
0.30794255960188316 1:23.84748702191598 2:7.553374662835111 
0.5563390220135256 1:23.84748702191598 2:-9.600990839147766 
1.3569408241536718 1:23.84748702191598 2:-16.953814992437934 
1.0306049096929109 1:23.84748702191598 2:17.112843288294115 
0.41808152206244814 1:-21.769668034048607 2:4.843856527991472 
0.1128514639955364 1:-21.769668034048607 2:7.553374662835111 
0.6514323485418085 1:-21.769668034048607 2:-16.953814992437934 
1.3461037819382387 1:-21.769668034048607 2:17.112843288294115 
1.3585826240066377 1:-21.769668034048607 2:23.84748702191598 
0.5378679145295612 1:-28.746011783192348 2:4.843856527991472 
0.4219693881465517 1:-28.746011783192348 2:7.553374662835111 
0.2132703926821746 1:-28.746011783192348 2:-13.99214253266139 
0.779534357606086 1:-28.746011783192348 2:-9.600990839147766 
0.11890778158646508 1:-28.746011783192348 2:-16.953814992437934 
0.49513615738376365 1:-28.746011783192348 2:17.112843288294115 
0.5337893126564841 1:-28.746011783192348 2:23.84748702191598 
0.8837441522598397 1:-28.746011783192348 2:-21.769668034048607 
-2.0 1:4.843856527991472 2:6.455798788890881 
-0.532787530008889 1:4.843856527991472 2:7.553374662835111 
-0.44832410781059906 1:4.843856527991472 2:-9.600990839147766 
-0.1784774707432582 1:4.843856527991472 2:-16.953814992437934 
-0.30475093679328913 1:4.843856527991472 2:17.112843288294115 
-0.5815340529537778 1:4.843856527991472 2:23.84748702191598 
-0.4226557736671562 1:4.843856527991472 2:-21.769668034048607 
-0.5371957042327744 1:4.843856527991472 2:-28.746011783192348 
-2.0 1:6.455798788890881 2:7.553374662835111 
-0.5717505946471895 1:7.553374662835111 2:-9.600990839147766 
-0.5097853310447326 1:7.553374662835111 2:-16.953814992437934 
-0.4573479582800317 1:7.553374662835111 2:17.112843288294115 
-0.3082689731600888 1:7.553374662835111 2:23.84748702191598 
-0.10870225894423162 1:7.553374662835111 2:-21.769668034048607 
-0.422475880717783 1:7.553374662835111 2:-28.746011783192348 
-2.0 1:-12.094532182210965 2:-13.99214253266139 
-2.0 1:-12.094532182210965 2:-9.727563153514495 
-0.6166863843085587 1:-12.094532182210965 2:-9.600990839147766 
-2.0 1:-13.99214253266139 2:-9.727563153514495 
-2.0 1:-13.99214253266139 2:-9.600990839147766 
-0.2919044446028627 1:-13.99214253266139 2:-16.953814992437934 
-0.21508820901039213 1:-13.99214253266139 2:-28.746011783192348 
-2.0 1:-9.727563153514495 2:-9.600990839147766 
-1.671640028350796 1:-9.727563153514495 2:-16.953814992437934 
-2.0 1:-9.600990839147766 2:-16.953814992437934 
-0.6050007183439182 1:-9.600990839147766 2:17.112843288294115 
-0.5566114778356782 1:-9.600990839147766 2:23.84748702191598 
-0.7786625850212049 1:-9.600990839147766 2:-28.746011783192348 
-1.3976276284488824 1:-16.953814992437934 2:17.112843288294115 
-1.355904869192181 1:-16.953814992437934 2:23.84748702191598 
-0.6513978648165158 1:-16.953814992437934 2:-21.769668034048607 
-0.11754146082140199 1:-16.953814992437934 2:-28.746011783192348 
-1.0306049096929109 1:17.112843288294115 2:23.84748702191598 
-1.3450120197992546 1:17.112843288294115 2:-21.769668034048607 
-0.4953490917572635 1:17.112843288294115 2:-28.746011783192348 
-1.3596879260955788 1:23.84748702191598 2:-21.769668034048607 
-0.5333760231852093 1:23.84748702191598 2:-28.746011783192348 
-0.883902728387292 1:-21.769668034048607 2:-28.746011783192348 
