svm_type c_svc
kernel_type rbf
gamma 0.03125
nr_class 2
total_sv 38
rho -2.6986890329838557E-5
label 1 -1
nr_sv 19 19
SV
32768.0 1:0.6349972270387804 2:0.76003449708438 
2573.8330558798843 1:1.2053705308771612 2:0.76003449708438 
5232.530441521459 1:1.2053705308771612 2:0.6349972270387804 
25.947265291351187 1:-10.065338179515383 2:8.910989356037682 
17.127079835317314 1:-7.629956741286101 2:8.910989356037682 
4.833452916793974 1:-7.629956741286101 2:-10.065338179515383 
468.81277359971205 1:10.910202945012998 2:8.910989356037682 
28.96684921438508 1:9.747076531592953 2:-10.065338179515383 
13.769173067897757 1:9.747076531592953 2:-7.629956741286101 
781.2344983518311 1:9.747076531592953 2:10.910202945012998 
0.15696988204472614 1:-21.099498724705967 2:1.2053705308771612 
0.49950562121755365 1:-21.099498724705967 2:-3.9192994960847933 
0.7027688992415265 1:-21.099498724705967 2:-10.065338179515383 
0.935787660353948 1:-21.099498724705967 2:10.910202945012998 
0.5022882130907218 1:-22.889970437481843 2:1.2053705308771612 
0.04070026818871365 1:-22.889970437481843 2:-3.9192994960847933 
0.22806534136395967 1:-22.889970437481843 2:7.162892312355133 
0.12837789456860388 1:-22.889970437481843 2:-10.065338179515383 
5.440289190356167 1:-22.889970437481843 2:-21.099498724705967 
-32768.0 1:0.76003449708438 2:0.6349972270387804 
-2573.8914641409233 1:0.76003449708438 2:1.2053705308771612 
-5232.472147779458 1:0.6349972270387804 2:1.2053705308771612 
-0.15642718696932342 1:1.2053705308771612 2:-21.099498724705967 
-0.503146740685838 1:1.2053705308771612 2:-22.889970437481843 
-0.49862842605416274 1:-3.9192994960847933 2:-21.099498724705967 
-0.04127469532496077 1:-3.9192994960847933 2:-22.889970437481843 
-0.22687764042586972 1:7.162892312355133 2:-22.889970437481843 
-25.943849455016785 1:8.910989356037682 2:-10.065338179515383 
-17.125128348557908 1:8.910989356037682 2:-7.629956741286101 
-468.80557291132817 1:8.910989356037682 2:10.910202945012998 
-4.833349260240927 1:-10.065338179515383 2:-7.629956741286101 
-28.97039984282894 1:-10.065338179515383 2:9.747076531592953 
-0.7022391234891543 1:-10.065338179515383 2:-21.099498724705967 
-0.12938502029202947 1:-10.065338179515383 2:-22.889970437481843 
-13.771167527588492 1:-7.629956741286101 2:9.747076531592953 
-781.2413554687622 1:10.910202945012998 2:9.747076531592953 
-0.9366398907679204 1:10.910202945012998 2:-21.099498724705967 
-5.440289190356167 1:-21.099498724705967 2:-22.889970437481843 
