svm_type c_svc
kernel_type rbf
gamma 0.03125
nr_class 2
total_sv 20
rho -5.4859006421789645E-5
label 1 -1
nr_sv 10 10
SV
32768.0 1:-0.058491376925805305 2:0.007410142643698514 
32768.0 1:-0.1093687262857478 2:0.007410142643698514 
32768.0 1:-0.1093687262857478 2:-0.058491376925805305 
32768.0 1:0.19729885234896727 2:0.007410142643698514 
32768.0 1:0.19729885234896727 2:-0.058491376925805305 
32768.0 1:0.19729885234896727 2:-0.1093687262857478 
23434.83468285858 1:-0.2314357984123312 2:-0.058491376925805305 
32768.0 1:-0.2314357984123312 2:-0.1093687262857478 
20832.37978743665 1:-0.2314357984123312 2:0.19729885234896727 
18.095016926096786 1:-3.761828914337123 2:4.068533672923195 
-32768.0 1:0.007410142643698514 2:-0.058491376925805305 
-32768.0 1:0.007410142643698514 2:-0.1093687262857478 
-32768.0 1:0.007410142643698514 2:0.19729885234896727 
-32768.0 1:-0.058491376925805305 2:-0.1093687262857478 
-32768.0 1:-0.058491376925805305 2:0.19729885234896727 
-23434.894358907535 1:-0.058491376925805305 2:-0.2314357984123312 
-32768.0 1:-0.1093687262857478 2:0.19729885234896727 
-32768.0 1:-0.1093687262857478 2:-0.2314357984123312 
-20832.320125213453 1:0.19729885234896727 2:-0.2314357984123312 
-18.09500310030437 1:4.068533672923195 2:-3.761828914337123 
