svm_type c_svc
kernel_type rbf
gamma 0.0078125
nr_class 2
total_sv 22
rho -6.013411307303713E-6
label 1 -1
nr_sv 11 11
SV
58.50841691815592 1:7.553374662835111 2:6.455798788890881 
12.696499316307227 1:-12.094532182210965 2:-0.9518414085887752 
20.035011142615918 1:-13.99214253266139 2:-0.9518414085887752 
512.0 1:-13.99214253266139 2:-12.094532182210965 
264.2706344192668 1:-9.727563153514495 2:-13.99214253266139 
512.0 1:-9.600990839147766 2:-9.727563153514495 
7.765439051345145 1:17.112843288294115 2:-16.953814992437934 
0.7687681513576909 1:23.84748702191598 2:-16.953814992437934 
1.3180339329857 1:23.84748702191598 2:17.112843288294115 
5.053706686549955 1:-21.769668034048607 2:17.112843288294115 
2.5165641173795255 1:-21.769668034048607 2:23.84748702191598 
-12.702515718566675 1:-0.9518414085887752 2:-12.094532182210965 
-20.028637916021935 1:-0.9518414085887752 2:-13.99214253266139 
-58.50841986656793 1:6.455798788890881 2:7.553374662835111 
-512.0 1:-12.094532182210965 2:-13.99214253266139 
-264.2706398180317 1:-13.99214253266139 2:-9.727563153514495 
-512.0 1:-9.727563153514495 2:-9.600990839147766 
-7.759452268884379 1:-16.953814992437934 2:17.112843288294115 
-0.777114743402665 1:-16.953814992437934 2:23.84748702191598 
-1.3181893517859098 1:17.112843288294115 2:23.84748702191598 
-5.060757708290588 1:17.112843288294115 2:-21.769668034048607 
-2.5073463444119994 1:23.84748702191598 2:-21.769668034048607 
