svm_type c_svc
kernel_type rbf
gamma 0.0078125
nr_class 2
total_sv 40
rho -0.001098569755407179
label 1 -1
nr_sv 20 20
SV
32768.0 1:0.3478591020898589 2:0.3374693831494365 
7186.871688303864 1:0.9894746361102471 2:0.3374693831494365 
32768.0 1:0.9894746361102471 2:0.3478591020898589 
8023.165083838969 1:-0.37561541043634405 2:0.3478591020898589 
32768.0 1:-0.37561541043634405 2:0.9894746361102471 
32768.0 1:0.4391348800449658 2:0.3374693831494365 
32768.0 1:0.4391348800449658 2:0.3478591020898589 
32768.0 1:0.4391348800449658 2:0.9894746361102471 
32768.0 1:0.4391348800449658 2:-0.37561541043634405 
32768.0 1:1.085360861786857 2:0.9894746361102471 
32768.0 1:1.085360861786857 2:-0.37561541043634405 
32768.0 1:0.7865232799627515 2:0.3374693831494365 
32768.0 1:0.7865232799627515 2:0.3478591020898589 
32768.0 1:0.7865232799627515 2:0.9894746361102471 
32768.0 1:0.7865232799627515 2:-0.37561541043634405 
32768.0 1:0.7865232799627515 2:0.4391348800449658 
32768.0 1:0.7865232799627515 2:1.085360861786857 
32768.0 1:-0.6702258138982603 2:0.9894746361102471 
32768.0 1:-0.6702258138982603 2:1.085360861786857 
1203.9219978303195 1:3.7367861029188703 2:-4.053842099039053 
-32768.0 1:0.3374693831494365 2:0.3478591020898589 
-7186.850466548533 1:0.3374693831494365 2:0.9894746361102471 
-32768.0 1:0.3374693831494365 2:0.4391348800449658 
-32768.0 1:0.3374693831494365 2:0.7865232799627515 
-32768.0 1:0.3478591020898589 2:0.9894746361102471 
-8023.192454643752 1:0.3478591020898589 2:-0.37561541043634405 
-32768.0 1:0.3478591020898589 2:0.4391348800449658 
-32768.0 1:0.3478591020898589 2:0.7865232799627515 
-32768.0 1:0.9894746361102471 2:-0.37561541043634405 
-32768.0 1:0.9894746361102471 2:0.4391348800449658 
-32768.0 1:0.9894746361102471 2:1.085360861786857 
-32768.0 1:0.9894746361102471 2:0.7865232799627515 
-32768.0 1:0.9894746361102471 2:-0.6702258138982603 
-32768.0 1:-0.37561541043634405 2:0.4391348800449658 
-32768.0 1:-0.37561541043634405 2:1.085360861786857 
-32768.0 1:-0.37561541043634405 2:0.7865232799627515 
-32768.0 1:0.4391348800449658 2:0.7865232799627515 
-32768.0 1:1.085360861786857 2:0.7865232799627515 
-32768.0 1:1.085360861786857 2:-0.6702258138982603 
-1203.9158487807574 1:-4.053842099039053 2:3.7367861029188703 
