svm_type c_svc
kernel_type rbf
gamma 0.5
nr_class 2
total_sv 28
rho 1.5892899988449656E-4
label 1 -1
nr_sv 14 14
SV
32768.0 1:-0.08444624253179711 2:-0.041360461262371466 
32768.0 1:0.3374693831494365 2:0.30848551801232477 
11616.290195980504 1:0.3478591020898589 2:0.30848551801232477 
32768.0 1:0.3478591020898589 2:0.3374693831494365 
26733.416171566852 1:-0.37561541043634405 2:0.3478591020898589 
32768.0 1:-0.37561541043634405 2:0.9894746361102471 
32768.0 1:0.4391348800449658 2:0.9894746361102471 
32768.0 1:0.4391348800449658 2:-0.37561541043634405 
32768.0 1:1.085360861786857 2:0.9894746361102471 
21988.792045830345 1:1.085360861786857 2:-0.37561541043634405 
26822.556006939714 1:1.085360861786857 2:0.4391348800449658 
4400.064787087631 1:0.7865232799627515 2:-0.37561541043634405 
10186.352646548708 1:0.7865232799627515 2:0.4391348800449658 
20209.14349815549 1:0.7865232799627515 2:1.085360861786857 
-32768.0 1:-0.041360461262371466 2:-0.08444624253179711 
-32768.0 1:0.30848551801232477 2:0.3374693831494365 
-11616.305829238292 1:0.30848551801232477 2:0.3478591020898589 
-32768.0 1:0.3374693831494365 2:0.3478591020898589 
-26733.413296699757 1:0.3478591020898589 2:-0.37561541043634405 
-32768.0 1:0.9894746361102471 2:-0.37561541043634405 
-32768.0 1:0.9894746361102471 2:0.4391348800449658 
-32768.0 1:0.9894746361102471 2:1.085360861786857 
-32768.0 1:-0.37561541043634405 2:0.4391348800449658 
-21988.79253455423 1:-0.37561541043634405 2:1.085360861786857 
-4400.061241128863 1:-0.37561541043634405 2:0.7865232799627515 
-26822.57931904367 1:0.4391348800449658 2:1.085360861786857 
-10186.323575464736 1:0.4391348800449658 2:0.7865232799627515 
-20209.139555979535 1:1.085360861786857 2:0.7865232799627515 
