svm_type c_svc
kernel_type rbf
gamma 0.03125
nr_class 2
total_sv 38
rho 2.376850594630304E-5
label 1 -1
nr_sv 19 19
SV
512.0 1:-0.37561541043634405 2:0.9894746361102471 
512.0 1:1.085360861786857 2:0.9894746361102471 
512.0 1:1.085360861786857 2:-0.37561541043634405 
512.0 1:0.7865232799627515 2:0.9894746361102471 
512.0 1:0.7865232799627515 2:-0.37561541043634405 
512.0 1:0.7865232799627515 2:1.085360861786857 
324.8051203913376 1:-0.6702258138982603 2:0.9894746361102471 
512.0 1:-0.6702258138982603 2:-0.37561541043634405 
512.0 1:-0.6702258138982603 2:1.085360861786857 
512.0 1:1.6296216945508333 2:-0.6702258138982603 
1.6950093782145326 1:3.7367861029188703 2:-4.053842099039053 
0.40204840242302375 1:-12.923470856730074 2:-4.053842099039053 
0.16855250740998307 1:-12.923470856730074 2:3.7367861029188703 
1.0444476904822673 1:-12.923470856730074 2:8.787076621880793 
0.518135602594871 1:26.029094537514105 2:1.6296216945508333 
0.7182845435059321 1:26.029094537514105 2:-4.053842099039053 
0.05007253448254683 1:26.029094537514105 2:3.7367861029188703 
0.8686630410788498 1:26.029094537514105 2:8.787076621880793 
0.9376388576865697 1:26.029094537514105 2:-12.923470856730074 
-512.0 1:0.9894746361102471 2:-0.37561541043634405 
-512.0 1:0.9894746361102471 2:1.085360861786857 
-512.0 1:0.9894746361102471 2:0.7865232799627515 
-324.80530191265666 1:0.9894746361102471 2:-0.6702258138982603 
-512.0 1:-0.37561541043634405 2:1.085360861786857 
-512.0 1:-0.37561541043634405 2:0.7865232799627515 
-512.0 1:-0.37561541043634405 2:-0.6702258138982603 
-512.0 1:1.085360861786857 2:0.7865232799627515 
-512.0 1:1.085360861786857 2:-0.6702258138982603 
-512.0 1:-0.6702258138982603 2:1.6296216945508333 
-0.5186848492293867 1:1.6296216945508333 2:26.029094537514105 
-1.6945963895396585 1:-4.053842099039053 2:3.7367861029188703 
-0.4020498087021245 1:-4.053842099039053 2:-12.923470856730074 
-0.718267361089629 1:-4.053842099039053 2:26.029094537514105 
-0.16882613683325146 1:3.7367861029188703 2:-12.923470856730074 
-0.04910958337739298 1:3.7367861029188703 2:26.029094537514105 
-1.0445994143949866 1:8.787076621880793 2:-12.923470856730074 
-0.8686120791895683 1:8.787076621880793 2:26.029094537514105 
-0.9379254142036674 1:-12.923470856730074 2:26.029094537514105 
