svm_type c_svc
kernel_type rbf
gamma 0.03125
nr_class 2
total_sv 70
rho 2.8545691043710706E-6
label 1 -1
nr_sv 35 35
SV
32.0 1:-0.6702258138982603 2:-0.37561541043634405 
14.7605350952899 1:-2.1450136332702776 2:-0.6702258138982603 
2.4952134845341174 1:3.7367861029188703 2:-0.37561541043634405 
5.206680879146764 1:3.7367861029188703 2:-4.053842099039053 
0.5300800164877625 1:8.787076621880793 2:3.7367861029188703 
0.6369062602726463 1:-12.923470856730074 2:-4.053842099039053 
0.691961301465139 1:-12.923470856730074 2:3.7367861029188703 
0.7301199481503821 1:-12.923470856730074 2:8.787076621880793 
0.1850755118021831 1:26.029094537514105 2:-0.37561541043634405 
0.4014547932868482 1:26.029094537514105 2:-4.053842099039053 
0.222536629748985 1:26.029094537514105 2:3.7367861029188703 
0.505140667920498 1:26.029094537514105 2:8.787076621880793 
0.7187526769304476 1:26.029094537514105 2:-12.923470856730074 
0.17441296040333523 1:29.999856977036902 2:-0.37561541043634405 
0.40826281462790187 1:29.999856977036902 2:-4.053842099039053 
0.23198258333825825 1:29.999856977036902 2:3.7367861029188703 
0.5005652927825519 1:29.999856977036902 2:8.787076621880793 
0.7169062212470058 1:29.999856977036902 2:-12.923470856730074 
1.595601116459407 1:29.999856977036902 2:26.029094537514105 
0.27177739148546104 1:-29.112491785066446 2:-0.37561541043634405 
0.6043386812874493 1:-29.112491785066446 2:-4.053842099039053 
0.34592640827321386 1:-29.112491785066446 2:3.7367861029188703 
0.7586112467537637 1:-29.112491785066446 2:8.787076621880793 
1.1067616270114307 1:-29.112491785066446 2:-12.923470856730074 
0.5600417399789606 1:-29.112491785066446 2:26.029094537514105 
0.5609952053487279 1:-29.112491785066446 2:29.999856977036902 
32.0 1:-29.112491785066446 2:-29.076406345123672 
0.24157914380466106 1:-20.24152354047824 2:-0.37561541043634405 
0.5087375084780306 1:-20.24152354047824 2:-4.053842099039053 
0.22064063978060577 1:-20.24152354047824 2:3.7367861029188703 
0.6043625702648528 1:-20.24152354047824 2:8.787076621880793 
0.8975197840633367 1:-20.24152354047824 2:-12.923470856730074 
0.7071228197317078 1:-20.24152354047824 2:26.029094537514105 
0.707788478017625 1:-20.24152354047824 2:29.999856977036902 
1.286997863332377 1:-20.24152354047824 2:-29.076406345123672 
-32.0 1:-0.37561541043634405 2:-0.6702258138982603 
-2.4952667928180152 1:-0.37561541043634405 2:3.7367861029188703 
-0.18505831398690473 1:-0.37561541043634405 2:26.029094537514105 
-0.17536601170857818 1:-0.37561541043634405 2:29.999856977036902 
-0.2715632363953146 1:-0.37561541043634405 2:-29.112491785066446 
-0.24537976887127091 1:-0.37561541043634405 2:-20.24152354047824 
-14.76061451069214 1:-0.6702258138982603 2:-2.1450136332702776 
-5.206221077240899 1:-4.053842099039053 2:3.7367861029188703 
-0.6368535096431086 1:-4.053842099039053 2:-12.923470856730074 
-0.4014128148308001 1:-4.053842099039053 2:26.029094537514105 
-0.40777852415465016 1:-4.053842099039053 2:29.999856977036902 
-0.6044555653711586 1:-4.053842099039053 2:-29.112491785066446 
-0.5063056506440382 1:-4.053842099039053 2:-20.24152354047824 
-0.5303661312629919 1:3.7367861029188703 2:8.787076621880793 
-0.692782973805099 1:3.7367861029188703 2:-12.923470856730074 
-0.22283583168550458 1:3.7367861029188703 2:26.029094537514105 
-0.23118728710439088 1:3.7367861029188703 2:29.999856977036902 
-0.34591889288009103 1:3.7367861029188703 2:-29.112491785066446 
-0.21710514364399647 1:3.7367861029188703 2:-20.24152354047824 
-0.7293295881373376 1:8.787076621880793 2:-12.923470856730074 
-0.5045551921846819 1:8.787076621880793 2:26.029094537514105 
-0.5013618848830532 1:8.787076621880793 2:29.999856977036902 
-0.7587943880246699 1:8.787076621880793 2:-29.112491785066446 
-0.6060847168981021 1:8.787076621880793 2:-20.24152354047824 
-0.71777759654933 1:-12.923470856730074 2:26.029094537514105 
-0.7175844285206123 1:-12.923470856730074 2:29.999856977036902 
-1.1065333972470175 1:-12.923470856730074 2:-29.112491785066446 
-0.897980761916624 1:-12.923470856730074 2:-20.24152354047824 
-1.595601116459407 1:26.029094537514105 2:29.999856977036902 
-0.5601350529124368 1:26.029094537514105 2:-29.112491785066446 
-0.7083782992185343 1:26.029094537514105 2:-20.24152354047824 
-0.5606713720703435 1:29.999856977036902 2:-29.112491785066446 
-0.7070055145864608 1:29.999856977036902 2:-20.24152354047824 
-32.0 1:-29.076406345123672 2:-29.112491785066446 
-1.2871240151587764 1:-29.076406345123672 2:-20.24152354047824 
