svm_type c_svc
kernel_type rbf
gamma 2.0
nr_class 2
total_sv 42
rho -5.513928415830869E-5
label 1 -1
nr_sv 21 21
SV
342.44488009736074 1:-0.10928967470157311 2:0.04301969613371511 
166.89412894255761 1:0.1340325126751054 2:-0.10928967470157311 
903.9528280295751 1:0.6349972270387804 2:0.76003449708438 
8192.0 1:0.6963358283207245 2:0.76003449708438 
8192.0 1:0.6963358283207245 2:0.6349972270387804 
66.20419805728054 1:1.1171826976907875 2:0.6349972270387804 
358.54776579713223 1:1.1171826976907875 2:0.6963358283207245 
0.38125413558706844 1:-1.6175403575197858 2:-0.3844692531783732 
0.15195380381719742 1:-1.6175403575197858 2:0.76003449708438 
0.8866908611062231 1:-1.6175403575197858 2:1.2053705308771612 
0.3045833813697892 1:-3.9192994960847933 2:0.1340325126751054 
0.7333815819980122 1:-3.9192994960847933 2:-0.3844692531783732 
0.303095303421552 1:-3.9192994960847933 2:0.6349972270387804 
0.8063896540534046 1:-3.9192994960847933 2:1.2053705308771612 
0.9644011900089948 1:-3.9192994960847933 2:-1.6175403575197858 
0.3046795164718087 1:7.162892312355133 2:0.1340325126751054 
0.7325937248550841 1:7.162892312355133 2:-0.3844692531783732 
0.30333678633307315 1:7.162892312355133 2:0.6349972270387804 
0.8058693635296812 1:7.162892312355133 2:1.2053705308771612 
0.964408927096753 1:7.162892312355133 2:-1.6175403575197858 
1.0 1:7.162892312355133 2:-3.9192994960847933 
-342.4496120980822 1:0.04301969613371511 2:-0.10928967470157311 
-166.88912864226452 1:-0.10928967470157311 2:0.1340325126751054 
-0.3069214677112973 1:0.1340325126751054 2:-3.9192994960847933 
-0.30730833206914127 1:0.1340325126751054 2:7.162892312355133 
-0.3806169634390925 1:-0.3844692531783732 2:-1.6175403575197858 
-0.7319153004360206 1:-0.3844692531783732 2:-3.9192994960847933 
-0.7311562576726295 1:-0.3844692531783732 2:7.162892312355133 
-903.9543015552587 1:0.76003449708438 2:0.6349972270387804 
-8192.0 1:0.76003449708438 2:0.6963358283207245 
-0.1534613360030246 1:0.76003449708438 2:-1.6175403575197858 
-8192.0 1:0.6349972270387804 2:0.6963358283207245 
-66.1865633002095 1:0.6349972270387804 2:1.1171826976907875 
-0.3011205602628533 1:0.6349972270387804 2:-3.9192994960847933 
-0.3009145518649126 1:0.6349972270387804 2:7.162892312355133 
-358.56375342611864 1:0.6963358283207245 2:1.1171826976907875 
-0.8855792451159595 1:1.2053705308771612 2:-1.6175403575197858 
-0.8073037947950245 1:1.2053705308771612 2:-3.9192994960847933 
-0.8076059710941355 1:1.2053705308771612 2:7.162892312355133 
-0.9646356633135508 1:-1.6175403575197858 2:-3.9192994960847933 
-0.9645406878458795 1:-1.6175403575197858 2:7.162892312355133 
-1.0 1:-3.9192994960847933 2:7.162892312355133 
