svm_type c_svc
kernel_type rbf
gamma 0.125
nr_class 2
total_sv 30
rho -2.317265354412513E-5
label 1 -1
nr_sv 15 15
SV
32768.0 1:-0.1093687262857478 2:-0.058491376925805305 
32768.0 1:0.19729885234896727 2:-0.1093687262857478 
19641.59075289271 1:-0.2314357984123312 2:0.19729885234896727 
0.23524565754170856 1:7.388021229018975 2:-3.761828914337123 
0.8224265461362757 1:7.388021229018975 2:5.2363075948625095 
0.48636182239949094 1:9.369848871888884 2:-0.2314357984123312 
0.524355930864619 1:9.369848871888884 2:2.1927356339901385 
0.7397885243082216 1:9.369848871888884 2:-3.761828914337123 
1.2743282809302658 1:9.369848871888884 2:7.388021229018975 
0.5597599693373703 1:-16.072490166920623 2:-0.2314357984123312 
0.4981715436774297 1:-16.072490166920623 2:2.1927356339901385 
0.8758132736883242 1:-16.072490166920623 2:-3.761828914337123 
0.6995342447447331 1:-16.072490166920623 2:5.2363075948625095 
0.04619013208181884 1:-16.072490166920623 2:7.388021229018975 
0.888778434747172 1:-16.072490166920623 2:9.369848871888884 
-32768.0 1:-0.058491376925805305 2:-0.1093687262857478 
-32768.0 1:-0.1093687262857478 2:0.19729885234896727 
-19641.590989456912 1:0.19729885234896727 2:-0.2314357984123312 
-0.48630748839659554 1:-0.2314357984123312 2:9.369848871888884 
-0.5601771539560761 1:-0.2314357984123312 2:-16.072490166920623 
-0.5240458251013608 1:2.1927356339901385 2:9.369848871888884 
-0.4986203648276255 1:2.1927356339901385 2:-16.072490166920623 
-0.23501033831012552 1:-3.761828914337123 2:7.388021229018975 
-0.7400153546256677 1:-3.761828914337123 2:9.369848871888884 
-0.8756688013887035 1:-3.761828914337123 2:-16.072490166920623 
-0.822519090388098 1:5.2363075948625095 2:7.388021229018975 
-0.6979292913076213 1:5.2363075948625095 2:-16.072490166920623 
-1.2744529270499612 1:7.388021229018975 2:9.369848871888884 
-0.04794695558477291 1:7.388021229018975 2:-16.072490166920623 
-0.8878242053349805 1:9.369848871888884 2:-16.072490166920623 
