svm_type c_svc
kernel_type rbf
gamma 0.0078125
nr_class 2
total_sv 16
rho -1.2626246206862049E-4
label 1 -1
nr_sv 8 8
SV
32768.0 1:-0.1093687262857478 2:-0.058491376925805305 
26266.37724689399 1:-0.2314357984123312 2:-0.058491376925805305 
32768.0 1:-0.2314357984123312 2:-0.1093687262857478 
4200.792010013944 1:2.1927356339901385 2:-0.2314357984123312 
7.326841415422958 1:5.2363075948625095 2:-3.761828914337123 
22.517326879027205 1:10.507135808114988 2:-16.072490166920623 
0.8771397673424489 1:-29.999983062328 2:-16.072490166920623 
5.341846492353645 1:-29.999983062328 2:10.507135808114988 
-32768.0 1:-0.058491376925805305 2:-0.1093687262857478 
-26266.381941387874 1:-0.058491376925805305 2:-0.2314357984123312 
-32768.0 1:-0.1093687262857478 2:-0.2314357984123312 
-4200.788979619548 1:-0.2314357984123312 2:2.1927356339901385 
-7.325007213231146 1:-3.761828914337123 2:5.2363075948625095 
-22.51741316688483 1:-16.072490166920623 2:10.507135808114988 
-0.8770485246182164 1:-16.072490166920623 2:-29.999983062328 
-5.342021549923216 1:10.507135808114988 2:-29.999983062328 
