svm_type c_svc
kernel_type rbf
gamma 0.0078125
nr_class 2
total_sv 34
rho -6.796323478371911E-4
label 1 -1
nr_sv 17 17
SV
32768.0 1:0.9894746361102471 2:0.3478591020898589 
32768.0 1:-0.37561541043634405 2:0.3478591020898589 
32768.0 1:-0.37561541043634405 2:0.9894746361102471 
32768.0 1:0.4391348800449658 2:0.3478591020898589 
32768.0 1:0.4391348800449658 2:0.9894746361102471 
32768.0 1:0.4391348800449658 2:-0.37561541043634405 
32768.0 1:1.085360861786857 2:0.9894746361102471 
32768.0 1:1.085360861786857 2:-0.37561541043634405 
32768.0 1:0.7865232799627515 2:0.3478591020898589 
32768.0 1:0.7865232799627515 2:0.9894746361102471 
32768.0 1:0.7865232799627515 2:-0.37561541043634405 
32768.0 1:0.7865232799627515 2:0.4391348800449658 
32768.0 1:0.7865232799627515 2:1.085360861786857 
2517.153031312772 1:-0.6702258138982603 2:0.9894746361102471 
23060.603464750217 1:-0.6702258138982603 2:-0.37561541043634405 
32768.0 1:-0.6702258138982603 2:1.085360861786857 
865.1062519787961 1:3.7367861029188703 2:-4.053842099039053 
-32768.0 1:0.3478591020898589 2:0.9894746361102471 
-32768.0 1:0.3478591020898589 2:-0.37561541043634405 
-32768.0 1:0.3478591020898589 2:0.4391348800449658 
-32768.0 1:0.3478591020898589 2:0.7865232799627515 
-32768.0 1:0.9894746361102471 2:-0.37561541043634405 
-32768.0 1:0.9894746361102471 2:0.4391348800449658 
-32768.0 1:0.9894746361102471 2:1.085360861786857 
-32768.0 1:0.9894746361102471 2:0.7865232799627515 
-2517.1424173627493 1:0.9894746361102471 2:-0.6702258138982603 
-32768.0 1:-0.37561541043634405 2:0.4391348800449658 
-32768.0 1:-0.37561541043634405 2:1.085360861786857 
-32768.0 1:-0.37561541043634405 2:0.7865232799627515 
-23060.617610798556 1:-0.37561541043634405 2:-0.6702258138982603 
-32768.0 1:0.4391348800449658 2:0.7865232799627515 
-32768.0 1:1.085360861786857 2:0.7865232799627515 
-32768.0 1:1.085360861786857 2:-0.6702258138982603 
-865.1027198805551 1:-4.053842099039053 2:3.7367861029188703 
