svm_type c_svc
kernel_type rbf
gamma 4.8828125E-4
nr_class 2
total_sv 22
rho -1.2877629078974514E-5
label 1 -1
nr_sv 11 11
SV
32768.0 1:-2.1450136332702776 2:-0.6702258138982603 
32768.0 1:-4.053842099039053 2:-0.6702258138982603 
32768.0 1:-4.053842099039053 2:-2.1450136332702776 
32768.0 1:3.7367861029188703 2:-4.053842099039053 
5464.906664683983 1:-12.923470856730074 2:8.787076621880793 
232.92877381991235 1:-29.112491785066446 2:26.029094537514105 
32768.0 1:-29.112491785066446 2:-29.076406345123672 
30147.47684159902 1:-20.24152354047824 2:26.029094537514105 
1961.718993695851 1:-20.24152354047824 2:-29.076406345123672 
5067.6039734571 1:24.784618657304044 2:26.029094537514105 
32768.0 1:24.784618657304044 2:-20.24152354047824 
-32768.0 1:-0.6702258138982603 2:-2.1450136332702776 
-32768.0 1:-0.6702258138982603 2:-4.053842099039053 
-32768.0 1:-2.1450136332702776 2:-4.053842099039053 
-32768.0 1:-4.053842099039053 2:3.7367861029188703 
-5464.903829336077 1:8.787076621880793 2:-12.923470856730074 
-232.9215339305692 1:26.029094537514105 2:-29.112491785066446 
-30147.48600769595 1:26.029094537514105 2:-20.24152354047824 
-5067.603752218833 1:26.029094537514105 2:24.784618657304044 
-32768.0 1:-29.076406345123672 2:-29.112491785066446 
-1961.7201240743761 1:-29.076406345123672 2:-20.24152354047824 
-32768.0 1:-20.24152354047824 2:24.784618657304044 
