svm_type c_svc
kernel_type rbf
gamma 2.0
nr_class 2
total_sv 32
rho 2.3004654158536572E-4
label 1 -1
nr_sv 16 16
SV
512.0 1:-0.08444624253179711 2:-0.041360461262371466 
512.0 1:-0.09084082036968175 2:-0.041360461262371466 
512.0 1:-0.09084082036968175 2:-0.08444624253179711 
512.0 1:0.3374693831494365 2:0.30848551801232477 
328.06101673520106 1:0.3478591020898589 2:0.30848551801232477 
512.0 1:0.3478591020898589 2:0.3374693831494365 
273.802150428453 1:0.9883776027423927 2:0.3478591020898589 
512.0 1:0.9894746361102471 2:0.9883776027423927 
27.364927178434556 1:-0.37561541043634405 2:0.3478591020898589 
366.83205388510913 1:-0.37561541043634405 2:0.9894746361102471 
71.6645849459091 1:0.4391348800449658 2:0.9883776027423927 
512.0 1:0.4391348800449658 2:0.9894746361102471 
151.70874993294993 1:0.4391348800449658 2:-0.37561541043634405 
168.313175977076 1:1.085360861786857 2:0.9894746361102471 
292.70334416489175 1:1.085360861786857 2:-0.37561541043634405 
226.3182573530839 1:1.085360861786857 2:0.4391348800449658 
-512.0 1:-0.041360461262371466 2:-0.08444624253179711 
-512.0 1:-0.041360461262371466 2:-0.09084082036968175 
-512.0 1:-0.08444624253179711 2:-0.09084082036968175 
-512.0 1:0.30848551801232477 2:0.3374693831494365 
-328.0655498827147 1:0.30848551801232477 2:0.3478591020898589 
-512.0 1:0.3374693831494365 2:0.3478591020898589 
-273.77156813381583 1:0.3478591020898589 2:0.9883776027423927 
-27.39569337247457 1:0.3478591020898589 2:-0.37561541043634405 
-512.0 1:0.9883776027423927 2:0.9894746361102471 
-71.65784191751943 1:0.9883776027423927 2:0.4391348800449658 
-366.88070168106873 1:0.9894746361102471 2:-0.37561541043634405 
-512.0 1:0.9894746361102471 2:0.4391348800449658 
-168.30982116382157 1:0.9894746361102471 2:1.085360861786857 
-151.66836550895292 1:-0.37561541043634405 2:0.4391348800449658 
-292.66396052094456 1:-0.37561541043634405 2:1.085360861786857 
-226.35475841979644 1:0.4391348800449658 2:1.085360861786857 
