svm_type c_svc
kernel_type rbf
gamma 0.001953125
nr_class 2
total_sv 20
rho 0.0011820452549637372
label 1 -1
nr_sv 10 10
SV
576.1754971761839 1:7.553374662835111 2:6.455798788890881 
764.5786707894371 1:-12.094532182210965 2:6.455798788890881 
1241.4071575393446 1:-13.99214253266139 2:6.455798788890881 
32768.0 1:-13.99214253266139 2:-12.094532182210965 
16593.856253753955 1:-9.727563153514495 2:-13.99214253266139 
32768.0 1:-9.600990839147766 2:-9.727563153514495 
2251.1925128773887 1:17.112843288294115 2:-16.953814992437934 
4110.993118436932 1:-21.769668034048607 2:23.84748702191598 
2289.4241998209436 1:25.477251012219696 2:-21.769668034048607 
584.7170457674598 1:25.477251012219696 2:-28.746011783192348 
-576.1762543610731 1:6.455798788890881 2:7.553374662835111 
-764.5216410619075 1:6.455798788890881 2:-12.094532182210965 
-1241.4618889071496 1:6.455798788890881 2:-13.99214253266139 
-32768.0 1:-12.094532182210965 2:-13.99214253266139 
-16593.85433322088 1:-13.99214253266139 2:-9.727563153514495 
-32768.0 1:-9.727563153514495 2:-9.600990839147766 
-2251.228923842059 1:-16.953814992437934 2:17.112843288294115 
-4110.793603622154 1:23.84748702191598 2:-21.769668034048607 
-2289.5809792721743 1:-21.769668034048607 2:25.477251012219696 
-584.7268318742699 1:-28.746011783192348 2:25.477251012219696 
