svm_type c_svc
kernel_type rbf
gamma 4.8828125E-4
nr_class 2
total_sv 26
rho -0.0016784726798079195
label 1 -1
nr_sv 13 13
SV
13318.625091993837 1:4.068533672923195 2:-0.2314357984123312 
17211.496143601653 1:-3.761828914337123 2:-0.2314357984123312 
32768.0 1:-3.761828914337123 2:4.068533672923195 
32768.0 1:5.2363075948625095 2:4.068533672923195 
32768.0 1:5.2363075948625095 2:-3.761828914337123 
32768.0 1:10.507135808114988 2:-16.072490166920623 
777.6691493857439 1:-16.7838775177041 2:-3.761828914337123 
32768.0 1:-16.7838775177041 2:-16.072490166920623 
32768.0 1:-14.5865613533547 2:-16.072490166920623 
32768.0 1:-14.5865613533547 2:10.507135808114988 
32768.0 1:-15.388358071944433 2:-16.072490166920623 
4752.931727714924 1:-15.388358071944433 2:10.507135808114988 
32768.0 1:-15.388358071944433 2:-14.5865613533547 
-13318.57484335145 1:-0.2314357984123312 2:4.068533672923195 
-17211.561351355744 1:-0.2314357984123312 2:-3.761828914337123 
-32768.0 1:4.068533672923195 2:-3.761828914337123 
-32768.0 1:4.068533672923195 2:5.2363075948625095 
-32768.0 1:-3.761828914337123 2:5.2363075948625095 
-777.6443337262708 1:-3.761828914337123 2:-16.7838775177041 
-32768.0 1:-16.072490166920623 2:10.507135808114988 
-32768.0 1:-16.072490166920623 2:-16.7838775177041 
-32768.0 1:-16.072490166920623 2:-14.5865613533547 
-32768.0 1:-16.072490166920623 2:-15.388358071944433 
-32768.0 1:10.507135808114988 2:-14.5865613533547 
-4752.941584262725 1:10.507135808114988 2:-15.388358071944433 
-32768.0 1:-14.5865613533547 2:-15.388358071944433 
