svm_type c_svc
kernel_type rbf
gamma 0.03125
nr_class 2
total_sv 26
rho 3.915596021537005E-6
label 1 -1
nr_sv 13 13
SV
512.0 1:0.6349972270387804 2:0.76003449708438 
512.0 1:0.6963358283207245 2:0.76003449708438 
512.0 1:0.6963358283207245 2:0.6349972270387804 
512.0 1:1.1171826976907875 2:0.76003449708438 
246.36682121943673 1:1.1171826976907875 2:0.6963358283207245 
512.0 1:1.2053705308771612 2:1.1171826976907875 
98.57365269829029 1:-1.6175403575197858 2:1.2053705308771612 
1.2202196520705046 1:-10.065338179515383 2:-3.9192994960847933 
6.436921181442896 1:-10.065338179515383 2:8.910989356037682 
5.560930583131694 1:-7.629956741286101 2:-10.065338179515383 
3.7406315890268615 1:10.910202945012998 2:8.910989356037682 
6.288617188796791 1:10.910202945012998 2:-10.065338179515383 
0.6997553533958933 1:10.910202945012998 2:-7.629956741286101 
-512.0 1:0.76003449708438 2:0.6349972270387804 
-512.0 1:0.76003449708438 2:0.6963358283207245 
-512.0 1:0.76003449708438 2:1.1171826976907875 
-512.0 1:0.6349972270387804 2:0.6963358283207245 
-246.36669970134628 1:0.6963358283207245 2:1.1171826976907875 
-512.0 1:1.1171826976907875 2:1.2053705308771612 
-98.57381075152189 1:1.2053705308771612 2:-1.6175403575197858 
-1.2204532567706854 1:-3.9192994960847933 2:-10.065338179515383 
-6.436363772337824 1:8.910989356037682 2:-10.065338179515383 
-3.7406315890268615 1:8.910989356037682 2:10.910202945012998 
-5.560644956787046 1:-10.065338179515383 2:-7.629956741286101 
-6.289391772786324 1:-10.065338179515383 2:10.910202945012998 
-0.6995536650146884 1:-7.629956741286101 2:10.910202945012998 
