svm_type c_svc
kernel_type rbf
gamma 2.0
nr_class 2
total_sv 22
rho -5.658929379239316E-4
label 1 -1
nr_sv 11 11
SV
658.6828915711926 1:-0.08444624253179711 2:-0.041360461262371466 
2048.0 1:-0.09084082036968175 2:-0.08444624253179711 
2048.0 1:0.3478591020898589 2:0.3374693831494365 
1121.708465468179 1:-0.37561541043634405 2:0.9894746361102471 
1102.6353806215088 1:0.4391348800449658 2:0.9894746361102471 
1036.1563480960986 1:1.085360861786857 2:0.9894746361102471 
741.3982966648551 1:1.085360861786857 2:-0.37561541043634405 
838.7500783294682 1:1.085360861786857 2:0.4391348800449658 
417.35948924097914 1:0.7865232799627515 2:-0.37561541043634405 
452.5759439535601 1:0.7865232799627515 2:0.4391348800449658 
513.164909562182 1:0.7865232799627515 2:1.085360861786857 
-658.6843647303091 1:-0.041360461262371466 2:-0.08444624253179711 
-2048.0 1:-0.08444624253179711 2:-0.09084082036968175 
-2048.0 1:0.3374693831494365 2:0.3478591020898589 
-1121.790465395643 1:0.9894746361102471 2:-0.37561541043634405 
-1102.629996623687 1:0.9894746361102471 2:0.4391348800449658 
-1036.157085827288 1:0.9894746361102471 2:1.085360861786857 
-741.3401538952552 1:-0.37561541043634405 2:1.085360861786857 
-417.3334268675766 1:-0.37561541043634405 2:0.7865232799627515 
-838.7523447789428 1:0.4391348800449658 2:1.085360861786857 
-452.57923247635296 1:0.4391348800449658 2:0.7865232799627515 
-513.164732912965 1:1.085360861786857 2:0.7865232799627515 
