svm_type c_svc
kernel_type rbf
gamma 0.001953125
nr_class 2
total_sv 26
rho -1.6745847298843815E-4
label 1 -1
nr_sv 13 13
SV
8192.0 1:-2.1450136332702776 2:-0.6702258138982603 
1649.1091880515146 1:3.7367861029188703 2:-4.053842099039053 
219.52017902265555 1:29.999856977036902 2:8.787076621880793 
8192.0 1:29.999856977036902 2:26.029094537514105 
13.409177209229771 1:-29.112491785066446 2:8.787076621880793 
246.41739229793734 1:-29.112491785066446 2:26.029094537514105 
8192.0 1:-29.112491785066446 2:-29.076406345123672 
256.46948266195596 1:-20.24152354047824 2:26.029094537514105 
75.32420461729441 1:-20.24152354047824 2:-29.076406345123672 
4968.671236320093 1:24.784618657304044 2:26.029094537514105 
5590.906888134603 1:24.784618657304044 2:29.999856977036902 
334.06806858110724 1:24.784618657304044 2:-29.076406345123672 
135.22824499753804 1:24.784618657304044 2:-20.24152354047824 
-8192.0 1:-0.6702258138982603 2:-2.1450136332702776 
-1649.1088290657744 1:-4.053842099039053 2:3.7367861029188703 
-219.518574026927 1:8.787076621880793 2:29.999856977036902 
-13.410293736337913 1:8.787076621880793 2:-29.112491785066446 
-8192.0 1:26.029094537514105 2:29.999856977036902 
-246.4682509504971 1:26.029094537514105 2:-29.112491785066446 
-256.42127602992366 1:26.029094537514105 2:-20.24152354047824 
-4968.683992540415 1:26.029094537514105 2:24.784618657304044 
-5590.894804678462 1:29.999856977036902 2:24.784618657304044 
-8192.0 1:-29.076406345123672 2:-29.112491785066446 
-75.32461812605383 1:-29.076406345123672 2:-20.24152354047824 
-334.0166077698198 1:-29.076406345123672 2:24.784618657304044 
-135.2768149697151 1:-20.24152354047824 2:24.784618657304044 
