svm_type c_svc
kernel_type rbf
gamma 0.0078125
nr_class 2
total_sv 34
rho 1.5925948677093858E-4
label 1 -1
nr_sv 17 17
SV
8192.0 1:-0.37561541043634405 2:0.9894746361102471 
8192.0 1:0.4391348800449658 2:0.9894746361102471 
8192.0 1:0.4391348800449658 2:-0.37561541043634405 
8192.0 1:1.085360861786857 2:0.9894746361102471 
8192.0 1:1.085360861786857 2:-0.37561541043634405 
8192.0 1:1.085360861786857 2:0.4391348800449658 
8192.0 1:0.7865232799627515 2:0.9894746361102471 
8192.0 1:0.7865232799627515 2:-0.37561541043634405 
8192.0 1:0.7865232799627515 2:0.4391348800449658 
8192.0 1:0.7865232799627515 2:1.085360861786857 
8192.0 1:-0.6702258138982603 2:0.9894746361102471 
8192.0 1:-0.6702258138982603 2:-0.37561541043634405 
8192.0 1:-0.6702258138982603 2:1.085360861786857 
3699.9712247640614 1:-0.6702258138982603 2:0.7865232799627515 
6451.194903956448 1:1.6296216945508333 2:-0.6702258138982603 
624.4245053780685 1:3.7367861029188703 2:-4.053842099039053 
55.04573242541112 1:-12.923470856730074 2:8.787076621880793 
-8192.0 1:0.9894746361102471 2:-0.37561541043634405 
-8192.0 1:0.9894746361102471 2:0.4391348800449658 
-8192.0 1:0.9894746361102471 2:1.085360861786857 
-8192.0 1:0.9894746361102471 2:0.7865232799627515 
-8192.0 1:0.9894746361102471 2:-0.6702258138982603 
-8192.0 1:-0.37561541043634405 2:0.4391348800449658 
-8192.0 1:-0.37561541043634405 2:1.085360861786857 
-8192.0 1:-0.37561541043634405 2:0.7865232799627515 
-8192.0 1:-0.37561541043634405 2:-0.6702258138982603 
-8192.0 1:0.4391348800449658 2:1.085360861786857 
-8192.0 1:0.4391348800449658 2:0.7865232799627515 
-8192.0 1:1.085360861786857 2:0.7865232799627515 
-8192.0 1:1.085360861786857 2:-0.6702258138982603 
-3699.9219576425553 1:0.7865232799627515 2:-0.6702258138982603 
-6451.250081432402 1:-0.6702258138982603 2:1.6296216945508333 
-624.4177814308955 1:-4.053842099039053 2:3.7367861029188703 
-55.04654601814366 1:8.787076621880793 2:-12.923470856730074 
