svm_type c_svc
kernel_type rbf
gamma 0.03125
nr_class 2
total_sv 92
rho -1.096877011228029E-5
label 1 -1
nr_sv 46 46
SV
0.8952625137621213 1:3.7367861029188703 2:-2.1450136332702776 
0.2514970400740817 1:8.787076621880793 2:-2.1450136332702776 
0.9206080281089856 1:8.787076621880793 2:3.7367861029188703 
0.765596412245261 1:-12.923470856730074 2:-2.1450136332702776 
0.31166941332800896 1:-12.923470856730074 2:3.7367861029188703 
0.7470111609483676 1:-12.923470856730074 2:8.787076621880793 
0.7840596125789626 1:26.029094537514105 2:-2.1450136332702776 
0.22566374492972763 1:26.029094537514105 2:3.7367861029188703 
0.937933755939408 1:26.029094537514105 2:8.787076621880793 
0.8648007487135781 1:26.029094537514105 2:-12.923470856730074 
41.489773833143055 1:-29.076406345123672 2:26.029094537514105 
0.7242922556574588 1:-29.112491785066446 2:-2.1450136332702776 
0.2941810322252313 1:-29.112491785066446 2:3.7367861029188703 
0.7290348756635611 1:-29.112491785066446 2:8.787076621880793 
1.028704800067666 1:-29.112491785066446 2:-12.923470856730074 
128.0 1:-29.112491785066446 2:26.029094537514105 
128.0 1:-29.112491785066446 2:-29.076406345123672 
0.5283302578334403 1:-20.24152354047824 2:-2.1450136332702776 
0.11656075586721007 1:-20.24152354047824 2:3.7367861029188703 
0.6710751167314624 1:-20.24152354047824 2:8.787076621880793 
0.5933502497142984 1:-20.24152354047824 2:-12.923470856730074 
128.0 1:-20.24152354047824 2:26.029094537514105 
1.4607099776168369 1:-20.24152354047824 2:-29.076406345123672 
32.926375215953705 1:24.784618657304044 2:26.029094537514105 
1.837058438850097 1:24.784618657304044 2:-20.24152354047824 
0.7758256501821367 1:17.636510843888544 2:-2.1450136332702776 
0.1528006467542438 1:17.636510843888544 2:3.7367861029188703 
0.8867493766090828 1:17.636510843888544 2:8.787076621880793 
0.05661616898451648 1:17.636510843888544 2:-12.923470856730074 
74.82469354382901 1:17.636510843888544 2:26.029094537514105 
1.5309981115644344 1:17.636510843888544 2:-20.24152354047824 
56.832929046558405 1:17.636510843888544 2:24.784618657304044 
0.18516859578113734 1:-23.429629991658317 2:-2.1450136332702776 
0.08746318174016254 1:-23.429629991658317 2:3.7367861029188703 
0.15750341513361357 1:-23.429629991658317 2:8.787076621880793 
14.331064502099474 1:-23.429629991658317 2:26.029094537514105 
1.4018994991557436 1:-23.429629991658317 2:-29.076406345123672 
3.2791720179493318 1:-23.429629991658317 2:-20.24152354047824 
120.26641345918276 1:-23.429629991658317 2:24.784618657304044 
128.0 1:25.520983641768048 2:26.029094537514105 
128.0 1:25.520983641768048 2:-29.076406345123672 
42.49593693942612 1:25.520983641768048 2:-29.112491785066446 
128.0 1:25.520983641768048 2:-20.24152354047824 
128.0 1:25.520983641768048 2:24.784618657304044 
128.0 1:25.520983641768048 2:17.636510843888544 
128.0 1:25.520983641768048 2:-23.429629991658317 
-0.8950434336183013 1:-2.1450136332702776 2:3.7367861029188703 
-0.2520329360685659 1:-2.1450136332702776 2:8.787076621880793 
-0.763958782337263 1:-2.1450136332702776 2:-12.923470856730074 
-0.7833525584498842 1:-2.1450136332702776 2:26.029094537514105 
-0.7260992829227924 1:-2.1450136332702776 2:-29.112491785066446 
-0.5320242275879403 1:-2.1450136332702776 2:-20.24152354047824 
-0.7760605162880729 1:-2.1450136332702776 2:17.636510843888544 
-0.18095676093736673 1:-2.1450136332702776 2:-23.429629991658317 
-0.9206219049065485 1:3.7367861029188703 2:8.787076621880793 
-0.3141680569900925 1:3.7367861029188703 2:-12.923470856730074 
-0.2260859163995869 1:3.7367861029188703 2:26.029094537514105 
-0.29119303070515434 1:3.7367861029188703 2:-29.112491785066446 
-0.10982716658528713 1:3.7367861029188703 2:-20.24152354047824 
-0.15265593653917242 1:3.7367861029188703 2:17.636510843888544 
-0.0949442701628766 1:3.7367861029188703 2:-23.429629991658317 
-0.7447730352992281 1:8.787076621880793 2:-12.923470856730074 
-0.9373175258286421 1:8.787076621880793 2:26.029094537514105 
-0.7315660667012814 1:8.787076621880793 2:-29.112491785066446 
-0.6764286065610621 1:8.787076621880793 2:-20.24152354047824 
-0.8869515229704118 1:8.787076621880793 2:17.636510843888544 
-0.15155726174289397 1:8.787076621880793 2:-23.429629991658317 
-0.8644600177814984 1:-12.923470856730074 2:26.029094537514105 
-1.0286686906664781 1:-12.923470856730074 2:-29.112491785066446 
-0.5936746697866152 1:-12.923470856730074 2:-20.24152354047824 
-0.056537800712453984 1:-12.923470856730074 2:17.636510843888544 
-41.48922861916895 1:26.029094537514105 2:-29.076406345123672 
-128.0 1:26.029094537514105 2:-29.112491785066446 
-128.0 1:26.029094537514105 2:-20.24152354047824 
-32.92628498863297 1:26.029094537514105 2:24.784618657304044 
-74.82711584944055 1:26.029094537514105 2:17.636510843888544 
-14.331502017940004 1:26.029094537514105 2:-23.429629991658317 
-128.0 1:26.029094537514105 2:25.520983641768048 
-128.0 1:-29.076406345123672 2:-29.112491785066446 
-1.4607321530046289 1:-29.076406345123672 2:-20.24152354047824 
-1.4025160481625278 1:-29.076406345123672 2:-23.429629991658317 
-128.0 1:-29.076406345123672 2:25.520983641768048 
-42.49595430239925 1:-29.112491785066446 2:25.520983641768048 
-1.8372128942135604 1:-20.24152354047824 2:24.784618657304044 
-1.530885784946742 1:-20.24152354047824 2:17.636510843888544 
-3.279407895100747 1:-20.24152354047824 2:-23.429629991658317 
-128.0 1:-20.24152354047824 2:25.520983641768048 
-56.83078293193727 1:24.784618657304044 2:17.636510843888544 
-120.266199931406 1:24.784618657304044 2:-23.429629991658317 
-128.0 1:24.784618657304044 2:25.520983641768048 
-128.0 1:17.636510843888544 2:25.520983641768048 
-128.0 1:-23.429629991658317 2:25.520983641768048 
