svm_type c_svc
kernel_type rbf
gamma 0.03125
nr_class 2
total_sv 16
rho -1.9554699059979634E-4
label 1 -1
nr_sv 8 8
SV
32768.0 1:0.1340325126751054 2:-0.10928967470157311 
32768.0 1:-0.3844692531783732 2:-0.10928967470157311 
1733.2214991419453 1:-0.3844692531783732 2:0.1340325126751054 
4709.490487169567 1:0.6349972270387804 2:-0.3844692531783732 
32768.0 1:0.6349972270387804 2:0.76003449708438 
32768.0 1:0.6963358283207245 2:0.76003449708438 
32768.0 1:0.6963358283207245 2:0.6349972270387804 
14942.227416983125 1:1.2053705308771612 2:1.1171826976907875 
-32768.0 1:-0.10928967470157311 2:0.1340325126751054 
-32768.0 1:-0.10928967470157311 2:-0.3844692531783732 
-1733.177859825736 1:0.1340325126751054 2:-0.3844692531783732 
-4709.547538131768 1:-0.3844692531783732 2:0.6349972270387804 
-32768.0 1:0.76003449708438 2:0.6349972270387804 
-32768.0 1:0.76003449708438 2:0.6963358283207245 
-32768.0 1:0.6349972270387804 2:0.6963358283207245 
-14942.214005337088 1:1.1171826976907875 2:1.2053705308771612 
