svm_type c_svc
kernel_type rbf
gamma 2.0
nr_class 2
total_sv 24
rho -5.198330571554092E-4
label 1 -1
nr_sv 12 12
SV
658.699578732509 1:-0.08444624253179711 2:-0.041360461262371466 
2048.0 1:-0.09084082036968175 2:-0.08444624253179711 
2048.0 1:0.3478591020898589 2:0.3374693831494365 
2048.0 1:0.9894746361102471 2:0.9883776027423927 
1121.4149041707863 1:-0.37561541043634405 2:0.9894746361102471 
1105.2020212959158 1:0.4391348800449658 2:0.9894746361102471 
1025.1009396649442 1:1.085360861786857 2:0.9894746361102471 
741.122355442515 1:1.085360861786857 2:-0.37561541043634405 
841.0473373706818 1:1.085360861786857 2:0.4391348800449658 
417.24969774044365 1:0.7865232799627515 2:-0.37561541043634405 
453.4744821565198 1:0.7865232799627515 2:0.4391348800449658 
518.2468135023836 1:0.7865232799627515 2:1.085360861786857 
-658.7005052378955 1:-0.041360461262371466 2:-0.08444624253179711 
-2048.0 1:-0.08444624253179711 2:-0.09084082036968175 
-2048.0 1:0.3374693831494365 2:0.3478591020898589 
-2048.0 1:0.9883776027423927 2:0.9894746361102471 
-1121.4475459176087 1:0.9894746361102471 2:-0.37561541043634405 
-1105.2415432438434 1:0.9894746361102471 2:0.4391348800449658 
-1025.1033699314137 1:0.9894746361102471 2:1.085360861786857 
-741.0979314933218 1:-0.37561541043634405 2:1.085360861786857 
-417.24064368282137 1:-0.37561541043634405 2:0.7865232799627515 
-841.0196710571117 1:0.4391348800449658 2:1.085360861786857 
-453.46294564031643 1:0.4391348800449658 2:0.7865232799627515 
-518.2439738723675 1:1.085360861786857 2:0.7865232799627515 
