svm_type c_svc
kernel_type rbf
gamma 0.125
nr_class 2
total_sv 24
rho -3.497349387956631E-5
label 1 -1
nr_sv 12 12
SV
32768.0 1:0.028607659467374015 2:0.007410142643698514 
32768.0 1:-0.058491376925805305 2:0.007410142643698514 
32768.0 1:-0.058491376925805305 2:0.028607659467374015 
32768.0 1:0.07095712870859328 2:0.007410142643698514 
32768.0 1:0.07095712870859328 2:0.028607659467374015 
32768.0 1:0.07095712870859328 2:-0.058491376925805305 
23809.43963470613 1:-0.1093687262857478 2:0.028607659467374015 
32768.0 1:-0.1093687262857478 2:-0.058491376925805305 
32768.0 1:-0.1093687262857478 2:0.07095712870859328 
24430.432578482538 1:0.19729885234896727 2:-0.1093687262857478 
11.072027460544394 1:-3.761828914337123 2:4.068533672923195 
4.491892733833167 1:5.2363075948625095 2:-3.761828914337123 
-32768.0 1:0.007410142643698514 2:0.028607659467374015 
-32768.0 1:0.007410142643698514 2:-0.058491376925805305 
-32768.0 1:0.007410142643698514 2:0.07095712870859328 
-32768.0 1:0.028607659467374015 2:-0.058491376925805305 
-32768.0 1:0.028607659467374015 2:0.07095712870859328 
-23809.427532637423 1:0.028607659467374015 2:-0.1093687262857478 
-32768.0 1:-0.058491376925805305 2:0.07095712870859328 
-32768.0 1:-0.058491376925805305 2:-0.1093687262857478 
-32768.0 1:0.07095712870859328 2:-0.1093687262857478 
-24430.444966475032 1:-0.1093687262857478 2:0.19729885234896727 
-11.069868535396912 1:4.068533672923195 2:-3.761828914337123 
-4.49376573527224 1:-3.761828914337123 2:5.2363075948625095 
