svm_type c_svc
kernel_type rbf
gamma 0.0078125
nr_class 2
total_sv 16
rho -5.457002427400085E-5
label 1 -1
nr_sv 8 8
SV
32768.0 1:-0.1093687262857478 2:-0.058491376925805305 
32768.0 1:-0.2314357984123312 2:-0.1093687262857478 
177.7755129378047 1:4.068533672923195 2:-0.2314357984123312 
718.3850327079799 1:5.2363075948625095 2:-3.761828914337123 
51.313938139510235 1:-16.072490166920623 2:9.369848871888884 
299.00608687227634 1:-29.999983062328 2:-16.072490166920623 
3.745812929205843 1:-16.7838775177041 2:-16.072490166920623 
301.98369597921123 1:-16.7838775177041 2:-29.999983062328 
-32768.0 1:-0.058491376925805305 2:-0.1093687262857478 
-32768.0 1:-0.1093687262857478 2:-0.2314357984123312 
-177.77598246485445 1:-0.2314357984123312 2:4.068533672923195 
-718.3845588637106 1:-3.761828914337123 2:5.2363075948625095 
-51.31390018207595 1:9.369848871888884 2:-16.072490166920623 
-298.9905099208441 1:-16.072490166920623 2:-29.999983062328 
-3.7463485752124193 1:-16.072490166920623 2:-16.7838775177041 
-301.99877955929287 1:-29.999983062328 2:-16.7838775177041 
