svm_type c_svc
kernel_type rbf
gamma 0.5
nr_class 2
total_sv 24
rho -2.8804637141238595E-4
label 1 -1
nr_sv 12 12
SV
32768.0 1:0.3374693831494365 2:0.30848551801232477 
32768.0 1:0.3478591020898589 2:0.3374693831494365 
30173.205976893154 1:-0.37561541043634405 2:0.3478591020898589 
32768.0 1:-0.37561541043634405 2:0.9894746361102471 
32768.0 1:0.4391348800449658 2:0.9894746361102471 
32768.0 1:0.4391348800449658 2:-0.37561541043634405 
32768.0 1:1.085360861786857 2:0.9894746361102471 
21205.17727181126 1:1.085360861786857 2:-0.37561541043634405 
27224.988935255027 1:1.085360861786857 2:0.4391348800449658 
6554.426241317201 1:0.7865232799627515 2:-0.37561541043634405 
10044.575255576101 1:0.7865232799627515 2:0.4391348800449658 
20453.61731986956 1:0.7865232799627515 2:1.085360861786857 
-32768.0 1:0.30848551801232477 2:0.3374693831494365 
-32768.0 1:0.3374693831494365 2:0.3478591020898589 
-30173.20652249647 1:0.3478591020898589 2:-0.37561541043634405 
-32768.0 1:0.9894746361102471 2:-0.37561541043634405 
-32768.0 1:0.9894746361102471 2:0.4391348800449658 
-32768.0 1:0.9894746361102471 2:1.085360861786857 
-32768.0 1:-0.37561541043634405 2:0.4391348800449658 
-21205.184820570375 1:-0.37561541043634405 2:1.085360861786857 
-6554.418119269416 1:-0.37561541043634405 2:0.7865232799627515 
-27224.978982760837 1:0.4391348800449658 2:1.085360861786857 
-10044.584831473236 1:0.4391348800449658 2:0.7865232799627515 
-20453.61772415196 1:1.085360861786857 2:0.7865232799627515 
