svm_type c_svc
kernel_type rbf
gamma 2.0
nr_class 2
total_sv 256
rho -1.7012330031961731E-6
label 1 -1
nr_sv 128 128
SV
2048.0 1:0.041416249864131414 2:0.009082844347327017 
2048.0 1:-0.20754586440611006 2:-0.20710166793659449 
2048.0 1:-0.2083650892557598 2:-0.20710166793659449 
2048.0 1:-0.2083650892557598 2:-0.20754586440611006 
2048.0 1:-0.2165883248307686 2:-0.20710166793659449 
2048.0 1:-0.2165883248307686 2:-0.20754586440611006 
2048.0 1:-0.2165883248307686 2:-0.2083650892557598 
2048.0 1:-0.22283346604717363 2:-0.2165883248307686 
1405.8324676030802 1:-0.22621520753246555 2:-0.2165883248307686 
2048.0 1:-0.22621520753246555 2:-0.22283346604717363 
148.51407650160363 1:0.2824818498118252 2:0.27058759942608157 
52.391601168770514 1:0.3641550370042001 2:-0.9548184279439298 
158.83757640210575 1:-0.8049414160976359 2:-0.9548184279439298 
1.9640639037906211 1:2.0018631573255163 2:-0.9548184279439298 
0.7652625989936972 1:2.0018631573255163 2:0.3641550370042001 
22.684343027821726 1:-1.489378467663247 2:0.3641550370042001 
32.02283381365041 1:-1.489378467663247 2:-0.8049414160976359 
2.160361931229814 1:-1.489378467663247 2:2.0018631573255163 
0.33691250167868275 1:3.428760652145556 2:-0.22621520753246555 
0.7851190501153817 1:3.428760652145556 2:0.3641550370042001 
0.43143588509799313 1:3.428760652145556 2:-0.8049414160976359 
0.9965309981048398 1:3.428760652145556 2:2.0018631573255163 
0.8339299363455628 1:3.428760652145556 2:-1.489378467663247 
0.196894390032933 1:-5.80522387933264 2:-0.22621520753246555 
0.48137332734921673 1:-5.80522387933264 2:0.3641550370042001 
0.2793795552692146 1:-5.80522387933264 2:-0.8049414160976359 
0.5882217526149244 1:-5.80522387933264 2:2.0018631573255163 
0.48168561539507654 1:-5.80522387933264 2:-1.489378467663247 
0.5911361225254953 1:-5.80522387933264 2:3.428760652145556 
0.20165470106888914 1:-6.256298143753835 2:-0.22621520753246555 
0.4783164937870669 1:-6.256298143753835 2:0.3641550370042001 
0.27639669436148584 1:-6.256298143753835 2:-0.8049414160976359 
0.5877840006398032 1:-6.256298143753835 2:2.0018631573255163 
0.48358751820301465 1:-6.256298143753835 2:-1.489378467663247 
0.589821207295642 1:-6.256298143753835 2:3.428760652145556 
1.7957800376866564 1:-6.256298143753835 2:-5.80522387933264 
0.330607139118215 1:-9.343847750654046 2:-0.22621520753246555 
0.8001115300688982 1:-9.343847750654046 2:0.3641550370042001 
0.4637824292425862 1:-9.343847750654046 2:-0.8049414160976359 
0.9795201413293425 1:-9.343847750654046 2:2.0018631573255163 
0.8037756396721706 1:-9.343847750654046 2:-1.489378467663247 
0.983274426335599 1:-9.343847750654046 2:3.428760652145556 
0.5996593708993186 1:-9.343847750654046 2:-5.80522387933264 
0.6008213743555227 1:-9.343847750654046 2:-6.256298143753835 
0.3307151724161391 1:11.323825160179531 2:-0.22621520753246555 
0.8001587909446274 1:11.323825160179531 2:0.3641550370042001 
0.46390244800858665 1:11.323825160179531 2:-0.8049414160976359 
0.9794871950179455 1:11.323825160179531 2:2.0018631573255163 
0.8038150463644617 1:11.323825160179531 2:-1.489378467663247 
0.9833611925528659 1:11.323825160179531 2:3.428760652145556 
0.6007003482520693 1:11.323825160179531 2:-5.80522387933264 
0.599804783887959 1:11.323825160179531 2:-6.256298143753835 
1.0 1:11.323825160179531 2:-9.343847750654046 
0.33019259085575836 1:17.14277530884727 2:-0.22621520753246555 
0.8004674903830084 1:17.14277530884727 2:0.3641550370042001 
0.46439995756008 1:17.14277530884727 2:-0.8049414160976359 
0.9794703435629458 1:17.14277530884727 2:2.0018631573255163 
0.8035985296545145 1:17.14277530884727 2:-1.489378467663247 
0.9833280950741516 1:17.14277530884727 2:3.428760652145556 
0.6010039809629647 1:17.14277530884727 2:-5.80522387933264 
0.5994586185533765 1:17.14277530884727 2:-6.256298143753835 
1.0 1:17.14277530884727 2:-9.343847750654046 
1.0 1:17.14277530884727 2:11.323825160179531 
0.33113619475170736 1:-13.238001000269243 2:-0.22621520753246555 
0.799677599032345 1:-13.238001000269243 2:0.3641550370042001 
0.46412905008986693 1:-13.238001000269243 2:-0.8049414160976359 
0.9794755795308921 1:-13.238001000269243 2:2.0018631573255163 
0.8032703158842748 1:-13.238001000269243 2:-1.489378467663247 
0.9833281326781977 1:-13.238001000269243 2:3.428760652145556 
0.6008224347398714 1:-13.238001000269243 2:-5.80522387933264 
0.5996521131091982 1:-13.238001000269243 2:-6.256298143753835 
1.0 1:-13.238001000269243 2:-9.343847750654046 
0.9999999993347782 1:-13.238001000269243 2:11.323825160179531 
0.9999999994392826 1:-13.238001000269243 2:17.14277530884727 
0.33046608972141334 1:29.8867467047249 2:-0.22621520753246555 
0.7998685367689325 1:29.8867467047249 2:0.3641550370042001 
0.4646465528391495 1:29.8867467047249 2:-0.8049414160976359 
0.9794731389043948 1:29.8867467047249 2:2.0018631573255163 
0.8030910728755319 1:29.8867467047249 2:-1.489378467663247 
0.9833281326768752 1:29.8867467047249 2:3.428760652145556 
0.6011333954671244 1:29.8867467047249 2:-5.80522387933264 
0.5998698423063802 1:29.8867467047249 2:-6.256298143753835 
0.9999999966075113 1:29.8867467047249 2:-9.343847750654046 
0.9999999995628949 1:29.8867467047249 2:11.323825160179531 
0.9999999996293129 1:29.8867467047249 2:17.14277530884727 
1.0000000003326446 1:29.8867467047249 2:-13.238001000269243 
0.3310957930308066 1:-16.48844707471244 2:-0.22621520753246555 
0.7999439860848463 1:-16.48844707471244 2:0.3641550370042001 
0.46352915038666437 1:-16.48844707471244 2:-0.8049414160976359 
0.9794704292293521 1:-16.48844707471244 2:2.0018631573255163 
0.8035350980518036 1:-16.48844707471244 2:-1.489378467663247 
0.9833489302008723 1:-16.48844707471244 2:3.428760652145556 
0.5998608590895286 1:-16.48844707471244 2:-5.80522387933264 
0.6011273592195822 1:-16.48844707471244 2:-6.256298143753835 
0.9999999942033921 1:-16.48844707471244 2:-9.343847750654046 
1.0 1:-16.48844707471244 2:11.323825160179531 
1.0 1:-16.48844707471244 2:17.14277530884727 
1.0 1:-16.48844707471244 2:-13.238001000269243 
1.0000000008838417 1:-16.48844707471244 2:29.8867467047249 
0.3308442517441302 1:-21.309394835943607 2:-0.22621520753246555 
0.7999693332733377 1:-21.309394835943607 2:0.3641550370042001 
0.4642942199479321 1:-21.309394835943607 2:-0.8049414160976359 
0.9794740104031459 1:-21.309394835943607 2:2.0018631573255163 
0.8032404797035892 1:-21.309394835943607 2:-1.489378467663247 
0.983328089139504 1:-21.309394835943607 2:3.428760652145556 
0.6007550310129948 1:-21.309394835943607 2:-5.80522387933264 
0.599690362941642 1:-21.309394835943607 2:-6.256298143753835 
1.0 1:-21.309394835943607 2:-9.343847750654046 
1.0 1:-21.309394835943607 2:11.323825160179531 
1.0 1:-21.309394835943607 2:17.14277530884727 
0.9999999993347108 1:-21.309394835943607 2:-13.238001000269243 
1.0000000002185525 1:-21.309394835943607 2:29.8867467047249 
1.0 1:-21.309394835943607 2:-16.48844707471244 
0.3307934624105173 1:26.604152649969436 2:-0.22621520753246555 
0.8000178097953508 1:26.604152649969436 2:0.3641550370042001 
0.46436394206862563 1:26.604152649969436 2:-0.8049414160976359 
0.9794874707378886 1:26.604152649969436 2:2.0018631573255163 
0.8033436608229962 1:26.604152649969436 2:-1.489378467663247 
0.9832770990683618 1:26.604152649969436 2:3.428760652145556 
0.6007398403852898 1:26.604152649969436 2:-5.80522387933264 
0.599631355706527 1:26.604152649969436 2:-6.256298143753835 
1.0 1:26.604152649969436 2:-9.343847750654046 
1.0 1:26.604152649969436 2:11.323825160179531 
1.0 1:26.604152649969436 2:17.14277530884727 
0.9999999991160908 1:26.604152649969436 2:-13.238001000269243 
1.0 1:26.604152649969436 2:29.8867467047249 
1.0000000004371052 1:26.604152649969436 2:-16.48844707471244 
1.0000000004371052 1:26.604152649969436 2:-21.309394835943607 
-2048.0 1:0.009082844347327017 2:0.041416249864131414 
-2048.0 1:-0.20710166793659449 2:-0.20754586440611006 
-2048.0 1:-0.20710166793659449 2:-0.2083650892557598 
-2048.0 1:-0.20710166793659449 2:-0.2165883248307686 
-2048.0 1:-0.20754586440611006 2:-0.2083650892557598 
-2048.0 1:-0.20754586440611006 2:-0.2165883248307686 
-2048.0 1:-0.2083650892557598 2:-0.2165883248307686 
-2048.0 1:-0.2165883248307686 2:-0.22283346604717363 
-1405.832204618264 1:-0.2165883248307686 2:-0.22621520753246555 
-2048.0 1:-0.22283346604717363 2:-0.22621520753246555 
-0.33745340506855054 1:-0.22621520753246555 2:3.428760652145556 
-0.1961613051985699 1:-0.22621520753246555 2:-5.80522387933264 
-0.2018639820816555 1:-0.22621520753246555 2:-6.256298143753835 
-0.3323981905995827 1:-0.22621520753246555 2:-9.343847750654046 
-0.3304622386039252 1:-0.22621520753246555 2:11.323825160179531 
-0.3306509252823726 1:-0.22621520753246555 2:17.14277530884727 
-0.33065768570967063 1:-0.22621520753246555 2:-13.238001000269243 
-0.33125279216630116 1:-0.22621520753246555 2:29.8867467047249 
-0.3311590093891753 1:-0.22621520753246555 2:-16.48844707471244 
-0.3311994075239746 1:-0.22621520753246555 2:-21.309394835943607 
-0.33109995260154335 1:-0.22621520753246555 2:26.604152649969436 
-148.51442143801557 1:0.27058759942608157 2:0.2824818498118252 
-52.392258462199294 1:-0.9548184279439298 2:0.3641550370042001 
-158.83805207070336 1:-0.9548184279439298 2:-0.8049414160976359 
-1.9641466293862977 1:-0.9548184279439298 2:2.0018631573255163 
-0.7652783290189027 1:0.3641550370042001 2:2.0018631573255163 
-22.683593436826996 1:0.3641550370042001 2:-1.489378467663247 
-0.7842968918450877 1:0.3641550370042001 2:3.428760652145556 
-0.4822288301726027 1:0.3641550370042001 2:-5.80522387933264 
-0.4775002637147711 1:0.3641550370042001 2:-6.256298143753835 
-0.7985963274153536 1:0.3641550370042001 2:-9.343847750654046 
-0.8003204860061228 1:0.3641550370042001 2:11.323825160179531 
-0.7997704432280393 1:0.3641550370042001 2:17.14277530884727 
-0.8001829519158193 1:0.3641550370042001 2:-13.238001000269243 
-0.7994268194040274 1:0.3641550370042001 2:29.8867467047249 
-0.7999465409576977 1:0.3641550370042001 2:-16.48844707471244 
-0.7996168576779781 1:0.3641550370042001 2:-21.309394835943607 
-0.7997565764457559 1:0.3641550370042001 2:26.604152649969436 
-32.02217672382584 1:-0.8049414160976359 2:-1.489378467663247 
-0.4310563124049038 1:-0.8049414160976359 2:3.428760652145556 
-0.28033096018239323 1:-0.8049414160976359 2:-5.80522387933264 
-0.27588694564754185 1:-0.8049414160976359 2:-6.256298143753835 
-0.4629794321343076 1:-0.8049414160976359 2:-9.343847750654046 
-0.46403668819784233 1:-0.8049414160976359 2:11.323825160179531 
-0.46395511649707827 1:-0.8049414160976359 2:17.14277530884727 
-0.46386548227910634 1:-0.8049414160976359 2:-13.238001000269243 
-0.46392711639044987 1:-0.8049414160976359 2:29.8867467047249 
-0.46375200984769177 1:-0.8049414160976359 2:-16.48844707471244 
-0.46358940188296494 1:-0.8049414160976359 2:-21.309394835943607 
-0.46397952447478596 1:-0.8049414160976359 2:26.604152649969436 
-2.1607105067867978 1:2.0018631573255163 2:-1.489378467663247 
-0.9965309981048398 1:2.0018631573255163 2:3.428760652145556 
-0.5872650040101223 1:2.0018631573255163 2:-5.80522387933264 
-0.5885559352351526 1:2.0018631573255163 2:-6.256298143753835 
-0.9796671928446483 1:2.0018631573255163 2:-9.343847750654046 
-0.9794698621579188 1:2.0018631573255163 2:11.323825160179531 
-0.9794703435629458 1:2.0018631573255163 2:17.14277530884727 
-0.9794810674485783 1:2.0018631573255163 2:-13.238001000269243 
-0.9794731389043948 1:2.0018631573255163 2:29.8867467047249 
-0.9794871924276866 1:2.0018631573255163 2:-16.48844707471244 
-0.9794874707455582 1:2.0018631573255163 2:-21.309394835943607 
-0.9794879633700728 1:2.0018631573255163 2:26.604152649969436 
-0.8344159845087523 1:-1.489378467663247 2:3.428760652145556 
-0.48097248622910965 1:-1.489378467663247 2:-5.80522387933264 
-0.4842120230610484 1:-1.489378467663247 2:-6.256298143753835 
-0.8044493178818486 1:-1.489378467663247 2:-9.343847750654046 
-0.8034794081391604 1:-1.489378467663247 2:11.323825160179531 
-0.8035103649437707 1:-1.489378467663247 2:17.14277530884727 
-0.8039053212952763 1:-1.489378467663247 2:-13.238001000269243 
-0.803824124727183 1:-1.489378467663247 2:29.8867467047249 
-0.8033160225353196 1:-1.489378467663247 2:-16.48844707471244 
-0.8039889583123085 1:-1.489378467663247 2:-21.309394835943607 
-0.8038729539620127 1:-1.489378467663247 2:26.604152649969436 
-0.5908493741542338 1:3.428760652145556 2:-5.80522387933264 
-0.5900583041731678 1:3.428760652145556 2:-6.256298143753835 
-0.983328089139504 1:3.428760652145556 2:-9.343847750654046 
-0.9832397601124075 1:3.428760652145556 2:11.323825160179531 
-0.9832437386837977 1:3.428760652145556 2:17.14277530884727 
-0.9832166134248252 1:3.428760652145556 2:-13.238001000269243 
-0.9832370901350549 1:3.428760652145556 2:29.8867467047249 
-0.9833280950741516 1:3.428760652145556 2:-16.48844707471244 
-0.9833281402998747 1:3.428760652145556 2:-21.309394835943607 
-0.9833281400703008 1:3.428760652145556 2:26.604152649969436 
-1.7957800376866564 1:-5.80522387933264 2:-6.256298143753835 
-0.5996580078945055 1:-5.80522387933264 2:-9.343847750654046 
-0.6009239147410108 1:-5.80522387933264 2:11.323825160179531 
-0.600847904726575 1:-5.80522387933264 2:17.14277530884727 
-0.6009219101661566 1:-5.80522387933264 2:-13.238001000269243 
-0.5995842604578845 1:-5.80522387933264 2:29.8867467047249 
-0.5997194203984727 1:-5.80522387933264 2:-16.48844707471244 
-0.6012941014365268 1:-5.80522387933264 2:-21.309394835943607 
-0.6007894746598418 1:-5.80522387933264 2:26.604152649969436 
-0.6007510094341691 1:-6.256298143753835 2:-9.343847750654046 
-0.6001260335599387 1:-6.256298143753835 2:11.323825160179531 
-0.5995832447660996 1:-6.256298143753835 2:17.14277530884727 
-0.5999529261259559 1:-6.256298143753835 2:-13.238001000269243 
-0.6008440113090879 1:-6.256298143753835 2:29.8867467047249 
-0.600710852004229 1:-6.256298143753835 2:-16.48844707471244 
-0.5996557595860046 1:-6.256298143753835 2:-21.309394835943607 
-0.5996671485139831 1:-6.256298143753835 2:26.604152649969436 
-1.0 1:-9.343847750654046 2:11.323825160179531 
-1.0 1:-9.343847750654046 2:17.14277530884727 
-1.0 1:-9.343847750654046 2:-13.238001000269243 
-0.9999999942033921 1:-9.343847750654046 2:29.8867467047249 
-0.9999999939213515 1:-9.343847750654046 2:-16.48844707471244 
-1.0 1:-9.343847750654046 2:-21.309394835943607 
-1.0 1:-9.343847750654046 2:26.604152649969436 
-1.0 1:11.323825160179531 2:17.14277530884727 
-0.9999999993347108 1:11.323825160179531 2:-13.238001000269243 
-0.9999999995533634 1:11.323825160179531 2:29.8867467047249 
-1.0 1:11.323825160179531 2:-16.48844707471244 
-1.0 1:11.323825160179531 2:-21.309394835943607 
-1.0 1:11.323825160179531 2:26.604152649969436 
-0.9999999993347782 1:17.14277530884727 2:-13.238001000269243 
-0.9999999995628949 1:17.14277530884727 2:29.8867467047249 
-1.0 1:17.14277530884727 2:-16.48844707471244 
-1.0 1:17.14277530884727 2:-21.309394835943607 
-1.0 1:17.14277530884727 2:26.604152649969436 
-1.0000000008838417 1:-13.238001000269243 2:29.8867467047249 
-1.0 1:-13.238001000269243 2:-16.48844707471244 
-0.9999999991160908 1:-13.238001000269243 2:-21.309394835943607 
-0.9999999966075113 1:-13.238001000269243 2:26.604152649969436 
-1.0000000004371052 1:29.8867467047249 2:-16.48844707471244 
-1.0000000004371052 1:29.8867467047249 2:-21.309394835943607 
-1.0 1:29.8867467047249 2:26.604152649969436 
-1.0 1:-16.48844707471244 2:-21.309394835943607 
-1.0000000002185525 1:-16.48844707471244 2:26.604152649969436 
-1.0000000003326446 1:-21.309394835943607 2:26.604152649969436 
