svm_type c_svc
kernel_type rbf
gamma 0.0078125
nr_class 2
total_sv 36
rho -9.470940757830333E-5
label 1 -1
nr_sv 18 18
SV
32.0 1:-0.2314357984123312 2:-0.1093687262857478 
7.189473638329203 1:-3.761828914337123 2:-0.2314357984123312 
32.0 1:-3.761828914337123 2:4.068533672923195 
32.0 1:5.2363075948625095 2:4.068533672923195 
30.951263961154755 1:5.2363075948625095 2:-3.761828914337123 
24.104149045942215 1:10.507135808114988 2:9.369848871888884 
32.0 1:10.507135808114988 2:-16.072490166920623 
1.496898050947313 1:-29.999983062328 2:-3.761828914337123 
32.0 1:-29.999983062328 2:-16.072490166920623 
0.8672744881616089 1:-29.999983062328 2:10.507135808114988 
2.8615557504442024 1:-16.7838775177041 2:-3.761828914337123 
32.0 1:-16.7838775177041 2:-16.072490166920623 
16.081140487305017 1:-16.7838775177041 2:10.507135808114988 
22.52335150744254 1:-16.7838775177041 2:-29.999983062328 
32.0 1:-14.5865613533547 2:-16.072490166920623 
16.90703130437706 1:-14.5865613533547 2:10.507135808114988 
9.7324948940593 1:-14.5865613533547 2:-29.999983062328 
10.544839446330322 1:-14.5865613533547 2:-16.7838775177041 
-32.0 1:-0.1093687262857478 2:-0.2314357984123312 
-7.190512229159373 1:-0.2314357984123312 2:-3.761828914337123 
-32.0 1:4.068533672923195 2:-3.761828914337123 
-32.0 1:4.068533672923195 2:5.2363075948625095 
-30.950355729639803 1:-3.761828914337123 2:5.2363075948625095 
-1.4965248683292056 1:-3.761828914337123 2:-29.999983062328 
-2.86139302174384 1:-3.761828914337123 2:-16.7838775177041 
-24.104028512782435 1:9.369848871888884 2:10.507135808114988 
-32.0 1:-16.072490166920623 2:10.507135808114988 
-32.0 1:-16.072490166920623 2:-29.999983062328 
-32.0 1:-16.072490166920623 2:-16.7838775177041 
-32.0 1:-16.072490166920623 2:-14.5865613533547 
-0.8667218741208274 1:10.507135808114988 2:-29.999983062328 
-16.083114621347125 1:10.507135808114988 2:-16.7838775177041 
-16.90520346265249 1:10.507135808114988 2:-14.5865613533547 
-22.519156642747486 1:-29.999983062328 2:-16.7838775177041 
-9.737372077008715 1:-29.999983062328 2:-14.5865613533547 
-10.545089534962255 1:-16.7838775177041 2:-14.5865613533547 
