svm_type c_svc
kernel_type rbf
gamma 8.0
nr_class 2
total_sv 36
rho -2.567272674794541E-5
label 1 -1
nr_sv 18 18
SV
512.0 1:0.017503235780979065 2:0.01461153913354235 
254.4568925744325 1:0.04301969613371511 2:0.01461153913354235 
512.0 1:0.04301969613371511 2:0.017503235780979065 
149.59377149483717 1:-0.10928967470157311 2:0.04301969613371511 
0.31387741102976335 1:0.76003449708438 2:-0.3844692531783732 
0.3531508258271081 1:0.6349972270387804 2:-0.3844692531783732 
280.3780237794596 1:0.6349972270387804 2:0.76003449708438 
512.0 1:0.6963358283207245 2:0.6349972270387804 
16.902005729554617 1:1.1171826976907875 2:0.6349972270387804 
0.48662807134567326 1:1.2053705308771612 2:-0.10928967470157311 
0.6406940189707223 1:1.2053705308771612 2:-0.3844692531783732 
3.356678592395129 1:1.2053705308771612 2:1.1171826976907875 
9.892494312464895E-4 1:-1.6175403575197858 2:0.01461153913354235 
0.8004814327913415 1:-1.6175403575197858 2:0.1340325126751054 
0.9062449554471833 1:-1.6175403575197858 2:-0.3844692531783732 
0.2325619817964628 1:-1.6175403575197858 2:0.76003449708438 
0.620231074650855 1:-1.6175403575197858 2:0.6349972270387804 
0.9067359973370961 1:-1.6175403575197858 2:1.2053705308771612 
-512.0 1:0.01461153913354235 2:0.017503235780979065 
-254.45677944723772 1:0.01461153913354235 2:0.04301969613371511 
-0.005206526309712785 1:0.01461153913354235 2:-1.6175403575197858 
-512.0 1:0.017503235780979065 2:0.04301969613371511 
-149.59398665387366 1:0.04301969613371511 2:-0.10928967470157311 
-0.48630194262972964 1:-0.10928967470157311 2:1.2053705308771612 
-0.7961071603967113 1:0.1340325126751054 2:-1.6175403575197858 
-0.3120728066248388 1:-0.3844692531783732 2:0.76003449708438 
-0.3550299837550538 1:-0.3844692531783732 2:0.6349972270387804 
-0.6412404452723862 1:-0.3844692531783732 2:1.2053705308771612 
-0.90593317948485 1:-0.3844692531783732 2:-1.6175403575197858 
-280.37866616277375 1:0.76003449708438 2:0.6349972270387804 
-0.23020617052915468 1:0.76003449708438 2:-1.6175403575197858 
-512.0 1:0.6349972270387804 2:0.6963358283207245 
-16.901608623148704 1:0.6349972270387804 2:1.1171826976907875 
-0.6229190454377899 1:0.6349972270387804 2:-1.6175403575197858 
-3.3565402913311755 1:1.1171826976907875 2:1.2053705308771612 
-0.906368750501517 1:1.2053705308771612 2:-1.6175403575197858 
