svm_type c_svc
kernel_type rbf
gamma 4.8828125E-4
nr_class 2
total_sv 24
rho -9.307976445298814E-6
label 1 -1
nr_sv 12 12
SV
2048.0 1:0.6349972270387804 2:0.76003449708438 
1841.996135594401 1:-3.9192994960847933 2:0.6349972270387804 
2048.0 1:7.162892312355133 2:-3.9192994960847933 
1830.8338269246567 1:8.910989356037682 2:7.162892312355133 
2048.0 1:-10.065338179515383 2:8.910989356037682 
2048.0 1:-7.629956741286101 2:7.162892312355133 
2048.0 1:-7.629956741286101 2:8.910989356037682 
2048.0 1:-7.629956741286101 2:-10.065338179515383 
2048.0 1:10.910202945012998 2:-10.065338179515383 
2048.0 1:9.747076531592953 2:8.910989356037682 
2048.0 1:9.747076531592953 2:-10.065338179515383 
2048.0 1:9.747076531592953 2:10.910202945012998 
-2048.0 1:0.76003449708438 2:0.6349972270387804 
-1841.993954714204 1:0.6349972270387804 2:-3.9192994960847933 
-2048.0 1:-3.9192994960847933 2:7.162892312355133 
-1830.8360078048543 1:7.162892312355133 2:8.910989356037682 
-2048.0 1:7.162892312355133 2:-7.629956741286101 
-2048.0 1:8.910989356037682 2:-10.065338179515383 
-2048.0 1:8.910989356037682 2:-7.629956741286101 
-2048.0 1:8.910989356037682 2:9.747076531592953 
-2048.0 1:-10.065338179515383 2:-7.629956741286101 
-2048.0 1:-10.065338179515383 2:10.910202945012998 
-2048.0 1:-10.065338179515383 2:9.747076531592953 
-2048.0 1:10.910202945012998 2:9.747076531592953 
