svm_type c_svc
kernel_type rbf
gamma 0.0078125
nr_class 2
total_sv 114
rho 0.0017239263831904785
label 1 -1
nr_sv 57 57
SV
512.0 1:-0.44173189842962035 2:6.733160540982988 3:2.082460906038315 4:4.879499091158923 
512.0 1:-0.05041150150821405 2:6.613229648113386 3:2.082460906038315 4:4.879499091158923 
512.0 1:-0.05041150150821405 2:6.613229648113386 3:-0.44173189842962035 4:6.733160540982988 
512.0 1:-1.7769797139881827 2:5.687977381696811 3:2.082460906038315 4:4.879499091158923 
512.0 1:-1.7769797139881827 2:5.687977381696811 3:-2.624923582600532 4:6.773065135295273 
243.6660226256968 1:-4.8169330515539865 2:13.527597778377675 3:2.082460906038315 4:4.879499091158923 
25.4912210591485 1:-4.8169330515539865 2:13.527597778377675 3:-2.624923582600532 4:6.773065135295273 
512.0 1:-4.8169330515539865 2:13.527597778377675 3:-1.7769797139881827 4:5.687977381696811 
390.5563565387808 1:5.691417779295103 2:-1.075590270299247 3:2.082460906038315 4:4.879499091158923 
238.7163236109435 1:5.691417779295103 2:-1.075590270299247 3:-1.7769797139881827 4:5.687977381696811 
300.17155729163954 1:12.865578608283666 2:8.948601837093733 3:2.082460906038315 4:4.879499091158923 
183.1114876902845 1:12.865578608283666 2:8.948601837093733 3:-1.7769797139881827 4:5.687977381696811 
53.72212080669343 1:12.865578608283666 2:8.948601837093733 3:-4.8169330515539865 4:13.527597778377675 
76.73786839543759 1:12.865578608283666 2:8.948601837093733 3:5.691417779295103 4:-1.075590270299247 
279.0646709416664 1:0.45911018724017083 2:2.8334383307492654 3:2.082460906038315 4:4.879499091158923 
512.0 1:0.45911018724017083 2:2.8334383307492654 3:-2.624923582600532 4:6.773065135295273 
512.0 1:0.45911018724017083 2:2.8334383307492654 3:-1.7769797139881827 4:5.687977381696811 
409.57707254235174 1:0.45911018724017083 2:2.8334383307492654 3:-4.8169330515539865 4:13.527597778377675 
512.0 1:0.45911018724017083 2:2.8334383307492654 3:5.691417779295103 4:-1.075590270299247 
338.14190651532044 1:0.45911018724017083 2:2.8334383307492654 3:12.865578608283666 4:8.948601837093733 
479.3136914827665 1:0.5259442840645701 2:2.50307404018256 3:-2.624923582600532 4:6.773065135295273 
512.0 1:0.5259442840645701 2:2.50307404018256 3:0.45911018724017083 4:2.8334383307492654 
374.9781739109434 1:0.856793463049776 2:1.3459569448040014 3:0.5259442840645701 4:2.50307404018256 
360.931564835249 1:-0.7778921610527467 2:3.5058792635967677 3:-4.8169330515539865 4:13.527597778377675 
130.83868337458776 1:-0.7778921610527467 2:3.5058792635967677 3:5.691417779295103 4:-1.075590270299247 
512.0 1:-0.7778921610527467 2:3.5058792635967677 3:0.45911018724017083 4:2.8334383307492654 
512.0 1:-0.7778921610527467 2:3.5058792635967677 3:0.5259442840645701 4:2.50307404018256 
512.0 1:-0.7778921610527467 2:3.5058792635967677 3:0.856793463049776 4:1.3459569448040014 
136.75421490518565 1:5.77165942484968 2:4.9727033550895605 3:-2.624923582600532 4:6.773065135295273 
108.58546954609355 1:5.77165942484968 2:4.9727033550895605 3:-4.8169330515539865 4:13.527597778377675 
81.61379140827346 1:5.77165942484968 2:4.9727033550895605 3:5.691417779295103 4:-1.075590270299247 
34.16169182900833 1:5.77165942484968 2:4.9727033550895605 3:12.865578608283666 4:8.948601837093733 
512.0 1:5.77165942484968 2:4.9727033550895605 3:0.856793463049776 4:1.3459569448040014 
387.6648005314362 1:5.77165942484968 2:4.9727033550895605 3:-0.7778921610527467 4:3.5058792635967677 
512.0 1:5.77165942484968 2:4.9727033550895605 3:7.88332284189519 4:6.191079882153268 
118.02014872865796 1:4.345624529930019 2:-4.4742734233556565 3:0.856793463049776 4:1.3459569448040014 
47.31440452990405 1:4.345624529930019 2:-4.4742734233556565 3:7.88332284189519 4:6.191079882153268 
12.937389193292944 1:8.897450202242831 2:9.30117226509248 3:-4.8169330515539865 4:13.527597778377675 
512.0 1:8.34158486645778 2:9.063766339069305 3:8.897450202242831 4:9.30117226509248 
291.72447067999616 1:-4.999441509519939 2:10.261312816405342 3:-4.8169330515539865 4:13.527597778377675 
51.36626696917202 1:-4.999441509519939 2:10.261312816405342 3:5.691417779295103 4:-1.075590270299247 
512.0 1:-4.999441509519939 2:10.261312816405342 3:0.856793463049776 4:1.3459569448040014 
153.24783283588317 1:-4.999441509519939 2:10.261312816405342 3:-0.7778921610527467 4:3.5058792635967677 
1.4004541210090014 1:-4.999441509519939 2:10.261312816405342 3:4.345624529930019 4:-4.4742734233556565 
46.740595583352444 1:-4.999441509519939 2:10.261312816405342 3:8.897450202242831 4:9.30117226509248 
512.0 1:-4.999441509519939 2:10.261312816405342 3:8.34158486645778 4:9.063766339069305 
300.11797004102175 1:-1.4453497580475938 2:1.3262623972771337 3:8.34158486645778 4:9.063766339069305 
46.48148305112349 1:3.3281731220782262 2:10.139625851195307 3:4.345624529930019 4:-4.4742734233556565 
279.29734597214343 1:3.3281731220782262 2:10.139625851195307 3:8.34158486645778 4:9.063766339069305 
178.53591557475747 1:3.3281731220782262 2:10.139625851195307 3:-1.4453497580475938 4:1.3262623972771337 
512.0 1:5.818387823551415 2:9.340872572020169 3:-4.999441509519939 4:10.261312816405342 
512.0 1:5.818387823551415 2:9.340872572020169 3:3.3281731220782262 4:10.139625851195307 
0.10037388378479103 1:12.30029250664289 2:14.35760299665371 3:-4.8169330515539865 4:13.527597778377675 
52.808137653115054 1:12.30029250664289 2:14.35760299665371 3:-1.4453497580475938 4:1.3262623972771337 
80.75929511938904 1:12.30029250664289 2:14.35760299665371 3:5.818387823551415 4:9.340872572020169 
66.25791322321597 1:5.202582968851425 2:11.063656282890197 3:12.30029250664289 4:14.35760299665371 
200.57631710992655 1:-2.1071096016208735 2:-1.180846753432525 3:-2.343675850255067 4:-0.6190066133766887 
-512.0 1:2.082460906038315 2:4.879499091158923 3:-0.44173189842962035 4:6.733160540982988 
-512.0 1:2.082460906038315 2:4.879499091158923 3:-0.05041150150821405 4:6.613229648113386 
-512.0 1:2.082460906038315 2:4.879499091158923 3:-1.7769797139881827 4:5.687977381696811 
-244.2067352760942 1:2.082460906038315 2:4.879499091158923 3:-4.8169330515539865 4:13.527597778377675 
-390.6464462184058 1:2.082460906038315 2:4.879499091158923 3:5.691417779295103 4:-1.075590270299247 
-300.1846750541123 1:2.082460906038315 2:4.879499091158923 3:12.865578608283666 4:8.948601837093733 
-279.03260489680656 1:2.082460906038315 2:4.879499091158923 3:0.45911018724017083 4:2.8334383307492654 
-512.0 1:-0.44173189842962035 2:6.733160540982988 3:-0.05041150150821405 4:6.613229648113386 
-512.0 1:-2.624923582600532 2:6.773065135295273 3:-1.7769797139881827 4:5.687977381696811 
-24.80496351254454 1:-2.624923582600532 2:6.773065135295273 3:-4.8169330515539865 4:13.527597778377675 
-512.0 1:-2.624923582600532 2:6.773065135295273 3:0.45911018724017083 4:2.8334383307492654 
-479.37483200536485 1:-2.624923582600532 2:6.773065135295273 3:0.5259442840645701 4:2.50307404018256 
-136.73903596458067 1:-2.624923582600532 2:6.773065135295273 3:5.77165942484968 4:4.9727033550895605 
-512.0 1:-1.7769797139881827 2:5.687977381696811 3:-4.8169330515539865 4:13.527597778377675 
-238.5016876596328 1:-1.7769797139881827 2:5.687977381696811 3:5.691417779295103 4:-1.075590270299247 
-183.10081891072 1:-1.7769797139881827 2:5.687977381696811 3:12.865578608283666 4:8.948601837093733 
-512.0 1:-1.7769797139881827 2:5.687977381696811 3:0.45911018724017083 4:2.8334383307492654 
-53.74816748744279 1:-4.8169330515539865 2:13.527597778377675 3:12.865578608283666 4:8.948601837093733 
-408.01580332478164 1:-4.8169330515539865 2:13.527597778377675 3:0.45911018724017083 4:2.8334383307492654 
-362.52875754436116 1:-4.8169330515539865 2:13.527597778377675 3:-0.7778921610527467 4:3.5058792635967677 
-108.48874079234888 1:-4.8169330515539865 2:13.527597778377675 3:5.77165942484968 4:4.9727033550895605 
-12.88194493710586 1:-4.8169330515539865 2:13.527597778377675 3:8.897450202242831 4:9.30117226509248 
-291.90244581708777 1:-4.8169330515539865 2:13.527597778377675 3:-4.999441509519939 4:10.261312816405342 
-0.10373012611536635 1:-4.8169330515539865 2:13.527597778377675 3:12.30029250664289 4:14.35760299665371 
-76.74386352827003 1:5.691417779295103 2:-1.075590270299247 3:12.865578608283666 4:8.948601837093733 
-512.0 1:5.691417779295103 2:-1.075590270299247 3:0.45911018724017083 4:2.8334383307492654 
-130.94242961891118 1:5.691417779295103 2:-1.075590270299247 3:-0.7778921610527467 4:3.5058792635967677 
-81.57388413602305 1:5.691417779295103 2:-1.075590270299247 3:5.77165942484968 4:4.9727033550895605 
-51.50935921312109 1:5.691417779295103 2:-1.075590270299247 3:-4.999441509519939 4:10.261312816405342 
-338.14383042182203 1:12.865578608283666 2:8.948601837093733 3:0.45911018724017083 4:2.8334383307492654 
-34.15574906058621 1:12.865578608283666 2:8.948601837093733 3:5.77165942484968 4:4.9727033550895605 
-512.0 1:0.45911018724017083 2:2.8334383307492654 3:0.5259442840645701 4:2.50307404018256 
-512.0 1:0.45911018724017083 2:2.8334383307492654 3:-0.7778921610527467 4:3.5058792635967677 
-374.9794095817847 1:0.5259442840645701 2:2.50307404018256 3:0.856793463049776 4:1.3459569448040014 
-512.0 1:0.5259442840645701 2:2.50307404018256 3:-0.7778921610527467 4:3.5058792635967677 
-512.0 1:0.856793463049776 2:1.3459569448040014 3:-0.7778921610527467 4:3.5058792635967677 
-512.0 1:0.856793463049776 2:1.3459569448040014 3:5.77165942484968 4:4.9727033550895605 
-118.00616963420643 1:0.856793463049776 2:1.3459569448040014 3:4.345624529930019 4:-4.4742734233556565 
-512.0 1:0.856793463049776 2:1.3459569448040014 3:-4.999441509519939 4:10.261312816405342 
-387.6723339383482 1:-0.7778921610527467 2:3.5058792635967677 3:5.77165942484968 4:4.9727033550895605 
-153.19787866097204 1:-0.7778921610527467 2:3.5058792635967677 3:-4.999441509519939 4:10.261312816405342 
-512.0 1:7.88332284189519 2:6.191079882153268 3:5.77165942484968 4:4.9727033550895605 
-47.29383447747166 1:7.88332284189519 2:6.191079882153268 3:4.345624529930019 4:-4.4742734233556565 
-1.4011705214499137 1:4.345624529930019 2:-4.4742734233556565 3:-4.999441509519939 4:10.261312816405342 
-46.50950092615229 1:4.345624529930019 2:-4.4742734233556565 3:3.3281731220782262 4:10.139625851195307 
-512.0 1:8.897450202242831 2:9.30117226509248 3:8.34158486645778 4:9.063766339069305 
-46.75150786478632 1:8.897450202242831 2:9.30117226509248 3:-4.999441509519939 4:10.261312816405342 
-512.0 1:8.34158486645778 2:9.063766339069305 3:-4.999441509519939 4:10.261312816405342 
-300.1292264109077 1:8.34158486645778 2:9.063766339069305 3:-1.4453497580475938 4:1.3262623972771337 
-279.3047415119327 1:8.34158486645778 2:9.063766339069305 3:3.3281731220782262 4:10.139625851195307 
-512.0 1:-4.999441509519939 2:10.261312816405342 3:5.818387823551415 4:9.340872572020169 
-178.52409485585764 1:-1.4453497580475938 2:1.3262623972771337 3:3.3281731220782262 4:10.139625851195307 
-52.80167474329711 1:-1.4453497580475938 2:1.3262623972771337 3:12.30029250664289 4:14.35760299665371 
-512.0 1:3.3281731220782262 2:10.139625851195307 3:5.818387823551415 4:9.340872572020169 
-80.75227188661543 1:5.818387823551415 2:9.340872572020169 3:12.30029250664289 4:14.35760299665371 
-66.25941431520583 1:12.30029250664289 2:14.35760299665371 3:5.202582968851425 4:11.063656282890197 
-200.57126927602692 1:-2.343675850255067 2:-0.6190066133766887 3:-2.1071096016208735 4:-1.180846753432525 
