svm_type epsilon_svr
kernel_type rbf
gamma 0.5
nr_class 2
total_sv 99
rho -9.017798942575022
SV
0.9741076481652351 1:-0.568662897650029 2:0.4909361704616231 3:-0.9639973573487453 4:0.26645477806585083 5:-0.20977226169249863 6:0.5154039681979938 7:0.2028528883230143 8:0.19692607203002477 9:0.022663571417015582 10:-0.31603538743688364 
0.9617438041362798 1:0.13716214735356913 2:0.3023977872193173 3:0.5371790723656917 4:-0.3533536195380249 5:0.9210533447814613 6:-0.5198080982311396 7:-0.827790625776181 8:0.48722699041768314 9:0.5805767907155486 10:-0.06765460395443013 
-0.27499704374536876 1:-0.29388754774880654 2:0.8391640505465345 3:0.21012625706057597 4:0.12298715305798136 5:-0.6079614555132931 6:-0.2620050530883625 7:0.8917809200243914 8:-0.1404608523507067 9:0.10474405930256525 10:-0.2478394167302418 
-1.1034193873975817 1:-0.38267580271042745 2:0.976875464508939 3:1.0 4:0.25745580623985354 5:0.41002799278373514 6:0.8245481457515544 7:1.0 8:-0.6890984206879057 9:1.0 10:-0.787966844310328 
-1.6635175099697344 1:-0.2777464573141427 2:0.9606890760840627 3:-0.4303899227561153 4:0.1551072420053523 5:-0.5014723346515044 6:0.9730037906612274 7:-0.039564244320347 8:-0.3537223565693919 9:-0.6704703262644081 10:0.6092318987942096 
-3.0089088319194883 1:-0.6625643500272325 2:-0.19418734848035535 3:0.5092307948132477 4:0.76565853841875 5:-0.4393821807314163 6:-0.650915025801682 7:-0.6976390532299869 8:-0.14408281746356177 9:0.29843551728702167 10:-0.5687395686081393 
0.6383423400374003 1:-0.5781936908896939 2:0.3519323052908885 3:-0.24572641776557513 4:0.8038227864127405 5:0.6011251991047168 6:-0.9779558922609515 7:-0.4290134555060462 8:-0.6432134742300453 9:-0.9523355254026868 10:0.18741197873539006 
-1.8704013362118093 1:0.43387607183021437 2:0.9324256052046125 3:0.1590857649735058 4:0.0474583710170271 5:-0.26223685815789866 6:0.18538532247735495 7:-0.6132156839895149 8:-0.9760323843667561 9:-0.8208151770521867 10:-0.6486235942932244 
-0.526016695133805 1:0.2957332486867381 2:-0.022737442081833814 3:0.4665137246854032 4:-0.8180818775782046 5:0.8415651511294018 6:0.6539903650946388 7:-0.15167154107099834 8:-0.6915440374545542 9:0.6405579781564239 10:0.5806115205125046 
-0.734513066634565 1:-0.031515072825112234 2:0.7385748004810919 3:0.6756895169108821 4:-0.9896524088270224 5:0.3149471451652164 6:-0.2072478697777288 7:-0.5213629247846099 8:-0.4416794191868083 9:0.6371348454531083 10:0.3128137075003099 
1.6171687914613597 1:0.1344605272879109 2:-0.7880554572286417 3:0.687493662493752 4:0.034128317632105 5:-0.18664706354439087 6:-0.7421739003808135 7:-0.004249234420095838 8:0.08033000683658109 9:-0.9016532398132944 10:-0.9982186770183942 
0.22503302401049957 1:-0.7209350571932803 2:0.7973524390615558 3:-0.7916963646856401 4:-0.3538642992186607 5:-0.755973203230823 6:0.7252089189274169 7:0.5402118126708657 8:0.8732919365336382 9:0.5168424817297483 10:-0.4196074633383211 
0.30043690524372957 1:0.2748226859847087 2:-0.23424350731630827 3:-1.0 4:0.6179874854298402 5:0.8427446419302789 6:0.47349184415292167 7:0.8278842737714567 8:0.5347495162495628 9:-0.11079521744788268 10:0.2860035927781428 
5.20935012118538 1:-0.5422561040697313 2:-0.4607859384149463 3:-0.7183548243775701 4:0.9249971565962669 5:0.37415416866798235 6:-0.7468734408819444 7:0.4916971142576614 8:-0.38089262146430125 9:0.22401114898695718 10:-0.12857276741995072 
2.3810780857802913 1:-0.37762638614869315 2:0.7756892921371032 3:-0.7173671445669993 4:-0.9921053812412753 5:-0.972910318780888 6:-0.41682931605649853 7:-0.9555947792116695 8:0.6340718910410774 9:0.014367459423232587 10:-0.8535804774018828 
2.7475910395124266 1:0.8382130048495 2:0.45072781500701065 3:-0.15745056313585104 4:0.1756038383963574 5:0.6545682823642636 6:0.44088809869216683 7:-0.7418973507395767 8:0.46694496910411054 9:0.013422683136542268 10:0.9472662592512213 
-0.5703440145750664 1:-0.23089455809554427 2:-0.06500298948193783 3:-0.7292619893797299 4:0.7248445949510833 5:0.8891450581954918 6:0.6264958986049802 7:0.5116362926504896 8:0.8994997915905198 9:-0.876683090575323 10:-0.7070361189908085 
-1.5621855590020826 1:-0.7428623377667658 2:0.569551838324674 3:-0.40500922765227354 4:-0.3551238591982875 5:-0.561598637684006 6:-0.5803631443742581 7:-0.3859603173647739 8:-0.4383671509940995 9:0.8340205197397073 10:-0.893529701684957 
-1.9151691280516472 1:0.8844976866612424 2:-0.1556544216764273 3:0.1346180944476283 4:0.5468601548107019 5:-0.23817300644364425 6:0.21216581841052262 7:-0.8785163174158892 8:-0.976216429865117 9:-0.6151774493433608 10:0.6391186663618464 
-1.0425725027568298 1:-0.8648875998312809 2:0.3607995598845255 3:0.23874704682586723 4:0.6014086530228715 5:0.21948613481506007 6:-0.07280062864465175 7:-0.47475408666122165 8:-0.11604304770751817 9:0.9169840693591316 10:0.37146048745070703 
-1.0739490597523582 1:0.34978263794560926 2:0.893589924555438 3:0.025090681197605935 4:1.0 5:-0.7809916946255727 6:-0.46655375344324324 7:0.963946898405883 8:-0.21715636559621188 9:-0.7598908266201332 10:0.30465503356906276 
2.4382917175114334 1:-0.9159907543861443 2:-0.37940023824883884 3:-0.9657540915411581 4:0.9883172196495271 5:0.4440475462342175 6:0.8133305438059331 7:0.017625959924323142 8:-0.4430472403019555 9:0.8472197242993627 10:-0.4155724053723886 
0.15460385557612974 1:0.9198450055638137 2:0.12691011333666302 3:-0.17768098827386758 4:-0.3786765301999987 5:-0.7586029499275476 6:-0.9480787176206215 7:-0.0665081802099885 8:-0.7476722172326303 9:-0.5886749854191768 10:-0.2958511642888423 
1.4843885461938446 1:-0.9558875397029675 2:0.9229406199392467 3:-0.72532963230164 4:-0.9889035955782619 5:0.7560619881660366 6:-0.9140678597884158 7:0.9199960496255664 8:0.7705082452206669 9:-0.1498802090154736 10:0.6671120439986364 
3.7674250062495314 1:0.706522031854804 2:-0.702094132052688 3:0.7813566894426762 4:0.23021301337251265 5:0.3818250823499394 6:0.07953013109003249 7:-0.39605655154085406 8:-0.6285191192487645 9:-0.7018790637697239 10:0.8570929009920694 
3.4615975482780916 1:-0.047071891660374954 2:-0.5626020202141981 3:0.5877548220420588 4:-0.5798585695974703 5:0.15097820779559856 6:-0.21769612904561408 7:0.030608258613765482 8:-0.9053860864415813 9:0.30558854760148946 10:0.33374951331420344 
-0.9666567359540934 1:0.15113108533163588 2:0.8569702806295783 3:-0.37007487733453515 4:0.25701441909780054 5:-0.9402018974339482 6:0.47212884656490406 7:-0.8413910955512992 8:0.1829691373891773 9:0.14084408904762546 10:0.06258065443815508 
-0.1543971949895449 1:-0.4093279357673566 2:0.4616834777019685 3:-0.1888182674365505 4:-0.8958569681590547 5:0.04338946274682787 6:-0.3345458632603696 7:0.8840667852878621 8:0.7956511460150049 9:-0.994186812272748 10:0.41263669654885415 
-0.6163206028824838 1:0.7420417370878458 2:0.16291155849315664 3:0.8340411460289181 4:0.2879538944457263 5:-0.48520981519060324 6:0.8122697231240001 7:-0.3321946999856391 8:-0.5447979471596507 9:-0.1555892278013581 10:-0.22446809436140414 
1.5830825638092023 1:0.7791576245381411 2:0.7159838313852958 3:-0.8077413250264551 4:0.368714187147841 5:0.2208083838567474 6:-0.10514134993694269 7:0.8511180460565697 8:0.8869727224562525 9:0.9218381670731364 10:1.0 
0.5321413422733003 1:-0.9864409178883283 2:-0.47267731623706244 3:0.12099126584061737 4:0.9258635293581607 5:0.5723068551765178 6:0.06498932100696875 7:0.07982095110645293 8:0.0830402961027783 9:-0.8236150992094241 10:-0.7163438280933379 
3.8862370632069014 1:-0.33013716319335706 2:-0.15947401965464758 3:7.930263652164982E-4 4:-0.0668887465474638 5:0.579068832819569 6:0.7228786230448967 7:0.8832416961694673 8:-0.6117686570210852 9:0.5936404913573985 10:0.45604488640214313 
-0.1595001147922922 1:-0.731718980365737 2:0.5066157675145522 3:0.24899296560841622 4:0.7690535981236957 5:0.7003298312863644 6:0.5449863684613003 7:-0.08766343478939975 8:-0.7709508164058516 9:0.08140125477111804 10:-0.2612869290461143 
-0.47400153046408394 1:0.4051428046234744 2:0.8569471846855361 3:0.36829764732027503 4:-0.34288553900759056 5:-0.7212158260897903 6:0.9394546077486023 7:0.6622716638436743 8:-0.4111215298025942 9:-0.8870495534609677 10:-0.19151122236988438 
-5.421054952505413 1:-0.18301424272562716 2:-0.00859300114349315 3:0.9456427198978452 4:-0.5042368308497724 5:0.10735109035682044 6:0.2401567222156893 7:0.3540899717335546 8:-0.37361869740618436 9:0.12586967462793974 10:0.499609345430035 
1.8859281446884746 1:-0.528627270857407 2:0.04271717490741089 3:0.1331506715949251 4:0.6570851239480404 5:-0.5752452895192313 6:0.7494572682785492 7:0.9276090152308905 8:0.7758193500303223 9:0.13608966011077572 10:-0.3092327991766042 
0.33270529388394277 1:-0.41834420724217813 2:0.2750823365206241 3:0.4479998664726612 4:-0.9884091722935738 5:0.0010593868853672195 6:-0.9412351372531402 7:-1.0 8:-0.635686552142228 9:-0.4910349134540126 10:-0.07141996078178059 
2.2926766953693436 1:-0.9754212729366393 2:-0.8653658607511991 3:0.751949136105954 4:-0.8647290879973734 5:-0.38343789741452916 6:-0.36445724997861884 7:0.5467893211453607 8:0.8919965095748887 9:-0.9361935897470691 10:-0.36582614569882477 
-3.5655432959974194 1:-0.18852985074172712 2:-0.37749296957837364 3:-0.27511439899459367 4:-0.25567617793136543 5:-0.3824758964604934 6:-0.625395949322685 7:-0.35426464526294454 8:0.965107687849194 9:0.07142947260056287 10:-0.7395343762046728 
2.0304997640149023 1:0.013205201205720885 2:-0.3370339321907765 3:0.9642462406009615 4:-0.6294899060113308 5:0.12333732895011096 6:0.5905610093844673 7:-0.03117540223086246 8:0.8121048464872929 9:-0.2169286526342954 10:-0.2837834727922167 
2.983095444591679 1:0.9305317340976946 2:0.4374932363533728 3:0.47957445332669946 4:0.268566783924981 5:-0.4989820609350615 6:-0.7783833837191667 7:-0.3304254784953208 8:0.16884093852686144 9:0.9724201177107128 10:-0.4837122596082736 
2.500114636824876 1:-0.38142540500242106 2:-0.5870115375194922 3:0.8364631822270732 4:0.9946267948874186 5:0.12949105149826123 6:0.46045697172146327 7:-0.7026115474289529 8:0.4532129347568903 9:0.24093574434103937 10:-0.3873909266912148 
0.2984287384944365 1:0.7151648232762926 2:-0.014439080497156587 3:0.3764083357592225 4:-0.09326305226162834 5:0.452857304844827 6:0.311633069496293 7:-0.7202572208434159 8:0.9927158304672654 9:-0.058177789396488766 10:0.8827727186587544 
-35.23334918774562 1:-0.38909116542686595 2:-0.2481131068700001 3:0.013938337914612076 4:0.3730595285583187 5:0.3687284139311562 6:-0.21679169194763082 7:-0.1374304845092308 8:-0.17241493941206276 9:0.379166761725819 10:0.11067848394505497 
-6.140520293866362 1:-0.6538054683784914 2:0.8372603967839838 3:-0.40937276896058583 4:0.3416039986451873 5:0.1053175013059724 6:0.2566901007536837 7:0.3388233623653749 8:0.35181631954225234 9:0.3725400654613542 10:0.9105559315218095 
-1.5602702854055417 1:0.3138804659055927 2:0.03340334295316327 3:0.5893158832080483 4:-0.5201896423058565 5:0.06310440401200412 6:-0.7013704177530029 7:-0.5293214053929732 8:-0.07351696267078722 9:-0.44092309249202066 10:0.746377339706475 
1.9620716993551575 1:-0.8176088426451649 2:-0.34361449994047133 3:-0.3051500343357888 4:-0.5044399040988762 5:0.9205500592164619 6:0.03539201607414877 7:0.11961405524542212 8:-0.06408045188853173 9:0.9639304616479256 10:0.8935176120407813 
2.410393424658387 1:0.9213777755344077 2:-0.1329674398111783 3:0.8269020667663427 4:-0.26569084082882855 5:0.43852073607958353 6:-0.45103783465678016 7:0.923921060304437 8:0.37153613311493405 9:0.5579441369048204 10:0.899825826873029 
-1.2938873812435863 1:-0.6543272161557319 2:0.849623365533571 3:-0.8079572897503605 4:-0.3189666088004197 5:0.0696773768737573 6:0.5510674047407778 7:0.9357893012711009 8:-0.6261625820191343 9:-0.43975558898435185 10:0.17895544098825145 
2.2767450807614877 1:-0.2701492127032479 2:-0.8559313100766927 3:-0.8024600442414717 4:-0.5439747515308071 5:0.29989920633399136 6:-0.3399034178088777 7:0.7638303870056449 8:0.8095313546461567 9:0.18221686206583865 10:-0.09014867436748297 
-1.8776422943394329 1:0.8368934145428224 2:0.5944960468395601 3:-0.40324234686076943 4:-0.25376695849488473 5:0.6349950723767774 6:-0.7240983499410001 7:-0.7185211081048497 8:-0.12961203738754012 9:-0.39450588719900215 10:-0.9221634219720132 
-1.8723007981516169 1:-0.19328983046357318 2:-0.20146811311464685 3:0.6307992838410732 4:-0.6670380804194943 5:-0.8103806751238336 6:0.03713948060108496 7:-0.01663692348153445 8:0.37001205491247013 9:-0.8404745702208392 10:-1.0 
0.33357854279747495 1:-0.2926592149961387 2:0.3755848304282876 3:-0.18572709177827873 4:0.0037384935767168503 5:0.49764622645059386 6:0.7425989405801483 7:-0.5806768938751716 8:0.7371095253669304 9:0.262230414399375 10:-0.9678594191010566 
-2.1112864654971077 1:-0.9266087231147202 2:0.07747118647991402 3:0.6700332619055993 4:-0.2909508679405187 5:-0.48630356315355827 6:-0.9655190245881277 7:0.011078521703128619 8:-0.8392542541076085 9:-0.8552177576673948 10:-0.3035860267890046 
-1.3212297517197265 1:0.8959526265384925 2:-0.2470134220974891 3:0.8271038469259833 4:0.1585393465093834 5:-0.9800966587200604 6:0.9101747178674107 7:-0.9926933554691526 8:1.0 9:0.019896395002481748 10:0.9482878777216326 
-6.391634656255288 1:-0.7184242647343702 2:-0.14313041801024162 3:0.4227122053583956 4:-0.21754611347516084 5:-0.5836477355966315 6:0.028138740393011785 7:0.32582508626734574 8:0.9193166655107838 9:-0.1944668272429093 10:0.2711068322313981 
-0.22956408067607306 1:0.7965690729202399 2:-0.7960947902589386 3:-0.8379312507851218 4:0.48043586288933926 5:-0.6353744197791572 6:0.3362373517688775 7:0.7010167230846083 8:-0.23864364586149978 9:0.3325211190002053 10:0.5238582347309699 
0.7214642553909653 1:-0.4466575549934725 2:-0.12290871441747231 3:-0.508520415430561 4:0.11111250122364202 5:-0.8299272311658671 6:0.09940472527324284 7:-0.6984408000716817 8:0.6614380905326451 9:-0.42084284623164114 10:-0.5818122777649741 
1.283230902120673 1:-0.45135985782949484 2:0.342881670811493 3:0.5066149728733682 4:0.255423741747113 5:0.0488384009460372 6:0.7183217567871762 7:0.8529329090657134 8:-0.04093944173946573 9:0.5702936755453873 10:-0.649596092020572 
2.6649914529290193 1:0.380482896104692 2:-0.8653213635801503 3:-0.08608244197516757 4:0.9342097695611107 5:0.4719580638842791 6:-0.2353301113197559 7:0.6942442139754916 8:-0.6536433012885499 9:0.7302668091919913 10:0.6180310343150963 
5.48429010944892 1:-0.29305552994765394 2:-0.7027896335809241 3:-0.11943160094522576 4:0.8230945147031516 5:0.5355844747199054 6:-0.2950120931365594 7:-0.8241899762010916 8:-0.7689511483207532 9:-0.08001924764129309 10:-0.38038807250699913 
0.45988371625755664 1:0.3257045389914024 2:0.7858270743836133 3:-0.8802374477218396 4:0.2041039328613501 5:-0.43729428521592073 6:-0.5664359934900483 7:-0.1769125092471241 8:0.31504938046886477 9:0.4467920387112396 10:-0.24604448779948562 
2.967748997631811 1:0.2215496295348498 2:-0.6207209309354191 3:0.3799625818107939 4:-0.17996643774345633 5:-0.51483485552824 6:0.7020169277524384 7:-0.4693735609787494 8:-1.0 9:0.8537502548749631 10:0.1461116358010679 
2.234048108161376 1:-0.07151173525347887 2:-0.31376957800964467 3:0.33802725870869565 4:0.27754322248572727 5:0.9621204002177375 6:0.03664596706497236 7:0.19604611566473307 8:0.05310089216795144 9:0.1727994815559446 10:-0.8018631380979544 
-5.014185319619494 1:-0.7578316286510385 2:-0.9997542097552908 3:0.10098190966354537 4:0.6961367999596473 5:0.1614723571245169 6:-0.27866698178168314 7:0.2996754055112174 8:0.6578376069037266 9:-0.7452238097148353 10:0.4982191720532738 
-2.031719216192058 1:0.6488141792649151 2:0.6961234293668337 3:0.4756704238398719 4:0.24012499655630948 5:-0.14504027916519324 6:-0.5970098782730893 7:0.22049083829607818 8:0.47249142961623125 9:0.42246368387662003 10:-0.5106434281640018 
0.7854979566024964 1:0.6679966682894565 2:0.9828389372135764 3:-0.9166337062856988 4:-0.43043018142075407 5:0.010119113598290319 6:-0.7503356145267408 7:-0.6105192331073992 8:0.6617265247572912 9:-1.0 10:0.8339854720506918 
-1.72631969090457 1:-0.8501595057855064 2:0.9803453138417899 3:0.5810671636500988 4:0.5320399305955421 5:0.5122458770249014 6:-0.8068766324532235 7:-0.48640327097950653 8:0.47877444008964787 9:-0.5863345404833094 10:0.20469056732266577 
0.31796929105393207 1:0.06874859591067084 2:0.7899636275084436 3:0.40906189124859504 4:-0.287658254395037 5:0.13198047824887227 6:-0.18738551119310587 7:0.7291942330524752 8:-0.7998010333206228 9:0.7197331114308669 10:0.007112187572553941 
-8.036018179997756 1:0.22303353497811118 2:-0.6368915631526642 3:0.20066822960455832 4:-0.14112258203499561 5:-0.5459939598920819 6:0.8987469188817829 7:0.46155376332020914 8:0.22323676583427066 9:0.29951184904901806 10:-0.33023495003389014 
3.9455142278540265 1:-0.414182866696016 2:-0.9847200490860883 3:0.32262967546304044 4:0.6431199832635928 5:-0.7840678528314763 6:-0.5827260936287965 7:-0.2582169823234699 8:-0.15012864385678915 9:0.28601243376136587 10:-0.8180446181338875 
-1.2439083988212984 1:1.0 2:-0.4033887233214989 3:0.627370079037197 4:-0.644011774003585 5:0.20639559784556938 6:0.3135091579319551 7:-0.33409771625211804 8:0.04060388522623204 9:0.2599089735105047 10:0.613605520644031 
0.03311786799720049 1:-1.0 2:0.4868712422260808 3:-0.6966394005459785 4:0.7394811400273058 5:-0.1311391933750824 6:-0.24092887967563903 7:-0.4203461929297432 8:0.5646976376179607 9:-0.0448973381355251 10:0.45523737974813616 
-1.897090055257349 1:0.3725288808776823 2:-0.5331934312398491 3:0.9120579503052244 4:0.32560289526590247 5:0.5676798491271873 6:-0.5342847764172017 7:0.5094052363946526 8:0.17707387766359517 9:0.9736172964605398 10:0.68210716188284 
-2.320229021348107 1:-0.92465623736484 2:-0.3989569604924058 3:-0.7334683630000762 4:-0.25424506935860436 5:0.8985380369756855 6:0.6710199357750668 7:-0.5253493270436334 8:0.0923046466422961 9:-0.2652710269254377 10:0.33974001795284403 
7.270370669324482 1:-0.8660050957429435 2:-0.4007615405975987 3:0.7835701068347227 4:0.09473168941282717 5:-0.21796285871591814 6:-0.9622735825729435 7:0.07728073881476716 8:0.6387087587385334 9:0.3809322113542204 10:0.17785520188739046 
-1.5787569454291706 1:0.5381305664453278 2:0.625932797202287 3:-0.22716407664291893 4:-0.7098633108736361 5:1.0 6:1.0 7:-0.02484460068419847 8:0.9838625359243311 9:-0.018545112308388068 10:0.25719694528147885 
13.020049865374371 1:-0.9778307568862286 2:0.17874871056451913 3:0.14086972492556082 4:0.3927546608228696 5:0.18889592134040734 6:-0.1799082935221077 7:-0.12115056804396629 8:-0.3389007482211923 9:0.6613538696867409 10:0.5138520633759509 
0.7326597797624839 1:0.10440606366150251 2:0.012718935661222508 3:0.07260992853817583 4:-0.18546547105579436 5:-0.3273874176577357 6:0.2764459283912897 7:0.7124309047444801 8:-0.5877311630380176 9:-0.6688573453733189 10:-0.5140890435572955 
-1.0268312689219297 1:0.7530327489259865 2:-0.6249753601307779 3:-0.33905155039156376 4:-0.9029218771092602 5:0.2609997918180649 6:-0.5163356081050428 7:0.25094978126331324 8:0.5551829976466061 9:0.5569624625224794 10:-0.2626623618578704 
-0.6912769004584915 1:0.2784496691545699 2:0.8503053361757578 3:0.062046217011542115 4:-0.4186291097552848 5:-0.5907828044530022 6:-0.30610146496366364 7:-0.7855458552607986 8:0.7632865516525753 9:-0.4117042991764256 10:0.35473171693091365 
2.4117053954248515 1:-0.506844088103079 2:-0.5424553702790975 3:-0.7698813060852143 4:0.9184672061021708 5:0.6235667398732345 6:-0.10256660073280666 7:0.595030302164089 8:0.6925874687679265 9:-0.42194647095896 10:0.9219480923399659 
2.4631811514725124 1:0.9163434549795195 2:-0.5088839759010904 3:-0.18318915725361518 4:-0.718895655836036 5:0.44426860021374504 6:0.8539849774545825 7:-0.06108417957759371 8:0.20097089920494438 9:-0.8250382073309961 10:0.41509241850275513 
-0.21787726833411938 1:-0.5878397692188884 2:-0.48425909637770104 3:0.4044331637365064 4:-0.2204937547992456 5:-1.0 6:-0.41088566598288323 7:-0.3149697455698558 8:0.45535832669628684 9:-0.16726722042571496 10:0.8914006087885198 
2.487189560150512 1:-0.5994219893875494 2:1.0 3:0.2646448798346863 4:0.12953637467731527 5:0.2111478063046266 6:0.48295806882256653 7:0.958928922755877 8:-0.3467107982382317 9:-0.8902631216533342 10:0.1869437407421486 
1.4467549949287526 1:0.5321274813410148 2:-0.2824919136818247 3:-0.11999116897478279 4:-0.9043423003947294 5:-0.4405695189630007 6:0.658601516396528 7:0.31103681274907347 8:0.8668415105158311 9:0.5035256933781129 10:0.46094219620411203 
-0.4615630688240253 1:0.6555350789970271 2:-0.3689684469888841 3:0.7551910489846418 4:-0.7615201025336503 5:-0.4465993866598973 6:-1.0 7:0.2399920841522245 8:-0.21605362335248945 9:-0.1460954907686347 10:-0.3643799844357958 
2.2504497352294033 1:0.30124189819872527 2:0.542642084183915 3:-0.8874235923915267 4:-0.2430411290488752 5:0.9785737234866052 6:0.34574000519788317 7:-0.6879788794224002 8:-0.20554601335996514 9:-0.2555476892131051 10:0.3801873186147513 
3.1570448394687465 1:-0.3430885730450123 2:0.8747858071585175 3:0.8171318922893855 4:0.7227631983515865 5:0.8804404341269929 6:-0.03316703042143754 7:-0.02738616577367059 8:0.5527934855917003 9:0.21430105625179618 10:-0.08115621647299054 
-1.5066446542840572 1:0.8772603993456747 2:-0.028622361618005243 3:0.5817930760376884 4:0.7272128862972296 5:-0.10746829686958803 6:-0.16534209661709964 7:-0.5424890362052717 8:0.7726315457948585 9:0.26283829227161304 10:0.2989490034286615 
-2.133025926767373 1:0.7804010593027302 2:0.645329468082199 3:-0.7947493067884137 4:0.7960457355644879 5:0.22179863551397472 6:0.7675665283567479 7:-0.4815631478480108 8:0.719446204457753 9:-0.9904216202908044 10:-0.5859068227775445 
1.531410026220012 1:0.8021426234502607 2:-0.07759801333980842 3:-0.01982925022355031 4:0.19670313775449433 5:0.005386938335153912 6:-0.631257873786131 7:0.11613434034579795 8:-0.7311132822220752 9:0.7189156932343721 10:-0.705815236054037 
-0.1736996760353072 1:0.28655726934677084 2:-0.780096412893247 3:-0.49739785876404363 4:-0.7820763918085005 5:-0.7229386221163396 6:0.009751600817331507 7:0.2766955413817389 8:-0.534969244983161 9:-0.8225218239662577 10:-0.12510439811356322 
4.088702159443462 1:-0.9439826598469552 2:0.20725932241922074 3:-0.3248147143044894 4:-0.3199832529662795 5:-0.7004017272419688 6:0.6979904106980013 7:0.028864170541346823 8:0.9139810076915669 9:0.1426973254198014 10:0.7603969341534036 
3.066582392998359 1:-0.6123405628958101 2:0.3217988260294957 3:-0.04102136889151353 4:0.20928750460217738 5:0.21982337545546082 6:-0.3123197481248734 7:-0.4727403679823843 8:0.5918776850412892 9:0.09158405710693107 10:0.5536615181609719 
0.2907433213353564 1:-0.7900258056468261 2:0.3331320164383136 3:0.06942451430647889 4:-0.9370440852376996 5:-0.9268829281063118 6:0.14089473740604364 7:-0.8411222544845152 8:0.9132237826298832 9:0.6458546523054949 10:-0.7583814741724799 
1.6907563735612832 1:0.4061604459408761 2:-1.0 3:0.08228464468741437 4:0.3300563250367836 5:-0.9556500748120895 6:0.8914967448071636 7:-0.03870712442292856 8:-0.5353089112026921 9:0.007904083502078496 10:0.7531095602805487 
0.24756371342957537 1:0.6422041872210831 2:0.9816536665388254 3:-0.49100479081282067 4:0.11501148900121594 5:-0.8413243469400719 6:0.33242752992434577 7:-0.274696729404719 8:-0.6843564861592246 9:-0.9862530087859326 10:0.9609988734119974 
-3.9274783828122146 1:0.8208312012114549 2:-0.5161982541058134 3:-0.7450148011734536 4:0.013324528104180056 5:0.33211812082408665 6:0.39142202880316823 7:0.021946729177191093 8:0.00102621001697778 9:0.041148827807831356 10:0.5415246114400627 
