svm_type c_svc
kernel_type rbf
gamma 0.001953125
nr_class 2
total_sv 24
rho -2.3614029468986645E-4
label 1 -1
nr_sv 12 12
SV
512.0 1:4.140425385551621 2:-2.8647215919068363 
441.9266834592554 1:-5.451125534968702 2:4.140425385551621 
29.29714317895006 1:6.38109891299888 2:-5.451125534968702 
231.0689914467642 1:28.96361694246503 2:12.198989661760134 
2.1831346321003684 1:-14.70650085253584 2:12.198989661760134 
192.07277837778148 1:-14.70650085253584 2:28.96361694246503 
341.42203162667386 1:24.800608189362816 2:-17.746336959996928 
425.59937844830256 1:17.38187075324444 2:24.800608189362816 
318.59053694638465 1:-25.308201833252777 2:-17.746336959996928 
133.07144092642906 1:-20.469903650465195 2:24.800608189362816 
32.06186790102646 1:-20.469903650465195 2:17.38187075324444 
512.0 1:-20.469903650465195 2:-25.308201833252777 
-512.0 1:-2.8647215919068363 2:4.140425385551621 
-441.90047053553604 1:4.140425385551621 2:-5.451125534968702 
-29.329014812660464 1:-5.451125534968702 2:6.38109891299888 
-231.06878559309268 1:12.198989661760134 2:28.96361694246503 
-2.169186819227132 1:12.198989661760134 2:-14.70650085253584 
-192.0666092727933 1:28.96361694246503 2:-14.70650085253584 
-341.4478308726539 1:-17.746336959996928 2:24.800608189362816 
-318.59200893095647 1:-17.746336959996928 2:-25.308201833252777 
-425.5990865731871 1:24.800608189362816 2:17.38187075324444 
-133.04773063620357 1:24.800608189362816 2:-20.469903650465195 
-32.073262897358276 1:17.38187075324444 2:-20.469903650465195 
-512.0 1:-25.308201833252777 2:-20.469903650465195 
