svm_type epsilon_svr
kernel_type rbf
gamma 0.125
nr_class 2
total_sv 63
rho -19.42378112752956
SV
0.20471855751989465 1:-25.074220050460276 
-1.634519953451783 1:9.440388484576854 
-0.9898648527875847 1:-16.123663330457777 
2.5734701892920784 1:-21.413521393340403 
2.2140144081364994 1:23.713909250473495 
1.135431382518284 1:15.632149601208187 
2.289511060498822 1:28.721462639152932 
1024.0 1:-0.8804613141377962 
0.9029205494453098 1:14.53592570212953 
4.378669543063012 1:-6.365633515029378 
-849.9493804420587 1:2.11328489919099 
2.0836336124063934 1:-14.306089599453705 
1024.0 1:-0.6327938468140374 
67.20064735048253 1:-2.4394070906097265 
1024.0 1:-0.10883398137428513 
1024.0 1:0.5037794803681082 
-1024.0 1:0.02708325490778094 
1024.0 1:0.332071002480033 
1024.0 1:-0.1942220198571125 
0.5090581580260907 1:-29.999999999999968 
-761.5200533835613 1:-1.6885970659234717 
-1024.0 1:0.0768276972370178 
1024.0 1:0.2690883989978476 
-1024.0 1:-0.06499417028298678 
270.38375509098677 1:3.2834315058845944 
-1024.0 1:0.045105852961595576 
1024.0 1:0.22425331883589078 
-1024.0 1:0.012965860985009077 
-1024.0 1:-0.02048831130305917 
-1024.0 1:0.03741409495099299 
-1024.0 1:-0.05290472327173399 
1024.0 1:0.30381019662941866 
-1024.0 1:0.038755325105690186 
1024.0 1:0.2971020632352708 
-1024.0 1:-0.08136277812055369 
-1024.0 1:-0.07980800088908657 
1024.0 1:-0.38942734210008983 
-1024.0 1:-0.030258468144979036 
-1024.0 1:0.08481197889969527 
104.27591820858281 1:1.4356812632673688 
1024.0 1:0.26676005807753594 
1024.0 1:-0.2887679723709169 
1024.0 1:-0.2788470060601766 
1024.0 1:-0.25365379373122715 
-1024.0 1:-0.020058933040370555 
1024.0 1:-0.1997706850938409 
1024.0 1:-0.15040482776251946 
-1024.0 1:-0.03415180644980693 
-1024.0 1:-0.05714267282827059 
-1024.0 1:-0.05950892753249372 
-1024.0 1:-0.0626379870881841 
-1024.0 1:-0.03079377646338712 
-892.0579294790997 1:-0.08239642894351777 
-1024.0 1:-0.02961672883455133 
1024.0 1:0.2767040089041582 
-1024.0 1:-0.06104814816401106 
1024.0 1:0.2694692787138599 
1024.0 1:0.1863246944319415 
-1024.0 1:-0.033503241805641355 
1024.0 1:-0.11690688875030349 
1024.0 1:-0.27315864174865606 
1024.0 1:-0.11557959440713235 
1024.0 1:0.2684796660406897 
