svm_type epsilon_svr
kernel_type rbf
gamma 0.1
nr_class 2
total_sv 830
rho -20.960759854054732
SV
-0.14631914853652717 1:-5.119982391204779 2:-22.280299988190325 3:-18.44631275482815 4:-10.69949257117349 5:17.137583067103847 6:-0.4321730879001784 7:17.442720895372403 8:18.179457325850215 9:-2.7482376100161936 10:14.883768660716079 
-0.7379491307493922 1:-3.1005656521590303 2:1.0541628678629529 3:7.901713773036491 4:-18.18478915522462 5:16.029556213570984 6:-26.48178594645933 7:-18.78803765471992 8:-22.995304581091283 9:2.9075288420419767 10:-19.98289726245069 
-0.07919938688520922 1:3.4119976207074174 2:-15.320917724101811 3:-27.78224769590395 4:14.012988117585266 5:-14.80674102734997 6:19.267034636344405 7:-7.872665380303879 8:-24.89628268535167 9:-4.856729758709545 10:-11.393056819150921 
0.5660637616562827 1:24.627517737196186 2:-19.812228905140564 3:25.570264040900064 4:17.83497234704189 5:-1.5479244292270629 6:-27.76835423052727 7:-11.159734896853543 8:28.945329491407712 9:28.427034475706755 10:-11.463950857729209 
-0.08523697547882847 1:-1.96785224620114 2:7.7921411462608745 3:26.72719451468575 4:-19.387892263441156 5:-11.72516150858672 6:-11.045300732794118 7:0.011008360622952296 8:19.868629529342236 9:24.564351172661752 10:-10.58482262664257 
-0.10535429206074198 1:11.776447502039666 2:-22.723668786786273 3:-1.8329791886386175 4:4.400248488323648 5:-28.47335981529683 6:11.014750965490194 7:-23.101186550679472 8:3.015392404715307 9:11.455083190847041 10:13.822438587930527 
0.47984893351626745 1:-15.370743283998197 2:-12.546971379639249 3:7.3563774517771705 4:-18.63915991721377 5:-17.70793111786803 6:7.5829318728091835 7:13.339514445301234 8:24.3671590826724 9:-13.506790701073669 10:-27.36424983840067 
0.20960731374225006 1:9.66682860062339 2:-19.288716188934345 3:12.490612840609941 4:13.467802215391565 5:9.662827837910108 6:28.686762044562705 7:-14.121479195799331 8:2.5476235248136163 9:-24.866782774551545 10:19.955601910878272 
0.19166001708875768 1:-28.25711960453656 2:-25.667860288035907 3:-9.894483701626669 4:-0.46844163965550933 5:1.3628733548170366 6:26.10264157991037 7:-0.05124952775889824 8:-18.973615516238347 9:-25.282744971946325 10:-21.39190797620683 
-1.0 1:-2.9491733654072902 2:-1.9016235009122227 3:-17.887238625975 4:-2.984339872661078 5:5.228265284953629 6:-2.3676074165879406 7:-19.814564390166606 8:-24.304313052404183 9:-17.085939769457894 10:-3.3546364142488976 
-0.059124413303624834 1:-3.6656794578485155 2:15.27065604153853 3:9.91554590328095 4:13.251158584038684 5:1.330570532119534 6:27.135074939444877 7:4.155236080744686 8:22.23349878857826 9:22.40360127038239 10:9.305532318372194 
0.19812597092441564 1:-6.696324161044249 2:-2.134502606513312 3:28.539522492514514 4:-12.01249910347872 5:-18.41551737072132 6:10.57918596322547 7:-13.964332256061518 8:-28.352136376105356 9:24.277801192040542 10:-20.071711139739215 
0.3334702887577752 1:15.538637502575284 2:-1.340596176796975 3:11.569517952192605 4:-25.997684928225944 5:-18.148121223355275 6:-24.264065855955135 7:29.389677921867026 8:25.039897311516697 9:-5.267609883292849 10:2.40399316359634 
0.2819616209457845 1:7.754608444097521 2:22.454145461444057 3:-27.295245671897717 4:-3.3405444788418848 5:26.873389321834942 6:7.822622098764697 7:-17.395702330620395 8:-1.2652991259667843 9:-12.09961970003318 10:-28.39059277331372 
-0.3440592876578119 1:15.119761126685702 2:-6.44565784212649 3:-11.28840396908047 4:-1.5234616171698363 5:11.039448251516113 6:-2.015129018348837 7:-4.546143481447594 8:27.006983127199895 9:-25.786559527927523 10:6.385903511137322 
0.39121362773165025 1:7.861690973020011 2:0.5011162233624376 3:-24.571955399113367 4:-22.751939778406314 5:-19.541916563353254 6:28.22354985119435 7:-13.552784316158892 8:-25.145142968066548 9:22.75125508461079 10:11.066977651471696 
0.2545916971571316 1:25.40933322427081 2:-27.06666480820634 3:-20.589254998414855 4:-27.935446833616616 5:3.5762687422319885 6:22.16049410431627 7:-13.847829424391328 8:10.522179343750494 9:19.1152766697719 10:-19.830072452062417 
-0.8935410937967809 1:-11.318880596513814 2:-11.2431109574927 3:6.1528678440561535 4:-18.644573667776434 5:0.5427576325835908 6:-17.482603777521348 7:-3.2266317816166854 8:4.295638489025606 9:21.09475884026613 10:0.12767914595123742 
0.04603685694103632 1:29.943506362581843 2:17.02623513991319 3:17.067349870789776 4:21.234368119282763 5:-15.472058898265006 6:24.663350032811906 7:10.295273411980553 8:23.75348820333963 9:3.6192335932793043 10:10.034441752699955 
-0.16672619976470138 1:-29.797371600443164 2:-2.7980013148712644 3:-25.660625355634608 4:6.000031202296469 5:22.49259052979742 6:2.064393539381527 7:11.078564149309265 8:8.052144216682713 9:-24.759855440332995 10:8.184475389441204 
0.3885609224945181 1:-19.179461738424727 2:-12.447392201576285 3:-9.792945704134144 4:-29.61274705525757 5:-13.237680880489599 6:-20.37328963905656 7:-9.30564835570685 8:-23.374219431269523 9:-29.13012115954687 10:-4.744928189781646 
-0.3614370969391363 1:-2.381235597420279 2:12.912554804162063 3:27.319790770154455 4:4.508904206311975 5:-17.254422996771847 6:10.134983378157798 7:16.96051076355652 8:17.151211207454665 9:2.131501573141456 10:10.569236426694111 
-0.45702027140129786 1:-2.0143995564867225 2:7.978801196565534 3:23.827260653433072 4:-23.50333125166002 5:19.94468325743557 6:-2.692677690990436 7:-8.239366719527617 8:-20.20817365490734 9:7.026631152705228 10:21.903899707490638 
0.17886737280286447 1:12.466865420579595 2:-0.30910545807144274 3:-17.766994663879842 4:-1.5507122928301484 5:-27.04562954077858 6:16.164305019883237 7:-23.381615590702538 8:-9.736233224682 9:-23.51017726742502 10:-1.592958494073656 
0.5506062947275794 1:27.207807939140217 2:-21.441592577970376 3:-21.542254744927966 4:11.925043738456779 5:-26.489821007046487 6:11.87562684106252 7:16.69588824434149 8:3.535937826545222 9:-24.26999658236677 10:21.660325586078216 
-1.0 1:-0.17131098023879332 2:-8.682802183703892 3:-22.16147265847746 4:8.055239945940805 5:-16.882712938942277 6:6.124625117741935 7:-14.401173114508728 8:18.041464025960977 9:4.215588195602393 10:2.7689509945645483 
-0.17877600634297863 1:3.4480862602223823 2:-22.0525267429849 3:10.968021398029393 4:22.278152567619045 5:-5.176162082469922 6:24.127308170757026 7:-29.994312089805085 8:21.887945566926724 9:-1.9204497381439616 10:-20.73909345321664 
-0.04748905179113727 1:26.188229374170078 2:-26.864590417438126 3:-1.8894725570260817 4:7.447885960941761 5:-2.34971580494663 6:12.846887353280309 7:14.424777461910956 8:16.80089060142268 9:17.889894393122397 10:7.677759897120048 
0.44832825159677725 1:5.469866768358941 2:-19.16772568488959 3:-17.273491376330583 4:-14.400668790900212 5:-22.211573427956715 6:-19.245852589106306 7:-29.051331355390477 8:29.448878776676217 9:-10.461327248794369 10:21.16300892264931 
-0.00226086665075087 1:-7.781037064257426 2:25.926979412678627 3:15.429237067516475 4:27.081974949222584 5:-24.951134222100862 6:4.0745616086014 7:-12.8438530511051 8:-15.729738587489448 9:3.6304886978487616 10:-28.12276284355358 
-0.2688503685746486 1:16.328441006637732 2:0.5152918087592937 3:26.166922937789906 4:-6.058419237460498 5:-3.7173051228123803 6:17.011127696084714 7:24.014567259010434 8:-6.9866740278520965 9:-9.318831036040788 10:-21.25906072039395 
0.4682511093011943 1:-14.457012503845979 2:-25.695925038323647 3:-7.439809394903982 4:29.330795427882926 5:18.199044004156896 6:19.284145223719328 7:-19.907323016670837 8:24.27242386693088 9:-9.171226845790368 10:-23.297454159737615 
0.5552651926958436 1:29.200904372633666 2:-14.797381325922155 3:-0.4570234470099912 4:-4.365739872788083 5:-24.173988355547785 6:29.37999937171559 7:-5.470479470093899 8:-18.483665486759094 9:23.33946779691238 10:2.4957196372906054 
-0.49046065954464346 1:11.842509994054481 2:15.526150612697435 3:-3.109670928589658 4:-24.642935854727636 5:6.444556735535677 6:-6.504880967797103 7:-0.33430624946563015 8:-20.73977456357907 9:-8.100495363872675 10:8.265894946627036 
0.08043379369053305 1:6.100379375247627 2:-28.979121263683474 3:-21.890965023001804 4:-1.008985692508169 5:-5.994586165007533 6:-23.341462520034465 7:-18.64232432037344 8:-17.6642596204223 9:-28.606453080417666 10:-17.367014358675533 
0.38975792852664704 1:-19.323161342768643 2:23.887717007859365 3:-5.536430672068143 4:25.308474455887435 5:-28.840404817282216 6:-16.709103987550762 7:-19.23616560928108 8:12.97365837085114 9:18.35400963444623 10:-26.288967682525247 
0.16522478961985954 1:-15.047596097968034 2:22.265446706629632 3:-11.660627914683943 4:14.468057057808764 5:-13.28401520102512 6:20.657500649729215 7:15.984282628952393 8:23.360799544461337 9:19.129485645575386 10:15.618332762925206 
-0.039902801966999135 1:7.745635130601002 2:2.812305589824419 3:12.43883821914114 4:-11.09449333461345 5:-2.7109926752469633 6:-25.791812086440085 7:-22.640165542473348 8:2.303180598446147 9:-26.43689322075484 10:-8.058605936087766 
-0.02379064381238294 1:-5.808939004553427 2:24.848819301666133 3:11.250235485952075 4:15.177063405859762 5:-2.5790251878922064 6:-28.065485478959133 7:27.02432864473088 8:-3.2556234205129257 9:-16.263780104424917 10:-11.283629399053886 
0.22720488835203412 1:-23.18144991585084 2:-17.444361309079 3:15.146874483502963 4:0.16778262096354268 5:-20.949393771160697 6:-11.707264153331458 7:-20.372052427151743 8:21.889746902847826 9:-24.625045720594002 10:25.315896512579577 
0.33382084726547845 1:9.234974316194382 2:-20.556260411262695 3:4.027244817336914 4:24.83958020695684 5:20.085217944926292 6:19.49997363728285 7:-18.802618306922597 8:18.385122939266815 9:29.90454030971999 10:-26.503746296389878 
-0.11945656948381611 1:-16.886304974691367 2:13.359623009710191 3:27.0236140451223 4:13.779939834290204 5:-4.358177609034232 6:-24.674582578128405 7:9.765715717524387 8:3.3579184024235076 9:-10.80201671100341 10:13.114301340794398 
0.6498557129586544 1:7.101994320954802 2:-16.593208536763935 3:24.64740914001304 4:-20.59447798487532 5:-29.741376633068228 6:7.597842803743681 7:-19.395186446642914 8:27.72641456910393 9:-29.356098112726993 10:19.068710556294008 
0.05586271979790958 1:14.17486147537236 2:27.049364198043264 3:-7.978067890266011 4:14.52599220934372 5:25.666694441557553 6:-12.75132944727146 7:24.29310795643012 8:-9.509586747908227 9:-6.812344166080152 10:12.645687388888554 
0.509996552342523 1:-7.449771777308975 2:-20.901542124730444 3:-4.73251424478179 4:-23.289510874938713 5:28.262664798243016 6:-24.84821583852267 7:28.78528665750551 8:-21.296864573020095 9:29.499583762730012 10:12.25802930975248 
-0.021498743294838363 1:15.467732449700236 2:2.6274636666322166 3:24.036833971227708 4:23.933982426464425 5:-26.901987797010516 6:-9.664824601380559 7:3.000695329683097 8:5.444445260957217 9:-12.678844653670922 10:-16.042165593723 
0.20666722651274227 1:17.11734658663319 2:7.894360429948762 3:21.36088568781367 4:-29.73424684532543 5:-13.71960012962608 6:14.647996129631274 7:-23.543485563394036 8:0.811945865648596 9:-29.860906700163273 10:-7.257993480143952 
-0.32631371952585475 1:-2.0338331906679556 2:-0.07989500881447853 3:-3.3282320124703872 4:-20.308380239164897 5:6.832382950536861 6:28.155573110039 7:-21.623988263522 8:14.033922498771076 9:16.044857371384055 10:14.598463487320721 
-0.2972249033660841 1:25.612508543311066 2:15.016864475102182 3:-17.937295541942103 4:-17.03629121030859 5:20.747899499671895 6:-16.033296587671902 7:23.00551240432155 8:21.23811995020023 9:13.058967842329075 10:-14.228301895148451 
0.26030314599731064 1:-9.628348725263425 2:-20.620946596597975 3:-27.04296553521277 4:-18.496468030279114 5:18.205395255317903 6:-6.577605439178285 7:24.255123831963374 8:-20.626853092804577 9:4.825717285230759 10:-1.289029508668385 
0.4190111643359469 1:22.548950025972402 2:21.323928791141746 3:14.930383338470854 4:18.54083487599336 5:28.828994334455956 6:0.4405343739266385 7:-14.620704892067131 8:18.025972601421877 9:-29.843475190663682 10:23.813873988933686 
-0.04767061627728886 1:-27.66832757913654 2:-22.047912751617858 3:4.701160868017496 4:5.740127543084796 5:20.489085315257036 6:-7.337074870029433 7:5.235877718539264 8:-14.798122070302842 9:15.198720783249271 10:9.828334900015882 
0.2938087835482772 1:-19.61480956735938 2:17.85084869962496 3:-12.733640234579294 4:-6.6258139647498915 5:7.48593262381042 6:-0.6141925627803531 7:29.938156906726476 8:24.136677059714906 9:-26.202417536815123 10:28.133435088083942 
-0.39894616421692675 1:17.779448335942597 2:-18.448446882639793 3:6.246468770429111 4:2.9300321003421814 5:21.235453257941245 6:9.82349918437005 7:1.581883653144402 8:-8.830786776663846 9:-17.082718200678226 10:21.23721660152453 
-0.029627702475886863 1:-2.66363529582296 2:19.198910892034945 3:-23.150169694679644 4:-26.962241205776447 5:9.162685951756757 6:-3.3623553845556664 7:2.5933828961717182 8:2.7598601558937332 9:-25.24066812709789 10:19.035736189931093 
0.4868255128896042 1:5.266103844532843 2:-27.560774803146863 3:-9.296222997306597 4:19.744020015488125 5:24.38772995206228 6:23.684410829738653 7:24.311838348777343 8:1.183456534370098 9:-25.96498926673729 10:13.53073979588654 
0.022772846887095355 1:-8.394684314509814 2:0.119209926392422 3:-9.226883200672631 4:28.094883982153767 5:20.614732597695117 6:21.607666071206552 7:2.7644418701869853 8:22.95956716141194 9:5.817919686837328 10:-28.74447650579337 
-0.25903457020040577 1:4.807834999508053 2:3.949252752382179 3:6.583425298429631 4:28.15692158008717 5:-12.99083908928798 6:-4.562842140266518 7:-23.371006157088964 8:-7.002917838047374 9:2.255935432252251 10:21.50771028846335 
-0.05435676086907648 1:9.205408205894976 2:-13.385649965361715 3:17.072176409753048 4:-24.619095949139368 5:16.698247904005825 6:6.554591362071697 7:11.112019844280447 8:-27.1366078796761 9:2.865043579576735 10:18.062466486551777 
-0.3732347039084889 1:-10.826564046313678 2:-7.731662203683815 3:12.558302666879044 4:-2.2176561126201086 5:15.994499694722919 6:5.287577287288016 7:24.062678721701687 8:14.375460038568747 9:-26.82922641461755 10:-0.19725955065785072 
-8.275659749639175E-4 1:-25.99829174389275 2:-13.775427181103165 3:-6.674997070483588 4:-16.640866819827338 5:26.48990291692261 6:13.016400440255936 7:-21.457393004536698 8:-4.991937970380949 9:-15.83613194103713 10:-5.075641106997249 
0.04371954730178551 1:27.962827479615584 2:-19.357455269381454 3:23.668926336936515 4:-4.603759916246581 5:-27.86330641403392 6:6.845453557361054 7:-0.18581153450190513 8:-19.461751645637932 9:-0.721577736067939 10:-4.218981071956257 
0.6853962791416794 1:-24.18537185484242 2:-24.622137672561838 3:-19.60626462000856 4:-27.82243606960996 5:5.5350798066882305 6:-19.5580116161164 7:-29.126308205850865 8:15.522966664960109 9:21.466311453220733 10:-22.147342766805572 
-1.0 1:2.1512520013289205 2:6.092340203262125 3:-10.254488223246362 4:2.161402803500401 5:-13.423386222278811 6:18.934299267010417 7:14.802681356515286 8:4.238359350886412 9:-6.894124834425437 10:15.436778028977187 
0.6444538599739946 1:19.745100478214354 2:-8.30326902709665 3:24.501417956297985 4:-27.25754549169296 5:-4.626671141414388 6:-26.416243730535456 7:23.966023570011494 8:23.58173986184736 9:14.737524496746474 10:-26.73198390953865 
0.2167623826274756 1:27.840878440063072 2:-2.731197372055732 3:-18.125197038696502 4:-21.106230032253432 5:23.847429442143458 6:-26.783347206393124 7:20.274181512074293 8:-1.7132970544902903 9:-12.373241475728982 10:-27.361217644010217 
0.11308852464048158 1:9.25907721788326 2:19.542423880528112 3:-17.670887644466134 4:25.911530125510325 5:15.921301714428061 6:-3.6112677002437543 7:-19.701160625564256 8:24.161804229290354 9:7.662120840811625 10:11.341054082974722 
-0.3469664207063925 1:-16.419823675681933 2:28.441383631140297 3:12.954489717739222 4:-11.677176884926126 5:8.46544687692193 6:-8.061153583930945 7:-12.625788040062073 8:6.949879250065997 9:4.678339058154869 10:4.645008770016169 
0.1323876628410101 1:18.256338459038652 2:-6.919654268610373 3:2.0309783516113598 4:-24.272374023164723 5:-15.483281545089522 6:24.508743137020254 7:-3.485327713956469 8:6.585928464518219 9:-21.76277265999979 10:-23.164493459943433 
-0.07149289169398898 1:3.7802160970031267 2:-22.85458561911977 3:-8.453239878201309 4:2.570330568977745 5:20.83483240280127 6:-10.581823410033564 7:16.13869773300282 8:-13.569793989417132 9:-13.471185983039756 10:-14.30612940850012 
0.12407659637453072 1:-4.740142998057106 2:15.828847899734434 3:22.198558578004977 4:23.44119834197459 5:-7.817971920000986 6:-8.610428311163833 7:23.285790232812168 8:24.995881428219676 9:-0.40187306230583886 10:15.5150753914507 
0.6115819978645067 1:-3.7303663554731123 2:-27.443511599360782 3:-25.659645195493596 4:29.381431944386726 5:-8.635579849537692 6:-25.85811105435436 7:-24.325190858277455 8:-22.276360417009037 9:12.121379428606865 10:3.4417752977646003 
0.4974912041971127 1:-24.98044724757456 2:-11.252976909541008 3:-29.45127501582086 4:-23.884891748352654 5:-17.440279127136662 6:-15.376747081308581 7:-29.75214393423027 8:29.02029428972829 9:26.918704887991808 10:26.45952664576663 
0.252076249334662 1:-19.44909187857077 2:-21.986310281542956 3:-0.5844173038952221 4:21.594332309845385 5:-29.04655426863942 6:22.35536552321809 7:-13.314964868546767 8:-3.08700751520767 9:28.31975316160566 10:-1.961574603946275 
0.021370323710767636 1:4.5570694473714255 2:9.591112937806493 3:-20.603296868044577 4:-21.489502794914166 5:12.090021886149046 6:26.263824562070432 7:8.10582889111744 8:19.283383009383776 9:7.521323497471641 10:13.083604368636685 
0.12385225705969383 1:10.89177992471005 2:2.8291624887741236 3:27.646674505133426 4:2.4692930620746125 5:14.088965837251223 6:-18.061571899235044 7:28.759335004608687 8:-2.4362541360891576 9:24.826777965541737 10:23.36864166300702 
0.5839316455883576 1:-19.22265960539098 2:2.5074375706733605 3:21.427348237587537 4:-20.862030758501135 5:-23.442463152086493 6:25.60015197045451 7:-9.441561633403005 8:20.222277642539034 9:5.641437497045409 10:-26.737254242833654 
-0.9584082133700988 1:6.587620917591494 2:-3.3096750608182717 3:-14.201002973308448 4:-4.574179080153929 5:3.6425065117503053 6:-0.5354596300331416 7:-13.267539371248557 8:-2.4380220256831215 9:-27.18462228806334 10:-8.077917519509164 
0.18184614535149812 1:-1.826404890127364 2:21.043168757265178 3:-14.240820436447837 4:-25.546723708407015 5:9.353651497392498 6:-28.155489804547 7:21.605399182708723 8:-18.128183509467423 9:18.446534674952375 10:-12.169227093610576 
0.11701664242287002 1:27.327958052073768 2:-21.481213422982805 3:-23.20795932047712 4:24.12234075894508 5:-0.9805176358255068 6:12.33934079999294 7:12.807218777041292 8:-16.487116586149224 9:-4.893846130505342 10:8.45627637340862 
-0.2960189993878082 1:-13.159579335772872 2:3.3823373862830834 3:-7.352375141580481 4:19.87043474348178 5:-3.1529472521571407 6:28.001301602597728 7:-17.883339368585435 8:-5.9990994309790295 9:-24.556641660280498 10:-13.138283814761525 
0.68840496008211 1:29.52586597016468 2:21.66750243450158 3:-0.48628588273160744 4:-0.6118492332301848 5:23.25601149580916 6:15.82480057586831 7:27.54290600489051 8:6.698857554859494 9:-11.477650410285332 10:25.557212152914133 
0.26487605574543416 1:7.873450701819323 2:18.611793973735132 3:-10.338564960917783 4:-28.315241757712183 5:-20.728375200939105 6:23.36813084243176 7:-25.45799061113822 8:3.043765480749869 9:10.244468225618178 10:8.698137921171565 
0.47538213751451686 1:6.399665040137286 2:17.096694125279363 3:-24.516381497776806 4:25.88166929390416 5:-3.733959706977622 6:24.99011020235445 7:26.62041500597895 8:13.357797584590557 9:-26.09058278666334 10:29.519677757606928 
0.4197671673066363 1:-19.839674287441973 2:23.215523859555205 3:-23.175286317844268 4:24.67585093385884 5:-21.97668062979577 6:22.54981195979901 7:-4.6931146115700315 8:-2.4661533078672484 9:15.550433013470673 10:-27.805463856656566 
-0.4552234834688029 1:-12.987076648011321 2:17.216260187655337 3:-21.854667754187737 4:17.746291086601694 5:-13.336328450140222 6:11.496591990306925 7:-19.09669674165052 8:2.0703443216157567 9:5.657820880357576 10:-0.6732644193795707 
0.1393634971177118 1:25.63867676374622 2:4.632360458449668 3:2.3664874813768364 4:-12.838614967423638 5:16.655284714535597 6:-8.97313008079049 7:26.747935923853007 8:28.417094715895956 9:10.413160446012768 10:-4.024210290140353 
-0.15525075980215597 1:-27.80012832049993 2:-17.020456968535417 3:-9.995159927557424 4:17.398452503382217 5:25.445729490542526 6:3.7994994493704937 7:-0.07371566311227085 8:-9.76890647723695 9:-24.995334377728145 10:-7.773278185498505 
0.3188524569247786 1:-8.034238167961206 2:22.735029675060062 3:-23.217593308013328 4:29.118142773333616 5:12.539881463753062 6:15.415282550076391 7:24.52572462656083 8:23.31008654812326 9:1.2987208872653042 10:-6.809924542170226 
-0.14418874645314617 1:1.9554056916256783 2:27.247861132687248 3:-4.74417803701877 4:13.085742403030032 5:0.9359729698567989 6:-19.474273773920213 7:14.043732903146086 8:-8.489612857670117 9:-22.953729998482466 10:26.758978565350723 
0.24499845916606944 1:-24.73334135125521 2:0.3073644916106417 3:-16.65134409968187 4:29.737244948409035 5:14.292855624691313 6:14.754466305256528 7:-0.5368692105290194 8:-22.789554523118184 9:5.075540331328789 10:-17.485455046619517 
0.3675058622525871 1:-23.763698573915036 2:24.936182578740684 3:17.712122143712875 4:0.2581619135021178 5:26.35370324418645 6:19.76970758157716 7:-15.552281415373896 8:-5.731310505216985 9:-11.822417226965129 10:28.604925562905883 
-0.7176468102743936 1:-1.3000403173243242 2:-17.194874015917456 3:-6.0991588058236985 4:-10.122749456137115 5:21.42821384895803 6:-8.662261851891035 7:3.791421547967289 8:-23.883516263433776 9:-4.20855237698688 10:16.986497693062987 
0.1870063402906279 1:25.860040644145876 2:-10.309799717239521 3:14.535016613113939 4:-4.4179102607302525 5:4.7177281941100375 6:29.40550827902249 7:-15.082193720221335 8:-26.26583589908514 9:-5.301740129777123 10:-16.960647132757238 
0.11685715832413202 1:-26.762798568839273 2:9.131290885858512 3:-29.495852060871222 4:0.14492082946329887 5:25.130483114071808 6:-4.988027292656206 7:-6.306563544084575 8:-19.365998104675306 9:28.82733354122947 10:9.33587334395935 
-1.0 1:-14.741812188104607 2:17.662540098685234 3:-3.6007815026210537 4:5.649290941679098 5:-6.645934219057548 6:-1.751055115704009 7:2.7975310896804544 8:-9.02127536024759 9:-9.075902154420554 10:11.832062134464586 
0.11782931641044492 1:4.09344833153591 2:-3.6987332087727545 3:-29.48177284373041 4:5.628052211159478 5:-25.17143593104171 6:-22.769663981724833 7:3.0438860666321617 8:-23.82720378016844 9:19.756446649089966 10:-13.479824608121454 
-0.1109683506794159 1:13.491429717086469 2:-21.1612569732092 3:7.501371300966788 4:-4.167665449905481 5:-0.1381690005044618 6:-8.607498613443738 7:-17.21844210182428 8:-28.0777776763414 9:-18.417349591021363 10:3.8117887867749047 
0.6170057720425302 1:19.840358245846957 2:-28.00634003146112 3:-29.368108596826346 4:24.60772418199268 5:-17.400092715466727 6:-5.5658137996606065 7:-7.6020633739350885 8:-26.199228611923797 9:-23.202136326489786 10:-15.516241343437498 
0.3970834640802714 1:23.987354170722156 2:14.475992059321584 3:-24.01104100864933 4:9.604262802139843 5:25.250959694433227 6:-1.5043865747460146 7:-23.210846939572775 8:26.40717904873769 9:-7.767876762963169 10:-12.525741888044578 
-0.008327942036975955 1:9.111303049966637 2:19.961500940222813 3:4.049877007496185 4:17.524522307529608 5:14.387337924895107 6:-12.856063155866572 7:22.413011436634555 8:25.557947498832533 9:8.89303576473268 10:-1.5918081450164507 
-0.28285946034960574 1:-1.9801016056689136 2:6.078743845710072 3:-9.712428636308651 4:-13.05997598622502 5:0.032416252100517795 6:-19.564991119044006 7:23.351122958732212 8:-19.37040615682522 9:13.620910504311887 10:15.39449074312082 
-0.25219185177512493 1:15.649906039326922 2:10.632445644662134 3:-13.739255475861079 4:-15.310682807409092 5:5.47909797964563 6:0.5053686680128955 7:6.019555236132824 8:25.826428635542065 9:-7.069800697510736 10:21.993144745960798 
0.45715466150940465 1:24.507975557562887 2:4.987828832301261 3:-9.699494362833946 4:-22.49290062263012 5:-26.52488713471262 6:25.247081090988083 7:-9.691582722794703 8:15.176202188589556 9:27.21372635305633 10:-2.3941576972373326 
0.09051316556235633 1:29.699429259104903 2:-19.933736150978618 3:12.998594391764072 4:20.506550072403513 5:1.823738239534304 6:14.752692020383321 7:-11.284803670897116 8:21.50475420866131 9:-15.362506290836208 10:-16.1029506657253 
-0.7363766483212455 1:-9.355612943499786 2:4.686894945688003 3:-19.674195117853188 4:-9.182458669905259 5:5.052373592342946 6:-20.803318924026094 7:9.366728492169834 8:-0.7416270687844353 9:-5.206140216470573 10:-22.114409771030516 
0.25654577164279857 1:25.351529818912745 2:-29.347199616598775 3:16.569864474534654 4:-9.369681426489223 5:-2.752356890419435 6:16.13948387116593 7:-4.209735997297944 8:14.262385048969719 9:23.036795428193017 10:-16.56832287843872 
0.30571978602232264 1:-15.82526668823689 2:20.332415305539435 3:-7.218088244934066 4:11.353528195810952 5:-29.71564684979682 6:23.08398405334769 7:-29.827541799589127 8:29.447721629320483 9:25.10972535994452 10:-26.960756067758467 
-0.11797217961146877 1:-10.530974675573564 2:-23.476557679144204 3:23.65005585471271 4:6.500895543641029 5:9.514000029701613 6:-19.646467902930603 7:-10.898759400228439 8:-11.947575117886252 9:8.096298441923224 10:0.9445627691929168 
-1.0 1:-1.1704083152503344 2:11.790837520426741 3:-1.5457736665843989 4:-8.106649550504823 5:10.741438030669315 6:17.553506423702764 7:-14.928402923128456 8:-21.69168277166394 9:-5.032585914087932 10:10.80306752188909 
-0.31563015108793735 1:8.16837444991073 2:-14.38605803549427 3:-11.036143464663738 4:9.111643396774497 5:-24.591833147018917 6:21.271368568882316 7:-5.807665038127848 8:14.338022030032548 9:-14.658993282576493 10:11.038110514379227 
-0.29846755276637005 1:-20.528104295382022 2:-12.381222970796575 3:-10.029058517625465 4:-17.145396646186207 5:-10.092767037803167 6:24.19662372613567 7:3.584064648465038 8:14.785238835534805 9:20.979578914109737 10:6.886680938458696 
0.17598294316785967 1:1.5936877339215556 2:-21.34368185302806 3:-15.054309456878263 4:-19.366350030724078 5:26.65546799026287 6:18.123229151723407 7:-28.876078074331936 8:16.140236851942113 9:9.676391848805217 10:-21.135999932100646 
-0.4141782522104176 1:22.954952476617066 2:-2.0504734090259262 3:-19.412385030872844 4:-20.563794606160084 5:2.908327070053282 6:1.641335990458515 7:7.872230848947801 8:-25.95093839309542 9:11.364589765904348 10:-4.0450788427095965 
0.16626852628620092 1:-13.164822208936585 2:13.092377822141302 3:27.536346400450626 4:-1.3222334801704392 5:14.473527839760145 6:13.72890513690745 7:9.300214704104583 8:10.04251722577991 9:23.55155819017226 10:-28.803591504704723 
0.07723385067237842 1:2.3410390836879458 2:-13.008728264923246 3:12.704915150532834 4:-6.498982990432488 5:-19.067619268056546 6:15.429901024198628 7:27.897130326079655 8:12.68923827183204 9:-28.165664572546454 10:24.827363801875798 
-1.0 1:-14.95713921360646 2:-15.481694136355861 3:-12.90614513166966 4:23.366769546756586 5:10.041652481149981 6:8.683075799610215 7:-0.8251226848934152 8:-4.906850237261327 9:7.391859027829483 10:5.042418055018963 
-0.05653870216079149 1:-2.271570556885134 2:-23.03241612110089 3:-20.69062628037784 4:23.14279892174092 5:26.20032762753639 6:22.846743252015926 7:-2.9412192902821204 8:0.7532725923040395 9:-3.7166542054489433 10:23.839117680450116 
0.4546810435243547 1:-6.339251210588326 2:-29.65788797812462 3:-0.6313782004047717 4:27.54533692296696 5:-9.394768196783168 6:-29.00416638090467 7:2.018420819142513 8:-25.781130154690164 9:-2.6337657528389826 10:16.52467006700425 
0.007494636204585348 1:-1.7302972454206014 2:27.026669386667677 3:27.26002127767044 4:-21.161691751276408 5:17.261540498947568 6:0.36666200722637043 7:-25.19026928893458 8:-14.109352026117794 9:-22.761981078100558 10:18.851337038279723 
0.17708389632118227 1:-21.724549644867306 2:5.5820907668657895 3:16.411856182716278 4:10.094049373946355 5:26.379908010673127 6:10.9727725570106 7:-22.51744919246251 8:-13.163045425785008 9:-19.49398320707418 10:17.99997992795511 
0.08610278556283824 1:-24.21350764740896 2:-11.76314044253904 3:12.763626838481173 4:-25.392187365571846 5:21.115035580910877 6:26.27764726104899 7:6.318896974116775 8:19.7870424350142 9:10.170136982278692 10:1.3052046061740725 
-0.29096778153316727 1:7.250834547118288 2:-17.512088331436196 3:0.4357667072609921 4:10.5832019453402 5:-3.054398110109215 6:-6.29150050766771 7:-23.073123124578096 8:15.545371571004637 9:-9.339681676157511 10:-19.72388553765445 
0.3585021361553249 1:10.83632084425318 2:-22.92772356332655 3:21.3841613000437 4:15.92899834473981 5:23.53368172362064 6:-6.352052906948849 7:-1.5043338829795587 8:4.270497768805001 9:-29.321378334550403 10:24.654036721393766 
0.3785342285499915 1:-2.0387781262290936 2:-0.992320779485997 3:29.394876474055103 4:-29.66343698359791 5:24.94084849764974 6:-10.398760205917451 7:26.509684335679005 8:-28.86740384163705 9:-29.336560922039755 10:-24.956641088501023 
-0.0727742096041073 1:-12.202997383083137 2:2.0716198548247533 3:23.304756184372046 4:-5.054962889031678 5:16.97143376067644 6:-7.131368968411223 7:27.347522240111267 8:-14.545736687819337 9:28.863440616142746 10:21.103387185856825 
-0.7522625857710885 1:-2.475898502344812 2:-22.25877234426974 3:3.764959558514718 4:4.532554210651121 5:-18.0616843176678 6:-21.12336493131663 7:-0.6318501627906485 8:-0.8911528112353011 9:14.3340359059506 10:8.893992115542659 
0.17137219128657222 1:-6.971397783694794 2:-8.316388093956636 3:-22.275691118850414 4:13.666629436930371 5:-29.73207364132255 6:0.6466334612352078 7:-19.284134445551086 8:-29.054977669399477 9:-14.51077958432048 10:-16.090717858890404 
-1.0 1:3.8599098227849282 2:-3.510155382497029 3:-2.187464531720927 4:21.66448721061915 5:6.231254937201172 6:18.701017842362276 7:8.746030861285895 8:-8.740648002363557 9:-7.816103586659789 10:3.482877761733377 
0.16179448423444143 1:5.8966048831129925 2:-0.29642311119969733 3:-17.087082919017057 4:-27.61437708389102 5:11.172811992506062 6:-26.271721600319403 7:-28.36145493980167 8:5.475875327898443 9:-1.3224553169402462 10:-11.4087548342204 
-0.36692910517269617 1:-4.01875738183837 2:2.2926511005501595 3:1.9169402399507476 4:17.75864924206433 5:25.523058042706936 6:-17.939149315097982 7:-9.522288463989518 8:-13.345075779596733 9:-12.592080777954063 10:-10.733366920882148 
-0.0829261407423676 1:-5.392112749838557 2:21.59210812542979 3:-5.716617896958201 4:-20.3328383212549 5:-7.54369419239168 6:-15.73572613119683 7:-16.792291460554942 8:8.900061225041114 9:5.504910653210999 10:-19.929399974977315 
0.06624020752929205 1:-14.088154812577038 2:-8.092291667790729 3:-28.827458811657163 4:24.278802719630917 5:14.159781928045511 6:11.320038955070679 7:6.3479338328363895 8:-26.57663348873716 9:-9.442050829104026 10:-4.65365845115365 
-1.0 1:-6.414486522097562 2:6.405649608703577 3:-19.11751691112624 4:13.348169525399882 5:-1.168019879590286 6:-9.224965820689846 7:-8.125809315445565 8:14.178827956254281 9:-5.867533819784235 10:3.3021726252626067 
-0.4365788909988648 1:16.979723679196653 2:-1.1751385965777708 3:-15.953724771330007 4:-23.923129205723942 5:-29.204362366923004 6:-11.952516447334261 7:-1.101867290888837 8:-9.86135007342828 9:9.578862394043938 10:27.231607374228474 
0.6864105021013316 1:22.465476425111675 2:23.352252647871033 3:-29.29176111798842 4:-27.377564953876742 5:23.72372066924811 6:-7.20126863737914 7:-23.804827468883367 8:8.492111892711598 9:17.255831277465752 10:-12.466427698632803 
-0.32282757250819394 1:-15.667818547019358 2:11.742217956466895 3:0.11611756562502151 4:-8.159366307415354 5:-27.310859583422765 6:18.16264425101049 7:2.996750784753722 8:25.263031613173602 9:-8.336817848345667 10:-5.842706104774841 
0.3326356742073866 1:-29.520873872558003 2:13.719427650240284 3:20.659263145857935 4:-0.7881167183825255 5:28.960747255874907 6:-24.083432343823183 7:28.72452782190335 8:-2.2810592153263727 9:11.531945031258275 10:-18.95381324842637 
0.4732662289645404 1:-11.919321360107126 2:23.989967487190306 3:26.635306129987576 4:7.406825580977483 5:-27.505344626963296 6:1.3745582104029879 7:-18.22571554221998 8:27.118379260221893 9:-27.200966176238644 10:25.371130056939798 
-0.20248679416030768 1:27.519965187893135 2:-16.270551646362318 3:-12.278984041629293 4:16.07696309430505 5:7.686419835112929 6:10.005997346351435 7:10.693211424690077 8:3.1884929758760094 9:-4.499015358016361 10:17.738829199103527 
0.13553864639028745 1:15.35374443183099 2:-20.75133804726267 3:11.504678371095828 4:-4.969962148875723 5:17.38645123237479 6:28.304863638816812 7:-9.523627271895457 8:-5.152233765626761 9:23.03931060976071 10:14.445879506363404 
0.16967820124667732 1:-29.35737491013385 2:0.44818476186894785 3:9.935321995217812 4:24.040885646130853 5:-28.085971615380483 6:6.543826173667746 7:11.945025235818179 8:-27.74640254742859 9:-12.704520015843045 10:28.876368338396446 
0.04573347076739864 1:21.906670714196203 2:13.550132213920328 3:17.61374188957609 4:-5.55820433125653 5:12.913649210868996 6:13.94659432457216 7:22.576859912069523 8:-23.919314459817762 9:-7.302625257141884 10:-17.355314020007988 
-0.03830032794075855 1:-19.073958952010823 2:-21.513741360757137 3:26.317417264309228 4:-17.518993588729117 5:-10.93828757888863 6:17.897628955416124 7:-10.070733763032212 8:2.2680346662859776 9:21.021562539758293 10:-15.164437275285357 
0.23183226675721436 1:12.833704645344255 2:19.63215276179372 3:3.0594739762635754 4:18.202892486181568 5:26.320374420284303 6:-9.64360397514201 7:-16.679664875534122 8:29.911560241386404 9:-13.99831016477987 10:29.512958528142242 
-0.13496975702310543 1:-18.773173563926814 2:1.9131379435013187 3:9.391866048354572 4:20.822843536538898 5:2.1903571524731404 6:-7.900510419243208 7:-27.58058968566466 8:-16.292626292156246 9:1.12943657312017 10:-27.99490737561139 
0.5300266515753247 1:17.370042323976314 2:2.3986152837477945 3:-26.975162355797814 4:-2.4176108613877787 5:-19.55944321436263 6:18.253156855822397 7:-19.637966739643318 8:4.536364259815024 9:29.642791868709494 10:25.06596271443265 
-1.0 1:-4.192542988034393 2:-18.20559788805673 3:13.230414958172652 4:7.7084060752092896 5:3.83621918960867 6:10.652326865445396 7:-4.870145125151847 8:-13.1830554826082 9:7.275066307099088 10:-17.02265675827153 
-1.0 1:-2.9596965785618856 2:-3.463810578041759 3:3.8453730848421728 4:9.563477742130729 5:-3.0737176039882073 6:8.472514726357758 7:13.787147539145444 8:-20.675069010421097 9:-9.440102508094952 10:3.041681619901162 
0.4098021148408133 1:-27.483965640898994 2:-28.522377712746703 3:-13.421535770803445 4:-20.703720572306793 5:12.011460655368197 6:16.199027168947104 7:-23.793195003278075 8:6.096155197796165 9:-18.74486532861978 10:-15.52872878230422 
-0.6499367054167031 1:16.352099958713787 2:11.137325280295578 3:19.53520285658702 4:4.902277237092477 5:-10.787225511764486 6:-20.11777912493808 7:16.80245447426197 8:14.284614465120676 9:-7.148511149969611 10:-6.163541093191874 
0.7008279354803868 1:-7.488899079770029 2:29.491523219840587 3:-24.634091440140605 4:-23.105330668935146 5:18.497675714100836 6:-18.975535162006224 7:-29.65048996530522 8:-0.36974097637048686 9:22.447779640953243 10:-26.883641217517575 
-0.14360366528875623 1:24.669596117900248 2:-17.007622112743647 3:3.6056349774266963 4:7.710947193983557 5:22.644699320107676 6:7.117322361096534 7:9.826844406386414 8:4.533646549301295 9:0.42056923741126084 10:21.992534353363496 
0.08201337274038245 1:-21.652495663819757 2:-5.299062463904917 3:-3.5470735567089946 4:-25.661696492254826 5:12.952556685374802 6:-16.073109741076422 7:29.02944448051351 8:-4.763601483701713 9:-15.666238401344625 10:23.211300507122758 
0.17650328311980878 1:7.375592079919677 2:-29.992897301837854 3:10.941757881092968 4:23.650012491803864 5:29.52952600533993 6:7.367740074127568 7:-4.02654924635295 8:-15.774802159484958 9:16.249660635562037 10:20.25927622479397 
0.05795378634844184 1:28.535148485749588 2:-3.3698535436039236 3:25.640578973154703 4:4.845160466803414 5:6.2114095807257 6:29.87985823990254 7:23.220088371848938 8:-5.042446155537597 9:18.75137908547589 10:-15.046309295620045 
0.32498713341983 1:-29.97812928709584 2:-28.429386547873342 3:4.817696197792031 4:17.325021239748217 5:-16.64389892914258 6:28.237014149178115 7:29.004765650911672 8:-28.84037301272499 9:14.92769453858321 10:16.622255224053895 
-0.6588457777503738 1:17.111476248881026 2:1.6640508915020007 3:-10.237506282332582 4:26.86051047464968 5:6.218697244913216 6:-4.68270043581191 7:-6.850052195372108 8:1.3036279307350647 9:-25.209141835451966 10:1.128758714661771 
0.022417948299374046 1:-14.24427296222506 2:-29.08069915253701 3:-24.93990414220327 4:-24.340863891735253 5:-24.311244311843325 6:15.173031694809161 7:29.714364598270848 8:18.071525904495516 9:-19.169859827809212 10:-10.131619893664649 
0.04550046196863988 1:-2.6018383554709708 2:-9.189877958105743 3:28.852578843917954 4:-19.865186057364653 5:16.593125476398633 6:22.656458279714784 7:-6.645048514052277 8:20.342349177965083 9:9.37937064438978 10:-6.05959897549042 
0.31842200240103047 1:12.407842239647977 2:-20.813007657114795 3:-14.612986951945238 4:28.58545922221432 5:20.551887383681944 6:16.530843289507217 7:11.930905336698586 8:24.44531679420355 9:6.911902523431301 10:-1.2044230167990442 
0.1548042511817158 1:28.880239668670683 2:2.0408516442135323 3:10.58584325679768 4:-28.20215724913535 5:26.248239434278354 6:22.33421053048879 7:-0.1612447402982511 8:-26.12002249672148 9:-11.20424086355149 10:16.57892648689355 
0.4211353133607503 1:-14.006985911836926 2:-14.459836773837093 3:-14.38176561195836 4:27.485917122264567 5:17.81237085344206 6:7.890953816684821 7:-12.487167447424937 8:-29.40272031596285 9:26.506356596776598 10:11.054840672257207 
0.09908275699299018 1:23.418941554344705 2:-15.775365537911089 3:1.81369998208147 4:5.689788800200034 5:-11.901944494934156 6:-29.672964498767264 7:-21.42863178556233 8:5.837487965243859 9:-22.910929957373156 10:-25.128063019678507 
0.48953321601754496 1:-27.043337905886958 2:1.715254646172145 3:15.7108812572162 4:-20.673705271470766 5:14.304145251785776 6:12.588240805044038 7:-29.82349356171885 8:-11.623702911802297 9:9.65113638764376 10:28.501807719385305 
0.13679710182577054 1:24.894468743801916 2:-2.614815878026995 3:-29.884569286359927 4:12.352646690167099 5:4.322242438772918 6:3.2539834046533542 7:-5.483538674198137 8:-17.14035613576391 9:10.505671879185094 10:28.812784198475043 
-0.1526008909580696 1:20.0665234437295 2:-23.394390838230454 3:15.978235141080397 4:-27.014199992218128 5:-20.214469319945678 6:-11.11379421895304 7:15.729255725085835 8:14.88667745937368 9:-16.5519969685546 10:-2.9946644326668768 
0.42923841004843055 1:-25.55142497025372 2:28.35823572964062 3:-12.658970119318575 4:16.84043075901191 5:-1.482858285538672 6:-29.954765625430355 7:25.82749170209079 8:-29.927002080809206 9:0.1669465145846054 10:-18.35028087827577 
0.43395624896059815 1:23.220501934302675 2:22.632699973087526 3:-20.548067850069323 4:-12.751849391370659 5:-20.645372901014767 6:8.66166204071876 7:-24.561466754142568 8:-1.0762368154496258 9:-16.591160200282577 10:10.494462523171123 
0.395265663642725 1:27.50940416500572 2:-6.563705258186008 3:-24.390502881691827 4:-11.93407936411051 5:-24.069003871121865 6:-16.07880047865269 7:7.609875914432024 8:16.368697798985096 9:-14.544203608231086 10:29.113103515241782 
-0.08289363296414898 1:10.652667140468765 2:13.471709893765684 3:11.033614760621845 4:28.986052107134682 5:-4.476088967598727 6:-22.694718941356346 7:-21.641121393702534 8:12.020067120555986 9:2.1032167095876915 10:-10.124289518675273 
-0.4861474782979851 1:3.5995952048713775 2:15.084334156914736 3:-0.053137248451438523 4:11.243015703503062 5:-4.835594469151484 6:-12.153195430815945 7:26.35487754927398 8:-5.535248279768741 9:-10.682968031582234 10:-22.197674409373146 
-0.06570275995708386 1:26.13478584033256 2:-16.86450578884857 3:-9.821459008148754 4:15.063035527699945 5:14.791829582693715 6:25.26884195644302 7:14.254680241439146 8:13.373078392764313 9:-12.84413791029975 10:-26.933623537811794 
0.03616804095499049 1:9.690429033547638 2:24.77972373228922 3:27.18533150793337 4:11.796583696218647 5:-10.159565483283412 6:26.053062930967435 7:-12.311369500816394 8:-1.576264383471763 9:-9.502073069972031 10:-24.97985145604146 
-0.6321841945219102 1:-7.930884004258594 2:-26.661816483176597 3:-17.62910473181034 4:0.8193338466218698 5:-6.616281044566204 6:12.816839536102776 7:-10.484646382142657 8:-10.204619227775744 9:16.063669510909115 10:-4.005023131007022 
0.6561077329276941 1:20.43161910373324 2:18.345775208081236 3:22.57943096451904 4:-11.84218322070555 5:-8.59935148755278 6:25.493497645937104 7:-28.859466219007807 8:-27.937273670472685 9:-8.616465041218003 10:-28.698616092021762 
-0.1200178972773589 1:21.20461913423936 2:10.780178302590215 3:-15.571612996750396 4:-7.541987624974478 5:-18.871437111984264 6:19.19397506992496 7:-10.975100607512466 8:-16.545065557084868 9:-3.271833108501024 10:16.828591484285006 
-0.46705210385321294 1:14.218012837207404 2:20.739879881635254 3:-9.178510680564624 4:12.0738187400366 5:-10.46184019873785 6:28.07042565780018 7:-17.985518496365394 8:7.154252346614996 9:-0.07331820194077565 10:-25.992529098970977 
0.2804821239857951 1:-23.9538081227898 2:-25.656511306466673 3:27.831107105055892 4:17.07767092154927 5:14.944382026582566 6:-23.04973355076675 7:12.516064820991282 8:-29.40112620445039 9:28.051027274922284 10:-26.49388979879682 
0.8245842286710907 1:21.38169163860421 2:27.502405047294346 3:-25.33928404161668 4:10.361382989302207 5:-10.297482979824519 6:25.70090778834828 7:-19.42639732442091 8:-23.45098796141747 9:23.695871733052265 10:-13.359703307057195 
0.2643745818214125 1:-29.70186573450553 2:-14.697530217660983 3:-22.80003967834854 4:3.639213665704439 5:2.947375586949569 6:19.01696316387649 7:24.48787721385495 8:12.459220332731626 9:13.056354537097391 10:28.720108974840166 
-0.2614567294633474 1:20.86486338031495 2:4.2638168305094055 3:-2.393564431706391 4:-24.72928042180257 5:-11.307735100048859 6:-19.285807818160553 7:-2.523684440186834 8:-2.4683171656065923 9:-10.64728927008089 10:2.4145113213814966 
0.4643929905558828 1:-24.652136446932857 2:-27.33476303249191 3:1.4171255313344382 4:25.259305836272446 5:12.77857407865023 6:-4.523685283846405 7:-18.104694941249324 8:-25.54953808484052 9:-3.288970053014758 10:-12.618055711760945 
-0.6979163892012004 1:-19.052163355622504 2:-26.95891681404228 3:0.12335284805230273 4:-8.887934603205888 5:10.808303947619237 6:20.82838052683396 7:22.83321255387576 8:-5.350555822231737 9:-3.089276048723832 10:-9.742416931217157 
0.15740852839591923 1:6.651571516371121 2:-22.8062702417569 3:3.3383541853193393 4:8.713676259837754 5:-25.859095123562437 6:21.087014341094964 7:25.706008308611835 8:-8.832327058285973 9:22.16627794129434 10:26.66563803562952 
0.13365510565690641 1:-17.540803164990848 2:13.608919674535649 3:10.236200761718933 4:1.9052878648364846 5:-29.68057815796442 6:-3.9652015628607984 7:19.313826231702727 8:-24.496190259007967 9:1.2261298595116763 10:-26.015963725946193 
0.2948569589864629 1:-20.662388813719264 2:20.698483480636305 3:6.621851089574491 4:-20.31032737914243 5:-6.875817990404254 6:-22.35814580462521 7:20.298188514971876 8:-12.107428883606168 9:0.6347094326611931 10:24.56256864649491 
-0.4835435696400463 1:13.266401012365037 2:-12.803776156824654 3:-9.230259026340146 4:12.214987685569831 5:-6.762577278716336 6:-4.4415850349443815 7:17.915962687280803 8:-17.72627934334075 9:-22.707760029511945 10:-11.894810422153068 
0.18154959412395044 1:17.402029188178197 2:-21.643463408785827 3:19.19466335819341 4:6.917366520657168 5:17.829137817742662 6:28.26146998968663 7:-17.455388980951767 8:-24.220259709160366 9:18.925649274149023 10:-12.218695007836502 
0.06757758118790136 1:17.59111780346315 2:8.097901923277469 3:-18.86635840515931 4:-29.88911023578562 5:23.02037632769536 6:-6.722507429533525 7:-22.43113269863324 8:0.39018995993004424 9:14.405211248916189 10:15.825530091324133 
-0.11168168552198487 1:-29.695806600967686 2:12.328219535364703 3:18.248482313904297 4:22.273294219760828 5:-8.889800359050014 6:3.1304082909572273 7:-15.325990806635001 8:-16.264896254452523 9:-8.154824969531042 10:4.104287748350778 
-0.40256171917467753 1:2.8146957529219847 2:-13.492840234864772 3:-18.379613022522072 4:27.345702239299378 5:10.818625578303603 6:-0.424529504544477 7:6.675061473793512 8:-6.189883835169443 9:-2.859981428733839 10:16.241725224118213 
0.14841276387651803 1:14.579116975394001 2:-25.1490659489329 3:-28.597020765510607 4:27.29082355495037 5:-3.059709799191353 6:27.959071919678458 7:-18.37786707221146 8:-4.786401648962521 9:4.225882351803065 10:17.965397072106242 
0.2639182478602713 1:29.935268683614098 2:22.963145852171984 3:12.617946487169633 4:27.369950076686926 5:-8.750743874007508 6:6.562979908965538 7:-3.9956583382261606 8:13.739257254584672 9:28.321557020453177 10:8.600106653335125 
-0.9165154319403293 1:16.266647807191255 2:-11.734644529888214 3:2.7957860188822536 4:9.225934421970557 5:11.959566419029386 6:-12.392519002850683 7:-15.419179620595479 8:2.7527950778137225 9:19.284990030772917 10:-8.960226593904274 
0.1388994626242006 1:21.709106168232573 2:-28.726318961394824 3:19.94753694075375 4:-23.29437753584237 5:9.430853051910212 6:21.947663482338484 7:-1.9630574901550197 8:-5.568322999753111 9:10.796934548799634 10:21.683282513641302 
-0.6577476977851031 1:2.5162736686415883 2:-1.918140153741163 3:11.354396616752076 4:21.917054809760685 5:-6.79644119834596 6:7.834073689416833 7:-22.175430586857185 8:17.0240962334611 9:-3.6820251514191753 10:22.039641637888238 
0.2764542719429759 1:-5.245135754992091 2:22.612678386586197 3:-29.279618377371815 4:-10.522149236104475 5:14.13144337670333 6:-25.455611015041605 7:-12.088469219193879 8:25.84532568842757 9:-29.188955023982327 10:15.986441792345275 
0.3718949884913858 1:-2.3400836202676736 2:-26.77770212884817 3:-28.623679883688872 4:18.142458382723483 5:-13.185200619006842 6:-21.964822085952385 7:15.64015510283292 8:-9.477029348540785 9:-18.5814548324681 10:-18.31281444016525 
0.2714519842807661 1:-21.479460175617017 2:-1.293344945226579 3:11.666005664539355 4:-21.443876291212863 5:5.3786156520460935 6:1.5082226295648056 7:-24.43273682253263 8:18.46076574522359 9:16.15867329296897 10:-14.691320652995643 
-0.09508679181109336 1:-19.646341611837137 2:14.974596143107817 3:12.78992175536829 4:-8.981441669638546 5:-29.27439193354663 6:27.118081658504117 7:20.305963500785005 8:18.734522953781706 9:-10.025669185153873 10:9.987894105046777 
0.09113339468492931 1:25.009003908489404 2:-23.385355470461782 3:23.818153055433825 4:19.783950925884604 5:22.75192575325964 6:-6.162572106259734 7:-12.522283729385364 8:10.472388660753651 9:-2.967582142674946 10:-17.2754283356565 
-0.025352424495416415 1:-25.927050048773648 2:-7.024996471523895 3:-29.910507151674885 4:12.197248884429278 5:6.858300541793788 6:23.302984978080787 7:10.563775177124604 8:3.7005498394838057 9:-10.878713843235342 10:-16.54485321738732 
0.29894049373896436 1:18.529065142109808 2:1.5705830412126751 3:3.753043452806274 4:-21.821816992603246 5:22.82376424855505 6:2.5335621386704474 7:19.55813426347993 8:-28.16117208433504 9:16.606847963948596 10:-6.383953751463029 
0.2047222305524361 1:13.304446988905006 2:12.685142922187332 3:24.93415357966746 4:24.21036319534693 5:-24.677326062850632 6:16.676490963938804 7:22.896860841784317 8:6.37907130484799 9:-7.851629435569446 10:29.839112371693936 
-0.0019881680215956266 1:4.485133883383142 2:-22.30282903348789 3:-7.741742908639459 4:-3.243437642109214 5:0.8359674597641025 6:-6.9793959399751095 7:-19.614015340931935 8:13.331583550192711 9:21.89539756492895 10:-24.465545584678324 
0.24796466978295761 1:-7.788814221881481 2:-25.64161527997128 3:27.771330925671336 4:-26.725932270770322 5:-25.600772553993835 6:20.721578709403886 7:5.174306217405935 8:-24.972821095537363 9:-24.97231235217567 10:-12.809558265608949 
-0.06318134482158833 1:-29.66034734227137 2:-0.8850207983672647 3:-3.630860905816096 4:-10.195577269096802 5:22.695542544746566 6:0.014876690231609757 7:-24.191540250743756 8:11.748267237917894 9:-6.712426012573044 10:-18.8724209657493 
-0.005825920612577917 1:21.35645490881707 2:-11.607627672239516 3:8.591602227627973 4:17.20593784692423 5:15.780159710329642 6:15.826403297314421 7:-16.157393612491582 8:17.05286654894951 9:-22.19616487836604 10:-7.258499721622222 
0.1139470557665927 1:-29.621480083577822 2:-3.9395248466136508 3:-29.856798787813158 4:-27.081216118569337 5:8.743991326464887 6:19.002398593605008 7:-7.68091298597389 8:-25.140822113303322 9:-16.579811109935584 10:-23.79383949349114 
0.13542388953797158 1:11.255260960587535 2:26.241930797465244 3:-23.957175186723774 4:-29.177757955630568 5:-15.401218228539841 6:13.926566141687765 7:11.841657389049494 8:-18.62862031200602 9:20.50984199721053 10:-14.884685191829242 
0.233060317756836 1:29.080915866296017 2:-10.281153470478092 3:-22.372459502836367 4:-21.727140826647442 5:-11.788409002007917 6:8.962883186081172 7:14.793345415553645 8:-22.733559618587066 9:-15.414372625770675 10:-29.225323086900644 
-0.7579881583462047 1:-17.25937260701408 2:19.298120120496996 3:15.45045389477498 4:3.202063893183734 5:5.702551868685568 6:2.5522535577334367 7:9.039219036198453 8:-17.158014053676496 9:9.45026704118613 10:-8.841429302566429 
0.14802260557113378 1:-0.9916030646711036 2:8.65328794556958 3:-25.247072619121788 4:-27.46763798928442 5:25.456059138913247 6:-13.956842308730973 7:19.72598044341474 8:13.266544727086945 9:9.218312758177255 10:10.313242588121874 
-0.34368829534874656 1:15.220324714369887 2:6.327172898732904 3:3.2552474086253724 4:-6.264881563330444 5:19.688819434082305 6:-19.959547379264155 7:-26.032395698649857 8:23.901519217872426 9:-19.99590332456242 10:3.0467717151097133 
0.20208611513870878 1:-26.78173447840926 2:22.224250182287875 3:19.65752660322751 4:-24.23565261236036 5:0.1932624104003473 6:-15.207754103568528 7:-23.284389294321027 8:5.437059619569972 9:-24.859704809173504 10:-3.236550713708013 
0.5796223417803219 1:29.460453556799692 2:19.250742172086184 3:-14.481202631565983 4:-16.445893314052093 5:27.074552176879664 6:0.529503878648061 7:0.4667250173106581 8:26.05382022794383 9:29.038703884786173 10:-14.573949379916456 
-0.12338901666812063 1:1.7352802135422323 2:22.934644534514234 3:10.095470603540747 4:11.797257549154438 5:8.363934573617598 6:-29.16273291169745 7:-12.310797631428589 8:8.1086574589823 9:-1.6358222102332718 10:-27.192773282354466 
0.061218909209685535 1:15.727213643657734 2:8.23877678284127 3:-26.448483297284124 4:16.8189171165506 5:2.315335489904676 6:-22.043330444927136 7:13.4113445350008 8:-10.434986037533662 9:-10.195389617590926 10:20.623293698587652 
0.3438922670723059 1:20.50538563667216 2:5.903744889460299 3:-16.95547023472323 4:-26.680280634684284 5:-6.578446991792941 6:1.446341659981993 7:26.171791544951063 8:-29.867453198644846 9:-6.358922499485654 10:-25.26821274729219 
-0.5065506796462973 1:14.510737386996105 2:-16.89415739423942 3:6.014862059259514 4:-7.186286495068149 5:20.654696610534742 6:-18.97064585959849 7:-18.333562952260642 8:-5.992874778868924 9:-10.74034248020438 10:14.241969540389348 
-0.010502940270839645 1:8.92571058606083 2:21.42194467003494 3:-24.377672538586793 4:19.13886586733237 5:-16.085425769162562 6:0.8846968268846247 7:5.27433006224971 8:9.138069133430356 9:-28.805684949136047 10:-24.165329273491135 
-0.016460134914833446 1:13.731947600241732 2:4.9770190592444905 3:6.332863705780568 4:-12.908297109058914 5:-29.10182542288229 6:20.36125320740294 7:26.621138631770002 8:-5.787773649301123 9:-21.147932542960774 10:-14.063420752636715 
-0.2764542719429759 1:-1.0305566035527534 2:-19.297989348029567 3:16.963495748129375 4:15.868998861192829 5:22.01596731092981 6:10.812262077238081 7:-27.01394991930689 8:-17.718127628678786 9:22.674332691911992 10:-6.200464529370986 
0.6050734490126501 1:26.46780131430063 2:26.1960551317123 3:22.840515254418847 4:-20.878582245660564 5:-23.494918022954273 6:2.601707473278921 7:27.02572693012487 8:19.31706342072244 9:9.597947313716801 10:-23.490676303903832 
-0.22117521850512745 1:29.59384895439777 2:-0.9881140996650757 3:-11.57542555913746 4:7.979848721882703 5:11.27809306869112 6:-6.924390765971353 7:14.285463938025416 8:7.161113843414867 9:22.522674474291605 10:-6.572322367219741 
-0.1458664382669106 1:-5.223124269590336 2:-14.739855827325004 3:-24.0586402725489 4:-7.676103270773787 5:-26.063435948971637 6:-25.841738908280533 7:-8.1941358008701 8:-9.82699271251245 9:-25.336577381907517 10:-3.971782250737135 
0.2386838936026141 1:-11.243876921379364 2:18.998823065193186 3:24.577356644945468 4:-23.337552374559273 5:-21.265566487924232 6:-21.139973717521038 7:20.530764140279807 8:17.943419105115062 9:-7.385432787996013 10:0.6791523436635636 
0.7131176758184878 1:-29.500519284549874 2:-7.12707993677666 3:-19.36373078665082 4:28.358275832667232 5:-20.289673035280423 6:0.2948435212972669 7:29.399878656319146 8:20.887455350070745 9:23.546132312365756 10:14.559391541737753 
-0.10920454558770487 1:11.117493032373133 2:-12.057431712295891 3:26.991561993120392 4:29.875054029709467 5:-7.135505078519813 6:6.448905890120606 7:-22.10143429141371 8:-26.006028830644084 9:19.344005420557536 10:29.118268394986508 
0.24987074722184666 1:-10.433534656868115 2:25.39270019951529 3:10.860455025530023 4:5.244549935436879 5:-27.74723515335163 6:-29.174813300714707 7:-6.742994610867768 8:-14.804769832521725 9:14.226858524261793 10:-25.285357577320386 
0.5115165200767038 1:-13.3172074792393 2:25.63605093004177 3:-11.372117264065619 4:28.481038488937088 5:-4.16265734584487 6:-20.275976101908373 7:-29.16177425116356 8:3.5039599532860493 9:27.89512685180084 10:-11.32835704115572 
-0.3784799263663601 1:11.668847842702469 2:-4.898964265965315 3:19.411270331275325 4:-10.359520340668318 5:4.1204007059203605 6:-3.471462200598811 7:6.558273447941858 8:12.953316912304935 9:-14.760535163528179 10:-28.073376784952945 
0.4666040531051081 1:1.1129599363443567 2:28.55266495156181 3:-20.693926787303255 4:12.309895942096524 5:-23.46527541919551 6:25.78650936998033 7:-1.8943632327457252 8:21.50476101453384 9:22.276569459393734 10:-6.435858347569592 
0.24247361710788695 1:27.471683412067847 2:13.793235208511256 3:15.778992919280277 4:25.327267361959393 5:6.531898675063523 6:-14.137317547996087 7:19.780405463693157 8:12.55891794197283 9:0.21105704914695167 10:18.37582495346289 
0.3915297494094112 1:17.636336329084664 2:-28.29495348951592 3:16.540538356513096 4:-12.934806062920146 5:-28.726730930075405 6:-27.5889607772041 7:-11.804817270858795 8:19.72102977799735 9:5.2115701090822455 10:-20.12231399658295 
-0.13376270393716183 1:22.42438083929892 2:3.781515762929864 3:-14.224446499650405 4:10.918545713803695 5:25.16534307405925 6:9.449033418469071 7:-22.832701680532566 8:11.952937680132507 9:3.622608732182016 10:5.345996249421667 
0.23842964733256977 1:-24.48552185304232 2:-22.303830807583743 3:6.968966246164825 4:27.68865804148504 5:-11.689011830422771 6:21.710929416132835 7:-2.931008264326792 8:-20.20287961813212 9:-20.147170848084226 10:24.26114426595921 
0.11389155154667385 1:-29.75241490678287 2:6.474638958568605 3:-16.669781326615297 4:19.06191550005117 5:-22.878092237163358 6:-12.620855092217656 7:7.17057134773885 8:-1.4534902235800047 9:-9.613739004312304 10:24.974733773379008 
-0.13763609669905108 1:26.131518387831008 2:-9.934801403329544 3:8.184888620586534 4:19.0368259159808 5:-29.096425540061688 6:-5.500140787011009 7:-0.7540318111205089 8:-17.033690590273196 9:3.630705962703658 10:19.365969918499523 
-0.24158362441446002 1:-5.810295114783585 2:-14.521044485793029 3:24.162988237894282 4:26.874647372900768 5:13.46574658190243 6:-5.519488795734219 7:1.5039574151356874 8:-10.817058331034058 9:0.9738019892212009 10:13.884866616008381 
0.5440467090060395 1:-25.476811165757816 2:28.676116055863154 3:7.589435395280859 4:-18.885006993753382 5:23.201781372378385 6:28.412791026413338 7:-21.265583927426594 8:23.33455553006558 9:-22.863818730137712 10:16.09417542560808 
-0.05118878831636664 1:-16.394241604767267 2:-5.918040347342867 3:16.52194158328639 4:7.008406847385032 5:-6.888825909576244 6:-27.49407208742994 7:-13.789965640845104 8:25.365922354248966 9:-10.132734975887061 10:-10.195959770394069 
0.3001694469430536 1:25.6744829185223 2:29.281571055667 3:-23.19962137305849 4:11.743033717905966 5:16.85113864982393 6:2.3740786811185686 7:20.948624923768733 8:12.291974603682888 9:-12.196450432386893 10:24.543261935174655 
0.04331373546531658 1:-4.198295277256804 2:28.337203016805468 3:20.188513623614732 4:-26.304422416706593 5:7.470791748542368 6:-6.787413386889327 7:28.224451480112805 8:10.178739606577274 9:-5.121362027100666 10:24.041421499117163 
-0.16932418078984313 1:-10.621742639874284 2:22.011992681869415 3:28.65082743890651 4:24.831759777081658 5:-5.920309260639705 6:25.094537844480584 7:-15.073947150224283 8:14.858115465241177 9:-2.7033492472502942 10:-12.062563495628869 
0.05538002154445998 1:29.65310558940145 2:-23.845291898878997 3:-9.953053089840541 4:-22.047574196644522 5:-21.843420902112577 6:-4.9924440941111605 7:-3.3341718772678632 8:19.421438817670527 9:-8.446278254466204 10:-12.41439308309873 
-0.3404379983925079 1:27.326987029601177 2:20.10903427530645 3:-4.9587983844298265 4:-20.815166286394714 5:-2.906812467006791 6:-13.085855476743728 7:-26.445220340674965 8:7.012047450544635 9:-17.78910167798505 10:-5.84900753826361 
0.31200542428674893 1:23.20903480627424 2:28.291339587273157 3:15.006226412910856 4:-17.516494527590964 5:22.734695416513333 6:-17.983347646196137 7:25.75693743126076 8:-10.91265709287762 9:6.541400230930854 10:22.457809220204908 
0.3925709240445894 1:7.494509186252586 2:6.394898040689128 3:-8.595212746386686 4:21.492119848038733 5:-19.001173621284902 6:-25.81903014435303 7:16.02289380769684 8:27.673573355663798 9:25.431649817254552 10:-20.97587050983461 
-0.12051336847240002 1:-3.1920269438459243 2:-7.333574288437756 3:-4.8863610054676485 4:6.331160146580494 5:24.275899483692115 6:-29.740118213806706 7:-15.11670740955626 8:23.139300011294644 9:2.266438496074997 10:-0.35463559262180766 
0.45546403463577256 1:15.284726030941528 2:24.81334292522738 3:26.97376301040366 4:-17.022247157427447 5:24.514858280593927 6:-24.467980883055223 7:14.387660828145997 8:-22.543209293729674 9:16.61911521881317 10:-8.889610079638807 
0.052741736967774955 1:-26.757992174862718 2:24.2547084980121 3:-15.14158703935709 4:-26.767626102536173 5:5.938151237054804 6:10.580957358368074 7:5.478705629121706 8:6.5698332286393395 9:2.1569484423263035 10:27.014793881717445 
0.027588260451594238 1:-2.0203073583731097 2:17.410051089384453 3:17.25440937839626 4:-2.710811341906581 5:7.534782903242416 6:28.241111589952098 7:26.07886833465853 8:-5.64634482979876 9:-22.80171184970378 10:1.6031020451332267 
0.406501071675903 1:-12.869518274883617 2:22.732972925581123 3:-27.0568318584949 4:-26.358545701656297 5:22.563345856253015 6:2.2555212199459405 7:-17.527196577217552 8:-15.701613748399792 9:16.760807071758137 10:11.552836662191645 
0.24928295001241452 1:-21.68164440381066 2:-26.973926037256764 3:-16.819209134582664 4:-27.89069803203837 5:21.4977072347791 6:11.112273880650747 7:23.38960181685612 8:14.591691739348754 9:-18.96433872632361 10:-15.727429885711494 
0.41402325849971433 1:26.660050381327558 2:-10.889164303275546 3:-7.483809138468363 4:15.628275583791172 5:-2.6816395109051108 6:25.969924667431677 7:23.58358607063486 8:27.528839371927837 9:-17.292113271790267 10:0.23139378325831572 
-0.592524744375142 1:27.59956512102977 2:-19.678276888043484 3:-3.8783034313799867 4:9.184555166973297 5:-3.7160474791277274 6:6.219264103627346 7:-15.57903525317239 8:0.6469584576896708 9:7.2587602339535096 10:5.173439004707667 
0.4436744427205159 1:27.81332840862015 2:-23.354239374892966 3:-2.3610247698602826 4:24.507700516458968 5:3.844052737277309 6:-10.037599800658175 7:11.293870346805456 8:24.565411208117574 9:-22.47595075373855 10:-22.200057139273692 
-0.48404478403450923 1:-14.223972780238547 2:-14.194745672821664 3:21.860836413342433 4:18.054099540158006 5:-14.183731970701341 6:14.057870483492145 7:-1.9577205519090768 8:-19.79123237884911 9:-28.78650919257354 10:-11.825940207275643 
0.3482912042652 1:29.14698206246645 2:24.803270210685596 3:28.25696778440905 4:21.697243198676624 5:28.50135765834471 6:-3.7417457465688457 7:-17.99772864243689 8:-0.5297840080380709 9:-12.075559116794924 10:-3.437910346978388 
0.10546404583304003 1:21.780604662395504 2:-18.761432902205016 3:-27.90235718826135 4:1.9094472718090465 5:14.254871724723024 6:17.34049203519374 7:-16.832289032208493 8:-29.151428013356416 9:27.144458988809475 10:16.47507051973092 
-0.28722593578664934 1:14.437280105600806 2:-9.166397481669087 3:2.4242341546347674 4:2.318390034456371 5:3.6184552231231137 6:0.2931654418349261 7:20.361944692265816 8:14.409314697668421 9:4.621009357448621 10:25.416271288037933 
-0.10945495806005034 1:-19.434051131194604 2:-3.9428575151778915 3:19.179077030136796 4:20.220632329515396 5:19.946750446231462 6:15.65264573084233 7:16.855035375676792 8:13.770900991696422 9:17.017753894461144 10:-27.069676683201024 
-0.0647505582832899 1:-14.492789275303863 2:-19.841026047766977 3:-23.953536716590875 4:-10.46223383774538 5:-2.0373721182657363 6:21.863182863987994 7:-26.975182039423874 8:2.474350114293536 9:-19.145991117860817 10:-11.099257775528326 
-0.2009206481893795 1:-13.008461378796614 2:-20.6153205550454 3:2.881617345014817 4:-22.119315817199688 5:-12.667689448993894 6:-5.203248345813346 7:0.7774807297902377 8:27.922834123189745 9:-10.884702337709186 10:20.529338620912924 
-0.002599675359894249 1:4.340769143739259 2:19.49216284878875 3:-4.77987611621138 4:9.508947196554708 5:9.681698568089963 6:19.25774633110887 7:13.272844135354127 8:-5.372664986724239 9:25.933614687413503 10:-14.694531849282509 
-0.01396827140765211 1:9.239649733433353 2:7.410208485738863 3:-4.20573202268298 4:29.405925187562694 5:-7.090310600650778 6:4.155819680094851 7:10.741194315754903 8:-16.31565270482232 9:-27.051574166273298 10:14.399321306982458 
0.25036772277838004 1:23.00099067517435 2:19.994495694222238 3:-0.3953692111555789 4:-3.7034747291608348 5:14.520606771722349 6:-20.349856545639938 7:-9.6568431138563 8:9.204526165015743 9:-24.415930455170127 10:28.26204357716695 
-0.45087853966032654 1:21.6230847292354 2:3.7051666021768312 3:8.589191069548065 4:1.893166720372001 5:3.849456315739502 6:9.219649810681275 7:-7.755149057512771 8:-25.915187490728226 9:17.210380793059024 10:-18.860034875498563 
-0.15104342901909185 1:18.070590707640847 2:-11.478950292824464 3:13.669894348257756 4:-6.944869797419564 5:-15.423679936078095 6:29.1887971233569 7:-15.179440940465806 8:5.177588808802973 9:-15.12896866683485 10:18.855670744440765 
0.42382612309086554 1:-3.3916309557266473 2:-12.522533941592119 3:-29.304481326782973 4:7.527604048084697 5:0.12614539014445114 6:25.309703559194368 7:-20.004792840036053 8:-24.736949725276563 9:2.7301583205081528 10:26.471466041375947 
-0.12892010390062225 1:-3.8547600730445666 2:8.310468361343226 3:-14.331657218605125 4:21.654520695986072 5:24.81114037257222 6:-25.99942199086918 7:23.217060385807528 8:5.159680897275315 9:-10.825610774710213 10:-1.8352173189958698 
-0.3211999649419557 1:14.006945751152067 2:-0.48229796809331305 3:-4.12661129857846 4:-20.934060651006735 5:17.776960505348796 6:6.313387776121196 7:-27.49361406028529 8:-6.082469688892175 9:-19.770590785822577 10:-13.96298799625485 
0.20922903537291404 1:-6.208735982889969 2:29.42775516382722 3:11.246807264725135 4:29.320039418646203 5:21.757296481788146 6:-25.915325733288554 7:1.7402693074876794 8:-18.376607888082354 9:9.927736969114896 10:-10.257331982506809 
-0.9181362313086492 1:8.410232088510917 2:2.0066195784312058 3:-14.32721106959387 4:7.710774262342767 5:-17.66860355312344 6:14.278885285875916 7:-15.048410970983053 8:4.1444073281562765 9:-17.91043532469002 10:10.310404576379952 
-0.789558571771936 1:-1.0256895864918079 2:-24.18601336402235 3:-11.582357940171345 4:16.21873718114346 5:-8.093497990205535 6:3.423203931499266 7:-1.3556924950667337 8:19.345381364838865 9:4.749331418752348 10:-6.30051394747527 
0.08176536694683634 1:9.008965255322323 2:-21.162988597542764 3:-14.41201318403337 4:-27.368490865689612 5:3.892642177648959 6:27.235529987565045 7:-21.66591164725253 8:25.25599549387237 9:-1.114393780361823 10:26.945959335143776 
0.19363882336742222 1:0.896569104819477 2:22.298359010528017 3:9.358592510345794 4:-26.20897642323679 5:29.399056857054312 6:20.74911048817369 7:17.825583142495866 8:0.07613508903624933 9:17.620400521492385 10:-25.889731106655177 
0.010191065007802536 1:-28.666118082555606 2:11.197466289328005 3:17.270029660115362 4:11.926457378722937 5:-25.518612832070577 6:18.929037677707633 7:-14.87970292688091 8:7.748645125159975 9:-0.5807401697692853 10:10.536872070072441 
-0.37180613052550626 1:-1.378602376979778 2:-12.03842570245985 3:23.876277331476665 4:-15.55627970484238 5:-13.143181124732251 6:5.679026707102899 7:29.960134950322484 8:2.9884285807911866 9:-24.031645271469642 10:4.135031631839894 
0.3931063239628898 1:-28.476770927023388 2:23.496783542482817 3:24.206782672322554 4:-12.016535558178813 5:-1.1469690955202445 6:-0.6388882254241608 7:-29.68610159008958 8:2.6615234120068436 9:13.574601005005334 10:-3.4886800037652783 
-0.14576548150199287 1:0.10589217735936529 2:-19.645947070929136 3:-5.163559641054661 4:-0.0625739635218352 5:20.249179398347408 6:-26.189433735846684 7:-27.09058991426169 8:-23.92406515911582 9:29.21583601475588 10:-6.143382547870171 
0.06499301792962342 1:28.26209573064859 2:29.89979930456527 3:-26.723046816005592 4:-27.093933549494643 5:22.984552894176737 6:10.45402556004371 7:10.138241662059933 8:-24.879415789438458 9:7.115983774991527 10:15.356329357995278 
-0.7878128823012833 1:-5.556615602049543 2:-15.922398792658994 3:-15.009528605604087 4:3.434602021731564 5:7.866668759817308 6:0.8977633814645749 7:16.148507789667548 8:25.200280569155034 9:1.8875705830976166 10:-20.252221358832845 
-0.46670378797425904 1:1.6706397708997685 2:3.2590494957218397 3:23.586012392352515 4:-6.525612523053539 5:-10.026858505187128 6:-20.96230691050689 7:-26.081833649651504 8:-0.15994323940684296 9:6.164238411847215 10:8.358176567804705 
0.4325289269195718 1:23.92869431857043 2:-11.579200454881573 3:-14.007028376581495 4:-23.58251992675649 5:27.226490034444588 6:29.691402444876665 7:-20.768593625615885 8:-27.366046381755 9:-23.202983220914255 10:21.163173468449756 
-0.6351922543732087 1:-1.9855066011295932 2:17.598392343031733 3:20.845467470803186 4:10.654155280380486 5:3.220428127045132 6:-11.979699630447602 7:15.86105194136509 8:-26.138382455600627 9:6.408039393256722 10:1.087221184175469 
0.1661668480583618 1:15.463809759703018 2:-27.628531427745923 3:-23.863762590202395 4:-22.942701780482935 5:-29.158553473428203 6:-20.92094253975667 7:15.67421086069298 8:-1.8173790931541625 9:-7.2952136551712385 10:-9.28927490387851 
-0.07380085290761151 1:4.169627534304176 2:-16.786786866250846 3:-24.313489343515258 4:11.725258340677584 5:25.27569159226936 6:-20.241086630760474 7:13.978974626245375 8:-9.660727372035545 9:-13.953487032984604 10:1.68868290896922 
0.39663090389270117 1:-18.24703445320202 2:15.760381533079922 3:14.59381741018425 4:-14.475731829131792 5:-26.479641389306682 6:25.926874581808114 7:-22.443351942042014 8:-11.562526196214368 9:-21.900258116050658 10:7.142423739069969 
0.06988304420182523 1:-22.16728395991666 2:-21.85296048716627 3:8.258255525333041 4:-27.148940879162996 5:29.809973688484064 6:-25.964629343182732 7:18.95984052517848 8:24.68549022960088 9:8.267968385525755 10:-9.585314189268892 
-0.6289440487518636 1:9.1180199661313 2:-12.10681763509919 3:8.906820055063065 4:-6.167406304207784 5:8.208642898854855 6:19.822875271556498 7:-1.3891685961033247 8:16.81582972721364 9:22.104086768223432 10:-29.925120326234158 
0.2712035535124979 1:19.97491995006589 2:11.650558997167728 3:-19.33864013651882 4:25.585734084071476 5:-27.050936331333553 6:-9.12460476002537 7:25.72767249456531 8:-16.84358910855382 9:23.73311964050228 10:4.54708899141356 
0.3737333657078512 1:13.141470014171489 2:-16.540433953373395 3:25.36255037705832 4:22.472294358257294 5:11.653084327839593 6:-24.184861807000964 7:15.912936520085104 8:10.462991231163187 9:14.865454501133918 10:21.470480812750992 
0.195466643363293 1:-28.687619751753097 2:16.662300103817245 3:-29.208513307486683 4:25.211094610227185 5:-0.8154420539033111 6:24.51480211315713 7:-1.004304433020021 8:-0.9071623908790905 9:-3.546277599626695 10:-8.642208066092277 
-0.4446331299941306 1:-12.466114331764956 2:7.926371242509461 3:-3.3734112727774637 4:15.887246775421069 5:-18.974308189946782 6:23.85940096703048 7:2.724600786674678 8:-16.095344822864348 9:27.19092756067017 10:6.99215146130507 
0.2556198273421568 1:-21.22630792860929 2:29.778165407024574 3:-17.94824019701584 4:-9.573656624546075 5:16.567235770210367 6:-19.046138968888325 7:3.7488352941099663 8:-18.51223189631719 9:25.101475653509056 10:-15.369660087337989 
0.01681702945230157 1:11.54056953541199 2:-23.92255004782835 3:7.64132651354258 4:29.362094567703927 5:10.050900391022822 6:0.19615272118608118 7:-24.191984186285236 8:-10.115471860078848 9:-20.798079618070773 10:-18.348086466471862 
-0.2143959707706582 1:1.388652553594941 2:-19.14418370338396 3:7.513871637241827 4:15.800064055255795 5:4.751378251550889 6:-15.51186798811101 7:-19.423898065053695 8:-18.119916227044342 9:3.8083677910121025 10:18.19312160385548 
0.5398694491340219 1:27.488647022086354 2:-28.896542794070164 3:19.402531355928062 4:-28.606148970590922 5:-24.054756725711883 6:4.111549261100123 7:-8.197632500582007 8:5.557782274708181 9:-28.625387712714318 10:23.7623739595185 
0.5323595238644412 1:8.673008301111992 2:-21.7172994530179 3:-2.821999175327491 4:29.419938162390352 5:-2.549907803835808 6:-19.080165135179712 7:-28.402973137450203 8:-28.99026324738788 9:-5.523300703554639 10:29.745770873539875 
-0.036187851941438254 1:-7.883022802988144 2:5.068783747343744 3:29.57215568548869 4:-16.902897635822697 5:10.556817956013823 6:-29.141598742865554 7:-2.114847081178702 8:11.159100790631754 9:-8.881764083162803 10:-27.67712705100719 
0.6167389839751376 1:10.942160668641606 2:1.2520197290342168 3:29.662163460833575 4:-8.7331307137041 5:25.73575942195528 6:-20.51395890778125 7:-24.64770405787561 8:28.58941225278491 9:-15.49391210920639 10:9.55812692781032 
0.12004089993797429 1:-24.4487643779703 2:-6.2479861230833365 3:-21.44781622439851 4:-8.758512449932876 5:-18.52403314949209 6:-22.12659464450656 7:16.968624454457867 8:4.770627345127295 9:25.615477631195965 10:-7.066795610106418 
0.44999064028356095 1:-4.363566601298665 2:-27.14765316100361 3:-27.715582014106335 4:-21.468382417337182 5:23.10581950441535 6:-20.56463509179701 7:-10.06719568433293 8:-11.507796399151491 9:28.191937727341625 10:-6.351377574434512 
0.3311203874294488 1:-22.04715442629995 2:-27.69049951051178 3:-10.836586308623556 4:18.470612862396344 5:21.72007986726362 6:21.033208976512903 7:26.336994630175887 8:-3.2805057637465893 9:7.4771047196833536 10:13.64544582319958 
0.09860091803309423 1:8.700263252911732 2:1.8560262190113228 3:-16.585743822382526 4:18.327418602548093 5:-19.13201549496698 6:-22.13124905447664 7:24.922707405468238 8:-26.77324834041769 9:-20.763817679891833 10:-28.8368362338344 
-0.4225428062188197 1:-9.508443535331622 2:13.426487252833503 3:-24.368286225111046 4:-2.0960213488393578 5:0.09152791475360189 6:-15.218326979051831 7:23.063626523657767 8:12.661923172169928 9:-9.865934147371782 10:11.129265135862838 
0.031068860436793244 1:1.3662577715219832 2:28.493851813263362 3:-1.7843764911628277 4:19.091929506387487 5:10.582546425218247 6:24.73729194298008 7:26.85311224889916 8:-5.713829943869047 9:16.869689311943482 10:6.827921730613959 
0.34368829534874656 1:-11.712484191257417 2:-15.789954629139977 3:-0.48216928149117777 4:-7.649237319449416 5:-17.821197690513948 6:-23.574408662395733 7:-21.643933020761978 8:9.313268547378357 9:24.636333103000233 10:25.865905759826497 
0.06338364945854202 1:-1.6213210981484778 2:26.280810486268827 3:-9.474897458088222 4:22.186686528958575 5:-7.141957856220234 6:-10.457608946776332 7:-28.640827997624267 8:-2.953114686519747 9:-2.48069853808574 10:-20.123202503412255 
-0.7602761964230975 1:-4.7953347238625135 2:2.9574206155915874 3:-11.113974399153498 4:6.362705927921276 5:-11.354664367602275 6:-23.79333832221196 7:8.914276231514748 8:-10.652596397629534 9:1.9316348512013093 10:-29.024535233978852 
0.1570644012151572 1:-15.426346497108511 2:-19.64019919673437 3:-29.118827427176598 4:-25.83923819053009 5:1.1621831841607175 6:28.820004044713258 7:21.782257401558176 8:1.8047828016061302 9:12.485093784267491 10:6.190693287576018 
-1.0 1:-7.7608632333819685 2:-6.340618031488127 3:4.525077887847289 4:1.632067612945157 5:-0.11052345043850309 6:6.824855582424078 7:-5.874303865486919 8:-20.166370806613585 9:-15.2450281085013 10:1.833024473040041 
-0.20866348594977246 1:7.26647043666464 2:11.56948401815994 3:10.381917884345022 4:18.441638349723625 5:24.70584264416332 6:3.872988146579118 7:-9.053554821029582 8:24.033480716921844 9:13.590825618338812 10:4.042650010688469 
0.04014979655797113 1:13.55035284001297 2:-26.760303682077176 3:14.853487549951623 4:-7.474782257366712 5:22.887894552300146 6:26.19246197397792 7:-22.147632022144965 8:3.5379204601929075 9:-9.219507762973052 10:-0.22589890035187565 
0.11688121851837963 1:-29.51181089648771 2:24.70124677202412 3:-11.240099526896266 4:3.0070149767908916 5:4.644345029312959 6:17.16843183474991 7:24.438969697901086 8:6.38121919145167 9:-14.701305721837352 10:-0.172247350263099 
-0.30248831660631303 1:-8.15727455218785 2:-4.5564528340881765 3:17.024339603070956 4:15.118479851290274 5:22.181103969125054 6:21.374993402006552 7:23.843123892528844 8:-0.15875813753747892 9:4.728246942730351 10:5.5599585054296625 
-0.1992897247005363 1:-22.483326418275166 2:2.0583888393990293 3:17.531864428333613 4:1.3035319201095419 5:5.355949204591859 6:14.769767239424262 7:4.609787894174126 8:3.8802813971196386 9:-18.498709496520743 10:18.514185670156273 
0.19489932189557635 1:27.270746139844164 2:15.420739228119942 3:-21.699483737859353 4:-21.45036418249617 5:24.65885940589741 6:-13.866958190939776 7:16.317336387182166 8:-7.794374352009246 9:-9.131330789534438 10:-3.192915369947894 
0.13532651689911468 1:24.389780438099365 2:10.071400614543379 3:29.967882691493166 4:14.009039998277501 5:28.56511602377831 6:-27.917349438302224 7:-19.861656940160902 8:-5.536764958782399 9:-16.089975185022872 10:-3.4907645410945634 
-0.03952827987331453 1:28.2744173484689 2:11.000016342763374 3:-23.170575284548732 4:20.880487101271214 5:7.194359723573136 6:22.074695725090557 7:-15.708817473024494 8:-2.9193323696220617 9:-23.747401254518635 10:24.78126176581118 
0.34284992518378665 1:26.633335536281237 2:3.848789306762285 3:-15.362971343296216 4:3.374430209521492 5:-29.935943323221156 6:-29.555570491248723 7:-27.993558945294183 8:9.278407299827279 9:1.273196401090484 10:-2.3565346361400934 
0.5138605526668183 1:-6.630650817373688 2:-15.599390315565735 3:-10.242195586956075 4:16.50501295109263 5:24.226539558840408 6:-12.716560216536084 7:-26.477357888972886 8:21.50319634424617 9:27.995785728016067 10:-18.782997284385743 
0.12163746557203048 1:-29.249691092100417 2:-7.355270551393964 3:10.608251518166945 4:-5.099426998054739 5:-6.155841857016707 6:-18.90438502791706 7:-13.087800987626302 8:29.58039557505306 9:22.93080519946313 10:-25.382376719438312 
-0.48692512079397154 1:0.1407227361411003 2:21.806299862759772 3:3.4676109864106195 4:-17.23244611628602 5:29.196310724227885 6:-1.96059936874466 7:-12.965870335823428 8:-12.660371084290759 9:-11.12386029752151 10:-3.6919466536478893 
0.06009383106808208 1:-24.304925776075674 2:-9.066294878110732 3:-4.591909831617713 4:0.9490408647993007 5:18.50598724716422 6:25.809340889295825 7:-26.21141616005871 8:-0.814186106071471 9:-16.20863618184557 10:-23.661902797647965 
0.06412316695038456 1:24.409415829324054 2:-17.114517295294412 3:-7.241410324874359 4:21.393785170929398 5:-15.668142548009662 6:5.3010520799781915 7:28.819635494081815 8:-22.077257330033934 9:13.31241061698178 10:0.9452842402690891 
0.3605112052937205 1:-27.32394524334801 2:23.713535664492113 3:6.3056610267515225 4:26.95738133551564 5:15.78142146949564 6:-3.9621621046921796 7:22.665806869194036 8:-13.586456032081394 9:-25.771066147440237 10:-16.638406981460903 
-0.27238329969371655 1:-27.950063179963355 2:5.82816247876778 3:-18.23876786966659 4:-11.875296435177734 5:-26.11859814624016 6:-19.0988778794534 7:10.756708912867794 8:-12.099717080163334 9:4.761714473664398 10:-17.39424372129742 
0.0862751919495146 1:-12.063570330861587 2:-13.452566648196647 3:-7.179631278082436 4:-8.923119798764898 5:-8.494500233102912 6:28.955029968220337 7:-9.479177697844353 8:-14.44328695303305 9:-9.513896446408118 10:-29.642428522279527 
-0.8423311301783549 1:-1.0850842334724256 2:6.769900262795183 3:4.046093206789507 4:28.30317625268642 5:-5.451057365172559 6:3.9509106289850493 7:-11.963784305892634 8:21.845263914085976 9:13.766527265428664 10:3.4443223188548657 
0.48909567836055245 1:25.533420375676393 2:-29.2734580866512 3:29.267514771736117 4:-20.59764895236556 5:27.004904067929147 6:-26.20829544197907 7:-8.779855333795648 8:18.97324737110892 9:-11.35549881592349 10:-23.26187673975723 
-0.35890455673079913 1:-25.914439043690095 2:-29.13088189556176 3:-23.133320551655743 4:9.841103113859916 5:5.684805248065288 6:10.166569719777684 7:-6.748069573237981 8:8.692659850364919 9:7.284557970476314 10:8.033386669581958 
0.01750769602026736 1:7.421007113167896 2:-14.72990758305524 3:2.5989359829697065 4:2.7893584176013064 5:25.37398357572289 6:-27.197011790664508 7:19.600806745606413 8:-11.700842941893399 9:-12.236225949573416 10:-14.06537740609715 
0.24940900888437234 1:11.907129812475524 2:27.16004571962688 3:-13.617716462940741 4:-22.423924024843657 5:26.248952843062206 6:19.487018960950856 7:-12.17899952631149 8:-4.3712776425287 9:-20.84223299155077 10:-6.687154425444287 
-0.019307021915139444 1:-1.1044696364603936 2:-19.082985678998252 3:-0.05330035405999922 4:6.882754371694496 5:-10.494502953878989 6:4.479468313296714 7:23.251524711231013 8:-4.3013863262149385 9:-28.70952145612144 10:-22.418103096149952 
0.08371241425939147 1:27.880441318104744 2:-0.5964034335882289 3:5.4762729905562395 4:3.1887395184939535 5:-20.532319408484973 6:-11.474480793710761 7:27.6955411666137 8:-22.96696009529107 9:12.012406336422089 10:10.226404953476859 
-0.08317776237963415 1:-4.67024617073886 2:7.978858653528718 3:-11.230381452030212 4:18.14936617748493 5:-1.4934526863921604 6:7.392194976212217 7:29.297454955750496 8:13.97531327421175 9:23.297741229712415 10:-7.686683119050585 
0.05561179084504708 1:11.751849398098955 2:-10.752419816855713 3:24.130543653654385 4:1.5086660817271813 5:-1.3865104694342953 6:-25.98029835582377 7:-5.611813324375703 8:24.397312756197778 9:-28.96488561341934 10:7.8429542662542815 
0.2720499204227025 1:28.97768154386651 2:-14.630420035874469 3:-10.784685613839514 4:17.191239273917155 5:12.887313910723783 6:10.768832844661283 7:-9.869822351551761 8:-28.456296678715923 9:-27.37463430137317 10:-25.670703081424172 
0.5272126505478969 1:-29.440818999293406 2:8.634746789755532 3:-21.259870411952704 4:-25.73491851277023 5:-19.412179941059033 6:20.220905308100193 7:-14.19511142460342 8:-5.517048418761014 9:26.8905773712439 10:2.428928260333791 
-0.3334702887577752 1:-18.689893446062392 2:23.543717714917648 3:16.093895266674053 4:-0.6607527178529153 5:6.838715676714848 6:8.024479996124747 7:-23.61005627674156 8:-15.076171945192808 9:-6.291086446633237 10:1.8362682130221302 
0.15661369781541445 1:20.318049546452066 2:16.79729370119062 3:20.952526994298317 4:-0.1709829564732921 5:13.251739548635044 6:-4.544998923422085 7:-23.944402780549087 8:-7.331903702397266 9:-29.374519678450003 10:-25.238355713203557 
0.13020454873025855 1:-21.678624580652183 2:-29.505973129778713 3:-17.693767089746167 4:13.4187597391889 5:11.024588458892964 6:-4.720708108599794 7:-25.238896041544756 8:-7.020624235677641 9:-18.290626765413087 10:16.073552430944765 
0.27839682335942406 1:10.793395691993112 2:-24.307105644910628 3:-9.958106948369078 4:-22.51912546807949 5:12.615517071626336 6:-4.946880886622825 7:29.56224292522289 8:29.739957957204545 9:16.898267238745838 10:3.3872119754608434 
0.16214331773077006 1:3.4888497522986412 2:28.680665905140344 3:-9.817888340539547 4:-15.836832900439767 5:-4.587868645585203 6:15.607528558231856 7:9.657171406316742 8:-28.09170651894044 9:23.2728411927626 10:-9.186783662032468 
-0.07598987453917871 1:-12.185268561730652 2:29.720968636817098 3:-0.5459536607844697 4:-20.047679113300266 5:-10.155842040530683 6:-26.677167709307803 7:1.1243180745647372 8:-0.09183724645001234 9:-0.1047582346036009 10:21.438402516051497 
-0.2828162063455242 1:23.15331511960747 2:0.0626178981425376 3:16.44703679770054 4:-4.996069205565327 5:20.979508986524678 6:26.03138419413844 7:-21.979615127944964 8:-17.702804457009115 9:-27.256595465899352 10:5.954379401526559 
0.14588617362675826 1:-1.6575994660711793 2:-26.455269157778996 3:-21.191785665707464 4:-5.666657302602182 5:-15.182704967804492 6:6.9028619747264415 7:-27.52648642961607 8:25.186063334615177 9:-14.221017104964456 10:17.92375663008636 
0.35601992412254013 1:18.24603034205026 2:-15.061032862789537 3:-19.502946118357855 4:-13.29246399655252 5:23.465283915951026 6:-23.992824066034753 7:11.278746234271615 8:10.90633782102924 9:25.390400272048154 10:24.413470050040438 
0.38020291446741084 1:-20.744338145087504 2:18.58608177638316 3:-20.96197468088807 4:29.074944061626468 5:-15.434920847917983 6:-27.33350652204884 7:-18.880152684163534 8:16.53847159819096 9:7.631784049253632 10:8.24984599494907 
-0.012579735268644754 1:22.36181792560042 2:-7.026523647957635 3:-18.872552999576623 4:5.613648668952372 5:-15.704207885668415 6:15.13279252782943 7:-28.069330717916433 8:-5.017567335271721 9:-12.70213260944891 10:-26.23020652278569 
0.1887744220036982 1:19.031912476949266 2:-25.59144059494135 3:-25.793698239015544 4:-23.347700339156074 5:-23.176392643104357 6:-20.818126467053617 7:18.28550309425114 8:13.84108569996539 9:-6.413128680687677 10:-9.847172841610625 
0.6339550931063282 1:-24.388841506958794 2:5.3031957297393575 3:-27.767712011938162 4:29.19357512617467 5:-19.864835583963366 6:-29.79239382343977 7:-25.526613221654667 8:22.73636565683161 9:24.74762666463689 10:18.403089261909862 
0.4724307242118364 1:20.607456350926746 2:18.91840296091054 3:23.58678014688816 4:7.605533591601507 5:4.949504984261694 6:-19.672797455665062 7:29.656281619796488 8:-5.275747137215475 9:-28.28877620975493 10:-17.319704090289996 
-0.8337017275982106 1:-12.507095676476162 2:-3.4657842842967987 3:-2.262087914139226 4:-10.012005750888967 5:13.186291129024504 6:3.5534382377259845 7:-12.987572687750092 8:-11.162230045583087 9:13.485973778444205 10:21.512143115080605 
0.15117356705803253 1:-22.79367891166861 2:28.403623684842458 3:2.039501831686472 4:7.202613833869748 5:10.80438342939432 6:8.623704756198485 7:23.989080640060884 8:19.776045381059006 9:-27.550042236699042 10:-13.29575115461655 
0.28964915639223143 1:-19.787263899986684 2:-15.294997170484892 3:20.154443841133435 4:-28.302240690078463 5:-10.570379840019566 6:5.657472072651579 7:20.88552059271315 8:8.368200975321528 9:-19.8023629852178 10:-20.56919342524641 
0.11410561674508735 1:20.79470790752115 2:-25.104174241201605 3:-14.48480228615626 4:10.871240458406973 5:-23.03401185650484 6:-5.810925104102967 7:-19.702523743763543 8:-11.643030693761155 9:-28.936726081996984 10:25.660868977941185 
0.42650046352195226 1:22.358412036071428 2:-11.375531155471993 3:-28.77152056935534 4:-11.542053087641957 5:-13.927476535103004 6:-16.364709095899393 7:9.372046375573085 8:25.624123593055153 9:-26.992478254301794 10:23.01293753654201 
0.10989683062144451 1:-1.5778456190141164 2:9.050430732751693 3:27.519613771391995 4:18.573035573291257 5:-23.95558233995545 6:-3.9395527943595603 7:-21.67389067579576 8:10.457788709838063 9:23.13841968199018 10:-13.781535059951146 
0.11856764536887532 1:-12.149515036073272 2:-1.4868268785551493 3:4.235105940764861 4:-19.902715878356407 5:24.43634167902288 6:-11.566272606305535 7:-11.473788285821488 8:-26.610611927789694 9:-8.961265830807537 10:-24.825629827902002 
0.057122569813364166 1:-5.512056471939797 2:-12.666514751122186 3:-7.925447004985571 4:20.193946267197994 5:-23.012046009569396 6:-12.217704977254588 7:-5.567286291299421 8:10.257445063962066 9:-24.45502740023793 10:-28.806621765678926 
-0.020432044247534975 1:-15.8917466952565 2:11.799418383371098 3:16.7461394259645 4:-23.367044481966875 5:-8.890497475128566 6:10.432420626132519 7:20.183394206082724 8:19.436973232413926 9:4.293482638819285 10:7.651253043856023 
0.4632477400777226 1:2.315284941866949 2:4.173544189261527 3:-12.460155895111505 4:25.586223785418852 5:-24.87686027192421 6:-15.401896056898817 7:-28.523104228681696 8:-21.843259671108967 9:21.716761079652727 10:-25.920345456388127 
0.1930330439636574 1:-9.321404135786395 2:-17.710779045177368 3:23.29088929129216 4:5.816346220886977 5:9.434898634707004 6:-22.859431263245924 7:-19.045240619746117 8:29.873468736323154 9:-20.74352566546378 10:15.42086606434922 
-1.0 1:1.9532110937494735 2:13.666789120452144 3:-21.79160236620316 4:-11.063754505823066 5:-17.331155838589858 6:-16.021013538240144 7:-4.023981693887212 8:-9.624741184695004 9:0.5408730052973212 10:-8.063179310908314 
0.2632200562748377 1:29.249794107536943 2:-24.860603984633627 3:3.6573645222211724 4:17.591465501732323 5:19.574472249397807 6:10.670767286909566 7:20.27368608901805 8:17.83432260623418 9:0.2416133729800407 10:-13.742711837505986 
0.286370958911748 1:20.88106890290038 2:0.3454551790800693 3:20.11300146676794 4:-16.30193710498281 5:-27.304743987925505 6:17.111625078478042 7:-19.5538536136309 8:-21.51101291329826 9:10.556348793837046 10:13.765772001537549 
-0.060505027976658354 1:15.85159700447781 2:-7.659028641420971 3:-10.772971628300269 4:25.589607596744827 5:12.445461716207106 6:10.870484961379674 7:-20.05257513525792 8:-2.514173092912639 9:25.069046459896704 10:-4.795503832697573 
0.13407717590471968 1:8.850996304147984 2:23.566332279736393 3:-28.868819384592953 4:13.019213621937922 5:26.46690791943699 6:-7.7823550978413145 7:1.1873515129415573 8:-26.815609062986276 9:26.030436285734254 10:-15.405434541037927 
0.21409754287167893 1:28.920238679779807 2:4.914906413296059 3:-20.716788656588733 4:10.21340569984843 5:29.38099581495657 6:-3.5874571069175474 7:28.58214415063179 8:-4.181118831426691 9:-18.169393210966724 10:-4.360827311076527 
-0.17864930967344606 1:18.390296508459656 2:-9.89677463392217 3:23.69180432311601 4:15.431089447493093 5:11.936607641336096 6:9.149074861906243 7:18.931973303540964 8:19.844869777494743 9:-24.212767705177807 10:-1.9291644817981606 
0.2259259917673475 1:-6.9047924235557865 2:5.846071928417793 3:-8.514931356972419 4:11.599590034440794 5:23.335650259564623 6:23.403602859872038 7:-1.7098942216110444 8:-21.63000304202473 9:-25.740401269011354 10:-24.035758799626084 
0.25988838500744826 1:-2.4231299885360933 2:-17.090555404065416 3:-14.763858613915852 4:-9.469957785807129 5:27.84200730481882 6:23.417787246003115 7:25.330302089170978 8:19.326427808136835 9:6.8665765396763945 10:5.452806084616022 
-0.19743410330110578 1:9.80311283274456 2:19.235868061061772 3:5.955446350046422 4:-8.74190531999556 5:11.469153806615495 6:21.841450453104713 7:-16.834659779993178 8:-21.004810719746335 9:18.25738449599529 10:-13.606948538546973 
-0.5757404479191859 1:12.968205712896776 2:-3.1278842659412263 3:-2.9698084577215695 4:-1.1675394213515382 5:-0.559971320374558 6:12.590442003784005 7:21.2266618449911 8:-17.648702721049204 9:-15.631466484827303 10:-18.391237149962347 
0.6835874580400443 1:24.299665206011483 2:8.477703689575755 3:4.5442861468882185 4:29.18538313772457 5:-25.275039742514927 6:-2.4098667944701617 7:-27.754172491824132 8:-15.497176118136686 9:29.04410798627653 10:-20.46612027915678 
0.230630763522937 1:29.550539356937946 2:-19.60841554380158 3:-13.038416358296448 4:28.66836612012883 5:20.59907084671555 6:-0.7395087726093408 7:6.950059392949299 8:-6.79947578800013 9:-23.687792814026565 10:4.805742510374493 
0.018342230641337665 1:22.126435961780572 2:26.061972089366968 3:-6.694817709551266 4:29.910668035491824 5:4.344794044083216 6:-26.134996198746116 7:-27.134468332403387 8:-6.13699226426316 9:-0.4889861378759903 10:-8.375212990821076 
-1.0 1:-13.143347446868002 2:-3.3935906212163864 3:-0.942564650832189 4:3.9624855501043115 5:15.280366907824607 6:24.207642641461376 7:1.3244815597135542 8:8.406366897799735 9:-5.022157679838347 10:-1.9390996846309285 
0.3748416820352105 1:-7.720179052041608 2:-26.814700264335602 3:-29.43066762369441 4:10.565399941159583 5:17.56417128231952 6:0.5614174724176273 7:27.229317678296084 8:12.102317554162724 9:-12.713501389623445 10:-12.723986846691322 
-0.4556426900151749 1:-17.268419629828596 2:0.10885496911636494 3:2.963706994767101 4:1.8700863893445003 5:-11.626623954086703 6:20.00232240354842 7:-20.388095158663955 8:-12.997617110187946 9:-14.620871050212841 10:-18.509606444805165 
0.001232794025380457 1:-13.846178502338976 2:9.499738351083309 3:-13.539643513015037 4:-9.222109185706532 5:28.945855568103106 6:-0.12976700337105385 7:-23.67684063165926 8:2.874289493164788 9:27.214123763097852 10:28.113046768044043 
-1.0 1:8.637363005489206 2:-2.8862657142774175 3:2.1656074518203354 4:4.938040180239753 5:0.887995495268342 6:20.10837973512529 7:-26.479402514929337 8:-12.893215367299785 9:-6.153454978443481 10:9.249134647236424 
0.5137698405856792 1:29.628270516811853 2:-24.251961769737413 3:22.696357714429375 4:-19.867752897966604 5:-15.124063480801196 6:21.288406155198324 7:23.02498012176875 8:-26.60461082669077 9:13.455012594053912 10:-4.429328128620899 
-0.06509440008989031 1:-10.433083082975038 2:25.41940764513958 3:-19.215912566188855 4:-4.415098672043861 5:10.86044787950378 6:-10.003522357227151 7:0.37822180159587404 8:-18.61291878761834 9:13.663106245857144 10:-13.164385641703639 
0.27455740180198873 1:-27.696012227852197 2:-19.956947074949998 3:-15.220976850314527 4:12.678877554614317 5:19.105886473295655 6:-29.22465179488471 7:18.634923272343762 8:-7.421082763483881 9:-8.28915076721717 10:-18.29460560810289 
0.6735383466580256 1:26.50015793752945 2:-27.45913860893236 3:-8.68637502642433 4:-24.326620955814732 5:17.67975687292632 6:20.258895999949985 7:23.61697131910544 8:-18.41707715523809 9:-15.681921431148094 10:-11.919767280371104 
0.4252101788838214 1:-10.953372463302035 2:-21.442455301233757 3:9.634206717789574 4:1.6064864062496937 5:-3.317838548908483 6:-17.089237134034363 7:-25.53112235024827 8:8.494854721724536 9:-29.359110102234027 10:22.521475911948812 
-0.2904909207866595 1:-21.043717428945378 2:15.048810624224977 3:-4.476880486375457 4:29.671184247516123 5:4.9426769507157005 6:-6.909630337236333 7:2.2731044010628523 8:1.7393761459992376 9:20.457375295472623 10:-3.6166357493018175 
0.32222089785680375 1:27.431175437511406 2:-10.631689101762987 3:10.100226844877263 4:4.52944992729406 5:7.2485879058991785 6:-26.201764155041964 7:24.643338033983802 8:-27.214047884959683 9:13.50775969215919 10:-10.961074591781895 
0.5751630333874296 1:-20.546666812372052 2:28.657000144629855 3:20.136626033659837 4:-29.61669342443013 5:-5.475907740054332 6:-19.613274099675024 7:28.826961758445727 8:8.483717661536673 9:-1.0315312263497631 10:8.635647899426914 
0.01293419979471011 1:17.86259832407329 2:-22.198758783252817 3:-20.248905960849044 4:-19.35127131040511 5:-8.765432363379041 6:29.70338869659414 7:-21.74703929439418 8:-3.874087398760228 9:-25.13372497973606 10:-6.174770298704388 
0.5561890286177604 1:27.681177753908898 2:-6.604418631747773 3:18.933667260381583 4:26.041632546846472 5:23.32562582512071 6:2.3169238865774915 7:-28.34747980947768 8:25.882346322636685 9:28.559732274374014 10:-12.650460523585856 
-0.2603908763541405 1:-23.032088003769413 2:13.212138021448098 3:-8.228841951674951 4:-17.5341112027845 5:-15.02949803600967 6:3.9531733786445287 7:-27.99081202962573 8:-7.902731194840523 9:7.347920246797557 10:-27.19254502323946 
0.482060874681963 1:-23.996170285589912 2:28.277881176435066 3:-2.440208074217452 4:0.9480957563167642 5:26.652251460659706 6:28.25632331214284 7:16.724183873898653 8:24.650128436168252 9:-4.618371663485885 10:22.71306935629554 
0.102156735972601 1:-15.549290618116265 2:-13.252549966803166 3:-13.83147686860169 4:-11.312669911031648 5:20.164089121139092 6:25.204859946014942 7:-28.75891801057165 8:17.156517996646812 9:-6.354372668167638 10:7.3714372857767145 
0.3089809794770826 1:-12.388647161032203 2:12.926422305204923 3:23.57857326825578 4:-25.366069806294234 5:29.581179977497257 6:4.079986859474296 7:-10.183005049749017 8:-19.783911674490106 9:-24.763817612931277 10:9.697499600037979 
0.02287313626825238 1:-1.0936390869077925 2:2.7722867369619735 3:24.688460353617167 4:-22.099245444014183 5:-16.932385004898897 6:0.20107986435744607 7:4.4497195648906285 8:-18.511296795461668 9:-19.5848643238298 10:-28.243305311593396 
-0.09406371866160512 1:-1.7579155781318967 2:-20.965950779894563 3:1.4421807889804548 4:17.688573298537968 5:-21.808171090864604 6:-8.451963171048646 7:-8.791080868804531 8:-29.908240533327792 9:-0.5750720041455111 10:-6.876345193373552 
-0.135342453661913 1:10.212937527059303 2:10.669415546075157 3:9.175186121206067 4:4.64413322511534 5:-21.228032229223196 6:28.36432957474498 7:-7.08863239039076 8:7.265563565920296 9:-24.949609211401423 10:13.167149918544048 
0.13890781947821118 1:-20.058640961764382 2:-21.248734474928966 3:-2.6111884151530127 4:5.684877012860213 5:-5.304599415008017 6:4.536584638657317 7:-16.758639327729764 8:26.291786608681576 9:15.169709923657557 10:-28.749432359505043 
0.29471080146804773 1:15.684459062660203 2:22.243500389663325 3:-16.80456349806422 4:-25.301710531934813 5:-12.418109031723834 6:-11.15018872584 7:1.2564152984725858 8:0.45997701002589864 9:-10.512877385088384 10:-29.608329115334783 
0.5171034783452999 1:27.512871652658923 2:23.29038453816075 3:20.23487626458816 4:7.9326120188376095 5:4.496741525261356 6:1.404247670222297 7:8.920101520548087 8:14.514725448744976 9:27.627913197881625 10:-26.48903419690037 
-1.0 1:3.5835417645764025 2:-16.555870932565615 3:17.259272047746457 4:0.1140239628574875 5:-14.580794626904643 6:12.460756642095497 7:2.3920362008956744 8:6.117996884226315 9:7.6901548009230325 10:-4.447919334516609 
0.18875951282206138 1:-24.620133806107475 2:-5.128971967393213 3:-9.964045741888011 4:-28.24478998524949 5:-20.314709378444498 6:3.5945344838564566 7:-3.1638352357874773 8:-19.2374934171635 9:7.57740254407576 10:-28.317699971038262 
0.4106539627730559 1:18.247510438878834 2:15.198902855564981 3:-27.1174620919091 4:-6.137887570697309 5:18.673667191886068 6:-21.259704370273457 7:-28.4233695250735 8:-25.486827753356764 9:26.083003647202197 10:1.5577215710440449 
0.20185503990681397 1:22.359165672930494 2:-21.490172702239782 3:-18.208990823629648 4:-8.242566540591351 5:-14.312719209287021 6:18.33900136772472 7:19.67546680194367 8:25.06092103753975 9:12.292335726874136 10:12.024425236210341 
-0.0726764482244402 1:5.485374893832606 2:4.318520732146943 3:-1.8025963924987352 4:-14.01943114805939 5:-26.16179739771776 6:-1.522417775680637 7:6.125198150619191 8:28.38406968752753 9:14.308722021744956 10:10.528500904054319 
-0.42961657206844706 1:-27.06794857835621 2:-18.009755291808077 3:-21.30384802679883 4:5.729283652563716 5:-0.6753246727703264 6:-19.462839523338502 7:-10.884945991882002 8:-4.9383508660124384 9:-8.387506570248817 10:-0.0304477099759346 
-0.01574240227396473 1:20.988908045501645 2:14.399005031908978 3:15.61946037623003 4:-5.32026559730625 5:-3.6660007396058774 6:7.268994329671678 7:-9.874649521396158 8:-20.197501065442918 9:-9.095279375287241 10:28.37065097218541 
0.10302473016135494 1:-28.672379179356493 2:3.3158225498088996 3:-6.169899118307786 4:-23.841466714798692 5:0.8110098486082187 6:26.28905983960758 7:-19.695110923104483 8:-24.16643767207855 9:7.383175296000459 10:16.08514690629533 
0.002577432549310643 1:26.707152856318118 2:8.982633636510613 3:-12.11929209185027 4:-24.336826707040053 5:-6.80208414516466 6:22.886397261813926 7:23.67102116862612 8:-17.657476989046387 9:1.4170001703123738 10:11.16698503399455 
0.03346580977843061 1:-1.92835524016958 2:-28.520352387463646 3:4.322774336172088 4:-22.02525175637183 5:-14.720413316313879 6:14.473347192713817 7:-18.467854525528004 8:0.3154778245142751 9:-16.350485107370197 10:6.354320477064647 
-0.8385469285962817 1:-3.299293440658907 2:7.396871259276075 3:5.280577016637459 4:15.929540040223088 5:-16.458447493506917 6:-17.97461839402027 7:-10.132178909779142 8:1.0418857581430565 9:-15.985123634320379 10:-22.888082860617942 
-0.17857753973447288 1:3.6452052829216797 2:-7.029673097620925 3:6.029017936935155 4:10.247210546334514 5:-26.00664304941591 6:27.33572093370873 7:-21.32270244311428 8:-28.9149850929704 9:16.90626312739849 10:4.092231079883938 
0.0864803739584854 1:20.593482633156086 2:-10.076370498292242 3:-21.992780544301198 4:-3.7258729354348645 5:1.4423862690301874 6:-8.596396240478875 7:28.175425971670087 8:-23.867360501842715 9:27.870670546207577 10:-5.358199210431721 
-1.0 1:12.090736499419627 2:8.137333636473237 3:3.426515598068953 4:-19.600625240285467 5:2.1251435174807725 6:-8.968656209192211 7:-2.98458764323998 8:27.03351715798395 9:-18.99431801181165 10:-4.280351490011718 
-1.0 1:6.392954311599503 2:0.010208569967954162 3:-15.455476451647431 4:-17.765605320705202 5:2.00403984987247 6:24.657534664901476 7:0.47815135274855436 8:7.361132549671844 9:2.1615654466345475 10:-1.3835238842909483 
0.10040062423790808 1:21.07854845177033 2:14.724685541989956 3:-16.883776199104013 4:29.09843268012112 5:25.695482155453632 6:-28.776828424731015 7:7.002630087847606 8:-9.413929816767961 9:24.760026692624365 10:-2.3363911302769154 
0.11146403013396622 1:19.067986948935832 2:-11.403244493516802 3:24.362193100863898 4:5.130895813550609 5:21.251458924925466 6:-16.5720448568961 7:-7.378552294794492 8:-25.866999879967167 9:8.14625823977022 10:28.119863100168807 
0.1873518654118591 1:13.18309949679577 2:29.89478671334652 3:25.13933032376574 4:20.486260159844463 5:11.19203775436597 6:-29.521142570559363 7:10.350670759422087 8:2.89506486850577 9:21.107842908733126 10:-25.799414922079862 
-0.30398625261820733 1:-1.3065422593228817 2:3.7698674340962484 3:19.541265307196177 4:-9.897546632942568 5:7.241003151480584 6:-18.23346464484748 7:27.167004036870907 8:-3.2584078794071445 9:15.266608332739423 10:13.251732805477829 
0.6389820673240312 1:10.217521296621477 2:24.47789060711944 3:-26.681472120796144 4:-21.699983692996312 5:13.996280577195286 6:29.477417191684296 7:-26.436723163492623 8:26.891029881248777 9:-10.342681609426812 10:2.548187084782697 
0.1201232567363828 1:28.376695017297223 2:5.328164668372736 3:11.181732008425605 4:-27.29728832325687 5:-24.216790900996024 6:-26.885110282408768 7:-17.95982240439905 8:-16.005927232871393 9:-21.160159731654144 10:2.614792448902712 
0.1650743335632736 1:-19.535850300873477 2:4.699618993037134 3:11.432645947520072 4:27.7862392315771 5:-11.442671165086715 6:-29.671284445945115 7:5.199300323870716 8:-5.877619727991295 9:13.661937522495386 10:-13.791641019675321 
-0.9167370438849805 1:-8.587328923017456 2:19.642085840701085 3:20.4536085649356 4:1.5527450959663405 5:7.656334112678152 6:6.367237693476866 7:9.171866932174652 8:14.95029725615251 9:-8.005973706431902 10:3.186643436069815 
