svm_type epsilon_svr
kernel_type rbf
gamma 1.0
nr_class 2
total_sv 10
rho -20.208787409586474
SV
1.0 1:-28.664150382179685 
0.7359623560147668 1:-14.667630966113673 
0.9125110914605667 1:28.192306305202887 
0.2882449599743769 1:23.86660937087211 
-1.0 1:-10.997090041176666 
-0.23835535212766956 1:-20.941778117188395 
0.023849180843203754 1:11.477183796280078 
0.27778776383475545 1:17.823963995749764 
-1.0 1:-3.9853418462264294 
-1.0 1:3.6863802569753306 
