svm_type epsilon_svr
kernel_type rbf
gamma 0.5
nr_class 2
total_sv 13
rho -2.2564594037731824
SV
-0.2535733081158107 1:3.8817052489834527 2:0.4520422213158895 
-1.0 1:-0.7153417167314975 2:1.719051600033183 
1.0 1:-0.5430995074840452 2:2.0261972098859182 
-1.0 1:-0.8532376892349745 2:1.596082398917677 
1.0 1:-0.5198687741832956 2:2.063924900055353 
1.0 1:-0.5371300512367894 2:2.0217795906647424 
1.0 1:-0.8848127232955243 2:1.5315599251553436 
1.0 1:-0.5379449953956743 2:2.0250639032904187 
-1.0 1:-0.6126847239048419 2:1.8892543341284034 
-0.7464266918841893 1:-0.5651909465127578 2:1.9621100474361586 
1.0 1:-0.5281959129913836 2:2.0499253813398823 
-1.0 1:-0.7760786728189755 2:1.6617922136962686 
-1.0 1:-0.6651399559177047 2:1.8033835402457954 
