svm_type epsilon_svr
kernel_type rbf
gamma 1.0
nr_class 2
total_sv 81
rho -41.02387002143512
SV
32768.0 1:-0.06582433109638353 2:-0.4595446618700858 
-32768.0 1:-0.6513525936822713 2:-0.9536356121299039 
-32768.0 1:0.48242511223325923 2:-0.2979227597860561 
9938.221463779906 1:0.8848800732947859 2:0.510594607246095 
17159.552100107478 1:-0.5838121321648603 2:-1.0 
32768.0 1:0.3956416512618419 2:0.7119670409452734 
-6069.229687229863 1:-0.24421476599101943 2:0.3318757584704535 
30306.078785154776 1:0.4959025216661974 2:-0.0838511606323653 
-32768.0 1:-0.820987002834699 2:-0.7617359817203428 
32768.0 1:0.8888577317845026 2:0.7303457233394008 
-23338.838315480953 1:0.03020559552941271 2:-0.01423212896524273 
-2169.0434726527556 1:-0.17633982859920372 2:-0.7070032930124959 
-32768.0 1:-0.05461300938228497 2:-0.5359780646564257 
18074.540430280118 1:-0.8719990945686685 2:0.6362475937487768 
13977.672632758788 1:-0.47374027408867436 2:-0.9269256130104636 
-11635.319351673383 1:-0.9786085746337471 2:0.5562373603646111 
-16137.290006529898 1:-0.031766060948583696 2:-0.8131424272891821 
18659.6571298001 1:-0.6428447162244544 2:-0.006161394733009806 
-32768.0 1:-0.48483123431966346 2:-0.3873198735180825 
3800.8933922475035 1:0.14353871000696206 2:-0.2817847207720334 
19984.64539054758 1:0.7268358998191373 2:0.2644864043425377 
18152.860631637617 1:-0.7791117256336968 2:-0.6593306050123401 
23322.66906641988 1:0.9281477843145494 2:-0.17243531340338114 
8420.969804114553 1:-0.9909475613727017 2:-0.6283306574495582 
32768.0 1:0.18209354867985295 2:0.17025440457899066 
-6240.632185438896 1:0.9750105994538603 2:0.0881119372681678 
-28422.333028317902 1:-0.5813417043970397 2:-0.2936968088986287 
-5175.797763700192 1:-0.8206635857095828 2:0.13202926351269872 
32768.0 1:-0.07041005421505842 2:-0.3734486185293465 
-14408.99373302533 1:0.6481452864197346 2:-0.43361597073691727 
-23233.35447115941 1:0.1485371214208937 2:-0.25566443251874693 
12596.358674870284 1:0.8116463955908044 2:-0.4580044784088103 
-14194.021343713639 1:0.3825782931438264 2:0.17685636024709472 
32768.0 1:-0.485472106340919 2:-0.2347244080957427 
9533.419130233084 1:-0.911545060378175 2:0.03553055930952187 
-25322.303259359494 1:0.03473396524441563 2:0.6895421860787261 
32768.0 1:-0.7690680609068533 2:-0.6461413782271898 
7707.7437004532985 1:0.48960015530212964 2:-0.9452982748708746 
-4944.2524058446625 1:1.0 2:0.6491998202493454 
-32768.0 1:0.927422375290281 2:0.6265981819814284 
-29549.16168401994 1:0.6995018641441659 2:0.7229713928935266 
32768.0 1:0.5949644296277736 2:-0.5825129365662609 
-32768.0 1:0.554210841596094 2:-0.3631452609396587 
1501.0210038579075 1:0.6087659546681519 2:0.9094897174261471 
11759.171829532554 1:0.566079142918027 2:0.012835134022461059 
-32768.0 1:0.7641619973588047 2:0.14790006881477846 
32768.0 1:-0.5620341474470267 2:-0.22016433647107791 
31622.40614850968 1:0.4970072089379407 2:-0.5804289251646593 
-13048.293176918889 1:-0.6354290125946711 2:-0.5477869948562688 
-10673.250058301745 1:0.3988648025850594 2:0.7419879376505982 
21312.60917599723 1:-0.5010667095582924 2:1.0 
32768.0 1:-0.7006546669861154 2:-0.5655504099516568 
8505.802039740107 1:0.8571522295206866 2:-0.8450380673917768 
-24617.91380522542 1:-0.7980504021318995 2:0.1717632004251919 
32768.0 1:-0.26712437445181025 2:0.7734580379199432 
-32768.0 1:0.4152023534319831 2:0.19629812964602733 
30198.6762446453 1:-0.9917887027249361 2:-0.9852312135661385 
-19146.301779806156 1:-0.8274513706022134 2:-0.3203925787859717 
-32768.0 1:-0.6689181994733494 2:-0.27081490614213777 
-544.839030181897 1:-0.15530068352613846 2:-0.1966124725479177 
32768.0 1:0.677661143344795 2:-0.5695185808330319 
-32768.0 1:-0.33469848100584365 2:0.9300106139454183 
15168.799867709318 1:-0.7085276209253136 2:-0.07528947084816928 
-23144.67137119862 1:0.8657773168715697 2:0.10145461804541078 
32768.0 1:0.42790402271975014 2:-0.030647780708756178 
30255.654149052585 1:-0.13359483820408802 2:-0.8701252226944491 
-32768.0 1:-1.0 2:-0.9034358533666157 
-32768.0 1:-0.237652470251289 2:-0.9291514440746752 
-13194.88259561136 1:-0.6266832936018238 2:0.8885618857572064 
11019.097526681613 1:-0.21612530490722714 2:0.7178327894297474 
-3174.9347931009206 1:0.21502231055984522 2:-0.21756957094302376 
-32768.0 1:0.5985360265299431 2:-0.7717813226904326 
32768.0 1:0.8905711950764301 2:0.36163362837090607 
32768.0 1:-0.29375534093384315 2:-0.770702821117528 
16308.607752332624 1:-0.8383063417929326 2:0.3247218534956351 
-32768.0 1:0.6917132817780254 2:-0.6509898179725362 
-15161.422821826718 1:0.9501856945290592 2:-0.48349199564428025 
1338.7235349635948 1:0.02897312164047916 2:0.9966543420300815 
-10353.161032606316 1:-0.6590380624187907 2:0.7157453127269653 
-32768.0 1:-0.3146498473317412 2:-0.5862818317299472 
-13957.610432501308 1:-0.5118568830414925 2:0.18505939262724946 
