svm_type c_svc
kernel_type rbf
gamma 0.25
nr_class 2
total_sv 292
rho 5.184167491492792E-5
label 1 -1
nr_sv 146 146
SV
1.0 1:2.1266417231145414 2:-0.13825931437722214 3:1.867813494132477 4:-0.0996633560946515 
1.0 1:1.7366823561004672 2:-0.08166357130398225 3:1.867813494132477 4:-0.0996633560946515 
1.0 1:1.7366823561004672 2:-0.08166357130398225 3:2.1266417231145414 4:-0.13825931437722214 
1.0 1:2.1219181940000595 2:-0.20113911663319176 3:1.867813494132477 4:-0.0996633560946515 
1.0 1:2.1219181940000595 2:-0.20113911663319176 3:2.1266417231145414 4:-0.13825931437722214 
1.0 1:2.1219181940000595 2:-0.20113911663319176 3:1.7366823561004672 4:-0.08166357130398225 
1.0 1:1.9777784334235677 2:-0.22592313766109345 3:1.867813494132477 4:-0.0996633560946515 
1.0 1:1.9777784334235677 2:-0.22592313766109345 3:2.1266417231145414 4:-0.13825931437722214 
1.0 1:1.9777784334235677 2:-0.22592313766109345 3:1.7366823561004672 4:-0.08166357130398225 
1.0 1:1.9777784334235677 2:-0.22592313766109345 3:2.1219181940000595 4:-0.20113911663319176 
1.0 1:2.102792710894296 2:-0.2296831768767181 3:1.867813494132477 4:-0.0996633560946515 
1.0 1:2.102792710894296 2:-0.2296831768767181 3:2.1266417231145414 4:-0.13825931437722214 
1.0 1:2.102792710894296 2:-0.2296831768767181 3:1.7366823561004672 4:-0.08166357130398225 
1.0 1:2.102792710894296 2:-0.2296831768767181 3:2.1219181940000595 4:-0.20113911663319176 
1.0 1:2.102792710894296 2:-0.2296831768767181 3:1.9777784334235677 4:-0.22592313766109345 
1.0 1:2.1357008334722387 2:-0.2257493637421 3:1.867813494132477 4:-0.0996633560946515 
1.0 1:2.1357008334722387 2:-0.2257493637421 3:2.1266417231145414 4:-0.13825931437722214 
1.0 1:2.1357008334722387 2:-0.2257493637421 3:1.7366823561004672 4:-0.08166357130398225 
1.0 1:2.1357008334722387 2:-0.2257493637421 3:2.1219181940000595 4:-0.20113911663319176 
1.0 1:2.1357008334722387 2:-0.2257493637421 3:1.9777784334235677 4:-0.22592313766109345 
1.0 1:2.1357008334722387 2:-0.2257493637421 3:2.102792710894296 4:-0.2296831768767181 
1.0 1:2.132210876115592 2:-0.2353515261405993 3:1.867813494132477 4:-0.0996633560946515 
1.0 1:2.132210876115592 2:-0.2353515261405993 3:2.1266417231145414 4:-0.13825931437722214 
1.0 1:2.132210876115592 2:-0.2353515261405993 3:1.7366823561004672 4:-0.08166357130398225 
1.0 1:2.132210876115592 2:-0.2353515261405993 3:2.1219181940000595 4:-0.20113911663319176 
1.0 1:2.132210876115592 2:-0.2353515261405993 3:1.9777784334235677 4:-0.22592313766109345 
1.0 1:2.132210876115592 2:-0.2353515261405993 3:2.102792710894296 4:-0.2296831768767181 
1.0 1:2.132210876115592 2:-0.2353515261405993 3:2.1357008334722387 4:-0.2257493637421 
1.0 1:2.0838412524304633 2:-0.2501564590377055 3:1.867813494132477 4:-0.0996633560946515 
1.0 1:2.0838412524304633 2:-0.2501564590377055 3:2.1266417231145414 4:-0.13825931437722214 
1.0 1:2.0838412524304633 2:-0.2501564590377055 3:1.7366823561004672 4:-0.08166357130398225 
1.0 1:2.0838412524304633 2:-0.2501564590377055 3:2.1219181940000595 4:-0.20113911663319176 
1.0 1:2.0838412524304633 2:-0.2501564590377055 3:1.9777784334235677 4:-0.22592313766109345 
1.0 1:2.0838412524304633 2:-0.2501564590377055 3:2.102792710894296 4:-0.2296831768767181 
1.0 1:2.0838412524304633 2:-0.2501564590377055 3:2.1357008334722387 4:-0.2257493637421 
1.0 1:2.0838412524304633 2:-0.2501564590377055 3:2.132210876115592 4:-0.2353515261405993 
1.0 1:2.119682115618048 2:-0.24844175638437666 3:1.867813494132477 4:-0.0996633560946515 
1.0 1:2.119682115618048 2:-0.24844175638437666 3:2.1266417231145414 4:-0.13825931437722214 
1.0 1:2.119682115618048 2:-0.24844175638437666 3:1.7366823561004672 4:-0.08166357130398225 
1.0 1:2.119682115618048 2:-0.24844175638437666 3:2.1219181940000595 4:-0.20113911663319176 
1.0 1:2.119682115618048 2:-0.24844175638437666 3:1.9777784334235677 4:-0.22592313766109345 
1.0 1:2.119682115618048 2:-0.24844175638437666 3:2.102792710894296 4:-0.2296831768767181 
1.0 1:2.119682115618048 2:-0.24844175638437666 3:2.1357008334722387 4:-0.2257493637421 
1.0 1:2.119682115618048 2:-0.24844175638437666 3:2.132210876115592 4:-0.2353515261405993 
1.0 1:2.119682115618048 2:-0.24844175638437666 3:2.0838412524304633 4:-0.2501564590377055 
1.0 1:2.1255516271053483 2:-0.2617115562419939 3:1.867813494132477 4:-0.0996633560946515 
1.0 1:2.1255516271053483 2:-0.2617115562419939 3:2.1266417231145414 4:-0.13825931437722214 
1.0 1:2.1255516271053483 2:-0.2617115562419939 3:1.7366823561004672 4:-0.08166357130398225 
1.0 1:2.1255516271053483 2:-0.2617115562419939 3:2.1219181940000595 4:-0.20113911663319176 
1.0 1:2.1255516271053483 2:-0.2617115562419939 3:1.9777784334235677 4:-0.22592313766109345 
1.0 1:2.1255516271053483 2:-0.2617115562419939 3:2.102792710894296 4:-0.2296831768767181 
1.0 1:2.1255516271053483 2:-0.2617115562419939 3:2.1357008334722387 4:-0.2257493637421 
1.0 1:2.1255516271053483 2:-0.2617115562419939 3:2.132210876115592 4:-0.2353515261405993 
1.0 1:2.1255516271053483 2:-0.2617115562419939 3:2.0838412524304633 4:-0.2501564590377055 
1.0 1:2.1255516271053483 2:-0.2617115562419939 3:2.119682115618048 4:-0.24844175638437666 
1.0 1:2.1066106426183833 2:-0.2725515934903172 3:1.867813494132477 4:-0.0996633560946515 
1.0 1:2.1066106426183833 2:-0.2725515934903172 3:2.1266417231145414 4:-0.13825931437722214 
1.0 1:2.1066106426183833 2:-0.2725515934903172 3:1.7366823561004672 4:-0.08166357130398225 
1.0 1:2.1066106426183833 2:-0.2725515934903172 3:2.1219181940000595 4:-0.20113911663319176 
1.0 1:2.1066106426183833 2:-0.2725515934903172 3:1.9777784334235677 4:-0.22592313766109345 
1.0 1:2.1066106426183833 2:-0.2725515934903172 3:2.102792710894296 4:-0.2296831768767181 
1.0 1:2.1066106426183833 2:-0.2725515934903172 3:2.1357008334722387 4:-0.2257493637421 
1.0 1:2.1066106426183833 2:-0.2725515934903172 3:2.132210876115592 4:-0.2353515261405993 
1.0 1:2.1066106426183833 2:-0.2725515934903172 3:2.0838412524304633 4:-0.2501564590377055 
1.0 1:2.1066106426183833 2:-0.2725515934903172 3:2.119682115618048 4:-0.24844175638437666 
1.0 1:2.1066106426183833 2:-0.2725515934903172 3:2.1255516271053483 4:-0.2617115562419939 
1.0 1:2.0743067688497248 2:-0.29515223668127677 3:1.867813494132477 4:-0.0996633560946515 
1.0 1:2.0743067688497248 2:-0.29515223668127677 3:2.1266417231145414 4:-0.13825931437722214 
1.0 1:2.0743067688497248 2:-0.29515223668127677 3:1.7366823561004672 4:-0.08166357130398225 
1.0 1:2.0743067688497248 2:-0.29515223668127677 3:2.1219181940000595 4:-0.20113911663319176 
1.0 1:2.0743067688497248 2:-0.29515223668127677 3:1.9777784334235677 4:-0.22592313766109345 
1.0 1:2.0743067688497248 2:-0.29515223668127677 3:2.102792710894296 4:-0.2296831768767181 
1.0 1:2.0743067688497248 2:-0.29515223668127677 3:2.1357008334722387 4:-0.2257493637421 
1.0 1:2.0743067688497248 2:-0.29515223668127677 3:2.132210876115592 4:-0.2353515261405993 
1.0 1:2.0743067688497248 2:-0.29515223668127677 3:2.0838412524304633 4:-0.2501564590377055 
1.0 1:2.0743067688497248 2:-0.29515223668127677 3:2.119682115618048 4:-0.24844175638437666 
1.0 1:2.0743067688497248 2:-0.29515223668127677 3:2.1255516271053483 4:-0.2617115562419939 
1.0 1:2.0743067688497248 2:-0.29515223668127677 3:2.1066106426183833 4:-0.2725515934903172 
1.0 1:1.4437766155444733 2:-0.11838946237916102 3:1.867813494132477 4:-0.0996633560946515 
1.0 1:1.4437766155444733 2:-0.11838946237916102 3:2.1266417231145414 4:-0.13825931437722214 
1.0 1:1.4437766155444733 2:-0.11838946237916102 3:1.7366823561004672 4:-0.08166357130398225 
1.0 1:1.4437766155444733 2:-0.11838946237916102 3:2.1219181940000595 4:-0.20113911663319176 
1.0 1:1.4437766155444733 2:-0.11838946237916102 3:1.9777784334235677 4:-0.22592313766109345 
1.0 1:1.4437766155444733 2:-0.11838946237916102 3:2.102792710894296 4:-0.2296831768767181 
1.0 1:1.4437766155444733 2:-0.11838946237916102 3:2.1357008334722387 4:-0.2257493637421 
1.0 1:1.4437766155444733 2:-0.11838946237916102 3:2.132210876115592 4:-0.2353515261405993 
1.0 1:1.4437766155444733 2:-0.11838946237916102 3:2.0838412524304633 4:-0.2501564590377055 
1.0 1:1.4437766155444733 2:-0.11838946237916102 3:2.119682115618048 4:-0.24844175638437666 
1.0 1:1.4437766155444733 2:-0.11838946237916102 3:2.1255516271053483 4:-0.2617115562419939 
1.0 1:1.4437766155444733 2:-0.11838946237916102 3:2.1066106426183833 4:-0.2725515934903172 
1.0 1:1.4437766155444733 2:-0.11838946237916102 3:2.0743067688497248 4:-0.29515223668127677 
1.0 1:2.037024490315283 2:-0.4341831631037951 3:1.867813494132477 4:-0.0996633560946515 
1.0 1:2.037024490315283 2:-0.4341831631037951 3:2.1266417231145414 4:-0.13825931437722214 
1.0 1:2.037024490315283 2:-0.4341831631037951 3:1.7366823561004672 4:-0.08166357130398225 
1.0 1:2.037024490315283 2:-0.4341831631037951 3:2.1219181940000595 4:-0.20113911663319176 
1.0 1:2.037024490315283 2:-0.4341831631037951 3:1.9777784334235677 4:-0.22592313766109345 
1.0 1:2.037024490315283 2:-0.4341831631037951 3:2.102792710894296 4:-0.2296831768767181 
1.0 1:2.037024490315283 2:-0.4341831631037951 3:2.1357008334722387 4:-0.2257493637421 
1.0 1:2.037024490315283 2:-0.4341831631037951 3:2.132210876115592 4:-0.2353515261405993 
1.0 1:2.037024490315283 2:-0.4341831631037951 3:2.0838412524304633 4:-0.2501564590377055 
1.0 1:2.037024490315283 2:-0.4341831631037951 3:2.119682115618048 4:-0.24844175638437666 
1.0 1:2.037024490315283 2:-0.4341831631037951 3:2.1255516271053483 4:-0.2617115562419939 
1.0 1:2.037024490315283 2:-0.4341831631037951 3:2.1066106426183833 4:-0.2725515934903172 
1.0 1:2.037024490315283 2:-0.4341831631037951 3:2.0743067688497248 4:-0.29515223668127677 
1.0 1:2.037024490315283 2:-0.4341831631037951 3:1.4437766155444733 4:-0.11838946237916102 
1.0 1:1.4238249179052351 2:0.5410783232194216 3:1.867813494132477 4:-0.0996633560946515 
1.0 1:1.4238249179052351 2:0.5410783232194216 3:1.7366823561004672 4:-0.08166357130398225 
1.0 1:1.4238249179052351 2:0.5410783232194216 3:1.9777784334235677 4:-0.22592313766109345 
0.6821252481994758 1:1.4238249179052351 2:0.5410783232194216 3:2.119682115618048 4:-0.24844175638437666 
1.0 1:1.4238249179052351 2:0.5410783232194216 3:2.1255516271053483 4:-0.2617115562419939 
1.0 1:1.4238249179052351 2:0.5410783232194216 3:2.1066106426183833 4:-0.2725515934903172 
1.0 1:1.4238249179052351 2:0.5410783232194216 3:2.0743067688497248 4:-0.29515223668127677 
1.0 1:1.4238249179052351 2:0.5410783232194216 3:1.4437766155444733 4:-0.11838946237916102 
1.0 1:1.4238249179052351 2:0.5410783232194216 3:2.037024490315283 4:-0.4341831631037951 
1.0 1:0.9117424842403132 2:-0.2851134539232773 3:1.4437766155444733 4:-0.11838946237916102 
1.0 1:0.9117424842403132 2:-0.2851134539232773 3:1.4238249179052351 4:0.5410783232194216 
1.0 1:-1.0566201558113195 2:1.3120192278857967 3:2.1266417231145414 4:-0.13825931437722214 
0.21463090192893525 1:-1.0566201558113195 2:1.3120192278857967 3:2.1357008334722387 4:-0.2257493637421 
1.0 1:-1.0566201558113195 2:1.3120192278857967 3:1.4238249179052351 4:0.5410783232194216 
0.3597415844090437 1:-1.0566201558113195 2:1.3120192278857967 3:0.9117424842403132 4:-0.2851134539232773 
1.0 1:3.4791550984553234 2:0.05957111629354017 3:1.4238249179052351 4:0.5410783232194216 
1.0 1:3.4791550984553234 2:0.05957111629354017 3:0.9117424842403132 4:-0.2851134539232773 
1.0 1:3.4791550984553234 2:0.05957111629354017 3:-1.0566201558113195 4:1.3120192278857967 
1.0 1:3.3241680938640306 2:-0.45462391712965555 3:1.4437766155444733 4:-0.11838946237916102 
0.7326092514563405 1:3.3241680938640306 2:-0.45462391712965555 3:2.037024490315283 4:-0.4341831631037951 
1.0 1:3.3241680938640306 2:-0.45462391712965555 3:1.4238249179052351 4:0.5410783232194216 
1.0 1:3.3241680938640306 2:-0.45462391712965555 3:0.9117424842403132 4:-0.2851134539232773 
1.0 1:3.3241680938640306 2:-0.45462391712965555 3:-1.0566201558113195 4:1.3120192278857967 
1.0 1:3.3241680938640306 2:-0.45462391712965555 3:3.4791550984553234 4:0.05957111629354017 
0.8550478944753046 1:0.07056901483880026 2:-0.45711790158259935 3:1.4238249179052351 4:0.5410783232194216 
1.0 1:0.07056901483880026 2:-0.45711790158259935 3:-1.0566201558113195 4:1.3120192278857967 
1.0 1:0.07056901483880026 2:-0.45711790158259935 3:3.4791550984553234 4:0.05957111629354017 
1.0 1:0.07056901483880026 2:-0.45711790158259935 3:3.3241680938640306 4:-0.45462391712965555 
0.623214191654141 1:2.9498009449107023 2:1.0116270368072833 3:1.4437766155444733 4:-0.11838946237916102 
0.1991279214118954 1:2.9498009449107023 2:1.0116270368072833 3:2.037024490315283 4:-0.4341831631037951 
1.0 1:2.9498009449107023 2:1.0116270368072833 3:1.4238249179052351 4:0.5410783232194216 
1.0 1:2.9498009449107023 2:1.0116270368072833 3:0.9117424842403132 4:-0.2851134539232773 
1.0 1:2.9498009449107023 2:1.0116270368072833 3:-1.0566201558113195 4:1.3120192278857967 
1.0 1:2.9498009449107023 2:1.0116270368072833 3:3.4791550984553234 4:0.05957111629354017 
1.0 1:2.9498009449107023 2:1.0116270368072833 3:3.3241680938640306 4:-0.45462391712965555 
1.0 1:2.9498009449107023 2:1.0116270368072833 3:0.07056901483880026 4:-0.45711790158259935 
1.0 1:1.1083582186540104 2:1.1974327755163614 3:-1.0566201558113195 4:1.3120192278857967 
1.0 1:1.1083582186540104 2:1.1974327755163614 3:3.4791550984553234 4:0.05957111629354017 
1.0 1:1.1083582186540104 2:1.1974327755163614 3:3.3241680938640306 4:-0.45462391712965555 
1.0 1:1.1083582186540104 2:1.1974327755163614 3:0.07056901483880026 4:-0.45711790158259935 
1.0 1:1.1083582186540104 2:1.1974327755163614 3:2.9498009449107023 4:1.0116270368072833 
-1.0 1:1.867813494132477 2:-0.0996633560946515 3:2.1266417231145414 4:-0.13825931437722214 
-1.0 1:1.867813494132477 2:-0.0996633560946515 3:1.7366823561004672 4:-0.08166357130398225 
-1.0 1:1.867813494132477 2:-0.0996633560946515 3:2.1219181940000595 4:-0.20113911663319176 
-1.0 1:1.867813494132477 2:-0.0996633560946515 3:1.9777784334235677 4:-0.22592313766109345 
-1.0 1:1.867813494132477 2:-0.0996633560946515 3:2.102792710894296 4:-0.2296831768767181 
-1.0 1:1.867813494132477 2:-0.0996633560946515 3:2.1357008334722387 4:-0.2257493637421 
-1.0 1:1.867813494132477 2:-0.0996633560946515 3:2.132210876115592 4:-0.2353515261405993 
-1.0 1:1.867813494132477 2:-0.0996633560946515 3:2.0838412524304633 4:-0.2501564590377055 
-1.0 1:1.867813494132477 2:-0.0996633560946515 3:2.119682115618048 4:-0.24844175638437666 
-1.0 1:1.867813494132477 2:-0.0996633560946515 3:2.1255516271053483 4:-0.2617115562419939 
-1.0 1:1.867813494132477 2:-0.0996633560946515 3:2.1066106426183833 4:-0.2725515934903172 
-1.0 1:1.867813494132477 2:-0.0996633560946515 3:2.0743067688497248 4:-0.29515223668127677 
-1.0 1:1.867813494132477 2:-0.0996633560946515 3:1.4437766155444733 4:-0.11838946237916102 
-1.0 1:1.867813494132477 2:-0.0996633560946515 3:2.037024490315283 4:-0.4341831631037951 
-1.0 1:1.867813494132477 2:-0.0996633560946515 3:1.4238249179052351 4:0.5410783232194216 
-1.0 1:2.1266417231145414 2:-0.13825931437722214 3:1.7366823561004672 4:-0.08166357130398225 
-1.0 1:2.1266417231145414 2:-0.13825931437722214 3:2.1219181940000595 4:-0.20113911663319176 
-1.0 1:2.1266417231145414 2:-0.13825931437722214 3:1.9777784334235677 4:-0.22592313766109345 
-1.0 1:2.1266417231145414 2:-0.13825931437722214 3:2.102792710894296 4:-0.2296831768767181 
-1.0 1:2.1266417231145414 2:-0.13825931437722214 3:2.1357008334722387 4:-0.2257493637421 
-1.0 1:2.1266417231145414 2:-0.13825931437722214 3:2.132210876115592 4:-0.2353515261405993 
-1.0 1:2.1266417231145414 2:-0.13825931437722214 3:2.0838412524304633 4:-0.2501564590377055 
-1.0 1:2.1266417231145414 2:-0.13825931437722214 3:2.119682115618048 4:-0.24844175638437666 
-1.0 1:2.1266417231145414 2:-0.13825931437722214 3:2.1255516271053483 4:-0.2617115562419939 
-1.0 1:2.1266417231145414 2:-0.13825931437722214 3:2.1066106426183833 4:-0.2725515934903172 
-1.0 1:2.1266417231145414 2:-0.13825931437722214 3:2.0743067688497248 4:-0.29515223668127677 
-1.0 1:2.1266417231145414 2:-0.13825931437722214 3:1.4437766155444733 4:-0.11838946237916102 
-1.0 1:2.1266417231145414 2:-0.13825931437722214 3:2.037024490315283 4:-0.4341831631037951 
-1.0 1:2.1266417231145414 2:-0.13825931437722214 3:-1.0566201558113195 4:1.3120192278857967 
-1.0 1:1.7366823561004672 2:-0.08166357130398225 3:2.1219181940000595 4:-0.20113911663319176 
-1.0 1:1.7366823561004672 2:-0.08166357130398225 3:1.9777784334235677 4:-0.22592313766109345 
-1.0 1:1.7366823561004672 2:-0.08166357130398225 3:2.102792710894296 4:-0.2296831768767181 
-1.0 1:1.7366823561004672 2:-0.08166357130398225 3:2.1357008334722387 4:-0.2257493637421 
-1.0 1:1.7366823561004672 2:-0.08166357130398225 3:2.132210876115592 4:-0.2353515261405993 
-1.0 1:1.7366823561004672 2:-0.08166357130398225 3:2.0838412524304633 4:-0.2501564590377055 
-1.0 1:1.7366823561004672 2:-0.08166357130398225 3:2.119682115618048 4:-0.24844175638437666 
-1.0 1:1.7366823561004672 2:-0.08166357130398225 3:2.1255516271053483 4:-0.2617115562419939 
-1.0 1:1.7366823561004672 2:-0.08166357130398225 3:2.1066106426183833 4:-0.2725515934903172 
-1.0 1:1.7366823561004672 2:-0.08166357130398225 3:2.0743067688497248 4:-0.29515223668127677 
-1.0 1:1.7366823561004672 2:-0.08166357130398225 3:1.4437766155444733 4:-0.11838946237916102 
-1.0 1:1.7366823561004672 2:-0.08166357130398225 3:2.037024490315283 4:-0.4341831631037951 
-1.0 1:1.7366823561004672 2:-0.08166357130398225 3:1.4238249179052351 4:0.5410783232194216 
-1.0 1:2.1219181940000595 2:-0.20113911663319176 3:1.9777784334235677 4:-0.22592313766109345 
-1.0 1:2.1219181940000595 2:-0.20113911663319176 3:2.102792710894296 4:-0.2296831768767181 
-1.0 1:2.1219181940000595 2:-0.20113911663319176 3:2.1357008334722387 4:-0.2257493637421 
-1.0 1:2.1219181940000595 2:-0.20113911663319176 3:2.132210876115592 4:-0.2353515261405993 
-1.0 1:2.1219181940000595 2:-0.20113911663319176 3:2.0838412524304633 4:-0.2501564590377055 
-1.0 1:2.1219181940000595 2:-0.20113911663319176 3:2.119682115618048 4:-0.24844175638437666 
-1.0 1:2.1219181940000595 2:-0.20113911663319176 3:2.1255516271053483 4:-0.2617115562419939 
-1.0 1:2.1219181940000595 2:-0.20113911663319176 3:2.1066106426183833 4:-0.2725515934903172 
-1.0 1:2.1219181940000595 2:-0.20113911663319176 3:2.0743067688497248 4:-0.29515223668127677 
-1.0 1:2.1219181940000595 2:-0.20113911663319176 3:1.4437766155444733 4:-0.11838946237916102 
-1.0 1:2.1219181940000595 2:-0.20113911663319176 3:2.037024490315283 4:-0.4341831631037951 
-1.0 1:1.9777784334235677 2:-0.22592313766109345 3:2.102792710894296 4:-0.2296831768767181 
-1.0 1:1.9777784334235677 2:-0.22592313766109345 3:2.1357008334722387 4:-0.2257493637421 
-1.0 1:1.9777784334235677 2:-0.22592313766109345 3:2.132210876115592 4:-0.2353515261405993 
-1.0 1:1.9777784334235677 2:-0.22592313766109345 3:2.0838412524304633 4:-0.2501564590377055 
-1.0 1:1.9777784334235677 2:-0.22592313766109345 3:2.119682115618048 4:-0.24844175638437666 
-1.0 1:1.9777784334235677 2:-0.22592313766109345 3:2.1255516271053483 4:-0.2617115562419939 
-1.0 1:1.9777784334235677 2:-0.22592313766109345 3:2.1066106426183833 4:-0.2725515934903172 
-1.0 1:1.9777784334235677 2:-0.22592313766109345 3:2.0743067688497248 4:-0.29515223668127677 
-1.0 1:1.9777784334235677 2:-0.22592313766109345 3:1.4437766155444733 4:-0.11838946237916102 
-1.0 1:1.9777784334235677 2:-0.22592313766109345 3:2.037024490315283 4:-0.4341831631037951 
-1.0 1:1.9777784334235677 2:-0.22592313766109345 3:1.4238249179052351 4:0.5410783232194216 
-1.0 1:2.102792710894296 2:-0.2296831768767181 3:2.1357008334722387 4:-0.2257493637421 
-1.0 1:2.102792710894296 2:-0.2296831768767181 3:2.132210876115592 4:-0.2353515261405993 
-1.0 1:2.102792710894296 2:-0.2296831768767181 3:2.0838412524304633 4:-0.2501564590377055 
-1.0 1:2.102792710894296 2:-0.2296831768767181 3:2.119682115618048 4:-0.24844175638437666 
-1.0 1:2.102792710894296 2:-0.2296831768767181 3:2.1255516271053483 4:-0.2617115562419939 
-1.0 1:2.102792710894296 2:-0.2296831768767181 3:2.1066106426183833 4:-0.2725515934903172 
-1.0 1:2.102792710894296 2:-0.2296831768767181 3:2.0743067688497248 4:-0.29515223668127677 
-1.0 1:2.102792710894296 2:-0.2296831768767181 3:1.4437766155444733 4:-0.11838946237916102 
-1.0 1:2.102792710894296 2:-0.2296831768767181 3:2.037024490315283 4:-0.4341831631037951 
-1.0 1:2.1357008334722387 2:-0.2257493637421 3:2.132210876115592 4:-0.2353515261405993 
-1.0 1:2.1357008334722387 2:-0.2257493637421 3:2.0838412524304633 4:-0.2501564590377055 
-1.0 1:2.1357008334722387 2:-0.2257493637421 3:2.119682115618048 4:-0.24844175638437666 
-1.0 1:2.1357008334722387 2:-0.2257493637421 3:2.1255516271053483 4:-0.2617115562419939 
-1.0 1:2.1357008334722387 2:-0.2257493637421 3:2.1066106426183833 4:-0.2725515934903172 
-1.0 1:2.1357008334722387 2:-0.2257493637421 3:2.0743067688497248 4:-0.29515223668127677 
-1.0 1:2.1357008334722387 2:-0.2257493637421 3:1.4437766155444733 4:-0.11838946237916102 
-1.0 1:2.1357008334722387 2:-0.2257493637421 3:2.037024490315283 4:-0.4341831631037951 
-0.21568950387107785 1:2.1357008334722387 2:-0.2257493637421 3:-1.0566201558113195 4:1.3120192278857967 
-1.0 1:2.132210876115592 2:-0.2353515261405993 3:2.0838412524304633 4:-0.2501564590377055 
-1.0 1:2.132210876115592 2:-0.2353515261405993 3:2.119682115618048 4:-0.24844175638437666 
-1.0 1:2.132210876115592 2:-0.2353515261405993 3:2.1255516271053483 4:-0.2617115562419939 
-1.0 1:2.132210876115592 2:-0.2353515261405993 3:2.1066106426183833 4:-0.2725515934903172 
-1.0 1:2.132210876115592 2:-0.2353515261405993 3:2.0743067688497248 4:-0.29515223668127677 
-1.0 1:2.132210876115592 2:-0.2353515261405993 3:1.4437766155444733 4:-0.11838946237916102 
-1.0 1:2.132210876115592 2:-0.2353515261405993 3:2.037024490315283 4:-0.4341831631037951 
-1.0 1:2.0838412524304633 2:-0.2501564590377055 3:2.119682115618048 4:-0.24844175638437666 
-1.0 1:2.0838412524304633 2:-0.2501564590377055 3:2.1255516271053483 4:-0.2617115562419939 
-1.0 1:2.0838412524304633 2:-0.2501564590377055 3:2.1066106426183833 4:-0.2725515934903172 
-1.0 1:2.0838412524304633 2:-0.2501564590377055 3:2.0743067688497248 4:-0.29515223668127677 
-1.0 1:2.0838412524304633 2:-0.2501564590377055 3:1.4437766155444733 4:-0.11838946237916102 
-1.0 1:2.0838412524304633 2:-0.2501564590377055 3:2.037024490315283 4:-0.4341831631037951 
-1.0 1:2.119682115618048 2:-0.24844175638437666 3:2.1255516271053483 4:-0.2617115562419939 
-1.0 1:2.119682115618048 2:-0.24844175638437666 3:2.1066106426183833 4:-0.2725515934903172 
-1.0 1:2.119682115618048 2:-0.24844175638437666 3:2.0743067688497248 4:-0.29515223668127677 
-1.0 1:2.119682115618048 2:-0.24844175638437666 3:1.4437766155444733 4:-0.11838946237916102 
-1.0 1:2.119682115618048 2:-0.24844175638437666 3:2.037024490315283 4:-0.4341831631037951 
-0.6817128937149323 1:2.119682115618048 2:-0.24844175638437666 3:1.4238249179052351 4:0.5410783232194216 
-1.0 1:2.1255516271053483 2:-0.2617115562419939 3:2.1066106426183833 4:-0.2725515934903172 
-1.0 1:2.1255516271053483 2:-0.2617115562419939 3:2.0743067688497248 4:-0.29515223668127677 
-1.0 1:2.1255516271053483 2:-0.2617115562419939 3:1.4437766155444733 4:-0.11838946237916102 
-1.0 1:2.1255516271053483 2:-0.2617115562419939 3:2.037024490315283 4:-0.4341831631037951 
-1.0 1:2.1255516271053483 2:-0.2617115562419939 3:1.4238249179052351 4:0.5410783232194216 
-1.0 1:2.1066106426183833 2:-0.2725515934903172 3:2.0743067688497248 4:-0.29515223668127677 
-1.0 1:2.1066106426183833 2:-0.2725515934903172 3:1.4437766155444733 4:-0.11838946237916102 
-1.0 1:2.1066106426183833 2:-0.2725515934903172 3:2.037024490315283 4:-0.4341831631037951 
-1.0 1:2.1066106426183833 2:-0.2725515934903172 3:1.4238249179052351 4:0.5410783232194216 
-1.0 1:2.0743067688497248 2:-0.29515223668127677 3:1.4437766155444733 4:-0.11838946237916102 
-1.0 1:2.0743067688497248 2:-0.29515223668127677 3:2.037024490315283 4:-0.4341831631037951 
-1.0 1:2.0743067688497248 2:-0.29515223668127677 3:1.4238249179052351 4:0.5410783232194216 
-1.0 1:1.4437766155444733 2:-0.11838946237916102 3:2.037024490315283 4:-0.4341831631037951 
-1.0 1:1.4437766155444733 2:-0.11838946237916102 3:1.4238249179052351 4:0.5410783232194216 
-1.0 1:1.4437766155444733 2:-0.11838946237916102 3:0.9117424842403132 4:-0.2851134539232773 
-1.0 1:1.4437766155444733 2:-0.11838946237916102 3:3.3241680938640306 4:-0.45462391712965555 
-0.6241410986930983 1:1.4437766155444733 2:-0.11838946237916102 3:2.9498009449107023 4:1.0116270368072833 
-1.0 1:2.037024490315283 2:-0.4341831631037951 3:1.4238249179052351 4:0.5410783232194216 
-0.7319987549953109 1:2.037024490315283 2:-0.4341831631037951 3:3.3241680938640306 4:-0.45462391712965555 
-0.19882727435983294 1:2.037024490315283 2:-0.4341831631037951 3:2.9498009449107023 4:1.0116270368072833 
-1.0 1:1.4238249179052351 2:0.5410783232194216 3:0.9117424842403132 4:-0.2851134539232773 
-1.0 1:1.4238249179052351 2:0.5410783232194216 3:-1.0566201558113195 4:1.3120192278857967 
-1.0 1:1.4238249179052351 2:0.5410783232194216 3:3.4791550984553234 4:0.05957111629354017 
-1.0 1:1.4238249179052351 2:0.5410783232194216 3:3.3241680938640306 4:-0.45462391712965555 
-0.8552483347846475 1:1.4238249179052351 2:0.5410783232194216 3:0.07056901483880026 4:-0.45711790158259935 
-1.0 1:1.4238249179052351 2:0.5410783232194216 3:2.9498009449107023 4:1.0116270368072833 
-0.3588791331162366 1:0.9117424842403132 2:-0.2851134539232773 3:-1.0566201558113195 4:1.3120192278857967 
-1.0 1:0.9117424842403132 2:-0.2851134539232773 3:3.4791550984553234 4:0.05957111629354017 
-1.0 1:0.9117424842403132 2:-0.2851134539232773 3:3.3241680938640306 4:-0.45462391712965555 
-1.0 1:0.9117424842403132 2:-0.2851134539232773 3:2.9498009449107023 4:1.0116270368072833 
-1.0 1:-1.0566201558113195 2:1.3120192278857967 3:3.4791550984553234 4:0.05957111629354017 
-1.0 1:-1.0566201558113195 2:1.3120192278857967 3:3.3241680938640306 4:-0.45462391712965555 
-1.0 1:-1.0566201558113195 2:1.3120192278857967 3:0.07056901483880026 4:-0.45711790158259935 
-1.0 1:-1.0566201558113195 2:1.3120192278857967 3:2.9498009449107023 4:1.0116270368072833 
-1.0 1:-1.0566201558113195 2:1.3120192278857967 3:1.1083582186540104 4:1.1974327755163614 
-1.0 1:3.4791550984553234 2:0.05957111629354017 3:3.3241680938640306 4:-0.45462391712965555 
-1.0 1:3.4791550984553234 2:0.05957111629354017 3:0.07056901483880026 4:-0.45711790158259935 
-1.0 1:3.4791550984553234 2:0.05957111629354017 3:2.9498009449107023 4:1.0116270368072833 
-1.0 1:3.4791550984553234 2:0.05957111629354017 3:1.1083582186540104 4:1.1974327755163614 
-1.0 1:3.3241680938640306 2:-0.45462391712965555 3:0.07056901483880026 4:-0.45711790158259935 
-1.0 1:3.3241680938640306 2:-0.45462391712965555 3:2.9498009449107023 4:1.0116270368072833 
-1.0 1:3.3241680938640306 2:-0.45462391712965555 3:1.1083582186540104 4:1.1974327755163614 
-1.0 1:0.07056901483880026 2:-0.45711790158259935 3:2.9498009449107023 4:1.0116270368072833 
-1.0 1:0.07056901483880026 2:-0.45711790158259935 3:1.1083582186540104 4:1.1974327755163614 
-1.0 1:2.9498009449107023 2:1.0116270368072833 3:1.1083582186540104 4:1.1974327755163614 
