svm_type epsilon_svr
kernel_type rbf
gamma 0.125
nr_class 2
total_sv 123
rho -7751.938790007353
SV
32768.0 1:3.5454772183505705 2:3.6795086959627508 
13758.18219254367 1:-3.2178545838197024 2:0.2853384979606167 
-32768.0 1:2.0325138052567118 2:-1.9899526924950794 
-32768.0 1:2.747659647919913 2:-0.5757247377795501 
-32768.0 1:-0.09110248266897088 2:4.187470062208182 
4923.037153103103 1:4.2517943320512686 2:3.193332832134245 
-32768.0 1:1.734288447104895 2:0.5872941467057428 
-32768.0 1:-4.072756372167176 2:0.05682751742944275 
-32768.0 1:-1.009919766938481 2:2.8620476501560486 
30349.508768611697 1:0.8684475048639066 2:-3.7213616455599854 
-32768.0 1:0.9854055008954159 2:-2.3506940124368136 
-32768.0 1:0.23154770491887078 2:-4.369653253584192 
-32768.0 1:-2.6790291155664594 2:1.6308101804324142 
32768.0 1:3.1568959787032957 2:-3.5182257280230966 
-32768.0 1:-3.5954033747897607 2:-1.4058763465376707 
22055.66824857821 1:-4.174264528248196 2:-2.6355106038146876 
32768.0 1:-2.188306883178319 2:4.055745388460578 
-32768.0 1:-1.428634267486021 2:2.356097043175676 
9906.78132459096 1:-1.9916316805542011 2:-3.0247925277960563 
-32768.0 1:-0.6149327212243552 2:1.1146960596962934 
-32768.0 1:-0.30994218560322384 2:-0.9807552134887415 
-32768.0 1:3.772080413012043 2:-0.7044997840174894 
-32768.0 1:2.2449604736385504 2:1.914499056638129 
-32768.0 1:-0.5918927515092782 2:2.4599057944811293 
-32768.0 1:1.6023607896612622 2:-1.629837530233963 
-32768.0 1:2.0285579873751236 2:1.3474930413769795 
-32768.0 1:-3.6188724704446797 2:-0.6727314220420951 
-32768.0 1:-0.13474263060649883 2:3.6028292130418884 
32768.0 1:-1.6529149905828047 2:1.4899184523491702 
32768.0 1:0.7439184709108336 2:-1.7031759724730962 
-32768.0 1:-3.1740212936932846 2:0.9960991209058468 
-32768.0 1:0.18100670146562142 2:0.2683711452024031 
-32768.0 1:-1.0347561280372202 2:2.2529613185100543 
10221.375533973895 1:-0.43972383161142936 2:0.6017909887742998 
-32768.0 1:-3.0528409259232743 2:-0.972006749979647 
32768.0 1:1.5523766897541391 2:1.3090833869718999 
-32768.0 1:3.1720103826038684 2:-0.8492447266974069 
12146.142258649488 1:0.22747247277229699 2:4.251766659858691 
-32768.0 1:2.0514539037127637 2:0.9239038055452415 
-32768.0 1:0.01829988845788045 2:-3.620674568013256 
-32768.0 1:0.03710557398779094 2:0.9047115291685415 
-18995.762309851925 1:3.414331242929434 2:-0.44976360281683775 
32768.0 1:1.6207344168066928 2:1.2055429225632264 
-32768.0 1:1.8993059656064626 2:1.6946298543450729 
32405.74822448164 1:-3.632523277372509 2:-0.2447297363026983 
-32768.0 1:0.4384908135166829 2:-2.339649288841851 
-32768.0 1:0.09320999602087207 2:-1.261374478157159 
32768.0 1:0.901378852453182 2:-1.7152984883176168 
6290.745844958882 1:-1.0319499160928534 2:1.829287282116412 
-21740.058855261814 1:-2.463133453801184 2:1.4603745384056295 
32768.0 1:-3.6445432958860264 2:0.45751938861994074 
-32768.0 1:2.0279918850543583 2:1.284006137212479 
22232.055690930618 1:-0.6492017118425025 2:2.800479332530543 
-32768.0 1:0.8912325814374044 2:0.9203299110161333 
-32768.0 1:-0.13435899824146938 2:-0.538443249271764 
-32768.0 1:0.07540432407262755 2:0.40646970545515737 
-32768.0 1:0.45923506630202154 2:2.592569166407783 
32768.0 1:2.920894740956424 2:-0.43347210607008535 
32768.0 1:-0.0581649044965726 2:3.0291311192884143 
-32768.0 1:-0.029341168623824847 2:3.1394131878073877 
-16213.099495831313 1:1.4316804752390317 2:1.43454686505332 
20125.65461311225 1:-0.241305786998755 2:-4.480929003085034 
-32768.0 1:-1.5074003961134492 2:1.896790785212522 
17096.754447184263 1:-2.8988903292259973 2:-0.4266404411796471 
32768.0 1:0.5950289874465083 2:-1.9871414424301528 
-32768.0 1:-2.1755802154078556 2:0.07868224319018308 
32768.0 1:-0.1016742181118268 2:2.945484780932707 
-32768.0 1:1.867819486543989 2:-1.7484794161954782 
-32768.0 1:-1.2139484739685902 2:2.0941540964747487 
-32768.0 1:-1.2550582782455624 2:0.9311410768894567 
32768.0 1:1.2660191074534282 2:1.2785947216600835 
-27631.95167251596 1:1.7481873419822027 2:-1.3914699625147526 
-32768.0 1:-2.209424386895293 2:1.171898319124889 
-2423.150011573166 1:-1.1658861445317525 2:-0.4343909743245666 
-32768.0 1:0.5103188120285208 2:-0.8378369219627412 
4932.777099305163 1:0.9436436646975253 2:-1.4519130617889198 
32768.0 1:2.8062311189960796 2:-0.5524985729936899 
25519.823958315552 1:-2.780443571763101 2:1.3218671689614991 
-32768.0 1:3.4154494650761267 2:-0.6466132952745834 
32768.0 1:0.9227478567103624 2:-1.4788839426105285 
-32768.0 1:-2.1048339226869395 2:1.296517276302753 
32768.0 1:1.5501781902345417 2:1.0153138238192254 
32768.0 1:1.56039661783788 2:1.000409874560185 
-32768.0 1:1.9726489911561458 2:-1.1338700851779515 
32768.0 1:3.1117674463751666 2:-0.6462651812043239 
-32768.0 1:-0.10153482333157057 2:3.3245420877019205 
32768.0 1:1.5609046262948483 2:0.9986425516831363 
32768.0 1:-3.153377456411718 2:-0.3930407883170336 
32768.0 1:-0.45574577993806165 2:-0.09775271652278963 
32768.0 1:-1.5457020905587653 2:1.5252816805196245 
3631.3889608325417 1:-0.10975837465170532 2:3.304702356407236 
32768.0 1:1.2989124501759377 2:1.1380573489293053 
32768.0 1:-0.5128157865847557 2:-0.05509434914841092 
-32768.0 1:-0.8820067500325249 2:1.9944389919676662 
32768.0 1:0.9170665181977895 2:-1.5464381457567353 
32768.0 1:-0.48439739225493 2:-0.07404796678251256 
15373.317424595783 1:0.0020416460010720945 2:-2.9362452434782256 
32768.0 1:-1.5703276492935123 2:1.543285738089363 
32768.0 1:1.1734618014195635 2:1.2288675758340957 
32768.0 1:-1.4243089751863778 2:1.550366326535878 
32768.0 1:3.1554096353955967 2:-0.6357599111249741 
-8157.24960060924 1:1.7164410188243493 2:1.252509079598632 
32768.0 1:-1.46339846145076 2:1.5473845978270968 
32768.0 1:0.8915283004692062 2:-1.5824728470261562 
32768.0 1:-0.5416521385349513 2:-0.2699793515830915 
32768.0 1:-1.439007300314385 2:1.548742252059256 
32768.0 1:-0.1753166275463542 2:2.9318883865836387 
32768.0 1:3.094105401905704 2:-0.5140658188441029 
32768.0 1:-0.1756517244122584 2:2.9319868122273953 
32768.0 1:1.7719398041071106 2:-1.1960745567990112 
-32768.0 1:0.2680698687932265 2:0.34773531580766887 
32768.0 1:1.4194574364127113 2:1.0914029547701845 
-32768.0 1:1.6843729299745482 2:1.2811755573049557 
25785.99242445049 1:-0.4901043810121954 2:-0.26702228030359354 
32768.0 1:-0.17206026050913076 2:2.939791360444607 
-17753.682222575106 1:-2.528404000548641 2:1.2658993533273357 
32768.0 1:-3.0987033559565145 2:-0.4632562082895281 
32768.0 1:-2.522003276160786 2:1.2684863461555917 
32768.0 1:-1.4351538078961827 2:1.5675229185050699 
32768.0 1:3.099128071849446 2:-0.49045877738081195 
-32768.0 1:-1.4416396058344862 2:0.026697203800737423 
32768.0 1:-0.17283561503629283 2:2.9390289831013297 
32768.0 1:-1.4541381264487994 2:1.5312702870247505 
