svm_type epsilon_svr
kernel_type rbf
gamma 0.5
nr_class 2
total_sv 9999
rho -2256.948289587563
SV
1.0 1:17.066938410361782 2:47.541729783168506 
1.0 1:48.597170381772905 2:-39.018898481826795 
1.0 1:48.74151022821871 2:-9.365640349562206 
-1.0 1:-19.800456042531774 2:23.342292756659287 
-1.0 1:-7.592953361428576 2:14.33111009595015 
1.0 1:-45.96980411337407 2:-17.223289618023347 
1.0 1:21.956665563391148 2:-34.77471808377323 
-1.0 1:41.07547805146418 2:-15.066193231433097 
-1.0 1:-13.025758493682943 2:30.901258501110032 
1.0 1:-8.482415964415496 2:34.98193721750917 
-1.0 1:28.15421980499509 2:-10.163522475124216 
1.0 1:-19.637857387114302 2:-36.00640571586214 
1.0 1:-27.84805947253156 2:43.16659783151674 
1.0 1:4.937160723110355 2:-40.67688536027427 
-1.0 1:19.428026700231232 2:-7.086477429551158 
1.0 1:-43.792136671601476 2:-39.61361910043756 
1.0 1:28.910046192169766 2:45.88435924849702 
-1.0 1:-34.64073470835564 2:17.980745386521384 
-1.0 1:-0.802179704300879 2:22.116465931662997 
1.0 1:17.71265455747916 2:39.27598374837506 
-1.0 1:-16.249569999516243 2:-11.863820537938475 
1.0 1:-15.700523039320068 2:44.46344749082151 
-1.0 1:-4.038948465253112 2:5.7401256825471325 
-1.0 1:-8.875059584194501 2:16.308203800829258 
-1.0 1:25.252998115040203 2:-9.453980210973734 
1.0 1:48.62868389148582 2:28.302353904091415 
-1.0 1:-28.72891436526531 2:7.6419694893751595 
1.0 1:-19.22172463656135 2:-34.9027746761148 
1.0 1:-32.352864071097564 2:33.59189815929864 
1.0 1:-47.7849690653231 2:2.05580522867334 
-1.0 1:30.67285979792466 2:-10.987794820830555 
-1.0 1:-33.75085268851825 2:-14.265717943210394 
1.0 1:43.60086197927626 2:21.062280641512935 
1.0 1:-18.211360180791083 2:32.049062603086334 
-1.0 1:-37.977989742652404 2:-9.761008383172827 
1.0 1:-27.67592185088881 2:33.84313175953674 
-1.0 1:0.9349108935265608 2:-9.447242836694226 
1.0 1:24.93861202151087 2:44.903122092658414 
-1.0 1:38.9807325687113 2:7.630329269569091 
1.0 1:-47.54972104565534 2:-18.084039551366747 
1.0 1:-49.49587897587244 2:-6.093103081719465 
1.0 1:-33.30891367825565 2:-38.62854122929645 
1.0 1:-49.211553412967 2:15.117630456997206 
1.0 1:35.99485989458105 2:-36.82528367960956 
-1.0 1:15.251126770386126 2:-2.3537165369861563 
-1.0 1:24.863351046519234 2:-12.350299515344487 
-1.0 1:8.052266132987794 2:-19.234030707650845 
1.0 1:-10.942405185844594 2:47.84287336196733 
1.0 1:30.467355587906432 2:-46.79527050222911 
-1.0 1:-26.09098899887958 2:14.01323131066048 
-1.0 1:-25.057726653932818 2:28.34601130608318 
-1.0 1:39.0522405089837 2:1.7926246491960256 
1.0 1:45.11632968452987 2:-12.788328661992148 
-1.0 1:7.649209087892877 2:-28.872275304191287 
-1.0 1:-22.64340227612251 2:-6.237377237402973 
-1.0 1:12.951410688967606 2:-22.347494666649858 
1.0 1:-25.495727594791585 2:-38.42025692862876 
-1.0 1:-9.445097388246403 2:-6.6023937114731135 
1.0 1:37.30129985197368 2:26.365159659873488 
-1.0 1:39.10000462793604 2:-11.649554686645693 
1.0 1:-46.03698069545495 2:-46.43846959630375 
1.0 1:47.68519427469305 2:40.11744645407635 
-1.0 1:-16.449940182402297 2:-14.735563580869437 
-1.0 1:-37.14780949880213 2:13.017251597383725 
-1.0 1:43.76023390409569 2:5.820504190949138 
1.0 1:43.376717856658566 2:23.771282480447244 
-1.0 1:-11.641329685451552 2:-19.508625738876376 
-1.0 1:25.75694341003519 2:-14.634479648753926 
-1.0 1:35.23192814121225 2:-3.7688663402786338 
-1.0 1:-1.470921416212056 2:-4.075129530194507 
-1.0 1:-19.66066556834182 2:9.152329270365975 
-1.0 1:-41.53286190529803 2:14.4889786336201 
-1.0 1:8.022287501753095 2:-22.23682068499093 
1.0 1:-3.388651815186771 2:40.3958669185476 
1.0 1:-16.360231867152446 2:36.43610014629949 
-1.0 1:37.347196333767116 2:-11.9427441799862 
1.0 1:-11.514199156708232 2:38.23516553550121 
-1.0 1:28.344614635410824 2:24.006939983802358 
1.0 1:33.15210742093618 2:-28.402384357765406 
-1.0 1:-45.30571096803708 2:7.931084712983274 
1.0 1:-40.65330509721103 2:29.952032855854842 
1.0 1:24.985586588188387 2:-45.393189561608665 
-1.0 1:16.026620191839697 2:-11.196698307716558 
1.0 1:-47.34190700502598 2:8.272932341220026 
-1.0 1:-29.589326504939105 2:19.331969937671353 
-1.0 1:30.386252491661295 2:-3.375777686720626 
1.0 1:-10.824777225540583 2:43.01312822442327 
-1.0 1:-29.15589760890737 2:5.918060444750076 
-1.0 1:0.5939613954127785 2:6.427425226565692 
-1.0 1:-38.375405602749964 2:-5.990156773900326 
1.0 1:23.12980115946851 2:30.624335663192102 
1.0 1:-42.42450509735459 2:33.35101564900151 
1.0 1:20.944652912621798 2:-35.68470170251055 
1.0 1:8.401356451988917 2:-49.488905600595935 
1.0 1:21.98033691319468 2:45.15184111747156 
-1.0 1:-5.17144743809755 2:4.032549324536716 
1.0 1:9.03136514787333 2:48.50131088763719 
-1.0 1:21.03786808014975 2:17.58491036483885 
-1.0 1:-30.482162216769478 2:-22.169675742098015 
1.0 1:-13.183362723092992 2:-39.9480328634528 
1.0 1:-35.66580405848669 2:26.213557616861426 
1.0 1:37.13992185132191 2:39.45342835436366 
1.0 1:-48.50292701383975 2:13.062992879831718 
1.0 1:-37.662278956573644 2:-47.620091720434004 
-1.0 1:-25.08701349335198 2:-24.45976360552113 
-1.0 1:-2.977293962592583 2:5.847607381419086 
-1.0 1:4.124113187610018 2:-31.1579718441013 
-1.0 1:40.62047084518431 2:3.376554401942753 
-1.0 1:-14.782111247502757 2:4.63655851552247 
1.0 1:-2.2882081442256843 2:-38.046222992948685 
1.0 1:38.72367516709697 2:32.105709573997274 
-1.0 1:11.073888240661951 2:1.8502682161323603 
1.0 1:15.017237291912513 2:40.68583844293755 
1.0 1:35.67517540028203 2:25.968115794346353 
1.0 1:-7.478728829566553 2:38.977219564728124 
-1.0 1:-23.534496360777 2:-19.51833820333989 
1.0 1:-20.342273860308204 2:38.95976327803184 
1.0 1:-11.848625739746865 2:-36.12594054904962 
1.0 1:-44.344837048301784 2:49.95012781453162 
-1.0 1:9.943125261572268 2:25.62809456702973 
1.0 1:-38.75810990479158 2:-38.38715808238546 
-1.0 1:-16.711421173427958 2:-28.112361340845204 
1.0 1:24.29312050008079 2:-29.96444473273884 
1.0 1:-24.29485720807699 2:-30.38639902852342 
-1.0 1:-18.72210918356766 2:-23.39396609956766 
-1.0 1:8.77985828513411 2:16.06574659123615 
1.0 1:30.018985455249574 2:-36.33398218602691 
-1.0 1:-36.765614286247825 2:15.449247837600973 
-1.0 1:24.19660757632858 2:26.33455793820846 
-1.0 1:9.319421298315616 2:-20.47766388376503 
-1.0 1:-4.715960788234515 2:14.78094966787835 
1.0 1:-14.649463665119532 2:43.918921423548696 
-1.0 1:-37.698967287265816 2:16.344880137468582 
1.0 1:22.66493137334726 2:-33.00245330950055 
-1.0 1:-34.8618242920039 2:-18.381093569956047 
1.0 1:-10.173902498942375 2:-46.90445584646173 
1.0 1:31.73297175986718 2:-26.084118093881095 
-1.0 1:4.340876918410469 2:16.824760937730844 
-1.0 1:-34.994121094732705 2:-3.518552160488892 
-1.0 1:34.7209149941042 2:-19.64727895714705 
-1.0 1:9.64204827197306 2:26.529207549171982 
-1.0 1:-8.882004013319813 2:-29.59940908333197 
1.0 1:34.762004953005565 2:-39.44629978717793 
1.0 1:-22.599745379057342 2:-43.27318419329093 
1.0 1:42.572013331881514 2:-49.706208448689225 
1.0 1:-47.006244292952424 2:48.97279407439951 
-1.0 1:-11.097630958415255 2:-16.603401429503155 
1.0 1:27.161433987632133 2:43.644456660079186 
1.0 1:-24.040640252322717 2:38.319565547557495 
-1.0 1:-15.911113596763867 2:-12.078881110599344 
1.0 1:-47.105863057346674 2:17.615808450981373 
-1.0 1:11.634008961759204 2:2.26047180288187 
1.0 1:34.83924093741064 2:38.96534498018451 
-1.0 1:-18.065029600700356 2:-21.533919798609425 
1.0 1:25.721021238656416 2:38.26232741199279 
1.0 1:6.7385148225144995 2:45.04125459284778 
-1.0 1:5.71369450058075 2:8.951566219459394 
1.0 1:30.851673310591732 2:-43.35314170285912 
1.0 1:32.826731314376 2:47.66303896896079 
1.0 1:37.62698315497872 2:35.581962929470585 
-1.0 1:21.70168146826816 2:-18.216724793360836 
1.0 1:-14.968969412047 2:49.6369784415009 
-1.0 1:-24.66071130246309 2:-16.905010545155093 
1.0 1:-23.127366346021564 2:37.218631816358126 
-1.0 1:-6.355972716951017 2:17.780446680915365 
-1.0 1:14.414217246199692 2:-12.591422801762247 
-1.0 1:-36.471642625534635 2:3.570292359012378 
-1.0 1:17.57150666295462 2:-26.802035826111283 
1.0 1:3.5434839145868686 2:35.05599764310013 
-1.0 1:-11.275790677717996 2:19.22083600926235 
-1.0 1:26.944756067652143 2:-21.561775660077608 
1.0 1:39.306864324317594 2:42.53241253106074 
-1.0 1:-19.555363164200298 2:11.830914369162079 
-1.0 1:-26.14346045333432 2:-19.754187662184677 
1.0 1:-8.856327444084576 2:-37.621591601028456 
-1.0 1:1.7015559616706644 2:-7.411730969099073 
1.0 1:29.11739196055577 2:-33.86960165631602 
-1.0 1:21.00291886417755 2:5.055396150935802 
1.0 1:-32.115435508184945 2:-47.76298158952115 
-1.0 1:-4.842364306286084 2:28.499555507215938 
-1.0 1:0.5397475565211783 2:27.173879384270332 
-1.0 1:16.45060014303514 2:-29.524116410714825 
-1.0 1:43.45055240782824 2:10.584350837070092 
-1.0 1:27.039222236592778 2:26.94703074657563 
1.0 1:35.537558343900095 2:48.62389594982695 
1.0 1:41.7824840701975 2:17.695167823506406 
-1.0 1:14.992304908380836 2:6.128763633814169 
-1.0 1:-6.526399105681296 2:4.187314939625827 
-1.0 1:31.326291781930546 2:13.678842639343426 
-1.0 1:-5.317032764950964 2:3.7275470988324595 
1.0 1:-35.832912782732286 2:-30.176326221251692 
-1.0 1:5.673830978256499 2:21.313120560154793 
1.0 1:47.76318278513559 2:-4.15296543729842 
1.0 1:-4.67179097960951 2:-38.50068774853319 
1.0 1:32.742414830907116 2:-42.26619402632278 
1.0 1:-49.840406904430296 2:26.64872395181044 
1.0 1:-40.562243860193874 2:49.40533198512844 
1.0 1:-49.193713146809564 2:-20.22020433193531 
1.0 1:44.276334541840924 2:49.84460935254647 
-1.0 1:27.64630701511478 2:-9.610396994385503 
1.0 1:45.56707408238975 2:-39.697999468617084 
-1.0 1:10.075198802508668 2:15.630423054155667 
1.0 1:44.29715150392277 2:-30.470911923781344 
-1.0 1:46.283037765784854 2:-0.9242496526564659 
1.0 1:-30.575114780489823 2:44.91016270710941 
1.0 1:-39.82801479739666 2:22.519005080557804 
-1.0 1:-28.03582602786026 2:22.77833722855387 
-1.0 1:-12.676735648622603 2:21.655675780257347 
1.0 1:-18.970437250680515 2:-42.21431666156337 
1.0 1:49.24008586871834 2:21.38683438755979 
-1.0 1:18.30196610695606 2:0.49106630056346745 
1.0 1:42.60077789545842 2:-31.041574237485626 
-1.0 1:-26.15096347818135 2:10.547750625245616 
-1.0 1:12.545327565900092 2:24.732979112717917 
1.0 1:-45.33405997166211 2:-44.22571992716229 
-1.0 1:19.058723302300397 2:-12.746612490364235 
-1.0 1:18.989073690644688 2:-10.921823062964378 
-1.0 1:28.20657921665514 2:7.820612882868878 
1.0 1:-11.792087979184995 2:-44.52527382163465 
-1.0 1:9.237055686725393 2:-26.17275354274526 
1.0 1:32.60789038413383 2:34.83291958951591 
1.0 1:46.586531762772395 2:-21.60061842988382 
-1.0 1:-18.1783699195389 2:-9.677260316771246 
1.0 1:-44.45991590653113 2:-16.185271448098618 
1.0 1:-13.446690214172497 2:-32.694537010306384 
1.0 1:-34.95467294222164 2:-39.00759863942639 
1.0 1:32.26848804609966 2:-37.20383754963655 
1.0 1:6.52566879015298 2:-37.47269434246117 
1.0 1:-18.570818493231876 2:-39.73491140463798 
1.0 1:22.28653778666079 2:-38.20044199116118 
-1.0 1:-4.728496433549214 2:-0.1678908070386733 
1.0 1:-17.83436521934021 2:-34.56313409471627 
1.0 1:-38.70933185416076 2:28.61588705941996 
-1.0 1:-27.864235427127067 2:-18.42470171824999 
1.0 1:27.585663252900822 2:-48.70302428718315 
-1.0 1:-6.503697493507049 2:1.4513762298392348 
-1.0 1:20.353399037479264 2:-24.238487435538694 
-1.0 1:-13.573149727307165 2:26.58591358777452 
1.0 1:-4.380364978901369 2:46.891642535367076 
-1.0 1:-8.640089548494212 2:25.370131505805094 
1.0 1:-35.089847880041575 2:-43.201261501866256 
1.0 1:-42.88824207057237 2:-36.844893566831 
-1.0 1:-11.52499245332109 2:-17.982999780599048 
-1.0 1:-34.93542102453989 2:4.293560398414334 
1.0 1:44.372059005626554 2:34.00591388698773 
-1.0 1:-32.125315003184426 2:13.052323400173014 
1.0 1:49.37442047903526 2:42.229883304662955 
1.0 1:25.78001196675357 2:-48.467466674265424 
-1.0 1:-21.38084319142067 2:29.68386270327989 
-1.0 1:21.048331818896514 2:13.302816064543277 
1.0 1:15.614189852356926 2:-38.01901154786668 
-1.0 1:43.022726413773356 2:4.6017106164100685 
1.0 1:-18.58934919167146 2:36.78357685996209 
-1.0 1:-20.382433734262246 2:-22.575543618838246 
1.0 1:15.817670891742281 2:-44.68364474799816 
-1.0 1:25.405736218817342 2:17.590897030914697 
-1.0 1:-8.975705434441322 2:32.93422921014285 
-1.0 1:3.5025366753214846 2:6.5706078434305715 
1.0 1:41.63103936850605 2:19.033292290896192 
-1.0 1:-33.02818276831334 2:0.9333500826539181 
-1.0 1:-35.042744921972385 2:13.711265756257 
1.0 1:26.627590402108947 2:-36.728082356516175 
1.0 1:-13.703340737726379 2:33.98904900804691 
1.0 1:-16.405804922607683 2:-42.1094545123996 
-1.0 1:13.533624125486464 2:-28.99054616477115 
1.0 1:-17.73160666996905 2:-44.982262493060226 
-1.0 1:-0.3326047901370038 2:18.51026268497037 
1.0 1:13.171021673699865 2:36.835443874919335 
1.0 1:19.19378263245057 2:44.31635126499774 
1.0 1:-19.592732801367337 2:-43.46810742744114 
1.0 1:28.32850454317004 2:-30.690924700717105 
-1.0 1:-15.017348940003039 2:-21.209620460880494 
1.0 1:-11.37635112679956 2:-35.395280599890505 
-1.0 1:10.793689877006654 2:-11.76196939070683 
-1.0 1:29.280266595291554 2:2.96540616950633 
-1.0 1:1.0030637105234088 2:-26.126848817699297 
-1.0 1:-20.774036234044363 2:-13.863370449244556 
1.0 1:-15.511379157406868 2:39.726442546625904 
1.0 1:19.633047466568584 2:46.72402413677237 
1.0 1:41.558423663282305 2:48.922220394233506 
1.0 1:-41.313961738661945 2:-40.23315976491399 
-1.0 1:14.435911206364146 2:5.301522148845567 
-1.0 1:41.797221829913866 2:-6.249443493249353 
-1.0 1:34.09618167874208 2:-17.25746453836817 
1.0 1:-28.9025583089501 2:36.71187236510178 
-1.0 1:-32.301487826985706 2:-24.40465993934565 
-1.0 1:-24.3089997989594 2:7.816822323061179 
-1.0 1:-34.092267249837874 2:17.91545514349806 
1.0 1:49.66103501657787 2:-47.45854621067878 
-1.0 1:-4.27551988788379 2:31.849954737265644 
1.0 1:42.38449509649956 2:-25.848040308969946 
-1.0 1:-24.08062421668308 2:-17.483187855051863 
1.0 1:43.55588302485208 2:30.196826956699862 
-1.0 1:19.17671645916276 2:-23.753159163992372 
-1.0 1:26.39359152536001 2:-21.413250795943927 
-1.0 1:-32.05533235081208 2:-0.3794906142953319 
-1.0 1:-24.163812646712064 2:-8.486329215062561 
1.0 1:39.2806796263338 2:-27.82240366615787 
-1.0 1:-37.37553835503985 2:2.4302056547529083 
-1.0 1:26.796529608534062 2:-16.993951535565284 
-1.0 1:1.8200993686120455 2:-31.463094571198088 
-1.0 1:15.843164952206259 2:8.483439841260259 
1.0 1:28.595488009527795 2:-27.801312824794792 
-1.0 1:-15.773586371142903 2:-3.444629269210727 
-1.0 1:29.540827888032272 2:11.001170265980232 
1.0 1:-20.710570065922585 2:44.7591466790274 
-1.0 1:-9.885713697604618 2:5.604539474212464 
1.0 1:-30.608632389315183 2:39.07410492379597 
-1.0 1:-6.571562318184635 2:29.820051501063904 
-1.0 1:42.96927257771809 2:-4.89254466324675 
1.0 1:-18.55626806211164 2:42.2118021266051 
-1.0 1:2.9876874517352685 2:18.52200307690499 
1.0 1:-36.342766798555516 2:-26.61612883454468 
-1.0 1:-19.94203995361725 2:-23.310379853594846 
-1.0 1:34.05237113308333 2:-1.5395375812416072 
1.0 1:-37.81325195966225 2:47.931833034940205 
-1.0 1:31.82294699406533 2:-1.155844191678204 
-1.0 1:14.100711998623067 2:-9.323606358215713 
-1.0 1:-43.527863333735276 2:-7.325111118757285 
1.0 1:34.37188893642801 2:48.83620065891292 
-1.0 1:22.644732806275766 2:-11.700215128182668 
-1.0 1:-26.744261387554072 2:-14.415561391490643 
-1.0 1:15.47836832498565 2:-10.058555490868565 
-1.0 1:9.351354739744659 2:12.087301717580678 
1.0 1:-18.13303662505082 2:-40.030181244286936 
1.0 1:-41.829166700980224 2:-46.92683018078198 
-1.0 1:-31.752861960513872 2:16.97027966944508 
1.0 1:-39.54770985305935 2:-33.8953965322372 
-1.0 1:-9.604167095578976 2:24.13800656853051 
-1.0 1:-26.38147989876447 2:6.1670254562957085 
-1.0 1:-4.125120295029568 2:-3.153695303597784 
-1.0 1:-35.929210305593905 2:2.575455921251864 
1.0 1:-45.43423576750267 2:34.2239735658484 
-1.0 1:-26.33524421818438 2:-10.151831775856705 
1.0 1:-12.064676309864021 2:-46.35565782529942 
-1.0 1:8.123002190155011 2:9.463632798544868 
-1.0 1:22.530620683422377 2:-17.413911721460448 
-1.0 1:-29.3138134017851 2:-25.85538385415691 
1.0 1:28.278736034710256 2:37.10345890896597 
1.0 1:38.95228983172149 2:-38.37919782784946 
-1.0 1:-23.025277391523783 2:-8.668990675245952 
1.0 1:-42.139040235165524 2:-20.401196949742193 
-1.0 1:31.938462333686314 2:17.095477581827208 
-1.0 1:-2.9225579874762397 2:18.655926795822214 
1.0 1:-46.23133138602153 2:48.10491191272658 
-1.0 1:-4.471910397078645 2:-14.888431254982274 
-1.0 1:-16.69022369151977 2:-1.9573319006489147 
-1.0 1:-8.503056183676179 2:-19.692405879166284 
1.0 1:37.00496147647493 2:36.65139402926711 
-1.0 1:11.010378378377252 2:-31.643421123188247 
-1.0 1:25.396033066873215 2:3.3496186230173097 
1.0 1:-37.25570080312333 2:49.19427600175707 
-1.0 1:-19.85156125362655 2:12.46106231639367 
1.0 1:-37.63410817423701 2:28.410174480397984 
1.0 1:-49.70287295086934 2:-20.39571370915868 
1.0 1:-15.440591151940685 2:-48.9124819122069 
-1.0 1:3.236508038017653 2:-26.772202365457545 
1.0 1:15.532989361851133 2:41.011651214619945 
1.0 1:40.825254663203836 2:-29.13677237540971 
1.0 1:-45.74899724081056 2:-37.526941097290226 
-1.0 1:-8.127574793288249 2:17.003536114580356 
1.0 1:-10.915393979801118 2:39.686332560571444 
-1.0 1:-20.183731693843743 2:10.087177965148127 
-1.0 1:1.2745586533058835 2:-1.2130280446980193 
1.0 1:39.48888032214428 2:37.15402091287173 
-1.0 1:-30.938233386789044 2:-1.123835325972361 
-1.0 1:36.14462502195422 2:-12.054261655112597 
-1.0 1:-3.1259071575008925 2:21.77785109740584 
1.0 1:-46.3236633211207 2:19.352024371413307 
1.0 1:19.51165761668371 2:35.39522994581939 
-1.0 1:-11.209769389574424 2:21.190803892098934 
1.0 1:0.4417109336400106 2:42.832585472379634 
1.0 1:45.796782339870745 2:45.89694058634606 
-1.0 1:-0.2624991262000101 2:24.25707742275201 
1.0 1:38.99550507679528 2:28.354247516050513 
1.0 1:-43.36718238045142 2:34.92904845306613 
-1.0 1:-14.630944801847603 2:-2.9968949712700486 
-1.0 1:6.661392822224237 2:-1.583096311060682 
1.0 1:44.85959542228459 2:-47.5965093520777 
-1.0 1:28.22783400255599 2:8.310117118887334 
1.0 1:40.697845357677174 2:-35.65927436319166 
-1.0 1:-11.495726327432575 2:27.371419502841608 
-1.0 1:-32.777250879877386 2:13.888742926786017 
1.0 1:33.764412867238505 2:47.60672248927014 
-1.0 1:-32.41281029968997 2:-18.786818906402818 
1.0 1:43.80413877239101 2:-49.95116637591985 
-1.0 1:38.69267977514101 2:-8.900437210585897 
1.0 1:3.962794650484698 2:35.16460386496532 
-1.0 1:-15.413040699772738 2:6.860613722841567 
-1.0 1:24.926189164801098 2:-10.464445507377324 
-1.0 1:29.248016193658707 2:-1.1824854768310433 
1.0 1:10.657158820304604 2:-34.93716492397378 
-1.0 1:3.9403249984169255 2:14.379042297645558 
-1.0 1:-43.566594905537706 2:-7.15680367501086 
1.0 1:-23.28521121545837 2:-39.84417064642352 
1.0 1:18.05721422828826 2:-44.541714499009046 
-1.0 1:-8.117550325805862 2:-31.60535998830023 
1.0 1:20.97596502200225 2:42.511721672988756 
-1.0 1:42.98188966889125 2:8.088916598016466 
-1.0 1:-12.390323988475373 2:-29.29897665863819 
1.0 1:-28.44655147608836 2:-29.547541405390135 
-1.0 1:-13.306983623784838 2:-25.510420478735014 
-1.0 1:-3.5580368898105115 2:-26.9702069247271 
-1.0 1:5.42309992763924 2:15.871464452164965 
1.0 1:25.88487970255454 2:-47.98258388662249 
-1.0 1:32.95411686768038 2:20.857025625147127 
-1.0 1:-21.649456121255497 2:-11.752415151808725 
-1.0 1:18.97735800219482 2:24.604674811050263 
-1.0 1:13.55897272028433 2:-13.826160101807263 
1.0 1:46.01268609845235 2:-16.808188219951756 
1.0 1:49.46491399809358 2:1.304937808410181 
-1.0 1:29.165009073676877 2:-15.924689600762381 
-1.0 1:16.87049703488493 2:-14.398626780335102 
1.0 1:31.91680970151536 2:-37.25050320480037 
-1.0 1:-22.587720070773162 2:-3.953829553181945 
-1.0 1:-38.33471347424007 2:8.097049269511029 
-1.0 1:6.3249978293844835 2:-13.900875846321227 
-1.0 1:-16.239839334157445 2:13.805749655289818 
-1.0 1:16.051816944419766 2:-24.898831187955043 
-1.0 1:-32.44429679396539 2:8.201515801036818 
1.0 1:-27.991601020304152 2:-34.44694336709278 
1.0 1:-46.73196215033327 2:-29.91435512991746 
1.0 1:26.445580685831725 2:-47.01997634353238 
-1.0 1:3.286273533207507 2:12.791697143017805 
1.0 1:-28.16702679331231 2:48.65162368803517 
-1.0 1:-23.426478319005554 2:-5.8750499895507415 
-1.0 1:-10.24671408554158 2:9.713409769802519 
-1.0 1:39.881352792103115 2:-15.655148156020477 
1.0 1:46.534679419466464 2:46.95464287310702 
-1.0 1:4.398747046034033 2:-0.19159456732128716 
1.0 1:-38.134047556000674 2:-45.036292499936806 
1.0 1:-48.47590638554387 2:-15.350089328766542 
1.0 1:-48.57313275720905 2:-15.399586117924683 
-1.0 1:-13.523706634686071 2:-2.1900038097561136 
1.0 1:19.84341826418495 2:-47.19813353774543 
1.0 1:33.33851964944308 2:38.06436961433318 
1.0 1:-44.97465126623955 2:-40.443921649930935 
-1.0 1:-39.73430814452032 2:14.200216133250153 
1.0 1:-49.829280149192655 2:-43.05498856601541 
-1.0 1:-7.830705183175834 2:6.750446173193141 
1.0 1:48.37403763088872 2:12.214399747310653 
1.0 1:-49.50179337894066 2:3.247879993321317 
1.0 1:33.395656869699245 2:47.90548320135282 
1.0 1:36.393093610244314 2:-28.989238789215296 
-1.0 1:17.534859726136496 2:-2.8116015496562716 
-1.0 1:27.935614131470913 2:-14.070703814998947 
-1.0 1:-36.791734769767466 2:14.651020945611178 
1.0 1:-29.607556423874478 2:31.193212777680277 
-1.0 1:33.99265526697113 2:-1.844374872559531 
-1.0 1:-4.764947455236462 2:-14.514518151461575 
1.0 1:-27.502509524727753 2:37.42078798764624 
1.0 1:-49.96079147563245 2:42.61711968099348 
-1.0 1:-15.0259167503798 2:-25.352755341844873 
1.0 1:49.95494326296989 2:42.055688531679756 
-1.0 1:-18.984079965487897 2:-6.485936785648659 
1.0 1:36.185228030158214 2:-35.30238751657517 
-1.0 1:-9.007874901113556 2:28.90900587862149 
-1.0 1:2.0990989504565585 2:22.891925796792577 
1.0 1:-40.36644202443248 2:-36.42555618573342 
1.0 1:22.432474598473085 2:49.470570942443835 
1.0 1:-11.401463242867626 2:-45.952307306496074 
1.0 1:-3.762591958459835 2:-35.43213649646786 
-1.0 1:-23.88732056654045 2:2.2121362323343403 
-1.0 1:-10.951984482081317 2:-25.04075886342971 
1.0 1:-23.205144542476734 2:-35.38699512616312 
-1.0 1:34.78882393889978 2:19.132962885579527 
1.0 1:37.391605210942245 2:41.76830900655399 
1.0 1:37.79234180322856 2:25.322715307979585 
1.0 1:19.6109525933547 2:48.680243195659 
-1.0 1:-33.418448684774106 2:-5.0776031559011185 
-1.0 1:-26.610092032261356 2:-24.172529356542007 
-1.0 1:-38.72453385706183 2:-0.06924639154127567 
-1.0 1:31.921749515562247 2:11.764178090997651 
1.0 1:11.825282915239688 2:44.617935684529364 
1.0 1:22.362557710216397 2:-45.71104374521991 
1.0 1:-47.70258698006573 2:34.681956579762904 
1.0 1:10.197483578403475 2:-40.42198687295098 
1.0 1:-4.74191814109949 2:47.47329904405995 
-1.0 1:44.32503637378938 2:8.646748483757523 
-1.0 1:-7.565400141299607 2:4.349971936654777 
1.0 1:22.63857034461586 2:29.765744283246658 
-1.0 1:-21.133765079285865 2:21.462822831433012 
-1.0 1:-27.138349712486747 2:-9.565274350793675 
-1.0 1:33.03511599721099 2:-9.84158895306669 
1.0 1:18.861475571222346 2:47.63554711893598 
-1.0 1:0.9762994081777308 2:-7.547293534492538 
-1.0 1:-29.572997689857406 2:-22.4166941497435 
1.0 1:-9.855322909653522 2:36.945316239456375 
-1.0 1:12.23707376309303 2:28.074181921935583 
-1.0 1:-27.43714380152424 2:3.6333822161824725 
1.0 1:-15.538548471469698 2:-45.73549213528994 
1.0 1:30.938602784040665 2:42.62934360788674 
1.0 1:21.478773136103957 2:32.691994959378945 
1.0 1:26.835813793703707 2:45.476079630596544 
-1.0 1:-13.16549122396487 2:-16.555076024459293 
1.0 1:1.7777484512157307 2:-34.37811917691638 
1.0 1:21.591300029130945 2:-48.68411619079802 
1.0 1:40.3551385524524 2:-40.13009976570557 
1.0 1:-26.442882085386792 2:35.31287929267343 
-1.0 1:-34.23502989974958 2:-16.306404350246503 
1.0 1:-12.881727755701522 2:39.16503518230472 
-1.0 1:19.52369431793934 2:21.12805183669724 
1.0 1:18.23390315682556 2:32.78186243699265 
-1.0 1:4.684149619998123 2:15.181475572517835 
1.0 1:-47.393936273814916 2:31.179436848628622 
1.0 1:-28.81125031393013 2:31.22491573618533 
1.0 1:15.933897553647535 2:35.945821941185535 
1.0 1:46.89822998842369 2:-5.629395415294421 
1.0 1:-43.26335087322021 2:-39.629132145774385 
1.0 1:-13.537023792205877 2:-49.083750027224205 
-1.0 1:6.184524696644155 2:-24.07317941562742 
-1.0 1:-38.26514976209179 2:-19.092456630259882 
1.0 1:-40.42951109536904 2:-22.55163562393752 
-1.0 1:-22.95677237402738 2:6.403437719959881 
-1.0 1:-16.388879400119414 2:-18.446111005811808 
-1.0 1:41.91907291871262 2:-0.5696571242720198 
-1.0 1:24.753357558083934 2:-7.941367936620795 
1.0 1:-10.859393373365416 2:-46.09880557531328 
1.0 1:-13.00940208075355 2:38.25412261734631 
1.0 1:7.097847128899471 2:-35.364391301922865 
-1.0 1:31.67742580946063 2:-17.24890337422763 
-1.0 1:-18.326445119311845 2:-8.711640943966069 
-1.0 1:19.681612242395595 2:12.831017704980548 
1.0 1:16.82073729640696 2:39.178061354547026 
-1.0 1:-10.750403481029531 2:24.434214463760892 
1.0 1:-22.198918996831924 2:30.859121343546825 
1.0 1:-37.366087933411315 2:-25.529418811812725 
-1.0 1:32.932420485463474 2:-2.0381358260627973 
1.0 1:17.2897785932913 2:-37.65612873873868 
-1.0 1:-1.4050843486063174 2:-2.180429746297222 
-1.0 1:-8.650764430524916 2:-12.739251904591919 
1.0 1:46.56608222836012 2:-26.594335697339197 
-1.0 1:-27.986338669834865 2:-17.70932714390757 
1.0 1:11.870828868020984 2:42.319299792439864 
1.0 1:20.824794984489213 2:48.268621165205985 
-1.0 1:-7.059631842877261 2:0.801536770332835 
1.0 1:-31.21644879207059 2:-48.79391658159977 
1.0 1:-36.31512943088861 2:-48.358849150694844 
1.0 1:-49.65534037684628 2:6.031937666418545 
1.0 1:-7.841460368848386 2:44.83556328106347 
1.0 1:-24.96420863350622 2:35.618302574894585 
-1.0 1:17.451288848960033 2:23.350105289393035 
1.0 1:18.438336430127936 2:45.00641814847541 
1.0 1:23.270605941719825 2:-39.24920548525058 
-1.0 1:-22.737193825045274 2:1.8686806800655513 
1.0 1:36.48958999483573 2:-48.40689031386516 
1.0 1:-44.85982783540485 2:18.121079250915905 
-1.0 1:6.211279625341267 2:-25.235290364680996 
-1.0 1:-36.234905437543055 2:-14.778014474766229 
1.0 1:-46.382173625033175 2:-31.08204512930142 
1.0 1:-48.77625394064968 2:18.264847787157116 
1.0 1:21.369433536440166 2:46.22062000984675 
-1.0 1:-42.61160153220757 2:-12.71043903271424 
1.0 1:42.6248352385651 2:24.013663677248246 
1.0 1:-46.19258289080318 2:-22.209636441728623 
1.0 1:37.847048812498855 2:-31.52002323278132 
-1.0 1:46.72467734439002 2:2.351271865569176 
-1.0 1:-40.374069136216676 2:15.650582826573741 
-1.0 1:26.63598298918234 2:23.17479103968552 
1.0 1:43.88739632540588 2:42.897790618591976 
-1.0 1:-31.933331312805137 2:13.212886298589614 
-1.0 1:-0.8591874252275415 2:-7.774913800080663 
1.0 1:38.74514904872258 2:20.71073127401913 
1.0 1:-28.883537569889857 2:-48.81403374600648 
1.0 1:-29.745636585099554 2:31.105976854423087 
-1.0 1:27.493346875764068 2:-0.4267246137106033 
-1.0 1:36.06613350622994 2:6.114528891391383 
1.0 1:-48.150852970134174 2:-26.799242529391854 
1.0 1:-25.23020775857459 2:-29.211261484834225 
-1.0 1:45.22269682000801 2:1.7179361137564189 
1.0 1:-41.956064271195274 2:43.84979126801306 
-1.0 1:-1.894066569359267 2:-21.652543842914024 
-1.0 1:20.499926942135676 2:-23.348030122303594 
1.0 1:-30.623779110298717 2:34.45046789513248 
-1.0 1:18.790651238979986 2:7.911582819905656 
1.0 1:-40.472881411831125 2:22.742402087891467 
-1.0 1:-46.37992491423803 2:6.780132519510729 
1.0 1:-48.80629085558782 2:18.88056933518339 
1.0 1:45.88369312530626 2:-19.0559068024673 
1.0 1:-47.66893965831762 2:-43.69466122200642 
1.0 1:29.702416392317627 2:38.03403576009695 
1.0 1:-49.31373398005092 2:15.96181811789972 
-1.0 1:24.991750352004367 2:-19.616970071623975 
-1.0 1:30.55354055657594 2:-5.7432740996848635 
-1.0 1:-16.214977379921987 2:-28.275653370621256 
-1.0 1:-37.659037511072185 2:-10.476722446950923 
-1.0 1:-11.762268024609611 2:21.35333536355168 
1.0 1:27.72138749058402 2:-30.456594748704422 
-1.0 1:-30.922705292823007 2:9.32552238394703 
1.0 1:22.875998753391354 2:-30.305911687041903 
1.0 1:16.853284035412425 2:-48.118055694889144 
1.0 1:39.524680756916204 2:-46.89468376143462 
-1.0 1:27.925082717808454 2:-12.830852595185466 
-1.0 1:-6.9686415418211025 2:-22.266025082269692 
-1.0 1:-17.63575671433642 2:-12.935871519930203 
1.0 1:-16.735108483544312 2:39.494090797301666 
-1.0 1:34.26399756290192 2:4.705356984344957 
-1.0 1:34.48736129400016 2:20.790065850742195 
1.0 1:23.611177393480666 2:-38.079951001194964 
1.0 1:46.703170234416554 2:-10.999245779036354 
1.0 1:18.84197509288127 2:-34.76125228095963 
1.0 1:-34.343116692409104 2:-29.070814774037757 
-1.0 1:34.89322330750537 2:14.075765150035489 
-1.0 1:-46.004758794571224 2:4.470237412537347 
1.0 1:46.838373970824996 2:40.011539693897795 
1.0 1:20.96627497976432 2:43.8160683509386 
-1.0 1:-6.21514395683738 2:-9.469535681446974 
1.0 1:43.115951807956115 2:-31.05339515031052 
1.0 1:43.22699172521756 2:46.07523999602457 
-1.0 1:-16.58971842656349 2:26.119898286636136 
-1.0 1:-39.483849172777916 2:13.094119776629515 
-1.0 1:33.135010520203494 2:-3.5046407942637563 
-1.0 1:23.222827582295043 2:-25.76096845588628 
-1.0 1:39.55445455968034 2:-2.901221885304503 
-1.0 1:37.87482808866774 2:9.018802950590723 
-1.0 1:-29.62784422574683 2:-21.430945265724773 
-1.0 1:40.599572141996184 2:-13.693804874315497 
1.0 1:-34.3873245692733 2:36.59912392747454 
-1.0 1:-22.030691550424727 2:-26.35924854370122 
-1.0 1:15.570085388259361 2:-22.70343408946643 
-1.0 1:-1.6587573545389744 2:-6.184661553276079 
-1.0 1:-25.264594586615587 2:21.648041097628013 
1.0 1:40.49081292256595 2:20.417722591560793 
-1.0 1:-14.514566071350503 2:6.946205030395377 
1.0 1:42.30731178592354 2:29.254063114488424 
1.0 1:5.894909842915385 2:-49.77751368974 
1.0 1:-33.50019006909941 2:45.993939030679364 
1.0 1:41.45119110619204 2:28.799843093822464 
1.0 1:-5.838835895774112 2:-34.19538497322012 
1.0 1:-32.84169420306418 2:-39.07926730645118 
-1.0 1:20.16995247429157 2:-10.133092049564715 
1.0 1:-13.86481095304042 2:46.644421782220554 
1.0 1:-49.024969576991104 2:1.2172830399571086 
-1.0 1:11.375613314865065 2:-2.237972228249729 
-1.0 1:-25.881599467021818 2:27.3220043246213 
-1.0 1:17.379796001897144 2:13.38026538874261 
-1.0 1:-30.026965492796233 2:-20.12020411374161 
-1.0 1:-9.164992157709348 2:-25.756605486363956 
-1.0 1:18.336570749286054 2:27.043837295467604 
1.0 1:35.3086493512186 2:47.87169955258643 
-1.0 1:30.69369155868557 2:-15.016601762926308 
-1.0 1:34.03265324377425 2:6.390285274781913 
-1.0 1:-31.94901064200439 2:-4.829333288574336 
1.0 1:-38.20113979987672 2:30.087450339311115 
1.0 1:24.266696528594128 2:45.34547505600526 
1.0 1:32.848021675675476 2:28.203674088338204 
1.0 1:27.312765872669694 2:-33.910262652383004 
1.0 1:34.045843547237965 2:35.24683296467542 
-1.0 1:19.047156047219037 2:22.690677207360352 
1.0 1:-39.3962627417107 2:30.717393519233188 
1.0 1:33.74417630693692 2:32.38827241693234 
0.0869575670010363 1:-32.242823433656845 2:-24.66149260247814 
-1.0 1:-35.633198907485905 2:-21.113922792776766 
1.0 1:16.432191050891127 2:36.35228661618496 
-1.0 1:-21.458958309912674 2:-7.42622844901925 
1.0 1:-26.315502412288563 2:-31.24651977408117 
-1.0 1:-14.668843671015019 2:23.65750101460632 
-1.0 1:16.15627604660749 2:-2.710135744491577 
1.0 1:44.15785323603401 2:38.508996221927994 
1.0 1:-16.413561525442827 2:-49.86583260901739 
1.0 1:-12.46074371016033 2:39.70457662282561 
1.0 1:-2.4230788886748775 2:-44.138200300353226 
1.0 1:-46.428851341559636 2:-46.95934314301262 
-1.0 1:-30.352092960948934 2:24.52881760043633 
1.0 1:-41.22756574632721 2:-24.788337719738333 
1.0 1:-45.317847999336266 2:-12.106103086315326 
-1.0 1:6.124787141052167 2:33.088816909115735 
1.0 1:49.91236457711432 2:-1.2002504939182501 
1.0 1:32.41296259513597 2:-45.144602053310294 
-1.0 1:-4.337988510946564 2:15.438965131194319 
1.0 1:4.044901749333004 2:45.811483471885055 
1.0 1:39.61070328113752 2:-41.17291487830934 
1.0 1:35.88080001388309 2:31.83673400879584 
-1.0 1:30.567637656109166 2:20.787071520302057 
-1.0 1:-29.192447395203487 2:-23.71923367356212 
1.0 1:-44.57100229635819 2:36.20298310186769 
1.0 1:-36.497484034214786 2:-32.649382610145295 
1.0 1:-18.83166507121049 2:-38.48451917641958 
1.0 1:46.39679239730921 2:17.500906119029157 
1.0 1:-0.1553406781576505 2:46.46127097315079 
1.0 1:-46.97667486561388 2:-32.765173489198936 
-1.0 1:22.552274174232426 2:9.378283342454292 
-1.0 1:4.980070913632961 2:25.725621971661607 
1.0 1:30.265804124398066 2:35.59854545676546 
1.0 1:-18.43938996694906 2:-31.194866861331693 
-1.0 1:-34.98465335865174 2:-9.372816738279298 
1.0 1:32.78397680109407 2:-44.07904712794668 
-1.0 1:37.67045920799086 2:-0.5919278383454407 
1.0 1:-35.00191708330159 2:-34.32613149719283 
-1.0 1:0.1385907548825594 2:30.39205941590609 
1.0 1:17.64643993255355 2:-49.16463718963899 
1.0 1:29.946468159761874 2:-49.828445992855265 
1.0 1:29.660558525059404 2:-35.75179803335938 
1.0 1:-33.61793004797312 2:-30.563219223491323 
-1.0 1:-25.99159075955755 2:-16.11897940865737 
-1.0 1:-20.44829833662528 2:-4.907717853618159 
-1.0 1:-9.755344241512011 2:12.908596384879079 
1.0 1:-44.23320586725823 2:37.58523576181879 
-1.0 1:-40.26102459864496 2:-13.9358335558089 
-1.0 1:13.439915036906266 2:29.38802273910413 
-1.0 1:-24.85774557558682 2:16.59524088999093 
1.0 1:33.409066915356014 2:28.512185906499838 
-1.0 1:-5.794487361642482 2:29.030395494665232 
-1.0 1:-42.08363456141444 2:8.843272790142871 
-1.0 1:-14.073932149099672 2:-10.529444362143487 
1.0 1:-17.19998723134719 2:-37.32841250532501 
-1.0 1:-1.6236820236046934 2:-13.927176743747664 
-1.0 1:8.85604233148783 2:6.5446648989965075 
-1.0 1:6.881614628201611 2:-15.36167101114518 
-1.0 1:26.950814269972653 2:-14.185805223953693 
-1.0 1:13.445839848149124 2:-7.222604549387417 
-1.0 1:-36.48430550606603 2:15.032404666962634 
1.0 1:42.486756936746794 2:19.215347186407218 
-1.0 1:-23.805092376457228 2:29.05014763564685 
-1.0 1:-41.14795090449863 2:7.277119341431193 
1.0 1:46.800163580604575 2:16.80488500667214 
1.0 1:20.746650451362505 2:37.74227775240465 
-1.0 1:-6.877281132772824 2:-8.837065618465685 
1.0 1:-21.020834575723025 2:46.39386202672983 
1.0 1:-26.867323900920777 2:-48.749077993212914 
1.0 1:22.17146197686441 2:38.57281969268004 
-1.0 1:10.630414596578138 2:-27.70818845215623 
1.0 1:-40.175315747536416 2:-34.45359630236323 
-1.0 1:1.0236108778455442 2:-5.132638695286939 
-1.0 1:-18.487799188674398 2:12.340330444157859 
-1.0 1:-6.106456087430485 2:17.99629409960302 
-1.0 1:-15.497295825015195 2:0.77494131872657 
-1.0 1:-2.2093068579762583 2:-13.564176508713869 
1.0 1:47.28614911998961 2:44.78790413575188 
-1.0 1:-26.30770366042288 2:7.589778497070634 
1.0 1:-46.5523530995862 2:31.620446687332166 
-1.0 1:-40.89926550458333 2:8.734069015553892 
1.0 1:45.201932592835966 2:-23.468385416703182 
1.0 1:39.509110916918125 2:20.007734133312624 
1.0 1:-39.26147725150251 2:-24.54910035913808 
-1.0 1:3.1534831372712304 2:1.8094718197601936 
1.0 1:-47.47130551446389 2:-10.25041380015046 
-1.0 1:-12.023305120130482 2:-1.9402001972803118 
-1.0 1:29.078234698933162 2:-20.715140220645537 
-1.0 1:36.118365671313036 2:13.116117588926192 
-1.0 1:-27.19234745392192 2:25.84067403734223 
-1.0 1:16.913987468382917 2:7.207189047278141 
-1.0 1:39.83666829769206 2:16.40900453872725 
1.0 1:25.85982357312606 2:41.06186483996311 
1.0 1:-22.61215740689527 2:-34.869162817938175 
-1.0 1:2.4058129237515775 2:-15.294465240278488 
1.0 1:-34.72802691172657 2:28.45128975667899 
1.0 1:4.086951859633918 2:34.06243634761088 
-1.0 1:-17.337589745585646 2:-29.57802861950775 
-1.0 1:0.43162884966462023 2:-4.626309667968459 
1.0 1:-39.71196132352578 2:35.89247629006693 
1.0 1:38.66579594326629 2:-43.136487149846204 
1.0 1:-23.637781231474385 2:47.98331527672887 
1.0 1:-46.95180363014306 2:21.25928151327192 
1.0 1:41.48801548977604 2:-34.27116947135364 
1.0 1:-14.06723642407232 2:48.52456023394079 
-1.0 1:-33.208231357010945 2:-6.649408048253949 
1.0 1:-12.936343682357634 2:-42.93513934580271 
-1.0 1:13.372071373710378 2:14.793545732858687 
1.0 1:-37.761984647106345 2:-36.23628989121847 
1.0 1:38.6410936688212 2:-35.061473957277435 
1.0 1:10.105744887465551 2:-40.493785953270134 
1.0 1:34.90574167238274 2:25.38900684890722 
1.0 1:-41.96909281815445 2:-24.557926590703143 
1.0 1:42.454082503318844 2:45.84439852990071 
-1.0 1:16.903910001873882 2:-21.405888348145357 
1.0 1:-5.300035736082866 2:46.93996322493593 
-1.0 1:10.475866095741603 2:27.706260926303365 
-1.0 1:-1.4812311338386137 2:23.546407955102907 
1.0 1:-42.540701700428514 2:-38.40532821539736 
-1.0 1:-29.143859196774038 2:-8.55467317432148 
1.0 1:16.501178136198657 2:36.18750515852684 
-1.0 1:-25.40050799475561 2:21.17273352827002 
1.0 1:-5.085803736565267 2:-41.65562395980057 
1.0 1:-49.11723977161243 2:-31.131097096946743 
-1.0 1:13.594341417167765 2:-7.525827988480783 
1.0 1:21.0215435856541 2:42.92622898471407 
1.0 1:47.255823886354214 2:-42.55762756200363 
1.0 1:-4.628834699365515 2:43.10408412294373 
-1.0 1:20.24980707991876 2:11.737697972514326 
-1.0 1:15.660133935863618 2:-16.847539796136317 
-1.0 1:-27.61451043914555 2:21.69650273498136 
1.0 1:-32.13547522707217 2:-31.801329952860115 
-1.0 1:9.54241244614375 2:-22.7496008482576 
-1.0 1:23.74001473917467 2:15.99557778750508 
1.0 1:-44.989671282735856 2:-40.171409428952856 
1.0 1:38.32248651632099 2:23.031916205089196 
1.0 1:33.45221955423731 2:36.318151573978824 
-1.0 1:-26.622015145787575 2:19.46324528102955 
-1.0 1:44.21373827461756 2:-5.731927112643915 
-1.0 1:-28.33375625085751 2:-18.044640834960443 
1.0 1:5.305149431467008 2:38.747263220469826 
-1.0 1:-31.672159062533783 2:0.965690392681073 
-1.0 1:-24.09170132514175 2:-24.193008915062936 
1.0 1:48.40074558790812 2:-39.55779357469605 
1.0 1:7.2370598630073335 2:-47.17787928321195 
1.0 1:41.03976657864999 2:27.168322718726344 
1.0 1:-1.6874588229825775 2:-42.989543352478364 
1.0 1:-30.282445838358452 2:-28.08241343575668 
1.0 1:46.96345240392113 2:-8.2296760065446 
-1.0 1:-39.3589956982687 2:13.993611179198286 
1.0 1:10.997965638687525 2:43.32822592959601 
1.0 1:47.595717343605585 2:11.982161461798526 
1.0 1:-33.3124892900905 2:24.510179477956832 
-1.0 1:17.50387416998381 2:8.839006540142524 
1.0 1:6.033727135270031 2:44.56089938459476 
-1.0 1:-30.700588652742432 2:17.882108132123452 
-1.0 1:-2.0224619210011094 2:4.439507367842827 
-1.0 1:-15.731824313123086 2:-26.180636369121498 
1.0 1:31.801863041727728 2:-46.20295429920476 
-1.0 1:-9.03612641529744 2:23.6176639394892 
1.0 1:-46.34848782922382 2:31.168201136267317 
-1.0 1:-3.4974782091299654 2:-11.666789040978461 
-1.0 1:0.900909678017582 2:-6.991388698487261 
1.0 1:1.9006722311258515 2:-45.438511526182296 
1.0 1:26.208005610222784 2:-37.571845630282404 
1.0 1:-28.151366225457124 2:34.587962404294366 
-1.0 1:-40.73113183600366 2:14.326589193894073 
1.0 1:44.266933140455514 2:49.49962762030245 
-1.0 1:29.45494872918624 2:-11.164586906323356 
1.0 1:40.36175712549703 2:-35.4149815020668 
-1.0 1:47.05251184774037 2:-0.27269551987784346 
-1.0 1:10.54261834350513 2:-18.69219959097477 
-1.0 1:16.571222279714107 2:-20.307982492399024 
1.0 1:26.892986662381848 2:-34.97344066860152 
-1.0 1:29.736381360049474 2:-20.704904061746927 
1.0 1:7.672128526725005 2:-36.959093233835965 
-1.0 1:-38.38319516596961 2:11.21327340921403 
1.0 1:34.45389635560727 2:41.981517150657204 
-1.0 1:-32.34216563937758 2:6.917927288010027 
1.0 1:-2.6742898024599393 2:48.919214953268366 
1.0 1:-45.23352512906896 2:27.13545330461334 
-1.0 1:-21.14152616241378 2:-24.38427136090849 
1.0 1:-25.53685003281299 2:43.35092814652607 
-1.0 1:-37.70433246290596 2:-19.91377130666452 
-1.0 1:-38.747932448197595 2:-18.231072793200997 
-1.0 1:24.467359598707013 2:-5.248733111487875 
-1.0 1:14.069687874513827 2:-3.2571353305091546 
1.0 1:49.142378940772524 2:25.593233985550246 
-1.0 1:-6.011713817835541 2:15.461723122102164 
-1.0 1:-28.8406091283567 2:21.44995305522183 
-1.0 1:-13.710897838251135 2:-29.449460118499033 
-1.0 1:1.1817967575722155 2:5.259973330756033 
1.0 1:20.686253890171294 2:35.17924348853513 
-1.0 1:4.508531294854974 2:10.470127518677492 
-1.0 1:16.091891418725968 2:11.233249755779456 
-1.0 1:-23.196603474496374 2:3.1309155275112874 
1.0 1:5.064156606101314 2:-49.46252773726132 
1.0 1:46.18580061568209 2:42.48131375756028 
-1.0 1:9.422412603481003 2:-9.1311866868739 
-1.0 1:-29.913692358936675 2:0.3423249566174214 
-1.0 1:-21.882005649277637 2:-23.659257352585755 
1.0 1:-48.92316084322326 2:-24.185665463197395 
1.0 1:-39.80867084285959 2:24.5013096944299 
-1.0 1:-0.14238642897573212 2:29.07599306342797 
1.0 1:-48.027341874167455 2:-28.058471093947663 
-1.0 1:2.8274750009126084 2:-16.811509283712333 
-1.0 1:-29.647245732555593 2:5.413535918558545 
1.0 1:-44.95711696759233 2:24.48142819242076 
1.0 1:3.638318841753997 2:-45.45308903128093 
1.0 1:-35.95575715312489 2:37.79535883678786 
-1.0 1:1.688957732601864 2:5.489483746569195 
-1.0 1:-24.109731614001632 2:-20.995505623432962 
-1.0 1:-6.560866670318938 2:-6.296756737125433 
-1.0 1:18.57048006589793 2:-18.820824079462902 
-1.0 1:0.1592999931490331 2:19.956612539474673 
-1.0 1:11.580290374837313 2:18.17774006165659 
-1.0 1:31.336303715751153 2:-16.14931340430215 
-1.0 1:6.132050006697496 2:-8.702809412252076 
-1.0 1:40.58190953311176 2:-1.3626267073907037 
1.0 1:-17.392570196181275 2:-39.7781274237333 
-1.0 1:43.89174449884148 2:-0.21121963580182693 
-1.0 1:-32.82053126744856 2:-1.5423498645628373 
1.0 1:-48.54383113593883 2:12.937277240039567 
-1.0 1:-21.18059877201061 2:17.3527069878936 
1.0 1:-33.267908558355856 2:-46.9412192126177 
-1.0 1:46.82570745049619 2:-1.483565548579476 
-1.0 1:-3.7326540197614464 2:11.082625943579274 
1.0 1:43.718386184009404 2:-42.19985382723365 
1.0 1:-0.3414216845961737 2:-41.74650791362975 
1.0 1:43.2660911695192 2:23.522608097589373 
-1.0 1:-30.798427238916002 2:-25.319654602095305 
1.0 1:-10.514122307844486 2:33.73961455346025 
1.0 1:-37.57331812091918 2:44.18690304960672 
-1.0 1:-31.66838613247218 2:8.449661218690725 
-1.0 1:10.340865877451643 2:27.60810535016161 
-1.0 1:-40.78025471406221 2:4.680103284721192 
-1.0 1:-39.32987875118611 2:3.3895747485441423 
1.0 1:10.582552046907404 2:48.08415197027258 
-1.0 1:16.658408034123564 2:6.688344170353357 
1.0 1:38.262271868551466 2:-37.042614936085734 
1.0 1:28.73930199611365 2:-40.26568444087889 
1.0 1:-4.529912837615068 2:36.64949797188123 
1.0 1:17.995907546776138 2:43.373986875828884 
1.0 1:41.66349890199696 2:20.121511296888183 
1.0 1:33.01245615658086 2:29.637191366509708 
1.0 1:-44.17324932780838 2:18.22951576645607 
1.0 1:-41.77260441534076 2:-43.54870572909173 
-1.0 1:-42.89910539915335 2:12.924905183983304 
-1.0 1:8.194747100665476 2:8.438011547093032 
1.0 1:38.120214597397144 2:-46.65418035834965 
1.0 1:24.339381357683468 2:-39.982082077636534 
-1.0 1:18.244090273708057 2:27.11524799293955 
-1.0 1:4.75881073927475 2:24.781930778972026 
-1.0 1:26.031783455150023 2:2.3436584065879638 
-1.0 1:28.31043463981565 2:10.73462324797453 
-1.0 1:-5.388830117006637 2:-1.2218902614261375 
1.0 1:20.412925145881694 2:-39.43490501174268 
1.0 1:39.62211110511726 2:36.255372098200816 
-1.0 1:37.23685359524077 2:7.967481610076935 
-1.0 1:28.659356444842654 2:0.11160380459610224 
-1.0 1:18.387416347724184 2:7.157861424509748 
-1.0 1:-26.897499632469838 2:-21.059795402064747 
1.0 1:49.31532120175269 2:49.225907934403246 
-1.0 1:3.4586807552403562 2:-29.46837565529937 
1.0 1:-5.07904809041446 2:-48.2793659873646 
-1.0 1:-25.33140038371731 2:-15.183946568869086 
1.0 1:-44.03647148507066 2:-47.52158382078432 
1.0 1:-34.377952712708286 2:-27.494142123546627 
1.0 1:20.38031827390772 2:36.30716778241539 
1.0 1:-41.81192536172137 2:-22.385399902094164 
-1.0 1:-34.283278286379776 2:-20.372931556328595 
-1.0 1:17.42531221951204 2:20.76218878666643 
-1.0 1:25.813695579356068 2:10.236915381629498 
-1.0 1:-4.483610383151388 2:-24.998768906068445 
-1.0 1:-23.376591541552436 2:25.077469123680043 
1.0 1:4.033964715618894 2:47.44460296847134 
1.0 1:-22.318082346214684 2:38.02448914516369 
-1.0 1:19.543155044388023 2:-26.04450691561886 
1.0 1:34.659327246949545 2:31.653049835608634 
-1.0 1:-7.7639793677717455 2:23.947429638157157 
1.0 1:30.306612071327052 2:-42.76930069854501 
-1.0 1:-36.052770542116484 2:5.19934985299659 
1.0 1:8.072471412966266 2:41.733270482182974 
1.0 1:-24.000446092523543 2:44.0114347253484 
-1.0 1:-26.47052846987621 2:0.4045617985068501 
1.0 1:6.112585647421019 2:49.76756045120336 
-1.0 1:36.886085434437284 2:-6.212568691675081 
-1.0 1:-15.30386297677743 2:-24.837472876884704 
1.0 1:-17.247496961714962 2:49.11420237133578 
-1.0 1:-38.25172379231203 2:13.597444505345445 
-1.0 1:39.203230069966615 2:-4.296202871194859 
1.0 1:-40.597490549235296 2:26.466910360864798 
-1.0 1:35.13475215812703 2:-17.1785990738365 
1.0 1:-24.64918118559158 2:44.05275261966069 
-1.0 1:38.82457670472441 2:-12.541739501714689 
-1.0 1:3.097435329974728 2:-32.83422979070052 
1.0 1:-26.204451840646012 2:47.05214940097569 
-1.0 1:-45.97075063575062 2:-4.002948785383078 
1.0 1:33.8649875182062 2:45.90342862767306 
-1.0 1:-2.634905368363092 2:10.507575494179058 
-1.0 1:-13.311036943739868 2:6.779791596034769 
1.0 1:-33.94009937304561 2:39.823122636545826 
1.0 1:-13.091431354163767 2:38.01962618950193 
1.0 1:23.482423783476708 2:35.81799804743755 
-1.0 1:-28.740511912148925 2:0.8568589227641582 
-1.0 1:-6.259377178591027 2:-12.121795629130798 
-1.0 1:19.236620518350083 2:-1.6656217766725017 
-1.0 1:39.02950582547356 2:4.0767247480654545 
1.0 1:43.72144936381913 2:-42.045192834569406 
1.0 1:-47.02034998241992 2:-36.86824991943916 
1.0 1:47.52142972978852 2:-11.294974010629714 
1.0 1:-43.887771413654065 2:-36.902488585606925 
-1.0 1:-21.309149675790756 2:19.125589057297837 
-1.0 1:16.482546161999508 2:4.145168821993256 
1.0 1:31.162877160509094 2:-37.81903156658526 
1.0 1:-36.19751990516642 2:-32.23280645802196 
-1.0 1:42.32083512604875 2:-11.501640522468339 
-1.0 1:8.040457154442011 2:27.812898089463026 
1.0 1:-23.766069654955558 2:-38.14255170131505 
-1.0 1:-14.558757597761614 2:4.040529610628801 
1.0 1:-22.064348095720376 2:43.61234390216977 
1.0 1:-38.04713848052913 2:31.538623731985826 
1.0 1:-0.016651551008377345 2:41.858594288645605 
1.0 1:-40.35858483614701 2:44.36562818184636 
-1.0 1:33.94997006441601 2:3.9475737272617972 
-1.0 1:1.2369848861658368 2:-25.007450255136277 
-1.0 1:33.066019352684485 2:1.8761683079448526 
1.0 1:42.10963354320044 2:-16.023880008568003 
-1.0 1:2.852467813740377 2:8.724928523495489 
1.0 1:48.79496425422191 2:-49.01542092955852 
1.0 1:-41.73801391775364 2:40.22976289051755 
-1.0 1:-3.137845161847207 2:-20.53616309556816 
-1.0 1:-37.53041735626234 2:16.211222890608113 
1.0 1:30.058787317954312 2:36.603556403799615 
1.0 1:26.609126718150538 2:46.767694242470235 
-1.0 1:36.40324296741667 2:-1.8783991113560996 
1.0 1:5.994150633080631 2:43.86369948599426 
-1.0 1:-27.807428708378986 2:22.2812132508763 
1.0 1:-3.1108709998603135 2:49.43556366314177 
-1.0 1:32.30107028121719 2:0.062235754025077944 
1.0 1:41.649603362403234 2:-23.97140954794274 
-1.0 1:4.910037062781301 2:-11.731827747562566 
1.0 1:37.475160324596324 2:-33.554449301297474 
1.0 1:27.575966069934108 2:-48.514933308802235 
-1.0 1:-1.5549185322558463 2:-31.55792473094481 
1.0 1:-25.780346822427955 2:-33.18424633678911 
1.0 1:49.994097201207204 2:-48.76927351379621 
-1.0 1:20.018980367724488 2:23.394934509164347 
-1.0 1:13.30514463812458 2:-14.103691632448824 
1.0 1:48.901614272638675 2:32.64986354909712 
-1.0 1:-31.723415538820436 2:2.089935947857067 
-1.0 1:19.077306007701345 2:10.298213345727232 
1.0 1:29.460939806396745 2:48.22277297390097 
1.0 1:29.755703023218988 2:-38.36176751887541 
1.0 1:-44.746827823746806 2:-19.32213874462726 
1.0 1:-44.79115590449375 2:-38.539372371636006 
-1.0 1:11.471643376656901 2:-30.390836805702033 
1.0 1:-5.406070045793429 2:38.326646694725376 
-1.0 1:-24.511578853380918 2:-2.7762929187306673 
1.0 1:48.38435819210915 2:-33.349028328019436 
-1.0 1:-4.569176537025739 2:17.77018023958234 
1.0 1:-33.716262902369905 2:-49.812322490384645 
-1.0 1:-13.583929966294418 2:-30.071988927394646 
-1.0 1:38.224324382480226 2:17.808514899915636 
1.0 1:45.35351649380714 2:-24.7404569083828 
-1.0 1:20.069884128028217 2:-14.576727521899757 
1.0 1:-10.352880951056763 2:-41.95045520541509 
-1.0 1:-3.408191368850281 2:-5.476042123433505 
-1.0 1:35.245814446795215 2:-16.536278071016024 
1.0 1:47.51744508463283 2:37.014059848433014 
1.0 1:16.035410814431252 2:-45.96436768279919 
1.0 1:28.252515540865982 2:-45.427591365859385 
-1.0 1:-25.917660100140218 2:1.9684779287033947 
1.0 1:-41.78424060608818 2:-18.375514108353872 
1.0 1:47.04220654439495 2:-13.023648750345135 
1.0 1:16.2127010076045 2:42.939627777021386 
-1.0 1:15.624736858546308 2:25.691924934032873 
-1.0 1:-34.68516914169837 2:-19.717922795583075 
-1.0 1:24.595920148066888 2:-24.637745862516002 
1.0 1:30.905135184646586 2:-41.78515938021683 
-1.0 1:-34.69280946820264 2:-13.972857217733623 
-1.0 1:-32.09618288856234 2:-2.24162119477687 
1.0 1:-49.62723454488511 2:32.76100737135661 
-1.0 1:-1.3523591254332112 2:-27.674016717421 
-1.0 1:-10.30104380628434 2:4.6419409674783 
1.0 1:-43.517090614778915 2:-25.806036726008973 
-1.0 1:32.5538280684566 2:-16.12711572824192 
-1.0 1:3.139541014152807 2:3.7975135283385484 
-1.0 1:25.68498123986487 2:19.391647971897992 
1.0 1:-27.36182972231738 2:-33.6224370897076 
-1.0 1:25.08386512225148 2:-19.904351393215624 
-1.0 1:15.723409464824801 2:27.980983804688968 
-1.0 1:-33.93579682890201 2:18.495013135741253 
1.0 1:45.63788597584758 2:-47.241544896200885 
1.0 1:25.939492199849752 2:34.645225617006886 
-1.0 1:24.890710781129712 2:-16.6766976181637 
1.0 1:-34.02291162803638 2:42.25078336294551 
-1.0 1:31.999438936210336 2:5.650086690863184 
1.0 1:15.508782044242905 2:46.297565966426745 
1.0 1:31.34866915631249 2:-44.96771958586204 
-1.0 1:-5.762519398378379 2:2.1911403219646695 
-1.0 1:-2.5346852616157216 2:-11.985548807897361 
1.0 1:-35.97102955026208 2:-24.153854622693693 
-1.0 1:25.012437021048243 2:-25.915544166712788 
-1.0 1:-3.369100495126856 2:-1.681768076291635 
-1.0 1:26.50919908993136 2:0.2628811673972886 
1.0 1:21.882056781592176 2:-44.11848440312014 
1.0 1:-21.780530216084166 2:-36.14805416116076 
1.0 1:-39.93134424530426 2:-33.49267841598672 
-1.0 1:11.148338891685878 2:15.386572358650408 
1.0 1:4.301142641365639 2:40.204276347234355 
-1.0 1:-17.430228833578138 2:17.147515730014913 
-1.0 1:-10.135393830027818 2:15.613140103776022 
1.0 1:7.665910789972276 2:-41.897031146929955 
1.0 1:18.904414675382526 2:-41.57971728799434 
-1.0 1:-4.201583066096233 2:26.964977564213935 
-1.0 1:45.150920712259705 2:-2.0475053889136747 
1.0 1:-29.82715607912926 2:37.787721388504245 
1.0 1:15.682083227183735 2:-49.55159156975855 
1.0 1:0.5425360665690904 2:48.88273596934849 
1.0 1:37.048394691471714 2:-32.91438025928975 
-1.0 1:16.2717020147451 2:30.645349514236607 
1.0 1:8.823434898067626 2:-41.71499728623571 
-1.0 1:16.397600257384106 2:-0.7840033294660425 
1.0 1:-49.92869425527388 2:35.85259434219654 
1.0 1:-23.69921702192479 2:36.17731676884879 
-1.0 1:-31.007136048976708 2:-7.6379192723387215 
-1.0 1:-15.227229477239788 2:6.465919461089457 
1.0 1:49.81982127396968 2:1.1586369091990432 
1.0 1:-34.53101869566792 2:43.14486512497756 
1.0 1:44.709384576683746 2:-30.183241806967885 
-1.0 1:11.281935113041499 2:-32.578707195212104 
1.0 1:-33.70837971166402 2:26.558331192638345 
-1.0 1:-28.374176245243163 2:-12.13577483187457 
-1.0 1:3.859017332538014 2:-12.827199439507055 
-1.0 1:-4.243259504573717 2:15.041059395914429 
-1.0 1:5.617742879607694 2:20.860872705972817 
-1.0 1:36.862569540103365 2:16.200309900898304 
1.0 1:-27.89028952574902 2:-34.16093881179214 
-1.0 1:-13.173284767519823 2:-1.5983424334549534 
-1.0 1:-31.53660977064557 2:20.969878471285664 
-1.0 1:-13.542649334098664 2:-15.998139808787009 
-1.0 1:37.72879077401175 2:14.699978729923668 
-1.0 1:31.26136538755615 2:16.98257882507609 
-1.0 1:-27.290457360152807 2:27.29605639100337 
1.0 1:46.9163971682402 2:-13.257106265567351 
-1.0 1:-24.873226828266663 2:8.059929400426467 
-1.0 1:31.909843125357014 2:-19.68140627055499 
1.0 1:-21.206881745581317 2:37.41489856762498 
1.0 1:7.728187805511442 2:39.330100241102265 
-1.0 1:38.539200637917595 2:-4.581057793747455 
-1.0 1:30.668720789217016 2:-18.76230626142629 
-1.0 1:33.921301258326906 2:-19.790567498294383 
-1.0 1:32.044279682627916 2:22.79415116465475 
1.0 1:-18.03951566146997 2:41.239824656736914 
-1.0 1:-12.523415244054268 2:-2.079229925811833 
1.0 1:12.623915422272374 2:46.66575335164726 
-1.0 1:-6.932006495354445 2:5.23753966901129 
-1.0 1:7.342310107855686 2:32.94239896692356 
1.0 1:48.25915711740972 2:-19.890639259788138 
-1.0 1:-2.8237104630910683 2:-19.446517224944277 
1.0 1:0.804311278577382 2:35.038251000561054 
-1.0 1:9.45740299564924 2:-13.535962614111323 
1.0 1:-30.59588311262764 2:40.6110329198949 
1.0 1:-6.920712682225861 2:-38.33335389071799 
1.0 1:-48.5105132769806 2:28.594311942252823 
1.0 1:-0.6961056039871988 2:34.16392921169938 
-1.0 1:11.552821869575853 2:-17.058085270355956 
1.0 1:-18.043014158211186 2:42.77430585509533 
1.0 1:-12.240080676248391 2:42.113244959689965 
-1.0 1:13.030852467083418 2:2.021573758793519 
-1.0 1:-6.76798347555771 2:24.9928906558933 
-1.0 1:5.764584759223433 2:-7.585320989403177 
1.0 1:-20.5961070119327 2:32.51938804084404 
-1.0 1:-19.98114684026049 2:-12.113434291043635 
-1.0 1:17.609799385519832 2:15.697704207485856 
1.0 1:10.804383650190529 2:43.121226698214116 
1.0 1:48.65451624279256 2:11.397065733224178 
-1.0 1:-1.587504493203228 2:29.403023698042418 
-1.0 1:-34.03733008093966 2:10.653430225444017 
1.0 1:-26.72250638795639 2:46.87936255800552 
-1.0 1:6.919661048075591 2:14.84737983840416 
-1.0 1:-2.9012196707164573 2:-26.0583071259872 
1.0 1:-35.55960906630511 2:27.875120801884258 
-1.0 1:4.446659977713409 2:-2.223108980228372 
1.0 1:47.942526506577124 2:9.702370968203711 
1.0 1:-30.900488372689612 2:40.91221454275584 
-1.0 1:43.41515809411832 2:-8.93197779439846 
-1.0 1:-3.9011013960619456 2:-21.454007232968998 
-1.0 1:-13.814782170964632 2:14.806568800449192 
-1.0 1:-9.149189035645849 2:-27.56060897021009 
1.0 1:37.521059590346084 2:-35.198592768725156 
1.0 1:-14.940357544662488 2:47.504144638647425 
1.0 1:24.974071250557383 2:-35.828367765039914 
-1.0 1:9.696737185610687 2:-8.870345001495085 
-1.0 1:-27.2074951433121 2:-18.205939109048206 
-1.0 1:-2.5410676185509753 2:-19.482926701153048 
1.0 1:-30.147306770388816 2:-45.91281395249871 
-1.0 1:-5.614871152360435 2:-2.305023605628236 
-1.0 1:3.7990024905116546 2:30.680504740051244 
-1.0 1:-32.264052494176504 2:-0.3458075443018477 
-1.0 1:-16.51746743480821 2:1.2698143662439516 
1.0 1:44.25606162707895 2:-12.62092642712956 
1.0 1:37.496739746885524 2:22.338734717496656 
-1.0 1:23.38688627889644 2:10.457755230044762 
-1.0 1:18.069344747590417 2:13.650831343980819 
1.0 1:44.41247637876265 2:41.114408458807624 
1.0 1:-43.12378052688103 2:-19.81296071028884 
1.0 1:41.087647189287 2:23.215059956712437 
-1.0 1:7.069115646251282 2:-28.311342882449466 
1.0 1:-6.972205567181804 2:-35.94413786056029 
1.0 1:43.653651816466905 2:-30.007255135529224 
-1.0 1:-21.655921136987256 2:-10.01360810937905 
-1.0 1:26.997770900695244 2:-21.76555715586514 
1.0 1:-37.39934929500084 2:33.45713654466488 
1.0 1:37.81406431286248 2:23.550779620977252 
-1.0 1:-12.8602010651507 2:20.556755850315742 
1.0 1:-44.148537924936264 2:24.226069587059033 
-1.0 1:-13.946485522074717 2:-21.837321634314534 
-1.0 1:-35.420884514956626 2:9.639226899332613 
-1.0 1:44.594930449528135 2:5.945021615766409 
-1.0 1:5.660298619734312 2:-19.247794170217944 
1.0 1:-16.058058518341078 2:39.434478135509025 
-1.0 1:30.739398049349646 2:7.854057845249897 
1.0 1:-47.765419154269075 2:-2.393537146516639 
-1.0 1:13.248134226764845 2:29.93165819484632 
1.0 1:49.05670215965757 2:-26.68963563742069 
1.0 1:-38.9878694087442 2:24.08248804851673 
-1.0 1:-32.459795682705064 2:-18.072825863275586 
1.0 1:-3.983300299559017 2:-38.96027551597274 
1.0 1:-25.477022027547985 2:-42.14973033851684 
1.0 1:40.00582462945197 2:-22.737922132668945 
-1.0 1:-22.930292778838606 2:8.868820780758355 
1.0 1:-40.79347186674174 2:44.889989161251464 
1.0 1:-19.191709241794058 2:39.91196155456874 
1.0 1:44.341876749545754 2:30.92897750476432 
-1.0 1:-26.518611972046234 2:-15.479786759452614 
1.0 1:-31.51401281492609 2:36.9271889833219 
1.0 1:2.4550558706409404 2:41.36781818055382 
-1.0 1:-37.598192931406075 2:-12.722736018156159 
-1.0 1:35.57898903529337 2:6.2713075049422455 
1.0 1:13.659744260878641 2:-32.63458541156187 
1.0 1:20.737112185507623 2:-46.10071063909792 
-1.0 1:-19.314030279357414 2:1.6666483259959934 
1.0 1:-48.69366235143837 2:8.857532995370752 
-1.0 1:-23.847298140779934 2:1.7322434885654059 
1.0 1:49.747718169364205 2:-36.31364575225987 
1.0 1:42.739757646811846 2:-34.681015041608845 
1.0 1:-47.21131262092184 2:-25.691832644434594 
1.0 1:28.50235012947258 2:-39.67733440672986 
1.0 1:40.81176939266452 2:-34.03376778344096 
1.0 1:-39.17116238222049 2:-45.84278480700451 
1.0 1:1.7932302090961212 2:35.51519807327125 
1.0 1:-36.940538126213774 2:-21.812056380301616 
1.0 1:-34.83009860996622 2:25.992775043257463 
1.0 1:-26.609501761824667 2:29.189482271357733 
-1.0 1:-45.27573065683044 2:-0.3306481196633605 
1.0 1:-45.7337977389213 2:-12.861535728342956 
-1.0 1:-28.85769686143518 2:13.524843108420011 
-1.0 1:-2.686342939410643 2:-12.5254029091739 
-1.0 1:2.119522699256895 2:-17.03168280714922 
1.0 1:24.85007496860443 2:37.34355302856069 
-1.0 1:-23.770561304669936 2:4.882190065336454 
-1.0 1:-18.765790709622614 2:-20.156792161382636 
1.0 1:-41.284951667091406 2:43.89365663209687 
1.0 1:12.80614751676772 2:-38.972711914721515 
-1.0 1:33.26163049251486 2:-4.567698209358463 
-1.0 1:21.537146201788758 2:-23.86988227735753 
-1.0 1:21.144719694870986 2:27.50480279924922 
-1.0 1:-16.975666699233976 2:3.782377248621371 
-1.0 1:19.91698436990003 2:-20.045306364117213 
1.0 1:43.97027452883982 2:31.82872473363065 
1.0 1:-49.00731478267318 2:-24.275376565932085 
-1.0 1:25.0335072243626 2:-4.265360159480068 
-1.0 1:5.989551450729059 2:30.311636789024725 
1.0 1:46.0920209428731 2:-16.569505843910772 
-1.0 1:-33.59143490628106 2:-9.947094918230805 
-1.0 1:-30.856761974673578 2:24.452394147152443 
-1.0 1:-20.05952822061816 2:20.22788923002518 
1.0 1:36.98379139958381 2:30.46577812366953 
-1.0 1:-7.3835947942885625 2:24.830405518910208 
-1.0 1:30.632842658842126 2:12.522294313315037 
-1.0 1:44.996198289267646 2:10.335076634595614 
1.0 1:13.929886368574476 2:-48.33084671897354 
-1.0 1:-25.615142606011307 2:12.106253017259732 
1.0 1:33.487389707161945 2:-37.70651164067988 
1.0 1:-38.51457653207787 2:-25.40475871704075 
1.0 1:-47.91575399328316 2:43.95202283692095 
1.0 1:37.45861687023486 2:26.664698691973285 
1.0 1:31.370332956955583 2:-48.41644754939095 
1.0 1:8.26842830154842 2:-43.72969825946171 
-1.0 1:14.459728833733996 2:31.74117130723909 
-1.0 1:-22.129339331650296 2:-16.731363251312374 
-1.0 1:-26.99915503321426 2:20.039319877702425 
-1.0 1:-31.927808010202995 2:0.7905534018299111 
1.0 1:-43.57172269818057 2:41.12323776935437 
1.0 1:-11.588591961652787 2:35.44651825191293 
-1.0 1:2.731066610013078 2:-14.472121220658561 
1.0 1:-40.72114350033238 2:40.25161351293012 
1.0 1:37.08982230253966 2:30.290021328497136 
-1.0 1:2.2471172646593067 2:-5.562239155263985 
1.0 1:-24.0269279314374 2:42.4717437547033 
-1.0 1:0.8519789351714437 2:-11.61772165987218 
1.0 1:-29.833686056316186 2:-26.578748736014482 
1.0 1:45.86578353569354 2:33.90663323878899 
1.0 1:-27.096728058183736 2:-28.764160415283342 
-1.0 1:12.479395321271562 2:-3.233432601826367 
1.0 1:-30.299568067167346 2:-45.55344647060106 
-1.0 1:-0.03920312379388168 2:29.015218956616952 
1.0 1:-12.292753781225908 2:42.18581863499512 
-1.0 1:-3.802649515752256 2:27.363542075298945 
-1.0 1:4.1733224001117355 2:-4.597226429613583 
1.0 1:47.15676623145948 2:-39.42457782906519 
-1.0 1:-32.51966406032106 2:-13.268129828467558 
1.0 1:47.81864683404143 2:39.12666504994527 
-1.0 1:-42.51691969722927 2:-13.327406529333553 
-1.0 1:-19.016646366281474 2:-6.000772869152709 
-1.0 1:20.982896855000877 2:-22.99481405192543 
-1.0 1:6.339553942611326 2:-7.275773289354632 
1.0 1:24.526623921663468 2:42.40436596213497 
-1.0 1:4.867394089227322 2:-12.517473284627902 
-1.0 1:8.012071071827457 2:-19.39017865044985 
-1.0 1:22.67895586248868 2:23.869291752732792 
-1.0 1:-3.3224200577010192 2:2.672257811991531 
-1.0 1:-19.564226304155884 2:15.287425562116919 
-1.0 1:15.431004950524345 2:1.144513720269164 
1.0 1:37.568151643785356 2:38.6777022527006 
-1.0 1:36.368503063252334 2:-13.102157615962144 
-1.0 1:45.51165182470422 2:-4.394374919993324 
-1.0 1:10.41990204845713 2:20.40250289589313 
-1.0 1:7.897273941738272 2:19.745452734086093 
1.0 1:-38.620662849029245 2:-45.80520383946127 
-1.0 1:26.363333269893534 2:-16.071161077065334 
-1.0 1:-37.38650622818427 2:1.4984718404220434 
-1.0 1:-37.902848670887025 2:4.371900082707207 
-1.0 1:5.633032143567935 2:-33.15818498254139 
1.0 1:48.68253604764854 2:-39.06632879466585 
1.0 1:9.372669924491124 2:38.36327342135064 
-1.0 1:-31.030412002788758 2:-14.543725284054457 
-1.0 1:1.3635968405925527 2:12.957059574408497 
-1.0 1:1.117796783302763 2:21.02353445385399 
-1.0 1:-10.989805341886814 2:10.20527479180168 
-1.0 1:-25.52732317130953 2:-21.905680162963094 
-1.0 1:-25.02685064522364 2:21.303954334468106 
1.0 1:39.96700509529585 2:-26.0316702747632 
1.0 1:14.709022052180057 2:42.36717764065583 
-1.0 1:-18.63128432388483 2:-7.144617316819816 
1.0 1:41.178945806523544 2:40.273279416551226 
1.0 1:35.4395083946376 2:-26.434657364095557 
1.0 1:47.54043687812232 2:43.72522349269709 
-1.0 1:21.906847623041692 2:1.031207093540715 
1.0 1:15.193755639334437 2:40.13072774638076 
-1.0 1:33.959316074303366 2:-7.894423931444741 
-1.0 1:10.258413790606264 2:-7.069132280199055 
1.0 1:24.685427621048774 2:-42.83928342819354 
-1.0 1:2.545337703841955 2:-5.338134332713399 
-1.0 1:-14.80387641474299 2:26.243277378716424 
-1.0 1:14.002617581555239 2:-17.915130288476774 
-1.0 1:-40.90736781170423 2:3.3622087511569005 
-1.0 1:-20.69972788215921 2:10.27634932063715 
-1.0 1:38.70377225798611 2:9.41259339902072 
-1.0 1:19.584072770662047 2:16.611131914194882 
1.0 1:0.7125406336401393 2:-43.820943606386805 
-1.0 1:-41.61915810700788 2:4.846805172650855 
1.0 1:30.352772837577536 2:-49.411263471188825 
1.0 1:45.4610959169788 2:29.804060707453587 
-1.0 1:6.931306420775499 2:-18.797049675358128 
-1.0 1:37.86813552588752 2:-17.403817035646476 
-1.0 1:27.137279239887924 2:-14.317489442370245 
1.0 1:48.52002019535099 2:0.5246959820652278 
1.0 1:17.73875624929702 2:-38.78499501721456 
1.0 1:8.342695664374542 2:-41.27107655264981 
-1.0 1:-26.593479465460472 2:-22.53045764110464 
1.0 1:-39.28919644815287 2:-41.66452733105642 
1.0 1:-23.98682692728242 2:-30.824771929605337 
-1.0 1:18.74356206045347 2:-5.752288357786806 
1.0 1:38.397590896278054 2:-43.903083907102335 
1.0 1:14.782478291632145 2:38.47798593326846 
1.0 1:35.55924796637361 2:49.050955860061066 
-1.0 1:34.069487105196316 2:13.586718925461959 
-1.0 1:-45.217032049696805 2:3.6978281866487146 
1.0 1:37.59942056181442 2:-35.99575532505985 
-1.0 1:-3.398253277567314 2:-4.6441463320145395 
1.0 1:-14.875991860534912 2:46.77207556581994 
1.0 1:31.713257756803593 2:26.083677265169406 
-1.0 1:19.597405028827584 2:15.765669224258286 
-1.0 1:-0.35194593583524325 2:23.900519605885734 
-1.0 1:-25.602054203815303 2:15.362350214266465 
-1.0 1:-27.958500491101034 2:25.408839085404896 
-1.0 1:33.97576437643466 2:10.366065979336607 
-1.0 1:7.267601863315936 2:-10.861562537475981 
-1.0 1:16.10564371635195 2:0.9727418632046672 
1.0 1:-19.624903094968005 2:46.104652229188694 
-1.0 1:-3.6064355089377 2:7.337288577443861 
-1.0 1:27.048694079995993 2:-12.36894724645087 
-1.0 1:7.129875223176385 2:2.17555683669912 
1.0 1:-36.816593706147934 2:-36.85747783530243 
-1.0 1:38.76476606530041 2:13.531852300094137 
-1.0 1:-35.61651082037851 2:4.829628886400779 
1.0 1:30.607595194623386 2:41.8198840617225 
1.0 1:-17.135968865724596 2:-42.37130288566227 
1.0 1:6.486152117418882 2:-44.388184239837464 
1.0 1:-30.127010241904788 2:32.66508965575669 
1.0 1:-45.06761170814414 2:13.10338107825174 
1.0 1:-7.2846288652589015 2:-49.29549339785162 
-1.0 1:-11.024554644652456 2:-1.462967313641194 
1.0 1:16.62648875271673 2:45.71830728179471 
1.0 1:-10.239108467885542 2:40.470404148056616 
1.0 1:-22.293112239622737 2:-36.71209647079978 
1.0 1:16.291407723526916 2:-40.02962244014789 
-1.0 1:14.575429934951128 2:-20.972557813504825 
-1.0 1:-5.352956865123458 2:-6.757699179350386 
-1.0 1:7.27843783224577 2:-32.556865407675524 
1.0 1:-22.005529511317526 2:-41.93256480099594 
-1.0 1:-21.591988644354867 2:-10.42688391721665 
-1.0 1:-4.4931832253365265 2:-24.886325499838637 
1.0 1:42.58292901486444 2:-35.70522501788589 
-1.0 1:42.18433527325936 2:-10.386663737408389 
-1.0 1:-15.697854333315872 2:12.14397735294415 
-1.0 1:32.390490360808506 2:3.2815227808319185 
-1.0 1:-27.22144351543752 2:-25.163383381619735 
1.0 1:40.1742970698294 2:42.29745161327884 
1.0 1:-37.95288929595357 2:43.83015519372324 
1.0 1:-48.14105136117664 2:-48.97928382156813 
1.0 1:-8.548163002890911 2:-48.69295972164277 
-1.0 1:43.949796168525516 2:10.344274108505676 
1.0 1:34.1191308905823 2:49.185287449624056 
1.0 1:0.7311598533549933 2:47.36689778346661 
1.0 1:-48.396895013139606 2:-1.550282387442646 
1.0 1:20.347628847550048 2:39.349583566971454 
-1.0 1:35.395316748184776 2:-2.206813845677713 
-1.0 1:-27.08926829509021 2:-20.354739759970602 
-1.0 1:-28.128392914415624 2:0.35804577178956176 
1.0 1:46.130973535409176 2:-35.74258233644741 
-1.0 1:-4.374347453958939 2:-19.991395339360725 
-1.0 1:-8.930344197794632 2:-16.666345207622797 
1.0 1:49.71025673451297 2:41.05501293872143 
1.0 1:26.921758519280534 2:45.29520333032622 
1.0 1:-49.76163982211934 2:0.3015672225649139 
1.0 1:49.90142777778774 2:-13.276074741909612 
-1.0 1:-7.653627482536777 2:21.685016817882744 
1.0 1:-43.426045893053946 2:28.847101635753003 
-1.0 1:9.78165772176314 2:5.698337922873741 
-1.0 1:-5.295770118156746 2:12.713461664608827 
1.0 1:37.28808105119041 2:-27.52232382433501 
-1.0 1:-31.22839773424636 2:23.760939241767275 
-1.0 1:-11.80402308555832 2:10.835231555573513 
1.0 1:-27.589668539555866 2:-43.61786964113925 
1.0 1:19.977145439581854 2:44.24286937842391 
-1.0 1:-45.39086009037451 2:2.822001697139229 
-1.0 1:-17.329511214052463 2:5.065271624191012 
1.0 1:-16.80881886285266 2:32.97955254423409 
1.0 1:42.43222840144793 2:48.45208213155092 
1.0 1:4.8960884219033645 2:45.387812281552314 
1.0 1:29.50337359578829 2:-42.58983337285873 
-1.0 1:10.46608435828423 2:6.721107249747398 
-1.0 1:46.231054086498716 2:4.080151224838827 
-1.0 1:11.997675299228918 2:25.661636349107024 
1.0 1:-2.4628648038128325 2:46.364461263798695 
1.0 1:-12.22652580798676 2:-43.959417375908636 
1.0 1:18.627413184495296 2:-37.561262481932545 
-1.0 1:-14.390450400425463 2:-28.00151762061749 
1.0 1:-12.771385961930196 2:48.20300866069614 
1.0 1:-46.18577416795 2:-9.050184762097388 
-1.0 1:45.494174910635344 2:5.784865084205786 
-1.0 1:20.005934598085002 2:12.32030490422055 
-1.0 1:12.11958536483007 2:5.3123718641752875 
1.0 1:-5.825229304189628 2:38.711808004701 
-1.0 1:26.42571734557444 2:21.752498406647558 
1.0 1:-29.599768244210274 2:-44.90887361279252 
-1.0 1:0.5820859193891312 2:7.316581972412306 
1.0 1:-20.120085117091776 2:-31.970686784837078 
-1.0 1:35.20687902933581 2:18.817399730390832 
1.0 1:38.09947424645954 2:31.97846091067061 
-1.0 1:-1.5691831487542687 2:20.685790103298256 
-1.0 1:-3.421809025656864 2:33.07037207100729 
-1.0 1:-4.301423421130828 2:-3.9945397783057093 
-1.0 1:15.002361297067262 2:31.477349022516098 
1.0 1:-32.53797392256667 2:26.680292977584465 
-1.0 1:21.513372778325625 2:-19.954723849389225 
1.0 1:-44.079033784865956 2:-18.909832166167966 
-1.0 1:-41.370147644412214 2:9.507879611299233 
-1.0 1:-7.770876146476921 2:7.0265133943282 
-1.0 1:4.834035378962767 2:-30.830790085506464 
1.0 1:19.253768336426113 2:45.91362611101623 
-1.0 1:-24.743388081552016 2:-0.04683231705997021 
1.0 1:18.859076424315063 2:-32.816144111203705 
1.0 1:17.97795143944912 2:37.53831701581546 
1.0 1:11.843029079904268 2:39.69754585853856 
-1.0 1:-10.292752159171746 2:24.375374666113903 
-1.0 1:-16.603098549124667 2:-21.34760943731082 
1.0 1:37.88896337186826 2:-44.44442352925728 
-1.0 1:-45.4614360073787 2:-3.7401541611248694 
1.0 1:26.141615060286263 2:35.770701031751884 
1.0 1:24.042261648597293 2:-44.596236152346606 
-1.0 1:29.99721392522014 2:-11.051415657866022 
1.0 1:34.310728186809506 2:-26.861444513476137 
1.0 1:-32.17538481801468 2:-33.78314984984377 
-1.0 1:25.867547692756254 2:18.11233057989698 
1.0 1:-18.50437484726533 2:-37.501690428635385 
-1.0 1:16.58247621341808 2:27.579381667528136 
1.0 1:7.960411983254084 2:33.92094835563992 
1.0 1:5.14349987507005 2:49.94521885279374 
1.0 1:-45.78325886373785 2:-20.579521975782775 
-1.0 1:-6.023724064849991 2:33.210471664688924 
1.0 1:39.60441543931712 2:29.36952348184241 
1.0 1:1.2822255601189545 2:37.30710587019003 
-1.0 1:-31.359838215366416 2:-8.971465490468772 
-1.0 1:-16.982833304721762 2:6.373491925211691 
1.0 1:-40.97337160963471 2:-24.518372772305675 
1.0 1:-44.78550125663963 2:46.884130374562986 
-1.0 1:11.357971233608625 2:-3.65064431572459 
1.0 1:24.083760748329365 2:43.56455749671587 
-1.0 1:25.57142961449613 2:16.17793077770546 
-1.0 1:-32.55086558829658 2:8.516961591327705 
1.0 1:-32.93150914617669 2:36.98576182081013 
-1.0 1:-15.848344199439374 2:-18.106787212256638 
1.0 1:-45.51296399108606 2:31.962521711704056 
1.0 1:-24.258218725793274 2:32.74501174768259 
1.0 1:44.05354776273139 2:20.749499589267835 
1.0 1:46.65467483497373 2:25.70357001713726 
-1.0 1:0.3568926287873393 2:15.168590839807687 
-1.0 1:6.76974766564316 2:22.18131171768891 
-1.0 1:-28.27307193153725 2:-9.35452255659353 
1.0 1:-16.183080758936214 2:49.851948027065845 
-1.0 1:20.287396822377907 2:-22.77611057446014 
-1.0 1:21.67312756289521 2:-3.565238704522736 
-1.0 1:5.161954576055137 2:14.293261917947186 
1.0 1:4.672409701959524 2:35.40079722207268 
1.0 1:-28.048472402847835 2:28.780284290884996 
1.0 1:-44.55973349339502 2:24.86030747035915 
-1.0 1:-38.54234983962648 2:-9.001033680976034 
1.0 1:-37.48125012984208 2:30.508443333191053 
1.0 1:-13.128058218479138 2:-42.244140906231124 
-1.0 1:-2.507871666164849 2:-27.460423059061835 
1.0 1:-33.22463604439185 2:31.516436772559384 
1.0 1:-37.27745392294692 2:32.17084991097533 
-1.0 1:8.241071150468796 2:27.410348984600454 
-1.0 1:-22.285451916395008 2:-17.855855998590044 
-1.0 1:2.4266805258412854 2:18.73170779640448 
-1.0 1:11.614241403861923 2:-25.461736072847543 
1.0 1:-19.26638702454485 2:49.83132623535286 
1.0 1:46.59875924270548 2:-37.167809381301 
1.0 1:-48.48525273083582 2:11.164315404222187 
-1.0 1:23.096933113377407 2:12.129734939599459 
-1.0 1:7.1485502062522155 2:-28.853528122675733 
-1.0 1:-0.9942571081135447 2:-20.883877235262812 
1.0 1:-42.731778239134826 2:-19.560934636321054 
-1.0 1:-37.06254325559144 2:17.708408543277464 
1.0 1:-46.3083295590328 2:-16.10091091065736 
-1.0 1:26.461253310247294 2:-3.4942580997570856 
1.0 1:-45.14886128893914 2:23.26421282520945 
-1.0 1:10.989846038591129 2:4.6718176560678035 
1.0 1:-47.557581861008245 2:-24.346083398410357 
-1.0 1:-21.52085679580298 2:-22.834117518701092 
-1.0 1:-32.4806241520071 2:18.553091044087473 
1.0 1:-45.621472379542325 2:28.769010280933653 
-1.0 1:27.710866546294564 2:-4.250228201912556 
-1.0 1:-15.57211475805588 2:-8.699892997504136 
1.0 1:36.687907463104686 2:-21.85996884748451 
-1.0 1:3.642313482301734 2:-14.699574214895991 
-1.0 1:25.48773854120212 2:5.7093132981444334 
-1.0 1:18.400220482544785 2:-13.220928236493723 
1.0 1:47.09154506149085 2:-15.146610405602344 
1.0 1:-37.03527795147714 2:24.922395552437553 
1.0 1:-22.427693970738996 2:49.24276047194713 
-1.0 1:21.604627202439854 2:29.607165481929233 
1.0 1:-5.774573411953893 2:-37.063812692444365 
-1.0 1:17.131736534116957 2:-6.960328172955586 
-1.0 1:46.062829705356876 2:7.430194142979864 
1.0 1:-38.052467399232604 2:-39.40647979378852 
-1.0 1:23.89500214172772 2:-21.031844207051325 
1.0 1:-9.963791765753726 2:-38.922617057478654 
-1.0 1:34.27309506233502 2:11.22822021421283 
-1.0 1:26.721588492229714 2:-7.738221049471263 
1.0 1:39.972232120511464 2:-19.93609090002045 
1.0 1:34.38650155305785 2:47.55060823018601 
-1.0 1:38.20590997131652 2:13.080434734779287 
-1.0 1:-16.6406335723123 2:26.398589407006234 
-1.0 1:6.2930693823520185 2:22.646396923940838 
-1.0 1:-2.2756178662644713 2:-27.075810206158927 
1.0 1:14.50650441647125 2:39.661120420778225 
-1.0 1:11.404937499250135 2:13.559177771887256 
-1.0 1:15.829040028199783 2:-8.134821582025682 
1.0 1:-8.413186380954823 2:41.44435278696263 
-1.0 1:19.31748603434267 2:-17.777091775705458 
1.0 1:-38.363934489620476 2:-32.701309324010154 
1.0 1:19.944158416452233 2:49.10811269444019 
-1.0 1:-33.89699093488548 2:-21.88145294624307 
1.0 1:-44.022234189688376 2:-35.46179243358315 
1.0 1:-30.746729065350124 2:-37.86760324505837 
1.0 1:6.841259049448719 2:37.76462875979154 
-1.0 1:28.87663267279306 2:-2.620752219927598 
1.0 1:-15.136144485579514 2:37.273772751632904 
1.0 1:18.77689088901115 2:-40.94737691787543 
1.0 1:16.08623404445607 2:37.39797660178155 
1.0 1:24.40517311079751 2:30.590065330939176 
1.0 1:-8.003260453758555 2:-33.74974040716887 
1.0 1:15.543072629168847 2:-38.84272658393864 
1.0 1:-29.539876285646535 2:46.01974409515689 
1.0 1:12.392764647911234 2:-39.03270379827578 
-1.0 1:-10.651559096488377 2:-32.123004743599644 
-1.0 1:-11.698476324067666 2:-10.107171302240848 
-1.0 1:4.668734362281435 2:13.425759353614035 
-1.0 1:12.148602835305754 2:-21.716496141747424 
-1.0 1:0.4991794329601024 2:18.577187897614674 
-1.0 1:-34.63163496592917 2:-16.78104964755882 
1.0 1:36.5767211090189 2:33.691256355685674 
1.0 1:-33.08156724991569 2:32.4404841295713 
1.0 1:-22.43576709211538 2:30.055436853940066 
-1.0 1:-15.928755650242431 2:-9.646298858865087 
1.0 1:-29.33749197074464 2:42.07843937715814 
-1.0 1:-11.311812202159526 2:4.509801218510072 
1.0 1:-35.59351213857146 2:-46.73667981327309 
-1.0 1:-2.4387083501942706 2:-13.018637700382703 
-1.0 1:10.05771062433399 2:14.571659629544417 
1.0 1:-35.74689404498933 2:37.19098248771052 
-1.0 1:-9.297366976702016 2:-6.74416481024574 
-1.0 1:-14.371080628655097 2:2.468638937203561 
1.0 1:40.33051396874607 2:44.20198467204181 
1.0 1:-42.20812739111317 2:35.37124071027544 
1.0 1:36.305836340723 2:-30.890704193694773 
-1.0 1:1.7361747598766655 2:25.20251137917146 
1.0 1:-31.251363115393275 2:-40.32159237775144 
-1.0 1:21.078489524315923 2:-26.892227308096608 
1.0 1:-49.38160107922386 2:18.66931293255707 
-1.0 1:19.3276692408466 2:-29.427607052309007 
1.0 1:-45.908351629604155 2:41.91523956063976 
-1.0 1:11.043582682934872 2:1.310693243877933 
1.0 1:22.127019044588295 2:-49.24643889838572 
-1.0 1:8.332917102150907 2:24.26123137155306 
-1.0 1:12.464836783101092 2:-8.996858821006638 
1.0 1:-29.03172386566035 2:-34.980359544911884 
1.0 1:-22.703316404985507 2:-47.418956041526954 
-1.0 1:-0.4677049252973939 2:20.118254358778422 
-1.0 1:-23.107991760041926 2:-5.213083814225362 
-1.0 1:21.631616716184304 2:24.720381623925373 
-1.0 1:-4.7864202807053395 2:-16.256775779096508 
1.0 1:35.98409364258317 2:-35.004601309041256 
-1.0 1:-26.086840112657484 2:-24.064172254521782 
1.0 1:38.90459165382443 2:39.50436409853626 
-1.0 1:24.155150636026153 2:3.4392930110964683 
-1.0 1:-31.163131729373887 2:19.94272344209178 
-1.0 1:-17.387075536451785 2:-30.013780479741154 
-1.0 1:-19.36290058147254 2:10.817538534255837 
1.0 1:7.195095383590307 2:-43.311963091749355 
-1.0 1:0.3867425329167177 2:10.385552590972837 
-1.0 1:-5.753217198331864 2:-18.740508602437547 
1.0 1:-33.47457361965509 2:29.354721067510134 
-1.0 1:-28.67377347562304 2:5.540166438662843 
1.0 1:-32.992932196167814 2:-48.56327441905065 
-1.0 1:-12.179575650921628 2:-12.2446433852522 
-1.0 1:-36.12329349835435 2:8.87023825791408 
-1.0 1:-44.04056053608198 2:0.15978577779862788 
1.0 1:36.89995308784469 2:26.922708324063013 
-1.0 1:16.3486193211216 2:-8.64851439981403 
1.0 1:-37.46188037507212 2:23.015954627915235 
-1.0 1:40.66753939919537 2:11.06324934882355 
-1.0 1:-3.3194199443894745 2:7.550377121797913 
-1.0 1:19.214563034039625 2:14.114059121037167 
-1.0 1:0.40292258714580287 2:-9.392401031992042 
-1.0 1:-15.500404015665618 2:-2.4880814586325086 
-1.0 1:24.886500316899212 2:-28.530911125784762 
-1.0 1:-11.608152796863207 2:-4.020163944972516 
1.0 1:-43.92455140299043 2:29.179563186814665 
1.0 1:-46.12486021166097 2:27.447363656891007 
-1.0 1:-0.6490053950143996 2:-28.423175832469507 
1.0 1:-47.515363122782844 2:23.564844920839118 
1.0 1:-20.296984262420093 2:44.609306418965076 
1.0 1:-19.5052073570978 2:-42.62004349967752 
1.0 1:48.61921675502474 2:9.81321125154294 
1.0 1:31.228136736592173 2:-27.365447137463132 
-1.0 1:-21.70324017445844 2:10.499461009346627 
1.0 1:35.12548805620105 2:-44.00520769796991 
-1.0 1:-41.914651095067455 2:-11.955068364259908 
-1.0 1:7.50891183827479 2:-15.256623526068138 
1.0 1:7.2900211927032625 2:48.145389442025966 
-1.0 1:43.781313453332615 2:-8.33199044962504 
1.0 1:-0.25598568392401955 2:34.49446809490007 
-1.0 1:23.055893342438186 2:21.85268856310546 
1.0 1:38.01985090663704 2:22.73825151407575 
-1.0 1:23.472432222600943 2:8.527663598668527 
1.0 1:34.127462997755025 2:49.35494675663325 
-1.0 1:8.844280756710472 2:-14.8244347604706 
-1.0 1:32.17917847299383 2:4.800813938342579 
1.0 1:-10.573949803509198 2:-41.876366719011536 
-1.0 1:-22.441904726838676 2:26.516234862594793 
1.0 1:-4.410477957287933 2:40.504158304849845 
-1.0 1:14.60035255152832 2:-23.732116668723474 
1.0 1:14.82846493350558 2:-37.797547275129666 
-1.0 1:11.163373013800081 2:24.694727955328627 
1.0 1:41.772919254968556 2:-32.30744929695939 
1.0 1:33.12684281828196 2:-42.29335243806667 
1.0 1:-46.291759195635024 2:-12.568877524481023 
1.0 1:48.99923788046245 2:40.96190362315431 
1.0 1:-4.192774057450565 2:48.539169400699116 
-1.0 1:32.007060925337186 2:8.291080925624206 
1.0 1:-16.296074605100635 2:-41.33482809743601 
1.0 1:-35.549714058796965 2:43.45256650721695 
1.0 1:32.8305525575944 2:-49.76139226240722 
-1.0 1:-12.76878577723824 2:-23.496754916258222 
-1.0 1:-2.3000552127816665 2:2.807848156281551 
1.0 1:-44.35693468164637 2:-15.79248484526326 
1.0 1:45.09744077286223 2:-12.425542531913356 
-1.0 1:42.1798264321052 2:7.883159933421981 
-1.0 1:11.219970615596413 2:0.3334125332848926 
1.0 1:31.30564237215969 2:-49.03377032495488 
1.0 1:45.03150093983764 2:-15.220202366079649 
-1.0 1:4.313094525484535 2:24.570296096159346 
1.0 1:49.85154570763904 2:8.397330037223197 
-1.0 1:2.1240475562462056 2:14.41394275522661 
1.0 1:-36.21787106599555 2:-22.564764913220646 
1.0 1:43.56043579634838 2:-14.150866199310352 
1.0 1:-21.004643166047416 2:-47.08796587303955 
-1.0 1:-7.143230091418806 2:-12.145974134549125 
-1.0 1:-19.09447456056847 2:-15.625317471786177 
1.0 1:48.777636745193085 2:49.53846682791195 
-1.0 1:24.503991729622737 2:-23.61438719548153 
1.0 1:23.4174764774692 2:44.0891397995808 
-1.0 1:26.863414992935247 2:-6.830614084618725 
1.0 1:-44.925819505354184 2:-27.215881487129675 
-1.0 1:-2.7760509747291167 2:-1.133268614733501 
-1.0 1:-24.214514278558838 2:-12.901908077224299 
1.0 1:41.104184293379085 2:-41.20836190010186 
1.0 1:32.34739643096418 2:26.30800298745705 
-1.0 1:41.707060523472805 2:-14.425124069062848 
1.0 1:-24.82225207037429 2:-29.30656490701576 
-1.0 1:17.167181104048648 2:29.69788807021262 
1.0 1:-28.34934362123395 2:-48.53529114440694 
-1.0 1:37.35667370553693 2:-15.854298125301343 
1.0 1:-16.32495666307868 2:-40.64458426091673 
1.0 1:-47.961066508540895 2:37.2088149356181 
1.0 1:-31.783594992002072 2:48.63121089968742 
-1.0 1:-20.802559614373095 2:-29.941069921933295 
1.0 1:47.73935209491424 2:-15.161443440283806 
1.0 1:-47.06235333592481 2:-48.73499986212267 
-1.0 1:-39.62272792442391 2:1.999484062437827 
1.0 1:-48.04811288028698 2:28.50036355644683 
1.0 1:-4.4020934521146025 2:40.70510608755658 
-1.0 1:-24.285285456553368 2:12.203121812897045 
-1.0 1:-19.111984799323572 2:26.806427532403283 
1.0 1:48.02811185178918 2:-42.174117595295954 
1.0 1:-27.97027634735157 2:-47.27943802604479 
-1.0 1:18.675584440690848 2:1.195701488911552 
-1.0 1:22.27622650772099 2:0.6286914733119782 
-1.0 1:-1.4519494838420368 2:11.308244807073674 
-1.0 1:-36.305908737989 2:-14.913352162204156 
1.0 1:41.06985488526396 2:33.110439626030946 
1.0 1:-36.10659372730204 2:48.72043007505652 
1.0 1:49.204878088976876 2:-9.895113462923321 
1.0 1:16.42666414298652 2:-49.06946352044737 
-1.0 1:27.838813254405483 2:-14.247113013463215 
1.0 1:5.539743249025082 2:44.29343386336026 
1.0 1:-39.683841832016434 2:-28.73199443549612 
1.0 1:-36.456304512505014 2:-38.89616192127898 
1.0 1:-0.8346718115802613 2:34.829488972601396 
-1.0 1:17.402762350412264 2:-7.983975032418672 
1.0 1:-41.367490878607164 2:-25.121526930355394 
1.0 1:31.572184728103426 2:-40.27233783305956 
1.0 1:-21.116514070665925 2:-30.41550184382242 
-1.0 1:-5.446198080584911 2:20.60526402439517 
1.0 1:45.139247020890096 2:-40.92305695570521 
1.0 1:-23.242447527748883 2:-46.518467879160106 
1.0 1:-22.33794972930026 2:38.996390264854504 
-1.0 1:-40.23757183142643 2:8.178438451742867 
-1.0 1:31.858474281611258 2:-19.677155154196242 
-1.0 1:16.494133993313007 2:7.3969703991671025 
1.0 1:46.10901647453251 2:35.30642192197512 
-1.0 1:-7.736529745227371 2:-8.929430398167062 
-1.0 1:-37.84776702753761 2:-0.5580042248553136 
-1.0 1:-26.95274458515443 2:-6.277450031157745 
1.0 1:-42.96333082768492 2:46.53916744043014 
1.0 1:-20.452523778234237 2:-46.96636038389607 
-1.0 1:27.80693974985353 2:2.6605223774828954 
-1.0 1:22.32246525127627 2:28.656446872501288 
-1.0 1:4.372862026929566 2:21.73244129466735 
1.0 1:37.36257521166337 2:40.98312818458956 
1.0 1:-39.13870712822502 2:-38.22867148791095 
1.0 1:39.7663539253616 2:47.61097327820334 
-1.0 1:-2.5572687594336485 2:10.150289459274168 
1.0 1:39.19620332092514 2:41.69687341418701 
1.0 1:-39.550021339793496 2:-34.46234991366298 
1.0 1:12.038462220446341 2:-34.29666785368123 
1.0 1:-4.287891134375735 2:-40.876468816892285 
1.0 1:-49.86155753953325 2:-7.900732301160002 
1.0 1:32.65610636867085 2:-37.67457946794834 
-1.0 1:-16.0802257719068 2:-18.539827145464386 
1.0 1:5.623538876852528 2:-48.712493067643436 
1.0 1:-9.874872022004348 2:-33.67452570601851 
1.0 1:-47.309823105082124 2:-17.35448380577062 
1.0 1:13.902887090577668 2:39.197310086567235 
1.0 1:1.3108363728091568 2:-47.23574797597255 
1.0 1:-29.472626819600837 2:-42.74783132218503 
-1.0 1:-2.9189783290996756 2:18.671753734382804 
-1.0 1:-18.524206962811455 2:4.613992381943882 
1.0 1:-17.68740752724958 2:49.32409552013394 
1.0 1:-29.661510967474918 2:36.572535571508084 
1.0 1:5.860355219443432 2:-44.36934626273187 
-1.0 1:2.602962772802164 2:-28.23797686385199 
-1.0 1:-10.887962030100974 2:20.643816354582587 
1.0 1:-18.416729892889506 2:-31.797469299258886 
1.0 1:-29.01674648172167 2:-49.87269742435773 
-1.0 1:-24.194845974092 2:-12.58079737857302 
-1.0 1:18.111485190832404 2:-28.653403911839277 
-1.0 1:-28.941725997370327 2:12.577588757590043 
-1.0 1:-44.90584051862809 2:7.865631332145852 
-1.0 1:10.226678168947155 2:31.0074586332468 
-1.0 1:4.63200468156639 2:20.050509575125403 
-1.0 1:33.31617037331522 2:10.934110517520628 
-1.0 1:10.608162292137477 2:-19.106153256187145 
1.0 1:26.324888695935368 2:35.75490422586932 
1.0 1:-39.8514264325812 2:29.962458767611274 
-1.0 1:8.428656238807681 2:4.222217887572364 
-1.0 1:-22.76518655396596 2:-6.106806941374378 
1.0 1:-31.82445502813565 2:-46.32632386971214 
1.0 1:37.410632419732664 2:36.32384754954993 
-1.0 1:3.080610132198802 2:-13.39576713362682 
-1.0 1:-18.229440618854632 2:4.780570464636795 
1.0 1:21.994721589645035 2:44.16028822608816 
1.0 1:43.85172580740887 2:17.541406229647993 
-1.0 1:-17.729385735302028 2:24.346247309355128 
-1.0 1:14.491359310208342 2:-28.56937824650041 
-1.0 1:-45.284655374596255 2:-1.0058064783953198 
1.0 1:39.81224499469768 2:22.16176497756961 
-1.0 1:-33.54445695663791 2:-1.1043695156884301 
-1.0 1:42.133394876388635 2:-9.11160173308479 
-1.0 1:-23.257425556657076 2:-18.360540031499482 
-1.0 1:12.298847794639991 2:14.60326814757639 
1.0 1:-37.21206169155284 2:22.80700893939081 
1.0 1:-3.076713468067772 2:41.84540779912924 
-1.0 1:-38.43143754834916 2:15.42924258305682 
-1.0 1:-10.617141285485493 2:-16.72907616037333 
-1.0 1:36.08382091249522 2:-15.516147607640951 
-1.0 1:-33.86731335317691 2:-22.494124289757234 
-1.0 1:-8.332584080206793 2:-2.9248066960545303 
1.0 1:-42.37939164603134 2:25.023087865007422 
1.0 1:30.180302248208598 2:-47.020635022369646 
-1.0 1:7.548095885374677 2:28.28047406664775 
1.0 1:24.838757922209044 2:39.56590597255637 
-1.0 1:-28.181931523445197 2:-26.452085753337556 
1.0 1:27.7725902426714 2:-31.20163691096424 
-1.0 1:-11.61528497487091 2:-29.031159623512032 
1.0 1:40.65616015253048 2:48.930003400691376 
1.0 1:-15.483578602693163 2:-48.63876998414341 
1.0 1:-44.100706174236244 2:14.246426910383315 
1.0 1:23.420713125741816 2:-33.65896472307233 
-1.0 1:41.99761000533972 2:-11.793460022273932 
-1.0 1:14.751074850720256 2:-12.7653832756547 
-1.0 1:-23.09748827619162 2:-21.57283617376711 
1.0 1:-36.644267586782945 2:34.894809770527495 
1.0 1:23.188825147053475 2:-47.54189823799405 
1.0 1:3.1692000999493355 2:44.0750788339071 
1.0 1:-14.95179289755932 2:-38.35233013698714 
1.0 1:-36.67665509394467 2:-37.66083826923262 
-1.0 1:19.963447089831483 2:-18.602865685897086 
-1.0 1:-44.185776992725245 2:-6.692037491475169 
-1.0 1:7.466930842276789 2:17.11001329311309 
1.0 1:-4.889562343051117 2:49.72855515262721 
-1.0 1:25.715087273905205 2:20.886471504205623 
-1.0 1:32.466458002066716 2:22.9670313531172 
1.0 1:-22.67967894328258 2:37.85093370296471 
1.0 1:-44.63090550551172 2:37.519623947019724 
-1.0 1:-17.218935954304253 2:25.462142392950526 
-1.0 1:16.413627260109592 2:-0.5701460196435822 
-1.0 1:-13.647525322945283 2:17.186429956432104 
-1.0 1:16.882594532155696 2:-4.885019479173657 
1.0 1:44.493166039611694 2:-24.209716601159545 
-1.0 1:-2.8754727327933614 2:15.978027781174939 
1.0 1:9.767961681317324 2:34.70724272238771 
1.0 1:41.18546171744766 2:-18.737734180169372 
-1.0 1:20.315857076401528 2:-15.428230612856735 
1.0 1:-43.60148428650461 2:39.71639353643882 
1.0 1:-28.39571202667811 2:43.217524388678946 
-1.0 1:-12.075452959784924 2:3.7526257292558816 
-1.0 1:22.477524761406887 2:10.882934444905134 
1.0 1:3.89130830529968 2:-39.50286118984301 
-1.0 1:-9.254130062508544 2:-14.659420693644272 
1.0 1:-0.21403052849209417 2:-37.603049434636524 
1.0 1:-42.87761644637084 2:38.80342066914374 
-1.0 1:13.914197851204976 2:6.52202453791155 
-1.0 1:-31.88578403750226 2:-11.902094150396074 
-1.0 1:-12.643427373427869 2:9.543117410941472 
1.0 1:38.77911077535588 2:45.76742994135527 
-1.0 1:-2.7416016464865693 2:-29.66362125034412 
-1.0 1:18.376952907587025 2:-1.9667865519384522 
1.0 1:-46.67669145868822 2:20.817593314273644 
1.0 1:-40.10861176753382 2:-37.021646677299366 
1.0 1:-41.58320012068504 2:25.49059505106199 
1.0 1:-23.661154973689612 2:-34.55169015842852 
1.0 1:8.472525674914456 2:-36.93701634531644 
-1.0 1:23.255246658646318 2:-10.265394043867499 
1.0 1:-21.467171276630285 2:44.109226930310335 
1.0 1:-41.51080672471256 2:47.48797483166133 
-1.0 1:-10.311290712956819 2:31.54970815431638 
-1.0 1:-32.57867498672425 2:13.946269119568043 
-1.0 1:-6.734805703892034 2:-1.570413853143928 
1.0 1:-20.034725495490896 2:48.07567996115928 
1.0 1:-48.68545727858289 2:-24.818246814249765 
1.0 1:-21.049157219870576 2:41.6260577075788 
1.0 1:45.757153603664335 2:26.987939738483824 
1.0 1:-47.65143487131617 2:-26.65879514126769 
1.0 1:-2.031043898152976 2:-45.863065358525354 
-1.0 1:-0.24946213791110985 2:-27.796908438819074 
-1.0 1:19.822326755093204 2:5.892758802180684 
-1.0 1:12.408703324100312 2:-32.273280989251745 
-1.0 1:3.8072925868863456 2:8.700249966572969 
-1.0 1:-5.864340633190867 2:-2.844423782286209 
1.0 1:-42.7011881250584 2:-27.374844276506643 
-1.0 1:7.3267141498123936 2:-29.228963329817148 
1.0 1:-45.60727893844746 2:-18.964882446210915 
-1.0 1:18.816996244068335 2:-19.524396660864653 
-1.0 1:-17.850541948403638 2:-17.635156771738284 
-1.0 1:7.523999133284604 2:2.2514305526824945 
1.0 1:-38.12590567566378 2:-40.63553238422749 
-1.0 1:20.304484678754385 2:19.406009121666624 
1.0 1:42.344551131587195 2:-41.372593445823235 
-1.0 1:42.78006817965116 2:-13.704772395831728 
1.0 1:-26.253835532392184 2:37.28117537152217 
1.0 1:27.85459368326705 2:-43.735297633398275 
-1.0 1:-39.69087699589667 2:11.409697372778025 
1.0 1:4.73609030660142 2:-45.98966612256233 
-1.0 1:-1.5237517018341395 2:26.89334439915206 
1.0 1:38.96914351431147 2:37.03717570927252 
-1.0 1:-35.37819096298909 2:-21.026695993321972 
1.0 1:46.35100851556457 2:10.809786427859235 
1.0 1:5.484225869870461 2:-46.81492044956756 
-1.0 1:13.346626425530587 2:-13.642329083229061 
-1.0 1:14.3392769176904 2:-2.7950929332346894 
1.0 1:45.195469348680334 2:30.78564467660334 
-1.0 1:26.073170437231365 2:-16.88306891672112 
1.0 1:-35.444669245803766 2:28.87549636296419 
-1.0 1:19.89058266082728 2:11.618800203189275 
-1.0 1:-36.912501339779176 2:-13.084087034278062 
-1.0 1:11.108637502955169 2:-7.703275486407728 
-1.0 1:-19.471117992652676 2:-19.499902211808653 
1.0 1:30.430832327877578 2:-47.89437933299539 
1.0 1:29.13280436475377 2:-45.66458701757123 
-1.0 1:15.122933626124103 2:-0.993832783017571 
1.0 1:-36.750289951628325 2:-28.207323725537446 
1.0 1:-44.003832596429305 2:36.165493588148905 
-1.0 1:2.7252497719104563 2:24.9815077666263 
-1.0 1:6.779352377621591 2:-6.067960740499409 
1.0 1:-22.10098908480344 2:-48.314898416537496 
-1.0 1:-9.727382650172725 2:-9.43888854666408 
1.0 1:-37.997391393394956 2:-37.7250801450177 
-1.0 1:-40.40922870241709 2:-11.376209459341267 
1.0 1:12.685842081672678 2:-46.85245039952762 
-1.0 1:-19.60216127013287 2:-5.513297715098812 
-1.0 1:-12.547356907676441 2:-4.310052482276796 
-1.0 1:-22.53252147340912 2:-5.348853920885516 
1.0 1:44.23709661509758 2:44.65827998281668 
1.0 1:46.883951083319275 2:47.17157225571436 
-1.0 1:32.7358968562992 2:9.26272547361177 
-1.0 1:7.43221189566984 2:-32.675327340553075 
-1.0 1:10.14537541367098 2:14.635444691458135 
-1.0 1:-18.459476437460925 2:17.45157428504693 
1.0 1:-47.59527572964873 2:30.355251558985117 
-1.0 1:-8.846931535140667 2:-1.370116886301287 
-1.0 1:-14.840434649765214 2:-16.41762003511496 
1.0 1:-44.65763889651528 2:33.895934930477615 
1.0 1:39.14719055620031 2:46.310183227489915 
-1.0 1:-7.265829144284657 2:19.140406650939322 
-1.0 1:30.54257070768391 2:-4.554903643062832 
1.0 1:-36.90438022523702 2:25.267484484554053 
-1.0 1:-3.5179091318374094 2:16.743008723898242 
1.0 1:-36.20807055933991 2:-44.32051225151215 
-1.0 1:-14.228782944437071 2:-31.49509510208962 
1.0 1:-35.1156938732932 2:37.38311030510967 
-1.0 1:-27.482668940713314 2:-14.861961598191687 
-1.0 1:10.667979678322123 2:19.85132607319396 
1.0 1:40.635283561365505 2:-25.33765355987323 
1.0 1:-3.488676863333879 2:-46.932316343186656 
1.0 1:-39.45379905520916 2:-37.551068346834754 
1.0 1:49.8205877353782 2:-29.08519195492974 
1.0 1:-43.05895273740491 2:-22.81575755388635 
-1.0 1:35.58020772929974 2:5.289242170565053 
1.0 1:46.74288977875939 2:-15.509369231667971 
1.0 1:-45.71616900493982 2:33.88863973710156 
1.0 1:-43.04312792489332 2:30.532971656469496 
1.0 1:42.677160414669686 2:-47.38981579314279 
1.0 1:-16.304403364475913 2:-39.20624152494781 
-1.0 1:-38.58838142564377 2:-12.481182755312053 
1.0 1:-3.2184730677051254 2:41.95266099642285 
1.0 1:0.6947292704017581 2:-41.41131321419041 
1.0 1:-34.73771113617812 2:24.938385876560076 
1.0 1:32.92269217712639 2:-42.571583880758176 
1.0 1:13.463416322593575 2:-45.92210707295354 
1.0 1:-38.63225847257842 2:-35.6134480666849 
-1.0 1:-15.173366586126265 2:-0.059054185545955575 
1.0 1:1.5413752427113439 2:35.87572980620158 
1.0 1:7.38544506661435 2:39.94963270275752 
1.0 1:4.773678890314614 2:39.04535977321443 
-1.0 1:-14.567137561145055 2:9.112029508394501 
-1.0 1:-20.33367881724006 2:6.587570006153762 
-1.0 1:3.9751284354345096 2:-30.12401430755907 
-1.0 1:21.296214198400346 2:23.116918725366208 
1.0 1:-28.9632120151116 2:47.091688774330095 
-1.0 1:-36.52308820454189 2:9.287651289755123 
1.0 1:-12.313654748539943 2:38.16358150534406 
-1.0 1:-16.96549758689612 2:-21.542994883943145 
1.0 1:32.870510306489415 2:-41.942004958345876 
1.0 1:-41.004793957436654 2:44.261663229555346 
1.0 1:23.31813528336809 2:-48.991609765963666 
1.0 1:-41.540623518101974 2:-29.732216032930197 
1.0 1:-42.441306397246436 2:-31.017892660778333 
1.0 1:8.744182482247492 2:-39.029687394071374 
-1.0 1:-45.82616368874463 2:2.6848740648252036 
-1.0 1:-13.409943457217597 2:5.880201253872533 
-1.0 1:29.473557424812295 2:-19.030037322665063 
-1.0 1:21.933104364885388 2:-20.753445928884194 
-1.0 1:-19.77872001275565 2:-23.489897063363287 
1.0 1:-30.805014189452514 2:-29.78965962604009 
1.0 1:41.21274991557463 2:45.193025427765726 
1.0 1:38.68167579039752 2:-23.60596150497361 
1.0 1:32.53565490911219 2:-34.08383315342831 
1.0 1:-44.116825269709246 2:42.9188801903466 
1.0 1:-47.56028357087398 2:-29.141953858806573 
1.0 1:-36.54933685848459 2:-29.656044221107138 
1.0 1:46.38310297164338 2:37.14766786967687 
-1.0 1:-13.357104790395782 2:11.62473392635325 
-1.0 1:35.54659862665433 2:16.45267311285177 
1.0 1:23.588563592933184 2:36.22035865414973 
-1.0 1:-14.05615130842971 2:-2.8040562301075402 
-1.0 1:0.9890905998201643 2:7.704114232672515 
1.0 1:-2.7238584079187507 2:-36.624177986203584 
1.0 1:-47.3845907665791 2:10.539277736172876 
1.0 1:31.614909898873623 2:34.01338728165624 
1.0 1:47.97496312901646 2:-3.3508371212631762 
1.0 1:-23.653196682620223 2:46.98055575906245 
1.0 1:13.891415380468079 2:-39.23690160283128 
-1.0 1:-4.771190807670389 2:-8.425550845089553 
1.0 1:-10.717821689189345 2:-47.47182894957735 
1.0 1:-30.090974715578497 2:-28.84487923868733 
1.0 1:-7.880171830618055 2:-33.75102417536321 
-1.0 1:33.91455514299684 2:18.468678372011798 
-1.0 1:-21.946600351571135 2:18.308499511635336 
-1.0 1:-15.886241526407613 2:-1.2946958299522826 
1.0 1:49.57815926746703 2:-27.407349539510705 
-1.0 1:-43.86543024723693 2:2.7511710857221683 
-1.0 1:35.893144926784615 2:14.984418702911002 
1.0 1:46.86592554935103 2:38.77408381948978 
-1.0 1:-3.7951879945615783 2:-7.391805089689617 
-1.0 1:-1.9063652600350107 2:-19.273935339628082 
-1.0 1:24.780894551982982 2:28.23957086373429 
-1.0 1:-10.625213690952668 2:-5.122493169840185 
-1.0 1:35.93886961334461 2:-19.014539674363334 
1.0 1:7.1769600981682276 2:44.67162939495643 
-1.0 1:-39.30039225363942 2:10.173525423346769 
1.0 1:2.6138870216620314 2:43.63818820447305 
-1.0 1:18.19923483671827 2:-19.623807979592545 
1.0 1:-49.429235571305966 2:-29.58595166082771 
-1.0 1:33.102569308331915 2:5.081939674844139 
1.0 1:33.003998709125675 2:-32.36016752838074 
1.0 1:-6.6302329178905035 2:-47.88339525129244 
-1.0 1:-9.994830816370522 2:2.2061944857104034 
-1.0 1:6.808177689530126 2:27.85286639373564 
-1.0 1:40.516093199044796 2:11.433150998532708 
-1.0 1:-35.56094037161642 2:-1.7006312408853133 
1.0 1:-36.985941357779524 2:-31.423308651142094 
1.0 1:36.53295166412289 2:-44.798755356910405 
1.0 1:-29.51055597813137 2:-48.44474234018689 
1.0 1:28.542465347137238 2:-43.16831970374996 
-1.0 1:-15.438687688121158 2:-25.507476307231215 
1.0 1:33.23251238522866 2:46.06384640837645 
-1.0 1:34.84926024876659 2:-15.09529193802181 
1.0 1:-5.589631416850756 2:-48.022499928286265 
1.0 1:14.880895082399006 2:38.35091682006361 
1.0 1:30.658479921709066 2:30.740877193679758 
-1.0 1:-8.164431838249659 2:-5.099811085950207 
-1.0 1:40.03270580764086 2:-14.207752992044325 
-1.0 1:-35.494738633030444 2:-21.271068030957956 
-1.0 1:22.81988330740354 2:-18.325709860907345 
1.0 1:-40.00935289145395 2:24.20997444695869 
-1.0 1:-31.064380497095758 2:15.450242130679548 
-1.0 1:13.185526494734056 2:3.1193437778258097 
1.0 1:1.1459195596436533 2:-41.143325076026684 
1.0 1:32.3791690683702 2:45.49167577094016 
-1.0 1:-25.316848671570916 2:-17.117140871300485 
-1.0 1:-32.94699949797209 2:20.598101279932834 
1.0 1:-0.8838718115325331 2:-43.58260687248533 
-1.0 1:29.626756751972966 2:-5.891007837073448 
1.0 1:15.907069687698357 2:39.03021334165674 
-1.0 1:37.255949621988215 2:-5.866240432806716 
1.0 1:28.000907381835038 2:27.19312528357018 
-1.0 1:-23.725137179825666 2:-13.358756527450955 
1.0 1:16.017400588568012 2:43.02435148249456 
-1.0 1:-12.724741734535792 2:-11.309898371205799 
-1.0 1:-4.591355797209097 2:-3.7148134746947346 
1.0 1:-37.98193293288604 2:30.77062590209786 
-1.0 1:36.19605712650267 2:2.901794727235647 
1.0 1:34.6471903974472 2:-34.09562637603591 
-1.0 1:-11.956792812750601 2:-19.924530815965635 
-1.0 1:32.89582870874044 2:-3.4705511091088916 
-1.0 1:23.205011272147544 2:-7.812138477581235 
1.0 1:21.372808459506153 2:42.721581777521365 
-1.0 1:-14.832886270635687 2:9.194626944875115 
1.0 1:28.96959195818178 2:-39.70624877737499 
1.0 1:47.3432179255472 2:-30.245348648220297 
1.0 1:-42.11327915763574 2:-16.012147871887986 
1.0 1:25.555225506823547 2:-49.451971551756024 
1.0 1:25.63833535371991 2:-37.36777962735036 
-1.0 1:-25.384982620036507 2:-1.2756431038127094 
-1.0 1:13.731483552338034 2:-28.011713983088967 
1.0 1:49.63657834438728 2:16.076367142586566 
1.0 1:15.803140062545326 2:-33.365081670768475 
-1.0 1:-37.028877829798766 2:-4.010829619537231 
1.0 1:45.95367529126286 2:42.17576869286101 
1.0 1:-21.748851823555142 2:42.81039944943136 
1.0 1:-27.555137993143084 2:-29.63322982614141 
-1.0 1:-20.31566284935729 2:-5.72379904110132 
1.0 1:-24.792617177650946 2:33.40318667547366 
-1.0 1:24.483179307428816 2:-6.572390137881793 
1.0 1:-46.58548763580765 2:39.25593636548095 
-1.0 1:-13.376769592469174 2:-15.720441490311153 
-1.0 1:14.159247829760513 2:24.33853930216569 
-1.0 1:0.8678372113352849 2:14.436037193761843 
1.0 1:35.270795977178935 2:23.43658905927996 
1.0 1:45.822301329983 2:-25.71290412407396 
1.0 1:-24.611937820305016 2:42.79155409064923 
-1.0 1:-14.612092810458773 2:20.914022384880962 
1.0 1:-29.75824019359643 2:-44.50232330434184 
-1.0 1:-31.31101943331488 2:-10.81906977284667 
1.0 1:-10.07945687780625 2:-39.82735657863975 
-1.0 1:12.253544110869315 2:-12.419894498090926 
1.0 1:47.4368781978822 2:-32.477434406933945 
-1.0 1:1.309393078589811 2:-28.698797696407887 
-1.0 1:36.848440046302265 2:-7.311122178060498 
-1.0 1:33.30572464275466 2:15.054853260067356 
-1.0 1:-30.043778008618876 2:8.473894277746602 
1.0 1:-14.330841642622937 2:41.75435789824099 
1.0 1:28.238594507401373 2:-33.04399242936213 
-1.0 1:-4.935751261907457 2:-15.008845373502956 
1.0 1:28.775051196760945 2:46.43532291780013 
1.0 1:-31.449720515762557 2:-25.3828752259372 
-1.0 1:-3.7162590897360976 2:12.689704962050634 
-1.0 1:10.729967800074133 2:13.622326102257883 
-1.0 1:-0.7482941325747954 2:24.704305945051328 
-1.0 1:-26.579625957534265 2:15.17484309713696 
1.0 1:20.456753472231416 2:34.20890226913525 
-1.0 1:-0.9878267636102479 2:12.094516527239398 
-1.0 1:-25.25121015426929 2:24.843627675489852 
-1.0 1:9.74959656471435 2:-20.210552991269164 
1.0 1:-36.298678537445866 2:-22.030664151480835 
1.0 1:42.86267781354848 2:-16.716767226820647 
1.0 1:28.622995443629865 2:-36.6514301279161 
1.0 1:49.273794274171934 2:31.363354754706215 
-1.0 1:9.50266794151237 2:-10.93867914242332 
1.0 1:-4.436143015205066 2:35.01624945024875 
-1.0 1:-25.853664497104347 2:-0.8249381796256174 
-1.0 1:-24.39305842922456 2:3.6608189649186134 
-1.0 1:23.34907110461585 2:19.89442377234232 
1.0 1:33.695635619693434 2:-45.49403238787234 
-1.0 1:-22.901289440489304 2:0.7538216645059787 
1.0 1:45.061848407882664 2:-34.526496649756325 
-1.0 1:40.9577120244962 2:11.96223146207758 
-1.0 1:-10.333387276032092 2:-11.42358090533233 
1.0 1:-45.292199149852706 2:16.6924300990806 
