svm_type c_svc
kernel_type rbf
gamma 0.5
nr_class 2
total_sv 174
rho -5.740581273967202E-5
label 1 -1
nr_sv 87 87
SV
32.0 1:-0.00171072855338846 2:-0.17686741754107033 3:-0.11474053003215941 4:-0.014689468588010514 
32.0 1:-0.24503840524024117 2:-0.07044240397192236 3:-0.11474053003215941 4:-0.014689468588010514 
32.0 1:-0.24503840524024117 2:-0.07044240397192236 3:-0.00171072855338846 4:-0.17686741754107033 
32.0 1:0.10696901651054622 2:0.1598657139980802 3:-0.11474053003215941 4:-0.014689468588010514 
32.0 1:0.10696901651054622 2:0.1598657139980802 3:-0.00171072855338846 4:-0.17686741754107033 
32.0 1:0.10696901651054622 2:0.1598657139980802 3:-0.24503840524024117 4:-0.07044240397192236 
32.0 1:0.36542705468291026 2:-0.05236822653565636 3:-0.00171072855338846 4:-0.17686741754107033 
32.0 1:0.36542705468291026 2:-0.05236822653565636 3:-0.24503840524024117 4:-0.07044240397192236 
4.273668106218629 1:0.36542705468291026 2:-0.05236822653565636 3:0.10696901651054622 4:0.1598657139980802 
32.0 1:-0.013097664905518627 2:0.3272748052843686 3:-0.11474053003215941 4:-0.014689468588010514 
32.0 1:-0.013097664905518627 2:0.3272748052843686 3:-0.00171072855338846 4:-0.17686741754107033 
32.0 1:-0.013097664905518627 2:0.3272748052843686 3:-0.24503840524024117 4:-0.07044240397192236 
32.0 1:-0.013097664905518627 2:0.3272748052843686 3:0.10696901651054622 4:0.1598657139980802 
32.0 1:-0.013097664905518627 2:0.3272748052843686 3:0.36542705468291026 4:-0.05236822653565636 
21.009697271861352 1:0.47905498614067527 2:-0.09420941467444541 3:-0.00171072855338846 4:-0.17686741754107033 
26.975865209765193 1:0.47905498614067527 2:-0.09420941467444541 3:-0.24503840524024117 4:-0.07044240397192236 
32.0 1:0.47905498614067527 2:-0.09420941467444541 3:0.36542705468291026 4:-0.05236822653565636 
32.0 1:0.23570674752412177 2:-0.14288844079410268 3:-0.11474053003215941 4:-0.014689468588010514 
32.0 1:0.23570674752412177 2:-0.14288844079410268 3:-0.00171072855338846 4:-0.17686741754107033 
32.0 1:0.23570674752412177 2:-0.14288844079410268 3:-0.24503840524024117 4:-0.07044240397192236 
32.0 1:0.23570674752412177 2:-0.14288844079410268 3:0.10696901651054622 4:0.1598657139980802 
32.0 1:0.23570674752412177 2:-0.14288844079410268 3:0.36542705468291026 4:-0.05236822653565636 
32.0 1:0.23570674752412177 2:-0.14288844079410268 3:-0.013097664905518627 4:0.3272748052843686 
32.0 1:0.23570674752412177 2:-0.14288844079410268 3:0.47905498614067527 4:-0.09420941467444541 
2.4086590816556672 1:-0.7369541349035416 2:0.515851809220356 3:-0.24503840524024117 4:-0.07044240397192236 
14.099491867971949 1:-0.7369541349035416 2:0.515851809220356 3:0.47905498614067527 4:-0.09420941467444541 
12.374220081081708 1:-0.2919603975493551 2:-0.22492039593949892 3:-0.00171072855338846 4:-0.17686741754107033 
22.50990097248663 1:-0.2919603975493551 2:-0.22492039593949892 3:-0.24503840524024117 4:-0.07044240397192236 
3.3533968704732455 1:-0.2919603975493551 2:-0.22492039593949892 3:0.10696901651054622 4:0.1598657139980802 
32.0 1:-0.2919603975493551 2:-0.22492039593949892 3:0.36542705468291026 4:-0.05236822653565636 
32.0 1:-0.2919603975493551 2:-0.22492039593949892 3:-0.013097664905518627 4:0.3272748052843686 
32.0 1:-0.2919603975493551 2:-0.22492039593949892 3:0.47905498614067527 4:-0.09420941467444541 
32.0 1:-0.2919603975493551 2:-0.22492039593949892 3:0.23570674752412177 4:-0.14288844079410268 
32.0 1:-0.2919603975493551 2:-0.22492039593949892 3:-0.7369541349035416 4:0.515851809220356 
32.0 1:-0.34918362689349314 2:-0.2734991312070706 3:0.47905498614067527 4:-0.09420941467444541 
32.0 1:-0.34918362689349314 2:-0.2734991312070706 3:-0.7369541349035416 4:0.515851809220356 
32.0 1:-0.34918362689349314 2:-0.2734991312070706 3:-0.2919603975493551 4:-0.22492039593949892 
15.145496832744685 1:-0.9311426038312893 2:0.4888918501466822 3:-0.7369541349035416 4:0.515851809220356 
32.0 1:-0.9311426038312893 2:0.4888918501466822 3:-0.34918362689349314 4:-0.2734991312070706 
6.495018168098282 1:-0.9593782847618887 2:0.5871860736771768 3:-0.34918362689349314 4:-0.2734991312070706 
32.0 1:-0.9593782847618887 2:0.5871860736771768 3:-0.9311426038312893 4:0.4888918501466822 
0.4570833198658478 1:0.7487795086438946 2:1.3643329545329141 3:0.3167055664533249 4:-1.2649541130759734 
0.11722097878435923 1:-1.6566327514387684 2:0.6873863038778739 3:0.7487795086438946 4:1.3643329545329141 
4.1549211314033565 1:-2.0277734432604695 2:0.25366929205484995 3:-1.6566327514387684 4:0.6873863038778739 
5.091708410523866 1:-2.128766495147481 2:0.7855507931687337 3:-2.0277734432604695 4:0.25366929205484995 
0.26272263025248344 1:-1.382067431185078 2:-2.365045645772234 3:0.7487795086438946 4:1.3643329545329141 
0.19931828180472277 1:-1.382067431185078 2:-2.365045645772234 3:-2.0277734432604695 4:0.25366929205484995 
0.7940392521275973 1:-1.382067431185078 2:-2.365045645772234 3:-2.128766495147481 4:0.7855507931687337 
0.1115639909095118 1:3.596001715891571 2:-0.6370758002971753 3:0.47905498614067527 4:-0.09420941467444541 
0.21754602262495715 1:3.596001715891571 2:-0.6370758002971753 3:-0.7369541349035416 4:0.515851809220356 
0.0752049379261183 1:3.596001715891571 2:-0.6370758002971753 3:-0.34918362689349314 4:-0.2734991312070706 
0.08100301550324576 1:3.596001715891571 2:-0.6370758002971753 3:-0.9593782847618887 4:0.5871860736771768 
0.7506118406167889 1:3.596001715891571 2:-0.6370758002971753 3:0.3167055664533249 4:-1.2649541130759734 
0.8389441656229966 1:3.596001715891571 2:-0.6370758002971753 3:0.7487795086438946 4:1.3643329545329141 
0.32043073726013466 1:3.596001715891571 2:-0.6370758002971753 3:-2.0277734432604695 4:0.25366929205484995 
0.6064132360006711 1:3.596001715891571 2:-0.6370758002971753 3:-2.128766495147481 4:0.7855507931687337 
0.8958810744166141 1:3.596001715891571 2:-0.6370758002971753 3:-1.382067431185078 4:-2.365045645772234 
0.21797370953029108 1:-7.123754495876732 2:2.7226989998634465 3:0.47905498614067527 4:-0.09420941467444541 
0.2770356150580826 1:-7.123754495876732 2:2.7226989998634465 3:-0.7369541349035416 4:0.515851809220356 
0.0011337006468571534 1:-7.123754495876732 2:2.7226989998634465 3:-0.34918362689349314 4:-0.2734991312070706 
0.7066429721990546 1:-7.123754495876732 2:2.7226989998634465 3:0.3167055664533249 4:-1.2649541130759734 
0.8282927934960799 1:-7.123754495876732 2:2.7226989998634465 3:0.7487795086438946 4:1.3643329545329141 
0.28664553562069733 1:-7.123754495876732 2:2.7226989998634465 3:-2.0277734432604695 4:0.25366929205484995 
0.6258793327933239 1:-7.123754495876732 2:2.7226989998634465 3:-2.128766495147481 4:0.7855507931687337 
0.8915474102297632 1:-7.123754495876732 2:2.7226989998634465 3:-1.382067431185078 4:-2.365045645772234 
0.9937861584611215 1:-7.123754495876732 2:2.7226989998634465 3:3.596001715891571 4:-0.6370758002971753 
0.21723303550112302 1:-10.551171653906756 2:-2.9659946719361443 3:0.47905498614067527 4:-0.09420941467444541 
0.2771654943460448 1:-10.551171653906756 2:-2.9659946719361443 3:-0.7369541349035416 4:0.515851809220356 
0.0020569672205644827 1:-10.551171653906756 2:-2.9659946719361443 3:-0.34918362689349314 4:-0.2734991312070706 
0.7058890273879483 1:-10.551171653906756 2:-2.9659946719361443 3:0.3167055664533249 4:-1.2649541130759734 
0.8287353742715712 1:-10.551171653906756 2:-2.9659946719361443 3:0.7487795086438946 4:1.3643329545329141 
0.286756713017809 1:-10.551171653906756 2:-2.9659946719361443 3:-2.0277734432604695 4:0.25366929205484995 
0.6254599090264893 1:-10.551171653906756 2:-2.9659946719361443 3:-2.128766495147481 4:0.7855507931687337 
0.8914270976149568 1:-10.551171653906756 2:-2.9659946719361443 3:-1.382067431185078 4:-2.365045645772234 
0.9938327394622897 1:-10.551171653906756 2:-2.9659946719361443 3:3.596001715891571 4:-0.6370758002971753 
1.0 1:-10.551171653906756 2:-2.9659946719361443 3:-7.123754495876732 4:2.7226989998634465 
0.2163679336976842 1:0.04706479636432448 2:-8.934763758933187 3:0.47905498614067527 4:-0.09420941467444541 
0.27493400427096565 1:0.04706479636432448 2:-8.934763758933187 3:-0.7369541349035416 4:0.515851809220356 
0.004487572164486214 1:0.04706479636432448 2:-8.934763758933187 3:-0.34918362689349314 4:-0.2734991312070706 
0.7054700557438245 1:0.04706479636432448 2:-8.934763758933187 3:0.3167055664533249 4:-1.2649541130759734 
0.8294191991825179 1:0.04706479636432448 2:-8.934763758933187 3:0.7487795086438946 4:1.3643329545329141 
0.28679528731330806 1:0.04706479636432448 2:-8.934763758933187 3:-2.0277734432604695 4:0.25366929205484995 
0.6257456976392085 1:0.04706479636432448 2:-8.934763758933187 3:-2.128766495147481 4:0.7855507931687337 
0.891530554702035 1:0.04706479636432448 2:-8.934763758933187 3:-1.382067431185078 4:-2.365045645772234 
0.9937227969925672 1:0.04706479636432448 2:-8.934763758933187 3:3.596001715891571 4:-0.6370758002971753 
0.9999999998678033 1:0.04706479636432448 2:-8.934763758933187 3:-7.123754495876732 4:2.7226989998634465 
1.0000000001528129 1:0.04706479636432448 2:-8.934763758933187 3:-10.551171653906756 4:-2.9659946719361443 
-32.0 1:-0.11474053003215941 2:-0.014689468588010514 3:-0.00171072855338846 4:-0.17686741754107033 
-32.0 1:-0.11474053003215941 2:-0.014689468588010514 3:-0.24503840524024117 4:-0.07044240397192236 
-32.0 1:-0.11474053003215941 2:-0.014689468588010514 3:0.10696901651054622 4:0.1598657139980802 
-32.0 1:-0.11474053003215941 2:-0.014689468588010514 3:-0.013097664905518627 4:0.3272748052843686 
-32.0 1:-0.11474053003215941 2:-0.014689468588010514 3:0.23570674752412177 4:-0.14288844079410268 
-32.0 1:-0.00171072855338846 2:-0.17686741754107033 3:-0.24503840524024117 4:-0.07044240397192236 
-32.0 1:-0.00171072855338846 2:-0.17686741754107033 3:0.10696901651054622 4:0.1598657139980802 
-32.0 1:-0.00171072855338846 2:-0.17686741754107033 3:0.36542705468291026 4:-0.05236822653565636 
-32.0 1:-0.00171072855338846 2:-0.17686741754107033 3:-0.013097664905518627 4:0.3272748052843686 
-20.872712990439812 1:-0.00171072855338846 2:-0.17686741754107033 3:0.47905498614067527 4:-0.09420941467444541 
-32.0 1:-0.00171072855338846 2:-0.17686741754107033 3:0.23570674752412177 4:-0.14288844079410268 
-12.565048789526674 1:-0.00171072855338846 2:-0.17686741754107033 3:-0.2919603975493551 4:-0.22492039593949892 
-32.0 1:-0.24503840524024117 2:-0.07044240397192236 3:0.10696901651054622 4:0.1598657139980802 
-32.0 1:-0.24503840524024117 2:-0.07044240397192236 3:0.36542705468291026 4:-0.05236822653565636 
-32.0 1:-0.24503840524024117 2:-0.07044240397192236 3:-0.013097664905518627 4:0.3272748052843686 
-27.116063285666858 1:-0.24503840524024117 2:-0.07044240397192236 3:0.47905498614067527 4:-0.09420941467444541 
-32.0 1:-0.24503840524024117 2:-0.07044240397192236 3:0.23570674752412177 4:-0.14288844079410268 
-2.5270850145599533 1:-0.24503840524024117 2:-0.07044240397192236 3:-0.7369541349035416 4:0.515851809220356 
-22.351949661711465 1:-0.24503840524024117 2:-0.07044240397192236 3:-0.2919603975493551 4:-0.22492039593949892 
-4.32114494534263 1:0.10696901651054622 2:0.1598657139980802 3:0.36542705468291026 4:-0.05236822653565636 
-32.0 1:0.10696901651054622 2:0.1598657139980802 3:-0.013097664905518627 4:0.3272748052843686 
-32.0 1:0.10696901651054622 2:0.1598657139980802 3:0.23570674752412177 4:-0.14288844079410268 
-3.249432775180361 1:0.10696901651054622 2:0.1598657139980802 3:-0.2919603975493551 4:-0.22492039593949892 
-32.0 1:0.36542705468291026 2:-0.05236822653565636 3:-0.013097664905518627 4:0.3272748052843686 
-32.0 1:0.36542705468291026 2:-0.05236822653565636 3:0.47905498614067527 4:-0.09420941467444541 
-32.0 1:0.36542705468291026 2:-0.05236822653565636 3:0.23570674752412177 4:-0.14288844079410268 
-32.0 1:0.36542705468291026 2:-0.05236822653565636 3:-0.2919603975493551 4:-0.22492039593949892 
-32.0 1:-0.013097664905518627 2:0.3272748052843686 3:0.23570674752412177 4:-0.14288844079410268 
-32.0 1:-0.013097664905518627 2:0.3272748052843686 3:-0.2919603975493551 4:-0.22492039593949892 
-32.0 1:0.47905498614067527 2:-0.09420941467444541 3:0.23570674752412177 4:-0.14288844079410268 
-14.037401840649824 1:0.47905498614067527 2:-0.09420941467444541 3:-0.7369541349035416 4:0.515851809220356 
-32.0 1:0.47905498614067527 2:-0.09420941467444541 3:-0.2919603975493551 4:-0.22492039593949892 
-32.0 1:0.47905498614067527 2:-0.09420941467444541 3:-0.34918362689349314 4:-0.2734991312070706 
-0.1140468949368048 1:0.47905498614067527 2:-0.09420941467444541 3:3.596001715891571 4:-0.6370758002971753 
-0.21648604588005638 1:0.47905498614067527 2:-0.09420941467444541 3:-7.123754495876732 4:2.7226989998634465 
-0.21640369929043338 1:0.47905498614067527 2:-0.09420941467444541 3:-10.551171653906756 4:-2.9659946719361443 
-0.21749403216345145 1:0.47905498614067527 2:-0.09420941467444541 3:0.04706479636432448 4:-8.934763758933187 
-32.0 1:0.23570674752412177 2:-0.14288844079410268 3:-0.2919603975493551 4:-0.22492039593949892 
-32.0 1:-0.7369541349035416 2:0.515851809220356 3:-0.2919603975493551 4:-0.22492039593949892 
-32.0 1:-0.7369541349035416 2:0.515851809220356 3:-0.34918362689349314 4:-0.2734991312070706 
-15.121438989750828 1:-0.7369541349035416 2:0.515851809220356 3:-0.9311426038312893 4:0.4888918501466822 
-0.15737854476951732 1:-0.7369541349035416 2:0.515851809220356 3:3.596001715891571 4:-0.6370758002971753 
-0.2769489252930329 1:-0.7369541349035416 2:0.515851809220356 3:-7.123754495876732 4:2.7226989998634465 
-0.27726799608429464 1:-0.7369541349035416 2:0.515851809220356 3:-10.551171653906756 4:-2.9659946719361443 
-0.277191623829316 1:-0.7369541349035416 2:0.515851809220356 3:0.04706479636432448 4:-8.934763758933187 
-32.0 1:-0.2919603975493551 2:-0.22492039593949892 3:-0.34918362689349314 4:-0.2734991312070706 
-32.0 1:-0.34918362689349314 2:-0.2734991312070706 3:-0.9311426038312893 4:0.4888918501466822 
-6.468912601441535 1:-0.34918362689349314 2:-0.2734991312070706 3:-0.9593782847618887 4:0.5871860736771768 
-0.0858239190794914 1:-0.34918362689349314 2:-0.2734991312070706 3:3.596001715891571 4:-0.6370758002971753 
-0.0022585108149670145 1:-0.34918362689349314 2:-0.2734991312070706 3:-7.123754495876732 4:2.7226989998634465 
-0.001706973497678775 1:-0.34918362689349314 2:-0.2734991312070706 3:-10.551171653906756 4:-2.9659946719361443 
-0.0019282955487028572 1:-0.34918362689349314 2:-0.2734991312070706 3:0.04706479636432448 4:-8.934763758933187 
-32.0 1:-0.9311426038312893 2:0.4888918501466822 3:-0.9593782847618887 4:0.5871860736771768 
-0.13671776732306481 1:-0.9593782847618887 2:0.5871860736771768 3:3.596001715891571 4:-0.6370758002971753 
-0.4615624249824224 1:0.3167055664533249 2:-1.2649541130759734 3:0.7487795086438946 4:1.3643329545329141 
-0.746244586545086 1:0.3167055664533249 2:-1.2649541130759734 3:3.596001715891571 4:-0.6370758002971753 
-0.7066826501301383 1:0.3167055664533249 2:-1.2649541130759734 3:-7.123754495876732 4:2.7226989998634465 
-0.7067141800563718 1:0.3167055664533249 2:-1.2649541130759734 3:-10.551171653906756 4:-2.9659946719361443 
-0.7062022848091465 1:0.3167055664533249 2:-1.2649541130759734 3:0.04706479636432448 4:-8.934763758933187 
-0.12180620024655965 1:0.7487795086438946 2:1.3643329545329141 3:-1.6566327514387684 4:0.6873863038778739 
-0.2628777948687783 1:0.7487795086438946 2:1.3643329545329141 3:-1.382067431185078 4:-2.365045645772234 
-0.8410349334508719 1:0.7487795086438946 2:1.3643329545329141 3:3.596001715891571 4:-0.6370758002971753 
-0.8294086395356232 1:0.7487795086438946 2:1.3643329545329141 3:-7.123754495876732 4:2.7226989998634465 
-0.8295140437155929 1:0.7487795086438946 2:1.3643329545329141 3:-10.551171653906756 4:-2.9659946719361443 
-0.8287388280307791 1:0.7487795086438946 2:1.3643329545329141 3:0.04706479636432448 4:-8.934763758933187 
-4.170117249265673 1:-1.6566327514387684 2:0.6873863038778739 3:-2.0277734432604695 4:0.25366929205484995 
-5.080267214578579 1:-2.0277734432604695 2:0.25366929205484995 3:-2.128766495147481 4:0.7855507931687337 
-0.20067906237614253 1:-2.0277734432604695 2:0.25366929205484995 3:-1.382067431185078 4:-2.365045645772234 
-0.31742957640643804 1:-2.0277734432604695 2:0.25366929205484995 3:3.596001715891571 4:-0.6370758002971753 
-0.2874394662357314 1:-2.0277734432604695 2:0.25366929205484995 3:-7.123754495876732 4:2.7226989998634465 
-0.28889265304608547 1:-2.0277734432604695 2:0.25366929205484995 3:-10.551171653906756 4:-2.9659946719361443 
-0.2862213978996981 1:-2.0277734432604695 2:0.25366929205484995 3:0.04706479636432448 4:-8.934763758933187 
-0.7926634457566928 1:-2.128766495147481 2:0.7855507931687337 3:-1.382067431185078 4:-2.365045645772234 
-0.6022292807963823 1:-2.128766495147481 2:0.7855507931687337 3:3.596001715891571 4:-0.6370758002971753 
-0.6249090161301035 1:-2.128766495147481 2:0.7855507931687337 3:-7.123754495876732 4:2.7226989998634465 
-0.6232763773180333 1:-2.128766495147481 2:0.7855507931687337 3:-10.551171653906756 4:-2.9659946719361443 
-0.6264103190278763 1:-2.128766495147481 2:0.7855507931687337 3:0.04706479636432448 4:-8.934763758933187 
-0.895898865781945 1:-1.382067431185078 2:-2.365045645772234 3:3.596001715891571 4:-0.6370758002971753 
-0.8912320261571983 1:-1.382067431185078 2:-2.365045645772234 3:-7.123754495876732 4:2.7226989998634465 
-0.8910520144423686 1:-1.382067431185078 2:-2.365045645772234 3:-10.551171653906756 4:-2.9659946719361443 
-0.8911615696582433 1:-1.382067431185078 2:-2.365045645772234 3:0.04706479636432448 4:-8.934763758933187 
-0.994268130848506 1:3.596001715891571 2:-0.6370758002971753 3:-7.123754495876732 4:2.7226989998634465 
-0.9938989854971043 1:3.596001715891571 2:-0.6370758002971753 3:-10.551171653906756 4:-2.9659946719361443 
-0.994316851798698 1:3.596001715891571 2:-0.6370758002971753 3:0.04706479636432448 4:-8.934763758933187 
-0.9999999998678033 1:-7.123754495876732 2:2.7226989998634465 3:-10.551171653906756 4:-2.9659946719361443 
-0.9999999835704583 1:-7.123754495876732 2:2.7226989998634465 3:0.04706479636432448 4:-8.934763758933187 
-1.0 1:-10.551171653906756 2:-2.9659946719361443 3:0.04706479636432448 4:-8.934763758933187 
