svm_type epsilon_svr
kernel_type rbf
gamma 0.5
nr_class 2
total_sv 1000
rho -2252.7331348773296
SV
-1.0 1:16.211343765787134 2:21.254420990771695 
1.0 1:-44.56701772048861 2:49.51303847178657 
1.0 1:35.4055673511644 2:-28.97738455156177 
1.0 1:-43.016394779013694 2:35.79489894078564 
1.0 1:-23.60819672083386 2:-35.48987537232607 
1.0 1:17.5272626719187 2:-48.72716411175357 
1.0 1:41.41983570991188 2:20.93804911958935 
-1.0 1:-1.2433363020834278 2:30.663300975479192 
1.0 1:47.55489763910925 2:19.45159356148718 
-1.0 1:19.67291156692316 2:-9.576353028588812 
1.0 1:14.053153060783288 2:-38.96795682189257 
-1.0 1:8.244492971590404 2:6.228974661264317 
1.0 1:-5.598534395717138 2:-39.264901492476454 
1.0 1:-27.16719889174655 2:-31.77135807941076 
-1.0 1:-8.810209725894325 2:-11.131746740408346 
-1.0 1:-3.847881256775146 2:-9.345878697428645 
-1.0 1:17.27749973486639 2:-14.518394733607764 
-1.0 1:9.512479137697795 2:-24.70095952216309 
-1.0 1:26.382888882639964 2:-12.316813119093581 
-1.0 1:44.449292044810406 2:10.716546880628343 
1.0 1:30.26815216048544 2:33.801666448276556 
-1.0 1:-17.425920632808328 2:30.67825228578619 
1.0 1:48.10997236487917 2:42.30596952272961 
1.0 1:32.58613729267179 2:-43.48666588141322 
-1.0 1:-3.561034552475874 2:6.65305395700441 
-1.0 1:-44.13457417043402 2:8.39551810453326 
-1.0 1:25.199095344767397 2:-0.12815331229916183 
-1.0 1:38.92242303638422 2:-9.5300888903028 
1.0 1:37.021172733218755 2:44.703055517167066 
1.0 1:-27.788809416612708 2:33.91088790591709 
-1.0 1:-7.2774582557976615 2:-23.498771197897966 
1.0 1:40.417330583488564 2:20.57641492547627 
-1.0 1:6.337988407443994 2:6.867270238160842 
-1.0 1:-40.68700394265392 2:7.873448977026868 
-1.0 1:-32.34508897341854 2:-13.883795334235828 
-1.0 1:8.626601268384817 2:32.77324675816262 
1.0 1:-0.7312702156967887 2:-37.8031965983935 
-1.0 1:9.105317284334077 2:-10.385347282745386 
1.0 1:-41.40750462788397 2:42.56637427655853 
1.0 1:-24.946075120139483 2:-47.59235823646091 
-1.0 1:33.04765304647318 2:-16.214296338340148 
1.0 1:41.11407466560895 2:47.79861973311929 
1.0 1:48.83080256939236 2:-38.76410828356319 
-1.0 1:13.903449270575308 2:-20.31681482385285 
-1.0 1:20.194386372724328 2:8.370564451351903 
1.0 1:35.36479561198698 2:-39.34868561651214 
1.0 1:7.097102876988615 2:-38.69642883944688 
-1.0 1:-34.71969876989341 2:19.024103078377774 
-1.0 1:24.372833845811716 2:0.2941290591819339 
-1.0 1:-4.612808255963465 2:23.19044379250368 
1.0 1:-44.76509097113531 2:44.82795340195462 
-1.0 1:-3.1140378629677414 2:-2.723760721102998 
1.0 1:-34.02459749622241 2:33.504772740327795 
-1.0 1:-23.136933493942053 2:-6.122038693023022 
-1.0 1:-2.8628046332980404 2:3.8291971292446334 
1.0 1:-22.74459290189256 2:40.66656828857403 
-1.0 1:19.229473070518576 2:-19.736227892787525 
-1.0 1:-7.53559937911934 2:-11.882937056839623 
-1.0 1:-11.774695239012736 2:-18.460333727326997 
1.0 1:8.582863755997906 2:-44.55687618812658 
-1.0 1:17.6229361812778 2:-29.767808794634064 
-1.0 1:-21.57151073793007 2:1.015527742399783 
-1.0 1:-0.2296410102269988 2:-11.004897757026633 
1.0 1:42.18305253496919 2:32.117236700305185 
1.0 1:-40.554280145678675 2:-41.39070920596927 
-1.0 1:-16.58296127972318 2:16.837306226802987 
1.0 1:7.3540996302238995 2:-46.86175879746858 
1.0 1:-25.365169183838105 2:-31.77007025160262 
-1.0 1:-19.755863270018196 2:16.99433121564371 
1.0 1:15.206040560969257 2:37.56420265900988 
1.0 1:7.765978857172385 2:47.60675848768117 
-1.0 1:-2.345939656457716 2:-20.43563597615686 
1.0 1:33.98496267222582 2:35.64362545475246 
1.0 1:-44.24663542210948 2:37.98954263121955 
1.0 1:43.63343688954827 2:32.3774085173519 
1.0 1:49.742598745475256 2:44.72619826838988 
-1.0 1:-0.27389866904049853 2:0.7947492783436303 
1.0 1:30.19088183396065 2:29.765708195403118 
-1.0 1:-9.91782420685037 2:3.438262423430473 
-1.0 1:-7.3396902761272855 2:3.013755316064767 
-1.0 1:5.590717202964903 2:-14.270256548542008 
-1.0 1:-9.711949101671777 2:-8.17261040845193 
1.0 1:32.723361165214314 2:28.660863309287908 
-1.0 1:10.76692201534869 2:0.4998473795492089 
1.0 1:36.84170892601689 2:-30.75077986452405 
1.0 1:47.933797197739416 2:-0.3875426074529713 
1.0 1:41.26459791710381 2:21.04423787967965 
1.0 1:6.280654773134174 2:-45.752851064110104 
1.0 1:-30.14659838121719 2:-29.77076695013578 
1.0 1:-30.81641940702886 2:-39.49768917190126 
-1.0 1:18.04155133085611 2:-24.49740894600893 
1.0 1:38.50044766982171 2:-20.421007840840616 
1.0 1:48.77733223622892 2:-38.06722343389036 
1.0 1:14.41852654703645 2:37.903585989667036 
1.0 1:-24.23288898507468 2:-29.63141271169117 
-1.0 1:30.038708154286155 2:0.32745500480189094 
-1.0 1:-3.30100740296745 2:4.74780386201121 
-1.0 1:-14.836505610774608 2:21.39308638438785 
-1.0 1:-26.20505118170267 2:9.784075765670032 
1.0 1:38.111417888142014 2:36.980622108684045 
-1.0 1:28.08242416929184 2:11.02363899081142 
-1.0 1:13.110948355934745 2:-24.652154382997765 
1.0 1:17.1943541721958 2:-41.8498569365978 
1.0 1:-36.06750336101926 2:42.65088637041181 
-1.0 1:4.2995315062059305 2:30.677634995376447 
-1.0 1:1.8975265190335762 2:-26.517853330255576 
-1.0 1:-2.0667640834710426 2:-7.191626446294052 
1.0 1:48.25928577231574 2:31.786172128991353 
1.0 1:49.0409734002888 2:21.244001350680442 
-1.0 1:7.180154656266481 2:1.7134053240886047 
-1.0 1:32.46615098349177 2:-23.87482493063881 
-1.0 1:-23.863980927901594 2:21.54595599603416 
1.0 1:15.405536645750715 2:41.03660592614581 
-1.0 1:15.55860986019627 2:-13.221201926361992 
-1.0 1:25.02421695797721 2:23.151064246811835 
-1.0 1:-11.117813009841946 2:-19.236047901519456 
-1.0 1:-28.535158208144466 2:-20.902290231176764 
1.0 1:-42.10860937405727 2:-16.975515297410567 
-1.0 1:-39.0961648026215 2:16.02677876426477 
1.0 1:-23.627367002834987 2:-43.58065102808712 
1.0 1:46.10026864055261 2:10.604416802163676 
1.0 1:-32.44823680350956 2:24.789314074695355 
-1.0 1:9.051042042359072 2:-8.691916680090273 
-1.0 1:-2.3437155898205617 2:22.538459641026577 
1.0 1:-48.091024541892494 2:41.40480642712091 
1.0 1:-30.82912109621671 2:26.804899815001615 
-1.0 1:-11.761588924118328 2:1.3811507239990348 
1.0 1:-47.039632454744236 2:-28.551325636496145 
-1.0 1:-23.024120462537482 2:-19.644444292747323 
-1.0 1:-41.585163990331125 2:-9.96609548960685 
-1.0 1:26.131336628060374 2:26.140414007158153 
1.0 1:5.127007334991454 2:42.30656937822005 
1.0 1:12.308487237154509 2:-46.86705016584051 
1.0 1:8.342515964859565 2:45.368460089418626 
-1.0 1:15.540619248952773 2:-13.899286450804652 
1.0 1:23.52907094524468 2:-43.177914279056736 
1.0 1:-43.26856706211778 2:46.18917174649002 
1.0 1:12.89115178153375 2:42.61055034143971 
1.0 1:47.15819005237868 2:-16.88432538114128 
-1.0 1:-1.4878616054259197 2:7.10059494061219 
1.0 1:16.03761876784111 2:44.52571073926522 
1.0 1:-46.96357210963626 2:-32.84374582168857 
1.0 1:-26.927135894497738 2:-30.12585843601704 
1.0 1:49.40945598533498 2:15.524785895920779 
-1.0 1:-11.807193657720973 2:1.955801053317927 
1.0 1:46.17401478835574 2:41.8057299878777 
-1.0 1:30.36301415650191 2:24.34657051486141 
1.0 1:24.176790567714214 2:-38.4017844576738 
1.0 1:1.3905724849583763 2:-42.47225854252925 
1.0 1:14.269430980545458 2:46.12079870429514 
-1.0 1:29.06300644629136 2:-19.646753671637015 
1.0 1:-36.30599606220724 2:45.67239306915807 
1.0 1:46.754458570294474 2:-13.219023734131198 
1.0 1:-18.67691737718728 2:-39.247987350008046 
1.0 1:-16.199704887977475 2:40.42620849929421 
1.0 1:-21.219732373907362 2:34.47930362688004 
1.0 1:22.48422917914602 2:-48.49317766929748 
-1.0 1:-14.302654198289645 2:19.157075969913496 
1.0 1:43.40005641641073 2:-27.863260899461125 
-1.0 1:-37.030232074922324 2:8.391200025988823 
-1.0 1:-18.756917626985697 2:-13.314291703365853 
-1.0 1:-32.14737245975219 2:24.13251637884829 
1.0 1:47.754206411490685 2:-35.93968389507316 
-1.0 1:39.09478192398748 2:5.329599194981981 
1.0 1:47.582719083988465 2:38.2727905405956 
1.0 1:-30.960813726036235 2:-38.41956693570695 
-1.0 1:16.251719778688653 2:-7.449121555157632 
-1.0 1:12.723019848015873 2:31.245287191963435 
1.0 1:47.20311616036778 2:40.503850081232 
1.0 1:-48.508326036739845 2:18.932262933959663 
1.0 1:47.06709270876126 2:25.496309887813606 
-1.0 1:-19.503941409141532 2:-17.90872522727514 
-1.0 1:-35.156102100689125 2:-3.6066792744441614 
-1.0 1:25.673230505222488 2:-9.348633046417085 
1.0 1:-18.39617192459096 2:-35.77302309177752 
-1.0 1:16.415802715834218 2:-2.789472573560822 
-1.0 1:22.604161782314193 2:0.09632367982149503 
1.0 1:45.11600096875691 2:28.236385469654422 
-1.0 1:-36.61015388418174 2:-0.25075821051975566 
1.0 1:34.12580303001192 2:39.06037388384335 
1.0 1:45.48767038120465 2:14.806608811075108 
-1.0 1:4.404974116552452 2:-32.85282754161972 
1.0 1:-4.2783570074156 2:34.475789862097706 
-1.0 1:-1.7656704815308473 2:-30.804539032527728 
-1.0 1:-44.02976688704763 2:-5.137766172035818 
1.0 1:-49.14798353701043 2:38.07522853822353 
-1.0 1:-22.645858571535854 2:-4.375357806894165 
1.0 1:32.7260637608436 2:-34.56887771902382 
-1.0 1:14.38620247697554 2:15.730912114642045 
1.0 1:-4.593061508315941 2:44.98048366552215 
1.0 1:-29.466967308390267 2:41.45878427439692 
1.0 1:49.50928601062068 2:0.10904276318600381 
1.0 1:-3.0690803708860344 2:-49.453153669751316 
1.0 1:-16.647470878393563 2:-32.683685667185 
1.0 1:30.66655486778994 2:36.538206774577766 
-1.0 1:-4.854550373534671 2:-25.612893279472743 
-1.0 1:-21.923986190624106 2:6.870971802280444 
1.0 1:-39.66962954144968 2:18.86466928616617 
1.0 1:1.933528303935958 2:47.1562866667313 
-1.0 1:-11.192016981686834 2:-21.52473408509495 
-1.0 1:-40.80559387614606 2:12.346451413246044 
1.0 1:44.244368175831205 2:-29.396821104634512 
1.0 1:-41.87544632856101 2:-16.867619952458185 
-1.0 1:-0.4827665957872753 2:22.739351828505594 
-1.0 1:-39.8080755669112 2:12.921310991192648 
-1.0 1:-11.411189693952238 2:20.026116977889195 
-1.0 1:43.01324792277587 2:-12.867524761031937 
1.0 1:-14.30160522419203 2:-40.40533653276951 
-1.0 1:-34.0576372890588 2:22.310093411344344 
1.0 1:-2.2521035066906308 2:-35.65890010374689 
1.0 1:39.5543662204195 2:47.6898095254156 
-1.0 1:-4.890676807417947 2:-8.88875784177776 
1.0 1:-5.677100178110372 2:36.36639881275312 
-1.0 1:29.813537821774904 2:9.963389494468501 
-1.0 1:-27.79428732124161 2:-12.902705607697285 
-1.0 1:-1.8149189423065408 2:32.25267587906808 
-1.0 1:27.64672523691708 2:1.0381824316819461 
-1.0 1:-2.53161210364177 2:25.72968245805849 
1.0 1:21.67071407501394 2:-49.65633173480937 
-1.0 1:2.846123181280106 2:-25.32966064126596 
-1.0 1:24.28975906875643 2:-2.4222979574638046 
1.0 1:-47.51911184489023 2:22.25325340840335 
-1.0 1:6.358509450989999 2:-3.734799991312002 
1.0 1:-26.183034460995387 2:-29.02508974735764 
-1.0 1:2.3083430039219053 2:-16.32202615792393 
-1.0 1:14.359288834187936 2:14.84233059058242 
1.0 1:-40.14155757236951 2:-32.91514005087318 
1.0 1:-45.497755683690016 2:34.40707135723436 
-1.0 1:-38.15524103508416 2:4.207607161042247 
-1.0 1:-21.28855131850287 2:2.4035826413514556 
-1.0 1:8.725851622528744 2:-12.489187772399944 
1.0 1:-35.5329931087833 2:23.82925183241892 
1.0 1:-11.882506941768625 2:-39.78407175206618 
-1.0 1:15.857347272758204 2:-30.247412899215107 
-1.0 1:29.875994583358224 2:19.56609830870014 
1.0 1:20.568123719679342 2:-41.039710169899536 
1.0 1:-48.20694678723339 2:-0.11978789993550976 
-1.0 1:45.241131652539245 2:-4.246855001881357 
1.0 1:41.88301031312329 2:-25.678580159212757 
-1.0 1:4.78372461615232 2:-14.225122307174729 
-1.0 1:-1.4637113883488624 2:-29.933050277028528 
1.0 1:46.18961997814185 2:24.707350173283736 
1.0 1:-40.51920918207152 2:-43.29715028506699 
-1.0 1:-23.212520897016546 2:-13.010294351647445 
1.0 1:-5.4639739723771115 2:42.178997360451234 
1.0 1:40.56410847578687 2:33.41824860740222 
-1.0 1:15.56261832439072 2:-5.4536182464569265 
-1.0 1:4.314631026807724 2:7.558118225531693 
-1.0 1:-30.19705938242376 2:0.9604851574066302 
-1.0 1:-42.14764404177943 2:1.3469777972842536 
-1.0 1:29.9764691447737 2:-21.928824557048017 
1.0 1:-40.633328064389346 2:40.09520900304654 
1.0 1:-23.963494656316826 2:-40.06862722402708 
1.0 1:-31.752359358040664 2:-33.71371969321568 
-1.0 1:-20.587158417973058 2:10.943378573845763 
-1.0 1:3.3014985945828883 2:-9.844789615282366 
1.0 1:-49.14208502997516 2:42.12351378088756 
1.0 1:44.26174786707462 2:22.972236081513962 
1.0 1:-2.3180097736429275 2:49.10241475118631 
-1.0 1:-41.14406161062284 2:16.283043663220575 
1.0 1:-44.79415406152921 2:39.79010364858476 
-1.0 1:-13.58123367859946 2:-2.9438930852890195 
-1.0 1:10.677438191617114 2:-21.478435751745778 
-1.0 1:42.147540894011456 2:14.761924063872243 
1.0 1:25.69194732768508 2:41.760403763359875 
-1.0 1:23.576571488633945 2:1.8581577673299066 
1.0 1:-14.677358552497438 2:-41.92521746404489 
-1.0 1:2.7024753936041748 2:-6.021123655411586 
-1.0 1:-41.28710485826771 2:-7.8884023713669436 
1.0 1:-26.57712831296513 2:-39.67464794455586 
1.0 1:46.7976894618271 2:28.681569315786614 
1.0 1:-5.443563635524896 2:-41.66994212116131 
-1.0 1:18.11594462023959 2:18.829648559857613 
1.0 1:23.692687222558494 2:49.614753570527995 
1.0 1:-6.6571023175846165 2:-35.098193689420896 
-1.0 1:-23.524577221169494 2:-3.412264888052576 
1.0 1:33.2148105814139 2:46.13107990715357 
-1.0 1:-30.345861231815178 2:0.7245612029733053 
-1.0 1:12.936197679569183 2:20.152401228323257 
1.0 1:14.34325374848867 2:44.650815532973084 
-1.0 1:28.952759080864286 2:-20.882528176652244 
1.0 1:18.409425179031725 2:-39.40539310076532 
-1.0 1:-18.858838147806935 2:-8.282341611628382 
1.0 1:33.762721392593086 2:-32.399189890221066 
-1.0 1:5.009794786766683 2:24.434641074042794 
-1.0 1:45.55786014949522 2:-0.9017756034934123 
-1.0 1:-5.5774292462900235 2:6.725202249456565 
1.0 1:45.917230777782656 2:-19.014943941104292 
1.0 1:-44.34917190062076 2:-14.391690918733076 
-1.0 1:-35.2321602736361 2:18.347340772010124 
-1.0 1:-31.773619942579458 2:5.259361662824716 
-1.0 1:44.739824090475686 2:6.249153128885652 
1.0 1:-2.888339033096031 2:46.728156897043874 
-1.0 1:45.804633180951186 2:-3.267320275659017 
-1.0 1:4.1209691404043625 2:-28.216111971412104 
1.0 1:48.436439634795335 2:30.24040974119555 
1.0 1:44.31970746319935 2:33.152169901040395 
-1.0 1:-8.43915980307203 2:-24.879043808895062 
1.0 1:5.2965379913718635 2:41.04585929923621 
-1.0 1:33.41030803119945 2:13.704232050640755 
1.0 1:-46.253699254673506 2:12.903083746837588 
1.0 1:-40.36356853618443 2:-32.36909571836563 
-1.0 1:-5.280458872912384 2:-20.367329424438267 
-1.0 1:-16.36567049617996 2:-31.304711222647256 
-1.0 1:24.18745998812434 2:-22.571127651055036 
1.0 1:-10.984798523281945 2:-45.58993791256215 
-1.0 1:-34.7609770124007 2:19.353971434576835 
-1.0 1:-46.48165419255385 2:-0.17463375411936966 
-1.0 1:22.270015852454208 2:15.399121472599674 
-1.0 1:-32.61544862268805 2:-11.16584539588186 
-1.0 1:-34.05827513155798 2:-6.379561931311258 
-1.0 1:17.3181350359364 2:-20.7302468111983 
1.0 1:-25.520066933419756 2:-31.79085398297468 
1.0 1:49.645443302659885 2:26.550952878868973 
-1.0 1:4.052864367896788 2:2.991226219611086 
-1.0 1:-46.8669444710185 2:0.4540451636155609 
1.0 1:42.50973389273257 2:30.86377576552124 
1.0 1:13.159426940530174 2:-41.209493503359425 
-1.0 1:16.6794238798604 2:11.06202651388687 
-1.0 1:-15.460836606287032 2:30.343259549282976 
1.0 1:-26.278100943719267 2:36.91262373463137 
-1.0 1:10.279589443544005 2:7.36358952112306 
1.0 1:41.69285432581189 2:46.86555104716823 
1.0 1:-22.095272377095526 2:-44.74489596747381 
1.0 1:-6.474913420370719 2:41.10876860128578 
1.0 1:-46.287674324458024 2:13.770265199276551 
1.0 1:-7.951938796186894 2:-35.043644312208116 
-1.0 1:-31.565034908912835 2:-9.880705234341669 
-1.0 1:-18.53990945319555 2:-11.53731305315204 
1.0 1:45.25679409859461 2:29.840432642356753 
-1.0 1:12.835533699487158 2:-10.64813952559146 
-1.0 1:-37.00707537426756 2:-3.8952038366770267 
1.0 1:47.79237502543767 2:33.363333269348146 
-1.0 1:33.46892025631991 2:-7.671769755215529 
1.0 1:-24.63648700582354 2:42.50144650117296 
1.0 1:42.743358081042494 2:26.5368584033438 
1.0 1:2.4080850555470477 2:47.4382161688229 
1.0 1:-39.20314436975815 2:38.882165759330604 
1.0 1:37.56706126028223 2:35.455502841123774 
-1.0 1:-36.333540817271754 2:-3.974279126224758 
-1.0 1:-17.189602501029256 2:29.824388773608725 
-1.0 1:35.73473072805328 2:-2.1871365638160825 
1.0 1:-24.959089657348244 2:-29.59369437344978 
1.0 1:27.98835799020506 2:42.728856886295944 
-1.0 1:-16.98691539841066 2:8.522181695942287 
1.0 1:40.541596024413664 2:-40.91971452161364 
-1.0 1:-38.007041678462 2:-18.227412809244484 
1.0 1:-25.42475943128521 2:28.66864503437112 
-1.0 1:0.12817168864225437 2:-3.4964145911556415 
-1.0 1:-39.9275619580808 2:8.922315986029062 
1.0 1:-43.58468841755099 2:16.99969750658167 
-1.0 1:11.337954150656635 2:-1.972665679312648 
1.0 1:-9.555437409666453 2:41.24714088002022 
-1.0 1:-7.731888706246359 2:-14.453428652783757 
1.0 1:18.7697145113799 2:33.24719123918949 
-1.0 1:-12.305996113520038 2:-11.658822743585276 
-1.0 1:1.7945060223934846 2:-18.628774761813787 
-1.0 1:-24.148906507775393 2:-11.692669536403365 
1.0 1:-31.51573481419699 2:-38.864223823928654 
1.0 1:-19.86622461261028 2:-35.484393747561455 
-1.0 1:24.00478024408158 2:-0.9624094375029628 
1.0 1:45.77391741068103 2:47.78942716178576 
1.0 1:-42.44171027271105 2:-38.27457270547403 
1.0 1:38.937906296552825 2:20.583337190870377 
1.0 1:-25.77053301687687 2:31.797056726586604 
1.0 1:1.9671726469132764 2:39.22102425551114 
-1.0 1:15.57223419805758 2:-22.103392555020662 
1.0 1:19.09262842506928 2:-30.8727416393547 
-1.0 1:8.961194185239329 2:-17.450800748438198 
1.0 1:-48.06605963871358 2:-3.36290254629985 
1.0 1:-4.600525725520491 2:-43.693591403864204 
-1.0 1:-6.549991095197406 2:13.289993860921413 
1.0 1:29.517714852472487 2:41.28794576544883 
1.0 1:-37.26247183932399 2:-39.78445514594735 
-1.0 1:23.916897854536888 2:-8.908447614830926 
-1.0 1:21.17991561962379 2:-28.70798618780826 
-1.0 1:22.800717174185824 2:7.304918298141196 
1.0 1:32.92941066976629 2:-35.79223413646274 
-1.0 1:37.01113475523208 2:15.490064663995682 
-1.0 1:19.560622701176488 2:-1.6198336772786561 
1.0 1:-45.87628988186037 2:-24.477573186289504 
1.0 1:-30.035792056948523 2:47.885600698437315 
1.0 1:-46.82266589450548 2:42.55353670780798 
1.0 1:-37.845088101902306 2:26.128495354581215 
-1.0 1:3.9058804305809858 2:25.627965365232086 
1.0 1:33.64861694485462 2:46.92651230334671 
-1.0 1:15.007324102497321 2:31.121846636496308 
-1.0 1:1.4185356859119835 2:14.013229122646543 
-1.0 1:15.028798740361779 2:27.68211254869647 
-1.0 1:-18.828854612959773 2:-2.341139136451922 
-1.0 1:2.8640703831530203 2:28.232185914853936 
-1.0 1:-11.212059605157208 2:-16.816167771904958 
1.0 1:-7.347161321474381 2:-47.12832055448011 
1.0 1:24.25953409447079 2:-38.410831603607164 
-1.0 1:0.039277364455003294 2:14.134311420852086 
1.0 1:40.29411149746864 2:-22.648048229465033 
1.0 1:-26.70982297737652 2:-46.919995504949156 
1.0 1:-15.987265675781302 2:-47.36675479720056 
1.0 1:-36.308980252830565 2:-48.916153658805 
1.0 1:-29.250595684261143 2:-29.27982626290205 
1.0 1:-45.06871726437558 2:47.94626009326956 
-1.0 1:3.954332914106338 2:24.47302872583159 
-1.0 1:30.858279083924856 2:12.085560069196909 
-1.0 1:-5.445730772065652 2:17.87245046000703 
1.0 1:-44.97827955962846 2:33.085650242509686 
1.0 1:-43.14572992009799 2:-49.538933052824845 
1.0 1:-36.150732609202095 2:40.758461540062164 
-1.0 1:-33.829300382640355 2:15.548058071484213 
-1.0 1:38.086202276481764 2:-1.857632226310443 
-1.0 1:-44.134238636804085 2:3.4944394990056225 
-1.0 1:14.300395567106683 2:-31.505418210628335 
-1.0 1:8.309327289570426 2:21.220994666398084 
-1.0 1:29.796696544304325 2:18.347197171404538 
1.0 1:-44.47573219577383 2:18.280076189212615 
-1.0 1:-39.797227672199256 2:-9.916644579278966 
1.0 1:-49.12299820443829 2:48.406656494832035 
1.0 1:9.281536768591046 2:-41.74838114261871 
-1.0 1:3.1554057251108745 2:-6.586725686888116 
1.0 1:45.19310705937855 2:-26.026559739531265 
1.0 1:-21.26826110035603 2:33.617693209218615 
-1.0 1:46.472346292016134 2:1.3103136286320876 
1.0 1:-23.761336705443554 2:-34.308642686723616 
1.0 1:24.405901558663036 2:-41.656138211260284 
1.0 1:-38.70806651098151 2:44.89090705536935 
-1.0 1:26.28569893439847 2:-6.016071678783582 
1.0 1:16.27381004409191 2:-35.91572458444173 
1.0 1:-3.8162175413174353 2:-40.843637397163874 
-1.0 1:12.04668118558645 2:-23.192939475800074 
1.0 1:-23.56364607543577 2:-31.96602319096762 
1.0 1:44.696870232189326 2:25.784109429385182 
-1.0 1:-26.05713101325719 2:-8.639166183554323 
1.0 1:1.0141017218287942 2:-48.07449868809391 
-1.0 1:-9.321028515400656 2:-20.318243965003674 
1.0 1:21.392503758010783 2:31.75526418429956 
-1.0 1:27.49005244585255 2:-20.57431742623251 
-1.0 1:18.194540378787682 2:23.55544004812571 
-1.0 1:14.27516888011371 2:-20.696845090676504 
-1.0 1:-18.650260718109777 2:-5.7926954048143955 
-1.0 1:-1.9109633839526126 2:8.36504312932611 
1.0 1:-38.934491489509824 2:49.785773993622925 
-1.0 1:33.48277935784097 2:0.33121416558462613 
-1.0 1:-39.99214070413528 2:3.4122439249524277 
1.0 1:-33.4279435550322 2:41.43467449672281 
-1.0 1:-5.834741920703365 2:-16.304663874544403 
-1.0 1:-14.135776296914386 2:31.03834555663162 
-1.0 1:-7.160633844855646 2:16.288217120550485 
-1.0 1:28.79409516697101 2:5.668442431340004 
-1.0 1:3.8118400506432337 2:-0.3345632658702442 
-1.0 1:-16.78916476834199 2:7.87004240403494 
1.0 1:49.716866811796535 2:44.17136294719302 
-1.0 1:7.72654776751358 2:21.427251847047803 
1.0 1:46.00455423764828 2:-49.28341932400741 
1.0 1:13.880021871776272 2:44.00199956888103 
1.0 1:39.610788125198084 2:-27.802170829792047 
-1.0 1:6.487114424239337 2:27.13230135489645 
1.0 1:-39.44537222193527 2:26.791214739380663 
-1.0 1:-33.657834989837056 2:-18.207524397369895 
-1.0 1:-3.835241744642815 2:17.71775207654025 
-1.0 1:-18.3971065518067 2:25.354547630527314 
1.0 1:-0.5079664406611428 2:-41.09559161565751 
-1.0 1:-9.26591265119091 2:32.80181440082465 
-1.0 1:29.695560798251975 2:10.163104468762718 
1.0 1:-9.196529977416965 2:-48.56777328862972 
-1.0 1:-7.204709010336096 2:-10.915669489909142 
1.0 1:-9.783996397263373 2:44.05096731398783 
1.0 1:6.164517285855368 2:49.79125373786017 
1.0 1:44.64093524477964 2:40.78835792832125 
1.0 1:49.49115670549828 2:1.0243860219268583 
-1.0 1:8.928807891915639 2:4.190906961469807 
-1.0 1:-11.332809446110204 2:-22.27384381485831 
1.0 1:-33.76634215398846 2:46.12004404535498 
-1.0 1:-32.82895164150467 2:-18.631102051409243 
1.0 1:-41.65142932052605 2:-21.74519127968999 
1.0 1:-48.01174210554089 2:-35.28099240713756 
1.0 1:38.430736388920835 2:30.631483626011924 
1.0 1:-2.028903593672851 2:-43.44577355106995 
1.0 1:-1.1648584223347456 2:34.664860587493074 
-1.0 1:-44.231536367063526 2:1.0502680182704722 
1.0 1:-7.306040467157949 2:38.48256954991747 
-1.0 1:-5.937297931921691 2:25.127156069601376 
-1.0 1:-31.82829073295086 2:3.1656049548145404 
1.0 1:36.830485890152346 2:44.99491582838922 
-1.0 1:-31.005810499014302 2:18.62491891775647 
-1.0 1:30.700453900382474 2:-19.537525369806843 
-1.0 1:23.892203674478708 2:-22.64435457241416 
1.0 1:-43.78936314498358 2:-37.72719947852255 
1.0 1:-48.98099546497471 2:-46.80275224406154 
-1.0 1:-20.1256957482222 2:-6.19840627606272 
1.0 1:41.19341922249714 2:-49.510365107618185 
1.0 1:11.44322462309485 2:-36.09400668909777 
1.0 1:-44.01148378367171 2:16.65193501431854 
-1.0 1:-17.387135243023607 2:2.534070880461414 
1.0 1:-16.771275820828805 2:48.2224070223244 
-1.0 1:-0.3554958780847315 2:24.90497596010296 
1.0 1:33.37619669427158 2:-33.21533382859043 
1.0 1:42.98469754160803 2:23.643955649382264 
-1.0 1:35.580247586950335 2:-3.032910805990433 
1.0 1:-8.056971957814298 2:41.205581000484855 
1.0 1:1.831627975591502 2:43.83902999771466 
-1.0 1:41.844479925584736 2:-12.757215366537544 
1.0 1:-28.29361131698846 2:41.53915064671263 
1.0 1:-45.19665458773248 2:-42.721473943905835 
1.0 1:28.602016510848017 2:28.857941655280605 
1.0 1:43.37092451105264 2:-39.88887983701696 
-1.0 1:-8.83843512340539 2:0.7581724489726511 
1.0 1:28.789856499914034 2:-28.16656023930568 
-1.0 1:30.749371075849517 2:-12.546241021421501 
-1.0 1:42.443307856162384 2:4.170526930454145 
1.0 1:47.38503649026558 2:24.67927894708799 
1.0 1:-49.682254398416774 2:4.039231676849994 
1.0 1:-47.53979716966272 2:0.16899119184415667 
-1.0 1:-24.096487282576433 2:-10.1921716218068 
-1.0 1:-43.14429280572263 2:-7.873916429208805 
-1.0 1:-23.06216010858691 2:-22.317285121490755 
1.0 1:47.74463884625373 2:-44.40056512951165 
1.0 1:-4.2495621930669785 2:-41.02646209704842 
1.0 1:-43.59024005235065 2:-37.80298956046113 
1.0 1:-48.29771465721228 2:-44.31268352964479 
1.0 1:-27.17819722751325 2:-42.54833454102645 
-1.0 1:-22.68635199025408 2:7.976331257034907 
1.0 1:-49.48198976120055 2:-31.583109906773757 
1.0 1:17.15790354080179 2:32.413783960359666 
1.0 1:-32.51163638583081 2:-28.293296493452033 
1.0 1:10.453155515523996 2:34.895447014459215 
-1.0 1:-34.680144934198154 2:19.205684085239895 
1.0 1:-35.485886306970784 2:-33.835261594971016 
-1.0 1:-20.232895941748424 2:15.06176977713045 
-1.0 1:-3.1677989155599917 2:-28.46712522393416 
1.0 1:1.2106882732332878 2:43.33624197706445 
-1.0 1:-21.467718578270564 2:9.31497255802013 
1.0 1:-36.867609303024324 2:-39.178004666605005 
1.0 1:-48.690098685443445 2:-5.17278872338558 
1.0 1:-49.22034303960967 2:-5.947077624443111 
-1.0 1:13.683391310883621 2:-31.510658783673023 
1.0 1:-49.39056293095577 2:13.41394636210972 
-1.0 1:-19.499351733006264 2:-12.348923894726319 
-1.0 1:23.89462585255072 2:0.5229942180915685 
-1.0 1:12.120889144975841 2:2.2101457200046752 
-1.0 1:-14.955794637730818 2:-22.30714259207255 
-1.0 1:-13.452868958605855 2:-6.086075265780053 
-1.0 1:-3.2687480827908075 2:30.292679003953538 
1.0 1:49.015607949246295 2:38.435876935967954 
1.0 1:-40.15914814640264 2:24.215445448669946 
-1.0 1:19.153855972244916 2:-12.10782186608892 
-1.0 1:-23.45698996007137 2:1.4196838670162393 
1.0 1:-34.20040677904876 2:-30.586822296362286 
-1.0 1:-0.5364403048785746 2:26.650156010993154 
1.0 1:-26.071959746028412 2:-47.29149258519594 
1.0 1:48.96906533621471 2:-42.04584005117104 
1.0 1:26.865780949434015 2:-43.73607441918324 
-1.0 1:-16.000324702154018 2:22.496759208017448 
1.0 1:10.07474746972509 2:37.88216967728406 
1.0 1:49.67686495155132 2:-2.5601109715077115 
1.0 1:10.27032965843867 2:-49.27070536760537 
-1.0 1:-2.919035645331327 2:23.287138702171497 
1.0 1:35.49315994834391 2:40.8722610767212 
-1.0 1:-22.863682641143342 2:14.107627653040836 
-1.0 1:17.984522070509513 2:16.492665062766164 
1.0 1:-48.5400642081577 2:-24.56085546382411 
1.0 1:-17.679166672386756 2:32.53577807001662 
-1.0 1:38.32244020113595 2:-3.5675383563990337 
-1.0 1:-33.75688414199584 2:7.503287863337526 
1.0 1:21.538045965088003 2:47.93541020488582 
-1.0 1:-29.027162065942235 2:21.42231783282529 
-1.0 1:-5.856644135538247 2:-7.272946717614495 
1.0 1:-8.464017660416268 2:35.72252931757845 
-1.0 1:-12.857324489729379 2:-2.0009988143712576 
1.0 1:35.722636082680005 2:26.82735873270706 
1.0 1:46.39048975202559 2:33.442640761315566 
1.0 1:-17.21005984614456 2:35.71461669109813 
1.0 1:-32.15020527212317 2:40.93774538086616 
-1.0 1:-40.12840977887352 2:5.5259347110579995 
-1.0 1:-16.99212496869235 2:-26.150315136681783 
-1.0 1:25.287666727457026 2:8.503736026235266 
-1.0 1:2.1491152888335137 2:25.32915068877646 
1.0 1:43.55396666791269 2:-47.89137267726177 
-1.0 1:-26.52258788041388 2:-4.229970837386887 
-1.0 1:16.87050888758158 2:2.119362390446369 
-1.0 1:0.7486821388680767 2:-10.282215257495807 
-1.0 1:2.224315713085879 2:-32.15830251811302 
-1.0 1:-18.883012575109277 2:-17.967552891647173 
1.0 1:-8.027862723949298 2:-38.748301915100996 
1.0 1:-21.68427947471669 2:-48.00303831603037 
1.0 1:-31.125903443752918 2:-32.02670369093981 
1.0 1:34.08828098117061 2:-47.67654505608313 
1.0 1:-35.97012439931028 2:-46.560913503433014 
1.0 1:42.950649555039334 2:-42.35336738033223 
1.0 1:48.02441369420827 2:-27.59243106745714 
-1.0 1:-28.0888019578384 2:24.10525563058584 
1.0 1:-28.179421399402926 2:-45.79070278319823 
-1.0 1:-2.308877343443015 2:-12.000626946875393 
-1.0 1:44.54178613232831 2:-0.33143245782842 
1.0 1:-40.71826137349639 2:37.27270688399863 
1.0 1:-9.732036478190523 2:48.59653148322549 
-1.0 1:-16.657028663594133 2:4.706290180691795 
1.0 1:-34.676256238828344 2:-40.924169983171126 
1.0 1:33.99023188295473 2:-43.77882523317126 
1.0 1:41.26823843257468 2:-18.543955687021835 
-1.0 1:-33.06507175048871 2:-18.425218656691328 
-1.0 1:-33.098791219621475 2:11.053508386448044 
1.0 1:30.736767894704208 2:37.997141359166854 
1.0 1:15.080929939559049 2:-36.00176836089361 
1.0 1:-44.90599775124741 2:49.9499881275965 
1.0 1:-2.9955159214612976 2:40.4948967441679 
-1.0 1:-2.359261854588482 2:30.203468928238863 
-1.0 1:-12.168248600972312 2:18.964104895157906 
1.0 1:-13.361608881658015 2:-41.18819039136973 
1.0 1:-46.86026432955799 2:-36.89570423140182 
1.0 1:-2.7586626174584765 2:37.33116006168231 
-1.0 1:-4.325567189224024 2:21.863966342040797 
1.0 1:33.684789010637274 2:25.759394478617292 
1.0 1:-43.777139609102846 2:-40.36200134821641 
1.0 1:-41.214107347918954 2:-30.81047710846721 
-1.0 1:1.1583333722822573 2:-29.298788692497922 
-1.0 1:15.566976525951546 2:30.054937555866566 
-1.0 1:12.317589438646927 2:7.9663557093954225 
1.0 1:23.60293258990983 2:-39.89342136203085 
-1.0 1:-37.651238393848686 2:-8.396891369754847 
-1.0 1:4.862566101232602 2:-26.101312247708734 
1.0 1:10.524734615790997 2:-42.12125655306846 
-1.0 1:0.35683368664699344 2:22.571637736304663 
1.0 1:-9.753152864882132 2:-37.21956592996497 
-1.0 1:-20.175223508927942 2:13.107025031324994 
1.0 1:-19.930601201020252 2:-31.44666052090085 
-1.0 1:21.98094245514255 2:-26.008144300759454 
1.0 1:-44.944157920977915 2:14.237844483655607 
1.0 1:-47.483887267792824 2:33.36550225862296 
-1.0 1:4.6330939956353845 2:3.6135536630776173 
1.0 1:-28.913977116577712 2:-49.765295336376084 
1.0 1:-23.159249462735232 2:35.65684443126813 
-1.0 1:-23.059178350315022 2:23.228695321326022 
1.0 1:-33.02240775324607 2:-46.306985392338945 
-1.0 1:15.640942258358692 2:-5.371803639357395 
-1.0 1:11.128118682612367 2:-0.1267379297005249 
-1.0 1:16.473006001374415 2:-29.961229915754657 
1.0 1:-28.092606130042157 2:31.43097905531349 
-1.0 1:-28.277567923110723 2:-13.909257460191114 
-1.0 1:14.992912987124129 2:-15.628956466900306 
-1.0 1:24.877263593705635 2:-20.065391186312254 
1.0 1:-29.382293895363716 2:-41.1799881098696 
1.0 1:-14.869171065583956 2:45.06254148478676 
1.0 1:-45.820689089567466 2:48.21432213357508 
-1.0 1:-29.781269259967985 2:-1.8765916374300815 
1.0 1:-15.52521538465406 2:41.82787951960306 
-1.0 1:-1.331355226805151 2:30.910328222640928 
-1.0 1:-13.197685565185814 2:-3.1604380867188553 
-1.0 1:5.959416511061534 2:-19.41341097774898 
-1.0 1:1.2755331504838097 2:2.2154395631287542 
1.0 1:46.87886020447725 2:19.477424003219856 
1.0 1:34.17704728512717 2:42.12969983468504 
1.0 1:-31.462330849208016 2:43.39190621816434 
-1.0 1:-7.9667869326531005 2:11.472491201846715 
-1.0 1:-4.960192576450993 2:24.450887632522388 
1.0 1:24.322608220090913 2:40.192144991668975 
-1.0 1:-44.272302384758234 2:-9.216349106664644 
1.0 1:-28.663833783771324 2:46.7933951997749 
-1.0 1:14.213531216021543 2:1.2177049818183008 
1.0 1:-31.31262970975098 2:-35.73749673437068 
-1.0 1:15.07597247107524 2:-1.777223632371495 
1.0 1:-0.6736038108552194 2:-35.98563388899116 
1.0 1:-40.85553001239569 2:46.881863214797626 
1.0 1:7.642570881942909 2:45.15591038415903 
-1.0 1:46.71142538612406 2:1.5488829653515168 
1.0 1:-1.6550878291040974 2:-42.56567310571421 
-1.0 1:-9.19463307760163 2:-14.885823235880181 
-1.0 1:35.2911144801331 2:-13.312138072764277 
-1.0 1:-0.1737069444127357 2:18.435873612143737 
1.0 1:32.29067667277007 2:-48.5588319000271 
-1.0 1:-39.612716250680606 2:-0.4932310308919412 
1.0 1:-10.861584166939174 2:38.48637480912912 
-1.0 1:17.12449722876336 2:3.3132109487192594 
1.0 1:-28.259922967188572 2:43.865296635376 
1.0 1:46.53055793129099 2:-45.895946690840034 
-1.0 1:-34.82782211556142 2:-16.382596201320894 
-1.0 1:-43.46558512426432 2:11.924606298726658 
-1.0 1:42.87374035627409 2:-4.017621886753318 
-1.0 1:12.593609284429029 2:14.78210696874909 
-1.0 1:-6.102004513902806 2:-26.554644198203533 
-1.0 1:-5.517052704800122 2:26.696043471147924 
1.0 1:33.25763040663955 2:39.08709147921721 
1.0 1:25.75648229039973 2:-39.85168133345057 
-1.0 1:-12.12236768187963 2:17.15058598076076 
-1.0 1:-9.972270463132425 2:-30.91499128730841 
1.0 1:2.525226004248701 2:42.55984388146613 
1.0 1:-45.24404961204024 2:45.63315952613205 
1.0 1:46.31686277445242 2:8.325757922244428 
-1.0 1:-35.85562819670028 2:0.08278285194494828 
1.0 1:21.00774253972687 2:-36.65176904926837 
1.0 1:38.04911097517034 2:-40.55402841324714 
1.0 1:-22.750252152306146 2:46.072924361489264 
-1.0 1:23.465612202564923 2:-14.958302501878975 
1.0 1:34.35919243396237 2:-28.214778998644093 
-1.0 1:-10.797692905951294 2:-15.933339270358417 
-1.0 1:-27.13377887514889 2:-16.97677069898414 
1.0 1:32.769234518614944 2:-26.000786428661115 
-1.0 1:27.223203683507823 2:23.665835655490564 
1.0 1:-18.69772601823199 2:-48.054873221507606 
1.0 1:48.529865103626136 2:7.701078345537638 
-1.0 1:15.511659428037142 2:23.670694970009066 
1.0 1:33.98847353449317 2:23.504286774694872 
1.0 1:27.186378497666077 2:-40.91964743270536 
1.0 1:31.0327412750252 2:43.65468330686617 
1.0 1:36.704044203624576 2:-37.71723231024086 
-1.0 1:19.679701173055562 2:-1.1066212910982216 
1.0 1:47.28881012209657 2:-24.848999619576304 
1.0 1:-43.36584209283734 2:22.774822685073094 
-1.0 1:-2.5721924709378925 2:-26.580872486283752 
-1.0 1:29.03090702275556 2:-19.111884369584175 
1.0 1:-8.100354074378494 2:-36.130607890411426 
1.0 1:14.430256112374671 2:-34.77628560605925 
1.0 1:45.286412229995086 2:-49.94933203786955 
1.0 1:-23.212009267376615 2:-39.66468970306897 
-1.0 1:-40.36641065500794 2:2.230766981097908 
1.0 1:45.60126162467355 2:-26.604116684840292 
1.0 1:-19.909681179511267 2:44.921814717955186 
1.0 1:27.28742576055 2:-34.928845872199645 
1.0 1:28.905341672261077 2:-37.6703433098038 
-1.0 1:-15.916674662032847 2:22.332868640299573 
-1.0 1:9.071970237292803 2:18.46493896142719 
-1.0 1:-13.64206705008798 2:-22.0914438865843 
-1.0 1:-5.791591671351036 2:-5.584703617152186 
-1.0 1:-0.7882230647257344 2:4.013669231230423 
1.0 1:-19.072344159131276 2:-39.58529024677031 
-1.0 1:3.592043670131993 2:-9.663845437424293 
-1.0 1:-26.005727247525897 2:24.857906106314196 
1.0 1:-24.117308437439718 2:-42.05719600448241 
1.0 1:2.9831888163415172 2:36.29429589724246 
1.0 1:-41.965595395181964 2:-38.149109580971356 
1.0 1:31.948764559685106 2:-42.30224404650468 
-1.0 1:42.77966018759165 2:-4.542152490493635 
-1.0 1:20.780213015837077 2:-15.054766535962955 
1.0 1:-24.666300259544357 2:29.845976861668277 
1.0 1:28.462539160087307 2:43.44884281685846 
-1.0 1:34.21258983668557 2:0.17832459114184473 
-1.0 1:14.380047298335306 2:-31.727088125570063 
-1.0 1:-0.5949129121629824 2:-10.023814042933601 
1.0 1:-5.907494826444712 2:-46.17089535708783 
1.0 1:46.11547277852696 2:-37.982170729353314 
1.0 1:40.68193928785383 2:49.37947162745261 
1.0 1:16.64998471100767 2:41.9222848436459 
-1.0 1:-8.188886895966576 2:-23.910985740848233 
-1.0 1:21.749941162174558 2:-22.81872504209788 
1.0 1:26.052589667435267 2:-49.74394311370416 
-1.0 1:5.780131163063849 2:-29.52346150911238 
-1.0 1:9.840346831023147 2:15.610437686240829 
-1.0 1:-22.3384813887197 2:21.569095806113303 
-1.0 1:-11.436169894376434 2:15.20625549466478 
-1.0 1:-38.7072577624067 2:6.871109277700761 
-1.0 1:1.8673067894423667 2:-29.552373425496626 
1.0 1:-44.56457225004738 2:-19.98966785236385 
1.0 1:44.135349460515016 2:-18.827384752136197 
-1.0 1:13.643694350499679 2:-9.72873180182409 
-1.0 1:-33.561726663786104 2:16.48223191266527 
-1.0 1:-40.20115644439548 2:-11.253571802814186 
1.0 1:25.87928951825066 2:31.13811443958904 
1.0 1:44.165549755480306 2:24.355272525766413 
-1.0 1:32.32809670615872 2:16.86420045228091 
-1.0 1:18.616437358113856 2:23.587651801503828 
-1.0 1:20.943659300273954 2:-18.225537157239117 
-1.0 1:-32.22264534704425 2:-1.0972162340761358 
1.0 1:-8.318188258694128 2:44.41044621119021 
1.0 1:-24.673874032447458 2:41.163991997852364 
-1.0 1:4.15137205988497 2:31.50909847938713 
-1.0 1:31.533052962869235 2:21.3137112756139 
-1.0 1:-2.2746575773537785 2:-19.36686906770639 
1.0 1:-0.6381255248974398 2:-44.30759234743229 
1.0 1:22.731829415499217 2:-29.817245897385035 
1.0 1:-47.9446060779682 2:-22.020655796132786 
-1.0 1:18.842175761990198 2:30.06950621069312 
-1.0 1:-24.889570788545782 2:8.682314979537878 
1.0 1:-38.55809781031617 2:26.469489293342875 
-1.0 1:-10.09778572560733 2:20.427660857082074 
1.0 1:15.81287082801527 2:-36.41490322375145 
1.0 1:4.94886591514971 2:-35.998816515453626 
-1.0 1:-7.626805596581818 2:4.231038997750922 
1.0 1:33.9119694896202 2:46.164677398175634 
-1.0 1:-15.985712320430807 2:-20.67782608069308 
1.0 1:36.90982885010931 2:35.72211695947597 
1.0 1:-11.257538398664416 2:33.97736621248172 
1.0 1:43.57539254319871 2:19.133715297545095 
1.0 1:-22.62457641300108 2:44.965360386472916 
-1.0 1:2.5213183576548417 2:31.175270445862992 
1.0 1:-43.03795015917474 2:40.605289760398136 
1.0 1:-27.519856482444254 2:49.71447254173593 
1.0 1:5.886680964867985 2:-40.00374312540818 
1.0 1:25.36793014941624 2:-33.37496283873335 
-1.0 1:16.28725706813178 2:3.587066668011488 
1.0 1:-29.124667717284737 2:29.18375790121098 
1.0 1:-26.540486743580686 2:-48.39105886443258 
-1.0 1:35.92037774940358 2:-12.005193610946016 
1.0 1:30.33745266695089 2:-39.219209598248554 
-1.0 1:40.4028006127913 2:-11.440231952289203 
-1.0 1:-2.066733512376331 2:-7.041754533594393 
-1.0 1:3.180239389591435 2:4.061224089890558 
-1.0 1:-30.212134901702598 2:-17.96549242902867 
-1.0 1:-10.957990511027461 2:26.75178693916682 
-1.0 1:30.026117282628697 2:7.412661361932251 
-1.0 1:-31.313271270198413 2:14.539813114892212 
-1.0 1:-39.471101995940145 2:13.755894238292129 
-1.0 1:9.31544104211229 2:27.937188007715896 
-1.0 1:-36.973014591847814 2:-2.516228110830731 
-1.0 1:43.43242847105642 2:-9.516193452368483 
1.0 1:46.58984222470871 2:-29.380604809762602 
1.0 1:-22.1986428397161 2:-36.912410488486785 
-1.0 1:0.02526873951177322 2:12.10405832564345 
1.0 1:3.2348108201053023 2:39.418106934308824 
-1.0 1:-27.876122368814933 2:25.582675504400754 
1.0 1:49.00082942982261 2:45.56607264315667 
1.0 1:20.47532416437664 2:40.92498385578617 
1.0 1:-6.889537732387588 2:-37.36977432566033 
1.0 1:-38.24878193466638 2:24.38429298150452 
-1.0 1:-8.39413768135374 2:-14.282693950102882 
-1.0 1:-37.10748674033101 2:-0.6928028575917367 
-1.0 1:26.19886569497256 2:-12.959931607989496 
1.0 1:-46.44269851545437 2:25.694429602720536 
1.0 1:-9.784454122940524 2:-35.62752332730726 
1.0 1:15.47772657194605 2:42.67477123339516 
1.0 1:37.782607353353725 2:29.07046750011244 
1.0 1:14.042864448872358 2:43.090580894856714 
-1.0 1:10.547050179079243 2:20.190872794456194 
-1.0 1:-18.532750704883938 2:23.905321365664545 
-1.0 1:29.95090270812589 2:22.940307659637206 
1.0 1:39.32281124191339 2:40.03007489139321 
-1.0 1:1.1883955443118808 2:20.76004081123647 
-1.0 1:-38.99515284191001 2:-17.572122361545354 
-1.0 1:17.453312417565257 2:20.802144601387095 
-1.0 1:21.87073091984354 2:3.9912815740105643 
1.0 1:-20.060173590361003 2:-37.62367340104464 
1.0 1:-33.66706691895163 2:28.70041497757203 
1.0 1:-39.709495558967504 2:47.14618313015072 
-1.0 1:37.1059494830829 2:0.9554105596259461 
-1.0 1:27.79069532359404 2:18.427743106008066 
1.0 1:-37.900287960623515 2:-37.261120145178 
1.0 1:43.588965583010506 2:-35.107530671245584 
-1.0 1:-20.880027299852273 2:-13.599244317594419 
-1.0 1:-11.421290480397076 2:31.300992180683195 
1.0 1:-2.420836051110733 2:40.369615439192664 
-1.0 1:40.306520703374645 2:-14.406782828120086 
1.0 1:49.839222424406195 2:23.981259648853516 
1.0 1:47.37843685521583 2:17.734524894241034 
-1.0 1:-27.399261085400823 2:-24.12294927895242 
1.0 1:-32.684470627331834 2:31.167094019577412 
1.0 1:-19.079077321665338 2:38.061287962825304 
1.0 1:35.6659243185613 2:32.53954510958563 
1.0 1:-46.0143492663194 2:44.718515797821055 
-1.0 1:20.410650240252416 2:29.58737551460976 
-1.0 1:42.679015249198685 2:1.278478593044241 
-1.0 1:-13.693676346023985 2:10.610783186898956 
1.0 1:34.286630328897026 2:24.978089840664264 
1.0 1:48.7880421490464 2:1.9458308614022002 
1.0 1:-30.663024773142524 2:33.306534973284855 
-1.0 1:36.41138252344754 2:-17.851044247956665 
-1.0 1:-0.3719668012168498 2:-8.768676186031477 
-1.0 1:4.54287065804165 2:-26.685786006995684 
1.0 1:4.904412933138694 2:-38.01014660528257 
1.0 1:-48.88631094969922 2:31.0167525752039 
1.0 1:48.443149894861214 2:49.492731801227116 
-1.0 1:-22.267998327706024 2:14.825241720406169 
1.0 1:48.974322987727334 2:-26.97814836447978 
1.0 1:16.304536357404366 2:41.150279151564035 
-1.0 1:-22.094388622990607 2:-23.0820779335739 
-1.0 1:2.548763507564935 2:-0.6050797854876819 
1.0 1:-43.262133785042266 2:49.33886381022072 
1.0 1:23.38228228034055 2:-49.05225239728826 
-1.0 1:29.851768804642287 2:4.932232647161285 
-1.0 1:-4.843372948181823 2:28.508110600870495 
-1.0 1:22.513563762903754 2:-23.598501168746424 
-1.0 1:44.05809247449851 2:10.557369077485966 
1.0 1:-37.009090932559445 2:-40.54222386371555 
1.0 1:-41.27128708210826 2:-37.51079380667065 
1.0 1:-48.91225034892082 2:-35.46468371067468 
-1.0 1:-31.7340750398006 2:11.986287209618354 
1.0 1:-6.799813641652122 2:46.91072492066337 
1.0 1:-33.760018044926184 2:-38.32021989077444 
-1.0 1:-3.836796413547326 2:14.502708949434705 
1.0 1:-46.776372811522506 2:36.95242012920286 
1.0 1:18.70114971902421 2:49.64074376903284 
-1.0 1:6.5589725653615005 2:20.94510186930695 
-1.0 1:20.21279163763787 2:27.477862805474707 
1.0 1:6.692055080632173 2:42.40110646470298 
1.0 1:21.914734194485675 2:-30.515550533704996 
1.0 1:-45.61401186921205 2:-45.06862349041485 
1.0 1:5.035019470627574 2:35.59665483300011 
-1.0 1:2.4790471262137643 2:-21.391586853225647 
1.0 1:14.791590311714344 2:33.104733605731 
-1.0 1:-0.41540125734478295 2:-33.50439891696544 
-1.0 1:17.30837267459033 2:4.253394400815779 
-1.0 1:1.2351458562226298 2:9.793007156134962 
1.0 1:-30.585360364464293 2:47.78787070479096 
-1.0 1:46.45330465970409 2:5.729895803621211 
-1.0 1:8.441297472092515 2:32.31625730509879 
-1.0 1:24.587955655539282 2:-17.84158003050355 
1.0 1:-49.329281549440196 2:-28.62974404843655 
-1.0 1:-31.515709493890938 2:2.002193534707196 
1.0 1:3.0147149687152393 2:-48.56670172985848 
1.0 1:5.661982292706881 2:-40.71237005741152 
1.0 1:42.788178696032546 2:34.96665376939825 
-1.0 1:-20.843912911050637 2:26.435173931579182 
-1.0 1:5.113946823345529 2:0.60090652564854 
-1.0 1:14.03086324765146 2:19.81179808981239 
1.0 1:36.53734918058651 2:32.17184546520845 
1.0 1:-45.692932389129666 2:17.24527751137218 
-1.0 1:26.84691941707895 2:27.16660446077731 
-1.0 1:28.14882900005513 2:-12.724937617011676 
1.0 1:18.890695656357238 2:-36.59247339845393 
-1.0 1:16.636612293921026 2:-24.636268591321013 
1.0 1:18.34550428544529 2:40.43802490759114 
1.0 1:3.3083006336770637 2:37.11724316506738 
-1.0 1:-18.060414985371693 2:-0.9136449760363661 
-1.0 1:-32.11915490651742 2:12.761424325290847 
1.0 1:-46.45308669909906 2:19.069994621262822 
-1.0 1:-41.829529375139984 2:0.6963476649379245 
-1.0 1:42.86450484845863 2:0.2650083793948923 
-1.0 1:29.209795144724925 2:10.899491651843618 
1.0 1:1.05198178338334 2:48.40152747220071 
1.0 1:-22.08421665361172 2:-38.72726112481574 
-1.0 1:41.75564289939676 2:10.45812747015097 
-1.0 1:25.39287991498369 2:21.727550342769586 
1.0 1:-15.642760600580331 2:38.914692915396756 
-1.0 1:7.0611256470897175 2:11.876854543752692 
-1.0 1:-40.919340992715505 2:7.2850243958326715 
-1.0 1:23.279563449552832 2:18.651369271465036 
1.0 1:10.757625124385285 2:-48.012856864399495 
-1.0 1:-20.009325414271657 2:19.98235122713815 
-1.0 1:-30.403428783410263 2:-22.37896295683788 
-1.0 1:10.142085939226988 2:-20.108060766010453 
1.0 1:23.216742403113322 2:34.11023984670287 
-1.0 1:12.247226835683158 2:18.906525628433624 
1.0 1:24.50259685390963 2:-45.07461422076604 
1.0 1:-27.57288274796909 2:-38.34225900580553 
1.0 1:4.501515998857698 2:35.74462300352015 
1.0 1:-49.36910053051082 2:20.85992765593253 
1.0 1:28.630833722239014 2:32.41742210382829 
-1.0 1:10.463231402528116 2:-6.447853518668211 
1.0 1:37.87812058877887 2:-34.01488602441171 
1.0 1:-44.84791003032869 2:21.56700177940739 
1.0 1:-45.5283308346971 2:40.773148213085534 
-1.0 1:-0.3289416735637616 2:3.6377850606539326 
-1.0 1:3.666073143334856 2:9.206811087377297 
1.0 1:-39.114449842781724 2:41.379655473535394 
1.0 1:9.830765639703223 2:-45.986134807311416 
1.0 1:-16.176995281465054 2:-44.4202190692088 
-1.0 1:-34.05264904789178 2:4.864263369012988 
1.0 1:42.77245666872106 2:22.80562336309081 
1.0 1:-49.08546933525393 2:-37.74115705104431 
1.0 1:-39.10059746323182 2:-44.7102922754796 
1.0 1:-21.272588312767553 2:-33.38439797140016 
-1.0 1:-18.58263528898084 2:-20.62650468800537 
-1.0 1:7.640913082177079 2:25.013874811395766 
1.0 1:-2.9120312651123257 2:-40.50783586846252 
-1.0 1:15.844998973632066 2:-8.056515057148282 
1.0 1:2.926895686882858 2:-34.24369834224295 
-1.0 1:-37.0275806604117 2:-6.332407221205628 
-1.0 1:-20.52654207666049 2:-6.364176674630009 
-1.0 1:3.927591230788316 2:-11.555237265611431 
-1.0 1:40.837070007490915 2:14.075500736603509 
-1.0 1:3.0682371782654414 2:-33.13256907070212 
1.0 1:-7.035636046407554 2:-38.42914967271237 
-1.0 1:12.689392901464188 2:17.960697145489767 
1.0 1:43.17610364773494 2:-43.69272841342534 
-1.0 1:30.05229859942028 2:17.4470898697642 
-1.0 1:-17.996424777590377 2:4.4145348739400205 
1.0 1:31.86872359692624 2:34.719644001952645 
-1.0 1:22.709614777838873 2:27.71298752127137 
-1.0 1:4.19421046777024 2:4.5773994306025045 
1.0 1:32.609816594462536 2:41.02704658756726 
1.0 1:39.101681177297394 2:-31.335932015308273 
-1.0 1:23.41505381191844 2:21.215710131600108 
1.0 1:-42.700120588996654 2:-40.1875533625267 
-1.0 1:-14.703204594224133 2:-2.4808332789651857 
-1.0 1:38.02897378465512 2:-19.86625437662724 
1.0 1:-48.76773330087592 2:37.644620386383025 
-1.0 1:-5.89123988085106 2:10.7028341285749 
-1.0 1:-35.58309692714646 2:8.213877199506094 
-1.0 1:20.93276033966427 2:-12.922953173483023 
1.0 1:-7.862948263350198 2:-48.23075945470865 
-1.0 1:-26.50547535487223 2:-19.352049795009492 
1.0 1:-15.52365865879922 2:45.483685817920474 
1.0 1:-14.799583873957161 2:40.96217594928543 
-1.0 1:15.584589182871213 2:-10.954672952878589 
-1.0 1:36.266118318347 2:-21.340855259913454 
-1.0 1:-31.03141048185624 2:10.885552669870648 
-1.0 1:7.9120696791723475 2:2.5602336561147396 
-1.0 1:36.36963002692721 2:-17.00569626690894 
1.0 1:21.366009558368194 2:-32.294351822989114 
-1.0 1:-7.726990546970349 2:-4.984701097778618 
1.0 1:-42.151214865158266 2:43.77197685412381 
1.0 1:-17.0497103346041 2:-41.861879216417634 
-1.0 1:-12.737473070117566 2:-24.68485651349924 
-1.0 1:30.165560489063314 2:-11.496611051904395 
-1.0 1:-0.7817123365574474 2:-23.329838948737518 
1.0 1:-4.717647041053262 2:-41.58859499728193 
-1.0 1:30.33318236816166 2:-14.899154549615645 
-1.0 1:-20.51158257542697 2:1.5739129433315213 
-1.0 1:16.395083048804658 2:-14.070673231097501 
1.0 1:-49.78905240450955 2:15.97278459402338 
-1.0 1:-32.964181963134024 2:22.88696659560555 
-1.0 1:-17.4745921713928 2:24.5887193386234 
-1.0 1:-36.02813319818422 2:15.814925538712899 
-1.0 1:-12.53353235420709 2:30.337245865921936 
