svm_type c_svc
kernel_type rbf
gamma 0.125
nr_class 2
total_sv 488
rho -1.632324491193341E-5
label 1 -1
nr_sv 244 244
SV
32768.0 1:0.9740035690646083 2:3.035903144455941 3:0.9704756749328327 4:3.032774296423811 
32768.0 1:0.9790270904346923 2:3.0348051256115545 3:0.9704756749328327 4:3.032774296423811 
32768.0 1:0.9790270904346923 2:3.0348051256115545 3:0.9740035690646083 4:3.035903144455941 
32768.0 1:0.9608420866775869 2:3.0299966365587756 3:0.9704756749328327 4:3.032774296423811 
32768.0 1:0.9608420866775869 2:3.0299966365587756 3:0.9740035690646083 4:3.035903144455941 
32768.0 1:0.9608420866775869 2:3.0299966365587756 3:0.9790270904346923 4:3.0348051256115545 
32768.0 1:0.9605414883701692 2:3.039003943500611 3:0.9704756749328327 4:3.032774296423811 
32768.0 1:0.9605414883701692 2:3.039003943500611 3:0.9740035690646083 4:3.035903144455941 
32768.0 1:0.9605414883701692 2:3.039003943500611 3:0.9790270904346923 4:3.0348051256115545 
32768.0 1:0.9605414883701692 2:3.039003943500611 3:0.9608420866775869 4:3.0299966365587756 
32768.0 1:1.008115426157498 2:3.0206680685224336 3:0.9704756749328327 4:3.032774296423811 
32768.0 1:1.008115426157498 2:3.0206680685224336 3:0.9740035690646083 4:3.035903144455941 
32768.0 1:1.008115426157498 2:3.0206680685224336 3:0.9790270904346923 4:3.0348051256115545 
32768.0 1:1.008115426157498 2:3.0206680685224336 3:0.9608420866775869 4:3.0299966365587756 
32768.0 1:1.008115426157498 2:3.0206680685224336 3:0.9605414883701692 4:3.039003943500611 
32768.0 1:0.9579315998404856 2:3.0016680376246048 3:0.9704756749328327 4:3.032774296423811 
32768.0 1:0.9579315998404856 2:3.0016680376246048 3:0.9740035690646083 4:3.035903144455941 
32768.0 1:0.9579315998404856 2:3.0016680376246048 3:0.9790270904346923 4:3.0348051256115545 
32768.0 1:0.9579315998404856 2:3.0016680376246048 3:0.9608420866775869 4:3.0299966365587756 
32768.0 1:0.9579315998404856 2:3.0016680376246048 3:0.9605414883701692 4:3.039003943500611 
32768.0 1:0.9579315998404856 2:3.0016680376246048 3:1.008115426157498 4:3.0206680685224336 
32768.0 1:0.9626290235836695 2:2.993609274293781 3:0.9704756749328327 4:3.032774296423811 
32768.0 1:0.9626290235836695 2:2.993609274293781 3:0.9740035690646083 4:3.035903144455941 
32768.0 1:0.9626290235836695 2:2.993609274293781 3:0.9790270904346923 4:3.0348051256115545 
32768.0 1:0.9626290235836695 2:2.993609274293781 3:0.9608420866775869 4:3.0299966365587756 
32768.0 1:0.9626290235836695 2:2.993609274293781 3:0.9605414883701692 4:3.039003943500611 
32768.0 1:0.9626290235836695 2:2.993609274293781 3:1.008115426157498 4:3.0206680685224336 
32768.0 1:0.9626290235836695 2:2.993609274293781 3:0.9579315998404856 4:3.0016680376246048 
32768.0 1:0.9696780296457573 2:2.9851501629591617 3:0.9704756749328327 4:3.032774296423811 
32768.0 1:0.9696780296457573 2:2.9851501629591617 3:0.9740035690646083 4:3.035903144455941 
32768.0 1:0.9696780296457573 2:2.9851501629591617 3:0.9790270904346923 4:3.0348051256115545 
32768.0 1:0.9696780296457573 2:2.9851501629591617 3:0.9608420866775869 4:3.0299966365587756 
32768.0 1:0.9696780296457573 2:2.9851501629591617 3:0.9605414883701692 4:3.039003943500611 
32768.0 1:0.9696780296457573 2:2.9851501629591617 3:1.008115426157498 4:3.0206680685224336 
32768.0 1:0.9696780296457573 2:2.9851501629591617 3:0.9579315998404856 4:3.0016680376246048 
32768.0 1:0.9696780296457573 2:2.9851501629591617 3:0.9626290235836695 4:2.993609274293781 
32768.0 1:1.0892527639938328 2:2.954812457435772 3:0.9704756749328327 4:3.032774296423811 
25430.666059994943 1:1.0892527639938328 2:2.954812457435772 3:0.9740035690646083 4:3.035903144455941 
32768.0 1:1.0892527639938328 2:2.954812457435772 3:0.9790270904346923 4:3.0348051256115545 
32768.0 1:1.0892527639938328 2:2.954812457435772 3:0.9608420866775869 4:3.0299966365587756 
32768.0 1:1.0892527639938328 2:2.954812457435772 3:1.008115426157498 4:3.0206680685224336 
32768.0 1:1.0892527639938328 2:2.954812457435772 3:0.9579315998404856 4:3.0016680376246048 
32768.0 1:1.0892527639938328 2:2.954812457435772 3:0.9626290235836695 4:2.993609274293781 
32768.0 1:1.0892527639938328 2:2.954812457435772 3:0.9696780296457573 4:2.9851501629591617 
32768.0 1:0.9812265220469055 2:2.945717873134123 3:0.9696780296457573 4:2.9851501629591617 
32768.0 1:0.9812265220469055 2:2.945717873134123 3:1.0892527639938328 4:2.954812457435772 
10371.59768775391 1:0.7822231867093233 2:3.3173326722954912 3:0.9626290235836695 4:2.993609274293781 
32768.0 1:0.7822231867093233 2:3.3173326722954912 3:0.9696780296457573 4:2.9851501629591617 
32768.0 1:0.7822231867093233 2:3.3173326722954912 3:0.9812265220469055 4:2.945717873134123 
690.5929207001669 1:1.416521532427742 2:2.7116679743613727 3:0.7822231867093233 4:3.3173326722954912 
15016.370125832993 1:1.108094723449094 2:3.233345658410502 3:1.482429273514878 4:2.647674037212081 
32768.0 1:1.108094723449094 2:3.233345658410502 3:1.502029770442543 4:2.539946914833415 
15337.023163982463 1:1.567865488166765 2:2.5308049679415214 3:1.502029770442543 4:2.539946914833415 
6778.439778658599 1:1.567865488166765 2:2.5308049679415214 3:1.108094723449094 4:3.233345658410502 
13624.943093110116 1:1.7276106734182097 2:2.4560223209031036 3:1.108094723449094 4:3.233345658410502 
6331.216659716429 1:0.6102157208152322 2:2.8126295328078026 3:1.627655928631452 4:2.4276154539300725 
1355.7578337684795 1:1.2431615417727195 2:3.625420075607729 3:-0.11698728938026749 4:3.9666905843939446 
101.33127666509402 1:-1.4515965487442148 2:1.784509625110729 3:0.6510619846629222 4:6.38080393633016 
14.178289280750796 1:1.1770449135077996 2:-0.7975965880282416 3:-2.495539442174845 4:4.598971789882597 
58.087610911243 1:1.1770449135077996 2:-0.7975965880282416 3:0.6510619846629222 4:6.38080393633016 
0.6326556366284524 1:-5.611216826030736 2:7.551465691891906 3:1.2431615417727195 4:3.625420075607729 
0.654047330015251 1:-5.611216826030736 2:7.551465691891906 3:-2.495539442174845 4:4.598971789882597 
1.4326833668712429 1:-5.611216826030736 2:7.551465691891906 3:0.6510619846629222 4:6.38080393633016 
1.3439825347391545 1:-5.611216826030736 2:7.551465691891906 3:1.1770449135077996 4:-0.7975965880282416 
1.874893235558984 1:-2.6556441044645656 2:9.399830019135436 3:0.6510619846629222 4:6.38080393633016 
2.7727206974067595 1:-2.6556441044645656 2:9.399830019135436 3:-5.611216826030736 4:7.551465691891906 
17.278453088101994 1:-0.7963534953812541 2:8.9253465054963 3:-1.4515965487442148 4:1.784509625110729 
13.858116164099687 1:-0.7963534953812541 2:8.9253465054963 3:1.1770449135077996 4:-0.7975965880282416 
3.1785414814978235 1:-0.7963534953812541 2:8.9253465054963 3:-5.611216826030736 4:7.551465691891906 
1.5445698126878302 1:-0.7963534953812541 2:8.9253465054963 3:-2.6556441044645656 4:9.399830019135436 
0.7162330378097832 1:4.885458769528537 2:-4.537634314538792 3:1.7276106734182097 4:2.4560223209031036 
0.19827714080425804 1:4.885458769528537 2:-4.537634314538792 3:-2.495539442174845 4:4.598971789882597 
1.145028794849127 1:4.885458769528537 2:-4.537634314538792 3:-1.4515965487442148 4:1.784509625110729 
0.2830715164630935 1:4.885458769528537 2:-4.537634314538792 3:1.1770449135077996 4:-0.7975965880282416 
4.590082553232172 1:4.885458769528537 2:-4.537634314538792 3:-5.611216826030736 4:7.551465691891906 
0.027353349952717647 1:4.885458769528537 2:-4.537634314538792 3:-0.7963534953812541 4:8.9253465054963 
0.06340109562707281 1:-6.777526263850053 2:6.8385712102769 3:1.7276106734182097 4:2.4560223209031036 
0.35219298431814555 1:-6.777526263850053 2:6.8385712102769 3:-2.495539442174845 4:4.598971789882597 
0.5766830876603622 1:-6.777526263850053 2:6.8385712102769 3:-1.4515965487442148 4:1.784509625110729 
0.500168859611816 1:-6.777526263850053 2:6.8385712102769 3:1.1770449135077996 4:-0.7975965880282416 
2.1980552629481465 1:-6.777526263850053 2:6.8385712102769 3:-5.611216826030736 4:7.551465691891906 
2.327228040455357 1:-6.777526263850053 2:6.8385712102769 3:-2.6556441044645656 4:9.399830019135436 
2.8316218750980924 1:-6.777526263850053 2:6.8385712102769 3:-0.7963534953812541 4:8.9253465054963 
5.863200409128436 1:-6.777526263850053 2:6.8385712102769 3:4.885458769528537 4:-4.537634314538792 
1.3994613780612053 1:-4.769335443153211 2:3.1115085705162056 3:-2.6556441044645656 4:9.399830019135436 
2.563084151064466 1:-4.769335443153211 2:3.1115085705162056 3:4.885458769528537 4:-4.537634314538792 
1.2477369477691487 1:-4.769335443153211 2:3.1115085705162056 3:-6.777526263850053 4:6.8385712102769 
0.18667916539802779 1:6.154379847707464 2:-6.332603483209926 3:1.2431615417727195 4:3.625420075607729 
0.5260305179458514 1:6.154379847707464 2:-6.332603483209926 3:0.6510619846629222 4:6.38080393633016 
0.7206229738847483 1:6.154379847707464 2:-6.332603483209926 3:1.1770449135077996 4:-0.7975965880282416 
0.6552129963725589 1:6.154379847707464 2:-6.332603483209926 3:-0.7963534953812541 4:8.9253465054963 
1.6717990741960027 1:6.154379847707464 2:-6.332603483209926 3:4.885458769528537 4:-4.537634314538792 
2.0468706878734713 1:6.154379847707464 2:-6.332603483209926 3:-6.777526263850053 4:6.8385712102769 
2.5348890544588616 1:6.154379847707464 2:-6.332603483209926 3:-4.769335443153211 4:3.1115085705162056 
0.029030257827081758 1:9.485692235244557 2:0.42752610268833635 3:1.7276106734182097 4:2.4560223209031036 
0.37846682140979704 1:9.485692235244557 2:0.42752610268833635 3:1.2431615417727195 4:3.625420075607729 
0.018666113619152387 1:9.485692235244557 2:0.42752610268833635 3:-2.495539442174845 4:4.598971789882597 
0.29868064675910777 1:9.485692235244557 2:0.42752610268833635 3:0.6510619846629222 4:6.38080393633016 
0.34927050555852623 1:9.485692235244557 2:0.42752610268833635 3:-1.4515965487442148 4:1.784509625110729 
0.8712771025315784 1:9.485692235244557 2:0.42752610268833635 3:1.1770449135077996 4:-0.7975965880282416 
0.11374921458331087 1:9.485692235244557 2:0.42752610268833635 3:-5.611216826030736 4:7.551465691891906 
0.38569582985689155 1:9.485692235244557 2:0.42752610268833635 3:-2.6556441044645656 4:9.399830019135436 
0.24919020807255748 1:9.485692235244557 2:0.42752610268833635 3:-0.7963534953812541 4:8.9253465054963 
0.5288886840161837 1:9.485692235244557 2:0.42752610268833635 3:4.885458769528537 4:-4.537634314538792 
0.4506236961602853 1:9.485692235244557 2:0.42752610268833635 3:-6.777526263850053 4:6.8385712102769 
0.7222690221476296 1:9.485692235244557 2:0.42752610268833635 3:-4.769335443153211 4:3.1115085705162056 
0.3681844375694063 1:9.485692235244557 2:0.42752610268833635 3:6.154379847707464 4:-6.332603483209926 
0.12702746805592433 1:9.000482383977463 2:2.0887785035829953 3:-2.495539442174845 4:4.598971789882597 
0.5380211646038753 1:9.000482383977463 2:2.0887785035829953 3:0.6510619846629222 4:6.38080393633016 
0.4334127144859012 1:9.000482383977463 2:2.0887785035829953 3:-1.4515965487442148 4:1.784509625110729 
0.1077603753248819 1:9.000482383977463 2:2.0887785035829953 3:1.1770449135077996 4:-0.7975965880282416 
0.10029116302257132 1:9.000482383977463 2:2.0887785035829953 3:-5.611216826030736 4:7.551465691891906 
0.36872955492171494 1:9.000482383977463 2:2.0887785035829953 3:-2.6556441044645656 4:9.399830019135436 
0.12942803450917606 1:9.000482383977463 2:2.0887785035829953 3:-0.7963534953812541 4:8.9253465054963 
0.5016286582257133 1:9.000482383977463 2:2.0887785035829953 3:4.885458769528537 4:-4.537634314538792 
0.36327689671113494 1:9.000482383977463 2:2.0887785035829953 3:-6.777526263850053 4:6.8385712102769 
0.6553068880970555 1:9.000482383977463 2:2.0887785035829953 3:-4.769335443153211 4:3.1115085705162056 
0.284725862792974 1:9.000482383977463 2:2.0887785035829953 3:6.154379847707464 4:-6.332603483209926 
1.8434686086211285 1:9.000482383977463 2:2.0887785035829953 3:9.485692235244557 4:0.42752610268833635 
1.1392261648329636 1:1.212598309051426 2:-4.783933835437352 3:-2.6556441044645656 4:9.399830019135436 
0.009173544672741191 1:1.212598309051426 2:-4.783933835437352 3:4.885458769528537 4:-4.537634314538792 
1.2178973906252901 1:1.212598309051426 2:-4.783933835437352 3:-6.777526263850053 4:6.8385712102769 
1.2877207664137487 1:1.212598309051426 2:-4.783933835437352 3:6.154379847707464 4:-6.332603483209926 
0.6884422244996309 1:1.212598309051426 2:-4.783933835437352 3:9.485692235244557 4:0.42752610268833635 
0.6880212177986234 1:1.212598309051426 2:-4.783933835437352 3:9.000482383977463 4:2.0887785035829953 
0.09098580067643974 1:1.0732300637979453 2:-5.281388365074693 3:1.257301368073108 4:0.5894146459723473 
1.0207512466410174 1:1.0732300637979453 2:-5.281388365074693 3:-4.769335443153211 4:3.1115085705162056 
15.323855127998675 1:1.0732300637979453 2:-5.281388365074693 3:1.212598309051426 4:-4.783933835437352 
0.5133543694709959 1:-5.182197161807219 2:0.08971132742727583 3:-2.6556441044645656 4:9.399830019135436 
0.2011929394004571 1:-5.182197161807219 2:0.08971132742727583 3:-6.777526263850053 4:6.8385712102769 
0.5714596860998783 1:-5.182197161807219 2:0.08971132742727583 3:-4.769335443153211 4:3.1115085705162056 
1.0938066464224212 1:-5.182197161807219 2:0.08971132742727583 3:6.154379847707464 4:-6.332603483209926 
0.6692168784051921 1:-5.182197161807219 2:0.08971132742727583 3:9.485692235244557 4:0.42752610268833635 
0.6913160786690666 1:-5.182197161807219 2:0.08971132742727583 3:9.000482383977463 4:2.0887785035829953 
1.4814998596656264 1:-5.182197161807219 2:0.08971132742727583 3:1.0732300637979453 4:-5.281388365074693 
0.6322208154194381 1:-4.297286188768106 2:-2.749278983192638 3:-2.6556441044645656 4:9.399830019135436 
0.2954562215473989 1:-4.297286188768106 2:-2.749278983192638 3:4.885458769528537 4:-4.537634314538792 
0.6195215944634137 1:-4.297286188768106 2:-2.749278983192638 3:-6.777526263850053 4:6.8385712102769 
0.09074575086533948 1:-4.297286188768106 2:-2.749278983192638 3:-4.769335443153211 4:3.1115085705162056 
0.14024127157582553 1:-4.297286188768106 2:-2.749278983192638 3:6.154379847707464 4:-6.332603483209926 
0.16589458731303838 1:-4.297286188768106 2:-2.749278983192638 3:9.485692235244557 4:0.42752610268833635 
0.20526033207089803 1:-4.297286188768106 2:-2.749278983192638 3:9.000482383977463 4:2.0887785035829953 
0.41646490656910135 1:-4.297286188768106 2:-2.749278983192638 3:1.0732300637979453 4:-5.281388365074693 
1.190079072381977 1:-4.297286188768106 2:-2.749278983192638 3:-5.182197161807219 4:0.08971132742727583 
0.5200658852915687 1:-8.589055884435686 2:0.8402502106205141 3:1.7276106734182097 4:2.4560223209031036 
0.08502755854467935 1:-8.589055884435686 2:0.8402502106205141 3:1.2431615417727195 4:3.625420075607729 
0.33367085549666486 1:-8.589055884435686 2:0.8402502106205141 3:-2.495539442174845 4:4.598971789882597 
0.48608149716235566 1:-8.589055884435686 2:0.8402502106205141 3:0.6510619846629222 4:6.38080393633016 
0.36473802071451444 1:-8.589055884435686 2:0.8402502106205141 3:-1.4515965487442148 4:1.784509625110729 
0.6385036984627731 1:-8.589055884435686 2:0.8402502106205141 3:1.1770449135077996 4:-0.7975965880282416 
0.15089936515662983 1:-8.589055884435686 2:0.8402502106205141 3:-5.611216826030736 4:7.551465691891906 
0.3740641114933034 1:-8.589055884435686 2:0.8402502106205141 3:-2.6556441044645656 4:9.399830019135436 
0.34338158517614786 1:-8.589055884435686 2:0.8402502106205141 3:-0.7963534953812541 4:8.9253465054963 
0.0687814845868089 1:-8.589055884435686 2:0.8402502106205141 3:4.885458769528537 4:-4.537634314538792 
0.5838400265074808 1:-8.589055884435686 2:0.8402502106205141 3:-6.777526263850053 4:6.8385712102769 
0.481192171510146 1:-8.589055884435686 2:0.8402502106205141 3:-4.769335443153211 4:3.1115085705162056 
0.7480715010434564 1:-8.589055884435686 2:0.8402502106205141 3:6.154379847707464 4:-6.332603483209926 
0.4641351945647343 1:-8.589055884435686 2:0.8402502106205141 3:9.485692235244557 4:0.42752610268833635 
0.5483322154031691 1:-8.589055884435686 2:0.8402502106205141 3:9.000482383977463 4:2.0887785035829953 
1.3408417817080356 1:-8.589055884435686 2:0.8402502106205141 3:1.0732300637979453 4:-5.281388365074693 
0.24111629859982958 1:-8.589055884435686 2:0.8402502106205141 3:-5.182197161807219 4:0.08971132742727583 
2.151952715376383 1:-8.589055884435686 2:0.8402502106205141 3:-4.297286188768106 4:-2.749278983192638 
0.3399933764076425 1:-0.7415169346616821 2:-7.061362449002089 3:1.7276106734182097 4:2.4560223209031036 
0.07775313849025187 1:-0.7415169346616821 2:-7.061362449002089 3:1.257301368073108 4:0.5894146459723473 
0.3555053004812936 1:-0.7415169346616821 2:-7.061362449002089 3:-1.4515965487442148 4:1.784509625110729 
0.1265845619875126 1:-0.7415169346616821 2:-7.061362449002089 3:-0.7963534953812541 4:8.9253465054963 
0.20743519586745404 1:-0.7415169346616821 2:-7.061362449002089 3:9.000482383977463 4:2.0887785035829953 
0.6249181694523976 1:-0.7415169346616821 2:-7.061362449002089 3:-5.182197161807219 4:0.08971132742727583 
2.0401086556896626 1:-0.7415169346616821 2:-7.061362449002089 3:-4.297286188768106 4:-2.749278983192638 
1.2133084011468627 1:-0.7415169346616821 2:-7.061362449002089 3:-8.589055884435686 4:0.8402502106205141 
0.0925368381906684 1:-3.586939864604304 2:-4.926520939044443 3:1.7276106734182097 4:2.4560223209031036 
0.1251631799412741 1:-3.586939864604304 2:-4.926520939044443 3:-2.495539442174845 4:4.598971789882597 
0.2490808147241781 1:-3.586939864604304 2:-4.926520939044443 3:-1.4515965487442148 4:1.784509625110729 
0.516724980228924 1:-3.586939864604304 2:-4.926520939044443 3:1.1770449135077996 4:-0.7975965880282416 
0.09849534344484648 1:-3.586939864604304 2:-4.926520939044443 3:-5.611216826030736 4:7.551465691891906 
0.07311525803410775 1:-3.586939864604304 2:-4.926520939044443 3:-2.6556441044645656 4:9.399830019135436 
0.2482896992449447 1:-3.586939864604304 2:-4.926520939044443 3:-0.7963534953812541 4:8.9253465054963 
0.17468625558606526 1:-3.586939864604304 2:-4.926520939044443 3:4.885458769528537 4:-4.537634314538792 
0.13076876759941203 1:-3.586939864604304 2:-4.926520939044443 3:-6.777526263850053 4:6.8385712102769 
0.1552338075462588 1:-3.586939864604304 2:-4.926520939044443 3:-4.769335443153211 4:3.1115085705162056 
0.3138851627742273 1:-3.586939864604304 2:-4.926520939044443 3:6.154379847707464 4:-6.332603483209926 
0.19709170874486248 1:-3.586939864604304 2:-4.926520939044443 3:9.485692235244557 4:0.42752610268833635 
0.3547956029891601 1:-3.586939864604304 2:-4.926520939044443 3:9.000482383977463 4:2.0887785035829953 
1.7060064157017512 1:-3.586939864604304 2:-4.926520939044443 3:-8.589055884435686 4:0.8402502106205141 
7.403781163942047 1:-3.586939864604304 2:-4.926520939044443 3:-0.7415169346616821 4:-7.061362449002089 
0.39288663478968355 1:9.287681063299356 2:7.378000582385454 3:1.7276106734182097 4:2.4560223209031036 
0.04656919233843198 1:9.287681063299356 2:7.378000582385454 3:1.2431615417727195 4:3.625420075607729 
0.38518924664989146 1:9.287681063299356 2:7.378000582385454 3:-2.495539442174845 4:4.598971789882597 
0.6175151974607245 1:9.287681063299356 2:7.378000582385454 3:0.6510619846629222 4:6.38080393633016 
0.37472764666250774 1:9.287681063299356 2:7.378000582385454 3:-1.4515965487442148 4:1.784509625110729 
0.7281838281077602 1:9.287681063299356 2:7.378000582385454 3:1.1770449135077996 4:-0.7975965880282416 
0.16787958102609712 1:9.287681063299356 2:7.378000582385454 3:-5.611216826030736 4:7.551465691891906 
0.6200760900228047 1:9.287681063299356 2:7.378000582385454 3:-2.6556441044645656 4:9.399830019135436 
0.3354088471870161 1:9.287681063299356 2:7.378000582385454 3:-0.7963534953812541 4:8.9253465054963 
0.5373463306517792 1:9.287681063299356 2:7.378000582385454 3:4.885458769528537 4:-4.537634314538792 
0.7432988242531746 1:9.287681063299356 2:7.378000582385454 3:-6.777526263850053 4:6.8385712102769 
0.39488357625156556 1:9.287681063299356 2:7.378000582385454 3:-4.769335443153211 4:3.1115085705162056 
0.6715006118085804 1:9.287681063299356 2:7.378000582385454 3:6.154379847707464 4:-6.332603483209926 
0.5319591026931842 1:9.287681063299356 2:7.378000582385454 3:9.485692235244557 4:0.42752610268833635 
0.6002758895660243 1:9.287681063299356 2:7.378000582385454 3:9.000482383977463 4:2.0887785035829953 
0.5713586377383374 1:9.287681063299356 2:7.378000582385454 3:-5.182197161807219 4:0.08971132742727583 
0.8646431690426111 1:9.287681063299356 2:7.378000582385454 3:-8.589055884435686 4:0.8402502106205141 
7.466221019066164 1:9.287681063299356 2:7.378000582385454 3:-0.7415169346616821 4:-7.061362449002089 
2.7888061148551926 1:9.287681063299356 2:7.378000582385454 3:-3.586939864604304 4:-4.926520939044443 
0.2835627932469308 1:-1.9118220993288855 2:-7.117028761424344 3:1.7276106734182097 4:2.4560223209031036 
0.01217234679155639 1:-1.9118220993288855 2:-7.117028761424344 3:1.2431615417727195 4:3.625420075607729 
0.3162788507451791 1:-1.9118220993288855 2:-7.117028761424344 3:-2.495539442174845 4:4.598971789882597 
0.5222779393147365 1:-1.9118220993288855 2:-7.117028761424344 3:0.6510619846629222 4:6.38080393633016 
0.0016086520259048433 1:-1.9118220993288855 2:-7.117028761424344 3:-1.4515965487442148 4:1.784509625110729 
0.17326113927127157 1:-1.9118220993288855 2:-7.117028761424344 3:1.1770449135077996 4:-0.7975965880282416 
0.13429403028180736 1:-1.9118220993288855 2:-7.117028761424344 3:-5.611216826030736 4:7.551465691891906 
0.4021844979340188 1:-1.9118220993288855 2:-7.117028761424344 3:-2.6556441044645656 4:9.399830019135436 
0.15956650761329294 1:-1.9118220993288855 2:-7.117028761424344 3:-0.7963534953812541 4:8.9253465054963 
0.1637914778615108 1:-1.9118220993288855 2:-7.117028761424344 3:4.885458769528537 4:-4.537634314538792 
0.48806877759818557 1:-1.9118220993288855 2:-7.117028761424344 3:-6.777526263850053 4:6.8385712102769 
0.157993187451411 1:-1.9118220993288855 2:-7.117028761424344 3:-4.769335443153211 4:3.1115085705162056 
0.49688391462611675 1:-1.9118220993288855 2:-7.117028761424344 3:6.154379847707464 4:-6.332603483209926 
0.43646487778568505 1:-1.9118220993288855 2:-7.117028761424344 3:9.485692235244557 4:0.42752610268833635 
0.11410189300132069 1:-1.9118220993288855 2:-7.117028761424344 3:9.000482383977463 4:2.0887785035829953 
0.8735492461804505 1:-1.9118220993288855 2:-7.117028761424344 3:-0.7415169346616821 4:-7.061362449002089 
7.025451103750658 1:-1.9118220993288855 2:-7.117028761424344 3:-3.586939864604304 4:-4.926520939044443 
8.341874153479836 1:-1.9118220993288855 2:-7.117028761424344 3:9.287681063299356 4:7.378000582385454 
0.5314392779912561 1:-8.00630699158327 2:-5.256352970506962 3:1.7276106734182097 4:2.4560223209031036 
0.08110428105177686 1:-8.00630699158327 2:-5.256352970506962 3:1.2431615417727195 4:3.625420075607729 
0.37157703061917885 1:-8.00630699158327 2:-5.256352970506962 3:-2.495539442174845 4:4.598971789882597 
0.6263113399523451 1:-8.00630699158327 2:-5.256352970506962 3:0.6510619846629222 4:6.38080393633016 
0.37027874506086444 1:-8.00630699158327 2:-5.256352970506962 3:-1.4515965487442148 4:1.784509625110729 
0.6186963990071703 1:-8.00630699158327 2:-5.256352970506962 3:1.1770449135077996 4:-0.7975965880282416 
0.16182354829464704 1:-8.00630699158327 2:-5.256352970506962 3:-5.611216826030736 4:7.551465691891906 
0.5628522837929744 1:-8.00630699158327 2:-5.256352970506962 3:-2.6556441044645656 4:9.399830019135436 
0.31506196418586085 1:-8.00630699158327 2:-5.256352970506962 3:-0.7963534953812541 4:8.9253465054963 
0.4372655658058579 1:-8.00630699158327 2:-5.256352970506962 3:4.885458769528537 4:-4.537634314538792 
0.6777556567309962 1:-8.00630699158327 2:-5.256352970506962 3:-6.777526263850053 4:6.8385712102769 
0.4229069054766133 1:-8.00630699158327 2:-5.256352970506962 3:-4.769335443153211 4:3.1115085705162056 
0.6568399628790047 1:-8.00630699158327 2:-5.256352970506962 3:6.154379847707464 4:-6.332603483209926 
0.5795597839332964 1:-8.00630699158327 2:-5.256352970506962 3:9.485692235244557 4:0.42752610268833635 
0.4795448209667183 1:-8.00630699158327 2:-5.256352970506962 3:9.000482383977463 4:2.0887785035829953 
0.5041229518152586 1:-8.00630699158327 2:-5.256352970506962 3:1.212598309051426 4:-4.783933835437352 
0.30146947456016077 1:-8.00630699158327 2:-5.256352970506962 3:-5.182197161807219 4:0.08971132742727583 
0.560936752035967 1:-8.00630699158327 2:-5.256352970506962 3:-4.297286188768106 4:-2.749278983192638 
0.8866665654498119 1:-8.00630699158327 2:-5.256352970506962 3:-8.589055884435686 4:0.8402502106205141 
0.41949014835336934 1:-8.00630699158327 2:-5.256352970506962 3:-3.586939864604304 4:-4.926520939044443 
1.1900906872392196 1:-8.00630699158327 2:-5.256352970506962 3:9.287681063299356 4:7.378000582385454 
0.9319693823294963 1:-8.00630699158327 2:-5.256352970506962 3:-1.9118220993288855 4:-7.117028761424344 
-32768.0 1:0.9704756749328327 2:3.032774296423811 3:0.9740035690646083 4:3.035903144455941 
-32768.0 1:0.9704756749328327 2:3.032774296423811 3:0.9790270904346923 4:3.0348051256115545 
-32768.0 1:0.9704756749328327 2:3.032774296423811 3:0.9608420866775869 4:3.0299966365587756 
-32768.0 1:0.9704756749328327 2:3.032774296423811 3:0.9605414883701692 4:3.039003943500611 
-32768.0 1:0.9704756749328327 2:3.032774296423811 3:1.008115426157498 4:3.0206680685224336 
-32768.0 1:0.9704756749328327 2:3.032774296423811 3:0.9579315998404856 4:3.0016680376246048 
-32768.0 1:0.9704756749328327 2:3.032774296423811 3:0.9626290235836695 4:2.993609274293781 
-32768.0 1:0.9704756749328327 2:3.032774296423811 3:0.9696780296457573 4:2.9851501629591617 
-32768.0 1:0.9704756749328327 2:3.032774296423811 3:1.0892527639938328 4:2.954812457435772 
-32768.0 1:0.9740035690646083 2:3.035903144455941 3:0.9790270904346923 4:3.0348051256115545 
-32768.0 1:0.9740035690646083 2:3.035903144455941 3:0.9608420866775869 4:3.0299966365587756 
-32768.0 1:0.9740035690646083 2:3.035903144455941 3:0.9605414883701692 4:3.039003943500611 
-32768.0 1:0.9740035690646083 2:3.035903144455941 3:1.008115426157498 4:3.0206680685224336 
-32768.0 1:0.9740035690646083 2:3.035903144455941 3:0.9579315998404856 4:3.0016680376246048 
-32768.0 1:0.9740035690646083 2:3.035903144455941 3:0.9626290235836695 4:2.993609274293781 
-32768.0 1:0.9740035690646083 2:3.035903144455941 3:0.9696780296457573 4:2.9851501629591617 
-25429.90989314233 1:0.9740035690646083 2:3.035903144455941 3:1.0892527639938328 4:2.954812457435772 
-32768.0 1:0.9790270904346923 2:3.0348051256115545 3:0.9608420866775869 4:3.0299966365587756 
-32768.0 1:0.9790270904346923 2:3.0348051256115545 3:0.9605414883701692 4:3.039003943500611 
-32768.0 1:0.9790270904346923 2:3.0348051256115545 3:1.008115426157498 4:3.0206680685224336 
-32768.0 1:0.9790270904346923 2:3.0348051256115545 3:0.9579315998404856 4:3.0016680376246048 
-32768.0 1:0.9790270904346923 2:3.0348051256115545 3:0.9626290235836695 4:2.993609274293781 
-32768.0 1:0.9790270904346923 2:3.0348051256115545 3:0.9696780296457573 4:2.9851501629591617 
-32768.0 1:0.9790270904346923 2:3.0348051256115545 3:1.0892527639938328 4:2.954812457435772 
-32768.0 1:0.9608420866775869 2:3.0299966365587756 3:0.9605414883701692 4:3.039003943500611 
-32768.0 1:0.9608420866775869 2:3.0299966365587756 3:1.008115426157498 4:3.0206680685224336 
-32768.0 1:0.9608420866775869 2:3.0299966365587756 3:0.9579315998404856 4:3.0016680376246048 
-32768.0 1:0.9608420866775869 2:3.0299966365587756 3:0.9626290235836695 4:2.993609274293781 
-32768.0 1:0.9608420866775869 2:3.0299966365587756 3:0.9696780296457573 4:2.9851501629591617 
-32768.0 1:0.9608420866775869 2:3.0299966365587756 3:1.0892527639938328 4:2.954812457435772 
-32768.0 1:0.9605414883701692 2:3.039003943500611 3:1.008115426157498 4:3.0206680685224336 
-32768.0 1:0.9605414883701692 2:3.039003943500611 3:0.9579315998404856 4:3.0016680376246048 
-32768.0 1:0.9605414883701692 2:3.039003943500611 3:0.9626290235836695 4:2.993609274293781 
-32768.0 1:0.9605414883701692 2:3.039003943500611 3:0.9696780296457573 4:2.9851501629591617 
-32768.0 1:1.008115426157498 2:3.0206680685224336 3:0.9579315998404856 4:3.0016680376246048 
-32768.0 1:1.008115426157498 2:3.0206680685224336 3:0.9626290235836695 4:2.993609274293781 
-32768.0 1:1.008115426157498 2:3.0206680685224336 3:0.9696780296457573 4:2.9851501629591617 
-32768.0 1:1.008115426157498 2:3.0206680685224336 3:1.0892527639938328 4:2.954812457435772 
-32768.0 1:0.9579315998404856 2:3.0016680376246048 3:0.9626290235836695 4:2.993609274293781 
-32768.0 1:0.9579315998404856 2:3.0016680376246048 3:0.9696780296457573 4:2.9851501629591617 
-32768.0 1:0.9579315998404856 2:3.0016680376246048 3:1.0892527639938328 4:2.954812457435772 
-32768.0 1:0.9626290235836695 2:2.993609274293781 3:0.9696780296457573 4:2.9851501629591617 
-32768.0 1:0.9626290235836695 2:2.993609274293781 3:1.0892527639938328 4:2.954812457435772 
-10371.9612399076 1:0.9626290235836695 2:2.993609274293781 3:0.7822231867093233 4:3.3173326722954912 
-32768.0 1:0.9696780296457573 2:2.9851501629591617 3:1.0892527639938328 4:2.954812457435772 
-32768.0 1:0.9696780296457573 2:2.9851501629591617 3:0.9812265220469055 4:2.945717873134123 
-32768.0 1:0.9696780296457573 2:2.9851501629591617 3:0.7822231867093233 4:3.3173326722954912 
-32768.0 1:1.0892527639938328 2:2.954812457435772 3:0.9812265220469055 4:2.945717873134123 
-32768.0 1:0.9812265220469055 2:2.945717873134123 3:0.7822231867093233 4:3.3173326722954912 
-690.3441132737773 1:0.7822231867093233 2:3.3173326722954912 3:1.416521532427742 4:2.7116679743613727 
-15016.569806124151 1:1.482429273514878 2:2.647674037212081 3:1.108094723449094 4:3.233345658410502 
-32768.0 1:1.502029770442543 2:2.539946914833415 3:1.108094723449094 4:3.233345658410502 
-15336.993757021079 1:1.502029770442543 2:2.539946914833415 3:1.567865488166765 4:2.5308049679415214 
-6779.889845184688 1:1.108094723449094 2:3.233345658410502 3:1.567865488166765 4:2.5308049679415214 
-13623.817742163157 1:1.108094723449094 2:3.233345658410502 3:1.7276106734182097 4:2.4560223209031036 
-6331.370595004958 1:1.627655928631452 2:2.4276154539300725 3:0.6102157208152322 4:2.8126295328078026 
-0.716619483974791 1:1.7276106734182097 2:2.4560223209031036 3:4.885458769528537 4:-4.537634314538792 
-0.06434865300021447 1:1.7276106734182097 2:2.4560223209031036 3:-6.777526263850053 4:6.8385712102769 
-0.030589629819622377 1:1.7276106734182097 2:2.4560223209031036 3:9.485692235244557 4:0.42752610268833635 
-0.5192314919170934 1:1.7276106734182097 2:2.4560223209031036 3:-8.589055884435686 4:0.8402502106205141 
-0.34232498383526194 1:1.7276106734182097 2:2.4560223209031036 3:-0.7415169346616821 4:-7.061362449002089 
-0.09222389072504483 1:1.7276106734182097 2:2.4560223209031036 3:-3.586939864604304 4:-4.926520939044443 
-0.3939933204283196 1:1.7276106734182097 2:2.4560223209031036 3:9.287681063299356 4:7.378000582385454 
-0.28612521299320415 1:1.7276106734182097 2:2.4560223209031036 3:-1.9118220993288855 4:-7.117028761424344 
-0.5296221579876831 1:1.7276106734182097 2:2.4560223209031036 3:-8.00630699158327 4:-5.256352970506962 
-1355.7541267463262 1:-0.11698728938026749 2:3.9666905843939446 3:1.2431615417727195 4:3.625420075607729 
-0.6317253128510861 1:1.2431615417727195 2:3.625420075607729 3:-5.611216826030736 4:7.551465691891906 
-0.18669076441367868 1:1.2431615417727195 2:3.625420075607729 3:6.154379847707464 4:-6.332603483209926 
-0.37664401397163116 1:1.2431615417727195 2:3.625420075607729 3:9.485692235244557 4:0.42752610268833635 
-0.08627100924341391 1:1.2431615417727195 2:3.625420075607729 3:-8.589055884435686 4:0.8402502106205141 
-0.04623417112326758 1:1.2431615417727195 2:3.625420075607729 3:9.287681063299356 4:7.378000582385454 
-0.008883125585799368 1:1.2431615417727195 2:3.625420075607729 3:-1.9118220993288855 4:-7.117028761424344 
-0.0828497567614685 1:1.2431615417727195 2:3.625420075607729 3:-8.00630699158327 4:-5.256352970506962 
-0.09185216473609938 1:1.257301368073108 2:0.5894146459723473 3:1.0732300637979453 4:-5.281388365074693 
-0.07403359000700187 1:1.257301368073108 2:0.5894146459723473 3:-0.7415169346616821 4:-7.061362449002089 
-14.17725376142299 1:-2.495539442174845 2:4.598971789882597 3:1.1770449135077996 4:-0.7975965880282416 
-0.6544639936532078 1:-2.495539442174845 2:4.598971789882597 3:-5.611216826030736 4:7.551465691891906 
-0.19900661059343105 1:-2.495539442174845 2:4.598971789882597 3:4.885458769528537 4:-4.537634314538792 
-0.3525481175085837 1:-2.495539442174845 2:4.598971789882597 3:-6.777526263850053 4:6.8385712102769 
-0.01893524686591089 1:-2.495539442174845 2:4.598971789882597 3:9.485692235244557 4:0.42752610268833635 
-0.12692641919676573 1:-2.495539442174845 2:4.598971789882597 3:9.000482383977463 4:2.0887785035829953 
-0.33387307141739647 1:-2.495539442174845 2:4.598971789882597 3:-8.589055884435686 4:0.8402502106205141 
-0.12543550330111441 1:-2.495539442174845 2:4.598971789882597 3:-3.586939864604304 4:-4.926520939044443 
-0.3851131074013726 1:-2.495539442174845 2:4.598971789882597 3:9.287681063299356 4:7.378000582385454 
-0.31594103964376924 1:-2.495539442174845 2:4.598971789882597 3:-1.9118220993288855 4:-7.117028761424344 
-0.37196343684808414 1:-2.495539442174845 2:4.598971789882597 3:-8.00630699158327 4:-5.256352970506962 
-101.32824522594767 1:0.6510619846629222 2:6.38080393633016 3:-1.4515965487442148 4:1.784509625110729 
-58.0852884739813 1:0.6510619846629222 2:6.38080393633016 3:1.1770449135077996 4:-0.7975965880282416 
-1.433653608216322 1:0.6510619846629222 2:6.38080393633016 3:-5.611216826030736 4:7.551465691891906 
-1.874698878288244 1:0.6510619846629222 2:6.38080393633016 3:-2.6556441044645656 4:9.399830019135436 
-0.5252942059953862 1:0.6510619846629222 2:6.38080393633016 3:6.154379847707464 4:-6.332603483209926 
-0.30185088144891203 1:0.6510619846629222 2:6.38080393633016 3:9.485692235244557 4:0.42752610268833635 
-0.5356585906795287 1:0.6510619846629222 2:6.38080393633016 3:9.000482383977463 4:2.0887785035829953 
-0.48546928633592124 1:0.6510619846629222 2:6.38080393633016 3:-8.589055884435686 4:0.8402502106205141 
-0.6173062027774537 1:0.6510619846629222 2:6.38080393633016 3:9.287681063299356 4:7.378000582385454 
-0.5230588503083615 1:0.6510619846629222 2:6.38080393633016 3:-1.9118220993288855 4:-7.117028761424344 
-0.6255270543859865 1:0.6510619846629222 2:6.38080393633016 3:-8.00630699158327 4:-5.256352970506962 
-17.279090730148518 1:-1.4515965487442148 2:1.784509625110729 3:-0.7963534953812541 4:8.9253465054963 
-1.144639279566419 1:-1.4515965487442148 2:1.784509625110729 3:4.885458769528537 4:-4.537634314538792 
-0.5760397238931448 1:-1.4515965487442148 2:1.784509625110729 3:-6.777526263850053 4:6.8385712102769 
-0.34780660557714665 1:-1.4515965487442148 2:1.784509625110729 3:9.485692235244557 4:0.42752610268833635 
-0.4348286801574084 1:-1.4515965487442148 2:1.784509625110729 3:9.000482383977463 4:2.0887785035829953 
-0.36430072177444606 1:-1.4515965487442148 2:1.784509625110729 3:-8.589055884435686 4:0.8402502106205141 
-0.3550007880307754 1:-1.4515965487442148 2:1.784509625110729 3:-0.7415169346616821 4:-7.061362449002089 
-0.2496956769827182 1:-1.4515965487442148 2:1.784509625110729 3:-3.586939864604304 4:-4.926520939044443 
-0.37421176106936954 1:-1.4515965487442148 2:1.784509625110729 3:9.287681063299356 4:7.378000582385454 
-0.002158956648738944 1:-1.4515965487442148 2:1.784509625110729 3:-1.9118220993288855 4:-7.117028761424344 
-0.3696494714613496 1:-1.4515965487442148 2:1.784509625110729 3:-8.00630699158327 4:-5.256352970506962 
-1.345298015520657 1:1.1770449135077996 2:-0.7975965880282416 3:-5.611216826030736 4:7.551465691891906 
-13.858939317374963 1:1.1770449135077996 2:-0.7975965880282416 3:-0.7963534953812541 4:8.9253465054963 
-0.28208553972331846 1:1.1770449135077996 2:-0.7975965880282416 3:4.885458769528537 4:-4.537634314538792 
-0.4984394220039963 1:1.1770449135077996 2:-0.7975965880282416 3:-6.777526263850053 4:6.8385712102769 
-0.7213170917277644 1:1.1770449135077996 2:-0.7975965880282416 3:6.154379847707464 4:-6.332603483209926 
-0.8727425376562923 1:1.1770449135077996 2:-0.7975965880282416 3:9.485692235244557 4:0.42752610268833635 
-0.10604729302835673 1:1.1770449135077996 2:-0.7975965880282416 3:9.000482383977463 4:2.0887785035829953 
-0.6384554488547248 1:1.1770449135077996 2:-0.7975965880282416 3:-8.589055884435686 4:0.8402502106205141 
-0.5154979218270628 1:1.1770449135077996 2:-0.7975965880282416 3:-3.586939864604304 4:-4.926520939044443 
-0.7281826939995797 1:1.1770449135077996 2:-0.7975965880282416 3:9.287681063299356 4:7.378000582385454 
-0.17599689137572405 1:1.1770449135077996 2:-0.7975965880282416 3:-1.9118220993288855 4:-7.117028761424344 
-0.6193215823786437 1:1.1770449135077996 2:-0.7975965880282416 3:-8.00630699158327 4:-5.256352970506962 
-2.7731629051558 1:-5.611216826030736 2:7.551465691891906 3:-2.6556441044645656 4:9.399830019135436 
-3.17756201262995 1:-5.611216826030736 2:7.551465691891906 3:-0.7963534953812541 4:8.9253465054963 
-4.589436594792973 1:-5.611216826030736 2:7.551465691891906 3:4.885458769528537 4:-4.537634314538792 
-2.1977637944774493 1:-5.611216826030736 2:7.551465691891906 3:-6.777526263850053 4:6.8385712102769 
-0.10856759279950297 1:-5.611216826030736 2:7.551465691891906 3:9.485692235244557 4:0.42752610268833635 
-0.10565158729933058 1:-5.611216826030736 2:7.551465691891906 3:9.000482383977463 4:2.0887785035829953 
-0.15009194186545569 1:-5.611216826030736 2:7.551465691891906 3:-8.589055884435686 4:0.8402502106205141 
-0.09764806306617077 1:-5.611216826030736 2:7.551465691891906 3:-3.586939864604304 4:-4.926520939044443 
-0.1683705745089465 1:-5.611216826030736 2:7.551465691891906 3:9.287681063299356 4:7.378000582385454 
-0.1350617066860422 1:-5.611216826030736 2:7.551465691891906 3:-1.9118220993288855 4:-7.117028761424344 
-0.16230653148170635 1:-5.611216826030736 2:7.551465691891906 3:-8.00630699158327 4:-5.256352970506962 
-1.5446089489442127 1:-2.6556441044645656 2:9.399830019135436 3:-0.7963534953812541 4:8.9253465054963 
-2.327898034156926 1:-2.6556441044645656 2:9.399830019135436 3:-6.777526263850053 4:6.8385712102769 
-1.4001473512835196 1:-2.6556441044645656 2:9.399830019135436 3:-4.769335443153211 4:3.1115085705162056 
-0.39204119434908746 1:-2.6556441044645656 2:9.399830019135436 3:9.485692235244557 4:0.42752610268833635 
-0.36280508821109114 1:-2.6556441044645656 2:9.399830019135436 3:9.000482383977463 4:2.0887785035829953 
-1.138723347420798 1:-2.6556441044645656 2:9.399830019135436 3:1.212598309051426 4:-4.783933835437352 
-0.5131071508617953 1:-2.6556441044645656 2:9.399830019135436 3:-5.182197161807219 4:0.08971132742727583 
-0.6317930623366954 1:-2.6556441044645656 2:9.399830019135436 3:-4.297286188768106 4:-2.749278983192638 
-0.37350937943493817 1:-2.6556441044645656 2:9.399830019135436 3:-8.589055884435686 4:0.8402502106205141 
-0.0743215834638696 1:-2.6556441044645656 2:9.399830019135436 3:-3.586939864604304 4:-4.926520939044443 
-0.6201742369643867 1:-2.6556441044645656 2:9.399830019135436 3:9.287681063299356 4:7.378000582385454 
-0.4021041199429837 1:-2.6556441044645656 2:9.399830019135436 3:-1.9118220993288855 4:-7.117028761424344 
-0.5623939542897112 1:-2.6556441044645656 2:9.399830019135436 3:-8.00630699158327 4:-5.256352970506962 
-0.027137494324813813 1:-0.7963534953812541 2:8.9253465054963 3:4.885458769528537 4:-4.537634314538792 
-2.831417773492325 1:-0.7963534953812541 2:8.9253465054963 3:-6.777526263850053 4:6.8385712102769 
-0.6557878477177075 1:-0.7963534953812541 2:8.9253465054963 3:6.154379847707464 4:-6.332603483209926 
-0.24205697014005514 1:-0.7963534953812541 2:8.9253465054963 3:9.485692235244557 4:0.42752610268833635 
-0.13603256226771385 1:-0.7963534953812541 2:8.9253465054963 3:9.000482383977463 4:2.0887785035829953 
-0.34365846986642457 1:-0.7963534953812541 2:8.9253465054963 3:-8.589055884435686 4:0.8402502106205141 
-0.127303870645011 1:-0.7963534953812541 2:8.9253465054963 3:-0.7415169346616821 4:-7.061362449002089 
-0.24787074470997547 1:-0.7963534953812541 2:8.9253465054963 3:-3.586939864604304 4:-4.926520939044443 
-0.3355670676916983 1:-0.7963534953812541 2:8.9253465054963 3:9.287681063299356 4:7.378000582385454 
-0.15883166189258438 1:-0.7963534953812541 2:8.9253465054963 3:-1.9118220993288855 4:-7.117028761424344 
-0.3152092124894219 1:-0.7963534953812541 2:8.9253465054963 3:-8.00630699158327 4:-5.256352970506962 
-5.8635959693711275 1:4.885458769528537 2:-4.537634314538792 3:-6.777526263850053 4:6.8385712102769 
-2.562881086748665 1:4.885458769528537 2:-4.537634314538792 3:-4.769335443153211 4:3.1115085705162056 
-1.6721127032857113 1:4.885458769528537 2:-4.537634314538792 3:6.154379847707464 4:-6.332603483209926 
-0.5299370767060606 1:4.885458769528537 2:-4.537634314538792 3:9.485692235244557 4:0.42752610268833635 
-0.5006000427996106 1:4.885458769528537 2:-4.537634314538792 3:9.000482383977463 4:2.0887785035829953 
-0.010043426339232792 1:4.885458769528537 2:-4.537634314538792 3:1.212598309051426 4:-4.783933835437352 
-0.29423219533325934 1:4.885458769528537 2:-4.537634314538792 3:-4.297286188768106 4:-2.749278983192638 
-0.06827362443518102 1:4.885458769528537 2:-4.537634314538792 3:-8.589055884435686 4:0.8402502106205141 
-0.1762946845147454 1:4.885458769528537 2:-4.537634314538792 3:-3.586939864604304 4:-4.926520939044443 
-0.5370302304511648 1:4.885458769528537 2:-4.537634314538792 3:9.287681063299356 4:7.378000582385454 
-0.1619915985289139 1:4.885458769528537 2:-4.537634314538792 3:-1.9118220993288855 4:-7.117028761424344 
-0.43692865556998506 1:4.885458769528537 2:-4.537634314538792 3:-8.00630699158327 4:-5.256352970506962 
-1.2472597151995277 1:-6.777526263850053 2:6.8385712102769 3:-4.769335443153211 4:3.1115085705162056 
-2.047103403571438 1:-6.777526263850053 2:6.8385712102769 3:6.154379847707464 4:-6.332603483209926 
-0.45412949286305687 1:-6.777526263850053 2:6.8385712102769 3:9.485692235244557 4:0.42752610268833635 
-0.3593349669302082 1:-6.777526263850053 2:6.8385712102769 3:9.000482383977463 4:2.0887785035829953 
-1.2180596266162549 1:-6.777526263850053 2:6.8385712102769 3:1.212598309051426 4:-4.783933835437352 
-0.20217251254682586 1:-6.777526263850053 2:6.8385712102769 3:-5.182197161807219 4:0.08971132742727583 
-0.618008281373936 1:-6.777526263850053 2:6.8385712102769 3:-4.297286188768106 4:-2.749278983192638 
-0.5846101713893167 1:-6.777526263850053 2:6.8385712102769 3:-8.589055884435686 4:0.8402502106205141 
-0.13185830441543536 1:-6.777526263850053 2:6.8385712102769 3:-3.586939864604304 4:-4.926520939044443 
-0.7428825634510936 1:-6.777526263850053 2:6.8385712102769 3:9.287681063299356 4:7.378000582385454 
-0.48699731081971553 1:-6.777526263850053 2:6.8385712102769 3:-1.9118220993288855 4:-7.117028761424344 
-0.6776962506849012 1:-6.777526263850053 2:6.8385712102769 3:-8.00630699158327 4:-5.256352970506962 
-2.534680315260785 1:-4.769335443153211 2:3.1115085705162056 3:6.154379847707464 4:-6.332603483209926 
-0.7239749352762227 1:-4.769335443153211 2:3.1115085705162056 3:9.485692235244557 4:0.42752610268833635 
-0.6537639881910791 1:-4.769335443153211 2:3.1115085705162056 3:9.000482383977463 4:2.0887785035829953 
-1.0213517532225873 1:-4.769335443153211 2:3.1115085705162056 3:1.0732300637979453 4:-5.281388365074693 
-0.5708045546250797 1:-4.769335443153211 2:3.1115085705162056 3:-5.182197161807219 4:0.08971132742727583 
-0.09220180838970049 1:-4.769335443153211 2:3.1115085705162056 3:-4.297286188768106 4:-2.749278983192638 
-0.48132336180683405 1:-4.769335443153211 2:3.1115085705162056 3:-8.589055884435686 4:0.8402502106205141 
-0.15375246590031572 1:-4.769335443153211 2:3.1115085705162056 3:-3.586939864604304 4:-4.926520939044443 
-0.39547259300717974 1:-4.769335443153211 2:3.1115085705162056 3:9.287681063299356 4:7.378000582385454 
-0.15881061895362078 1:-4.769335443153211 2:3.1115085705162056 3:-1.9118220993288855 4:-7.117028761424344 
-0.42264450987718116 1:-4.769335443153211 2:3.1115085705162056 3:-8.00630699158327 4:-5.256352970506962 
-0.36704801060963255 1:6.154379847707464 2:-6.332603483209926 3:9.485692235244557 4:0.42752610268833635 
-0.2862747532837997 1:6.154379847707464 2:-6.332603483209926 3:9.000482383977463 4:2.0887785035829953 
-1.287143201077241 1:6.154379847707464 2:-6.332603483209926 3:1.212598309051426 4:-4.783933835437352 
-1.0942789345828587 1:6.154379847707464 2:-6.332603483209926 3:-5.182197161807219 4:0.08971132742727583 
-0.14094417459388822 1:6.154379847707464 2:-6.332603483209926 3:-4.297286188768106 4:-2.749278983192638 
-0.7480494631091457 1:6.154379847707464 2:-6.332603483209926 3:-8.589055884435686 4:0.8402502106205141 
-0.312752298524051 1:6.154379847707464 2:-6.332603483209926 3:-3.586939864604304 4:-4.926520939044443 
-0.6718972530308441 1:6.154379847707464 2:-6.332603483209926 3:9.287681063299356 4:7.378000582385454 
-0.498442149938398 1:6.154379847707464 2:-6.332603483209926 3:-1.9118220993288855 4:-7.117028761424344 
-0.6570497264106937 1:6.154379847707464 2:-6.332603483209926 3:-8.00630699158327 4:-5.256352970506962 
-1.8431408579607418 1:9.485692235244557 2:0.42752610268833635 3:9.000482383977463 4:2.0887785035829953 
-0.6879919520015892 1:9.485692235244557 2:0.42752610268833635 3:1.212598309051426 4:-4.783933835437352 
-0.6662834265994838 1:9.485692235244557 2:0.42752610268833635 3:-5.182197161807219 4:0.08971132742727583 
-0.16908348196719317 1:9.485692235244557 2:0.42752610268833635 3:-4.297286188768106 4:-2.749278983192638 
-0.4657971460155564 1:9.485692235244557 2:0.42752610268833635 3:-8.589055884435686 4:0.8402502106205141 
-0.19311503249389456 1:9.485692235244557 2:0.42752610268833635 3:-3.586939864604304 4:-4.926520939044443 
-0.5336162881265267 1:9.485692235244557 2:0.42752610268833635 3:9.287681063299356 4:7.378000582385454 
-0.4392975780951683 1:9.485692235244557 2:0.42752610268833635 3:-1.9118220993288855 4:-7.117028761424344 
-0.5786667967452723 1:9.485692235244557 2:0.42752610268833635 3:-8.00630699158327 4:-5.256352970506962 
-0.68798480760863 1:9.000482383977463 2:2.0887785035829953 3:1.212598309051426 4:-4.783933835437352 
-0.6938826820882595 1:9.000482383977463 2:2.0887785035829953 3:-5.182197161807219 4:0.08971132742727583 
-0.2024737203891782 1:9.000482383977463 2:2.0887785035829953 3:-4.297286188768106 4:-2.749278983192638 
-0.5470161013484294 1:9.000482383977463 2:2.0887785035829953 3:-8.589055884435686 4:0.8402502106205141 
-0.21017580001549965 1:9.000482383977463 2:2.0887785035829953 3:-0.7415169346616821 4:-7.061362449002089 
-0.35911767351559754 1:9.000482383977463 2:2.0887785035829953 3:-3.586939864604304 4:-4.926520939044443 
-0.598592734564643 1:9.000482383977463 2:2.0887785035829953 3:9.287681063299356 4:7.378000582385454 
-0.10886455092241874 1:9.000482383977463 2:2.0887785035829953 3:-1.9118220993288855 4:-7.117028761424344 
-0.48068983929269665 1:9.000482383977463 2:2.0887785035829953 3:-8.00630699158327 4:-5.256352970506962 
-15.32417629248393 1:1.212598309051426 2:-4.783933835437352 3:1.0732300637979453 4:-5.281388365074693 
-0.5039411728373024 1:1.212598309051426 2:-4.783933835437352 3:-8.00630699158327 4:-5.256352970506962 
-1.4815674105582488 1:1.0732300637979453 2:-5.281388365074693 3:-5.182197161807219 4:0.08971132742727583 
-0.4161786694353073 1:1.0732300637979453 2:-5.281388365074693 3:-4.297286188768106 4:-2.749278983192638 
-1.3407558058035551 1:1.0732300637979453 2:-5.281388365074693 3:-8.589055884435686 4:0.8402502106205141 
-1.1897655122311144 1:-5.182197161807219 2:0.08971132742727583 3:-4.297286188768106 4:-2.749278983192638 
-0.24111564883996783 1:-5.182197161807219 2:0.08971132742727583 3:-8.589055884435686 4:0.8402502106205141 
-0.6250639815134089 1:-5.182197161807219 2:0.08971132742727583 3:-0.7415169346616821 4:-7.061362449002089 
-0.5709079802365136 1:-5.182197161807219 2:0.08971132742727583 3:9.287681063299356 4:7.378000582385454 
-0.30128977196430295 1:-5.182197161807219 2:0.08971132742727583 3:-8.00630699158327 4:-5.256352970506962 
-2.151851734811516 1:-4.297286188768106 2:-2.749278983192638 3:-8.589055884435686 4:0.8402502106205141 
-2.0396257381624174 1:-4.297286188768106 2:-2.749278983192638 3:-0.7415169346616821 4:-7.061362449002089 
-0.5613104419406314 1:-4.297286188768106 2:-2.749278983192638 3:-8.00630699158327 4:-5.256352970506962 
-1.2132365551067845 1:-8.589055884435686 2:0.8402502106205141 3:-0.7415169346616821 4:-7.061362449002089 
-1.7060521374292335 1:-8.589055884435686 2:0.8402502106205141 3:-3.586939864604304 4:-4.926520939044443 
-0.864765850295682 1:-8.589055884435686 2:0.8402502106205141 3:9.287681063299356 4:7.378000582385454 
-0.8869854352056429 1:-8.589055884435686 2:0.8402502106205141 3:-8.00630699158327 4:-5.256352970506962 
-7.4054561808916874 1:-0.7415169346616821 2:-7.061362449002089 3:-3.586939864604304 4:-4.926520939044443 
-7.463811844019032 1:-0.7415169346616821 2:-7.061362449002089 3:9.287681063299356 4:7.378000582385454 
-0.8733065248915803 1:-0.7415169346616821 2:-7.061362449002089 3:-1.9118220993288855 4:-7.117028761424344 
-2.7884999837457474 1:-3.586939864604304 2:-4.926520939044443 3:9.287681063299356 4:7.378000582385454 
-7.024064349125982 1:-3.586939864604304 2:-4.926520939044443 3:-1.9118220993288855 4:-7.117028761424344 
-0.41901029436820597 1:-3.586939864604304 2:-4.926520939044443 3:-8.00630699158327 4:-5.256352970506962 
-8.3445850365951 1:9.287681063299356 2:7.378000582385454 3:-1.9118220993288855 4:-7.117028761424344 
-1.189843276183309 1:9.287681063299356 2:7.378000582385454 3:-8.00630699158327 4:-5.256352970506962 
-0.9324430114022113 1:-1.9118220993288855 2:-7.117028761424344 3:-8.00630699158327 4:-5.256352970506962 
