svm_type c_svc
kernel_type rbf
gamma 0.0078125
nr_class 2
total_sv 190
rho 0.0010805754394180485
label 1 -1
nr_sv 95 95
SV
512.0 1:-3.014221464662654 2:12.163353254239185 3:-3.0420525341038993 4:12.11029178282912 
512.0 1:-2.976413351463335 2:11.753765695875604 3:-3.0420525341038993 4:12.11029178282912 
512.0 1:-2.976413351463335 2:11.753765695875604 3:-3.014221464662654 4:12.163353254239185 
300.38611337261693 1:14.999983492121958 2:12.140192715893306 3:-3.014221464662654 4:12.163353254239185 
512.0 1:14.999983492121958 2:12.140192715893306 3:-2.976413351463335 4:11.753765695875604 
356.8965234292348 1:14.999669489756466 2:12.29500602823059 3:-2.976413351463335 4:11.753765695875604 
512.0 1:14.999669489756466 2:12.29500602823059 3:14.999983492121958 4:12.140192715893306 
401.005577852498 1:-2.5349060751310093 2:9.255595984119918 3:-3.0420525341038993 4:12.11029178282912 
512.0 1:-2.5349060751310093 2:9.255595984119918 3:-3.014221464662654 4:12.163353254239185 
138.9958196596422 1:-2.5349060751310093 2:9.255595984119918 3:14.999983492121958 4:12.140192715893306 
512.0 1:-2.5349060751310093 2:9.255595984119918 3:14.999669489756466 4:12.29500602823059 
512.0 1:-2.5349060751310093 2:9.255595984119918 3:9.635125130429238 4:0.6368097917139437 
512.0 1:3.9929856242428468 2:0.34188637749186945 3:9.635125130429238 4:0.6368097917139437 
23.749897318262853 1:3.9929856242428468 2:0.34188637749186945 3:-2.5349060751310093 4:9.255595984119918 
512.0 1:2.399591036458853 2:4.617158686023847 3:9.635125130429238 4:0.6368097917139437 
154.88588675776788 1:2.399591036458853 2:4.617158686023847 3:-2.5349060751310093 4:9.255595984119918 
512.0 1:2.399591036458853 2:4.617158686023847 3:3.9929856242428468 4:0.34188637749186945 
125.54783016924675 1:-3.154501621526218 2:14.758659417741544 3:14.999983492121958 4:12.140192715893306 
512.0 1:-3.154501621526218 2:14.758659417741544 3:14.999669489756466 4:12.29500602823059 
512.0 1:-3.154501621526218 2:14.758659417741544 3:9.635125130429238 4:0.6368097917139437 
512.0 1:-3.154501621526218 2:14.758659417741544 3:-2.5349060751310093 4:9.255595984119918 
512.0 1:-3.154501621526218 2:14.758659417741544 3:3.9929856242428468 4:0.34188637749186945 
118.63728954208607 1:-3.154501621526218 2:14.758659417741544 3:2.399591036458853 4:4.617158686023847 
8.846819852793738 1:8.297827608274243 2:3.45536811549856 3:14.999669489756466 4:12.29500602823059 
512.0 1:8.297827608274243 2:3.45536811549856 3:9.635125130429238 4:0.6368097917139437 
512.0 1:8.297827608274243 2:3.45536811549856 3:3.9929856242428468 4:0.34188637749186945 
416.20147785688283 1:8.297827608274243 2:3.45536811549856 3:2.399591036458853 4:4.617158686023847 
512.0 1:8.297827608274243 2:3.45536811549856 3:-3.154501621526218 4:14.758659417741544 
66.32470824653014 1:14.999939621662993 2:14.998482094363146 3:14.999669489756466 4:12.29500602823059 
512.0 1:14.999939621662993 2:14.998482094363146 3:9.635125130429238 4:0.6368097917139437 
94.8193897384876 1:14.999939621662993 2:14.998482094363146 3:-2.5349060751310093 4:9.255595984119918 
175.9278752848429 1:14.999939621662993 2:14.998482094363146 3:3.9929856242428468 4:0.34188637749186945 
283.64232384006556 1:14.999939621662993 2:14.998482094363146 3:2.399591036458853 4:4.617158686023847 
512.0 1:14.999939621662993 2:14.998482094363146 3:-3.154501621526218 4:14.758659417741544 
512.0 1:13.48387540094732 2:6.84831387207964 3:9.635125130429238 4:0.6368097917139437 
65.93486297166174 1:13.48387540094732 2:6.84831387207964 3:-2.5349060751310093 4:9.255595984119918 
146.88124568341195 1:13.48387540094732 2:6.84831387207964 3:3.9929856242428468 4:0.34188637749186945 
133.161732830523 1:13.48387540094732 2:6.84831387207964 3:2.399591036458853 4:4.617158686023847 
366.4592658118831 1:13.48387540094732 2:6.84831387207964 3:-3.154501621526218 4:14.758659417741544 
59.889366292344974 1:13.48387540094732 2:6.84831387207964 3:14.999939621662993 4:14.998482094363146 
512.0 1:-4.998626287465195 2:14.9952246438757 3:9.635125130429238 4:0.6368097917139437 
344.9661653754875 1:-4.998626287465195 2:14.9952246438757 3:-2.5349060751310093 4:9.255595984119918 
346.9759264712873 1:-4.998626287465195 2:14.9952246438757 3:3.9929856242428468 4:0.34188637749186945 
227.51345244821889 1:-4.998626287465195 2:14.9952246438757 3:2.399591036458853 4:4.617158686023847 
512.0 1:-4.998626287465195 2:14.9952246438757 3:-3.154501621526218 4:14.758659417741544 
242.71704246601755 1:-4.998626287465195 2:14.9952246438757 3:8.297827608274243 4:3.45536811549856 
297.78378903586116 1:-4.998626287465195 2:14.9952246438757 3:14.999939621662993 4:14.998482094363146 
302.98432664427975 1:-4.998626287465195 2:14.9952246438757 3:13.48387540094732 4:6.84831387207964 
512.0 1:6.6471544819645345 2:0.4439031626370597 3:9.635125130429238 4:0.6368097917139437 
436.2673524069364 1:6.6471544819645345 2:0.4439031626370597 3:-2.5349060751310093 4:9.255595984119918 
512.0 1:6.6471544819645345 2:0.4439031626370597 3:3.9929856242428468 4:0.34188637749186945 
512.0 1:6.6471544819645345 2:0.4439031626370597 3:2.399591036458853 4:4.617158686023847 
512.0 1:6.6471544819645345 2:0.4439031626370597 3:-3.154501621526218 4:14.758659417741544 
512.0 1:6.6471544819645345 2:0.4439031626370597 3:8.297827608274243 4:3.45536811549856 
512.0 1:6.6471544819645345 2:0.4439031626370597 3:14.999939621662993 4:14.998482094363146 
512.0 1:6.6471544819645345 2:0.4439031626370597 3:13.48387540094732 4:6.84831387207964 
512.0 1:6.6471544819645345 2:0.4439031626370597 3:-4.998626287465195 4:14.9952246438757 
36.66258586094851 1:0.5080918147597524 2:1.6699566426156114 3:9.635125130429238 4:0.6368097917139437 
472.87409828470754 1:0.5080918147597524 2:1.6699566426156114 3:2.399591036458853 4:4.617158686023847 
512.0 1:0.5080918147597524 2:1.6699566426156114 3:-3.154501621526218 4:14.758659417741544 
229.96067728610768 1:0.5080918147597524 2:1.6699566426156114 3:8.297827608274243 4:3.45536811549856 
60.120959437064705 1:0.5080918147597524 2:1.6699566426156114 3:14.999939621662993 4:14.998482094363146 
78.05847344248319 1:0.5080918147597524 2:1.6699566426156114 3:13.48387540094732 4:6.84831387207964 
20.866258938152985 1:0.5080918147597524 2:1.6699566426156114 3:-4.998626287465195 4:14.9952246438757 
153.10456523744207 1:11.690330345797463 2:0.9637154774944374 3:9.635125130429238 4:0.6368097917139437 
340.10212269694034 1:11.690330345797463 2:0.9637154774944374 3:-2.5349060751310093 4:9.255595984119918 
210.01228666257552 1:11.690330345797463 2:0.9637154774944374 3:3.9929856242428468 4:0.34188637749186945 
259.43448912009654 1:11.690330345797463 2:0.9637154774944374 3:2.399591036458853 4:4.617158686023847 
170.135090208775 1:11.690330345797463 2:0.9637154774944374 3:8.297827608274243 4:3.45536811549856 
182.00785046989228 1:11.690330345797463 2:0.9637154774944374 3:14.999939621662993 4:14.998482094363146 
365.9239770440778 1:11.690330345797463 2:0.9637154774944374 3:13.48387540094732 4:6.84831387207964 
399.3565769877118 1:11.690330345797463 2:0.9637154774944374 3:-4.998626287465195 4:14.9952246438757 
512.0 1:11.690330345797463 2:0.9637154774944374 3:0.5080918147597524 4:1.6699566426156114 
18.908020528761703 1:-0.1399369588981525 2:2.546268435204655 3:9.635125130429238 4:0.6368097917139437 
51.79253914881423 1:-0.1399369588981525 2:2.546268435204655 3:-3.154501621526218 4:14.758659417741544 
512.0 1:-0.1399369588981525 2:2.546268435204655 3:0.5080918147597524 4:1.6699566426156114 
512.0 1:-0.1399369588981525 2:2.546268435204655 3:11.690330345797463 4:0.9637154774944374 
22.394631928230176 1:9.59950398139738 2:-3.0844030391038912 3:3.9929856242428468 4:0.34188637749186945 
108.03424868453142 1:9.59950398139738 2:-3.0844030391038912 3:-3.154501621526218 4:14.758659417741544 
65.10039538316187 1:9.59950398139738 2:-3.0844030391038912 3:13.48387540094732 4:6.84831387207964 
69.67968253511724 1:9.59950398139738 2:-3.0844030391038912 3:0.5080918147597524 4:1.6699566426156114 
512.0 1:9.59950398139738 2:-3.0844030391038912 3:11.690330345797463 4:0.9637154774944374 
132.92253461535518 1:12.630358631409965 2:2.6777490624618183 3:11.690330345797463 4:0.9637154774944374 
54.654418100079205 1:12.630358631409965 2:2.6777490624618183 3:-0.1399369588981525 4:2.546268435204655 
512.0 1:12.630358631409965 2:2.6777490624618183 3:9.59950398139738 4:-3.0844030391038912 
119.38073781538162 1:-0.2246839904499769 2:10.590066581434867 3:-3.154501621526218 4:14.758659417741544 
389.3071155424817 1:-0.2246839904499769 2:10.590066581434867 3:14.999939621662993 4:14.998482094363146 
229.96203648412606 1:-0.2246839904499769 2:10.590066581434867 3:13.48387540094732 4:6.84831387207964 
512.0 1:-0.2246839904499769 2:10.590066581434867 3:-4.998626287465195 4:14.9952246438757 
386.8152815922131 1:-0.2246839904499769 2:10.590066581434867 3:-0.1399369588981525 4:2.546268435204655 
184.18158427493478 1:-0.2246839904499769 2:10.590066581434867 3:9.59950398139738 4:-3.0844030391038912 
123.59889276312543 1:-0.2246839904499769 2:10.590066581434867 3:12.630358631409965 4:2.6777490624618183 
512.0 1:-0.2246839904499769 2:10.590066581434867 3:2.732694899127967 4:8.563211038750476 
4.976361882362934 1:7.7488713031483325 2:-3.768038524315447 3:12.630358631409965 4:2.6777490624618183 
140.5799221949557 1:7.7488713031483325 2:-3.768038524315447 3:2.732694899127967 4:8.563211038750476 
-512.0 1:-3.0420525341038993 2:12.11029178282912 3:-3.014221464662654 4:12.163353254239185 
-512.0 1:-3.0420525341038993 2:12.11029178282912 3:-2.976413351463335 4:11.753765695875604 
-400.9993627308907 1:-3.0420525341038993 2:12.11029178282912 3:-2.5349060751310093 4:9.255595984119918 
-512.0 1:-3.014221464662654 2:12.163353254239185 3:-2.976413351463335 4:11.753765695875604 
-336.461763232565 1:-3.014221464662654 2:12.163353254239185 3:14.999983492121958 4:12.140192715893306 
-512.0 1:-3.014221464662654 2:12.163353254239185 3:-2.5349060751310093 4:9.255595984119918 
-512.0 1:-2.976413351463335 2:11.753765695875604 3:14.999983492121958 4:12.140192715893306 
-319.52954477617175 1:-2.976413351463335 2:11.753765695875604 3:14.999669489756466 4:12.29500602823059 
-512.0 1:14.999983492121958 2:12.140192715893306 3:14.999669489756466 4:12.29500602823059 
-142.01633309258386 1:14.999983492121958 2:12.140192715893306 3:-2.5349060751310093 4:9.255595984119918 
-123.10413492129895 1:14.999983492121958 2:12.140192715893306 3:-3.154501621526218 4:14.758659417741544 
-512.0 1:14.999669489756466 2:12.29500602823059 3:-2.5349060751310093 4:9.255595984119918 
-512.0 1:14.999669489756466 2:12.29500602823059 3:-3.154501621526218 4:14.758659417741544 
-8.861513181409785 1:14.999669489756466 2:12.29500602823059 3:8.297827608274243 4:3.45536811549856 
-66.30962855876422 1:14.999669489756466 2:12.29500602823059 3:14.999939621662993 4:14.998482094363146 
-512.0 1:9.635125130429238 2:0.6368097917139437 3:-2.5349060751310093 4:9.255595984119918 
-512.0 1:9.635125130429238 2:0.6368097917139437 3:3.9929856242428468 4:0.34188637749186945 
-512.0 1:9.635125130429238 2:0.6368097917139437 3:2.399591036458853 4:4.617158686023847 
-512.0 1:9.635125130429238 2:0.6368097917139437 3:-3.154501621526218 4:14.758659417741544 
-512.0 1:9.635125130429238 2:0.6368097917139437 3:8.297827608274243 4:3.45536811549856 
-512.0 1:9.635125130429238 2:0.6368097917139437 3:14.999939621662993 4:14.998482094363146 
-512.0 1:9.635125130429238 2:0.6368097917139437 3:13.48387540094732 4:6.84831387207964 
-512.0 1:9.635125130429238 2:0.6368097917139437 3:-4.998626287465195 4:14.9952246438757 
-512.0 1:9.635125130429238 2:0.6368097917139437 3:6.6471544819645345 4:0.4439031626370597 
-36.52917898659303 1:9.635125130429238 2:0.6368097917139437 3:0.5080918147597524 4:1.6699566426156114 
-153.09135721180306 1:9.635125130429238 2:0.6368097917139437 3:11.690330345797463 4:0.9637154774944374 
-18.969397831916094 1:9.635125130429238 2:0.6368097917139437 3:-0.1399369588981525 4:2.546268435204655 
-23.87974797469951 1:-2.5349060751310093 2:9.255595984119918 3:3.9929856242428468 4:0.34188637749186945 
-154.8925344950377 1:-2.5349060751310093 2:9.255595984119918 3:2.399591036458853 4:4.617158686023847 
-512.0 1:-2.5349060751310093 2:9.255595984119918 3:-3.154501621526218 4:14.758659417741544 
-95.86365548046817 1:-2.5349060751310093 2:9.255595984119918 3:14.999939621662993 4:14.998482094363146 
-65.80518788092414 1:-2.5349060751310093 2:9.255595984119918 3:13.48387540094732 4:6.84831387207964 
-344.9687254846575 1:-2.5349060751310093 2:9.255595984119918 3:-4.998626287465195 4:14.9952246438757 
-436.1186273974425 1:-2.5349060751310093 2:9.255595984119918 3:6.6471544819645345 4:0.4439031626370597 
-340.1233792225186 1:-2.5349060751310093 2:9.255595984119918 3:11.690330345797463 4:0.9637154774944374 
-512.0 1:3.9929856242428468 2:0.34188637749186945 3:2.399591036458853 4:4.617158686023847 
-512.0 1:3.9929856242428468 2:0.34188637749186945 3:-3.154501621526218 4:14.758659417741544 
-512.0 1:3.9929856242428468 2:0.34188637749186945 3:8.297827608274243 4:3.45536811549856 
-176.18750780360227 1:3.9929856242428468 2:0.34188637749186945 3:14.999939621662993 4:14.998482094363146 
-146.87261126116937 1:3.9929856242428468 2:0.34188637749186945 3:13.48387540094732 4:6.84831387207964 
-346.7119305951592 1:3.9929856242428468 2:0.34188637749186945 3:-4.998626287465195 4:14.9952246438757 
-512.0 1:3.9929856242428468 2:0.34188637749186945 3:6.6471544819645345 4:0.4439031626370597 
-209.95883694731864 1:3.9929856242428468 2:0.34188637749186945 3:11.690330345797463 4:0.9637154774944374 
-22.384424919776553 1:3.9929856242428468 2:0.34188637749186945 3:9.59950398139738 4:-3.0844030391038912 
-118.85740710951826 1:2.399591036458853 2:4.617158686023847 3:-3.154501621526218 4:14.758659417741544 
-416.2050384984791 1:2.399591036458853 2:4.617158686023847 3:8.297827608274243 4:3.45536811549856 
-283.3426497599301 1:2.399591036458853 2:4.617158686023847 3:14.999939621662993 4:14.998482094363146 
-133.2671379662593 1:2.399591036458853 2:4.617158686023847 3:13.48387540094732 4:6.84831387207964 
-227.1882810037562 1:2.399591036458853 2:4.617158686023847 3:-4.998626287465195 4:14.9952246438757 
-512.0 1:2.399591036458853 2:4.617158686023847 3:6.6471544819645345 4:0.4439031626370597 
-472.79739634231646 1:2.399591036458853 2:4.617158686023847 3:0.5080918147597524 4:1.6699566426156114 
-259.47274898316147 1:2.399591036458853 2:4.617158686023847 3:11.690330345797463 4:0.9637154774944374 
-512.0 1:-3.154501621526218 2:14.758659417741544 3:8.297827608274243 4:3.45536811549856 
-512.0 1:-3.154501621526218 2:14.758659417741544 3:14.999939621662993 4:14.998482094363146 
-366.3694253309807 1:-3.154501621526218 2:14.758659417741544 3:13.48387540094732 4:6.84831387207964 
-512.0 1:-3.154501621526218 2:14.758659417741544 3:-4.998626287465195 4:14.9952246438757 
-512.0 1:-3.154501621526218 2:14.758659417741544 3:6.6471544819645345 4:0.4439031626370597 
-512.0 1:-3.154501621526218 2:14.758659417741544 3:0.5080918147597524 4:1.6699566426156114 
-51.55740771382719 1:-3.154501621526218 2:14.758659417741544 3:-0.1399369588981525 4:2.546268435204655 
-108.06413808921019 1:-3.154501621526218 2:14.758659417741544 3:9.59950398139738 4:-3.0844030391038912 
-119.4086379451519 1:-3.154501621526218 2:14.758659417741544 3:-0.2246839904499769 4:10.590066581434867 
-243.07691498192088 1:8.297827608274243 2:3.45536811549856 3:-4.998626287465195 4:14.9952246438757 
-512.0 1:8.297827608274243 2:3.45536811549856 3:6.6471544819645345 4:0.4439031626370597 
-230.11140980292055 1:8.297827608274243 2:3.45536811549856 3:0.5080918147597524 4:1.6699566426156114 
-170.12594972013758 1:8.297827608274243 2:3.45536811549856 3:11.690330345797463 4:0.9637154774944374 
-59.923492719300405 1:14.999939621662993 2:14.998482094363146 3:13.48387540094732 4:6.84831387207964 
-298.08295414007966 1:14.999939621662993 2:14.998482094363146 3:-4.998626287465195 4:14.9952246438757 
-512.0 1:14.999939621662993 2:14.998482094363146 3:6.6471544819645345 4:0.4439031626370597 
-59.87819681708488 1:14.999939621662993 2:14.998482094363146 3:0.5080918147597524 4:1.6699566426156114 
-181.96304166202114 1:14.999939621662993 2:14.998482094363146 3:11.690330345797463 4:0.9637154774944374 
-389.5753717568139 1:14.999939621662993 2:14.998482094363146 3:-0.2246839904499769 4:10.590066581434867 
-302.6574523239854 1:13.48387540094732 2:6.84831387207964 3:-4.998626287465195 4:14.9952246438757 
-512.0 1:13.48387540094732 2:6.84831387207964 3:6.6471544819645345 4:0.4439031626370597 
-77.96012169450024 1:13.48387540094732 2:6.84831387207964 3:0.5080918147597524 4:1.6699566426156114 
-365.9308974453846 1:13.48387540094732 2:6.84831387207964 3:11.690330345797463 4:0.9637154774944374 
-65.05041445140314 1:13.48387540094732 2:6.84831387207964 3:9.59950398139738 4:-3.0844030391038912 
-229.59414045628284 1:13.48387540094732 2:6.84831387207964 3:-0.2246839904499769 4:10.590066581434867 
-512.0 1:-4.998626287465195 2:14.9952246438757 3:6.6471544819645345 4:0.4439031626370597 
-21.235383803642655 1:-4.998626287465195 2:14.9952246438757 3:0.5080918147597524 4:1.6699566426156114 
-399.337766391076 1:-4.998626287465195 2:14.9952246438757 3:11.690330345797463 4:0.9637154774944374 
-512.0 1:-4.998626287465195 2:14.9952246438757 3:-0.2246839904499769 4:10.590066581434867 
-512.0 1:0.5080918147597524 2:1.6699566426156114 3:11.690330345797463 4:0.9637154774944374 
-512.0 1:0.5080918147597524 2:1.6699566426156114 3:-0.1399369588981525 4:2.546268435204655 
-69.71509223537102 1:0.5080918147597524 2:1.6699566426156114 3:9.59950398139738 4:-3.0844030391038912 
-512.0 1:11.690330345797463 2:0.9637154774944374 3:-0.1399369588981525 4:2.546268435204655 
-512.0 1:11.690330345797463 2:0.9637154774944374 3:9.59950398139738 4:-3.0844030391038912 
-132.93272519966516 1:11.690330345797463 2:0.9637154774944374 3:12.630358631409965 4:2.6777490624618183 
-54.65630215632078 1:-0.1399369588981525 2:2.546268435204655 3:12.630358631409965 4:2.6777490624618183 
-386.84374554721825 1:-0.1399369588981525 2:2.546268435204655 3:-0.2246839904499769 4:10.590066581434867 
-512.0 1:9.59950398139738 2:-3.0844030391038912 3:12.630358631409965 4:2.6777490624618183 
-184.161237986161 1:9.59950398139738 2:-3.0844030391038912 3:-0.2246839904499769 4:10.590066581434867 
-123.71477044317449 1:12.630358631409965 2:2.6777490624618183 3:-0.2246839904499769 4:10.590066581434867 
-5.03705990671912 1:12.630358631409965 2:2.6777490624618183 3:7.7488713031483325 4:-3.768038524315447 
-512.0 1:2.732694899127967 2:8.563211038750476 3:-0.2246839904499769 4:10.590066581434867 
-140.57638213893398 1:2.732694899127967 2:8.563211038750476 3:7.7488713031483325 4:-3.768038524315447 
