svm_type c_svc
kernel_type rbf
gamma 0.25
nr_class 2
total_sv 318
rho -4.24506650689527E-4
label 1 -1
nr_sv 159 159
SV
1.0 1:3.070525923222281 2:2.166314834576726 3:3.159560633895806 4:2.0885110387277326 
1.0 1:3.0612430885397552 2:2.1061356464399754 3:3.159560633895806 4:2.0885110387277326 
1.0 1:3.0612430885397552 2:2.1061356464399754 3:3.070525923222281 4:2.166314834576726 
1.0 1:3.0155996572169705 2:2.268118579048393 3:3.159560633895806 4:2.0885110387277326 
1.0 1:3.0155996572169705 2:2.268118579048393 3:3.070525923222281 4:2.166314834576726 
1.0 1:3.0155996572169705 2:2.268118579048393 3:3.0612430885397552 4:2.1061356464399754 
1.0 1:3.1588538173456464 2:1.9567657098244196 3:3.159560633895806 4:2.0885110387277326 
1.0 1:3.1588538173456464 2:1.9567657098244196 3:3.070525923222281 4:2.166314834576726 
1.0 1:3.1588538173456464 2:1.9567657098244196 3:3.0612430885397552 4:2.1061356464399754 
1.0 1:3.1588538173456464 2:1.9567657098244196 3:3.0155996572169705 4:2.268118579048393 
1.0 1:3.1262752890413403 2:1.967891310798142 3:3.159560633895806 4:2.0885110387277326 
1.0 1:3.1262752890413403 2:1.967891310798142 3:3.070525923222281 4:2.166314834576726 
1.0 1:3.1262752890413403 2:1.967891310798142 3:3.0612430885397552 4:2.1061356464399754 
1.0 1:3.1262752890413403 2:1.967891310798142 3:3.0155996572169705 4:2.268118579048393 
1.0 1:3.1262752890413403 2:1.967891310798142 3:3.1588538173456464 4:1.9567657098244196 
1.0 1:2.9961571576303507 2:2.1724311412502084 3:3.159560633895806 4:2.0885110387277326 
1.0 1:2.9961571576303507 2:2.1724311412502084 3:3.070525923222281 4:2.166314834576726 
1.0 1:2.9961571576303507 2:2.1724311412502084 3:3.0612430885397552 4:2.1061356464399754 
1.0 1:2.9961571576303507 2:2.1724311412502084 3:3.0155996572169705 4:2.268118579048393 
1.0 1:2.9961571576303507 2:2.1724311412502084 3:3.1588538173456464 4:1.9567657098244196 
1.0 1:2.9961571576303507 2:2.1724311412502084 3:3.1262752890413403 4:1.967891310798142 
1.0 1:2.9299350067348127 2:2.4241059548221617 3:3.159560633895806 4:2.0885110387277326 
1.0 1:2.9299350067348127 2:2.4241059548221617 3:3.070525923222281 4:2.166314834576726 
1.0 1:2.9299350067348127 2:2.4241059548221617 3:3.0612430885397552 4:2.1061356464399754 
1.0 1:2.9299350067348127 2:2.4241059548221617 3:3.0155996572169705 4:2.268118579048393 
1.0 1:2.9299350067348127 2:2.4241059548221617 3:3.1588538173456464 4:1.9567657098244196 
1.0 1:2.9299350067348127 2:2.4241059548221617 3:3.1262752890413403 4:1.967891310798142 
1.0 1:2.9299350067348127 2:2.4241059548221617 3:2.9961571576303507 4:2.1724311412502084 
1.0 1:3.1602321553791577 2:2.7803603549855103 3:3.159560633895806 4:2.0885110387277326 
1.0 1:3.1602321553791577 2:2.7803603549855103 3:3.070525923222281 4:2.166314834576726 
1.0 1:3.1602321553791577 2:2.7803603549855103 3:3.0612430885397552 4:2.1061356464399754 
1.0 1:3.1602321553791577 2:2.7803603549855103 3:3.0155996572169705 4:2.268118579048393 
1.0 1:3.1602321553791577 2:2.7803603549855103 3:3.1588538173456464 4:1.9567657098244196 
1.0 1:3.1602321553791577 2:2.7803603549855103 3:3.1262752890413403 4:1.967891310798142 
1.0 1:3.1602321553791577 2:2.7803603549855103 3:2.9961571576303507 4:2.1724311412502084 
1.0 1:3.1602321553791577 2:2.7803603549855103 3:2.9299350067348127 4:2.4241059548221617 
1.0 1:2.8728424488549544 2:2.1586125657470854 3:3.159560633895806 4:2.0885110387277326 
1.0 1:2.8728424488549544 2:2.1586125657470854 3:3.070525923222281 4:2.166314834576726 
1.0 1:2.8728424488549544 2:2.1586125657470854 3:3.0612430885397552 4:2.1061356464399754 
1.0 1:2.8728424488549544 2:2.1586125657470854 3:3.0155996572169705 4:2.268118579048393 
1.0 1:2.8728424488549544 2:2.1586125657470854 3:3.1588538173456464 4:1.9567657098244196 
1.0 1:2.8728424488549544 2:2.1586125657470854 3:3.1262752890413403 4:1.967891310798142 
1.0 1:2.8728424488549544 2:2.1586125657470854 3:2.9961571576303507 4:2.1724311412502084 
1.0 1:2.8728424488549544 2:2.1586125657470854 3:2.9299350067348127 4:2.4241059548221617 
1.0 1:2.8728424488549544 2:2.1586125657470854 3:3.1602321553791577 4:2.7803603549855103 
1.0 1:2.9399031607887514 2:1.8514913047407584 3:3.159560633895806 4:2.0885110387277326 
1.0 1:2.9399031607887514 2:1.8514913047407584 3:3.070525923222281 4:2.166314834576726 
1.0 1:2.9399031607887514 2:1.8514913047407584 3:3.0612430885397552 4:2.1061356464399754 
1.0 1:2.9399031607887514 2:1.8514913047407584 3:3.0155996572169705 4:2.268118579048393 
1.0 1:2.9399031607887514 2:1.8514913047407584 3:3.1588538173456464 4:1.9567657098244196 
1.0 1:2.9399031607887514 2:1.8514913047407584 3:3.1262752890413403 4:1.967891310798142 
1.0 1:2.9399031607887514 2:1.8514913047407584 3:2.9961571576303507 4:2.1724311412502084 
1.0 1:2.9399031607887514 2:1.8514913047407584 3:2.9299350067348127 4:2.4241059548221617 
1.0 1:2.9399031607887514 2:1.8514913047407584 3:3.1602321553791577 4:2.7803603549855103 
1.0 1:2.9399031607887514 2:1.8514913047407584 3:2.8728424488549544 4:2.1586125657470854 
1.0 1:2.786203608203419 2:2.7470048589292957 3:3.0612430885397552 4:2.1061356464399754 
1.0 1:2.786203608203419 2:2.7470048589292957 3:3.0155996572169705 4:2.268118579048393 
1.0 1:2.786203608203419 2:2.7470048589292957 3:3.1588538173456464 4:1.9567657098244196 
1.0 1:2.786203608203419 2:2.7470048589292957 3:3.1262752890413403 4:1.967891310798142 
1.0 1:2.786203608203419 2:2.7470048589292957 3:2.9961571576303507 4:2.1724311412502084 
1.0 1:2.786203608203419 2:2.7470048589292957 3:2.9299350067348127 4:2.4241059548221617 
0.5299871626339449 1:2.786203608203419 2:2.7470048589292957 3:3.1602321553791577 4:2.7803603549855103 
1.0 1:2.786203608203419 2:2.7470048589292957 3:2.8728424488549544 4:2.1586125657470854 
1.0 1:2.786203608203419 2:2.7470048589292957 3:2.9399031607887514 4:1.8514913047407584 
0.09444712147114656 1:2.9651464854663594 2:3.199668959666258 3:3.0612430885397552 4:2.1061356464399754 
1.0 1:2.9651464854663594 2:3.199668959666258 3:3.0155996572169705 4:2.268118579048393 
1.0 1:2.9651464854663594 2:3.199668959666258 3:3.1588538173456464 4:1.9567657098244196 
1.0 1:2.9651464854663594 2:3.199668959666258 3:3.1262752890413403 4:1.967891310798142 
1.0 1:2.9651464854663594 2:3.199668959666258 3:2.9961571576303507 4:2.1724311412502084 
1.0 1:2.9651464854663594 2:3.199668959666258 3:2.9299350067348127 4:2.4241059548221617 
1.0 1:2.9651464854663594 2:3.199668959666258 3:2.8728424488549544 4:2.1586125657470854 
1.0 1:2.9651464854663594 2:3.199668959666258 3:2.9399031607887514 4:1.8514913047407584 
1.0 1:2.9651464854663594 2:3.199668959666258 3:2.786203608203419 4:2.7470048589292957 
1.0 1:2.894256211394099 2:3.1955254038237078 3:2.9299350067348127 4:2.4241059548221617 
1.0 1:2.894256211394099 2:3.1955254038237078 3:2.8728424488549544 4:2.1586125657470854 
1.0 1:2.894256211394099 2:3.1955254038237078 3:2.9399031607887514 4:1.8514913047407584 
1.0 1:2.894256211394099 2:3.1955254038237078 3:2.786203608203419 4:2.7470048589292957 
1.0 1:2.894256211394099 2:3.1955254038237078 3:2.9651464854663594 4:3.199668959666258 
1.0 1:2.726309411836875 2:2.360343824510511 3:3.159560633895806 4:2.0885110387277326 
1.0 1:2.726309411836875 2:2.360343824510511 3:3.070525923222281 4:2.166314834576726 
1.0 1:2.726309411836875 2:2.360343824510511 3:3.0612430885397552 4:2.1061356464399754 
1.0 1:2.726309411836875 2:2.360343824510511 3:3.0155996572169705 4:2.268118579048393 
1.0 1:2.726309411836875 2:2.360343824510511 3:3.1588538173456464 4:1.9567657098244196 
1.0 1:2.726309411836875 2:2.360343824510511 3:3.1262752890413403 4:1.967891310798142 
1.0 1:2.726309411836875 2:2.360343824510511 3:2.9961571576303507 4:2.1724311412502084 
1.0 1:2.726309411836875 2:2.360343824510511 3:2.9299350067348127 4:2.4241059548221617 
1.0 1:2.726309411836875 2:2.360343824510511 3:3.1602321553791577 4:2.7803603549855103 
1.0 1:2.726309411836875 2:2.360343824510511 3:2.8728424488549544 4:2.1586125657470854 
1.0 1:2.726309411836875 2:2.360343824510511 3:2.9399031607887514 4:1.8514913047407584 
1.0 1:2.726309411836875 2:2.360343824510511 3:2.786203608203419 4:2.7470048589292957 
1.0 1:2.726309411836875 2:2.360343824510511 3:2.9651464854663594 4:3.199668959666258 
1.0 1:2.726309411836875 2:2.360343824510511 3:2.894256211394099 4:3.1955254038237078 
1.0 1:2.690915789789922 2:2.9550074724320723 3:2.9399031607887514 4:1.8514913047407584 
1.0 1:2.690915789789922 2:2.9550074724320723 3:2.786203608203419 4:2.7470048589292957 
1.0 1:2.690915789789922 2:2.9550074724320723 3:2.9651464854663594 4:3.199668959666258 
1.0 1:2.690915789789922 2:2.9550074724320723 3:2.894256211394099 4:3.1955254038237078 
1.0 1:2.690915789789922 2:2.9550074724320723 3:2.726309411836875 4:2.360343824510511 
1.0 1:2.7218330549164858 2:3.2254679124326673 3:2.786203608203419 4:2.7470048589292957 
1.0 1:2.7218330549164858 2:3.2254679124326673 3:2.9651464854663594 4:3.199668959666258 
1.0 1:2.7218330549164858 2:3.2254679124326673 3:2.894256211394099 4:3.1955254038237078 
0.10701022864366777 1:2.7218330549164858 2:3.2254679124326673 3:2.726309411836875 4:2.360343824510511 
1.0 1:2.7218330549164858 2:3.2254679124326673 3:2.690915789789922 4:2.9550074724320723 
1.0 1:2.689683082694729 2:3.207330272487637 3:2.786203608203419 4:2.7470048589292957 
1.0 1:2.689683082694729 2:3.207330272487637 3:2.9651464854663594 4:3.199668959666258 
1.0 1:2.689683082694729 2:3.207330272487637 3:2.894256211394099 4:3.1955254038237078 
1.0 1:2.689683082694729 2:3.207330272487637 3:2.690915789789922 4:2.9550074724320723 
1.0 1:2.689683082694729 2:3.207330272487637 3:2.7218330549164858 4:3.2254679124326673 
1.0 1:3.6625257157938087 2:1.812433329168142 3:3.159560633895806 4:2.0885110387277326 
1.0 1:3.6625257157938087 2:1.812433329168142 3:3.070525923222281 4:2.166314834576726 
1.0 1:3.6625257157938087 2:1.812433329168142 3:3.0612430885397552 4:2.1061356464399754 
1.0 1:3.6625257157938087 2:1.812433329168142 3:3.0155996572169705 4:2.268118579048393 
1.0 1:3.6625257157938087 2:1.812433329168142 3:3.1588538173456464 4:1.9567657098244196 
1.0 1:3.6625257157938087 2:1.812433329168142 3:3.1262752890413403 4:1.967891310798142 
1.0 1:3.6625257157938087 2:1.812433329168142 3:2.9961571576303507 4:2.1724311412502084 
1.0 1:3.6625257157938087 2:1.812433329168142 3:2.9299350067348127 4:2.4241059548221617 
1.0 1:3.6625257157938087 2:1.812433329168142 3:3.1602321553791577 4:2.7803603549855103 
1.0 1:3.6625257157938087 2:1.812433329168142 3:2.8728424488549544 4:2.1586125657470854 
1.0 1:3.6625257157938087 2:1.812433329168142 3:2.9399031607887514 4:1.8514913047407584 
1.0 1:3.6625257157938087 2:1.812433329168142 3:2.786203608203419 4:2.7470048589292957 
1.0 1:3.6625257157938087 2:1.812433329168142 3:2.9651464854663594 4:3.199668959666258 
1.0 1:3.6625257157938087 2:1.812433329168142 3:2.894256211394099 4:3.1955254038237078 
1.0 1:3.6625257157938087 2:1.812433329168142 3:2.726309411836875 4:2.360343824510511 
1.0 1:3.6625257157938087 2:1.812433329168142 3:2.690915789789922 4:2.9550074724320723 
1.0 1:3.6625257157938087 2:1.812433329168142 3:2.7218330549164858 4:3.2254679124326673 
1.0 1:3.6625257157938087 2:1.812433329168142 3:2.689683082694729 4:3.207330272487637 
1.0 1:2.630174960617333 2:2.985627802641184 3:2.786203608203419 4:2.7470048589292957 
1.0 1:2.630174960617333 2:2.985627802641184 3:2.9651464854663594 4:3.199668959666258 
1.0 1:2.630174960617333 2:2.985627802641184 3:2.894256211394099 4:3.1955254038237078 
1.0 1:2.630174960617333 2:2.985627802641184 3:2.726309411836875 4:2.360343824510511 
1.0 1:2.630174960617333 2:2.985627802641184 3:2.690915789789922 4:2.9550074724320723 
1.0 1:2.630174960617333 2:2.985627802641184 3:2.7218330549164858 4:3.2254679124326673 
1.0 1:2.630174960617333 2:2.985627802641184 3:2.689683082694729 4:3.207330272487637 
1.0 1:2.6253683041143323 2:2.1764464670682666 3:3.0612430885397552 4:2.1061356464399754 
1.0 1:2.6253683041143323 2:2.1764464670682666 3:3.0155996572169705 4:2.268118579048393 
1.0 1:2.6253683041143323 2:2.1764464670682666 3:3.1262752890413403 4:1.967891310798142 
1.0 1:2.6253683041143323 2:2.1764464670682666 3:2.9961571576303507 4:2.1724311412502084 
1.0 1:2.6253683041143323 2:2.1764464670682666 3:2.9299350067348127 4:2.4241059548221617 
0.3723816291277307 1:2.6253683041143323 2:2.1764464670682666 3:3.1602321553791577 4:2.7803603549855103 
1.0 1:2.6253683041143323 2:2.1764464670682666 3:2.8728424488549544 4:2.1586125657470854 
1.0 1:2.6253683041143323 2:2.1764464670682666 3:2.9399031607887514 4:1.8514913047407584 
1.0 1:2.6253683041143323 2:2.1764464670682666 3:2.786203608203419 4:2.7470048589292957 
1.0 1:2.6253683041143323 2:2.1764464670682666 3:2.9651464854663594 4:3.199668959666258 
1.0 1:2.6253683041143323 2:2.1764464670682666 3:2.894256211394099 4:3.1955254038237078 
1.0 1:2.6253683041143323 2:2.1764464670682666 3:2.726309411836875 4:2.360343824510511 
1.0 1:2.6253683041143323 2:2.1764464670682666 3:2.690915789789922 4:2.9550074724320723 
1.0 1:2.6253683041143323 2:2.1764464670682666 3:2.7218330549164858 4:3.2254679124326673 
1.0 1:2.6253683041143323 2:2.1764464670682666 3:2.689683082694729 4:3.207330272487637 
0.5716279416137803 1:2.6253683041143323 2:2.1764464670682666 3:3.6625257157938087 4:1.812433329168142 
1.0 1:2.6253683041143323 2:2.1764464670682666 3:2.630174960617333 4:2.985627802641184 
1.0 1:2.574501424373627 2:3.209673308840685 3:2.894256211394099 4:3.1955254038237078 
1.0 1:2.574501424373627 2:3.209673308840685 3:2.690915789789922 4:2.9550074724320723 
1.0 1:2.574501424373627 2:3.209673308840685 3:2.7218330549164858 4:3.2254679124326673 
1.0 1:2.574501424373627 2:3.209673308840685 3:2.689683082694729 4:3.207330272487637 
1.0 1:2.574501424373627 2:3.209673308840685 3:2.630174960617333 4:2.985627802641184 
1.0 1:3.152750906970327 2:0.9315274042745091 3:2.7218330549164858 4:3.2254679124326673 
1.0 1:3.152750906970327 2:0.9315274042745091 3:2.689683082694729 4:3.207330272487637 
1.0 1:3.152750906970327 2:0.9315274042745091 3:2.630174960617333 4:2.985627802641184 
0.9705147365518957 1:3.152750906970327 2:0.9315274042745091 3:2.6253683041143323 4:2.1764464670682666 
1.0 1:3.152750906970327 2:0.9315274042745091 3:2.574501424373627 4:3.209673308840685 
-1.0 1:3.159560633895806 2:2.0885110387277326 3:3.070525923222281 4:2.166314834576726 
-1.0 1:3.159560633895806 2:2.0885110387277326 3:3.0612430885397552 4:2.1061356464399754 
-1.0 1:3.159560633895806 2:2.0885110387277326 3:3.0155996572169705 4:2.268118579048393 
-1.0 1:3.159560633895806 2:2.0885110387277326 3:3.1588538173456464 4:1.9567657098244196 
-1.0 1:3.159560633895806 2:2.0885110387277326 3:3.1262752890413403 4:1.967891310798142 
-1.0 1:3.159560633895806 2:2.0885110387277326 3:2.9961571576303507 4:2.1724311412502084 
-1.0 1:3.159560633895806 2:2.0885110387277326 3:2.9299350067348127 4:2.4241059548221617 
-1.0 1:3.159560633895806 2:2.0885110387277326 3:3.1602321553791577 4:2.7803603549855103 
-1.0 1:3.159560633895806 2:2.0885110387277326 3:2.8728424488549544 4:2.1586125657470854 
-1.0 1:3.159560633895806 2:2.0885110387277326 3:2.9399031607887514 4:1.8514913047407584 
-1.0 1:3.159560633895806 2:2.0885110387277326 3:2.726309411836875 4:2.360343824510511 
-1.0 1:3.159560633895806 2:2.0885110387277326 3:3.6625257157938087 4:1.812433329168142 
-1.0 1:3.070525923222281 2:2.166314834576726 3:3.0612430885397552 4:2.1061356464399754 
-1.0 1:3.070525923222281 2:2.166314834576726 3:3.0155996572169705 4:2.268118579048393 
-1.0 1:3.070525923222281 2:2.166314834576726 3:3.1588538173456464 4:1.9567657098244196 
-1.0 1:3.070525923222281 2:2.166314834576726 3:3.1262752890413403 4:1.967891310798142 
-1.0 1:3.070525923222281 2:2.166314834576726 3:2.9961571576303507 4:2.1724311412502084 
-1.0 1:3.070525923222281 2:2.166314834576726 3:2.9299350067348127 4:2.4241059548221617 
-1.0 1:3.070525923222281 2:2.166314834576726 3:3.1602321553791577 4:2.7803603549855103 
-1.0 1:3.070525923222281 2:2.166314834576726 3:2.8728424488549544 4:2.1586125657470854 
-1.0 1:3.070525923222281 2:2.166314834576726 3:2.9399031607887514 4:1.8514913047407584 
-1.0 1:3.070525923222281 2:2.166314834576726 3:2.726309411836875 4:2.360343824510511 
-1.0 1:3.070525923222281 2:2.166314834576726 3:3.6625257157938087 4:1.812433329168142 
-1.0 1:3.0612430885397552 2:2.1061356464399754 3:3.0155996572169705 4:2.268118579048393 
-1.0 1:3.0612430885397552 2:2.1061356464399754 3:3.1588538173456464 4:1.9567657098244196 
-1.0 1:3.0612430885397552 2:2.1061356464399754 3:3.1262752890413403 4:1.967891310798142 
-1.0 1:3.0612430885397552 2:2.1061356464399754 3:2.9961571576303507 4:2.1724311412502084 
-1.0 1:3.0612430885397552 2:2.1061356464399754 3:2.9299350067348127 4:2.4241059548221617 
-1.0 1:3.0612430885397552 2:2.1061356464399754 3:3.1602321553791577 4:2.7803603549855103 
-1.0 1:3.0612430885397552 2:2.1061356464399754 3:2.8728424488549544 4:2.1586125657470854 
-1.0 1:3.0612430885397552 2:2.1061356464399754 3:2.9399031607887514 4:1.8514913047407584 
-1.0 1:3.0612430885397552 2:2.1061356464399754 3:2.786203608203419 4:2.7470048589292957 
-0.09212980892124527 1:3.0612430885397552 2:2.1061356464399754 3:2.9651464854663594 4:3.199668959666258 
-1.0 1:3.0612430885397552 2:2.1061356464399754 3:2.726309411836875 4:2.360343824510511 
-1.0 1:3.0612430885397552 2:2.1061356464399754 3:3.6625257157938087 4:1.812433329168142 
-1.0 1:3.0612430885397552 2:2.1061356464399754 3:2.6253683041143323 4:2.1764464670682666 
-1.0 1:3.0155996572169705 2:2.268118579048393 3:3.1588538173456464 4:1.9567657098244196 
-1.0 1:3.0155996572169705 2:2.268118579048393 3:3.1262752890413403 4:1.967891310798142 
-1.0 1:3.0155996572169705 2:2.268118579048393 3:2.9961571576303507 4:2.1724311412502084 
-1.0 1:3.0155996572169705 2:2.268118579048393 3:2.9299350067348127 4:2.4241059548221617 
-1.0 1:3.0155996572169705 2:2.268118579048393 3:3.1602321553791577 4:2.7803603549855103 
-1.0 1:3.0155996572169705 2:2.268118579048393 3:2.8728424488549544 4:2.1586125657470854 
-1.0 1:3.0155996572169705 2:2.268118579048393 3:2.9399031607887514 4:1.8514913047407584 
-1.0 1:3.0155996572169705 2:2.268118579048393 3:2.786203608203419 4:2.7470048589292957 
-1.0 1:3.0155996572169705 2:2.268118579048393 3:2.9651464854663594 4:3.199668959666258 
-1.0 1:3.0155996572169705 2:2.268118579048393 3:2.726309411836875 4:2.360343824510511 
-1.0 1:3.0155996572169705 2:2.268118579048393 3:3.6625257157938087 4:1.812433329168142 
-1.0 1:3.0155996572169705 2:2.268118579048393 3:2.6253683041143323 4:2.1764464670682666 
-1.0 1:3.1588538173456464 2:1.9567657098244196 3:3.1262752890413403 4:1.967891310798142 
-1.0 1:3.1588538173456464 2:1.9567657098244196 3:2.9961571576303507 4:2.1724311412502084 
-1.0 1:3.1588538173456464 2:1.9567657098244196 3:2.9299350067348127 4:2.4241059548221617 
-1.0 1:3.1588538173456464 2:1.9567657098244196 3:3.1602321553791577 4:2.7803603549855103 
-1.0 1:3.1588538173456464 2:1.9567657098244196 3:2.8728424488549544 4:2.1586125657470854 
-1.0 1:3.1588538173456464 2:1.9567657098244196 3:2.9399031607887514 4:1.8514913047407584 
-1.0 1:3.1588538173456464 2:1.9567657098244196 3:2.786203608203419 4:2.7470048589292957 
-1.0 1:3.1588538173456464 2:1.9567657098244196 3:2.9651464854663594 4:3.199668959666258 
-1.0 1:3.1588538173456464 2:1.9567657098244196 3:2.726309411836875 4:2.360343824510511 
-1.0 1:3.1588538173456464 2:1.9567657098244196 3:3.6625257157938087 4:1.812433329168142 
-1.0 1:3.1262752890413403 2:1.967891310798142 3:2.9961571576303507 4:2.1724311412502084 
-1.0 1:3.1262752890413403 2:1.967891310798142 3:2.9299350067348127 4:2.4241059548221617 
-1.0 1:3.1262752890413403 2:1.967891310798142 3:3.1602321553791577 4:2.7803603549855103 
-1.0 1:3.1262752890413403 2:1.967891310798142 3:2.8728424488549544 4:2.1586125657470854 
-1.0 1:3.1262752890413403 2:1.967891310798142 3:2.9399031607887514 4:1.8514913047407584 
-1.0 1:3.1262752890413403 2:1.967891310798142 3:2.786203608203419 4:2.7470048589292957 
-1.0 1:3.1262752890413403 2:1.967891310798142 3:2.9651464854663594 4:3.199668959666258 
-1.0 1:3.1262752890413403 2:1.967891310798142 3:2.726309411836875 4:2.360343824510511 
-1.0 1:3.1262752890413403 2:1.967891310798142 3:3.6625257157938087 4:1.812433329168142 
-1.0 1:3.1262752890413403 2:1.967891310798142 3:2.6253683041143323 4:2.1764464670682666 
-1.0 1:2.9961571576303507 2:2.1724311412502084 3:2.9299350067348127 4:2.4241059548221617 
-1.0 1:2.9961571576303507 2:2.1724311412502084 3:3.1602321553791577 4:2.7803603549855103 
-1.0 1:2.9961571576303507 2:2.1724311412502084 3:2.8728424488549544 4:2.1586125657470854 
-1.0 1:2.9961571576303507 2:2.1724311412502084 3:2.9399031607887514 4:1.8514913047407584 
-1.0 1:2.9961571576303507 2:2.1724311412502084 3:2.786203608203419 4:2.7470048589292957 
-1.0 1:2.9961571576303507 2:2.1724311412502084 3:2.9651464854663594 4:3.199668959666258 
-1.0 1:2.9961571576303507 2:2.1724311412502084 3:2.726309411836875 4:2.360343824510511 
-1.0 1:2.9961571576303507 2:2.1724311412502084 3:3.6625257157938087 4:1.812433329168142 
-1.0 1:2.9961571576303507 2:2.1724311412502084 3:2.6253683041143323 4:2.1764464670682666 
-1.0 1:2.9299350067348127 2:2.4241059548221617 3:3.1602321553791577 4:2.7803603549855103 
-1.0 1:2.9299350067348127 2:2.4241059548221617 3:2.8728424488549544 4:2.1586125657470854 
-1.0 1:2.9299350067348127 2:2.4241059548221617 3:2.9399031607887514 4:1.8514913047407584 
-1.0 1:2.9299350067348127 2:2.4241059548221617 3:2.786203608203419 4:2.7470048589292957 
-1.0 1:2.9299350067348127 2:2.4241059548221617 3:2.9651464854663594 4:3.199668959666258 
-1.0 1:2.9299350067348127 2:2.4241059548221617 3:2.894256211394099 4:3.1955254038237078 
-1.0 1:2.9299350067348127 2:2.4241059548221617 3:2.726309411836875 4:2.360343824510511 
-1.0 1:2.9299350067348127 2:2.4241059548221617 3:3.6625257157938087 4:1.812433329168142 
-1.0 1:2.9299350067348127 2:2.4241059548221617 3:2.6253683041143323 4:2.1764464670682666 
-1.0 1:3.1602321553791577 2:2.7803603549855103 3:2.8728424488549544 4:2.1586125657470854 
-1.0 1:3.1602321553791577 2:2.7803603549855103 3:2.9399031607887514 4:1.8514913047407584 
-0.5332712047644591 1:3.1602321553791577 2:2.7803603549855103 3:2.786203608203419 4:2.7470048589292957 
-1.0 1:3.1602321553791577 2:2.7803603549855103 3:2.726309411836875 4:2.360343824510511 
-1.0 1:3.1602321553791577 2:2.7803603549855103 3:3.6625257157938087 4:1.812433329168142 
-0.3781458958352926 1:3.1602321553791577 2:2.7803603549855103 3:2.6253683041143323 4:2.1764464670682666 
-1.0 1:2.8728424488549544 2:2.1586125657470854 3:2.9399031607887514 4:1.8514913047407584 
-1.0 1:2.8728424488549544 2:2.1586125657470854 3:2.786203608203419 4:2.7470048589292957 
-1.0 1:2.8728424488549544 2:2.1586125657470854 3:2.9651464854663594 4:3.199668959666258 
-1.0 1:2.8728424488549544 2:2.1586125657470854 3:2.894256211394099 4:3.1955254038237078 
-1.0 1:2.8728424488549544 2:2.1586125657470854 3:2.726309411836875 4:2.360343824510511 
-1.0 1:2.8728424488549544 2:2.1586125657470854 3:3.6625257157938087 4:1.812433329168142 
-1.0 1:2.8728424488549544 2:2.1586125657470854 3:2.6253683041143323 4:2.1764464670682666 
-1.0 1:2.9399031607887514 2:1.8514913047407584 3:2.786203608203419 4:2.7470048589292957 
-1.0 1:2.9399031607887514 2:1.8514913047407584 3:2.9651464854663594 4:3.199668959666258 
-1.0 1:2.9399031607887514 2:1.8514913047407584 3:2.894256211394099 4:3.1955254038237078 
-1.0 1:2.9399031607887514 2:1.8514913047407584 3:2.726309411836875 4:2.360343824510511 
-1.0 1:2.9399031607887514 2:1.8514913047407584 3:2.690915789789922 4:2.9550074724320723 
-1.0 1:2.9399031607887514 2:1.8514913047407584 3:3.6625257157938087 4:1.812433329168142 
-1.0 1:2.9399031607887514 2:1.8514913047407584 3:2.6253683041143323 4:2.1764464670682666 
-1.0 1:2.786203608203419 2:2.7470048589292957 3:2.9651464854663594 4:3.199668959666258 
-1.0 1:2.786203608203419 2:2.7470048589292957 3:2.894256211394099 4:3.1955254038237078 
-1.0 1:2.786203608203419 2:2.7470048589292957 3:2.726309411836875 4:2.360343824510511 
-1.0 1:2.786203608203419 2:2.7470048589292957 3:2.690915789789922 4:2.9550074724320723 
-1.0 1:2.786203608203419 2:2.7470048589292957 3:2.7218330549164858 4:3.2254679124326673 
-1.0 1:2.786203608203419 2:2.7470048589292957 3:2.689683082694729 4:3.207330272487637 
-1.0 1:2.786203608203419 2:2.7470048589292957 3:3.6625257157938087 4:1.812433329168142 
-1.0 1:2.786203608203419 2:2.7470048589292957 3:2.630174960617333 4:2.985627802641184 
-1.0 1:2.786203608203419 2:2.7470048589292957 3:2.6253683041143323 4:2.1764464670682666 
-1.0 1:2.9651464854663594 2:3.199668959666258 3:2.894256211394099 4:3.1955254038237078 
-1.0 1:2.9651464854663594 2:3.199668959666258 3:2.726309411836875 4:2.360343824510511 
-1.0 1:2.9651464854663594 2:3.199668959666258 3:2.690915789789922 4:2.9550074724320723 
-1.0 1:2.9651464854663594 2:3.199668959666258 3:2.7218330549164858 4:3.2254679124326673 
-1.0 1:2.9651464854663594 2:3.199668959666258 3:2.689683082694729 4:3.207330272487637 
-1.0 1:2.9651464854663594 2:3.199668959666258 3:3.6625257157938087 4:1.812433329168142 
-1.0 1:2.9651464854663594 2:3.199668959666258 3:2.630174960617333 4:2.985627802641184 
-1.0 1:2.9651464854663594 2:3.199668959666258 3:2.6253683041143323 4:2.1764464670682666 
-1.0 1:2.894256211394099 2:3.1955254038237078 3:2.726309411836875 4:2.360343824510511 
-1.0 1:2.894256211394099 2:3.1955254038237078 3:2.690915789789922 4:2.9550074724320723 
-1.0 1:2.894256211394099 2:3.1955254038237078 3:2.7218330549164858 4:3.2254679124326673 
-1.0 1:2.894256211394099 2:3.1955254038237078 3:2.689683082694729 4:3.207330272487637 
-1.0 1:2.894256211394099 2:3.1955254038237078 3:3.6625257157938087 4:1.812433329168142 
-1.0 1:2.894256211394099 2:3.1955254038237078 3:2.630174960617333 4:2.985627802641184 
-1.0 1:2.894256211394099 2:3.1955254038237078 3:2.6253683041143323 4:2.1764464670682666 
-1.0 1:2.894256211394099 2:3.1955254038237078 3:2.574501424373627 4:3.209673308840685 
-1.0 1:2.726309411836875 2:2.360343824510511 3:2.690915789789922 4:2.9550074724320723 
-0.1026424788136382 1:2.726309411836875 2:2.360343824510511 3:2.7218330549164858 4:3.2254679124326673 
-1.0 1:2.726309411836875 2:2.360343824510511 3:3.6625257157938087 4:1.812433329168142 
-1.0 1:2.726309411836875 2:2.360343824510511 3:2.630174960617333 4:2.985627802641184 
-1.0 1:2.726309411836875 2:2.360343824510511 3:2.6253683041143323 4:2.1764464670682666 
-1.0 1:2.690915789789922 2:2.9550074724320723 3:2.7218330549164858 4:3.2254679124326673 
-1.0 1:2.690915789789922 2:2.9550074724320723 3:2.689683082694729 4:3.207330272487637 
-1.0 1:2.690915789789922 2:2.9550074724320723 3:3.6625257157938087 4:1.812433329168142 
-1.0 1:2.690915789789922 2:2.9550074724320723 3:2.630174960617333 4:2.985627802641184 
-1.0 1:2.690915789789922 2:2.9550074724320723 3:2.6253683041143323 4:2.1764464670682666 
-1.0 1:2.690915789789922 2:2.9550074724320723 3:2.574501424373627 4:3.209673308840685 
-1.0 1:2.7218330549164858 2:3.2254679124326673 3:2.689683082694729 4:3.207330272487637 
-1.0 1:2.7218330549164858 2:3.2254679124326673 3:3.6625257157938087 4:1.812433329168142 
-1.0 1:2.7218330549164858 2:3.2254679124326673 3:2.630174960617333 4:2.985627802641184 
-1.0 1:2.7218330549164858 2:3.2254679124326673 3:2.6253683041143323 4:2.1764464670682666 
-1.0 1:2.7218330549164858 2:3.2254679124326673 3:2.574501424373627 4:3.209673308840685 
-1.0 1:2.7218330549164858 2:3.2254679124326673 3:3.152750906970327 4:0.9315274042745091 
-1.0 1:2.689683082694729 2:3.207330272487637 3:3.6625257157938087 4:1.812433329168142 
-1.0 1:2.689683082694729 2:3.207330272487637 3:2.630174960617333 4:2.985627802641184 
-1.0 1:2.689683082694729 2:3.207330272487637 3:2.6253683041143323 4:2.1764464670682666 
-1.0 1:2.689683082694729 2:3.207330272487637 3:2.574501424373627 4:3.209673308840685 
-1.0 1:2.689683082694729 2:3.207330272487637 3:3.152750906970327 4:0.9315274042745091 
-0.5676740611007056 1:3.6625257157938087 2:1.812433329168142 3:2.6253683041143323 4:2.1764464670682666 
-1.0 1:2.630174960617333 2:2.985627802641184 3:2.6253683041143323 4:2.1764464670682666 
-1.0 1:2.630174960617333 2:2.985627802641184 3:2.574501424373627 4:3.209673308840685 
-1.0 1:2.630174960617333 2:2.985627802641184 3:3.152750906970327 4:0.9315274042745091 
-0.972105370606825 1:2.6253683041143323 2:2.1764464670682666 3:3.152750906970327 4:0.9315274042745091 
-1.0 1:2.574501424373627 2:3.209673308840685 3:3.152750906970327 4:0.9315274042745091 
