svm_type epsilon_svr
kernel_type rbf
gamma 0.5
nr_class 2
total_sv 8
rho -0.9789194499895595
SV
1.0 1:3.363229066070424 2:2.3637171092891904 
1.0 1:3.0372621584373043 2:1.6033374877878583 
-1.0 1:3.192046427240727 2:2.380928636851407 
-1.0 1:3.2107993910057524 2:2.356049031972583 
0.7855238654197463 1:2.989627019996423 2:1.7395700343390332 
-1.0 1:3.266210495406921 2:1.8479313655388772 
1.0 1:3.240910795224244 2:2.9111844165929806 
-0.7855238654197463 1:3.178748258819784 2:2.429481063353833 
