svm_type epsilon_svr
kernel_type rbf
gamma 0.00390625
nr_class 2
total_sv 75
rho -452.5251928100154
SV
6229.936879901406 1:12.478674540677968 2:-3.0290612415731157 
16384.0 1:2.5504632743688367 2:2.301981719459798 
16384.0 1:7.047454579201766 2:10.203858242678782 
-2653.1341549959116 1:14.576407175443308 2:13.914618108222287 
-16384.0 1:3.091529214973816 2:-1.0161279066457907 
-16384.0 1:9.14668112913089 2:3.8821383922004378 
13791.21417276697 1:-2.7989419859217755 2:14.84167938531979 
-7080.804639172348 1:-0.8574600528586539 2:0.27175801511378406 
5142.451518738941 1:13.68907636075394 2:11.133300088219036 
-16384.0 1:7.582225981953783 2:-3.5428690989787346 
-14534.495216939975 1:8.099223884322887 2:12.794706772472406 
6567.336399167655 1:-3.698406156036635 2:-4.592860563536289 
16384.0 1:12.102447141390748 2:5.924949106800334 
-16384.0 1:-2.1250283734933415 2:-0.509698010037973 
-16384.0 1:11.207982805412996 2:3.0575649435867085 
-16384.0 1:4.424007167273518 2:6.863508722411302 
-10097.121246018038 1:4.689888398260632 2:9.379553400873025 
16384.0 1:1.042659400912671 2:7.765819867578277 
9107.905758131876 1:1.2765863789539553 2:-2.1030707726873774 
8876.697082217132 1:-4.287500643199293 2:1.1790526767784424 
16384.0 1:-0.3093498493237 2:8.110549372430238 
16384.0 1:5.595513773917491 2:12.27205030088353 
-16384.0 1:9.933845218425402 2:4.939904867776986 
-7119.941756054754 1:-4.999999999999913 2:14.99999999999985 
16384.0 1:5.6214665111796 2:1.2014664972956441 
16384.0 1:14.999999999999996 2:8.046460572547955 
16384.0 1:5.522168529588111 2:1.0830457101570017 
16384.0 1:5.046866030421811 2:1.2021920058558093 
-16384.0 1:3.213454008665235 2:2.583098369738752 
16384.0 1:4.853199998467862 2:1.0073754952918417 
16384.0 1:2.48542727880277 2:3.2011840040470068 
16384.0 1:4.089548729592118 2:1.8712867870763752 
998.0043486125276 1:12.00048947198156 2:5.79089674438759 
6670.345943901767 1:2.6795007270180022 2:2.9246191710655336 
16384.0 1:2.452740291962791 2:3.153555431416874 
-16384.0 1:3.143098935425811 2:2.4340385141567724 
464.34094401857874 1:14.999999999999705 2:8.710620910600891 
16384.0 1:2.6281543401705423 2:2.979800495209927 
-16384.0 1:-3.3403582278373136 2:12.076040579769625 
16384.0 1:5.466468518140891 2:1.0955806415483482 
-16384.0 1:3.157976503776843 2:2.336456293093519 
10121.586406329578 1:-2.473480773436887 2:11.850994446492042 
16384.0 1:3.635616944826912 2:1.9880025779922623 
-16384.0 1:3.300785957073665 2:2.2757105229722465 
16384.0 1:2.6544979162791877 2:1.5906045740236732 
-16384.0 1:2.740821516154854 2:1.744462125516537 
-16384.0 1:3.195916404960062 2:2.391271696762371 
16384.0 1:-4.999999999999834 2:14.69312092511577 
-16384.0 1:3.1881504581806284 2:2.389600710628898 
16384.0 1:3.850906318351799 2:1.7748396919634248 
16384.0 1:3.832052669956771 2:1.78910431831257 
-16384.0 1:3.1247555784387813 2:2.452409478199435 
-16384.0 1:3.110749773968452 2:2.466003845140394 
16384.0 1:3.44693042846728 2:2.060584829517486 
-16384.0 1:3.4149162738788172 2:2.0805202665513054 
-16384.0 1:3.420514892223228 2:2.077310593576802 
-16384.0 1:14.999999999999266 2:9.113680844459136 
16384.0 1:-4.999999999989734 2:11.379682066130671 
-16384.0 1:3.375904809704008 2:2.1509792832902437 
-16384.0 1:3.3940090845170494 2:2.1354084772313975 
16384.0 1:3.5387067407791397 2:1.9951298752579028 
16384.0 1:3.5132373531561263 2:2.0142104970611943 
-16384.0 1:3.367201969362424 2:2.1553963783363383 
16384.0 1:3.511147156095062 2:2.0157340768740273 
-16384.0 1:3.35637911543749 2:2.163776234358809 
-16384.0 1:3.3895045881462083 2:2.140186639808678 
-16384.0 1:3.3965865290405 2:2.1341222532469537 
16384.0 1:3.508938164999007 2:2.017297900367964 
-16384.0 1:3.395644676238476 2:2.135270533689871 
-16384.0 1:-3.3229051237937015 2:12.728227719125865 
16384.0 1:4.142535151621876 2:1.7857038238840361 
-16384.0 1:-3.1806253889566007 2:13.172584814238324 
-10100.322440605381 1:2.7263074974387496 2:1.8195917415444978 
16384.0 1:3.6198769587914743 2:1.8695736222762576 
-16384.0 1:-2.7837971005667037 2:12.33693137244823 
