svm_type epsilon_svr
kernel_type rbf
gamma 0.5
nr_class 2
total_sv 986
rho -36.911268458604354
SV
1.0 1:9.687947426691451 2:14.833813841161703 
-1.0 1:4.481301600354664 2:3.262223844539946 
1.0 1:1.108332987174312 2:13.546143364757889 
-1.0 1:14.875344752578219 2:10.84451957095107 
1.0 1:1.890213394232287 2:10.40704383928861 
1.0 1:-2.2804407966471874 2:4.359787821064634 
-1.0 1:11.227374618491876 2:3.952196719922945 
-1.0 1:14.798536784061657 2:14.399226145307836 
-1.0 1:2.507764623200634 2:1.2090943464066672 
-1.0 1:9.315044417817965 2:-1.0815709116620398 
-1.0 1:7.853114271689163 2:-0.4553817738488224 
-1.0 1:3.434570499886691 2:3.2044049884918877 
-1.0 1:3.971295875408213 2:6.945251757094805 
-1.0 1:-1.1944940164069195 2:9.911278436678643 
0.576496504299624 1:11.05053745272954 2:-1.1493417387490545 
-1.0 1:11.793855133144952 2:3.3107920193529985 
1.0 1:14.100403591837289 2:-4.38161713660751 
-1.0 1:10.659644379707323 2:8.173262403347332 
1.0 1:14.445232152108936 2:-3.7205365836581494 
1.0 1:8.01548517113156 2:-4.410834455650898 
1.0 1:-1.9985078836570613 2:1.451778034141027 
1.0 1:-1.3539724246459017 2:-4.438933566987018 
-1.0 1:6.521320496497999 2:1.10997938220315 
1.0 1:0.13031925892086793 2:-0.6598633435338686 
-1.0 1:-1.8397370210323771 2:11.367897299625078 
1.0 1:11.697367958036153 2:13.251033049463025 
-1.0 1:4.528035231818766 2:-1.4886722811318354 
1.0 1:-4.641513356648328 2:0.143441944603369 
-1.0 1:12.806904915180247 2:8.226153194899549 
1.0 1:2.598284913844653 2:14.628129879144556 
-1.0 1:3.5730580062627517 2:3.298772666720989 
-1.0 1:-0.23056014181107187 2:3.899862811439869 
1.0 1:-2.3678809388419375 2:4.022849090508503 
1.0 1:5.824680887600371 2:7.219102772096651 
-1.0 1:8.480756761842528 2:2.1284144974367987 
-1.0 1:7.132681068408155 2:4.018898454512367 
-1.0 1:0.9320947662494401 2:1.256403734737452 
-1.0 1:-4.137149519559252 2:13.122947519756512 
-1.0 1:0.9934354776933008 2:4.833723327847947 
1.0 1:10.787288970008099 2:13.705312487183583 
-0.6460470900552264 1:7.260567333492016 2:5.660981183140478 
-1.0 1:2.336453839848021 2:2.3918173523505644 
-1.0 1:-0.1062689594808024 2:10.607049746065531 
1.0 1:-2.6416321481549065 2:0.297685171614523 
-1.0 1:9.666081026939624 2:-1.4883442035977068 
-1.0 1:3.2694752408066243 2:-1.184504307960379 
1.0 1:-3.373726981401759 2:-0.2707763602588482 
-1.0 1:6.148546162929465 2:3.612090197338315 
1.0 1:-4.407418346873174 2:1.7042340154740536 
-1.0 1:2.813291407562632 2:2.5625616263304796 
-1.0 1:13.996739773636065 2:6.550381301088919 
-1.0 1:3.0326496189444985 2:5.244024252259003 
-1.0 1:-3.478534517308496 2:13.812861253938554 
-1.0 1:4.7659795643816985 2:-0.8686365781800305 
1.0 1:0.5264313062424586 2:14.425131751517586 
-1.0 1:2.6836718700915885 2:0.7817138331024198 
1.0 1:-3.5667943097595622 2:0.32853516950879236 
-1.0 1:-1.7880160466746031 2:9.063939910747546 
1.0 1:-1.9595177144572729 2:-1.6948016628207307 
-1.0 1:-2.0418308948734354 2:11.883923220805784 
-1.0 1:-0.8333128982081073 2:6.281652611534195 
1.0 1:-3.389730235638817 2:-2.124003125216163 
-1.0 1:5.067845940499202 2:5.692654435900151 
1.0 1:0.2692053389811555 2:0.17538940897772015 
-1.0 1:-0.2456338934565956 2:4.451715231708853 
-1.0 1:-3.340910972721285 2:10.656082579867972 
1.0 1:3.631168836187795 2:11.656878448951918 
-1.0 1:-0.2250319466880013 2:9.913010742135901 
-1.0 1:9.81139412189094 2:-2.6326817763645893 
-1.0 1:8.265480407181975 2:0.7870679473933446 
-1.0 1:-0.7888126551294894 2:11.375908942378 
1.0 1:12.056809994553575 2:-3.700453864642357 
-1.0 1:11.947634754598951 2:7.243075664566316 
1.0 1:11.018240769368607 2:-3.3975417051587087 
-1.0 1:0.19547303562960305 2:1.9324982847388554 
-1.0 1:4.044947922368467 2:5.451904839875381 
-1.0 1:4.998240752386096 2:-0.08503404558840799 
1.0 1:-3.5143794464108447 2:4.6662974364124015 
1.0 1:5.831707220897261 2:6.737676086459892 
1.0 1:-3.8148311871923157 2:4.549908094325152 
-1.0 1:2.7369486199454034 2:-2.582482205180774 
1.0 1:-4.664782656817632 2:-0.7981702596013225 
-1.0 1:8.44260536824853 2:6.0132690154817965 
-1.0 1:14.128048698771444 2:8.033448517898263 
1.0 1:6.180065173850055 2:6.831418522513367 
-1.0 1:8.021258857486115 2:-0.18171685071828314 
1.0 1:-3.7414217719005394 2:0.8648548968161318 
-1.0 1:0.596147773928541 2:4.055078422725437 
1.0 1:12.455612393943596 2:-0.1668007297668339 
1.0 1:4.793661047039976 2:8.50706314013948 
-1.0 1:-2.1089820494442146 2:14.588086624491403 
1.0 1:-3.2625160175961887 2:1.487322430184335 
-1.0 1:9.291871287670467 2:4.666230812133765 
-1.0 1:8.404649919112067 2:2.792256507847071 
1.0 1:8.41813217569804 2:11.417644265228631 
-1.0 1:8.07983725828073 2:-1.8578531401757936 
1.0 1:-0.09245992754097099 2:-1.5940906319177373 
1.0 1:0.8302773494851472 2:8.569851350440615 
-1.0 1:5.9114535152493595 2:-0.32806474398060104 
1.0 1:5.164007008614512 2:8.405717211095542 
1.0 1:6.5849554486011534 2:13.338804465073263 
1.0 1:12.231144765520632 2:11.24667787146971 
-1.0 1:13.934153554783837 2:13.49155605909202 
-1.0 1:10.58118225592845 2:1.3423651833337003 
-1.0 1:10.20713054839042 2:5.527081179010587 
-1.0 1:-3.081768409084016 2:14.410479071397592 
1.0 1:-4.036661771738926 2:2.5152432643169735 
1.0 1:5.725088179452429 2:7.417893816034063 
1.0 1:10.494228679453748 2:10.61578884031649 
-1.0 1:8.011881974811978 2:1.8555483120470218 
-1.0 1:3.5924007332445456 2:-2.4062340997014298 
-1.0 1:-1.3381425842165018 2:3.9972696002528956 
1.0 1:-0.9350095243202627 2:-0.23546877214902562 
1.0 1:-1.3801413363361426 2:0.9566517258836367 
0.8603964203037922 1:0.060287727174705985 2:1.1726581599381376 
1.0 1:0.43974690661539917 2:8.30919397100855 
-1.0 1:-4.172676349324778 2:11.641108830521219 
-1.0 1:3.070273288883797 2:-1.808543849049804 
-1.0 1:-0.2960393482466861 2:8.78404415784548 
-1.0 1:9.747201852328065 2:5.558489603903338 
1.0 1:-1.0701984370843154 2:13.158691808372563 
1.0 1:1.4727619848451585 2:14.675364285503417 
1.0 1:8.306010921590554 2:-4.561281623883997 
1.0 1:7.801791373183928 2:7.938114902573073 
1.0 1:11.774924540099374 2:9.823583581914914 
-1.0 1:-3.482789557500372 2:14.763984935480515 
1.0 1:8.668104393623164 2:8.85538099214019 
-1.0 1:14.265752798195706 2:9.5603637232262 
1.0 1:14.672277695018423 2:1.3967115480261167 
1.0 1:11.33815253829804 2:14.676347230109286 
-1.0 1:1.4883806912310789 2:7.730157918517136 
1.0 1:-4.483723045751924 2:6.7603838357551 
1.0 1:13.709704734651293 2:3.5719594415606473 
-1.0 1:2.2729688387739806 2:3.0920002400126414 
-1.0 1:-3.3790675645604806 2:8.249529499185106 
1.0 1:1.598649915237555 2:-1.774868695869265 
-1.0 1:4.420622405081547 2:1.3744702414129346 
1.0 1:5.342007779376491 2:10.675107618179489 
-1.0 1:14.795490106145632 2:7.049790092248717 
-1.0 1:13.190385222940687 2:4.4008914543426485 
-1.0 1:12.825608037957487 2:4.982046210104334 
1.0 1:0.27875626494580086 2:10.478674376816153 
1.0 1:4.875437138721795 2:13.82617008320787 
1.0 1:4.9044648705955005 2:10.632489126025106 
-1.0 1:1.426372771157098 2:3.6727712403526542 
1.0 1:0.9381835334996698 2:-3.817980258213043 
1.0 1:6.732278743760489 2:11.794735555522248 
1.0 1:-3.7401824525232774 2:3.4873115744624066 
1.0 1:12.730257230709626 2:-1.3980257999220957 
1.0 1:5.911385179735934 2:10.114634836785893 
-1.0 1:14.814691886533492 2:9.210202079599776 
1.0 1:6.647157650856093 2:14.717272232543788 
-1.0 1:7.883369250183907 2:0.111667240988222 
-1.0 1:8.174649242767805 2:-1.9804654804120037 
1.0 1:2.490281851081269 2:10.142774717898956 
-1.0 1:-4.38168896956916 2:12.311841232558361 
-1.0 1:2.990485662445246 2:0.2755782092345216 
1.0 1:7.601071999555655 2:12.50924078141793 
1.0 1:12.238164927889827 2:-2.282844375383375 
1.0 1:14.827152312716262 2:3.0952588274599364 
1.0 1:10.699851300047671 2:-3.6170961782912148 
1.0 1:-4.837151800227588 2:12.167517015562318 
-1.0 1:1.770509355593517 2:8.016824930151838 
1.0 1:2.950278429380864 2:-3.6789282324046813 
-1.0 1:-0.36900708217342526 2:6.063907961881016 
-1.0 1:2.652357870136653 2:8.24997939039244 
1.0 1:1.1611559928119526 2:-2.1432638601942533 
-1.0 1:-0.08445695199155878 2:2.717101470956907 
-1.0 1:9.223675958552139 2:-0.23950868828508387 
1.0 1:-3.249818572503671 2:-4.063290449692909 
1.0 1:1.0594429529441012 2:14.627543210802283 
-0.8652076446034433 1:1.766577274323624 2:8.433980913709377 
-1.0 1:2.5861294748008152 2:1.2448586107082154 
1.0 1:1.2681582251514083 2:12.089994134704074 
1.0 1:-2.932638808542598 2:1.4144851888935461 
-1.0 1:2.491422963492944 2:8.350381447015053 
1.0 1:4.920663402614917 2:11.889401562959144 
1.0 1:-3.6043786852203574 2:6.4703169776179 
1.0 1:0.35816542750652935 2:-4.405945639680258 
-1.0 1:14.143400284247718 2:8.188050522665261 
1.0 1:0.10480305307277682 2:-0.609066630940287 
-1.0 1:8.776934128278246 2:-1.6362700748329795 
-1.0 1:9.614562472036475 2:4.111572757306348 
1.0 1:1.5823384066381792 2:9.889792113366711 
-1.0 1:3.0060666564672633 2:-3.347611417619516 
1.0 1:11.248443831480603 2:-4.426279764167312 
-1.0 1:4.364609837866455 2:3.64280252583346 
1.0 1:13.164291702223167 2:-0.28648993486782004 
-1.0 1:10.108510080157009 2:1.5251244155592243 
1.0 1:-3.937008193789635 2:-2.2692886214395314 
-1.0 1:4.793438806293906 2:-1.1572881353837916 
1.0 1:13.707867496284248 2:3.4954418462877612 
-1.0 1:-3.9708347001537225 2:13.114935855653556 
1.0 1:10.430090201179237 2:10.872310872369745 
-1.0 1:8.108936464842744 2:-3.115470952423103 
1.0 1:11.065289399996313 2:-1.464294536256654 
-1.0 1:8.502493616113902 2:5.354923246967365 
-1.0 1:8.199903965109495 2:5.247439151241638 
1.0 1:-3.4604938938983754 2:1.4921989371787987 
1.0 1:12.626324199294377 2:-3.440713435996181 
0.7728299720866513 1:-0.5890139925998898 2:3.548325743092427 
-1.0 1:-3.4808477800292614 2:13.297455929191248 
-1.0 1:-2.9579670973158345 2:14.669376438053238 
1.0 1:13.083191709008773 2:-2.7944089772350256 
-1.0 1:14.440026097842054 2:14.5844531776989 
1.0 1:1.2870592980035678 2:9.76741730423665 
1.0 1:-2.201819642267082 2:-0.671922294210856 
1.0 1:-0.21541159977094892 2:-3.500315770881186 
-1.0 1:8.935148578201655 2:6.530837951254798 
1.0 1:0.239481966406756 2:0.9005826093679232 
-1.0 1:11.577140720708787 2:1.020112980492332 
-1.0 1:7.006947636735818 2:-0.24165182033492272 
-1.0 1:2.5398149657759195 2:-1.6952699045234643 
-1.0 1:-2.5106671184406637 2:14.669299629868647 
1.0 1:1.0429665070154215 2:11.97443035364553 
-1.0 1:-4.528941165201001 2:13.384075949425942 
-1.0 1:10.191831941941123 2:5.127068884608006 
-1.0 1:-1.6485712661948515 2:8.995390920383501 
1.0 1:6.084605864165413 2:5.643488228400312 
1.0 1:-1.5678246142725283 2:-4.999869964499233 
1.0 1:12.056536388395184 2:10.462044171552293 
-1.0 1:8.27988684996156 2:-0.08683328815948954 
1.0 1:-1.7532297358576754 2:14.96179248735453 
-1.0 1:0.6717329104105341 2:6.379792037973255 
-1.0 1:9.974873403830935 2:0.14538037091863742 
-1.0 1:4.74619767149861 2:-3.3718088350649067 
1.0 1:12.339754731468055 2:12.519708826377407 
-1.0 1:1.7188030658761688 2:-1.377073849305599 
-1.0 1:3.004492465185871 2:-0.595530768981023 
1.0 1:-4.113908637879298 2:-4.5750765630290395 
1.0 1:10.306339831687513 2:-4.1443082180345066 
-1.0 1:-0.37058941741735474 2:4.032981691279376 
1.0 1:-0.368015114042759 2:-1.526531925388983 
1.0 1:4.743335350428557 2:9.37636434207853 
-1.0 1:-2.5761033271385214 2:6.070041059703303 
-1.0 1:-3.3481652708451026 2:14.14755937811595 
-1.0 1:9.234391461018364 2:-2.4935024519624394 
1.0 1:2.9385728657549626 2:-4.191175143800539 
-1.0 1:-4.080174514115886 2:12.96331611148738 
-1.0 1:13.106023330317104 2:8.375669414943197 
-1.0 1:0.3680994271115168 2:6.492059283849338 
0.43796378190667057 1:2.591341508026219 2:8.47495097214833 
1.0 1:6.078447099064979 2:4.902539089608744 
-1.0 1:0.8052424718837914 2:2.6948011734148807 
1.0 1:-1.536741328465454 2:0.871797830806333 
-1.0 1:0.32338742317239166 2:6.3881236893373945 
-1.0 1:9.917471763316033 2:6.618299690993869 
1.0 1:12.34808837943321 2:12.860935365426933 
1.0 1:0.5018406395332882 2:-1.4332648460397657 
1.0 1:12.171403247090662 2:-3.7286383600702533 
-1.0 1:-2.4878197103973387 2:13.135897533128858 
1.0 1:7.608983859467211 2:11.584617750565332 
1.0 1:9.257464657510585 2:9.11409922749241 
1.0 1:3.237317757648645 2:10.573847967227403 
1.0 1:1.0454275008728526 2:13.043641088396534 
-1.0 1:3.7552883228787906 2:4.1262221412099365 
-1.0 1:14.67511646366843 2:10.617874575975181 
1.0 1:0.9042551159307699 2:8.00821476951252 
-1.0 1:6.661606089367444 2:-0.6985714634501372 
1.0 1:0.11914214040382554 2:11.763534118614391 
1.0 1:14.968884706275304 2:-4.783800882048565 
1.0 1:5.44629714964419 2:8.561697039393506 
-1.0 1:-0.7973130089983833 2:10.79274133396889 
1.0 1:14.252173902843257 2:-2.415236298023493 
1.0 1:-4.98415994783628 2:8.768727865931359 
1.0 1:-3.139834781217148 2:-0.06570298853360867 
1.0 1:-0.09553144373225742 2:12.823164683553593 
1.0 1:10.491193272883281 2:14.060131645852657 
1.0 1:4.624181622568649 2:-4.532901881497445 
1.0 1:1.746955563501011 2:-2.642932280900585 
1.0 1:2.1311519704542174 2:9.768571217329523 
-0.9515303670353462 1:7.362994574032697 2:-3.154858964802303 
-1.0 1:4.25377495187702 2:3.071611185222686 
-1.0 1:9.072044823306424 2:3.7436526498376708 
1.0 1:-4.773625244404438 2:8.076085204862505 
-1.0 1:-4.843601875158312 2:14.268663505187906 
0.5405222317515963 1:10.767211103782259 2:9.47725976656126 
-1.0 1:8.631295604211013 2:2.128202668199526 
1.0 1:11.558821148052974 2:12.820958086129583 
-1.0 1:-0.010348069276164829 2:6.95896501714193 
1.0 1:0.7895029447752888 2:-3.6877707084068123 
1.0 1:11.051685488471719 2:-2.657206762718225 
0.5236339499279222 1:-3.159457474754943 2:6.022471300838008 
1.0 1:-4.298681195605347 2:-2.9392023135234124 
1.0 1:14.254554914988525 2:0.2719914578630078 
-1.0 1:13.154486532338787 2:8.887467131258752 
-1.0 1:8.796102354091193 2:-0.07799548559157543 
1.0 1:9.89277793474776 2:11.496679464768668 
1.0 1:-2.490883588730073 2:1.9460350579239227 
1.0 1:14.260679579745364 2:3.4263808912773115 
1.0 1:-4.549540432317309 2:8.72548742680155 
1.0 1:-3.995821265485744 2:4.462955129939523 
-1.0 1:0.005789897155419332 2:8.500746121325713 
-1.0 1:-0.2147483672945949 2:4.919625280560673 
-1.0 1:3.875941371670562 2:3.451493468213476 
1.0 1:1.7964564438142672 2:12.789229445852154 
1.0 1:4.275092572070612 2:-4.501036923156512 
1.0 1:-4.173017520786408 2:-0.3537475218363806 
-1.0 1:1.7520342412799934 2:8.736962353173489 
-1.0 1:5.6972127329080795 2:2.4978012843484576 
-1.0 1:6.782606208158912 2:2.0249681668353903 
1.0 1:-0.3970614678386797 2:14.869214724855357 
1.0 1:-3.327025362444631 2:-0.028562807588419226 
1.0 1:14.38741991426674 2:-4.403398100034048 
1.0 1:1.4267036948483085 2:12.430013776589817 
1.0 1:6.685263360843406 2:11.005632607939987 
1.0 1:3.966857625969098 2:10.150846447132142 
1.0 1:-2.5671393032456646 2:-1.0120723112390917 
1.0 1:-2.5323518415891866 2:-2.626242443207776 
1.0 1:10.538428455898076 2:10.919540998848365 
-1.0 1:4.32546756216462 2:-0.36079305199730793 
-1.0 1:9.616110131754407 2:-0.2698083671209428 
-1.0 1:1.219200409615655 2:2.742028274411366 
1.0 1:-2.8396377770139725 2:-1.171596423694632 
-1.0 1:2.3364306937878148 2:3.114361119779076 
1.0 1:4.109238164514943 2:7.311206590571729 
1.0 1:14.889909973608077 2:-2.079868878415534 
1.0 1:5.5411519915393015 2:11.262142208773493 
1.0 1:2.759198056531158 2:11.168883605808798 
-1.0 1:9.60240194674398 2:-0.6390979068633236 
-1.0 1:-0.06428510054827186 2:8.533884411286468 
-1.0 1:1.4977386436081286 2:1.4889023972873927 
-1.0 1:8.120493090762102 2:-0.8882305519469647 
1.0 1:6.704732458412339 2:-1.2262239720206947 
1.0 1:-0.9485876972266478 2:1.2483741713866259 
-1.0 1:10.560995530331947 2:7.285315484565174 
1.0 1:-2.0625259335673607 2:-1.3625892332166312 
-1.0 1:14.986587009710465 2:6.9899164060816315 
-0.9775260611444894 1:0.8034704834728101 2:7.605686623371 
1.0 1:7.342204619467809 2:12.590112699776821 
1.0 1:-4.400836907149013 2:-3.169407408197489 
-1.0 1:1.2870656215163496 2:3.5203188221830786 
-1.0 1:14.602887189958722 2:6.692621656555151 
1.0 1:4.988640641947615 2:6.639429064418728 
-1.0 1:3.9502651053688727 2:7.047704723533352 
1.0 1:-1.850302478696264 2:-2.944543171541849 
1.0 1:-4.955498859135572 2:9.411188113331052 
-1.0 1:-3.9436058800696916 2:10.036921420057062 
1.0 1:2.1555070595248065 2:12.377303216591322 
-1.0 1:6.214428525198137 2:0.1102293706948938 
-1.0 1:10.69088930721174 2:7.555010492002495 
-1.0 1:1.1285535044850503 2:2.211824913208515 
-1.0 1:1.4226172068767085 2:7.383139655753082 
-0.525587241976785 1:-0.6059702794188677 2:4.158409510484036 
1.0 1:-2.6210389251762867 2:-4.105236364752756 
1.0 1:6.506875666243815 2:9.718076221434593 
1.0 1:-3.336938948828949 2:-2.790280672519212 
-1.0 1:1.127390283615723 2:0.4757717162827779 
1.0 1:-2.6949351818522405 2:-0.17237646541872031 
1.0 1:0.16174928233494423 2:11.114995107641647 
1.0 1:9.287500533225776 2:10.782659844609125 
1.0 1:0.7229993928099994 2:11.330885259553174 
-1.0 1:-2.7282071610838243 2:8.871053810414452 
-1.0 1:14.354558519828423 2:7.04886336475322 
-1.0 1:-2.6768214837513638 2:8.226214760794504 
-1.0 1:5.064219632367482 2:2.8117696767934035 
1.0 1:11.671573476770114 2:-0.22134342647525962 
1.0 1:13.757270647540992 2:-0.21197476054829956 
-1.0 1:14.211134124342394 2:11.343557281129627 
1.0 1:5.33976418845876 2:9.741725760811113 
-1.0 1:14.551631299654943 2:8.275054031694225 
-1.0 1:6.158571933578292 2:-3.477103215369244 
-1.0 1:3.298018539442783 2:7.270883448419177 
1.0 1:7.120624723211353 2:12.593168018249962 
-1.0 1:6.722874742250065 2:2.180520801912147 
1.0 1:-3.8654720863020153 2:-0.31584254723810723 
1.0 1:-4.890325965506117 2:2.56449903083396 
-1.0 1:12.443526041380835 2:9.892886797104229 
1.0 1:-4.2168890132337555 2:3.2721166127327006 
-0.10603132732836862 1:4.969560948066791 2:-3.649422747075317 
1.0 1:-0.7939879233076859 2:-3.550718865553757 
-1.0 1:6.96396097610042 2:1.0582187491442063 
-1.0 1:14.510616945201921 2:6.157759894522103 
1.0 1:10.06107274915037 2:11.564312193834311 
1.0 1:9.445315087525792 2:10.181644128574076 
-1.0 1:12.256929428508883 2:7.8672499438944605 
1.0 1:-1.0437984531384537 2:13.616365177253126 
1.0 1:6.385833021568194 2:-3.7432051000412225 
1.0 1:6.486084732698142 2:14.480128817532204 
1.0 1:8.343506762655252 2:7.766177813452115 
1.0 1:12.561876728051253 2:12.857169078150452 
-1.0 1:-2.3937412924932566 2:5.488349448486536 
-1.0 1:6.3545671401192685 2:1.976749066077348 
1.0 1:-3.4786298901599233 2:-2.7830442022475754 
-1.0 1:7.634265026185787 2:2.1513742063443564 
-1.0 1:9.394716154393985 2:7.704647628482139 
-1.0 1:8.906075981901138 2:-3.357790403260925 
-1.0 1:-2.4225998158004103 2:8.28834612451079 
-1.0 1:0.500867582721451 2:2.2892266771277487 
1.0 1:2.553958926511184 2:10.713139991327367 
0.08630033738981527 1:5.00823860313189 2:-2.8618688965250727 
1.0 1:5.460493273168591 2:6.693505934552915 
1.0 1:1.6773212022069544 2:12.31566446058951 
1.0 1:8.511840282767494 2:-4.917421851272614 
1.0 1:6.2742904547059 2:-3.9506040471937776 
-1.0 1:1.49270115363999 2:4.4772320377506745 
1.0 1:7.3737648445998545 2:13.99764972402172 
-1.0 1:14.768411999232129 2:10.668762432437495 
-1.0 1:6.1745467382721575 2:1.9497537461170715 
-1.0 1:-0.8031769823675949 2:5.555989063240567 
1.0 1:3.6684413669199483 2:14.476318965606719 
1.0 1:12.873544833359269 2:-3.0303684789984398 
1.0 1:6.3541680269169465 2:-3.7462043070637696 
-1.0 1:14.818583996595901 2:7.313844053968149 
1.0 1:-0.32333721099738977 2:1.5570731884898281 
1.0 1:6.513190802162335 2:13.012823826320979 
-1.0 1:6.985353389003146 2:1.8084390060353295 
-1.0 1:3.621510808110571 2:6.457436292548808 
1.0 1:11.043261770179644 2:11.09072775664061 
-1.0 1:2.282411395401949 2:7.478837527146524 
-1.0 1:4.98208210011887 2:5.177029821128249 
-1.0 1:7.032646713700235 2:2.333104365407019 
1.0 1:0.08665205822102173 2:10.898858039688397 
-1.0 1:10.723298899589931 2:4.762906078301633 
-1.0 1:8.905525996663679 2:-0.4307942970064431 
1.0 1:0.7172116921560541 2:-4.090703579036175 
1.0 1:3.922628494980465 2:10.696454378658796 
-1.0 1:10.205918977187192 2:7.678722788252028 
-1.0 1:4.388264433872724 2:0.36962937004863416 
-1.0 1:-1.339648045756785 2:7.6273893541249365 
1.0 1:6.896025018741522 2:12.465020244622856 
-1.0 1:11.230389010810871 2:2.507136509236682 
1.0 1:8.90542166663288 2:10.218728887744561 
1.0 1:13.334086938359686 2:2.3240394455721685 
1.0 1:-1.3516380072348388 2:0.7292308474758169 
-1.0 1:3.7282294465368775 2:-2.9070588452726764 
1.0 1:-0.2791483876545158 2:-4.401438821783206 
-1.0 1:-2.972409388548758 2:14.428193913400897 
-1.0 1:4.149602939163222 2:-2.8097134861080497 
-1.0 1:14.941107265473153 2:7.692886303837909 
-1.0 1:3.8364986058748247 2:1.8769294772007061 
-1.0 1:14.418927880738746 2:11.635883968455254 
-1.0 1:-2.9778514196682537 2:9.169074068358931 
1.0 1:10.455092277400944 2:-4.721965263304877 
-1.0 1:3.7730562746163763 2:-1.2371229009232976 
-1.0 1:1.4663681884123108 2:0.2659239135206093 
-1.0 1:12.485191992358757 2:6.31227515569822 
1.0 1:-4.031436305912422 2:-3.0064107569918774 
-1.0 1:-1.9899493894734688 2:13.126683819717243 
-1.0 1:10.697408270719212 2:0.49964924568883085 
-1.0 1:1.2475590473502374 2:5.0145310136845715 
-1.0 1:2.3718773942669102 2:3.4793161869763427 
1.0 1:-0.08653107988702669 2:11.137487685035275 
-1.0 1:7.973620044124118 2:4.707807126184932 
-1.0 1:10.677161674379182 2:5.009802783182769 
1.0 1:1.7169279106237845 2:-2.246310786145178 
-1.0 1:3.979068030796423 2:-3.3283383158497215 
1.0 1:10.809459623282 2:-2.9322664819248345 
1.0 1:4.5751873709434 2:7.5850444640069234 
1.0 1:6.6547317930443874 2:-3.6351213558350404 
1.0 1:13.219476431097164 2:-2.0549371203349454 
-1.0 1:3.3231497082119894 2:-2.326062640309079 
-1.0 1:-2.1168509326300966 2:9.869313149794054 
1.0 1:10.919146559924513 2:-1.4882881219789157 
-1.0 1:6.523222679975786 2:-0.6777116486474206 
-1.0 1:7.897772984540303 2:-0.6547833135430885 
1.0 1:7.650920415179208 2:14.651448402246906 
1.0 1:13.434863961738078 2:13.837729312479453 
-1.0 1:9.8138129584202 2:0.2560550987112453 
-1.0 1:-1.3693083945788942 2:10.331436456689547 
-1.0 1:6.5938867113235595 2:0.17943452019000716 
-1.0 1:13.627790129530272 2:4.601460349322053 
-1.0 1:-0.16302077923930902 2:8.30983185118855 
-1.0 1:6.649423693480909 2:1.123085990508268 
-1.0 1:10.567326843557618 2:-0.6054151346370729 
-1.0 1:10.515948501317025 2:2.926047125425633 
1.0 1:14.40423169665275 2:-1.783150382713754 
1.0 1:12.372099829010793 2:-1.4332531794930037 
1.0 1:-3.713840699923816 2:3.0536588711509154 
1.0 1:3.1590209302757604 2:8.83133622179157 
1.0 1:7.920829303594015 2:13.92861281187097 
1.0 1:4.79062375722952 2:-4.510408603474136 
-1.0 1:10.618174930246532 2:6.1920477669329905 
1.0 1:-4.955339963511469 2:-0.24843178143876443 
1.0 1:-3.97369693798044 2:-4.393961462038572 
-1.0 1:12.854662814039244 2:9.036044188228434 
1.0 1:-2.221120186184833 2:2.3811481379095394 
-1.0 1:9.989690143273487 2:7.241787289243399 
1.0 1:-1.824348413728507 2:-1.4936551807651277 
-1.0 1:-0.9654036735896181 2:5.919721008464656 
1.0 1:-4.243925051269926 2:-4.766949438595585 
1.0 1:12.134329412830862 2:1.576094293978989 
1.0 1:11.989336143894928 2:-4.281180021116128 
-1.0 1:10.141539291178711 2:-2.206220259747551 
1.0 1:-1.7077037360301306 2:1.605665866770682 
1.0 1:7.607554247529798 2:9.94087614489424 
1.0 1:-1.7998013221069953 2:1.7025920239151997 
1.0 1:5.482577486006683 2:14.942803803787797 
-1.0 1:3.7532439026951323 2:5.9614193891387846 
-1.0 1:10.441727097668032 2:-1.0738753784337063 
1.0 1:0.025428943288543948 2:-1.420476475000676 
1.0 1:7.429324908792719 2:11.49934305265441 
-1.0 1:-2.789681231316319 2:10.332631442799617 
1.0 1:0.31462319615712886 2:-2.982020355173518 
1.0 1:5.7917066858223905 2:12.135360834740268 
-1.0 1:4.477943424570743 2:0.38823835302597587 
-1.0 1:-2.934601291367862 2:9.346712447310253 
-1.0 1:4.696969165326655 2:-2.204382511505667 
1.0 1:8.641639798729601 2:9.482258515114362 
-1.0 1:1.8787374533347245 2:1.2018537899740656 
-1.0 1:2.545974558459725 2:4.764300617869644 
1.0 1:2.9836279732186473 2:9.535608357443069 
1.0 1:2.1496298988532185 2:-4.664192630087123 
-1.0 1:-0.08654193559920742 2:9.20934379775592 
-1.0 1:3.398772316720539 2:-1.016539330726005 
1.0 1:-4.81345010991163 2:1.9268720072283196 
1.0 1:-4.3247153810909715 2:8.859688294041526 
-1.0 1:4.898433036032024 2:-1.2969239710486158 
-1.0 1:-1.890012813310078 2:11.963073084126876 
-1.0 1:2.7676160248672073 2:5.5993527044369635 
-1.0 1:-1.7174968602221585 2:8.031077802314378 
-1.0 1:2.9916532226249393 2:-1.114660505502607 
1.0 1:11.98025440912663 2:11.018538802113131 
-1.0 1:14.189499903756609 2:5.169538477697495 
1.0 1:5.0523612631844586 2:13.479931174885571 
-1.0 1:11.881942368007238 2:5.49845893850086 
-1.0 1:11.382480392102245 2:7.942921281419347 
1.0 1:12.76267024344185 2:11.505954750193972 
1.0 1:4.617923591721169 2:8.75526833689824 
1.0 1:10.438326551042714 2:-3.5985551691332063 
1.0 1:-4.469339897019156 2:2.9066563025396768 
-1.0 1:9.366666192547353 2:3.9177500020559357 
1.0 1:11.749096748611116 2:-1.0284162098659566 
-1.0 1:11.397736511568912 2:4.296300090634054 
1.0 1:12.08780706016097 2:-0.41105315381024177 
-1.0 1:7.6237558258585985 2:-2.0304954034523726 
1.0 1:13.815665062249309 2:14.788512121742126 
-1.0 1:7.169167536525418 2:4.807109197765351 
-1.0 1:7.941119058442293 2:0.9939768428346092 
1.0 1:14.103122426965786 2:-0.3746158562807551 
1.0 1:4.956619220649577 2:13.676869364749546 
-1.0 1:3.832413614009358 2:3.115037809829605 
-0.731153107847355 1:11.472503730454832 2:0.4050606785183941 
1.0 1:11.133686810656894 2:11.42576272399063 
1.0 1:6.783911125196475 2:-4.57580705625314 
-1.0 1:3.409511710986912 2:7.352363027893611 
1.0 1:7.652593485512444 2:6.929860615374228 
1.0 1:14.80369874682118 2:1.3994440508527095 
1.0 1:-0.5512424812288756 2:13.832914934577339 
-0.09354686828539122 1:-0.5129872666141573 2:1.9586646632353721 
-1.0 1:12.286369010945265 2:10.08978975655998 
1.0 1:5.725223171549345 2:10.414602467889999 
1.0 1:11.898616229918414 2:11.564280195552602 
1.0 1:-3.732788104946081 2:-0.7977036919085112 
-1.0 1:-3.2614798677852863 2:12.906733161033046 
-1.0 1:5.141640091088313 2:-1.3284309719111298 
1.0 1:5.152962227484458 2:10.081148122336579 
1.0 1:6.126453117157366 2:12.070268201178706 
-1.0 1:-0.5333312697045738 2:7.9402063770378 
1.0 1:13.956290271836124 2:-2.9594132141909535 
1.0 1:7.425989264542764 2:11.642791223148407 
-1.0 1:5.758643313748006 2:-3.270339755832816 
1.0 1:5.690576403151619 2:-4.2719218117341455 
-1.0 1:-2.7396124408141764 2:13.947666956882362 
1.0 1:4.924355216329639 2:-4.695176843049937 
1.0 1:-4.017903897543573 2:-2.236304777305378 
1.0 1:1.5254641029896598 2:10.083984739178224 
1.0 1:1.9383229148581949 2:13.511660093438262 
-1.0 1:-2.8518925291682518 2:13.87737852097765 
-1.0 1:-4.712172465993567 2:14.385595207458785 
1.0 1:13.907570459427863 2:-0.29544397800331357 
-1.0 1:-0.07151317301504712 2:5.635674972001301 
-1.0 1:10.522901559363147 2:3.7946691326667015 
1.0 1:2.2074351514253827 2:10.833343291362125 
1.0 1:12.640066334510504 2:0.5395823388882786 
-1.0 1:14.717735033570683 2:13.755970815354331 
-1.0 1:9.191648640716659 2:4.849042519597507 
1.0 1:-4.112539186631013 2:-1.62175395681307 
-1.0 1:13.64761959423523 2:10.951440794562986 
1.0 1:6.793706963377865 2:11.74266602140634 
-1.0 1:14.786909402257486 2:7.542073988019071 
1.0 1:5.4466154313990405 2:6.104542745909152 
1.0 1:13.610515168247932 2:0.11681943520090332 
-1.0 1:8.059752174328539 2:4.409966538625284 
1.0 1:-0.9395983232554066 2:12.550926451353863 
-1.0 1:3.1224954342576154 2:5.075015652279999 
1.0 1:12.713760596604466 2:-1.0972661886776902 
-1.0 1:14.050441449916114 2:9.06394232885084 
-0.3166072088740511 1:5.897839692861254 2:-1.812746288191569 
-1.0 1:4.536784259279884 2:5.071930045746884 
1.0 1:5.489945199122923 2:-4.87427287209214 
-1.0 1:9.867005572258055 2:6.91948031247102 
1.0 1:3.705952078423362 2:10.284847605946155 
-1.0 1:11.697480050842032 2:2.2850129253019595 
-1.0 1:4.23146062936787 2:3.351377108527714 
-1.0 1:-1.338112944098504 2:12.546800205734343 
1.0 1:14.72549644487978 2:-0.7550808016647004 
-1.0 1:10.657607997862419 2:-0.22511831565322815 
1.0 1:14.027446357274524 2:-1.6463659363424976 
-1.0 1:10.777553828847072 2:8.808146873449875 
-1.0 1:1.3237008694851422 2:9.384719268194425 
-1.0 1:5.5911674549784625 2:-0.12871390813808503 
-1.0 1:14.081253049548927 2:6.15350746389047 
1.0 1:1.8416108939940852 2:10.330865183111975 
0.2640156199295517 1:1.7312825697527963 2:-1.9079326921001272 
-1.0 1:5.614438247860223 2:2.9592908913823646 
-1.0 1:2.886547596379394 2:-1.6597802159946617 
-1.0 1:-1.3536651442441316 2:12.46997294128596 
-1.0 1:-4.697831698965875 2:12.988916032206404 
1.0 1:5.68077689611539 2:12.106523725576121 
-1.0 1:9.840186289709422 2:0.37795867730733956 
-1.0 1:-3.359238662505186 2:7.713360680618758 
-1.0 1:2.3740518114123415 2:0.3070695308411464 
1.0 1:7.8770219388402865 2:7.984610486520429 
1.0 1:0.8699812427117459 2:9.60134877939942 
1.0 1:-2.1365598092521454 2:-3.5172528596557107 
-1.0 1:8.80790081481649 2:2.6791914510534864 
1.0 1:14.449634476911541 2:3.53792622674022 
-1.0 1:10.655481936353786 2:3.6027698794642866 
-1.0 1:3.1439940353215228 2:4.283506542660492 
1.0 1:10.284545687299872 2:9.548212849119167 
1.0 1:8.888704590967208 2:12.85278537023084 
-1.0 1:-0.9800975038761344 2:4.714643801295562 
1.0 1:-2.5984006474358767 2:2.156502021277449 
-1.0 1:-3.5635264767404906 2:8.398281312787692 
1.0 1:6.397938871324332 2:13.680196825332278 
-1.0 1:14.07131464765741 2:11.289820457449053 
1.0 1:11.868516283162613 2:12.385043837710967 
-1.0 1:-0.10704575688873774 2:10.010363228845431 
-0.9941167965466083 1:0.07876165593263806 2:8.065307589665323 
1.0 1:9.671233825088708 2:11.483180799392404 
-1.0 1:12.066792163224541 2:6.410100632144902 
-1.0 1:0.3166168757675454 2:5.945631112028755 
-1.0 1:14.156653706273264 2:10.536660896031746 
-1.0 1:9.808722106157697 2:0.23758817010544497 
1.0 1:5.366263012841744 2:6.906885473680504 
1.0 1:-1.4903902890219967 2:1.4597584492840676 
1.0 1:0.5778500394545549 2:-1.6916037852207855 
-1.0 1:-2.5418649991374065 2:5.177309507299787 
1.0 1:6.95198173618641 2:10.975947788016644 
1.0 1:0.6674655741239928 2:12.05124816415617 
-1.0 1:0.3045246697273063 2:2.948508667871124 
1.0 1:10.498635320652932 2:12.112032092257113 
-1.0 1:8.029191733906565 2:-3.598111691980772 
1.0 1:-2.1412049593204774 2:-3.1530803115007267 
1.0 1:-4.363411104945283 2:7.966304259870437 
-1.0 1:12.273598025709973 2:5.854601315768235 
1.0 1:-4.9060233759774174 2:-2.0671720237878732 
-1.0 1:10.80893674054492 2:7.027679107164275 
-1.0 1:4.888220898181432 2:1.7721629676480504 
-1.0 1:9.368036578878094 2:7.055603517044657 
-1.0 1:14.097707603312358 2:5.533754054123918 
1.0 1:-4.934314367685031 2:12.497695127682533 
1.0 1:-4.252736718385075 2:0.4627483291989236 
-1.0 1:14.18216621013218 2:10.757920112142742 
1.0 1:-1.6665845799035162 2:1.5668670659538257 
1.0 1:6.625229142745784 2:-4.999887059808065 
1.0 1:-1.3543995054892854 2:-0.11522636377440332 
1.0 1:14.879241623690433 2:-2.6256224851929244 
-1.0 1:3.872210427561974 2:-1.1479453372881987 
1.0 1:13.096411306424159 2:0.8824217160796604 
-1.0 1:6.468652919886338 2:1.4304647119768017 
1.0 1:0.2857799322975989 2:11.791617427145404 
-1.0 1:1.3778772415011193 2:6.560618567493501 
1.0 1:0.4814513736365855 2:11.714608257622395 
1.0 1:11.932103305445803 2:1.017833700337527 
1.0 1:12.322307393869373 2:11.303313344146208 
1.0 1:-1.8722323793844597 2:-4.1046215471290655 
1.0 1:10.651244919057028 2:-4.036782833541743 
1.0 1:-1.0460132069901418 2:-4.291109414375169 
1.0 1:3.542744758336461 2:8.075855614277167 
-1.0 1:9.068117050180792 2:2.5102763778621418 
1.0 1:9.593369299890782 2:9.924445721834513 
-1.0 1:9.350266935356295 2:7.41892460146752 
1.0 1:2.3605627963333102 2:-3.1503629903483676 
-1.0 1:11.51091657871028 2:1.1193948795465953 
-1.0 1:11.182021951919879 2:8.169968688167351 
0.26651016789568616 1:13.539828032976413 2:3.579052654339442 
1.0 1:-3.1525743367761017 2:4.771010883999692 
1.0 1:8.85028514735166 2:12.354605625593795 
1.0 1:0.08236912558580389 2:-3.658416521743404 
1.0 1:6.529267725179764 2:-4.285649116330738 
-1.0 1:-0.5344372926349301 2:4.172319189326712 
1.0 1:3.3360506339106504 2:9.651002840525209 
-1.0 1:9.891247866735872 2:-1.627922007036846 
-1.0 1:9.217476936973053 2:-0.17154679556454777 
1.0 1:4.434116091454559 2:11.630432446578126 
1.0 1:-1.9089614624785645 2:2.244370991118081 
1.0 1:13.926193072071705 2:-4.63670407029416 
-1.0 1:9.68739362202628 2:-2.708132141083879 
1.0 1:-4.952921134905766 2:3.9503022145219884 
1.0 1:-4.080268161055947 2:7.860490212861496 
-1.0 1:3.2172149830373478 2:-0.9579097632393241 
1.0 1:13.548165014881214 2:13.698826934532683 
-1.0 1:2.6971324810327673 2:7.810175558995313 
1.0 1:13.83312962414471 2:1.4680542686668785 
-1.0 1:13.033920002586264 2:6.531614408185993 
-1.0 1:9.422532879221137 2:2.7477686908369403 
1.0 1:8.359425777297895 2:14.045213851709605 
1.0 1:8.893189819882949 2:10.712496116057668 
-1.0 1:14.032989718196337 2:8.385550661949742 
0.612700354890534 1:0.16786016962122297 2:10.279287744087098 
-1.0 1:3.7347868734694742 2:4.295613665317683 
1.0 1:-4.5450271764518995 2:6.23384986982858 
1.0 1:9.354145884355315 2:9.338402987312001 
1.0 1:2.408927400169034 2:9.174686851039196 
-1.0 1:-4.119523748952616 2:11.972352870664512 
1.0 1:-1.115382810892005 2:0.07176550469529097 
-1.0 1:3.9927318744538702 2:6.224981631905402 
-1.0 1:1.9606199352930176 2:0.8182414583213156 
-1.0 1:4.15661886667343 2:4.4936937593239925 
-1.0 1:-4.1687285470186435 2:10.360812982540375 
-1.0 1:-2.2229772909106815 2:12.522201799160001 
1.0 1:-2.2813695271250833 2:3.8263174645395797 
-1.0 1:3.3164323598463437 2:-1.2544430903870252 
1.0 1:-3.8688955299882166 2:-4.480811278490724 
-0.9632248701181387 1:-1.7215979316672891 2:3.9663167190160493 
1.0 1:11.596311495040705 2:-4.2535449993890095 
-1.0 1:11.568380710227174 2:6.718901046451464 
1.0 1:6.421519684459183 2:6.133960644527296 
1.0 1:14.982524206415185 2:4.698724104836906 
-1.0 1:7.085785416417005 2:-1.5704498181897142 
1.0 1:7.438374429487734 2:13.277228126689916 
1.0 1:0.5437039018252632 2:7.745966363619106 
1.0 1:1.049586212376017 2:-1.6065468045447773 
-1.0 1:4.02145659297917 2:2.7782558326645113 
1.0 1:4.260147983903789 2:13.007341896726913 
1.0 1:6.811626598697414 2:12.737499694520466 
-1.0 1:13.991838518906288 2:13.819472736369242 
1.0 1:2.124033964359273 2:13.57472911486894 
1.0 1:-3.878067596598056 2:-1.8935180147413844 
-1.0 1:7.225620783462341 2:4.525899908952109 
1.0 1:11.596453589500953 2:-0.7090655994087243 
-1.0 1:10.90320089314793 2:0.09085018860190086 
-1.0 1:14.09755511436633 2:14.258959840832453 
-1.0 1:8.708669640712523 2:2.266179664103472 
-1.0 1:4.421885305513225 2:5.458482913456892 
-1.0 1:8.497049169696949 2:3.1840355160754346 
1.0 1:-3.40991489907434 2:6.455422898383121 
1.0 1:11.443523266674298 2:-0.7341932382457195 
-1.0 1:11.195834363864037 2:0.8947546834658642 
-1.0 1:-2.9735914694497723 2:14.58177187485023 
-1.0 1:2.616155581038406 2:1.7078695591330195 
1.0 1:4.388769281445766 2:13.314770461175346 
1.0 1:8.442955932290857 2:9.92719098805697 
1.0 1:7.04219149023054 2:9.057997520972435 
-1.0 1:1.8590821530850459 2:0.6135421130933842 
1.0 1:3.0519838605475442 2:12.134058972130578 
-1.0 1:10.67042323376082 2:7.171290645631592 
1.0 1:8.643882003289056 2:-4.795548049899181 
1.0 1:0.3189069601573902 2:14.720820635582953 
-1.0 1:9.598089504771966 2:2.1456640999720644 
-1.0 1:2.4394813697815687 2:8.217427179646862 
1.0 1:11.847291779658676 2:-4.499877068143981 
1.0 1:5.387491447113895 2:11.650243943919186 
1.0 1:0.37104057740407814 2:13.76725024897468 
-1.0 1:8.651109673594686 2:0.9243564491746277 
1.0 1:3.7797072567884484 2:11.381915096781047 
1.0 1:-0.8232181499083202 2:14.923783476919542 
-1.0 1:10.906964864951005 2:1.43460301084394 
-1.0 1:14.373922581648358 2:6.7725354304102545 
-1.0 1:-4.7194419448540925 2:14.0196596614364 
-1.0 1:13.928374016857681 2:10.455492756100682 
1.0 1:13.516886809813023 2:1.5549851568121031 
-1.0 1:10.542430443578073 2:6.7303842330035515 
-1.0 1:14.48572291701877 2:6.49860134293629 
-1.0 1:8.332502740770941 2:-3.34333887756622 
1.0 1:6.853787427871254 2:11.086612780753992 
-1.0 1:9.973608276539675 2:8.112476535019779 
-1.0 1:8.584579077494563 2:0.10859008620707833 
-1.0 1:7.185684127260375 2:-1.497206672222673 
1.0 1:-1.8088498213810689 2:-2.2982687234677956 
1.0 1:11.051115609876952 2:-3.5296870144896464 
-1.0 1:3.0074024663571493 2:3.7561267953066864 
-1.0 1:-2.4777992668927284 2:9.677574698209185 
1.0 1:-4.098226364527784 2:8.131882123235632 
-1.0 1:-2.242372501891323 2:8.120075925105457 
-1.0 1:4.067169486374485 2:-0.4249283816377325 
-1.0 1:12.890501121720767 2:4.673170625875846 
1.0 1:0.2579660330789473 2:-3.9218921987195943 
1.0 1:-1.834861762522162 2:3.392284777873467 
1.0 1:-3.38859020587847 2:2.666585854406758 
1.0 1:-1.3790352698570318 2:0.8551412202087594 
1.0 1:-4.57096648456816 2:7.614182390659234 
1.0 1:-4.4473510542321915 2:6.166724658341465 
-1.0 1:-3.84303235380151 2:8.731732807762452 
1.0 1:0.6513775570732712 2:11.2047438362641 
1.0 1:13.292333550182857 2:-2.3538649038526316 
1.0 1:13.032957022809498 2:14.26538021281846 
-1.0 1:6.056160000515829 2:1.8792622955600935 
1.0 1:13.284216943058706 2:-2.5238514199958417 
-1.0 1:-2.5884334647261498 2:12.056587056187059 
-1.0 1:8.209963043103228 2:1.1747137746632053 
-1.0 1:7.3692297481535824 2:4.7197788301490995 
-1.0 1:0.13851128916373856 2:6.909560220651787 
1.0 1:3.5104252299730057 2:9.987026366765534 
-1.0 1:-4.555380872886154 2:14.800414348059945 
1.0 1:0.2712284972869501 2:7.699409653281641 
-1.0 1:8.374407887639357 2:0.7033773832708645 
-1.0 1:-2.2302642759960523 2:5.7111487102929885 
-1.0 1:-1.6923520213018106 2:3.957742221231914 
1.0 1:0.8214422455270842 2:-0.37390188782089595 
-1.0 1:1.268571979827282 2:7.448503577954298 
1.0 1:-0.7237944464565622 2:14.552389265853627 
-1.0 1:-0.2028512623919898 2:8.300597362783645 
-1.0 1:1.9234942131574595 2:6.341650624304258 
1.0 1:-0.7814621531446537 2:-0.2720508655888221 
-1.0 1:-2.0490904514692843 2:12.298765393220933 
1.0 1:2.8992279242357677 2:12.392426418323861 
-1.0 1:12.304246071230136 2:9.49266137984312 
-1.0 1:4.254141455859237 2:-2.9151663190486143 
-1.0 1:4.2856375137263125 2:2.5681606843932787 
-1.0 1:-0.9302341859064267 2:9.622108829023874 
-1.0 1:12.339621853224347 2:2.353436621220526 
-1.0 1:8.134159490600117 2:3.5619274916012085 
1.0 1:12.215227920464038 2:11.577174494401085 
1.0 1:7.215455476111375 2:6.667932269903243 
-1.0 1:10.555483681847132 2:4.654047566036612 
1.0 1:9.106275199505003 2:13.015850132033403 
1.0 1:1.4540118605455739 2:14.766659349502973 
-1.0 1:10.752231815790442 2:4.212792118044735 
-1.0 1:9.631675106016564 2:3.3666351538527124 
-1.0 1:7.408503489591638 2:0.4090478897330918 
-1.0 1:10.62449456846528 2:4.737072579696287 
1.0 1:5.319218469566698 2:14.613735430331637 
-1.0 1:-4.26262824056826 2:11.403091659900365 
1.0 1:14.590191377968015 2:2.2826855554182686 
-1.0 1:-2.4936010875737846 2:14.946768000926546 
1.0 1:14.726318385081814 2:2.228975945270742 
-1.0 1:10.02584902629401 2:1.1772431011999673 
-1.0 1:-3.269271237434388 2:14.613566739567393 
-1.0 1:7.734192944928552 2:-1.3736452610208083 
1.0 1:-2.286428983666553 2:-2.8944950901691957 
1.0 1:6.116800316107518 2:14.984660309383408 
1.0 1:-3.3659154192847063 2:1.2582169499682738 
-1.0 1:-1.7287694672486054 2:7.362239334683471 
1.0 1:13.100402415437333 2:-2.2695779893143397 
-1.0 1:2.3943324714356446 2:-0.8467790434204847 
1.0 1:5.077300187981066 2:11.187242869082674 
-0.9375843524645201 1:6.988628498213679 2:-1.1975126878798537 
1.0 1:-4.097106912876365 2:3.549111955849808 
1.0 1:2.948754178159671 2:13.917549663598578 
1.0 1:-3.808935884431084 2:7.7131084646401895 
1.0 1:4.677002287989367 2:7.938124074753128 
-1.0 1:1.9971870564795609 2:2.953393519293086 
1.0 1:5.99029358787096 2:-4.029541970260118 
-1.0 1:10.819193585140642 2:1.4129974530968585 
-0.7061322161152251 1:3.9071707413509955 2:7.442762273185483 
1.0 1:3.5628608729314166 2:-4.355487243460116 
1.0 1:6.554217310618233 2:-4.540024983255744 
1.0 1:-0.5478975070872094 2:-0.6846691414521411 
1.0 1:5.294544036833855 2:7.661854565416782 
1.0 1:1.3859881985431937 2:-4.323143762017656 
1.0 1:3.669993567622374 2:-4.964660102282834 
1.0 1:6.445761729267936 2:13.904092496236089 
1.0 1:6.729405199722159 2:12.017257394309137 
-1.0 1:12.65306447149014 2:3.510404660244152 
-1.0 1:10.124798567010938 2:1.575673160511311 
1.0 1:14.527768291922001 2:-0.27669771004441834 
1.0 1:0.3194852023770034 2:13.576789204969895 
1.0 1:4.613997796926821 2:14.084544556231158 
1.0 1:-2.382297936529476 2:2.507327380294071 
-1.0 1:-2.6187969706837366 2:14.557404207204176 
1.0 1:-4.223857435941055 2:-4.045623591785632 
-1.0 1:1.7704228538659494 2:5.068460755593108 
1.0 1:14.633542225471988 2:-3.798285413391864 
1.0 1:9.144162070949752 2:-4.319175107666274 
1.0 1:5.495256862385407 2:13.883649007378128 
-1.0 1:14.511587163821364 2:11.490214440297844 
1.0 1:12.935557204423244 2:14.844433984878648 
-1.0 1:10.639024145004598 2:0.8548547895025287 
-0.3649731428593572 1:1.2311341681297954 2:9.183385349354985 
1.0 1:7.019030334013571 2:11.71469485872236 
-1.0 1:-1.1848988162986274 2:4.922809256146765 
1.0 1:8.659578183725358 2:8.524957017212063 
-1.0 1:-0.058440821243125995 2:7.817923573727263 
-1.0 1:3.268191888722672 2:1.7235814387458497 
1.0 1:9.176562285852834 2:13.534958857602025 
-0.7523549432677434 1:9.64413807570506 2:-3.32834775393966 
1.0 1:14.955065793509206 2:-0.3495775815562414 
-1.0 1:-2.464389182384159 2:13.72352609924718 
-1.0 1:14.062769710597092 2:4.768084692482411 
-1.0 1:5.027891641387406 2:0.3288368523555878 
-0.6965745971576806 1:0.17602789815628128 2:7.523973738413769 
-1.0 1:0.008906108901369336 2:7.037190780140175 
-1.0 1:-1.099284307310635 2:4.797501865160903 
-0.24378965944544528 1:6.6889652809010425 2:2.172911019855248 
1.0 1:-3.626622836646638 2:6.523087520419121 
1.0 1:12.188403743574664 2:0.2831037709474753 
1.0 1:-2.1199787975641593 2:-3.1788303010738184 
-1.0 1:-1.4161735817600363 2:12.245043322260265 
1.0 1:6.273214764356199 2:8.35326196028661 
1.0 1:-1.9606114576448208 2:-0.7146236218551794 
-1.0 1:14.075489606954612 2:6.540906850532714 
-1.0 1:10.190721013864412 2:3.294155362917648 
1.0 1:5.652689509051898 2:5.288280872450809 
-1.0 1:-3.3643591237449533 2:8.316723759868886 
-1.0 1:6.839578582906036 2:2.9752043596421878 
1.0 1:-3.946305181489791 2:-2.1123983233182675 
1.0 1:13.4929264106894 2:0.18112631611840335 
1.0 1:12.377022084427296 2:14.12983115365192 
-1.0 1:4.998074077587466 2:-1.5673115805429538 
-1.0 1:10.798302462824834 2:2.6877756729170184 
-1.0 1:3.930760525646333 2:2.7245007568845576 
-1.0 1:9.389839047643282 2:1.3309006330833544 
1.0 1:-1.1232218678134287 2:-0.35520301291874556 
1.0 1:-2.278897408045324 2:-0.53941652443031 
-1.0 1:3.83779396364446 2:-2.355339385372144 
-1.0 1:8.10034973161611 2:0.7715491514349644 
-1.0 1:4.7024706261394265 2:-3.678444460938477 
-1.0 1:9.929205029478556 2:1.9640423740332995 
1.0 1:0.9377884232539397 2:-2.4550869386290874 
1.0 1:13.147380994810174 2:-3.327609867974839 
-1.0 1:8.956260197466753 2:2.833572675219447 
-1.0 1:12.857989938053134 2:5.6701324296551565 
1.0 1:12.540508395801176 2:-1.3981078098899458 
-1.0 1:3.9621809005296367 2:1.9314350850372026 
1.0 1:5.25745278148943 2:13.723381116762457 
-1.0 1:1.995123488990025 2:2.273025386887431 
-1.0 1:9.9701463485548 2:2.3177450552380403 
-1.0 1:4.343631423862986 2:-3.929569950683245 
-0.9411037752467358 1:1.3560641986675082 2:-1.2507511749024691 
1.0 1:14.639004164233377 2:-4.063186079500154 
-1.0 1:-1.2335473701032562 2:11.531351603178635 
-1.0 1:12.356953181007999 2:5.272261699735877 
-1.0 1:-1.1879014715586855 2:8.164587128440068 
1.0 1:-0.2633050001463699 2:13.891700798218366 
-1.0 1:-3.1159866805953196 2:8.962545981497902 
-1.0 1:12.939721233016332 2:3.9360792415373957 
-1.0 1:13.11086107452143 2:3.7409509918672015 
1.0 1:0.9365751480554145 2:10.996551283491009 
-1.0 1:12.153376391839167 2:2.3885384333070547 
-1.0 1:-3.5403082049797674 2:13.204191626094904 
1.0 1:-4.341778112909891 2:-3.6004994787721123 
1.0 1:6.578213376259704 2:9.648480103858507 
-1.0 1:8.381473510835233 2:0.48542685852406464 
1.0 1:11.364828514165449 2:-3.703912874259676 
1.0 1:6.5033933007046745 2:10.688586430892752 
1.0 1:7.230197488596753 2:6.624505855608987 
1.0 1:-1.1367198337865636 2:-3.069250669993404 
1.0 1:-0.27147023000202 2:0.8476086361455515 
-1.0 1:0.6200044055770881 2:6.839547108442076 
0.061131296591864705 1:6.277511338059906 2:-1.7277509231487964 
1.0 1:-2.6553789304234776 2:-3.675540122153138 
1.0 1:14.912337285639726 2:0.5505726737428951 
-1.0 1:6.180116331399981 2:4.046863688410822 
1.0 1:0.7150915390063028 2:-0.27974813632958284 
1.0 1:-3.186967374662626 2:4.5454960547496555 
1.0 1:-1.0760183849992 2:-1.930617127541694 
1.0 1:5.177498362594395 2:13.235713571192228 
1.0 1:1.7152327956557407 2:-4.3676765155084984 
-1.0 1:3.6129887625607164 2:0.582971470011362 
-1.0 1:4.26371749887786 2:5.517276881114132 
-1.0 1:2.6228995914521525 2:2.457953265758828 
1.0 1:14.92668010694463 2:-2.71404396021679 
-1.0 1:4.2582034598853795 2:4.250199431591323 
1.0 1:-2.7848493842662814 2:-4.624738204516479 
1.0 1:-1.9496696372640399 2:1.8199343181751582 
1.0 1:-3.8244761957822915 2:4.038328252828535 
1.0 1:0.7100575245144158 2:10.93142535422609 
-1.0 1:3.5662181724400828 2:1.0325661524821133 
-1.0 1:7.019671829665704 2:3.1042578512625223 
-1.0 1:4.312598414268043 2:5.797100070351039 
-1.0 1:2.691211796399376 2:1.8200638420023392 
1.0 1:1.0583401443313667 2:-1.875122189014824 
1.0 1:7.114085331040361 2:8.685502780622441 
1.0 1:12.264013292006851 2:14.638541140181758 
-1.0 1:-4.691810128528104 2:12.236560438445942 
-1.0 1:9.411368450270638 2:1.9606574638239005 
-1.0 1:10.333129211566659 2:2.260748840886116 
1.0 1:-0.5825508795757806 2:14.074027556576617 
1.0 1:2.2674329483261735 2:13.158328199793726 
1.0 1:-3.9615615357194978 2:7.324841909920995 
1.0 1:5.359938894873913 2:-3.8668040568533013 
-1.0 1:2.343931092747404 2:-1.896539799900554 
1.0 1:11.068801753718766 2:11.898630019772888 
-0.17345080627810455 1:5.268095007588379 2:5.444652492045458 
-1.0 1:11.441859697342984 2:3.102592533303156 
-1.0 1:2.794979913330864 2:3.6211371571544895 
-1.0 1:14.65537432507427 2:8.821838948203826 
-1.0 1:4.510999370000912 2:-1.7386859046608794 
1.0 1:12.51644445126039 2:2.24360810723563 
1.0 1:7.058404407604673 2:13.604097247423606 
-1.0 1:8.347670793233435 2:7.048198342750352 
-1.0 1:7.449340103314416 2:-1.78919812930042 
1.0 1:12.910933259707019 2:-1.974734350086862 
1.0 1:-0.7491377536685384 2:1.7860567779289749 
-0.01595856032369306 1:5.890423270164211 2:-2.898787887702554 
-1.0 1:-0.6729266157936875 2:6.7167531871892905 
1.0 1:0.9433488733509243 2:-2.7754337686824626 
-1.0 1:-3.8746879143276947 2:14.520071551714295 
-1.0 1:3.440024220046409 2:3.450783464013444 
-1.0 1:14.41912030867444 2:9.598656464125842 
1.0 1:11.753323670449184 2:13.087427337737491 
-1.0 1:-4.028514136514138 2:10.533040438412353 
-1.0 1:5.320768587229859 2:4.90523256158837 
