svm_type c_svc
kernel_type rbf
gamma 0.0078125
nr_class 2
total_sv 242
rho -0.0017168770023380262
label 1 -1
nr_sv 121 121
SV
32768.0 1:0.5220235044434773 2:1.0424160804917477 3:4.286426446593602 4:2.734412960964364 5:0.16836656904160752 6:1.850350970214234 7:0.37849241402858724 8:1.6995047537693546 
32768.0 1:0.35254048968777263 2:0.8814854950629791 3:2.460985355846012 4:2.701465211779706 5:0.16836656904160752 6:1.850350970214234 7:0.37849241402858724 8:1.6995047537693546 
32768.0 1:0.35254048968777263 2:0.8814854950629791 3:2.460985355846012 4:2.701465211779706 5:0.5220235044434773 6:1.0424160804917477 7:4.286426446593602 8:2.734412960964364 
32768.0 1:0.04364615823460601 2:4.844426808588026 3:4.5192125660867175 4:0.0399242097089586 5:0.16836656904160752 6:1.850350970214234 7:0.37849241402858724 8:1.6995047537693546 
32768.0 1:0.1030324276258926 2:0.3095269378309523 3:4.926125067563058 4:3.6849964258707066 5:0.16836656904160752 6:1.850350970214234 7:0.37849241402858724 8:1.6995047537693546 
17773.356529151628 1:0.1030324276258926 2:0.3095269378309523 3:4.926125067563058 4:3.6849964258707066 5:0.5220235044434773 6:1.0424160804917477 7:4.286426446593602 8:2.734412960964364 
32768.0 1:0.1030324276258926 2:0.3095269378309523 3:4.926125067563058 4:3.6849964258707066 5:0.35254048968777263 6:0.8814854950629791 7:2.460985355846012 8:2.701465211779706 
32768.0 1:0.1030324276258926 2:0.3095269378309523 3:4.926125067563058 4:3.6849964258707066 5:0.04364615823460601 6:4.844426808588026 7:4.5192125660867175 8:0.0399242097089586 
32768.0 1:0.01270061490209394 2:4.978590477970862 3:4.70469052812614 4:0.0647663979048473 5:0.16836656904160752 6:1.850350970214234 7:0.37849241402858724 8:1.6995047537693546 
20037.33321269819 1:0.01270061490209394 2:4.978590477970862 3:4.70469052812614 4:0.0647663979048473 5:0.35254048968777263 6:0.8814854950629791 7:2.460985355846012 8:2.701465211779706 
32768.0 1:0.01270061490209394 2:4.978590477970862 3:4.70469052812614 4:0.0647663979048473 5:0.04364615823460601 6:4.844426808588026 7:4.5192125660867175 8:0.0399242097089586 
32768.0 1:0.01270061490209394 2:4.978590477970862 3:4.70469052812614 4:0.0647663979048473 5:0.1030324276258926 6:0.3095269378309523 7:4.926125067563058 8:3.6849964258707066 
32768.0 1:0.0033471071491440905 2:2.4619007502995003 3:2.1663729303672894 4:0.006891316916964718 5:0.16836656904160752 6:1.850350970214234 7:0.37849241402858724 8:1.6995047537693546 
21067.24357645001 1:0.0033471071491440905 2:2.4619007502995003 3:2.1663729303672894 4:0.006891316916964718 5:0.5220235044434773 6:1.0424160804917477 7:4.286426446593602 8:2.734412960964364 
32768.0 1:0.0033471071491440905 2:2.4619007502995003 3:2.1663729303672894 4:0.006891316916964718 5:0.35254048968777263 6:0.8814854950629791 7:2.460985355846012 8:2.701465211779706 
13456.627080401751 1:0.0033471071491440905 2:2.4619007502995003 3:2.1663729303672894 4:0.006891316916964718 5:0.04364615823460601 6:4.844426808588026 7:4.5192125660867175 8:0.0399242097089586 
32768.0 1:0.0033471071491440905 2:2.4619007502995003 3:2.1663729303672894 4:0.006891316916964718 5:0.1030324276258926 6:0.3095269378309523 7:4.926125067563058 8:3.6849964258707066 
31668.112843035913 1:0.9709996577730573 2:0.9990448636627175 3:4.008583286146485 4:4.291364937826964 5:0.16836656904160752 6:1.850350970214234 7:0.37849241402858724 8:1.6995047537693546 
14376.027086234899 1:0.9709996577730573 2:0.9990448636627175 3:4.008583286146485 4:4.291364937826964 5:0.35254048968777263 6:0.8814854950629791 7:2.460985355846012 8:2.701465211779706 
9030.546583232941 1:0.9709996577730573 2:0.9990448636627175 3:4.008583286146485 4:4.291364937826964 5:0.04364615823460601 6:4.844426808588026 7:4.5192125660867175 8:0.0399242097089586 
32768.0 1:0.9709996577730573 2:0.9990448636627175 3:4.008583286146485 4:4.291364937826964 5:0.1030324276258926 6:0.3095269378309523 7:4.926125067563058 8:3.6849964258707066 
32768.0 1:0.9709996577730573 2:0.9990448636627175 3:4.008583286146485 4:4.291364937826964 5:0.0033471071491440905 6:2.4619007502995003 7:2.1663729303672894 8:0.006891316916964718 
32768.0 1:4.977904287566831E-4 2:3.8367468211203724 3:0.0014265753764188815 4:4.989427249761805 5:0.16836656904160752 6:1.850350970214234 7:0.37849241402858724 8:1.6995047537693546 
16728.61203689914 1:4.977904287566831E-4 2:3.8367468211203724 3:0.0014265753764188815 4:4.989427249761805 5:0.5220235044434773 6:1.0424160804917477 7:4.286426446593602 8:2.734412960964364 
18882.030784147177 1:4.977904287566831E-4 2:3.8367468211203724 3:0.0014265753764188815 4:4.989427249761805 5:0.35254048968777263 6:0.8814854950629791 7:2.460985355846012 8:2.701465211779706 
14207.397803448466 1:4.977904287566831E-4 2:3.8367468211203724 3:0.0014265753764188815 4:4.989427249761805 5:0.1030324276258926 6:0.3095269378309523 7:4.926125067563058 8:3.6849964258707066 
1728.6870896449975 1:4.977904287566831E-4 2:3.8367468211203724 3:0.0014265753764188815 4:4.989427249761805 5:0.01270061490209394 6:4.978590477970862 7:4.70469052812614 8:0.0647663979048473 
3498.00992502606 1:4.977904287566831E-4 2:3.8367468211203724 3:0.0014265753764188815 4:4.989427249761805 5:0.0033471071491440905 6:2.4619007502995003 7:2.1663729303672894 8:0.006891316916964718 
14934.175882933627 1:6.926432228211414E-5 2:1.9562391904181011 3:4.776776241187866 4:8.922543052221746E-4 5:0.1030324276258926 6:0.3095269378309523 7:4.926125067563058 8:3.6849964258707066 
14264.838871526006 1:6.926432228211414E-5 2:1.9562391904181011 3:4.776776241187866 4:8.922543052221746E-4 5:0.0033471071491440905 6:2.4619007502995003 7:2.1663729303672894 8:0.006891316916964718 
374.5071261661097 1:6.926432228211414E-5 2:1.9562391904181011 3:4.776776241187866 4:8.922543052221746E-4 5:0.9709996577730573 6:0.9990448636627175 7:4.008583286146485 8:4.291364937826964 
4086.07238928002 1:6.926432228211414E-5 2:1.9562391904181011 3:4.776776241187866 4:8.922543052221746E-4 5:4.977904287566831E-4 6:3.8367468211203724 7:0.0014265753764188815 8:4.989427249761805 
10648.783931820342 1:4.873939360803391E-5 2:1.1981472118931588E-4 3:4.992844424337667 4:2.7094553181861776 5:0.1030324276258926 6:0.3095269378309523 7:4.926125067563058 8:3.6849964258707066 
6309.585038263237 1:4.873939360803391E-5 2:1.1981472118931588E-4 3:4.992844424337667 4:2.7094553181861776 5:0.01270061490209394 6:4.978590477970862 7:4.70469052812614 8:0.0647663979048473 
22923.57652959949 1:4.873939360803391E-5 2:1.1981472118931588E-4 3:4.992844424337667 4:2.7094553181861776 5:0.0033471071491440905 6:2.4619007502995003 7:2.1663729303672894 8:0.006891316916964718 
10869.550153899665 1:4.873939360803391E-5 2:1.1981472118931588E-4 3:4.992844424337667 4:2.7094553181861776 5:0.9709996577730573 6:0.9990448636627175 7:4.008583286146485 8:4.291364937826964 
26833.7916324765 1:4.873939360803391E-5 2:1.1981472118931588E-4 3:4.992844424337667 4:2.7094553181861776 5:4.977904287566831E-4 6:3.8367468211203724 7:0.0014265753764188815 8:4.989427249761805 
11288.610388879048 1:4.873939360803391E-5 2:1.1981472118931588E-4 3:4.992844424337667 4:2.7094553181861776 5:6.926432228211414E-5 6:1.9562391904181011 7:4.776776241187866 8:8.922543052221746E-4 
32768.0 1:8.478101902856071E-6 2:1.336893371471993 3:5.585174177663612E-4 4:1.5180777662868474 5:0.16836656904160752 6:1.850350970214234 7:0.37849241402858724 8:1.6995047537693546 
32768.0 1:8.478101902856071E-6 2:1.336893371471993 3:5.585174177663612E-4 4:1.5180777662868474 5:0.35254048968777263 6:0.8814854950629791 7:2.460985355846012 8:2.701465211779706 
32768.0 1:8.478101902856071E-6 2:1.336893371471993 3:5.585174177663612E-4 4:1.5180777662868474 5:0.04364615823460601 6:4.844426808588026 7:4.5192125660867175 8:0.0399242097089586 
17526.078194918227 1:8.478101902856071E-6 2:1.336893371471993 3:5.585174177663612E-4 4:1.5180777662868474 5:0.1030324276258926 6:0.3095269378309523 7:4.926125067563058 8:3.6849964258707066 
19242.765855413647 1:8.478101902856071E-6 2:1.336893371471993 3:5.585174177663612E-4 4:1.5180777662868474 5:0.01270061490209394 6:4.978590477970862 7:4.70469052812614 8:0.0647663979048473 
17079.994249603737 1:8.478101902856071E-6 2:1.336893371471993 3:5.585174177663612E-4 4:1.5180777662868474 5:0.0033471071491440905 6:2.4619007502995003 7:2.1663729303672894 8:0.006891316916964718 
32768.0 1:8.478101902856071E-6 2:1.336893371471993 3:5.585174177663612E-4 4:1.5180777662868474 5:0.9709996577730573 6:0.9990448636627175 7:4.008583286146485 8:4.291364937826964 
32768.0 1:8.478101902856071E-6 2:1.336893371471993 3:5.585174177663612E-4 4:1.5180777662868474 5:4.977904287566831E-4 6:3.8367468211203724 7:0.0014265753764188815 8:4.989427249761805 
21692.26095841303 1:8.478101902856071E-6 2:1.336893371471993 3:5.585174177663612E-4 4:1.5180777662868474 5:4.873939360803391E-5 6:1.1981472118931588E-4 7:4.992844424337667 8:2.7094553181861776 
2023.2567432351223 1:9.103533650518148E-6 2:4.779423805796731 3:4.999092090882955 4:2.7928908017626206 5:0.0033471071491440905 6:2.4619007502995003 7:2.1663729303672894 8:0.006891316916964718 
19791.53807430167 1:9.103533650518148E-6 2:4.779423805796731 3:4.999092090882955 4:2.7928908017626206 5:0.9709996577730573 6:0.9990448636627175 7:4.008583286146485 8:4.291364937826964 
7284.772969699279 1:9.103533650518148E-6 2:4.779423805796731 3:4.999092090882955 4:2.7928908017626206 5:4.977904287566831E-4 6:3.8367468211203724 7:0.0014265753764188815 8:4.989427249761805 
8780.411037891003 1:1.5530229975387118E-6 2:2.5367350798843487 3:2.2043566257822294 4:2.897120461131534 5:0.04364615823460601 6:4.844426808588026 7:4.5192125660867175 8:0.0399242097089586 
11120.273268563365 1:1.5530229975387118E-6 2:2.5367350798843487 3:2.2043566257822294 4:2.897120461131534 5:0.0033471071491440905 6:2.4619007502995003 7:2.1663729303672894 8:0.006891316916964718 
32768.0 1:1.5530229975387118E-6 2:2.5367350798843487 3:2.2043566257822294 4:2.897120461131534 5:0.9709996577730573 6:0.9990448636627175 7:4.008583286146485 8:4.291364937826964 
22165.28629522252 1:1.5530229975387118E-6 2:2.5367350798843487 3:2.2043566257822294 4:2.897120461131534 5:4.977904287566831E-4 6:3.8367468211203724 7:0.0014265753764188815 8:4.989427249761805 
24211.370361170048 1:1.5530229975387118E-6 2:2.5367350798843487 3:2.2043566257822294 4:2.897120461131534 5:6.926432228211414E-5 6:1.9562391904181011 7:4.776776241187866 8:8.922543052221746E-4 
7565.04373119601 1:1.5530229975387118E-6 2:2.5367350798843487 3:2.2043566257822294 4:2.897120461131534 5:4.873939360803391E-5 6:1.1981472118931588E-4 7:4.992844424337667 8:2.7094553181861776 
15124.261603374807 1:1.5530229975387118E-6 2:2.5367350798843487 3:2.2043566257822294 4:2.897120461131534 5:8.478101902856071E-6 6:1.336893371471993 7:5.585174177663612E-4 8:1.5180777662868474 
20879.73672930677 1:1.5530229975387118E-6 2:2.5367350798843487 3:2.2043566257822294 4:2.897120461131534 5:9.103533650518148E-6 6:4.779423805796731 7:4.999092090882955 8:2.7928908017626206 
8594.567499058623 1:0.5706889008533667 2:4.711828297831277 3:3.935109223550844 4:3.216324590232359 5:0.4945433333739363 6:0.7372837505976415 7:0.42856613744494454 8:1.2469603824230187 
5229.093874678113 1:1.1955266716905881 2:1.1070478438009705 3:3.0549382043332067 4:4.97755313262421 5:4.977904287566831E-4 6:3.8367468211203724 7:0.0014265753764188815 8:4.989427249761805 
9237.044011762346 1:1.1955266716905881 2:1.1070478438009705 3:3.0549382043332067 4:4.97755313262421 5:0.4945433333739363 6:0.7372837505976415 7:0.42856613744494454 8:1.2469603824230187 
24389.709480317157 1:1.1955266716905881 2:1.1070478438009705 3:3.0549382043332067 4:4.97755313262421 5:0.5706889008533667 6:4.711828297831277 7:3.935109223550844 8:3.216324590232359 
31291.384883053048 1:1.759069853552866 2:0.37110666784803903 3:3.5193545673510256 4:3.0517239924953565 5:0.4945433333739363 6:0.7372837505976415 7:0.42856613744494454 8:1.2469603824230187 
7682.9361165325945 1:1.759069853552866 2:0.37110666784803903 3:3.5193545673510256 4:3.0517239924953565 5:0.5706889008533667 6:4.711828297831277 7:3.935109223550844 8:3.216324590232359 
8618.339656108355 1:1.759069853552866 2:0.37110666784803903 3:3.5193545673510256 4:3.0517239924953565 5:1.1955266716905881 6:1.1070478438009705 7:3.0549382043332067 8:4.97755313262421 
32768.0 1:1.0319075084285116 2:0.7886516573346947 3:1.4939148308559642 4:1.4926466971824048 5:1.759069853552866 6:0.37110666784803903 7:3.5193545673510256 8:3.0517239924953565 
32768.0 1:1.2269622644465255 2:2.6011234348152024 3:4.252281169468785 4:1.8867309415036193 5:1.3367168904719935 6:2.5277049434071506 7:3.5075284541231335 8:4.100452770486412 
1169.263022556669 1:1.3471856131880662 2:2.6894988873765224 3:4.978247589844895 4:1.4164183155574528 5:0.4945433333739363 6:0.7372837505976415 7:0.42856613744494454 8:1.2469603824230187 
5566.262803839544 1:1.3471856131880662 2:2.6894988873765224 3:4.978247589844895 4:1.4164183155574528 5:0.5706889008533667 6:4.711828297831277 7:3.935109223550844 8:3.216324590232359 
10147.973825145255 1:1.3471856131880662 2:2.6894988873765224 3:4.978247589844895 4:1.4164183155574528 5:1.2269622644465255 6:2.6011234348152024 7:4.252281169468785 8:1.8867309415036193 
5895.95171178056 1:0.7333173197456333 2:3.6951035984492164 3:2.6148701430940617 4:0.9877908013697256 5:6.926432228211414E-5 6:1.9562391904181011 7:4.776776241187866 8:8.922543052221746E-4 
14068.181489022403 1:0.7333173197456333 2:3.6951035984492164 3:2.6148701430940617 4:0.9877908013697256 5:0.4945433333739363 6:0.7372837505976415 7:0.42856613744494454 8:1.2469603824230187 
17837.61250631122 1:0.7333173197456333 2:3.6951035984492164 3:2.6148701430940617 4:0.9877908013697256 5:1.3367168904719935 6:2.5277049434071506 7:3.5075284541231335 8:4.100452770486412 
7110.189890661713 1:0.7333173197456333 2:3.6951035984492164 3:2.6148701430940617 4:0.9877908013697256 5:1.3471856131880662 6:2.6894988873765224 7:4.978247589844895 8:1.4164183155574528 
3044.5231513972585 1:0.5132748288992912 2:4.9976505168722865 3:4.2462053171767766E-4 4:2.960650477480489 5:4.873939360803391E-5 6:1.1981472118931588E-4 7:4.992844424337667 8:2.7094553181861776 
8135.189982123101 1:0.5132748288992912 2:4.9976505168722865 3:4.2462053171767766E-4 4:2.960650477480489 5:0.4945433333739363 6:0.7372837505976415 7:0.42856613744494454 8:1.2469603824230187 
1748.9066009819483 1:0.5132748288992912 2:4.9976505168722865 3:4.2462053171767766E-4 4:2.960650477480489 5:1.1955266716905881 6:1.1070478438009705 7:3.0549382043332067 8:4.97755313262421 
25592.934163070015 1:0.5132748288992912 2:4.9976505168722865 3:4.2462053171767766E-4 4:2.960650477480489 5:1.0319075084285116 6:0.7886516573346947 7:1.4939148308559642 8:1.4926466971824048 
32768.0 1:0.5132748288992912 2:4.9976505168722865 3:4.2462053171767766E-4 4:2.960650477480489 5:1.3367168904719935 6:2.5277049434071506 7:3.5075284541231335 8:4.100452770486412 
18906.925112002376 1:0.5132748288992912 2:4.9976505168722865 3:4.2462053171767766E-4 4:2.960650477480489 5:0.7333173197456333 6:3.6951035984492164 7:2.6148701430940617 8:0.9877908013697256 
17041.77529034212 1:1.7900660022084092 2:2.1337383188072483 3:3.58691893200175 4:4.557703503489366 5:1.3471856131880662 6:2.6894988873765224 7:4.978247589844895 8:1.4164183155574528 
22853.239378827468 1:1.7900660022084092 2:2.1337383188072483 3:3.58691893200175 4:4.557703503489366 5:0.5132748288992912 6:4.9976505168722865 7:4.2462053171767766E-4 8:2.960650477480489 
20089.366156805467 1:1.2346474181636142 2:1.2095601049663862 3:1.5903675302040254 4:0.9630085027231994 5:0.7333173197456333 6:3.6951035984492164 7:2.6148701430940617 8:0.9877908013697256 
32768.0 1:1.2346474181636142 2:1.2095601049663862 3:1.5903675302040254 4:0.9630085027231994 5:0.5132748288992912 6:4.9976505168722865 7:4.2462053171767766E-4 8:2.960650477480489 
32768.0 1:1.2346474181636142 2:1.2095601049663862 3:1.5903675302040254 4:0.9630085027231994 5:1.7900660022084092 6:2.1337383188072483 7:3.58691893200175 8:4.557703503489366 
10449.915449242679 1:0.9986388574272581 2:3.708828861438313 3:2.2251014563621414 4:2.7649821405625334 5:0.7333173197456333 6:3.6951035984492164 7:2.6148701430940617 8:0.9877908013697256 
12479.403363835505 1:0.9986388574272581 2:3.708828861438313 3:2.2251014563621414 4:2.7649821405625334 5:0.5132748288992912 6:4.9976505168722865 7:4.2462053171767766E-4 8:2.960650477480489 
8680.225982205327 1:0.9986388574272581 2:3.708828861438313 3:2.2251014563621414 4:2.7649821405625334 5:1.7900660022084092 6:2.1337383188072483 7:3.58691893200175 8:4.557703503489366 
32768.0 1:0.9986388574272581 2:3.708828861438313 3:2.2251014563621414 4:2.7649821405625334 5:1.2346474181636142 6:1.2095601049663862 7:1.5903675302040254 8:0.9630085027231994 
6728.50810777131 1:1.3776645690140583 2:1.2616832235971964 3:1.0087931890169393 4:2.053596305309121 5:1.3471856131880662 6:2.6894988873765224 7:4.978247589844895 8:1.4164183155574528 
32768.0 1:1.3776645690140583 2:1.2616832235971964 3:1.0087931890169393 4:2.053596305309121 5:0.7333173197456333 6:3.6951035984492164 7:2.6148701430940617 8:0.9877908013697256 
3068.047277673711 1:1.3776645690140583 2:1.2616832235971964 3:1.0087931890169393 4:2.053596305309121 5:0.5132748288992912 6:4.9976505168722865 7:4.2462053171767766E-4 8:2.960650477480489 
32768.0 1:1.3776645690140583 2:1.2616832235971964 3:1.0087931890169393 4:2.053596305309121 5:1.2346474181636142 6:1.2095601049663862 7:1.5903675302040254 8:0.9630085027231994 
32768.0 1:1.3776645690140583 2:1.2616832235971964 3:1.0087931890169393 4:2.053596305309121 5:0.9986388574272581 6:3.708828861438313 7:2.2251014563621414 8:2.7649821405625334 
7415.977555411978 1:1.3978586665118726 2:2.173911805666871 3:2.6700967220899448 4:1.6907770718308308 5:0.5132748288992912 6:4.9976505168722865 7:4.2462053171767766E-4 8:2.960650477480489 
21026.060291330406 1:1.3978586665118726 2:2.173911805666871 3:2.6700967220899448 4:1.6907770718308308 5:1.2346474181636142 6:1.2095601049663862 7:1.5903675302040254 8:0.9630085027231994 
32768.0 1:1.3978586665118726 2:2.173911805666871 3:2.6700967220899448 4:1.6907770718308308 5:0.9986388574272581 6:3.708828861438313 7:2.2251014563621414 8:2.7649821405625334 
32768.0 1:1.3978586665118726 2:2.173911805666871 3:2.6700967220899448 4:1.6907770718308308 5:1.3776645690140583 6:1.2616832235971964 7:1.0087931890169393 8:2.053596305309121 
11240.628038510875 1:2.1082258133311793 2:2.9396352452164196 3:4.884866060119117 4:4.331602355231819 5:0.9986388574272581 6:3.708828861438313 7:2.2251014563621414 8:2.7649821405625334 
20560.09665898851 1:2.1082258133311793 2:2.9396352452164196 3:4.884866060119117 4:4.331602355231819 5:1.3978586665118726 6:2.173911805666871 7:2.6700967220899448 8:1.6907770718308308 
9064.82838213645 1:2.1082258133311793 2:2.9396352452164196 3:4.884866060119117 4:4.331602355231819 5:2.6340018007119674 6:1.1041603796340453 7:3.423917436431203 8:4.46588074218557 
759.1659176851784 1:2.9194725569962188 2:1.3071076363812306 3:4.467963234174629 4:3.944382017328853 5:0.5132748288992912 6:4.9976505168722865 7:4.2462053171767766E-4 8:2.960650477480489 
3350.872824153281 1:2.9194725569962188 2:1.3071076363812306 3:4.467963234174629 4:3.944382017328853 5:2.1082258133311793 6:2.9396352452164196 7:4.884866060119117 8:4.331602355231819 
1231.6802694685243 1:1.647771919002596 2:0.915351195433487 3:0.1326207403477453 4:3.387894830393594 5:2.1082258133311793 6:2.9396352452164196 7:4.884866060119117 8:4.331602355231819 
2630.7728428276614 1:1.647771919002596 2:0.915351195433487 3:0.1326207403477453 4:3.387894830393594 5:2.9194725569962188 6:1.3071076363812306 7:4.467963234174629 8:3.944382017328853 
13742.454673154303 1:1.4311278214812218 2:3.4331756080530567 3:2.363960950209068 4:3.502455372134433 5:2.9194725569962188 6:1.3071076363812306 7:4.467963234174629 8:3.944382017328853 
4732.334058506106 1:1.4311278214812218 2:3.4331756080530567 3:2.363960950209068 4:3.502455372134433 5:1.647771919002596 6:0.915351195433487 7:0.1326207403477453 8:3.387894830393594 
1750.7868318633546 1:1.6227290109416743 2:3.260034343696508 3:3.550227784603827 4:2.5297368322440676 5:1.4311278214812218 6:3.4331756080530567 7:2.363960950209068 8:3.502455372134433 
2092.150254413904 1:2.2929238001074506 2:1.757416280625443 3:1.519632805900385 4:2.2763687342753935 5:4.144760786240286 6:0.16969209650648243 7:4.525445632124345 8:1.0838879515381805 
216.29489399172954 1:4.37749123209305 2:1.4624374389638435 3:2.428836129743736 4:3.7185279296067697 5:1.9851690509240694 6:4.551737689823226 7:3.015840057681054 8:1.5523818608296973 
1387.9194447881 1:4.569246542629047 2:2.7621127101681466 3:4.578354870443054 4:4.390312874083201 5:4.37749123209305 6:1.4624374389638435 7:2.428836129743736 8:3.7185279296067697 
7826.914207236497 1:1.3281840162783343 2:4.365663217102183 3:0.760167533899388 4:1.1488879892958397 5:3.9011569661316567 6:1.205293668038936 7:0.8885445256638597 8:3.693235453353832 
3947.0070385252707 1:4.499374039412146 2:0.42673164590268986 3:0.6596387236259038 4:2.9770320854987444 5:1.3281840162783343 6:4.365663217102183 7:0.760167533899388 8:1.1488879892958397 
1421.3199331418236 1:2.93706386582362 2:4.910609609789859 3:3.2721183731189454 4:2.585631531166585 5:4.480557753146384 6:0.7949816589896908 7:2.162627091677284 8:0.45010169865087823 
174.54990969885088 1:2.6510851571122402 2:3.9948825116427167 3:0.07943353884538429 4:2.9439770021542926 5:4.643068013156668 6:3.9095661278860563 7:4.048629408274919 8:3.4737681883367326 
5111.218297924911 1:3.075418324998634 2:4.9423257433366565 3:0.5862559458153682 4:4.457574307214764 5:2.6510851571122402 6:3.9948825116427167 7:0.07943353884538429 8:2.9439770021542926 
2621.1428158451577 1:0.38560109933838704 2:4.950791805300357 3:0.013016490297393601 4:0.015918444913759915 5:4.480557753146384 6:0.7949816589896908 7:2.162627091677284 8:0.45010169865087823 
1157.242376273596 1:0.38560109933838704 2:4.950791805300357 3:0.013016490297393601 4:0.015918444913759915 5:4.643068013156668 6:3.9095661278860563 7:4.048629408274919 8:3.4737681883367326 
394.33188378880845 1:0.38560109933838704 2:4.950791805300357 3:0.013016490297393601 4:0.015918444913759915 5:4.147386963732009 6:3.8758677180191974 7:1.2265866095605726 8:4.508819819223997 
509.1257651260762 1:0.38560109933838704 2:4.950791805300357 3:0.013016490297393601 4:0.015918444913759915 5:3.400499301496846 6:3.495489999546313 7:1.614997130974996 8:1.5336882226815947 
1591.5908317270917 1:0.38560109933838704 2:4.950791805300357 3:0.013016490297393601 4:0.015918444913759915 5:4.330627735209619 6:4.134113674035905 7:0.4177861389231019 8:2.888022560691481 
-32768.0 1:0.16836656904160752 2:1.850350970214234 3:0.37849241402858724 4:1.6995047537693546 5:0.5220235044434773 6:1.0424160804917477 7:4.286426446593602 8:2.734412960964364 
-32768.0 1:0.16836656904160752 2:1.850350970214234 3:0.37849241402858724 4:1.6995047537693546 5:0.35254048968777263 6:0.8814854950629791 7:2.460985355846012 8:2.701465211779706 
-32768.0 1:0.16836656904160752 2:1.850350970214234 3:0.37849241402858724 4:1.6995047537693546 5:0.04364615823460601 6:4.844426808588026 7:4.5192125660867175 8:0.0399242097089586 
-32768.0 1:0.16836656904160752 2:1.850350970214234 3:0.37849241402858724 4:1.6995047537693546 5:0.1030324276258926 6:0.3095269378309523 7:4.926125067563058 8:3.6849964258707066 
-32768.0 1:0.16836656904160752 2:1.850350970214234 3:0.37849241402858724 4:1.6995047537693546 5:0.01270061490209394 6:4.978590477970862 7:4.70469052812614 8:0.0647663979048473 
-32768.0 1:0.16836656904160752 2:1.850350970214234 3:0.37849241402858724 4:1.6995047537693546 5:0.0033471071491440905 6:2.4619007502995003 7:2.1663729303672894 8:0.006891316916964718 
-31669.01123226119 1:0.16836656904160752 2:1.850350970214234 3:0.37849241402858724 4:1.6995047537693546 5:0.9709996577730573 6:0.9990448636627175 7:4.008583286146485 8:4.291364937826964 
-32768.0 1:0.16836656904160752 2:1.850350970214234 3:0.37849241402858724 4:1.6995047537693546 5:4.977904287566831E-4 6:3.8367468211203724 7:0.0014265753764188815 8:4.989427249761805 
-32768.0 1:0.16836656904160752 2:1.850350970214234 3:0.37849241402858724 4:1.6995047537693546 5:8.478101902856071E-6 6:1.336893371471993 7:5.585174177663612E-4 8:1.5180777662868474 
-32768.0 1:0.5220235044434773 2:1.0424160804917477 3:4.286426446593602 4:2.734412960964364 5:0.35254048968777263 6:0.8814854950629791 7:2.460985355846012 8:2.701465211779706 
-17784.645268663135 1:0.5220235044434773 2:1.0424160804917477 3:4.286426446593602 4:2.734412960964364 5:0.1030324276258926 6:0.3095269378309523 7:4.926125067563058 8:3.6849964258707066 
-21053.33428797928 1:0.5220235044434773 2:1.0424160804917477 3:4.286426446593602 4:2.734412960964364 5:0.0033471071491440905 6:2.4619007502995003 7:2.1663729303672894 8:0.006891316916964718 
-16727.398028175277 1:0.5220235044434773 2:1.0424160804917477 3:4.286426446593602 4:2.734412960964364 5:4.977904287566831E-4 6:3.8367468211203724 7:0.0014265753764188815 8:4.989427249761805 
-32768.0 1:0.35254048968777263 2:0.8814854950629791 3:2.460985355846012 4:2.701465211779706 5:0.1030324276258926 6:0.3095269378309523 7:4.926125067563058 8:3.6849964258707066 
-20035.3365725403 1:0.35254048968777263 2:0.8814854950629791 3:2.460985355846012 4:2.701465211779706 5:0.01270061490209394 6:4.978590477970862 7:4.70469052812614 8:0.0647663979048473 
-32768.0 1:0.35254048968777263 2:0.8814854950629791 3:2.460985355846012 4:2.701465211779706 5:0.0033471071491440905 6:2.4619007502995003 7:2.1663729303672894 8:0.006891316916964718 
-14373.766239172943 1:0.35254048968777263 2:0.8814854950629791 3:2.460985355846012 4:2.701465211779706 5:0.9709996577730573 6:0.9990448636627175 7:4.008583286146485 8:4.291364937826964 
-18883.44738477324 1:0.35254048968777263 2:0.8814854950629791 3:2.460985355846012 4:2.701465211779706 5:4.977904287566831E-4 6:3.8367468211203724 7:0.0014265753764188815 8:4.989427249761805 
-32768.0 1:0.35254048968777263 2:0.8814854950629791 3:2.460985355846012 4:2.701465211779706 5:8.478101902856071E-6 6:1.336893371471993 7:5.585174177663612E-4 8:1.5180777662868474 
-32768.0 1:0.04364615823460601 2:4.844426808588026 3:4.5192125660867175 4:0.0399242097089586 5:0.1030324276258926 6:0.3095269378309523 7:4.926125067563058 8:3.6849964258707066 
-32768.0 1:0.04364615823460601 2:4.844426808588026 3:4.5192125660867175 4:0.0399242097089586 5:0.01270061490209394 6:4.978590477970862 7:4.70469052812614 8:0.0647663979048473 
-13454.074315063373 1:0.04364615823460601 2:4.844426808588026 3:4.5192125660867175 4:0.0399242097089586 5:0.0033471071491440905 6:2.4619007502995003 7:2.1663729303672894 8:0.006891316916964718 
-9027.990099556782 1:0.04364615823460601 2:4.844426808588026 3:4.5192125660867175 4:0.0399242097089586 5:0.9709996577730573 6:0.9990448636627175 7:4.008583286146485 8:4.291364937826964 
-32768.0 1:0.04364615823460601 2:4.844426808588026 3:4.5192125660867175 4:0.0399242097089586 5:8.478101902856071E-6 6:1.336893371471993 7:5.585174177663612E-4 8:1.5180777662868474 
-8784.665839915067 1:0.04364615823460601 2:4.844426808588026 3:4.5192125660867175 4:0.0399242097089586 5:1.5530229975387118E-6 6:2.5367350798843487 7:2.2043566257822294 8:2.897120461131534 
-32768.0 1:0.1030324276258926 2:0.3095269378309523 3:4.926125067563058 4:3.6849964258707066 5:0.01270061490209394 6:4.978590477970862 7:4.70469052812614 8:0.0647663979048473 
-32768.0 1:0.1030324276258926 2:0.3095269378309523 3:4.926125067563058 4:3.6849964258707066 5:0.0033471071491440905 6:2.4619007502995003 7:2.1663729303672894 8:0.006891316916964718 
-32768.0 1:0.1030324276258926 2:0.3095269378309523 3:4.926125067563058 4:3.6849964258707066 5:0.9709996577730573 6:0.9990448636627175 7:4.008583286146485 8:4.291364937826964 
-14203.249641472994 1:0.1030324276258926 2:0.3095269378309523 3:4.926125067563058 4:3.6849964258707066 5:4.977904287566831E-4 6:3.8367468211203724 7:0.0014265753764188815 8:4.989427249761805 
-14923.99761776689 1:0.1030324276258926 2:0.3095269378309523 3:4.926125067563058 4:3.6849964258707066 5:6.926432228211414E-5 6:1.9562391904181011 7:4.776776241187866 8:8.922543052221746E-4 
-10647.599175449244 1:0.1030324276258926 2:0.3095269378309523 3:4.926125067563058 4:3.6849964258707066 5:4.873939360803391E-5 6:1.1981472118931588E-4 7:4.992844424337667 8:2.7094553181861776 
-17528.26681301359 1:0.1030324276258926 2:0.3095269378309523 3:4.926125067563058 4:3.6849964258707066 5:8.478101902856071E-6 6:1.336893371471993 7:5.585174177663612E-4 8:1.5180777662868474 
-1728.1643352276217 1:0.01270061490209394 2:4.978590477970862 3:4.70469052812614 4:0.0647663979048473 5:4.977904287566831E-4 6:3.8367468211203724 7:0.0014265753764188815 8:4.989427249761805 
-6312.009457366347 1:0.01270061490209394 2:4.978590477970862 3:4.70469052812614 4:0.0647663979048473 5:4.873939360803391E-5 6:1.1981472118931588E-4 7:4.992844424337667 8:2.7094553181861776 
-19242.595460589902 1:0.01270061490209394 2:4.978590477970862 3:4.70469052812614 4:0.0647663979048473 5:8.478101902856071E-6 6:1.336893371471993 7:5.585174177663612E-4 8:1.5180777662868474 
-32768.0 1:0.0033471071491440905 2:2.4619007502995003 3:2.1663729303672894 4:0.006891316916964718 5:0.9709996577730573 6:0.9990448636627175 7:4.008583286146485 8:4.291364937826964 
-3495.9310719402206 1:0.0033471071491440905 2:2.4619007502995003 3:2.1663729303672894 4:0.006891316916964718 5:4.977904287566831E-4 6:3.8367468211203724 7:0.0014265753764188815 8:4.989427249761805 
-14269.934493981504 1:0.0033471071491440905 2:2.4619007502995003 3:2.1663729303672894 4:0.006891316916964718 5:6.926432228211414E-5 6:1.9562391904181011 7:4.776776241187866 8:8.922543052221746E-4 
-22928.387329054734 1:0.0033471071491440905 2:2.4619007502995003 3:2.1663729303672894 4:0.006891316916964718 5:4.873939360803391E-5 6:1.1981472118931588E-4 7:4.992844424337667 8:2.7094553181861776 
-17077.36902815453 1:0.0033471071491440905 2:2.4619007502995003 3:2.1663729303672894 4:0.006891316916964718 5:8.478101902856071E-6 6:1.336893371471993 7:5.585174177663612E-4 8:1.5180777662868474 
-2024.8856671420372 1:0.0033471071491440905 2:2.4619007502995003 3:2.1663729303672894 4:0.006891316916964718 5:9.103533650518148E-6 6:4.779423805796731 7:4.999092090882955 8:2.7928908017626206 
-11127.596586396661 1:0.0033471071491440905 2:2.4619007502995003 3:2.1663729303672894 4:0.006891316916964718 5:1.5530229975387118E-6 6:2.5367350798843487 7:2.2043566257822294 8:2.897120461131534 
-387.52646539418924 1:0.9709996577730573 2:0.9990448636627175 3:4.008583286146485 4:4.291364937826964 5:6.926432228211414E-5 6:1.9562391904181011 7:4.776776241187866 8:8.922543052221746E-4 
-10862.842168325978 1:0.9709996577730573 2:0.9990448636627175 3:4.008583286146485 4:4.291364937826964 5:4.873939360803391E-5 6:1.1981472118931588E-4 7:4.992844424337667 8:2.7094553181861776 
-32768.0 1:0.9709996577730573 2:0.9990448636627175 3:4.008583286146485 4:4.291364937826964 5:8.478101902856071E-6 6:1.336893371471993 7:5.585174177663612E-4 8:1.5180777662868474 
-19791.550664236023 1:0.9709996577730573 2:0.9990448636627175 3:4.008583286146485 4:4.291364937826964 5:9.103533650518148E-6 6:4.779423805796731 7:4.999092090882955 8:2.7928908017626206 
-32768.0 1:0.9709996577730573 2:0.9990448636627175 3:4.008583286146485 4:4.291364937826964 5:1.5530229975387118E-6 6:2.5367350798843487 7:2.2043566257822294 8:2.897120461131534 
-4085.6180154607337 1:4.977904287566831E-4 2:3.8367468211203724 3:0.0014265753764188815 4:4.989427249761805 5:6.926432228211414E-5 6:1.9562391904181011 7:4.776776241187866 8:8.922543052221746E-4 
-26838.55548884937 1:4.977904287566831E-4 2:3.8367468211203724 3:0.0014265753764188815 4:4.989427249761805 5:4.873939360803391E-5 6:1.1981472118931588E-4 7:4.992844424337667 8:2.7094553181861776 
-32768.0 1:4.977904287566831E-4 2:3.8367468211203724 3:0.0014265753764188815 4:4.989427249761805 5:8.478101902856071E-6 6:1.336893371471993 7:5.585174177663612E-4 8:1.5180777662868474 
-7285.231312713187 1:4.977904287566831E-4 2:3.8367468211203724 3:0.0014265753764188815 4:4.989427249761805 5:9.103533650518148E-6 6:4.779423805796731 7:4.999092090882955 8:2.7928908017626206 
-22166.288623537992 1:4.977904287566831E-4 2:3.8367468211203724 3:0.0014265753764188815 4:4.989427249761805 5:1.5530229975387118E-6 6:2.5367350798843487 7:2.2043566257822294 8:2.897120461131534 
-5229.714443683892 1:4.977904287566831E-4 2:3.8367468211203724 3:0.0014265753764188815 4:4.989427249761805 5:1.1955266716905881 6:1.1070478438009705 7:3.0549382043332067 8:4.97755313262421 
-11290.031341437898 1:6.926432228211414E-5 2:1.9562391904181011 3:4.776776241187866 4:8.922543052221746E-4 5:4.873939360803391E-5 6:1.1981472118931588E-4 7:4.992844424337667 8:2.7094553181861776 
-24208.506103720734 1:6.926432228211414E-5 2:1.9562391904181011 3:4.776776241187866 4:8.922543052221746E-4 5:1.5530229975387118E-6 6:2.5367350798843487 7:2.2043566257822294 8:2.897120461131534 
-5891.408397926457 1:6.926432228211414E-5 2:1.9562391904181011 3:4.776776241187866 4:8.922543052221746E-4 5:0.7333173197456333 6:3.6951035984492164 7:2.6148701430940617 8:0.9877908013697256 
-21690.29465439264 1:4.873939360803391E-5 2:1.1981472118931588E-4 3:4.992844424337667 4:2.7094553181861776 5:8.478101902856071E-6 6:1.336893371471993 7:5.585174177663612E-4 8:1.5180777662868474 
-7563.611040736418 1:4.873939360803391E-5 2:1.1981472118931588E-4 3:4.992844424337667 4:2.7094553181861776 5:1.5530229975387118E-6 6:2.5367350798843487 7:2.2043566257822294 8:2.897120461131534 
-3044.8066837795577 1:4.873939360803391E-5 2:1.1981472118931588E-4 3:4.992844424337667 4:2.7094553181861776 5:0.5132748288992912 6:4.9976505168722865 7:4.2462053171767766E-4 8:2.960650477480489 
-15124.113029952987 1:8.478101902856071E-6 2:1.336893371471993 3:5.585174177663612E-4 4:1.5180777662868474 5:1.5530229975387118E-6 6:2.5367350798843487 7:2.2043566257822294 8:2.897120461131534 
-20877.406710542888 1:9.103533650518148E-6 2:4.779423805796731 3:4.999092090882955 4:2.7928908017626206 5:1.5530229975387118E-6 6:2.5367350798843487 7:2.2043566257822294 8:2.897120461131534 
-8594.710466841723 1:0.4945433333739363 2:0.7372837505976415 3:0.42856613744494454 4:1.2469603824230187 5:0.5706889008533667 6:4.711828297831277 7:3.935109223550844 8:3.216324590232359 
-9236.088385413854 1:0.4945433333739363 2:0.7372837505976415 3:0.42856613744494454 4:1.2469603824230187 5:1.1955266716905881 6:1.1070478438009705 7:3.0549382043332067 8:4.97755313262421 
-31293.345422690712 1:0.4945433333739363 2:0.7372837505976415 3:0.42856613744494454 4:1.2469603824230187 5:1.759069853552866 6:0.37110666784803903 7:3.5193545673510256 8:3.0517239924953565 
-1167.9118226654464 1:0.4945433333739363 2:0.7372837505976415 3:0.42856613744494454 4:1.2469603824230187 5:1.3471856131880662 6:2.6894988873765224 7:4.978247589844895 8:1.4164183155574528 
-14073.386290114737 1:0.4945433333739363 2:0.7372837505976415 3:0.42856613744494454 4:1.2469603824230187 5:0.7333173197456333 6:3.6951035984492164 7:2.6148701430940617 8:0.9877908013697256 
-8133.2581617074775 1:0.4945433333739363 2:0.7372837505976415 3:0.42856613744494454 4:1.2469603824230187 5:0.5132748288992912 6:4.9976505168722865 7:4.2462053171767766E-4 8:2.960650477480489 
-24391.419429095782 1:0.5706889008533667 2:4.711828297831277 3:3.935109223550844 4:3.216324590232359 5:1.1955266716905881 6:1.1070478438009705 7:3.0549382043332067 8:4.97755313262421 
-7682.576654211539 1:0.5706889008533667 2:4.711828297831277 3:3.935109223550844 4:3.216324590232359 5:1.759069853552866 6:0.37110666784803903 7:3.5193545673510256 8:3.0517239924953565 
-5565.385732108482 1:0.5706889008533667 2:4.711828297831277 3:3.935109223550844 4:3.216324590232359 5:1.3471856131880662 6:2.6894988873765224 7:4.978247589844895 8:1.4164183155574528 
-8618.709929548711 1:1.1955266716905881 2:1.1070478438009705 3:3.0549382043332067 4:4.97755313262421 5:1.759069853552866 6:0.37110666784803903 7:3.5193545673510256 8:3.0517239924953565 
-1747.1372582418219 1:1.1955266716905881 2:1.1070478438009705 3:3.0549382043332067 4:4.97755313262421 5:0.5132748288992912 6:4.9976505168722865 7:4.2462053171767766E-4 8:2.960650477480489 
-32768.0 1:1.759069853552866 2:0.37110666784803903 3:3.5193545673510256 4:3.0517239924953565 5:1.0319075084285116 6:0.7886516573346947 7:1.4939148308559642 8:1.4926466971824048 
-25592.21946055376 1:1.0319075084285116 2:0.7886516573346947 3:1.4939148308559642 4:1.4926466971824048 5:0.5132748288992912 6:4.9976505168722865 7:4.2462053171767766E-4 8:2.960650477480489 
-32768.0 1:1.3367168904719935 2:2.5277049434071506 3:3.5075284541231335 4:4.100452770486412 5:1.2269622644465255 6:2.6011234348152024 7:4.252281169468785 8:1.8867309415036193 
-17841.173450673232 1:1.3367168904719935 2:2.5277049434071506 3:3.5075284541231335 4:4.100452770486412 5:0.7333173197456333 6:3.6951035984492164 7:2.6148701430940617 8:0.9877908013697256 
-32768.0 1:1.3367168904719935 2:2.5277049434071506 3:3.5075284541231335 4:4.100452770486412 5:0.5132748288992912 6:4.9976505168722865 7:4.2462053171767766E-4 8:2.960650477480489 
-10147.622474747921 1:1.2269622644465255 2:2.6011234348152024 3:4.252281169468785 4:1.8867309415036193 5:1.3471856131880662 6:2.6894988873765224 7:4.978247589844895 8:1.4164183155574528 
-7115.914472672515 1:1.3471856131880662 2:2.6894988873765224 3:4.978247589844895 4:1.4164183155574528 5:0.7333173197456333 6:3.6951035984492164 7:2.6148701430940617 8:0.9877908013697256 
-17036.92480513595 1:1.3471856131880662 2:2.6894988873765224 3:4.978247589844895 4:1.4164183155574528 5:1.7900660022084092 6:2.1337383188072483 7:3.58691893200175 8:4.557703503489366 
-6728.513817081683 1:1.3471856131880662 2:2.6894988873765224 3:4.978247589844895 4:1.4164183155574528 5:1.3776645690140583 6:1.2616832235971964 7:1.0087931890169393 8:2.053596305309121 
-18913.09730179575 1:0.7333173197456333 2:3.6951035984492164 3:2.6148701430940617 4:0.9877908013697256 5:0.5132748288992912 6:4.9976505168722865 7:4.2462053171767766E-4 8:2.960650477480489 
-20087.996100958695 1:0.7333173197456333 2:3.6951035984492164 3:2.6148701430940617 4:0.9877908013697256 5:1.2346474181636142 6:1.2095601049663862 7:1.5903675302040254 8:0.9630085027231994 
-10442.706778208994 1:0.7333173197456333 2:3.6951035984492164 3:2.6148701430940617 4:0.9877908013697256 5:0.9986388574272581 6:3.708828861438313 7:2.2251014563621414 8:2.7649821405625334 
-32768.0 1:0.7333173197456333 2:3.6951035984492164 3:2.6148701430940617 4:0.9877908013697256 5:1.3776645690140583 6:1.2616832235971964 7:1.0087931890169393 8:2.053596305309121 
-22857.08612412149 1:0.5132748288992912 2:4.9976505168722865 3:4.2462053171767766E-4 4:2.960650477480489 5:1.7900660022084092 6:2.1337383188072483 7:3.58691893200175 8:4.557703503489366 
-32768.0 1:0.5132748288992912 2:4.9976505168722865 3:4.2462053171767766E-4 4:2.960650477480489 5:1.2346474181636142 6:1.2095601049663862 7:1.5903675302040254 8:0.9630085027231994 
-12474.614500482883 1:0.5132748288992912 2:4.9976505168722865 3:4.2462053171767766E-4 4:2.960650477480489 5:0.9986388574272581 6:3.708828861438313 7:2.2251014563621414 8:2.7649821405625334 
-3072.222091011632 1:0.5132748288992912 2:4.9976505168722865 3:4.2462053171767766E-4 4:2.960650477480489 5:1.3776645690140583 6:1.2616832235971964 7:1.0087931890169393 8:2.053596305309121 
-7413.089101260537 1:0.5132748288992912 2:4.9976505168722865 3:4.2462053171767766E-4 4:2.960650477480489 5:1.3978586665118726 6:2.173911805666871 7:2.6700967220899448 8:1.6907770718308308 
-757.8323466937494 1:0.5132748288992912 2:4.9976505168722865 3:4.2462053171767766E-4 4:2.960650477480489 5:2.9194725569962188 6:1.3071076363812306 7:4.467963234174629 8:3.944382017328853 
-32768.0 1:1.7900660022084092 2:2.1337383188072483 3:3.58691893200175 4:4.557703503489366 5:1.2346474181636142 6:1.2095601049663862 7:1.5903675302040254 8:0.9630085027231994 
-8674.70016271711 1:1.7900660022084092 2:2.1337383188072483 3:3.58691893200175 4:4.557703503489366 5:0.9986388574272581 6:3.708828861438313 7:2.2251014563621414 8:2.7649821405625334 
-32768.0 1:1.2346474181636142 2:1.2095601049663862 3:1.5903675302040254 4:0.9630085027231994 5:0.9986388574272581 6:3.708828861438313 7:2.2251014563621414 8:2.7649821405625334 
-32768.0 1:1.2346474181636142 2:1.2095601049663862 3:1.5903675302040254 4:0.9630085027231994 5:1.3776645690140583 6:1.2616832235971964 7:1.0087931890169393 8:2.053596305309121 
-21026.04256225237 1:1.2346474181636142 2:1.2095601049663862 3:1.5903675302040254 4:0.9630085027231994 5:1.3978586665118726 6:2.173911805666871 7:2.6700967220899448 8:1.6907770718308308 
-32768.0 1:0.9986388574272581 2:3.708828861438313 3:2.2251014563621414 4:2.7649821405625334 5:1.3776645690140583 6:1.2616832235971964 7:1.0087931890169393 8:2.053596305309121 
-32768.0 1:0.9986388574272581 2:3.708828861438313 3:2.2251014563621414 4:2.7649821405625334 5:1.3978586665118726 6:2.173911805666871 7:2.6700967220899448 8:1.6907770718308308 
-11241.975856068642 1:0.9986388574272581 2:3.708828861438313 3:2.2251014563621414 4:2.7649821405625334 5:2.1082258133311793 6:2.9396352452164196 7:4.884866060119117 8:4.331602355231819 
-32768.0 1:1.3776645690140583 2:1.2616832235971964 3:1.0087931890169393 4:2.053596305309121 5:1.3978586665118726 6:2.173911805666871 7:2.6700967220899448 8:1.6907770718308308 
-20558.335540263382 1:1.3978586665118726 2:2.173911805666871 3:2.6700967220899448 4:1.6907770718308308 5:2.1082258133311793 6:2.9396352452164196 7:4.884866060119117 8:4.331602355231819 
-9065.224038476015 1:2.6340018007119674 2:1.1041603796340453 3:3.423917436431203 4:4.46588074218557 5:2.1082258133311793 6:2.9396352452164196 7:4.884866060119117 8:4.331602355231819 
-3350.5103570542997 1:2.1082258133311793 2:2.9396352452164196 3:4.884866060119117 4:4.331602355231819 5:2.9194725569962188 6:1.3071076363812306 7:4.467963234174629 8:3.944382017328853 
-1232.6372249823858 1:2.1082258133311793 2:2.9396352452164196 3:4.884866060119117 4:4.331602355231819 5:1.647771919002596 6:0.915351195433487 7:0.1326207403477453 8:3.387894830393594 
-2631.160617348831 1:2.9194725569962188 2:1.3071076363812306 3:4.467963234174629 4:3.944382017328853 5:1.647771919002596 6:0.915351195433487 7:0.1326207403477453 8:3.387894830393594 
-13744.161192359583 1:2.9194725569962188 2:1.3071076363812306 3:4.467963234174629 4:3.944382017328853 5:1.4311278214812218 6:3.4331756080530567 7:2.363960950209068 8:3.502455372134433 
-4729.43681393661 1:1.647771919002596 2:0.915351195433487 3:0.1326207403477453 4:3.387894830393594 5:1.4311278214812218 6:3.4331756080530567 7:2.363960950209068 8:3.502455372134433 
-1757.5706436417424 1:1.4311278214812218 2:3.4331756080530567 3:2.363960950209068 4:3.502455372134433 5:1.6227290109416743 6:3.260034343696508 7:3.550227784603827 8:2.5297368322440676 
-2091.7288474019474 1:4.144760786240286 2:0.16969209650648243 3:4.525445632124345 4:1.0838879515381805 5:2.2929238001074506 6:1.757416280625443 7:1.519632805900385 8:2.2763687342753935 
-215.78960948842243 1:1.9851690509240694 2:4.551737689823226 3:3.015840057681054 4:1.5523818608296973 5:4.37749123209305 6:1.4624374389638435 7:2.428836129743736 8:3.7185279296067697 
-1388.200657645828 1:4.37749123209305 2:1.4624374389638435 3:2.428836129743736 4:3.7185279296067697 5:4.569246542629047 6:2.7621127101681466 7:4.578354870443054 8:4.390312874083201 
-7831.169586927453 1:3.9011569661316567 2:1.205293668038936 3:0.8885445256638597 4:3.693235453353832 5:1.3281840162783343 6:4.365663217102183 7:0.760167533899388 8:1.1488879892958397 
-3943.958846455531 1:1.3281840162783343 2:4.365663217102183 3:0.760167533899388 4:1.1488879892958397 5:4.499374039412146 6:0.42673164590268986 7:0.6596387236259038 8:2.9770320854987444 
-1421.8729388687334 1:4.480557753146384 2:0.7949816589896908 3:2.162627091677284 4:0.45010169865087823 5:2.93706386582362 6:4.910609609789859 7:3.2721183731189454 8:2.585631531166585 
-2621.792931748766 1:4.480557753146384 2:0.7949816589896908 3:2.162627091677284 4:0.45010169865087823 5:0.38560109933838704 6:4.950791805300357 7:0.013016490297393601 8:0.015918444913759915 
-173.55900541475944 1:4.643068013156668 2:3.9095661278860563 3:4.048629408274919 4:3.4737681883367326 5:2.6510851571122402 6:3.9948825116427167 7:0.07943353884538429 8:2.9439770021542926 
-1157.5359874503552 1:4.643068013156668 2:3.9095661278860563 3:4.048629408274919 4:3.4737681883367326 5:0.38560109933838704 6:4.950791805300357 7:0.013016490297393601 8:0.015918444913759915 
-5111.273716861039 1:2.6510851571122402 2:3.9948825116427167 3:0.07943353884538429 4:2.9439770021542926 5:3.075418324998634 6:4.9423257433366565 7:0.5862559458153682 8:4.457574307214764 
-393.74651831035436 1:4.147386963732009 2:3.8758677180191974 3:1.2265866095605726 4:4.508819819223997 5:0.38560109933838704 6:4.950791805300357 7:0.013016490297393601 8:0.015918444913759915 
-507.367146467265 1:3.400499301496846 2:3.495489999546313 3:1.614997130974996 4:1.5336882226815947 5:0.38560109933838704 6:4.950791805300357 7:0.013016490297393601 8:0.015918444913759915 
-1592.6090806209188 1:4.330627735209619 2:4.134113674035905 3:0.4177861389231019 4:2.888022560691481 5:0.38560109933838704 6:4.950791805300357 7:0.013016490297393601 8:0.015918444913759915 
