svm_type c_svc
kernel_type rbf
gamma 0.125
nr_class 2
total_sv 1949
rho -0.06987410193660534
label 1 -1
nr_sv 974 975
SV
1.0 1:1.568565199132963 2:2.520356466427922 3:0.5438576174211679 4:0.05035959473203804 5:4.956361486426433 6:0.9967847937882646 7:1.2205926654155053 8:3.290267737612933 
1.0 1:2.045332160333898 2:4.8994033854794985 3:4.8422721770171515 4:4.2757772879683875 5:2.0750673114166327 6:1.7629908277650577 7:3.5693498465383366 8:0.883144706527759 
0.632469072146192 1:2.69982626200172 2:4.189098885551788 3:1.9282022866755335 4:1.650709897978003 5:4.2261513453570565 6:0.6570865312456965 7:0.6413271237088356 8:2.7949786704994746 
1.0 1:4.255073166518761 2:0.4324014294287115 3:3.7721628582614533 4:2.9978964095163008 5:3.1409388956885302 6:1.3377948929701005 7:4.934365531890864 8:2.072108575558984 
1.0 1:1.2081917791357317 2:2.751700071476369 3:3.7862915370667323 4:0.07561406735220888 5:0.9176785155953927 6:3.558492399584313 7:2.445029039240237 8:2.4246051848217514 
0.24905566169573826 1:4.2319859971429175 2:1.7418330016530168 3:3.3307434643562757 4:2.124917164260817 5:1.575643922102579 6:3.0396165303575464 7:0.6705411635607649 8:1.8831261168635804 
0.6828819996930475 1:1.5573028260441195 2:4.658716161305238 3:2.580586521801019 4:2.4453287984474628 5:3.0616704214772326 6:2.2000911689081737 7:4.488770947149066 8:4.1197455812565416 
0.19431090612560764 1:3.8684142401801833 2:1.5649748165104205 3:0.9556794302840965 4:0.26820786821195997 5:0.9414710342812129 6:4.500262536697832 7:1.3076733902336222 8:0.18314107323848283 
1.0 1:3.753451245029667 2:3.871230415755071 3:2.09257672947013 4:0.4394019190361419 5:3.201740349763775 6:4.185274367146324 7:0.8894668926235606 8:0.9556694223640131 
1.0 1:1.5024359278192227 2:4.28152777139098 3:4.827426187310025 4:2.3360548411862228 5:0.7182473060185791 6:1.9636393488526753 7:1.715577233185613 8:0.44983929514465176 
1.0 1:2.724329021348883 2:4.941018905420876 3:1.6697152990247053 4:3.4427891664838817 5:2.7679570122942936 6:4.016891922882716 7:3.6011774235582377 8:0.8247272246679086 
0.1298051397549235 1:0.9683050121511843 2:1.2855700660162075 3:1.1162342005104382 4:0.6619454102967818 5:0.9681401549303141 6:3.236965762640014 7:4.443724427103172 8:3.7340623797981487 
1.0 1:1.1625949970228246 2:0.6653245393488139 3:2.8159752366103024 4:0.1179115466306697 5:0.6836197517231134 6:1.0585655192324175 7:0.4966296127057526 8:2.2522330867401275 
1.0 1:2.8515959855473785 2:1.2787902994094646 3:0.1728732910798138 4:4.063181123817797 5:2.62717501115672 6:3.004357437628764 7:2.2684992135422126 8:4.780091889174441 
0.22837655599327358 1:2.0437491399152994 2:3.8636945665152287 3:1.494327917433985 4:0.7801542991708021 5:0.4439227017831537 6:3.647825143156217 7:0.02272393796197807 8:0.21385578880925019 
1.0 1:4.350312613620165 2:2.9175205696732256 3:2.7653426825031455 4:3.9530841257919516 5:2.6857570670150923 6:3.3929888389213847 7:3.0064655642134928 8:0.767182312317579 
1.0 1:2.9251723826168914 2:0.930263619227139 3:4.426242420901352 4:4.64094815088126 5:1.5939803217268886 6:1.4829168505666204 7:4.568517956606317 8:1.5285599614572014 
0.8625152755524557 1:4.725510794056578 2:4.621532404545076 3:3.486937531688187 4:2.392472251955016 5:1.8014252958458052 6:4.678419720302635 7:1.6583448802383371 8:0.42032561129032237 
1.0 1:3.909172210337889 2:0.7252730069421058 3:4.507062987685143 4:1.3432249283052287 5:1.6848655931218857 6:4.360119759134698 7:4.915954786244889 8:2.190695332812452 
1.0 1:3.7938644344575 2:2.7677120791390437 3:0.5688087589277703 4:2.5969938010893183 5:2.6326236244232954 6:4.201965561232004 7:0.48407429265283813 8:2.304833433782817 
1.0 1:1.2717670041522078 2:0.8106021846643889 3:4.305558552860066 4:2.661802414516056 5:0.5262320375812818 6:1.9709516954406219 7:3.5713968432779595 8:1.2702740948490505 
1.0 1:1.6054799598332021 2:2.184034156869975 3:1.1461747337706267 4:0.634615270985971 5:4.175136076721604 6:0.714767947500752 7:2.9898483660918873 8:4.526647499047867 
1.0 1:0.19503897040282492 2:1.253735410515252 3:4.533460876591634 4:3.0627814492198913 5:0.10638660809389046 6:3.3454097938568244 7:2.3508374298688586 8:2.008910715844413 
1.0 1:4.699199010191022 2:3.4621611283001053 3:4.97847425069768 4:1.0900102900185151 5:2.6765667843535637 6:3.622784790295332 7:1.066019222623408 8:1.9210420923520721 
1.0 1:2.533149579073954 2:1.4674970781400438 3:1.8077905871095203 4:0.5371777089957062 5:2.6598375842381365 6:0.27617813722380924 7:0.3614321216099966 8:1.964320181723566 
1.0 1:3.709589944779571 2:2.011318351931419 3:1.6219561216085552 4:3.924434909692381 5:4.691540630942858 6:1.313875015482472 7:3.0990897940599345 8:2.1078067390135584 
1.0 1:1.7284910730646827 2:2.930318343880932 3:0.7189891599857086 4:3.937434910263839 5:2.8793891172714488 6:0.120943414964714 7:2.365674091265105 8:0.2838347496384399 
0.3308935285910349 1:0.19255631126751707 2:1.2436325024621915 3:0.36973792261992044 4:0.013333418457018124 5:0.38171603408175236 6:1.940065829904114 7:3.9304829542172843 8:4.507523879135823 
1.0 1:4.562388588693852 2:1.0445847659437073 3:3.4272077201467384 4:2.2997211063885494 5:3.6340202322171136 6:0.29013385336706016 7:1.3530800952501194 8:1.127404951842177 
0.08513311286699114 1:3.8662208433876026 2:3.306568852983968 3:2.9941701191935404 4:3.5199638275400726 5:4.34495095736534 6:2.5455799568936457 7:4.970881223224786 8:2.3231178735129285 
0.023178297915869676 1:4.135593817221782 2:0.7142138024647956 3:1.9983662165917555 4:4.318843359952587 5:1.3765731594176736 6:2.837899572579411 7:0.4502002092321357 8:4.421816786284623 
1.0 1:2.1180670699437476 2:3.35535184986796 3:4.253117856754215 4:4.992585171181379 5:1.5813684335549796 6:3.5050315167670134 7:2.6236544572573113 8:4.001600517839323 
0.32131823005385685 1:0.7115419413760787 2:4.110669980524334 3:1.7695329953321846 4:3.78174387562351 5:0.6608092990642358 6:3.5884291062651674 7:4.596753278631465 8:2.397413967318235 
1.0 1:4.755449782369481 2:0.3364436922850746 3:4.041438251772267 4:3.855152886771749 5:2.4560013516563597 6:0.9921627045817853 7:3.3756807241204396 8:0.44609922933808077 
0.5115652685155935 1:4.84634820253806 2:0.7913092795303777 3:1.0681350852362277 4:4.955697013747356 5:2.287618565591972 6:1.3560404432547062 7:4.52990244887301 8:0.08487540648883408 
0.4924479023312997 1:4.641391571603186 2:1.8280655065211326 3:3.8829052448543098 4:3.616119712126258 5:1.4255550414460272 6:4.996843263874709 7:2.2966502810068214 8:4.763359085927895 
1.0 1:2.0130076329660134 2:3.220395723939168 3:3.8360118608325005 4:0.9516703407568817 5:2.0560815581108476 6:2.8159339594032806 7:2.322193814029994 8:3.1562038001328117 
1.0 1:2.862760066619639 2:3.6802442441573446 3:4.34152345603413 4:4.494075649044764 5:2.3732842032571178 6:2.577829541010284 7:4.250310249163739 8:0.8709096363774886 
1.0 1:0.6796985151041691 2:2.983048605595784 3:0.7114267096103849 4:1.5575946638036304 5:1.5308492780217595 6:2.686664088375958 7:4.876098435612821 8:4.744007662979285 
1.0 1:1.5806039940422232 2:3.209612982200187 3:3.0741808908402213 4:2.364550611249518 5:3.0843752266766566 6:0.36427681818589425 7:3.8219190383982338 8:0.57905322493302 
1.0 1:2.180941484415579 2:1.6703092491432963 3:3.6067581490349934 4:4.749096405850713 5:1.089598809185901 6:4.070107608575366 7:3.695042033666445 8:3.8442842116655913 
0.1826819453286119 1:1.9321925103682658 2:4.465643607525213 3:3.2683462974253055 4:3.60285459409881 5:1.6683649375086917 6:0.9586906062534094 7:0.003862821380395786 8:3.4738344641720107 
0.7090082689974757 1:0.8407916191824146 2:4.583909996947928 3:0.42823588194167733 4:0.3029672420360071 5:0.9125062973640862 6:3.783888826931278 7:3.443279080193547 8:0.010433154971121242 
0.7836164416633341 1:4.824422897383494 2:0.8717833957731854 3:2.2579443105783956 4:2.252505150915091 5:3.1032207953207975 6:1.6905890453529064 7:0.7956727325447147 8:4.455699278936746 
1.0 1:0.7773302997813579 2:4.363203184581605 3:0.2538451482575726 4:1.6093165059795498 5:1.4942095826969757 6:3.438662172432167 7:3.993962038973828 8:3.3884505520664745 
1.0 1:4.935829957902671 2:2.1639339160674758 3:4.456214035341635 4:2.5779458206090613 5:3.2494975760513105 6:0.5053881823488143 7:0.2518415848431748 8:1.3464053341182862 
1.0 1:2.452153852430724 2:4.927140615003151 3:4.7852657484063075 4:3.729307418089209 5:4.094459334628963 6:0.7461368154573105 7:4.703277691361126 8:0.46675410231877906 
1.0 1:1.4295400652132768 2:1.8594400250025052 3:1.5628039267623723 4:1.6923104390860748 5:2.5213138600160527 6:1.3105080839621568 7:4.86104791946583 8:3.2709884025553313 
1.0 1:1.844610323051563 2:4.445841528424326 3:1.4551342645906782 4:1.1553698569801112 5:2.481213671687167 6:3.3988406733999317 7:4.039866761912719 8:0.29578019117734783 
0.9412878954300576 1:2.0725054504947424 2:2.756462739579479 3:2.571490318335082 4:0.36850376838163473 5:3.0094344296648017 6:3.1122067119078527 7:3.752943763865822 8:2.344000539183711 
1.0 1:4.498583666347219 2:0.4443523234836464 3:4.254840778008015 4:2.678389529834473 5:2.240719844038169 6:2.239871288841627 7:2.951875109194721 8:2.83946000348381 
1.0 1:1.1293459564456485 2:1.425310931447909 3:0.832234368641521 4:3.83825037765808 5:0.3917553028355807 6:4.935901797827448 7:2.4224295030698317 8:0.6363091529211471 
0.947956136324165 1:4.8650222098156615 2:3.217187685316925 3:1.9533800687541016 4:3.9256888378966437 5:4.204675361602023 6:4.19446678125693 7:4.271860976249942 8:4.870072543832298 
1.0 1:4.216529976835412 2:2.4663260865711707 3:3.976747334728306 4:3.1558948989479143 5:1.8940271553371106 6:4.453376390364395 7:3.3097412653537304 8:0.8735774578913511 
0.8099866031972524 1:1.750257468022392 2:4.452712259456398 3:0.42250401721925296 4:4.789309848369607 5:3.7282107986209962 6:0.04706014418517833 7:0.909082121800094 8:4.9577395205285715 
0.21759651572974625 1:3.1726380416246367 2:2.704019602561013 3:4.659389285943734 4:1.4083380792777604 5:1.3307963484849152 6:3.8276108815450187 7:1.0617752127004791 8:2.3873422298667517 
0.7552409389856646 1:2.1211992644634665 2:1.1838391871635163 3:2.117056473852486 4:1.9243939801948817 5:0.8796370453071917 6:1.4644340581088102 7:0.7574572169513679 8:1.036281965113651 
1.0 1:4.429320718524995 2:4.316535059970792 3:3.9730746016064997 4:3.6456278992581224 5:4.829042494243336 6:2.10649122818879 7:3.4589824970974616 8:1.0247893611468437 
1.0 1:0.9574775617165379 2:1.1758550836126402 3:3.8440772637321823 4:3.2245088823870485 5:0.21692224554680584 6:0.23978669700977961 7:0.6839070937011481 8:4.011308632367691 
1.0 1:1.345075876863908 2:1.8288111818020683 3:3.182299976250413 4:0.4844464060266755 5:0.5972891773634679 6:4.466132345503121 7:2.815780379140821 8:0.710981365317041 
1.0 1:0.6121672151453412 2:0.13206867529208022 3:3.155620236089839 4:2.2725437282326735 5:0.46827887243414296 6:0.6043082251398446 7:2.0629222950233017 8:1.4993249400115671 
0.6150097706763361 1:2.407352406817984 2:0.2265407812453816 3:4.011175486778948 4:4.69111556923864 5:1.4046570995425107 6:0.17665385606021414 7:3.196526946849773 8:0.5936336522731076 
0.14617295179203074 1:0.9095560328078689 2:2.67374070327147 3:1.6089909563289428 4:0.7410402602050892 5:1.8852100407901144 6:0.0340347306315968 7:4.720274861204907 8:0.19946010749247867 
1.0 1:4.875151332222995 2:0.7803123336177097 3:3.2048995289970863 4:2.913475227700155 5:1.678850255527862 6:4.054580195614186 7:4.355919884752658 8:0.6862242158345758 
1.0 1:2.8250436397316387 2:3.634117546616251 3:4.940867421862196 4:4.211386752321883 5:1.8292310351306007 6:4.802786996531563 7:4.291493078290062 8:2.1009557766912357 
1.0 1:1.834781061215288 2:2.6075501504235037 3:2.0171384279850524 4:1.769176673769955 5:3.266811005981858 6:1.6853399979092991 7:3.8699663354863785 8:2.8976552696695848 
1.0 1:0.7189512921498877 2:3.040498218984412 3:0.920938225121152 4:0.4002998503129763 5:1.3440208444156911 6:1.930599260245921 7:2.3150838328244903 8:0.9852270831374482 
1.0 1:2.651680394952825 2:3.742472609528498 3:0.8977931856503595 4:4.606075883362326 5:3.3510383425127364 6:1.112276139228945 7:0.2996012840748638 8:3.419990561385937 
1.0 1:1.3665523010033063 2:2.387114325296449 3:0.9589772784926808 4:1.8862299923085506 5:0.7402568650223208 6:4.402450947269173 7:1.2224418888212012 8:1.2680312365482986 
1.0 1:4.5552891401041675 2:0.5483474516073336 3:0.6953622234467017 4:3.3709501752719593 5:1.6518103402706044 6:3.9666964182612876 7:0.08282993057950465 8:3.7034894194481756 
1.0 1:2.3068162575759468 2:3.9245904743814246 3:2.130441658955729 4:1.8703267882305101 5:4.443525290102827 6:0.5734801326325366 7:4.914960193009287 8:0.5946977182507848 
1.0 1:1.6734671281254048 2:1.9388443901876615 3:1.5366910670103762 4:3.6117279999038034 5:1.9228663572059295 6:1.3454376306435871 7:4.355495518391745 8:0.7131194854138371 
0.7795177624601028 1:4.51816215560019 2:4.101584968522053 3:4.41698154554061 4:4.4714192062931035 5:2.0907303988901633 6:4.879720614304698 7:2.4586243599631232 8:3.6135250780321906 
1.0 1:3.601133466027419 2:0.703157634874931 3:0.4438831534011428 4:2.4191598595939534 5:3.8667059623001956 6:0.7060249234831041 7:0.8167251268949522 8:3.282383197510316 
1.0 1:1.2189911060192484 2:1.750352270194867 3:0.38534652719556356 4:4.95702014089056 5:0.6418480695593293 6:3.6347551447746755 7:1.4186580856464142 8:4.230681779753133 
1.0 1:3.6763804075077253 2:3.5549542264465144 3:1.118999001345262 4:4.177166585293168 5:4.855633258855827 6:1.1973672178636114 7:2.3730550081122512 8:0.6588925421886767 
1.0 1:1.3607448262892992 2:2.054924547734821 3:1.0405717407004744 4:4.586875935847347 5:1.3614925021336617 6:1.5610587388946295 7:4.038494743364759 8:0.2947788001583033 
1.0 1:2.430460185297291 2:4.582144401630107 3:4.0938138626018095 4:0.6165428088578588 5:1.809237504983768 6:4.9892188998186215 7:0.5565954698073373 8:2.8761562526603233 
1.0 1:3.24115086594822 2:0.06692080490656843 3:0.6185434030891369 4:3.444554080529409 5:0.4345033535201706 6:3.7129056230081265 7:1.4378633753017966 8:0.27025576139795604 
1.0 1:4.299141950750531 2:1.3335324437445428 3:1.5774875036568254 4:1.6629488848179843 5:2.8393053688214107 6:3.429371134485442 7:1.9837428950850962 8:1.7531242893597303 
0.1665317077784299 1:4.648235600339721 2:2.0818219309188937 3:2.6508636725405745 4:4.372292924323625 5:4.164930273407337 6:2.152132525720779 7:4.362593249768373 8:2.4163748560628693 
1.0 1:4.30156482266399 2:4.761839393180989 3:3.09540882006005 4:2.3945006646682976 5:3.0187546443633972 6:4.763933950891824 7:0.8317167703381569 8:2.553970367775656 
1.0 1:4.81919873273488 2:3.0211509958051526 3:0.7515144563632922 4:4.173892276202295 5:3.5724610120008946 6:2.4812321725705315 7:2.3804086210724016 8:0.45892532987214646 
0.9166170981512501 1:1.358441722913633 2:1.8504082251386258 3:4.166705548234927 4:1.369486712425199 5:0.610778804072276 6:4.424313372975243 7:3.790656468244374 8:4.1425592285232025 
1.0 1:2.889210857686177 2:1.2821607803335107 3:3.5890099264830826 4:2.382908056587094 5:1.17216055724902 6:4.290315287284886 7:2.7981309537208734 8:1.456978861383028 
1.0 1:0.6510358174809561 2:1.7731352685628727 3:1.1440578923178562 4:1.6661097963906277 5:1.1549829514032535 6:0.675095170217053 7:4.107286679445798 8:2.9465506770297454 
1.0 1:4.565848672649699 2:3.8359952778685815 3:2.4654155635164203 4:1.7633648080038586 5:4.84958473173296 6:2.810065781565059 7:2.291539343289158 8:1.2991234493355694 
1.0 1:4.679418376541717 2:4.806215336536324 3:1.1157947010452038 4:4.10029241263735 5:3.8749940218660885 6:3.656537863867595 7:1.099041269499669 8:1.7042177221984929 
1.0 1:1.4115123327791048 2:4.32813079830976 3:4.25239144749545 4:2.5546081942739383 5:1.2735954818036666 6:4.153487993981627 7:2.2162484756428826 8:4.441607345229399 
1.0 1:4.169130506322431 2:4.367546248504558 3:2.2822910649327777 4:4.419632866726074 5:4.059871745475592 6:0.6309991604331561 7:0.2887534471585786 8:1.5163050112297793 
1.0 1:4.624469613696914 2:4.70817689220397 3:1.6794391132361024 4:3.82368528376546 5:4.6647135998590405 6:3.595650175416455 7:2.7712469488810876 8:1.3662917964563848 
1.0 1:3.6124899706992735 2:4.514781378672776 3:3.7688618165036614 4:0.7029019510311507 5:4.94513668771925 6:4.387873031701809 7:3.9017058501666755 8:3.649839700658053 
0.6810415406026553 1:3.831015914331586 2:4.176278464020147 3:3.1090632304330934 4:0.10491941348486315 5:4.48099778372231 6:3.6259164646868274 7:3.791112598641317 8:0.9420699154066535 
1.0 1:2.204094337468822 2:1.0997270220010449 3:2.7016405937709527 4:2.981875888617392 5:2.7753101005798366 6:0.9342670701053436 7:4.098756833358 8:3.286658150810621 
0.8602093517830925 1:4.259517138346771 2:0.9967047729285792 3:1.119706514293561 4:2.4731093944657854 5:1.2588700421039125 6:2.1351806756648615 7:0.11133441786940135 8:0.8508942291417178 
1.0 1:2.819289726664547 2:4.749328866423169 3:3.7680398367445274 4:4.788925221727847 5:2.615567319130643 6:3.184165857368338 7:4.882337581091465 8:2.038187044059359 
1.0 1:0.005573841807934962 2:4.773839893313601 3:3.7389112906108535 4:3.819716023914351 5:0.35315591961338155 6:0.1670851496199346 7:1.1954073752505971 8:4.355587530554345 
0.36134223839362856 1:1.9962430670045275 2:0.01385987059264074 3:3.332904324129714 4:2.5313691991247875 5:0.13971106058293106 6:4.761907220750179 7:3.3960061894478066 8:0.9437999588505634 
1.0 1:0.6325628285856917 2:4.217539304654623 3:0.13799753415808597 4:0.8446036083509637 5:0.9767211315234295 6:4.3883902242677 7:0.08738777741512167 8:3.391558620873001 
1.0 1:0.014732181918638742 2:3.8268606688534494 3:1.1815621510435572 4:0.8908771858858244 5:0.2502338074533077 6:2.1267646267287206 7:0.7575771607222783 8:1.675647654693922 
1.0 1:2.566073799741888 2:4.524108603907947 3:4.74699648608489 4:1.1157192429524498 5:4.725199923275851 6:0.7119808712951611 7:3.844124254594799 8:1.3884825437280097 
1.0 1:4.023190024558252 2:1.1805933721080928 3:0.8709714841522331 4:0.5362984751302825 5:4.861997022054028 6:2.9765223167669155 7:2.0149620810740223 8:3.8143688457216567 
1.0 1:1.8081192429402235 2:4.567223182847845 3:1.1149906157180425 4:1.9974520592666332 5:2.279731258269543 6:2.218642931008579 7:0.49426355392619153 8:1.6030727653332018 
1.0 1:4.172927136278376 2:0.9794981267896586 3:4.838483338674668 4:1.3420137743332277 5:3.4108779636307722 6:0.8703902688905499 7:3.172392004226342 8:1.7995498438910902 
1.0 1:2.6620582622457714 2:0.921177464660833 3:0.2392543634398284 4:0.021996846564419574 5:2.7697422665074223 6:3.613903726892783 7:1.7579667672152401 8:0.8153575514903315 
0.942109897695875 1:1.5257997145919737 2:0.7529686551471099 3:3.9794952830175454 4:0.11269520676361384 5:1.2657880012998937 6:1.2298807891717123 7:4.591856265707853 8:2.787403081502136 
0.8185322339123376 1:3.678213700404847 2:0.7316345060641997 3:4.0488029361533515 4:1.1476677088194767 5:2.559838069058225 6:1.1206828377515887 7:3.025522839784398 8:1.6214402820912044 
1.0 1:3.307755585546375 2:2.6371912727475646 3:1.9335383920766156 4:0.5434759120667959 5:3.2205346411703695 6:4.778576296612514 7:2.3590953271217847 8:2.5988622198086073 
1.0 1:1.9005724815993505 2:4.712270716829474 3:1.364222527340594 4:2.5096888857662427 5:3.746605529212906 6:2.051728755934167 7:4.179964925588623 8:1.7079146011233233 
0.7601095122378179 1:2.563558449872609 2:0.24798608240493042 3:1.0705269424834936 4:1.4946732641025886 5:1.635750717030856 6:4.797027013891814 7:4.647481151862496 8:2.858561580638823 
0.25055811309355136 1:2.628385427483424 2:4.778202550372158 3:0.12852004935318628 4:4.389855634597443 5:4.190553275842005 6:1.790386688109972 7:2.278182095193178 8:2.2923482619349342 
1.0 1:4.729151267403037 2:1.7757647214436212 3:4.167664590589163 4:3.8941854667278712 5:3.2173774355114997 6:1.3759566404498724 7:4.2328251373727115 8:0.3517978116443434 
0.5531712918991822 1:3.17525965697356 2:4.622087570804286 3:0.5525908318471202 4:0.8307110910168631 5:4.350413897048618 6:4.712966881372199 7:3.0738158169798036 8:0.5553198652419208 
1.0 1:2.2942150971494644 2:0.6080812057039247 3:3.19750224721149 4:0.3346180310303046 5:1.3580706308422688 6:2.854878841799782 7:2.515521708386601 8:4.781603683247121 
1.0 1:0.6558151416647034 2:4.352117083754905 3:1.0854001410573437 4:3.6403518436892854 5:0.12897326723665856 6:4.247883571863679 7:2.7847714924225646 8:4.814692105872106 
1.0 1:4.897393705945415 2:0.20531291400232912 3:1.3745358117819022 4:0.3738779768912634 5:3.734427136211352 6:1.5730291901975428 7:2.7709407603414875 8:0.8164947887875829 
1.0 1:1.2415451462760794 2:0.52217182550771 3:1.3114163054730241 4:1.7423966336511565 5:1.8181725603761556 6:0.012466978076708282 7:4.414300651273481 8:0.3786768942429489 
1.0 1:3.2349289532387813 2:0.5271030339554896 3:4.85441479650996 4:3.89745296160325 5:1.0089278996784783 6:4.573277850130255 7:4.7865139916286195 8:3.6579245203304267 
0.20443561157901224 1:0.7993164508748055 2:3.152684267478154 3:3.725374324539084 4:2.1998329139749977 5:1.0117774280806657 6:0.44874900366346054 7:1.429926837133172 8:4.840234312240005 
1.0 1:0.07765088598996309 2:1.213164946110769 3:0.9192201189775777 4:4.288585589023769 5:0.19059980206769545 6:0.6919709902875972 7:1.298389733335277 8:1.9527434503961343 
0.16298398442893366 1:2.152451220731116 2:2.8872319811626257 3:4.379520507122855 4:0.09890539697537445 5:3.904476969173548 6:0.06437798676662626 7:2.855282770280946 8:1.206086294171287 
0.6955401494182503 1:0.8982061784145061 2:3.908302385180584 3:1.2636107578721687 4:4.178428401402359 5:1.4108164795553242 6:0.2614036790994483 7:4.04957410815514 8:0.536060316908727 
1.0 1:1.7896254405904797 2:1.3938025963929177 3:0.6182567050952025 4:2.0841674043982477 5:1.855801381747454 6:1.5606779029382594 7:1.1214446657244592 8:3.537006676385542 
1.0 1:3.9887141471951764 2:3.0694347181492048 3:3.148032535752134 4:3.3994584311546836 5:1.0336871938696106 6:3.6954613408571815 7:0.36809368293075784 8:0.6821369272703547 
0.5627504590306835 1:4.750847538435101 2:2.730666987404517 3:4.628001751924456 4:4.558556107021681 5:4.158268234612122 6:0.17513856467785874 7:0.6957196541004349 8:2.639548538073461 
1.0 1:4.810816313820505 2:2.061195750448622 3:4.448857316233163 4:4.746024521299602 5:2.226654141459995 6:4.169378639745061 7:4.521482403331791 8:1.3273267996791493 
0.5969515489277649 1:1.690799959369944 2:2.9875529720062053 3:3.0384997511444443 4:0.15313365288459993 5:1.9684310073016895 6:4.705309470545936 7:4.854630920947598 8:2.589634684851951 
1.0 1:2.0651422017903203 2:3.6004320787815973 3:2.0417650699548773 4:4.272757849491731 5:2.6023177530604067 6:2.9418460383906004 7:3.4452366229542055 8:3.3837184540470777 
1.0 1:3.5692205862441333 2:0.9030963609781612 3:1.106875091977257 4:2.5218767783904816 5:3.4291845271363277 6:1.2586264526942612 7:1.4036264407747185 8:3.2829372083402113 
0.7665593966990968 1:3.001527053120726 2:0.13435331663275896 3:0.26011381824526525 4:0.5725759461377941 5:4.7857578462606485 6:0.23015021806751282 7:4.080712736201139 8:3.856390677793243 
1.0 1:1.0337158697431432 2:2.1425317695285426 3:0.5902229017303744 4:4.252926185401391 5:1.6484181765926567 6:0.35610095270234426 7:2.192713500242446 8:3.4615250547367182 
1.0 1:2.057457382659461 2:0.7079925498374037 3:2.7143390219503045 4:0.3057198165304089 5:1.2696149142725965 6:3.3371794430792865 7:4.91763125606527 8:0.5832548799796793 
1.0 1:2.7344425743710303 2:1.0595886370341725 3:2.9839113432348636 4:1.0791808130608291 5:1.6291078965202057 6:1.656807418015448 7:2.4347270684245963 8:0.4598270740433601 
1.0 1:4.530959243895552 2:2.3664975574557032 3:2.159315125371805 4:1.456981011039673 5:4.8589209413060255 6:0.7746753316768089 7:1.1965806803006078 8:0.5098068085762363 
1.0 1:3.2502548160224185 2:1.4927737222850046 3:3.6197200370233955 4:0.15797965937646852 5:2.4684880068581925 6:2.8093775207113816 7:3.8141591460260815 8:0.44328837336395793 
0.9031493261387029 1:3.3517324447432437 2:4.285471256955702 3:3.6182638795181803 4:4.990061621167784 5:0.5304499645852759 6:2.226672319241667 7:0.1739734790833228 8:0.3036313439679435 
0.33271571264700406 1:1.3065413365834337 2:2.8670530813482777 3:1.3359722106099783 4:0.15944529302078725 5:3.3173977417035405 6:1.3189024914556926 7:4.288715977534928 8:0.8580655845092376 
1.0 1:1.3123083627059111 2:4.965860146401997 3:2.6255955369887074 4:1.5623690306950049 5:1.7844943882344497 6:2.6999535109260044 7:1.4967337936008764 8:2.4124472377842934 
1.0 1:0.7539638632827507 2:0.9320809016600348 3:4.8984628421454 4:4.854587811998787 5:0.20974133114268317 6:0.9413388828887062 7:0.3806354074917823 8:2.1323415754164152 
1.0 1:0.9996957941532184 2:3.746353728314721 3:1.1983386232985234 4:2.722937547631985 5:0.3944277336141995 6:4.407135535851822 7:3.1191550684917466 8:0.0700442459705952 
1.0 1:0.8803558660362456 2:2.822347031895629 3:2.010901197828267 4:4.209940637072643 5:1.3530356818464766 6:2.086670533153554 7:4.999003882737054 8:4.822881624650583 
1.0 1:2.334337786833649 2:4.069329090777017 3:4.445382011853272 4:2.9410526260684646 5:1.0273872025375324 6:3.4223888324751073 7:2.2332907097286765 8:0.23834396741787184 
1.0 1:3.8416918609220154 2:0.5081809822767065 3:1.2087512840717933 4:2.618496512175335 5:2.474274183640201 6:3.4824793582531637 7:3.6148178406195273 8:2.407253254781388 
1.0 1:0.7674270930807384 2:4.754525273515773 3:1.3666947067515414 4:4.553644440539344 5:1.2132081627622984 6:2.0618546406647265 7:4.4962457380558645 8:4.096284596115381 
1.0 1:1.0857732438357932 2:2.493855671940274 3:2.218802765868046 4:1.9478138899467135 5:1.8442912089914414 6:0.3842588094647163 7:3.1270496537106536 8:1.9681753954390788 
0.3885030206332106 1:3.775288171796598 2:4.256138706775111 3:4.524101270035444 4:1.8559305644421333 5:2.430957852867351 6:1.6405758252223377 7:1.6899242797503065 8:0.470906300019202 
0.056370004803782216 1:2.6831346977579353 2:4.76915891182784 3:3.0915754875420114 4:0.6290766473775816 5:4.175866295695862 6:3.06257885517244 7:2.3910215781275492 8:3.467037681072954 
0.7812123985595623 1:2.414522558001755 2:0.5375623892904863 3:4.792910449312897 4:1.9864630042849527 5:0.6477675936025338 6:0.6095660016949176 7:0.8046435548138955 8:4.386913317752957 
1.0 1:4.374421638954534 2:2.9767938132135936 3:1.017868012202369 4:2.1166724303739244 5:4.665560910168063 6:4.263911205262162 7:2.858924139725038 8:2.9227199119324636 
1.0 1:3.450717397768406 2:2.510254552672913 3:1.8194006229876272 4:2.8223636589233005 5:4.930464822275382 6:0.9455192548612718 7:1.6306676606975008 8:4.307232137132537 
1.0 1:0.3133658767520548 2:4.813767418842271 3:2.690829699259323 4:0.17396439938183492 5:0.35689325327231836 6:3.198759218288677 7:0.03066299340643546 8:3.0064028085640007 
0.36336039033407763 1:0.5792681511999644 2:4.887296146925883 3:3.343183818407792 4:1.6053243056456517 5:0.2680587792579276 6:0.9943806044399182 7:0.3866461256525076 8:3.6282313694124375 
1.0 1:0.41212978581435666 2:0.018935036232408067 3:1.2712469380497888 4:1.9081802122256326 5:0.2827677980264731 6:0.24722124233421322 7:2.064584097330469 8:0.2928621678751648 
0.21326842929219356 1:1.7127100088945704 2:0.25067623591283633 3:0.06834211952831226 4:1.3674306564013843 5:2.0113559619266446 6:0.9619763380074197 7:4.703591703649965 8:0.6663137530096782 
1.0 1:2.256907687070907 2:1.2381577926635692 3:4.5732219643454854 4:2.8575754887621008 5:1.2432660115047807 6:0.6322357512143483 7:3.177022125904341 8:0.17649691252962302 
1.0 1:1.3995039320925253 2:3.390780493269389 3:4.824688510949977 4:1.557215594158122 5:3.7762611346157264 6:0.20149117474087538 7:4.999613273540423 8:4.980757853195256 
1.0 1:3.6474119322262837 2:2.5543881301901803 3:4.476642794512968 4:2.7948226367823223 5:1.1600426316790127 6:4.841718456074931 7:4.512433159830312 8:0.06591903845448473 
1.0 1:4.194705869713909 2:1.2774769286703265 3:3.7719381317178597 4:0.04566178990552925 5:4.0102682323374 6:2.7494961364003387 7:4.89262675289204 8:4.454424725311078 
1.0 1:1.73360230948667 2:4.674983297894946 3:0.28342527306726073 4:1.6095684401713473 5:2.637525528400721 6:4.75625445968071 7:4.217849401639155 8:1.0664965977893213 
1.0 1:2.1685322517604666 2:1.7586461356713943 3:3.125659870772297 4:0.7895345516963898 5:2.458035629905683 6:0.1609504129539424 7:0.6328086101877733 8:2.576882743265412 
0.027472445231871836 1:0.6175383401056554 2:4.524649560134334 3:0.14834143021182095 4:3.9972457694793464 5:0.7236014367486759 6:1.6051889265096366 7:3.78269225962702 8:0.32026543733522195 
1.0 1:0.01580183244923601 2:1.8338184675213414 3:0.429168913683302 4:0.6890645870301162 5:0.08712090459121857 6:1.3974929949657768 7:0.1529880140522139 8:3.384241388743667 
0.2672832951611374 1:2.184548336615029 2:2.3622898478051986 3:4.63556287371025 4:4.219584516695751 5:0.6910938618068022 6:3.9680173708854514 7:0.5751452438418776 8:4.381605972574469 
1.0 1:2.7245758277207854 2:3.5688668801345877 3:3.8346143608351224 4:2.1754386643881354 5:1.2020929905283122 6:4.834901869010347 7:2.1767435473417454 8:1.0957562853884621 
1.0 1:4.548022414321292 2:0.6370179310651516 3:1.3152942000163617 4:3.1261262649938595 5:4.2443151692126015 6:0.005125313134167564 7:0.9752790751587143 8:2.327697344149948 
0.1826664358195248 1:0.6368724056513333 2:2.132895735425761 3:0.6879459830180734 4:0.8455994169106785 5:0.7155843496502862 6:2.1138429368363965 7:3.2104997157162853 8:1.1249915450300403 
1.0 1:4.811049398791496 2:3.081621565361854 3:0.9452522014708252 4:2.3634641634135436 5:4.45856392528874 6:4.811412071828907 7:2.3897512791364557 8:4.210398728638948 
0.6484594741994764 1:4.911714039418095 2:0.2615857736024498 3:0.2246154411892916 4:4.438554757482293 5:0.16437392262765416 6:3.5217799646270773 7:0.4051614231608019 8:0.36748131775112913 
1.0 1:1.695928504771299 2:4.736141585505101 3:0.2524808779745701 4:2.9316472384670336 5:4.1429419091765824 6:3.0124522638634157 7:4.484672343213021 8:4.209242521953788 
1.0 1:0.43482027851024424 2:0.9145474405721151 3:4.171406001044614 4:3.4966923126582503 5:0.24743374789960484 6:2.255068606793886 7:1.5633059874730453 8:1.2342536159681847 
1.0 1:3.212551110241895 2:4.914850029275196 3:4.204931456279548 4:3.7811334479130347 5:4.844402661616779 6:0.03811072807490803 7:2.142526872984779 8:0.8177830964078936 
1.0 1:1.024180061652629 2:4.02180922235385 3:1.509883710831364 4:0.04119209684851214 5:4.162184465207702 6:2.4947788933022466 7:4.264346909215644 8:3.8526413334472385 
1.0 1:0.7169962108153511 2:2.6896132749202453 3:0.4508444101496131 4:1.3509397020172622 5:0.1309591171381044 6:2.6794396700184637 7:0.26496710983857963 8:0.9987661404802237 
0.9544376936509311 1:3.8596565744411917 2:0.6264255826358212 3:2.453964804973438 4:4.757544027796096 5:0.9579691478022158 6:0.49529561891775287 7:0.39341007831129293 8:0.3745260986634258 
1.0 1:1.8627333773152395 2:3.2416948656484514 3:4.816067855953317 4:4.878486831621396 5:2.6178266226450333 6:0.5863747122226736 7:4.739256759881371 8:2.0074957870040966 
1.0 1:2.004281702146286 2:1.994419020847807 3:2.379969004146998 4:0.24307110138861718 5:1.9524425543187356 6:0.19193188065362116 7:0.03621904601070712 8:1.311471987542526 
1.0 1:0.9259441241563977 2:0.9972458349350936 3:0.8710510920420396 4:3.582062780520089 5:0.13188851333577006 6:2.7213159671821305 7:0.48377702259841326 8:0.1490902759150476 
1.0 1:2.656758464975909 2:3.9462452243260686 3:2.2591296601541115 4:0.3160041213768288 5:4.910993317814365 6:0.622466275649603 7:0.014502913465397439 8:1.5502215569634714 
1.0 1:0.6185512971390962 2:3.618443355455698 3:0.44331390950799604 4:0.010642237637830551 5:2.713302985327942 6:4.38953602519584 7:0.7143316469614243 8:3.8100622309275693 
1.0 1:3.830725772696431 2:1.4373689203838869 3:3.8776949687539126 4:4.522396245213414 5:1.5915816297325092 6:3.5697031693326293 7:1.6949068808221914 8:4.545634805721366 
1.0 1:0.9264939488597185 2:4.449255755159872 3:3.6070011591813698 4:4.863146036800801 5:0.6772080588125692 6:3.7119946094554153 7:3.9038377088296876 8:1.3602162529343418 
1.0 1:1.995853131035858 2:3.8212615594718113 3:3.8498491207420025 4:4.593721762516914 5:3.6457963457039506 6:0.24946058069013266 7:4.9946724262304185 8:0.0086669924651921 
1.0 1:4.630395448878072 2:2.878626474583114 3:3.7766462298096024 4:0.05116507067614702 5:2.9819787867804273 6:4.766284464314541 7:0.39987396822352494 8:4.913733290834434 
1.0 1:4.276267558108775 2:3.752729412124501 3:3.7238061746279953 4:4.911198356433401 5:3.4627992036012514 6:2.8657529998245566 7:1.1482340433447096 8:4.849955903216203 
1.0 1:3.835395280650077 2:2.7776365820107105 3:3.5302297883054363 4:4.9681870253385325 5:4.5085438330627845 6:0.6525837674340588 7:1.6632291349869457 8:3.869773631109193 
0.9181447642817655 1:3.3930791653329604 2:2.7094483903564828 3:0.32915842337229123 4:3.7109939270395413 5:3.9387307240150076 6:2.4465890820039373 7:4.665285923206938 8:0.9629320641287987 
0.11165257101295684 1:3.657909992171984 2:4.947394324908845 3:3.6473027197375547 4:4.057424729296699 5:4.746404655044193 6:1.0840278295009418 7:4.573016229509737 8:0.8300108259690784 
0.19228838997790226 1:2.0360030460167304 2:0.5846358935985513 3:0.10421908467501009 4:0.241361424513726 5:2.129262386969107 6:1.6112992662879364 7:1.6446850413388931 8:1.7823149651824328 
0.15203057954413704 1:3.0109117805734513 2:3.16029156299629 3:0.6369558787104115 4:3.9231019047796196 5:3.5254521402082744 6:3.789559496058648 7:3.335045181383703 8:4.040442252075102 
0.9275866337257345 1:4.214101607953495 2:2.7117604242850586 3:2.1443611695363103 4:2.2739679138345594 5:3.421173055045547 6:4.89165249896284 7:3.519203085788971 8:3.087441831571706 
0.8238323529224252 1:3.555620840278719 2:0.784512970966438 3:4.615895250228746 4:4.1509288629302326 5:1.4994310333946976 6:1.7040814161342426 7:1.941039994711802 8:2.053402516839895 
1.0 1:0.902000287816622 2:4.429651590556473 3:0.1347596177588498 4:0.8508542506629903 5:2.804653374401133 6:3.1040578251332986 7:4.621690032467114 8:1.8942235375628318 
1.0 1:1.4243360249613424 2:0.8244248627381877 3:0.9573290342183666 4:3.2240795913820133 5:0.44797825893367765 6:2.985596625559136 7:0.47709481541221316 8:3.6174609152182433 
1.0 1:1.8991928719062754 2:0.8563355041881056 3:4.96723422772306 4:4.717049737861705 5:1.6306765896865794 6:0.007796307222441648 7:4.427301448363384 8:1.2017121346212802 
1.0 1:3.497636194460225 2:1.9166769085796358 3:0.5996502150923881 4:2.9098693233706796 5:3.1633632404334926 6:1.4781098363898235 7:0.4249505109960982 8:2.378692846784669 
1.0 1:2.9347910783407425 2:1.8386960781586872 3:4.602213383155626 4:0.13690400037345754 5:3.2320569762944373 6:0.8765311079701664 7:1.6955288023704749 8:3.764866977529535 
1.0 1:1.6176349643577412 2:4.53326274684445 3:1.0411685881613792 4:1.5975716302679066 5:2.05027945034589 6:4.7931339223697425 7:2.386038732275544 8:2.313311577951633 
1.0 1:2.624792741995414 2:3.17437507290928 3:3.7096915785751143 4:0.3223342565102495 5:2.317809495133677 6:1.1715082304251851 7:1.0700261423001851 8:0.16257385496749896 
1.0 1:1.0531493143897677 2:3.500845726197323 3:3.7847672658173312 4:4.7092915239573445 5:0.04929763088366508 6:2.6733214864687778 7:0.33917293751325905 8:0.6890691175031468 
1.0 1:4.3411446058726595 2:1.8608341256704328 3:4.977008428649688 4:3.211562923176374 5:0.9074789936177962 6:4.726943441008698 7:0.4658930726008623 8:2.1535388227845136 
1.0 1:2.181707303139042 2:1.834921227544933 3:1.2563122231287578 4:3.9628351171671627 5:3.8839813694810412 6:1.0194696956357678 7:4.814458492261375 8:3.2494866177831696 
0.3450079700891644 1:2.737707798042629 2:0.12043093769106653 3:3.7900019716387523 4:3.265516752295243 5:0.230722015657484 6:2.2180650525886327 7:0.4562878214596496 8:0.6997059752830397 
1.0 1:1.5727900760180982 2:1.555871830600712 3:3.9140646967596484 4:3.5380428617754407 5:0.14992214015797448 6:2.47795836391865 7:0.4752655431229289 8:0.373856597892192 
1.0 1:1.0332484798659136 2:2.4751824002719864 3:4.190794266773866 4:3.038256775023091 5:0.6084513216020528 6:0.8396672129610334 7:2.1391385212769958 8:0.5108561873213759 
1.0 1:4.8416539810212535 2:3.8375138115577623 3:4.884482951503114 4:1.987937037076565 5:4.189104466611616 6:1.730860727368951 7:1.2914334954507434 8:1.9337583811233163 
1.0 1:2.375383710777156 2:2.059825239334737 3:0.7124690072161439 4:3.1219183142379516 5:3.830016070942437 6:2.3235982392813437 7:3.778306863120196 8:4.851747726292682 
1.0 1:3.942233012367284 2:1.4315271236540812 3:1.2953155375287972 4:3.289439126042948 5:4.1557927994858 6:1.393409022041497 7:3.097750556890199 8:1.6462426115934632 
1.0 1:3.659150241779615 2:1.8954909483242277 3:1.659329013196633 4:0.9503850929291006 5:2.374064185529003 6:2.6310679140325894 7:0.408970137766056 8:1.4739350342197621 
1.0 1:0.46563046859455764 2:4.73886650502292 3:1.6288625519339184 4:1.2865471687265375 5:0.8556051472480658 6:2.38649068776176 7:2.909183755043602 8:3.8331267496550057 
1.0 1:1.9541809585867373 2:4.96106861571697 3:0.03788679848035474 4:1.0315252325633395 5:4.840943635794458 6:1.8873988797460703 7:1.3226840230604768 8:1.3983925548761444 
1.0 1:1.9647095666290095 2:1.5394743521770555 3:1.0153185870996093 4:3.9411508693145807 5:3.2031829283655613 6:0.6037728571829423 7:3.8239518893151287 8:3.049188422540798 
1.0 1:0.30898980340295107 2:3.752083587172686 3:0.35521218325066783 4:0.034226208051838534 5:2.4364802549183504 6:4.354576605719779 7:4.882597860214491 8:2.285414863117957 
1.0 1:1.9083380649132755 2:4.31987474564148 3:0.2608550299129343 4:1.79287883247583 5:2.8299168118505924 6:4.627132388659134 7:0.8625088795636547 8:4.426498991759506 
1.0 1:1.8030550144778643 2:2.966866114385067 3:1.1644654728996695 4:4.635908691557232 5:0.2574564008353999 6:4.692687039627713 7:0.19100880664058142 8:1.2891789727173 
1.0 1:1.4945606791191852 2:2.786729788170057 3:4.092667255071077 4:0.9317036090481157 5:0.5738205203791901 6:4.983006525871191 7:0.5710273751276953 8:2.634276133730236 
0.16113634580857658 1:0.9758133978860355 2:4.785993624313893 3:1.7134433823836177 4:0.6128469551919171 5:3.237855861292853 6:0.09259400327829305 7:2.4796148841412116 8:2.9651162622102167 
1.0 1:2.371647241038469 2:2.1108268405902466 3:2.5200509379257627 4:4.094293756857206 5:2.3197414063925024 6:1.745485009318468 7:4.367996392560657 8:0.6837033757421334 
1.0 1:3.409548858835902 2:0.24459275558801163 3:3.2398256896646944 4:0.5489008197760635 5:2.3571852170258696 6:2.012895756639455 7:4.0708661400892145 8:4.728713927526322 
1.0 1:4.140994582199627 2:1.9249201889853351 3:4.065245465350868 4:0.6395583002741764 5:2.399546491179159 6:2.693107050266158 7:0.7567755292489262 8:2.6828059298029436 
1.0 1:4.660645182226979 2:0.10492976590358946 3:3.6529150301648436 4:2.7618204553669 5:1.7341455268782693 6:3.852273181433675 7:4.952695468142354 8:3.7265253101509663 
0.48508767578362816 1:2.5415017075888096 2:0.3536158135407507 3:0.8937520955846074 4:4.374266565460454 5:1.6617516565612536 6:1.4560375847289093 7:2.638227686728237 8:4.883710513187427 
1.0 1:0.2182991950513719 2:0.6730465152976292 3:4.139756703565172 4:4.115237196151059 5:0.6118783278417594 6:0.8194535611321059 7:3.2591130810793962 8:0.8731223326129913 
1.0 1:1.1375886487864464 2:4.365519757354344 3:3.086567756070443 4:4.936662941492553 5:1.555416988525328 6:1.810876887787997 7:4.87555856455008 8:0.8859383130400951 
1.0 1:0.5513459025913137 2:3.9953104139305133 3:2.481350664248198 4:0.5614662743477615 5:0.5148534442608421 6:3.727392000889098 7:2.8806182802193514 8:2.0486006172598086 
1.0 1:0.9662579019870449 2:1.8815940449863073 3:3.46707914286816 4:3.940352898661969 5:0.3608078564278344 6:4.566240662560404 7:4.723098632301388 8:2.2265332501516943 
1.0 1:4.256167894247988 2:4.673593820540898 3:2.726614363852011 4:4.7427469611698685 5:0.46555704474268395 6:4.659483920476427 7:0.8514416934697713 8:0.35311864163191714 
1.0 1:1.4603178007672142 2:1.0282545395550138 3:0.6660155664507424 4:4.888065608555703 5:1.2597934582726995 6:3.8416662994404858 7:4.936992090299223 8:4.039130174311221 
1.0 1:1.0951742185864841 2:3.1489786980402767 3:1.6566385881746348 4:4.943498160112525 5:0.74205981771231 6:4.429587305974793 7:1.7071053345314047 8:4.535323073479705 
1.0 1:0.6174627373007843 2:4.836853573663629 3:1.8137164696284893 4:3.255568819175863 5:0.05230079918080221 6:3.609319113005276 7:1.0388856697023028 8:4.123532947839089 
1.0 1:2.1344681503331246 2:3.5844531635419554 3:0.6739840263731811 4:3.999740388626983 5:3.3539646653702837 6:1.7996476376582855 7:3.6850122120123894 8:1.4988062850062909 
0.5096451524466079 1:0.5761559241302094 2:2.1453399559519037 3:2.377060777426257 4:1.018884889542184 5:0.6917590556179386 6:2.026148340491595 7:4.448904159476301 8:2.8815255622037412 
1.0 1:2.1813924577949972 2:3.6809202630377373 3:4.705182851125081 4:4.4220172645388125 5:2.0286703769420713 6:3.294577869584934 7:4.172144388767889 8:4.493534816461358 
1.0 1:2.10843862082314 2:0.19780268227707032 3:3.904519023231977 4:0.5810577673274965 5:1.5251937744481376 6:1.3281788061771955 7:4.170451492853962 8:1.2970773926443058 
1.0 1:3.14271381178634 2:3.510220788547995 3:3.810182709526048 4:0.36079139997000725 5:4.586339642398774 6:1.770897750877638 7:1.0680307726931038 8:4.008103918249456 
1.0 1:0.044294671636496925 2:4.575010454689476 3:3.891455739805803 4:0.30034611286796925 5:0.42374476756442325 6:0.06822793183486443 7:0.38325619847186 8:0.8683243605535818 
1.0 1:1.0843619368148372 2:1.8645332422737633 3:3.404012611353142 4:0.019140671378977805 5:1.7608796872674746 6:0.42726326775890433 7:1.9146539723922433 8:0.5608719413341657 
1.0 1:2.1044241221446476 2:0.46457587140233747 3:3.3488162739581124 4:3.875104035568817 5:1.778348290304526 6:0.0486148096947655 7:1.6673653391141359 8:4.048353662295557 
1.0 1:1.6101513610522922 2:0.6325081330512561 3:1.7565188259940216 4:0.9206827311756757 5:0.4026850339247248 6:2.676486120800209 7:0.5035181619210866 8:2.5099998340834078 
1.0 1:0.06528336109652737 2:3.3265466673945205 3:0.6159897225659843 4:4.717684234024846 5:0.3904434448968022 6:0.6619079895120349 7:2.575546561710815 8:2.9851340402784157 
0.8046400982903135 1:2.461309834790997 2:4.916267308153079 3:0.15250410294421116 4:1.6187322378823115 5:4.187135867300382 6:1.6788164054423305 7:0.13088240326205033 8:1.587395594672452 
0.38506476709763243 1:4.527142269050573 2:3.3796805025161913 3:4.797833127231321 4:2.5103555512876565 5:3.3148723836325362 6:3.7049526433891597 7:3.6943229177456627 8:1.948365812695576 
0.4023365662078935 1:1.748278507185785 2:1.8713244253861403 3:0.8397071712926854 4:0.45688920638241237 5:2.3634264484316123 6:0.40293416995094633 7:1.827052042900835 8:0.6506768771111926 
1.0 1:1.6421718434387924 2:3.11567950398186 3:4.00241694699645 4:2.694669852226393 5:1.5693026453903953 6:1.5036155429030986 7:3.036478092802693 8:0.7968134676802108 
1.0 1:2.5984443121219134 2:4.238046401850177 3:4.013568567598622 4:1.002709712761338 5:2.7481249098602394 6:1.2183260949213903 7:1.7673907882058002 8:0.41648164600744647 
1.0 1:2.8235984803303635 2:1.2849435825860989 3:0.2807724709084501 4:3.6922042799655714 5:4.329376017430608 6:0.3001035559109657 7:1.9762037767070546 8:1.656091670973125 
1.0 1:3.9570216361609303 2:2.9341683720698395 3:2.328320514043452 4:1.2443397500165476 5:4.978318313482804 6:3.84437346110067 7:4.309914036360764 8:3.975790994432966 
1.0 1:1.8089635988366868 2:4.199801559477065 3:0.2731190543951339 4:3.9679582200292147 5:1.5023808683613258 6:0.8888680600169475 7:0.07956949750151175 8:0.8700326119515075 
1.0 1:3.837579382647956 2:3.690155602058681 3:2.8096976473916953 4:3.1265788032680186 5:1.6992042914676433 6:4.258848185152595 7:0.8062383335987567 8:1.1967360059622967 
1.0 1:4.972921774618816 2:2.3895879544933116 3:3.770450021765537 4:0.6765583646917953 5:2.6569866346227085 6:4.816509379301284 7:3.5141408020814913 8:1.3238706503429778 
0.8841992974090879 1:3.7284437109872806 2:4.851659233131976 3:0.7930174321174243 4:4.652953543314154 5:3.5269836049982426 6:4.578465019047851 7:0.47799580798423347 8:4.938097664316272 
1.0 1:4.9452156668638905 2:1.4237431723998186 3:1.7956326201689405 4:1.0713090971356303 5:4.138022658694342 6:1.1741079592253103 7:1.4158874154666237 8:0.6282854124594114 
0.7696384330956162 1:2.4652304333273687 2:3.1144157015581624 3:0.6032681294867515 4:0.08294243401163869 5:4.2701063090422 6:0.6757412372834446 7:0.4614396752490258 8:0.7913047815997876 
0.059213685320010485 1:1.3568799680486407 2:4.529163220968724 3:1.0896902495175393 4:3.737187642439941 5:0.3829232901045895 6:3.7124707214232173 7:0.025586309471167547 8:3.4492204014517793 
0.10805757789629826 1:2.8689512974853746 2:1.0929535945197029 3:2.4635667191435866 4:3.9362884567136462 5:1.3992007463531813 6:1.5867374814167512 7:0.5632801441242433 8:3.867781711635037 
1.0 1:0.5188970463127692 2:2.8110531080650003 3:0.30168880784880275 4:3.6867198150035994 5:0.5539460851075493 6:4.410862180842998 7:4.339870923879664 8:1.607139390997563 
0.2424043731761964 1:2.3685264379112763 2:3.841025340916251 3:1.2130131182199904 4:4.921516222948713 5:4.694559296455977 6:1.1989026827399625 7:3.9179140537779324 8:4.0289501084444 
1.0 1:0.5993079562408253 2:3.4870150288966713 3:3.4222446039907384 4:0.15642584207153 5:1.3365739535007608 6:2.0720412434928788 7:4.127691120029808 8:4.94958225117317 
1.0 1:3.070222553947953 2:4.684159662570508 3:2.4273105615073836 4:0.6110040578319721 5:4.183870832205124 6:4.837131737460206 7:2.0100930374100234 8:4.049911214577749 
1.0 1:4.578525335018759 2:3.4293246831510746 3:4.104734078938055 4:4.671689744606446 5:2.649638591993705 6:1.850738322413698 7:1.1991225181167906 8:1.4164876828068171 
1.0 1:0.8900187438768008 2:0.3963164577862015 3:1.316006025976338 4:4.508393395347864 5:0.4390340268857565 6:2.053896662907811 7:2.470910416251928 8:2.523918012596743 
0.05776728801658895 1:4.93656653440433 2:0.7902037163240128 3:4.711949987585292 4:4.846060561206998 5:1.9513284610913795 6:1.1148900952328558 7:4.687211348696233 8:0.5253473400630246 
1.0 1:3.666301233432099 2:1.9470116993591389 3:1.1134224252789702 4:3.3048628614272957 5:1.409523247615569 6:3.8828298498190725 7:1.113663089500816 8:1.281273464613139 
1.0 1:2.9219870660544847 2:4.135741368627257 3:1.2183510097767682 4:2.957673532392536 5:4.280770675769459 6:2.948472921014459 7:3.4615414690286466 8:1.5707689738753583 
0.23228875921908673 1:2.0037656748466732 2:1.8700504941389746 3:4.901361087286858 4:0.9094931904958801 5:1.0303989933464397 6:4.349842819082363 7:4.564415353285311 8:4.722244556553206 
0.8509685502430384 1:0.9389155025683951 2:2.887597938453177 3:1.9541949156244252 4:1.6476270694843407 5:0.5876313414419776 6:4.334810121562853 7:1.6272631901599894 8:4.140788799909624 
0.8563399347669366 1:2.6391853750051135 2:1.363300582875176 3:0.01210886499070421 4:1.0875090992169292 5:2.277991952540939 6:2.3955333767768394 7:0.6168661061182681 8:2.1214753147860748 
1.0 1:1.3849238200214755 2:3.768579732359796 3:4.002551393822199 4:3.208313036977347 5:2.679200792493519 6:0.06859351707963893 7:2.528906894041704 8:2.8451769675137 
0.23522502126190312 1:2.661913336377066 2:1.594126064866614 3:3.648840628301973 4:4.876404198891918 5:0.19193830744532756 6:4.662105369692286 7:1.8728903174294556 8:0.977585013236717 
1.0 1:2.10729659879144 2:3.65959392101787 3:1.2145812704206318 4:0.20159903174891172 5:4.10556121144965 6:4.425002849444824 7:1.5017798483151903 8:3.3497891214324693 
1.0 1:2.914302781695503 2:4.953273543428084 3:2.1040155279905286 4:2.502424711782686 5:3.312898066212441 6:3.9155691059860604 7:1.7206938007730612 8:2.866508530122383 
1.0 1:1.2871848858159964 2:1.0271850450233801 3:3.0715862411560986 4:3.840894262009289 5:0.5907534742478656 6:1.6296966527104204 7:1.5051067013132187 8:4.003530634512771 
1.0 1:0.6950277261944188 2:4.810226517875234 3:0.964534328186408 4:0.25400657235125096 5:2.3498753222323296 6:0.1937130829436145 7:0.8197445794767337 8:1.3245488917433228 
1.0 1:3.387627331781854 2:4.716205499427579 3:3.5656243893572315 4:3.3362547932031164 5:4.128820652385009 6:2.8805231536553175 7:4.1991918410066615 8:2.120053033556775 
1.0 1:3.002751018076822 2:3.0419807407536488 3:2.512047953635889 4:2.323166234227388 5:2.9453841238531946 6:2.913083006288132 7:1.9748217246541067 8:3.06409541422525 
1.0 1:0.9610666262553149 2:2.704828407057524 3:1.0355505110456786 4:4.963978702172142 5:0.9813553842014315 6:3.8528280077213055 7:3.8278834180093146 8:3.845314751791169 
1.0 1:4.388279185318698 2:0.4094548633557811 3:2.4603897439450164 4:2.0334577418980393 5:3.291751382408806 6:1.0004441816692888 7:2.0151055432762726 8:2.602032980509501 
0.8140477900707098 1:2.794564071693774 2:3.8918219336729383 3:4.687830220998026 4:0.7498838336700613 5:3.1961226728450614 6:2.6280157619439843 7:3.3019669293643465 8:1.7908500849315114 
0.0460617702738724 1:3.120204626366424 2:4.69925585513446 3:1.4384459467246054 4:0.9275720262840677 5:4.7540536969256815 6:4.807384160924952 7:2.3400212359039436 8:4.404556884400518 
1.0 1:0.436519178855152 2:3.801351235790471 3:1.3941990384265792 4:0.4783804919043778 5:1.5262585466758267 6:1.8623340078703805 7:3.6891309255898057 8:4.257077240047396 
1.0 1:1.183596930325485 2:4.577362604441888 3:3.417089265051914 4:2.7795501475991458 5:2.208152083113382 6:0.41965573962305464 7:3.0182026787051965 8:2.067976020966025 
0.9655161998286718 1:2.9679928259685617 2:0.056764394440259935 3:4.560354412670799 4:4.477318502577826 5:1.3178883618734922 6:1.1278525772340011 7:2.491579742955316 8:4.030592442976182 
1.0 1:0.13740375918324713 2:0.2853376668054956 3:3.276587424894968 4:0.8033359335666318 5:0.11924601551695 6:4.845423946314859 7:2.787215019318111 8:2.456747236961016 
1.0 1:4.516396419025452 2:0.47717797760064096 3:3.2857455753616867 4:4.532861207923879 5:4.291385711828075 6:0.6126285003051328 7:3.4052515033647124 8:4.939550449881424 
1.0 1:0.9249707255499956 2:1.2907409345525462 3:4.989480274007171 4:1.9512906967773318 5:0.1254476355558322 6:2.627940150859265 7:0.9871312310954863 8:1.0337019177453035 
0.16066487149671108 1:3.8517933692387367 2:4.750387122253135 3:2.597814716289769 4:4.935016377971756 5:4.2852645119219535 6:3.0711353019409877 7:4.473616357560751 8:3.388995900675982 
1.0 1:2.6967261050402507 2:3.909766305374595 3:4.563191604199327 4:1.2944843527396932 5:2.967138229757497 6:3.705798606516967 7:3.0307204160090513 8:3.8830299832493864 
1.0 1:1.7425410144582283 2:0.687759292861996 3:1.5172444583281977 4:0.26447241023749274 5:1.59099736762971 6:2.302814177023964 7:1.540479062631088 8:4.53383228006815 
0.7305766572970078 1:4.62950590467318 2:4.245657409561602 3:1.9936245567242132 4:0.8336192216942299 5:4.0778908851666795 6:2.152668654221448 7:1.4710914654334797 8:0.2903148835962967 
1.0 1:0.534879168256954 2:1.0254003061037127 3:3.7541177152492233 4:3.6137429184495127 5:0.48849915964259455 6:0.46117239157217443 7:4.682745596785462 8:0.4172363355637798 
0.8146454919412298 1:2.1021990330140046 2:4.473912595160308 3:0.37476946297305236 4:2.235402052589752 5:4.037326780370031 6:4.2513690317954955 7:3.834932090019108 8:4.659844228113141 
1.0 1:1.1172321586471592 2:3.9645881378977657 3:2.3735901330847957 4:4.3009554955379965 5:0.7161615128980113 6:4.985331540293151 7:4.222612897352588 8:2.838928376186437 
1.0 1:0.04311912257653412 2:2.620250942544633 3:1.9535060399944033 4:1.1964404898061982 5:0.09997061742809257 6:4.29503479160009 7:2.2448627270438597 8:2.07552381866359 
1.0 1:1.3900045761418662 2:2.018482258656365 3:2.5981458311113457 4:3.231629959416944 5:0.8282891333909282 6:2.0425683942821853 7:0.9928410222356246 8:4.338657269587433 
1.0 1:0.7346173652661914 2:1.014222920240938 3:1.2695344881947954 4:0.8264045954479413 5:0.3207762884591649 6:0.8670256671270087 7:0.9724023215491447 8:4.576962226319481 
1.0 1:2.8959005300919545 2:1.2728918743194175 3:1.5158462959179742 4:3.6876883979482793 5:2.7019202371394537 6:0.26786389871143546 7:0.0683663728336686 8:4.953718408467734 
1.0 1:3.508169757112989 2:4.905779527484925 3:2.7374307121160797 4:3.62506478828573 5:4.804220704756237 6:2.8073979846619617 7:3.7551502728761266 8:2.561110196852947 
1.0 1:0.5370265215738173 2:0.9937797780471225 3:2.478753568450099 4:0.2470574460331642 5:0.2717695411859479 6:1.9462380253513427 7:3.3341119038887683 8:4.415884938044413 
0.061044299781838694 1:3.74968854961304 2:0.9168661395726675 3:4.138234868998731 4:3.934823997225953 5:0.6546704052513117 6:0.7735016536130183 7:0.12618023237644907 8:0.49525678031493153 
1.0 1:2.1548856523167133 2:4.800255988948933 3:2.5103453707125936 4:0.3840913097252068 5:0.5390784502416953 6:4.862854288020627 7:0.7024264746743188 8:0.20999852128644414 
1.0 1:0.7757328121279173 2:4.190642680099977 3:1.7148206743994654 4:0.37000732887625953 5:1.8684116215584519 6:3.443941649539042 7:2.4362260655374537 8:3.184881424312505 
1.0 1:2.546386405047617 2:2.7073166012658754 3:1.7880815039342914 4:2.5183509952786296 5:2.747652400563658 6:4.039609968595197 7:4.685916153829044 8:2.3584513695921245 
1.0 1:4.203320468009152 2:0.9172314790545952 3:3.4208597815779274 4:4.528314214333213 5:0.7538842012849365 6:4.093225355891058 7:2.203099742467508 8:0.6323402926005153 
0.30024865189991584 1:2.2498284442395793 2:1.5280449566505274 3:1.7307280528689508 4:2.6564569423296525 5:3.489140893757347 6:0.051077351536673775 7:2.5872716454994684 8:3.114965463393262 
1.0 1:4.162555246214796 2:3.0635330871464714 3:4.621084876162045 4:3.650307429619082 5:4.613506422433901 6:1.5290613300025118 7:4.007272330689803 8:4.144861299202519 
0.36672759507693237 1:4.856611643736076 2:1.346477723119787 3:0.4778260386004089 4:2.9558723747202755 5:2.0613314547530606 6:4.452065782077211 7:0.41424622050273463 8:4.2331227163305325 
1.0 1:2.206877671663196 2:0.43450515183205385 3:3.5307961537004933 4:1.7695673653408976 5:0.9699533165086244 6:3.153602626798293 7:4.559314432340881 8:0.707468285520955 
1.0 1:1.2249125202448707 2:4.074663939967604 3:1.3896472449675545 4:1.996256822912769 5:1.8280674605540104 6:2.27096084336917 7:1.4217101142559343 8:3.726286357000663 
1.0 1:3.3454361044151035 2:3.126868814628565 3:4.409464868865506 4:2.8612315024093866 5:4.9364818512707895 6:0.2581721137394008 7:2.834373692364255 8:4.5161875527729745 
1.0 1:4.51025442072294 2:4.102774160091088 3:0.5284184698065811 4:4.21785603840426 5:4.73219139475061 6:4.730006322164097 7:2.135868513372743 8:4.878221333984633 
0.43842705429771417 1:3.5730265731426156 2:4.344007054177237 3:4.950054634403136 4:1.8107588040790354 5:4.366849141738486 6:0.0725807553715567 7:1.2755241289309738 8:1.8450596562208321 
1.0 1:4.327315074932412 2:1.5272672485315828 3:1.6869547109409744 4:3.9219653754754056 5:3.916478475136894 6:0.1647154363652718 7:0.4748121553703171 8:1.3636956831746256 
0.2643539303455942 1:4.402696114363922 2:0.8396639302062454 3:4.791302002766961 4:3.1259031687389207 5:3.58615589269244 6:0.2000473386576119 7:3.018717268306446 8:3.15920379199975 
0.04812141886156477 1:4.17529886188651 2:0.5928795434308817 3:0.6069558530433289 4:2.884119471323181 5:2.308790611050706 6:2.448873307522302 7:0.5243368993343712 8:3.6340421436252957 
1.0 1:1.941844143782022 2:3.6564329391901795 3:3.7219277529636456 4:0.5881167083042074 5:2.9513279769862666 6:1.696313026411153 7:1.706150609426357 8:2.9192917282146453 
1.0 1:0.6722591923043689 2:4.30815165403761 3:1.929004032885684 4:0.08152460070576634 5:2.8531658935106115 6:0.6902564878212497 7:0.3334696304626169 8:4.835613611259284 
0.3873895512616245 1:3.6342407652169286 2:1.1614332475941573 3:4.183289860132089 4:1.6840547388470295 5:2.813867559442366 6:1.85183592244864 7:3.3008210787860013 8:4.320821662043104 
1.0 1:1.3492291606871711 2:3.0805293715180007 3:4.404143435718848 4:3.9487579006540363 5:1.191675916634363 6:1.2474882723698302 7:2.004192653135715 8:1.4187951118132982 
1.0 1:4.973708050516575 2:0.34914073287522585 3:2.90831959097967 4:0.751571887858426 5:3.5217177087339606 6:1.1493967708777466 7:0.5865637411420389 8:4.67606622095663 
1.0 1:4.102578656225493 2:1.5627799949275802 3:1.0962822457746582 4:2.516450219817518 5:3.689425434857428 6:4.822639884748994 7:4.959210263596163 8:2.746525351254206 
1.0 1:3.099299767224772 2:2.236796382092067 3:2.6591127626033195 4:4.5402484465942266 5:1.3621218913043904 6:3.4651098387555668 7:1.1870881140229463 8:2.426185264804271 
1.0 1:3.7005205286432243 2:0.4929502239542889 3:4.639686517041807 4:1.8006022015401955 5:2.865774707007692 6:0.6893430044136936 7:2.2631759331393266 8:3.9813223426544146 
1.0 1:0.0774760186110769 2:3.2794502213383745 3:2.792968627345946 4:0.6375164515944776 5:0.20127223139740485 6:2.9781845328128913 7:3.438628200133441 8:1.708598478753325 
0.6977007267717068 1:2.425370245100758 2:4.462875168493013 3:0.017393262210428428 4:1.3303305276702397 5:4.526093566605727 6:3.811328330011457 7:1.057865302750252 8:3.1285269720654325 
1.0 1:0.9576237404890028 2:4.053135501897201 3:0.9794973052291034 4:3.9025794958251723 5:2.0786984411209435 6:1.7060045916178554 7:3.9204628228723655 8:3.0208022686498506 
0.7849337701820505 1:0.8565137237088126 2:4.109505349396601 3:4.715976250179653 4:0.16126870245235256 5:0.8016443134476778 6:1.2793695089713144 7:0.2531537615042764 8:2.10626234112601 
1.0 1:4.435100247394232 2:0.6974671905254476 3:2.8873483072829433 4:4.285444345323924 5:2.134927498767312 6:3.1346370334576656 7:2.127344462616772 8:3.90750954536609 
1.0 1:2.9761974158863183 2:1.1215115904264037 3:4.555448112011192 4:4.4403496950354695 5:1.2259279385990782 6:2.8721366594085396 7:3.7862880500237908 8:0.9061222908254832 
0.8798235108959086 1:1.8867590670340633 2:4.35608572301675 3:4.468713305726422 4:2.807510056104849 5:2.1163181890180254 6:0.644983912843959 7:0.9342497305925304 8:4.765483037540859 
1.0 1:2.3094767431509955 2:4.470953697672052 3:2.2836614483585778 4:3.9701510525723944 5:2.060172297888495 6:3.584544365759949 7:0.7589726806988024 8:4.95703219451319 
1.0 1:2.5491980480296395 2:1.7987341940629045 3:0.8798818231138096 4:2.0706236938588356 5:3.0830933253882695 6:3.5905624885052343 7:3.5581423766917397 8:4.540440578762817 
1.0 1:2.4096215318285257 2:4.58072773915477 3:4.210280540956626 4:3.3143491836068617 5:2.8494026300128605 6:0.6238970407698172 7:0.880329580783721 8:1.7921970025558107 
0.1452142662384293 1:4.963356523099948 2:1.371193536667039 3:4.135357503208427 4:2.2797039839239903 5:3.607447626854141 6:2.097023390942656 7:4.768719927262017 8:4.77751143165769 
1.0 1:2.6400265842990076 2:2.2347011260361334 3:2.608715943307098 4:2.833878211851532 5:1.4408924686707758 6:4.206675986074281 7:1.210559738331652 8:3.724619447244931 
1.0 1:1.5047153856624866 2:2.0416303971028475 3:1.9649268368538297 4:0.15469858544244383 5:3.794381001619474 6:0.8088029920641933 7:3.0341975900650358 8:3.569295121878767 
1.0 1:1.19724366293366 2:0.5974378218704695 3:2.722694041703902 4:2.45055261339541 5:0.28817182169525885 6:4.643543589669989 7:0.7899836152122498 8:4.461905078150274 
1.0 1:0.0398892248555731 2:4.030313645358936 3:4.9569674232187495 4:2.021495875132876 5:0.4155592505883396 6:0.7286774961322113 7:2.776123627091615 8:1.3866360076870208 
1.0 1:0.8699900498515027 2:4.41862218780181 3:0.4904571158232451 4:0.9423049036274498 5:4.40318413317373 6:1.6019217649026691 7:4.2357733327412035 8:3.9223518377341033 
1.0 1:4.785787447469829 2:1.1651331979503938 3:2.229856719579014 4:1.5080139583183443 5:4.315953205632892 6:3.24229895304249 7:3.9550809112982304 8:4.303506950568804 
1.0 1:0.6813603575151354 2:4.437706542312617 3:2.697203466730194 4:1.9832268930520467 5:0.31788707622934365 6:4.466518460124767 7:4.06041870344853 8:1.339966813613994 
1.0 1:1.7175011152121118 2:3.5772465062846597 3:4.815868006159176 4:3.9524331737312 5:0.8642112118760599 6:3.911749387289107 7:3.0406827520200648 8:1.088067883567222 
1.0 1:2.186768181321598 2:1.4787514112138003 3:0.8808742693438467 4:3.8250414483119686 5:1.2827235169797504 6:3.214217352311127 7:2.707187444176136 8:0.9228280791410387 
1.0 1:1.0632030935518053 2:4.926592078139481 3:3.572350344306079 4:2.584807724517062 5:1.8049994782662668 6:1.6987043081108597 7:3.4748426740573497 8:4.1706825766714655 
1.0 1:1.4395352954321925 2:4.439729821535705 3:1.236949065906872 4:0.30482313457992855 5:3.2035999008449414 6:0.48533462257607507 7:0.5617062338518399 8:0.5358527902164387 
1.0 1:0.9350083362049824 2:4.52245117641608 3:3.0571440365414997 4:2.284639455511105 5:1.6151163093633871 6:0.2850682845801336 7:3.456617203536214 8:0.19159703510356224 
0.6992613685140969 1:3.5019547863361664 2:0.4371160951889123 3:1.5779376091620108 4:1.5835009571714869 5:2.5339065919020802 6:1.4302588661213056 7:2.3635164382348495 8:1.343421916030337 
1.0 1:4.602981650176352 2:4.743893305394812 3:0.8615406256096052 4:4.099843471403192 5:4.203011394356465 6:4.3763811431503346 7:4.733687540753579 8:0.2742715118304847 
1.0 1:1.39277062767469 2:4.900801058189007 3:4.078566657598188 4:3.8469176169948116 5:3.672513476601936 6:0.07132561455518568 7:4.681565864713102 8:2.128270522485923 
0.6046665471744092 1:2.8179266645506975 2:4.858253307945132 3:0.004874589618939689 4:1.733076937364518 5:1.5362970179616942 6:2.9118173912337393 7:0.4518057845996076 8:0.1294887471837834 
1.0 1:0.0966134171377007 2:1.9728766450685797 3:1.2426996957849714 4:3.546750313789477 5:0.26928222714103184 6:2.873050342931053 7:2.8569153166217567 8:1.288589089518649 
1.0 1:2.959643463719884 2:1.4458730006054208 3:0.855905685491687 4:2.851236681086145 5:1.7650656515529024 6:4.2455580804953765 7:3.051829178686724 8:1.0006119447752704 
1.0 1:3.9005644873744396 2:1.6512461610905014 3:1.3380153811140836 4:0.1208198411835155 5:3.378024248196819 6:4.049779964107735 7:0.5316827045179178 8:4.403856832466918 
1.0 1:0.6996045910733064 2:4.928919078178637 3:2.4389901407177685 4:3.988743615635885 5:0.6580525112086881 6:4.278975348813848 7:2.04727655404493 8:3.0835624143172646 
1.0 1:2.631357544906074 2:3.1854008460657086 3:4.857144917790549 4:0.16571525054568667 5:3.169828191542944 6:2.829858696835843 7:1.67282043726949 8:4.531249204410339 
1.0 1:0.6293714323638988 2:4.581877111896321 3:3.9076403491865013 4:2.6482448904403393 5:0.17545885172424389 6:4.248963254571055 7:4.3853238233418725 8:2.7826733950406504 
1.0 1:2.075689641390919 2:0.47916044538655667 3:0.4580865248195417 4:0.5466497531933588 5:1.378151159010575 6:3.7851888748943594 7:3.546613092786915 8:0.6104315670746119 
1.0 1:1.8696937009235448 2:1.9222572938133495 3:0.47592589094370435 4:0.7974761967515215 5:2.3812780795605204 6:3.9521225874913295 7:3.144125029483141 8:2.217026310067822 
1.0 1:2.114840608353956 2:1.0675865226974293 3:2.0541401374160735 4:1.0093711024688723 5:3.2766324934577553 6:0.7874635590099958 7:4.096208083349998 8:1.256716185668897 
0.8583084948939974 1:2.3632447659435147 2:2.76221386366631 3:0.18970246884449496 4:3.889445415802653 5:4.990385068204275 6:1.4695742741924693 7:4.466655245892553 8:3.3331083185183803 
0.145417858460527 1:3.3565948044188123 2:3.2063654802867214 3:4.404674244195998 4:0.27866210799062646 5:4.867402557451369 6:0.8891254512998138 7:1.7656717993796536 8:2.754190927641401 
1.0 1:3.928325146077258 2:3.2626072796981207 3:0.859330403321005 4:3.618841539772596 5:3.3962045908079483 6:2.540386358334272 7:0.35258693429164645 8:2.654465641733963 
1.0 1:0.5422592470082277 2:2.769906169786882 3:3.9019198147540393 4:1.424472300709512 5:0.4666013339698328 6:2.2569323477590983 7:4.5561949886540924 8:2.3819764196250235 
1.0 1:4.902316200725031 2:1.8397507291261639 3:4.661987851789421 4:0.31919085661322016 5:4.254334957044756 6:2.925965505869313 7:3.9403060440004003 8:4.74026584241184 
1.0 1:3.9911595513653126 2:0.3970952897333524 3:1.4071350453593128 4:3.0905949443874445 5:2.5126751614431497 6:1.3032920204148248 7:0.452543974353377 8:4.496042683320726 
0.2803453032307318 1:2.1887146587744137 2:1.6298497717604599 3:4.489706877385382 4:0.07250282225363344 5:1.4620102561830433 6:1.9890101519200165 7:1.9331136094252692 8:1.7020648813223227 
1.0 1:2.274216671290561 2:0.5691663412596722 3:0.22251622213107233 4:3.7998838745502646 5:3.851278155316779 6:0.23867491401149782 7:4.45822730338995 8:1.1709326947067444 
1.0 1:1.5636090560645375 2:0.8051352530187328 3:1.7753442923111604 4:4.7279529498652275 5:0.3674338604160355 6:3.074643332429014 7:1.6862923468880284 8:1.8612091528603947 
1.0 1:1.9849718441154391 2:1.3814040839812236 3:4.291525181477852 4:4.062871307861068 5:0.0024430394938114498 6:3.9826177715783357 7:0.23099593745135036 8:1.141996003337227 
0.46424074723756414 1:4.030920080579953 2:4.219335537835117 3:4.8018857634508105 4:4.560306941509145 5:3.03133786477328 6:2.607539271011128 7:2.6037471290571577 8:2.5485434574112893 
1.0 1:2.035968701508247 2:2.2821441028397658 3:3.6219935580196636 4:2.9277704958906807 5:2.540787505214181 6:9.023547017474757E-4 7:0.9602950375628434 8:3.1622477189217366 
1.0 1:2.753923266912089 2:0.7546423876631955 3:1.215497863347722 4:0.11978936777859861 5:3.37641613755052 6:2.1232350754835885 7:1.2127309696669222 8:3.4295305723355662 
1.0 1:3.8141160220165515 2:4.672853876250011 3:3.930236626462612 4:2.692789033335615 5:2.8306688997978733 6:4.285595565802662 7:4.035426145600076 8:0.8141882358306924 
1.0 1:1.380392579215368 2:2.291284413409174 3:3.678947877601872 4:1.318717427616879 5:1.1648185743277668 6:1.5181927890155427 7:0.7007377027165335 8:3.047785669093803 
1.0 1:4.710892400447431 2:1.5640718450031548 3:1.7486258125567975 4:1.60351301903192 5:1.2685478847233758 6:4.555196196801129 7:1.0298810430149272 8:0.6581363583589913 
1.0 1:1.3940582412415645 2:1.0507956316162839 3:3.9832678259813723 4:4.358307440969983 5:0.4537748129177733 6:2.4053574364940937 7:4.561116049677516 8:0.15378122412309214 
0.6454760577279122 1:4.994192149346516 2:0.31230881659437804 3:3.123880109455115 4:2.428204951063813 5:1.1284067578190802 6:2.962719482920717 7:1.708646205642613 8:0.7887536532205889 
1.0 1:2.2969680649782007 2:2.1213273700355364 3:1.9686700599058922 4:2.651367412821772 5:1.799253315078581 6:4.335036613588291 7:2.9601883907462945 8:3.9528410615482104 
1.0 1:3.9823240784550307 2:4.128366177940681 3:0.8516182683559603 4:3.547991337646003 5:4.77238505500578 6:2.640982676137366 7:0.11263341634810507 8:4.827256187350661 
1.0 1:1.8637408434766516 2:2.5081890527924733 3:4.883967596075467 4:4.424499025136589 5:2.801659928342454 6:0.31602982940770113 7:4.674533023677243 8:3.6131388089470184 
0.05145117016034572 1:2.720977419251336 2:0.6041676752572928 3:3.9435537196354624 4:2.35067178683088 5:1.458215993785464 6:2.58379147511197 7:3.9817481442712355 8:4.508532536563998 
1.0 1:1.0094265124203619 2:3.9015082640204257 3:1.1743488239144442 4:0.5530839444014396 5:1.3811305268822505 6:2.06055652924229 7:0.32565749806961436 8:1.02169063642238 
1.0 1:4.228569587951693 2:3.2584570098861385 3:0.08887581684686513 4:0.9827089938271026 5:4.744951938289632 6:3.3642000152333695 7:1.0996471509702743 8:0.8470797982937577 
1.0 1:4.474289504660603 2:1.6178349829116836 3:2.2443588506981547 4:0.11625351191510598 5:3.7198495644542007 6:3.9486773882863755 7:1.5371686200231403 8:2.0322440130590658 
1.0 1:1.0956861837889862 2:4.9904897269459605 3:2.5310954749097294 4:3.495661932198002 5:2.4328203250294202 6:0.9007996118291248 7:3.4808470049388243 8:1.9524645371674934 
1.0 1:4.08284491388579 2:4.993395391993721 3:3.635201135337835 4:3.860319726023537 5:3.1659573202763274 6:2.844287381128815 7:0.384294465652413 8:2.9683306766528377 
0.5038599125621968 1:1.746915373218491 2:0.0375658097533344 3:2.9046247069223603 4:2.7737147866826892 5:0.4043821780990393 6:3.6562747911399507 7:2.349433197155996 8:3.6395378508375393 
0.28374704489493463 1:0.6484522636164445 2:0.27691866323653574 3:0.8529240388870496 4:1.010690459843026 5:0.4862550596531407 6:1.1876986615666159 7:3.360097393193061 8:2.5253301924162224 
1.0 1:0.6857032513098483 2:1.365880858224519 3:4.766585391634002 4:0.977372412053535 5:0.7419892358581159 6:0.18047330753334775 7:4.5847041738521925 8:0.13797888232802208 
1.0 1:3.506403976883344 2:2.2495814685338416 3:3.21472580597959 4:2.0588506590399236 5:2.411430670215953 6:0.6273329919503613 7:0.9911798603753879 8:0.24492940090955115 
1.0 1:1.0139380919278913 2:4.918027428135568 3:1.946787356943337 4:1.430895450773328 5:2.1403633224471403 6:3.3981339127161556 7:3.5801121898042303 8:4.834906428796892 
1.0 1:4.664034549078453 2:0.043990211701629596 3:0.5837884033294506 4:3.746999692320257 5:4.389463684296674 6:1.9976105471870098 7:4.121771800869065 8:3.809470182036095 
1.0 1:4.024634719492239 2:1.76194753198026 3:0.08033099606899423 4:3.8803061409028183 5:3.9232080607162074 6:3.554419724198832 7:3.529201523585746 8:3.8870333059013453 
1.0 1:1.6258915673304442 2:3.8187268570112587 3:2.0341253060377036 4:1.7436063409400682 5:2.9383448092064453 6:3.4664756990185692 7:4.454924767210984 8:4.633330318546798 
0.6912667485945645 1:2.2053056622726066 2:2.7555192426692874 3:2.1497087883965547 4:4.322496283208782 5:0.9809865092093158 6:1.7585806827766859 7:0.8677834038100193 8:0.6848897498172328 
1.0 1:3.614074753703767 2:4.602940385660544 3:4.572154003362499 4:4.131290648120319 5:4.594941061582103 6:0.507946493570003 7:0.13455614687197714 8:4.5028691520169595 
1.0 1:4.8157747342467685 2:0.6923938320790924 3:0.7238704561570741 4:0.669148650115636 5:3.955611002528755 6:4.115216723303164 7:4.8906145622317885 8:2.9137201100436383 
1.0 1:2.4322989449901367 2:1.5474182855861942 3:4.885991351768154 4:3.881883937289804 5:0.9709691351785029 6:3.9085355813099802 7:1.8677180104578472 8:4.446457216271017 
1.0 1:2.970398870236465 2:2.94651107245236 3:4.081039564377076 4:4.661914229066915 5:3.569257529900824 6:0.9961314579912642 7:3.252918904501164 8:4.93417552317978 
1.0 1:2.5303116588170815 2:2.2680533647546826 3:2.378353013093841 4:0.7776240309347013 5:3.777521678912284 6:2.5057151780623954 7:4.275942472258671 8:2.5755213048158785 
1.0 1:0.598626931312552 2:1.7228583347557127 3:3.2722962595001315 4:0.9542922852374741 5:0.30241288000714794 6:2.2538584821176544 7:1.5606113208406425 8:2.423563326905551 
1.0 1:1.8854883858074303 2:4.320225709795345 3:4.301477522418069 4:1.8474459507109156 5:2.882698391266778 6:2.830624367387895 7:3.9476284846560326 8:4.569022172017728 
1.0 1:1.7253209725593177 2:0.16804359142636663 3:0.8098451665267322 4:1.337533245709249 5:0.9508559610315019 6:4.456313667879199 7:4.472478541229381 8:1.626382865122626 
1.0 1:4.796371503389797 2:0.08962902837575316 3:3.255543504287904 4:4.9222914346414175 5:3.343920013100609 6:0.8232056624466084 7:4.186081699409155 8:2.656005181377525 
1.0 1:0.6715185643867901 2:3.998924373323761 3:3.1165557036781193 4:2.7387185975632145 5:0.5674221325525377 6:4.780528964784188 7:2.3870495973522514 8:3.3361080696814125 
1.0 1:0.8470562270325415 2:3.5373349941443855 3:0.609598396339748 4:4.352699668489642 5:1.6459481346885594 6:1.6485740529558972 7:3.906215748190043 8:3.539581776927788 
1.0 1:1.8362423454224697 2:3.720224225471464 3:3.124541138882656 4:1.5117833374108058 5:2.585840077908936 6:2.047579928548062 7:4.907583809602016 8:1.6566505028534741 
0.663703888688098 1:0.6832842476853644 2:1.6541244271292914 3:0.7869902463659694 4:4.443333426248979 5:0.4055834384751595 6:2.8618273181049427 7:3.804336758443226 8:1.6134371014808175 
1.0 1:1.31491422340749 2:2.774025992204192 3:1.6469802219028509 4:1.3196072987195024 5:1.6904361494408604 6:1.7222360533109513 7:0.9576540078545251 8:4.944354687815454 
1.0 1:0.5480873377258884 2:1.6217422175716616 3:0.9577940418596238 4:0.915251027366015 5:0.37455951144930416 6:2.357945502121586 7:1.3591944237665041 8:4.978127740503404 
0.3512125692273007 1:2.3525427799984495 2:2.3292045177927734 3:2.19637830295115 4:1.2099351169028252 5:2.7432251202819566 6:2.670828497732708 7:3.1912932459881143 8:2.1108943938340596 
1.0 1:0.166841275308837 2:1.7256547510111946 3:0.3559451846970358 4:3.7222231579418525 5:0.4966006440876596 6:1.6149512108397572 7:3.3706370471991463 8:4.193098835541976 
1.0 1:4.9345931769521805 2:1.4205319560338863 3:4.296944291213615 4:1.1870770521679308 5:3.859406627801343 6:0.17162630802228004 7:1.3434463502836291 8:0.4002443990571114 
1.0 1:1.2858697222027353 2:3.8675308383273346 3:1.8492136402435186 4:4.439243613073976 5:0.48363359728585886 6:3.1202549163731277 7:0.006157142298087887 8:1.4612435703018005 
0.4348022603510195 1:2.7976730024649568 2:0.8314717524349811 3:0.19778824093949188 4:2.142788801573869 5:2.1665020616171837 6:3.954856549558433 7:2.500109656534373 8:4.078704616149187 
0.7800955338954416 1:2.7022759250450155 2:4.7395781887759 3:4.613475757732951 4:3.2775743526277115 5:3.94662821602116 6:1.4928927187430556 7:4.579576336640455 8:4.412364256834099 
0.43567848854157126 1:1.670972450649007 2:3.6668393202850873 3:2.1785036843612553 4:2.4685247590786705 5:2.62141825610684 6:0.3931555929770216 7:2.0162505469999923 8:1.5000018967691522 
0.877869699923812 1:3.8615859615523527 2:3.9764271926353785 3:1.939641048694847 4:1.4936168839965929 5:3.7345168906746387 6:4.89314822850031 7:1.8603273308768664 8:2.892537707184101 
1.0 1:1.266016082169452 2:3.6440089878886246 3:4.965309152137003 4:2.690215308296655 5:0.3699806966223072 6:4.41442514430741 7:4.127032347697676 8:0.609394340276327 
1.0 1:1.7217299921103804 2:2.9959277357598455 3:0.5737194938620245 4:3.4087999287310415 5:1.5519263845299027 6:4.269202939498231 7:4.026190109948509 8:1.2768762625641985 
1.0 1:0.3065000706120167 2:4.161829863654727 3:3.4200903802933333 4:0.47959057719989046 5:0.5297004093595812 6:1.2676409879650201 7:1.441211966031011 8:3.0998584877714324 
1.0 1:2.614143672863228 2:2.81226640083555 3:1.6314319534629416 4:4.748334240412835 5:3.994331018499454 6:1.6013578419726877 7:4.424249277406691 8:2.9536823355494595 
1.0 1:1.8441588525796613 2:3.898150258280574 3:4.139178888013373 4:0.05226902716258963 5:3.9565602502064543 6:0.3612801023449933 7:2.1550366846191293 8:1.9937931077468622 
1.0 1:4.25162677351555 2:4.929140103130098 3:4.205429404862671 4:4.1524473733499585 5:3.145453970057688 6:2.57142146469487 7:1.3941601049269021 8:2.227208965238929 
1.0 1:1.288812725442003 2:0.01142979978108453 3:4.731649859237584 4:3.3752624890924516 5:0.2813541462866729 6:4.13485618718229 7:3.199807053979 8:1.0971030179561088 
1.0 1:3.478165660293691 2:0.600839321813163 3:0.3717343075018965 4:1.7551349074214981 5:3.2100555507182906 6:0.3545140393136094 7:0.7089860057876384 8:0.6818000387552382 
1.0 1:2.9543075296197885 2:2.117301883315256 3:0.1737823352788198 4:0.9758774895505832 5:3.279926071285712 6:4.707290826733132 7:4.946184849973417 8:0.6736302321290268 
0.17007823192323504 1:4.896864348371599 2:3.187941963560879 3:1.057171979730349 4:1.966229335601995 5:4.89660441290344 6:2.9630996343013454 7:0.46263784807094366 8:3.1926956934980337 
0.06125121323006362 1:1.5419876452616794 2:4.596783863386353 3:2.9592136187263396 4:0.22010636920477694 5:2.9158735015230426 6:2.6337025256342836 7:4.812721763027984 8:2.2014714830601743 
1.0 1:3.981419289822423 2:3.9287357380294243 3:4.882868788274356 4:4.980516818893099 5:3.459993571393305 6:0.1458242554170636 7:0.047803465942701115 8:1.8238560637344556 
0.6286143860238422 1:1.3506882641403524 2:2.5365810010428245 3:1.3758365277850588 4:3.6679162334815403 5:1.5380792085943886 6:1.121382957618126 7:4.844378200722436 8:0.5644556204817859 
1.0 1:1.7494382596092048 2:1.3788486172003758 3:4.841533448482584 4:2.5502793648528534 5:0.3920702548167893 6:4.357867280460274 7:0.2951128978441825 8:2.5375724063347884 
0.5830850833304823 1:1.6793945232057217 2:0.019135739226087075 3:1.1601048842685833 4:0.44115792614247035 5:1.4613934046258006 6:0.12923703322680968 7:2.4211183598890647 8:3.800659700414509 
1.0 1:1.535644337338018 2:4.334233603779031 3:2.9287764142100503 4:1.8303731864518678 5:1.2088183014004494 6:2.2454982741384515 7:0.8950989920472898 8:1.6474331425950146 
0.22777381649305367 1:1.9496607094820277 2:0.7326341705495969 3:2.527930367254977 4:0.39369595005969754 5:1.0454313504342696 6:2.5716890930103147 7:2.0097970382002246 8:4.929152819127688 
1.0 1:1.285399079676348 2:2.9859541257729862 3:1.8277703646276109 4:1.205681191865982 5:1.9131217804259188 6:1.4906347452721243 7:1.9909238026883824 8:1.6204179867789172 
1.0 1:0.1172430445713454 2:3.207750438570498 3:4.20968378142305 4:4.5019433241163265 5:0.15033626597994176 6:3.0868128203127507 7:2.1762770577487873 8:2.2873082904861772 
1.0 1:4.26202108369637 2:4.014879596648781 3:3.0864572865106408 4:4.4078579558707265 5:4.334825955605678 6:1.185439617953076 7:0.06036329864267255 8:3.702676924746574 
0.6128414873869763 1:4.170792271412367 2:1.1414269797268428 3:0.519057792371167 4:4.872089025470489 5:4.475705459639607 6:1.0846945284635772 7:3.6153591433430927 8:1.4526056479345024 
0.08692819982373953 1:2.3041312846173487 2:2.8975230136927803 3:2.66201110510951 4:1.3262781527253498 5:1.4220671324576466 6:4.7633985081211065 7:1.7746943936173287 8:2.4443417381534864 
1.0 1:3.992976217432501 2:2.0918229418920884 3:2.977646909187421 4:2.8599792907813697 5:3.667034190814171 6:1.5374463562291163 7:4.100973872370958 8:0.41220295495013165 
0.31124060923148117 1:2.138250841884217 2:4.525673119992938 3:2.307979718418302 4:2.317409456882246 5:1.2337047084193127 6:1.138317220808195 7:0.19697035570889734 8:0.42867948441484793 
0.5226220497108424 1:4.913564458289826 2:0.7603700147900998 3:2.9112773980294113 4:2.392793534850943 5:2.3891621936310035 6:2.69149222839292 7:3.8244246440176366 8:1.0768797511180492 
1.0 1:1.2603935251059062 2:4.358430829774238 3:4.257749652083682 4:3.2918348410368012 5:0.7668832973936842 6:4.298401454809637 7:1.9371809922033683 8:4.677491531716275 
0.6762026958241592 1:4.483292808345186 2:3.3449596098266317 3:4.957881797129689 4:2.896508326053696 5:4.5555133955169955 6:1.8138982443593448 7:4.663404273379782 8:1.0412081981311059 
0.3863131635658691 1:2.9661176346957734 2:4.801222647722505 3:3.165129409850403 4:3.788007064116828 5:2.077058548792644 6:2.5175806589365712 7:3.146823990452786 8:0.1703280789902671 
0.132238339701453 1:1.599546091212402 2:2.5980755527417987 3:4.04524149297203 4:1.9790297559317418 5:2.103942687655248 6:0.7567542297697583 7:4.1397556301869365 8:1.8921260114336709 
0.14738996156032239 1:3.4391564472617784 2:1.512103447176151 3:3.282758645336133 4:4.792151455102539 5:2.7897587851712773 6:0.29185661293388676 7:2.390787322114954 8:1.0464579727589096 
1.0 1:0.44098591396543907 2:4.557341995076291 3:2.8939897333084232 4:3.9666198268900126 5:0.6091244450594606 6:1.8312875713657908 7:3.6867419926056804 8:1.3381958315861808 
1.0 1:3.7148510574709577 2:0.5168748789354879 3:3.5115095164278807 4:0.7050419670626538 5:1.6377861185595475 6:1.9108272374434347 7:0.16223978362522698 8:4.312975391711157 
1.0 1:1.30146719402703 2:2.377266867550932 3:3.0523020230213613 4:2.849269925512962 5:0.32023337699000615 6:3.898549320889495 7:0.7121257304589532 8:1.7104712350140625 
1.0 1:3.103403583201861 2:4.151185460830586 3:1.029677757621627 4:2.663530118347769 5:3.985894728376002 6:3.602468070216509 7:3.6957936245317122 8:1.4401966790943892 
1.0 1:1.305945823471927 2:4.4782827665200955 3:0.4403147853684464 4:0.1010528184925709 5:4.742168353298716 6:2.784587621574272 7:2.4734372152318738 8:1.3199575672691548 
1.0 1:1.382078944733792 2:0.2964669372561264 3:2.3589821459335294 4:3.526821640939073 5:1.0762852811834787 6:1.0931976067987812 7:4.38803451075177 8:2.859769754504764 
1.0 1:3.4583637886736747 2:1.7781950769855108 3:0.9399530712622257 4:2.4471529081742416 5:4.31117673857178 6:0.5492630978179579 7:0.36948380688165744 8:3.592304252725392 
1.0 1:3.910107657807896 2:2.6499695199162088 3:2.5991581821920016 4:3.933819271654269 5:4.351665017790733 6:0.6008050907781494 7:0.004755236883769962 8:4.47763783952275 
1.0 1:2.0482673692865774 2:1.777770158251767 3:1.265986382159727 4:4.831417167394932 5:1.7293845708867717 6:4.540752999793494 7:4.196432134613538 8:4.786116559517977 
1.0 1:0.6197652838735155 2:2.5266728519430335 3:3.956751868104732 4:1.3123995022070365 5:0.09123199785597158 6:3.836231473062937 7:0.5443495587291376 8:3.4281544134941724 
1.0 1:2.3339755774270596 2:2.495856572940188 3:4.928915651084458 4:2.4937064004788883 5:0.9650187518738844 6:3.323630125047685 7:2.8577747464661862 8:0.7520852209719731 
1.0 1:3.5580781898243754 2:0.3376660193185809 3:4.636177477702093 4:0.8470091307684978 5:0.4460984220419097 6:2.878064259170923 7:0.8254462083913474 8:0.33558440498841147 
0.8002710700468406 1:0.6286962001791665 2:1.8521713712269736 3:0.10495874292559518 4:1.9282852525873613 5:0.5309921877294231 6:4.879223550816575 7:2.234845353601054 8:4.749150673787674 
1.0 1:3.848139220446453 2:3.567265594444819 3:4.84905468613239 4:4.817349597924641 5:4.56938584814701 6:0.625899080661676 7:3.0932823077672262 8:3.8359463156379197 
1.0 1:2.9571728038848173 2:1.4000643243574173 3:0.6319674130147499 4:0.2748058990303896 5:2.614924108357963 6:3.9220011832054675 7:0.8575893027164074 8:3.648632134754967 
0.9870825902359326 1:2.7396709495862224 2:1.6789917412666997 3:1.0717755986753512 4:1.824300522617865 5:0.5072720945327317 6:4.903415124125181 7:0.013082180840503489 8:1.2237657357753944 
1.0 1:1.2868891588819478 2:1.9919643687372246 3:3.5825791316079254 4:2.6304680568468974 5:1.5537198443340767 6:0.2684745213380658 7:3.1890640769941188 8:2.2319234979927254 
0.17607286542977238 1:0.9086259538577051 2:1.2545523996086743 3:3.957723127133831 4:1.2429631529494831 5:0.15808468802987846 6:2.5538793538150713 7:3.2167385155434824 8:1.3181105729021116 
1.0 1:1.5662441348504506 2:3.437446645513092 3:0.7841374947933002 4:0.9864488785133649 5:3.6162196002336033 6:2.319568000447742 7:3.952130029158374 8:1.4298244879875062 
1.0 1:3.6035756479882366 2:3.01291495924912 3:4.693089350361877 4:4.947590723469746 5:2.88829239468934 6:1.9195398007161697 7:3.0490290591758726 8:2.5432652061125154 
0.010357702615420707 1:4.166407320205746 2:1.5223051768016402 3:0.44277829426526044 4:3.36178844914249 5:3.3935354666261115 6:1.7350935449491942 7:1.9281180333914574 8:1.6223399195389083 
0.33100883829359223 1:0.7129967344998765 2:2.9989425721827936 3:4.0737974646684085 4:3.812779630792302 5:0.30926115402889703 6:0.4813738184811692 7:2.8029434546541343 8:2.0009010871351744 
1.0 1:4.517575956615273 2:0.6162324386114211 3:2.8671043077530523 4:2.69843799883012 5:1.0874278810298121 6:4.5465313397490075 7:4.883390945349504 8:0.09276469096572484 
1.0 1:1.7833619852004703 2:4.819570438201745 3:2.793004841755246 4:0.2634743887554046 5:4.874934240992389 6:3.998007496608723 7:4.171008850794412 8:4.133204846755858 
1.0 1:3.4302428791081154 2:1.766065398051295 3:3.6441608412317446 4:4.36651023459126 5:0.7190260537554373 6:4.435719345478988 7:0.5643076771512612 8:1.9809462970337637 
1.0 1:0.05304353839644283 2:0.6106494061757322 3:0.1015979411757463 4:0.39905711573300756 5:0.7275396741820689 6:0.08282108061470554 7:3.219301537201366 8:3.213035692739079 
0.9387882435629933 1:2.015162445767359 2:3.7855406486615624 3:4.809999631993082 4:2.172672813562596 5:2.504788840393449 6:1.7983351493116533 7:3.343766307459506 8:4.38887505929877 
1.0 1:0.009018333843374046 2:3.499866984654867 3:2.1541373825256267 4:1.0254930717778141 5:0.3056477612830523 6:3.6005012142220436 7:3.6274136085199786 8:2.9882108343512224 
0.36841875837832555 1:4.4757902702009895 2:4.501193753599124 3:0.2633356520722511 4:3.83068136509256 5:1.8474607868794581 6:1.7645325195674428 7:0.49543974245743644 8:0.04753451396445346 
0.17558147259612694 1:1.2005897633457148 2:4.5898792328031375 3:2.2875758628495437 4:3.0738078192399607 5:0.7221701072176949 6:3.728026801693712 7:4.681116494508558 8:1.015815439948169 
0.14577581260335118 1:2.1768760235642115 2:1.5416536290188942 3:3.587720435917144 4:1.7251599617481639 5:2.0821617534616728 6:2.1467621811140143 7:3.9450157347271553 8:4.971589078483019 
0.6081409782190688 1:2.310003588891456 2:3.486475805314976 3:1.308154268269675 4:1.207438729512979 5:3.383834783849307 6:2.245650223188289 7:0.9463386094962186 8:3.2971236179052683 
0.007319282009808971 1:2.0619759982526937 2:4.688015267683145 3:0.2969695145409647 4:2.7507778562260286 5:2.3516140841180224 6:2.5755458789637213 7:4.858543490529533 8:0.1770046545183351 
1.0 1:4.146415791090951 2:2.7439149763036648 3:3.9296664344679106 4:2.2585529590569715 5:4.481273365994134 6:1.2336806537741487 7:1.7355915889531974 8:3.7891504561560994 
1.0 1:1.21102175186634 2:4.441768501656685 3:1.1572896739052123 4:0.7741168355596876 5:1.483547263242838 6:4.71375977577798 7:4.721725377853582 8:0.7622482841123891 
1.0 1:0.8158638757918304 2:2.3608491685112836 3:0.3815318128201359 4:4.673916293648875 5:0.3463355106301202 6:4.355320203929548 7:2.8970845944570622 8:0.9971814711518016 
1.0 1:1.0645140949811485 2:1.7490613234749974 3:2.015711606999253 4:0.15979958224800778 5:0.9978204280868447 6:2.7541139721481143 7:4.869203755305366 8:0.048637664084504706 
1.0 1:0.21798600675236518 2:0.3113808288185658 3:4.8399635976156885 4:3.3149456772236268 5:0.13874541583548203 6:2.0976350544082334 7:4.616732991841728 8:2.4384147973161405 
1.0 1:4.98427752744965 2:3.7600376514720537 3:4.905952859194083 4:3.6768766455683703 5:4.113888338303063 6:3.785559540414603 7:4.019434178549007 8:2.5695264483333218 
0.7230805760555818 1:1.2409807150077934 2:3.9109547841697148 3:0.31867672924913404 4:0.42256370750004213 5:3.0084280490425646 6:1.2481856573320855 7:0.9780112073373503 8:2.6724222192245013 
1.0 1:0.006641492207570762 2:3.965689299290965 3:1.9478331969612888 4:1.6275336766455137 5:0.3703296482767157 6:1.2938090012131211 7:4.755457564558284 8:4.865793674241949 
1.0 1:2.6757505108408917 2:2.9490927170213497 3:2.68477250335639 4:2.104222489050671 5:2.201685592540054 6:1.4332904675461884 7:1.8289820716826115 8:0.4966081386789853 
0.9095804107164676 1:2.383866380811378 2:2.588437610262878 3:0.10861554784557595 4:2.228386948836874 5:1.9933094213514728 6:4.554522848736921 7:4.666407032682284 8:0.6088539982256383 
1.0 1:3.7824210575725337 2:4.753479111254716 3:3.7781898471501147 4:2.5940743147291814 5:3.7164588682117534 6:4.258280341187496 7:4.3051219228975715 8:1.8323315991761784 
1.0 1:2.9304626872144595 2:2.188146819714292 3:2.082844537408531 4:2.1419286700730535 5:1.8159218031885906 6:3.2877237022920776 7:1.401710252857009 8:1.8424711976040327 
1.0 1:4.982213478866494 2:0.7451904120979553 3:0.7903481585807062 4:4.752754998909215 5:2.847436766834719 6:2.6140348764847334 7:4.59639122980141 8:0.5495978562384848 
0.5193688085026027 1:3.828275440232343 2:2.8912438129758193 3:4.729624461618389 4:2.2632357351171546 5:2.3244491962445992 6:4.803892846358918 7:3.640041843070292 8:4.308896339549847 
1.0 1:3.343350018681219 2:4.030673584589434 3:3.5859166011137313 4:3.732244149498612 5:2.366807560981798 6:2.851819922770169 7:0.4259928303076097 8:3.073859020098135 
1.0 1:1.0821245431118172 2:2.3792483090034455 3:3.670683217754567 4:4.537947288895233 5:0.7646936017231082 6:0.13596711285601432 7:4.2280815201655235 8:4.178679329313433 
1.0 1:0.207859760408438 2:4.864780441691294 3:0.4604454260428349 4:3.3078265095127524 5:0.38410010314990506 6:2.3045158018756293 7:4.682468745000575 8:1.4584269521055715 
1.0 1:2.828955246225284 2:4.861950821381062 3:0.6733854586888747 4:3.447019958615891 5:4.2358116129283845 6:4.008252185010697 7:3.670203648243738 8:2.8547979019846674 
1.0 1:1.3439662202011742 2:0.34088518496581116 3:3.9891962530457796 4:2.5808193637224432 5:0.41480622741895234 6:3.14407731227247 7:3.5943991679195233 8:3.3335894179705474 
1.0 1:1.6321756624222534 2:3.814434264165673 3:2.526105224511326 4:0.3663057222025344 5:4.312014478498564 6:0.9914245471443691 7:3.3532186486001505 8:1.1088910830771284 
1.0 1:4.896425448454042 2:2.6746700156098373 3:2.8725749747869425 4:3.132158509641446 5:4.773360409045622 6:2.597615573808449 7:4.145975161653156 8:1.3470395719685817 
1.0 1:1.4251957714604293 2:2.271738450383711 3:4.208597093911807 4:3.2913636376582973 5:0.81105295397346 6:3.9525931461627204 7:3.193618208386799 8:2.982291723781902 
1.0 1:3.4252321609984424 2:1.3449613006308596 3:4.003538534514789 4:1.575992602734168 5:4.03666812188494 6:0.23745683174725385 7:2.7752204958953803 8:3.201575501936962 
0.907590704400078 1:3.754956793270352 2:4.673487792706108 3:1.6490907846024359 4:1.2653282642844832 5:4.784303119820648 6:3.5634880831571856 7:0.2842906504280036 8:3.3528089472386813 
1.0 1:3.7792763474035036 2:3.927448518040968 3:0.0064223389572512085 4:2.4703387080160404 5:3.094649972047732 6:4.935150624592378 7:0.6109821028265829 8:2.3018467994836023 
1.0 1:0.533687888190175 2:4.926023258965583 3:0.22904984197636535 4:4.0429477202002255 5:0.29604149454717277 6:1.8298780411819722 7:2.4571454621928948 8:0.06515014265489838 
0.5829654824055255 1:0.6561502903637111 2:2.149775957155539 3:3.7562821577970245 4:0.2953431850178017 5:0.25221112932185497 6:0.22472478779867572 7:4.087638720415321 8:4.482500228977593 
1.0 1:2.1310554971587004 2:1.8192283106414648 3:4.094959199363438 4:1.280906975597825 5:1.6590371944298465 6:1.097837053904184 7:0.9507866830317139 8:4.512018375997528 
1.0 1:3.167991791858123 2:1.9177183158803381 3:1.5246415706239698 4:4.150234189982633 5:0.9877302932730774 6:1.49398157916293 7:0.005923219532532652 8:0.5219888976299524 
1.0 1:4.342475425015785 2:0.30261230770248043 3:1.9845316855941537 4:0.15043277756324613 5:4.123215843123464 6:1.1566903294442672 7:3.9990242038792063 8:1.076212912928932 
1.0 1:0.8517578274943391 2:4.271109956280025 3:4.671132141517352 4:2.320456318391593 5:1.13681592015299 6:0.20651703547315461 7:0.49308813244842675 8:3.774534597854604 
1.0 1:1.2058220677471712 2:4.3089725338803575 3:2.5081591099317553 4:1.6818797031235093 5:2.764130947340953 6:2.0018872268333707 7:4.853476240283969 8:3.683880196983582 
1.0 1:2.5412243513585424 2:1.8583671618744897 3:2.835619631228442 4:4.928969471552434 5:0.6992536501151532 6:4.243929581965591 7:1.8501644432386841 8:1.7003953052536909 
0.39068801705722533 1:3.3715229540307496 2:0.5021521429039577 3:0.10083491661571989 4:1.7418846390687945 5:3.2203846166361716 6:1.6207482033203826 7:0.7982692071210837 8:4.108443216748287 
0.729574640838689 1:4.278577583741926 2:3.742671246170334 3:1.6388942377151154 4:1.8868694497396643 5:1.5492335106167354 6:4.8339072730554005 7:0.12297185347045558 8:0.6866683527488519 
1.0 1:4.831976600707755 2:0.9292892334501938 3:4.522029084376578 4:0.6604264383208892 5:4.877375965149965 6:0.08568528915510702 7:4.836761713556061 8:0.6942446928669623 
0.5247588863599937 1:1.8650676108621878 2:4.833541759833631 3:1.6983154536942433 4:0.7912779728671875 5:1.507921193114996 6:4.979446082811348 7:1.9671407999435682 8:1.1892281211499562 
1.0 1:1.3988386317305144 2:3.4064265486347285 3:3.793895498313562 4:0.4693181054819221 5:2.8079263675239914 6:0.26224703361653595 7:2.2494629796734733 8:4.226033891142975 
1.0 1:0.6539011556762743 2:0.864562763237842 3:0.6533951735393693 4:0.5928335445927126 5:0.6540608196377015 6:3.9398514284785064 7:2.4147542141840646 8:3.7975076888915855 
1.0 1:3.5374929628615304 2:3.1223303789054264 3:2.0938078775731745 4:2.8723710698564244 5:4.077388426513361 6:0.21709923029698586 7:0.6526849036877663 8:0.41854232283388365 
1.0 1:3.0490726279358062 2:0.24382035486788492 3:0.282740669772824 4:0.06506401196317661 5:3.1717536378290565 6:1.3573667963246714 7:0.024028145054077837 8:4.529607825926454 
1.0 1:4.3815376539477855 2:2.2584970648212264 3:4.304101983303577 4:3.546023483124912 5:2.665222786766349 6:1.4705181566219516 7:2.3779703541382244 8:0.5350330863366572 
0.7627397066014641 1:2.1626113283740005 2:0.5865700483035434 3:3.896743447188433 4:1.5601260944240534 5:0.6517428521473599 6:4.571907146428185 7:4.6274102102585015 8:3.2174401803966233 
0.585451658273738 1:4.017904936751563 2:3.4305404521521465 3:4.7046000784201985 4:2.337466399898114 5:3.081095041196187 6:2.9604323438423616 7:1.9941218394234639 8:3.39036576781078 
1.0 1:2.9692899224262197 2:1.8518381536936361 3:1.8947833673206114 4:3.637215391369981 5:2.1070004415696757 6:3.4060734418751952 7:1.6052281871689689 8:4.115432536762163 
1.0 1:2.440599354666663 2:2.2141813511376784 3:4.7556559373118015 4:3.3200324864887 5:3.3859620733732654 6:0.11917291723628115 7:3.8077621661143835 8:4.366134568555522 
0.6100241352836757 1:3.1071551094630134 2:0.3286596080227958 3:4.689008460304904 4:1.5973705638923112 5:0.6145779836249489 6:4.454695468505028 7:1.6125722901774349 8:4.086558527273355 
1.0 1:2.081027179282281 2:2.3709399443580668 3:3.2560659968823047 4:3.5974706305450064 5:2.613145534016433 6:0.5760240881372349 7:2.6586315805883296 8:1.570234829606743 
1.0 1:1.4549874773421763 2:3.26077693597682 3:0.8454754627361833 4:1.3805920932117282 5:4.753344589018942 6:0.6830448284774481 7:4.562335584045297 8:2.384179460167954 
1.0 1:3.9563952158206432 2:3.155180423709873 3:2.4858336482271013 4:0.80822648805267 5:4.390651939023067 6:3.028408479590701 7:4.537194437664572 8:0.531649386001839 
1.0 1:4.12808489851772 2:0.5612752127447043 3:1.4193688764037087 4:0.9338503450669388 5:3.3748256378031534 6:3.4629536972410055 7:4.111810903339307 8:2.779164969185493 
1.0 1:0.8520181569954962 2:3.2129414811305685 3:0.9023986393362795 4:0.0883825365238631 5:4.651666387030316 6:1.6317726220245334 7:3.6647015282741773 8:2.781474127952525 
1.0 1:4.204180173639004 2:4.584282222142782 3:4.407467191282905 4:2.9906594075172066 5:3.123713428541473 6:3.691774869087328 7:4.685193229023436 8:0.5401400563462067 
1.0 1:4.772159869327822 2:4.0368043414518535 3:4.085470783278158 4:0.9606980362718658 5:3.084845016477244 6:3.6269241537873516 7:2.338605059366504 8:0.8041757071361761 
1.0 1:0.81719872401334 2:2.685755016313864 3:2.4817463756533344 4:0.12014825404271944 5:1.0296211071295793 6:1.318227293609322 7:3.0564219689871073 8:0.3597731070679573 
1.0 1:0.013004960610357868 2:0.4967266896916214 3:0.017842660544797356 4:0.48693437515937515 5:0.1561504625648721 6:4.266847971218928 7:2.6159016714096706 8:1.9790756187597391 
1.0 1:0.34511198560658535 2:2.928307092671931 3:0.3423067887836795 4:1.9911202511628914 5:0.34259625578011327 6:2.52266496786728 7:1.8470989485910123 8:4.450806589010488 
1.0 1:3.8875078258695974 2:3.9614426531185343 3:4.814921591011881 4:2.4956695208834243 5:2.98864984540883 6:4.2055052227128185 7:2.1248638911347766 8:4.905760479678827 
1.0 1:3.0751898163923794 2:1.592275578809767 3:3.5551013798597286 4:2.544899694891204 5:1.0831004125053314 6:4.086992944615192 7:0.3650282036207953 8:3.7705454035681027 
0.8845622105043509 1:3.6531569997877753 2:0.3187611719679246 3:0.22520335036424335 4:3.731305341976393 5:3.424709242255463 6:0.21159765270386807 7:0.43091081141358156 8:4.42219614936677 
1.0 1:1.2735157212985164 2:2.382339441987644 3:3.2026057626482 4:0.22885311506731987 5:1.8275144221818924 6:0.7265743063224407 7:3.8903056189216514 8:0.0754319904687109 
0.7881739414441529 1:2.2616447607070516 2:4.127543226022589 3:1.661677885852931 4:4.6401506671248836 5:1.7196622504400316 6:3.432482558280766 7:0.32752192712642925 8:4.901178800444421 
1.0 1:3.1335954237132473 2:2.6791795002539613 3:2.208825098095986 4:4.708690857834036 5:2.3328749554903294 6:4.460033835199141 7:3.750837002054195 8:3.1768533983067204 
1.0 1:4.095102932725322 2:1.0950075531491816 3:2.7842143216960134 4:0.3008602249908301 5:3.086823066474556 6:4.1733511848427485 7:4.251272371955411 8:2.3602790898657617 
1.0 1:3.5109968981547897 2:2.3211543209676675 3:3.9940785723404137 4:2.9640620573578413 5:2.886367828546573 6:0.4831421814891694 7:0.5069216863151678 8:2.172424335567209 
1.0 1:1.600589772600048 2:3.2372697328588593 3:0.6424503844888442 4:1.5348534138358425 5:2.765047235956938 6:1.9050414921705556 7:1.39607778300941 8:2.4971925385383282 
1.0 1:0.7094686515417487 2:4.463654473950067 3:2.7208956912875135 4:1.7481047245864603 5:1.8375376901264684 6:0.2553447770748927 7:2.0877135193343404 8:4.055988040888853 
1.0 1:1.1738535131428598 2:2.260261054060916 3:0.0016361120244700886 4:3.7038687387175595 5:2.2348780089344213 6:0.11192742399050325 7:3.989705584849041 8:4.0842598042644465 
1.0 1:1.6564634247076684 2:1.9322630800547254 3:1.0507201807040691 4:0.32281448562534376 5:2.350063057639629 6:4.415265999081585 7:4.71301173871318 8:4.867330718594108 
1.0 1:0.8693518101822408 2:2.069394126854837 3:1.7600796640365617 4:2.3548341131024584 5:0.5173727166333196 6:4.309025468246083 7:0.12519062588332044 8:4.771084260467026 
1.0 1:2.1013210493771286 2:0.7004914474623501 3:3.7225694338247655 4:3.6900567730182985 5:0.4154046449811645 6:3.2535968112066995 7:0.03859500582137833 8:2.783499636280976 
1.0 1:0.9523608050857885 2:2.9349050404224872 3:0.7987001470123404 4:2.783170857853142 5:1.9347811890754747 6:0.2703000850757817 7:1.2697122015107056 8:4.654791851342699 
0.6184341371037542 1:1.6817308458966436 2:4.444317054140196 3:1.1806589120338868 4:4.785212103853948 5:1.8757881540009789 6:2.8364220359406573 7:2.1903984494785695 8:2.2465479600368243 
1.0 1:0.6565434458998511 2:4.834208212695429 3:0.9478271374410631 4:1.595965625572379 5:0.7272134362780697 6:3.833393509486051 7:3.222361052348172 8:0.3190530040698191 
1.0 1:0.6131965102410606 2:2.5392503471185988 3:0.3236560187957311 4:0.22286062909970866 5:2.57935237906892 6:1.8907054232352252 7:2.981237649812688 8:3.5259562449802195 
1.0 1:1.3962329413180337 2:4.865552662993422 3:1.735687470858848 4:4.124335941319572 5:1.3127863485724252 6:2.709247884922277 7:0.06775090916201026 8:4.32446611258293 
1.0 1:1.7916268387799124 2:3.1452047159355296 3:0.23139497197024156 4:4.306480700471149 5:4.040980401916916 6:1.6089605684349255 7:4.326221228729848 8:3.409762380473328 
1.0 1:1.9697386511053874 2:4.855115215143979 3:2.6671148321137634 4:4.8955823726743235 5:3.8373568478933553 6:0.29514685702644394 7:2.3146602645131304 8:2.725716014279542 
1.0 1:0.9625599030864107 2:1.4267330932101183 3:0.9701249893735547 4:1.6129321760217956 5:1.5002647874162023 6:1.684414920995156 7:3.5541480877944607 8:4.589984591533137 
0.601902202229787 1:0.3623671923054906 2:2.754773963016377 3:2.929904731116669 4:2.1097049261291256 5:0.5046054795398058 6:1.5386019113109015 7:3.8960334952007236 8:4.342294309900658 
1.0 1:1.4208110160253211 2:0.9945343202336105 3:4.571499794194163 4:3.3792868348677554 5:1.1561257935663403 6:1.5104662532697661 7:4.31113702526485 8:3.067477948129054 
1.0 1:4.778265488319939 2:1.1040634844759052 3:3.675005576212554 4:2.6593581683181964 5:1.2016531641251307 6:4.607884189594488 7:1.4387611051416171 8:1.7455715479644265 
1.0 1:2.1297752240255137 2:1.1336869536859804 3:1.122913451829621 4:2.9454964656297054 5:1.3554599263091331 6:4.958015129972397 7:4.135348677270578 8:1.993187028450875 
0.13673824235271642 1:4.748957557504759 2:4.172305301443218 3:2.509149275786136 4:0.21305695661030258 5:2.3081540502046574 6:2.8613595948351804 7:0.8111020481315054 8:0.034466702476732954 
1.0 1:0.39067853215893417 2:2.7801269124866086 3:4.6317349556904475 4:3.2384855103565218 5:0.37824139984816596 6:1.6898582958408028 7:3.887922357917338 8:1.463619209828769 
1.0 1:1.626833686833453 2:3.878618935286461 3:3.403045403006984 4:1.5375447334852466 5:0.6223666219756189 6:4.695238217192492 7:0.544736841647125 8:4.483659672114614 
1.0 1:4.689265562767197 2:1.119572942739656 3:1.5642570465799448 4:4.34544199238671 5:3.139407906484608 6:3.1915813262183357 7:2.46665955979715 8:3.6273461169664682 
1.0 1:4.427531750660056 2:2.2286234953956807 3:2.7523629764070208 4:3.2071315549830532 5:4.969257398387032 6:1.969488250720333 7:4.389061925581271 8:1.8102515527893843 
1.0 1:0.39140491326674093 2:1.0522771224901346 3:0.12357094844462593 4:0.029802050871996683 5:2.8382951597476795 6:1.41920623284695 7:4.640839799784307 8:1.649613435522456 
0.24087757921980207 1:4.988528434997056 2:3.0626621667360188 3:3.526562612740058 4:4.045599791701338 5:3.2625742639299147 6:1.1666577918427286 7:2.060303480781176 8:0.25253897217294 
1.0 1:0.046984421057019124 2:2.1259071417043085 3:3.0041651414426482 4:1.9888110864159876 5:0.6818811380593163 6:0.8286731111466338 7:4.295213591688022 8:1.8800233497448995 
1.0 1:1.5702694217462079 2:4.132774591168497 3:1.2514994677122464 4:4.7750377239655935 5:1.070741079767204 6:3.82131189569537 7:3.2186279951844443 8:0.9041292427434224 
0.30757787924106905 1:3.0013493931149173 2:0.15470645332101074 3:4.06332246454974 4:0.1813532051751715 5:1.4380830715167516 6:1.749072849203478 7:4.2473406628116 8:0.5044948275333658 
0.775286196780595 1:0.36029072005934665 2:1.0055427845114389 3:0.8761411995137367 4:1.2263933692967526 5:0.4984908439910351 6:0.4144077131435991 7:4.0437637805945 8:1.8245371638730226 
