svm_type c_svc
kernel_type rbf
gamma 0.125
nr_class 2
total_sv 456
rho -4.5784268652846924E-6
label 1 -1
nr_sv 228 228
SV
32768.0 1:0.0025252499901017023 2:-0.04382040192125956 3:0.06002203933122413 4:0.062178515015155186 
32768.0 1:-0.038677154636185186 2:0.01906838961436798 3:0.06002203933122413 4:0.062178515015155186 
32768.0 1:-0.038677154636185186 2:0.01906838961436798 3:0.0025252499901017023 4:-0.04382040192125956 
32768.0 1:-0.06861779555054598 2:-0.12457270177389801 3:0.06002203933122413 4:0.062178515015155186 
32768.0 1:-0.06861779555054598 2:-0.12457270177389801 3:0.0025252499901017023 4:-0.04382040192125956 
32768.0 1:-0.06861779555054598 2:-0.12457270177389801 3:-0.038677154636185186 4:0.01906838961436798 
32768.0 1:-0.02423073338119737 2:-0.10917923922538411 3:0.06002203933122413 4:0.062178515015155186 
32768.0 1:-0.02423073338119737 2:-0.10917923922538411 3:0.0025252499901017023 4:-0.04382040192125956 
32768.0 1:-0.02423073338119737 2:-0.10917923922538411 3:-0.038677154636185186 4:0.01906838961436798 
32768.0 1:-0.02423073338119737 2:-0.10917923922538411 3:-0.06861779555054598 4:-0.12457270177389801 
32768.0 1:-0.05294346307768142 2:-0.15175161221314432 3:0.0025252499901017023 4:-0.04382040192125956 
32768.0 1:-0.05294346307768142 2:-0.15175161221314432 3:-0.038677154636185186 4:0.01906838961436798 
32768.0 1:-0.05294346307768142 2:-0.15175161221314432 3:-0.06861779555054598 4:-0.12457270177389801 
32768.0 1:-0.05294346307768142 2:-0.15175161221314432 3:-0.02423073338119737 4:-0.10917923922538411 
32768.0 1:-0.2459664497783673 2:-0.29677499987253303 3:-0.05294346307768142 4:-0.15175161221314432 
32768.0 1:-0.09420761769933207 2:0.031067314152313952 3:0.0025252499901017023 4:-0.04382040192125956 
32768.0 1:-0.09420761769933207 2:0.031067314152313952 3:-0.038677154636185186 4:0.01906838961436798 
32768.0 1:-0.09420761769933207 2:0.031067314152313952 3:-0.06861779555054598 4:-0.12457270177389801 
32768.0 1:-0.09420761769933207 2:0.031067314152313952 3:-0.02423073338119737 4:-0.10917923922538411 
32768.0 1:-0.09420761769933207 2:0.031067314152313952 3:-0.05294346307768142 4:-0.15175161221314432 
32768.0 1:-0.09420761769933207 2:0.031067314152313952 3:-0.2459664497783673 4:-0.29677499987253303 
32768.0 1:-0.22423025814248687 2:-0.10799939124648814 3:-0.02423073338119737 4:-0.10917923922538411 
32768.0 1:-0.22423025814248687 2:-0.10799939124648814 3:-0.05294346307768142 4:-0.15175161221314432 
32768.0 1:-0.22423025814248687 2:-0.10799939124648814 3:-0.2459664497783673 4:-0.29677499987253303 
49.28591239122241 1:-0.22423025814248687 2:-0.10799939124648814 3:-0.09420761769933207 4:0.031067314152313952 
32768.0 1:-0.1876241256142665 2:-0.288892289970653 3:-0.2459664497783673 4:-0.29677499987253303 
23488.544565181743 1:-0.1876241256142665 2:-0.288892289970653 3:-0.22423025814248687 4:-0.10799939124648814 
32768.0 1:-0.26305673710981753 2:-0.34232929286433683 3:-0.2459664497783673 4:-0.29677499987253303 
32768.0 1:-0.26305673710981753 2:-0.34232929286433683 3:-0.1876241256142665 4:-0.288892289970653 
32768.0 1:-0.2820167157692401 2:-0.36640694211743846 3:-0.2459664497783673 4:-0.29677499987253303 
32768.0 1:-0.2820167157692401 2:-0.36640694211743846 3:-0.1876241256142665 4:-0.288892289970653 
32768.0 1:-0.2820167157692401 2:-0.36640694211743846 3:-0.26305673710981753 4:-0.34232929286433683 
32768.0 1:-0.06775211129758249 2:-0.21813222901308182 3:-0.2459664497783673 4:-0.29677499987253303 
32768.0 1:-0.06775211129758249 2:-0.21813222901308182 3:-0.22423025814248687 4:-0.10799939124648814 
32768.0 1:-0.06775211129758249 2:-0.21813222901308182 3:-0.1876241256142665 4:-0.288892289970653 
32768.0 1:-0.06775211129758249 2:-0.21813222901308182 3:-0.26305673710981753 4:-0.34232929286433683 
32768.0 1:-0.06775211129758249 2:-0.21813222901308182 3:-0.2820167157692401 4:-0.36640694211743846 
24313.850236035025 1:0.4024153479296955 2:0.20307981523507104 3:-0.22423025814248687 4:-0.10799939124648814 
9901.987540023956 1:0.4024153479296955 2:0.20307981523507104 3:-0.2820167157692401 4:-0.36640694211743846 
3980.3488119891927 1:-0.7259998304899913 2:-0.8359214535046142 3:0.470397710922583 4:0.24090617663760527 
740.7848009894733 1:0.11080134940637087 2:0.8565813186620548 3:-0.8355487067458591 4:-0.15748489467956017 
19.887346873877398 1:-2.905201486500802 2:-2.129605252636276 3:-0.7259998304899913 4:-0.8359214535046142 
12.658203837153929 1:1.1972221846466642 2:2.604229290193196 3:-3.504942593971778 4:-3.3929509815087036 
18.69174811324478 1:1.1972221846466642 2:2.604229290193196 3:3.7136806017621034 4:3.177244963006025 
1.824398239951152 1:-2.9509003661099236 2:-4.073223775280718 3:-3.504942593971778 4:-3.3929509815087036 
2.1623208338564295 1:-2.9509003661099236 2:-4.073223775280718 3:3.7136806017621034 4:3.177244963006025 
1.4659841316453874 1:4.554879631839803 2:6.0692558648830435 3:-2.905201486500802 4:-2.129605252636276 
5.397364407919297 1:4.554879631839803 2:6.0692558648830435 3:1.1972221846466642 4:2.604229290193196 
1.1030139042596052 1:4.554879631839803 2:6.0692558648830435 3:-2.9509003661099236 4:-4.073223775280718 
3.441920236729774 1:4.554879631839803 2:6.0692558648830435 3:1.7547812709886905 4:3.830852113149133 
1.7730439519638117 1:6.593379992583458 2:6.749755023837778 3:-0.7259998304899913 4:-0.8359214535046142 
0.5493191218566112 1:6.593379992583458 2:6.749755023837778 3:-2.905201486500802 4:-2.129605252636276 
0.5546713816517914 1:6.593379992583458 2:6.749755023837778 3:-2.9509003661099236 4:-4.073223775280718 
0.9778765211611694 1:6.593379992583458 2:6.749755023837778 3:1.7547812709886905 4:3.830852113149133 
1.2579519064278504 1:6.593379992583458 2:6.749755023837778 3:4.554879631839803 4:6.0692558648830435 
1.4968337484622507 1:-7.043365858690656 2:-6.17368983749224 3:-0.7259998304899913 4:-0.8359214535046142 
1.775347463123345 1:-7.043365858690656 2:-6.17368983749224 3:-2.905201486500802 4:-2.129605252636276 
1.005261581816254 1:-7.043365858690656 2:-6.17368983749224 3:1.1972221846466642 4:2.604229290193196 
4.38794259260341 1:-7.043365858690656 2:-6.17368983749224 3:1.7547812709886905 4:3.830852113149133 
0.0723966030117854 1:-7.043365858690656 2:-6.17368983749224 3:4.554879631839803 4:6.0692558648830435 
0.9011853178496099 1:-7.043365858690656 2:-6.17368983749224 3:6.593379992583458 4:6.749755023837778 
32.52677028580584 1:-7.3393283332578925 2:-6.386355188834248 3:-7.043365858690656 4:-6.17368983749224 
8.411771798064192 1:-0.2543316170071792 2:-3.1294698259208005 3:3.7136806017621034 4:3.177244963006025 
2.6235539722327608 1:-0.2543316170071792 2:-3.1294698259208005 3:6.593379992583458 4:6.749755023837778 
4.436804633256265 1:-0.2543316170071792 2:-3.1294698259208005 3:-7.3393283332578925 4:-6.386355188834248 
0.09218416209742132 1:-9.69844523642741 2:-8.429117156369458 3:-0.8355487067458591 4:-0.15748489467956017 
0.6829309275511923 1:-9.69844523642741 2:-8.429117156369458 3:0.11080134940637087 4:0.8565813186620548 
0.9847276931652029 1:-9.69844523642741 2:-8.429117156369458 3:-2.905201486500802 4:-2.129605252636276 
3.799292307306788 1:-9.69844523642741 2:-8.429117156369458 3:1.7547812709886905 4:3.830852113149133 
0.11969871615291927 1:-9.69844523642741 2:-8.429117156369458 3:4.554879631839803 4:6.0692558648830435 
0.8542824360559874 1:-9.69844523642741 2:-8.429117156369458 3:6.593379992583458 4:6.749755023837778 
0.5011171398196136 1:-9.69844523642741 2:-8.429117156369458 3:-0.2543316170071792 4:-3.1294698259208005 
2.1583905020523044 1:0.5501388559336906 2:4.352922135969591 3:4.554879631839803 4:6.0692558648830435 
3.8939510258574037 1:0.5501388559336906 2:4.352922135969591 3:6.593379992583458 4:6.749755023837778 
6.6891661027030285 1:0.5501388559336906 2:4.352922135969591 3:-7.3393283332578925 4:-6.386355188834248 
4.582502733279787 1:0.5501388559336906 2:4.352922135969591 3:-9.69844523642741 4:-8.429117156369458 
1.7117513196258387 1:-4.32798635084141 2:-0.27085163857601735 3:6.593379992583458 4:6.749755023837778 
3.0776148579108344 1:-4.32798635084141 2:-0.27085163857601735 3:-7.3393283332578925 4:-6.386355188834248 
8.938615471447932 1:-4.32798635084141 2:-0.27085163857601735 3:-0.2543316170071792 4:-3.1294698259208005 
1.5572962805815387 1:-4.32798635084141 2:-0.27085163857601735 3:-9.69844523642741 4:-8.429117156369458 
5.714598199787045 1:-4.32798635084141 2:-0.27085163857601735 3:0.5501388559336906 4:4.352922135969591 
10.672027588111586 1:-3.2053988579513737 2:1.153855514042526 3:3.7136806017621034 4:3.177244963006025 
0.41739252554974837 1:-3.2053988579513737 2:1.153855514042526 3:6.593379992583458 4:6.749755023837778 
1.5161571864856052 1:-3.2053988579513737 2:1.153855514042526 3:-7.3393283332578925 4:-6.386355188834248 
0.8876380148010495 1:-3.2053988579513737 2:1.153855514042526 3:-9.69844523642741 4:-8.429117156369458 
9.701918921049483 1:-3.2053988579513737 2:1.153855514042526 3:0.5501388559336906 4:4.352922135969591 
0.33952043557788414 1:-9.08626632388923 2:-5.88425274605286 3:6.593379992583458 4:6.749755023837778 
2.6829106768846387 1:-9.08626632388923 2:-5.88425274605286 3:-0.2543316170071792 4:-3.1294698259208005 
2.3590769682069226 1:-9.08626632388923 2:-5.88425274605286 3:-9.69844523642741 4:-8.429117156369458 
3.7520669290446738 1:-9.08626632388923 2:-5.88425274605286 3:0.5501388559336906 4:4.352922135969591 
2.7204330535760386 1:-9.08626632388923 2:-5.88425274605286 3:-4.32798635084141 4:-0.27085163857601735 
1.8191113717293999 1:-9.08626632388923 2:-5.88425274605286 3:-3.2053988579513737 4:1.153855514042526 
0.6586502049981882 1:7.724561557089536 2:3.5460167399920346 3:3.7136806017621034 4:3.177244963006025 
1.1678433166845426 1:7.724561557089536 2:3.5460167399920346 3:1.1972221846466642 4:2.604229290193196 
0.46328129402212087 1:7.724561557089536 2:3.5460167399920346 3:-2.9509003661099236 4:-4.073223775280718 
0.10247254541517228 1:7.724561557089536 2:3.5460167399920346 3:4.554879631839803 4:6.0692558648830435 
0.9790781409580042 1:7.724561557089536 2:3.5460167399920346 3:6.593379992583458 4:6.749755023837778 
0.8579433076087093 1:7.724561557089536 2:3.5460167399920346 3:-7.043365858690656 4:-6.17368983749224 
1.9803385731970584 1:7.724561557089536 2:3.5460167399920346 3:-0.2543316170071792 4:-3.1294698259208005 
0.9562116476304435 1:7.724561557089536 2:3.5460167399920346 3:-9.69844523642741 4:-8.429117156369458 
1.9685178927150462 1:7.724561557089536 2:3.5460167399920346 3:0.5501388559336906 4:4.352922135969591 
1.2145216376957435 1:7.724561557089536 2:3.5460167399920346 3:-4.32798635084141 4:-0.27085163857601735 
1.6537638372265306 1:7.724561557089536 2:3.5460167399920346 3:-3.2053988579513737 4:1.153855514042526 
0.4022388921158349 1:7.724561557089536 2:3.5460167399920346 3:-9.08626632388923 4:-5.88425274605286 
0.5323942530743759 1:4.20919975476771 2:-0.5800686809613058 3:6.593379992583458 4:6.749755023837778 
0.5755126740010644 1:4.20919975476771 2:-0.5800686809613058 3:-7.043365858690656 4:-6.17368983749224 
0.8919136979595583 1:4.20919975476771 2:-0.5800686809613058 3:-9.69844523642741 4:-8.429117156369458 
0.40902546278710644 1:4.20919975476771 2:-0.5800686809613058 3:-9.08626632388923 4:-5.88425274605286 
0.6939800373965481 1:4.20919975476771 2:-0.5800686809613058 3:7.724561557089536 4:3.5460167399920346 
0.9861757954829127 1:4.683493691586984 2:-0.3051896609402043 3:4.554879631839803 4:6.0692558648830435 
0.1901858608892501 1:4.683493691586984 2:-0.3051896609402043 3:-7.043365858690656 4:-6.17368983749224 
0.23912947360237888 1:4.683493691586984 2:-0.3051896609402043 3:7.724561557089536 4:3.5460167399920346 
0.03544324649753074 1:1.5582109810007143 2:8.178451408436839 3:-2.9509003661099236 4:-4.073223775280718 
0.32831452390365334 1:1.5582109810007143 2:8.178451408436839 3:4.554879631839803 4:6.0692558648830435 
0.3833668575046572 1:1.5582109810007143 2:8.178451408436839 3:6.593379992583458 4:6.749755023837778 
0.20445536880776746 1:1.5582109810007143 2:8.178451408436839 3:-7.043365858690656 4:-6.17368983749224 
0.6690224396917974 1:1.5582109810007143 2:8.178451408436839 3:-0.2543316170071792 4:-3.1294698259208005 
0.39376813527594606 1:1.5582109810007143 2:8.178451408436839 3:-9.69844523642741 4:-8.429117156369458 
0.4079378261710013 1:1.5582109810007143 2:8.178451408436839 3:0.5501388559336906 4:4.352922135969591 
1.5871541291602147 1:1.5582109810007143 2:8.178451408436839 3:-4.32798635084141 4:-0.27085163857601735 
1.7476135078081754 1:1.5582109810007143 2:8.178451408436839 3:-3.2053988579513737 4:1.153855514042526 
0.7170718618846568 1:1.5582109810007143 2:8.178451408436839 3:-9.08626632388923 4:-5.88425274605286 
1.0009107220921067 1:1.5582109810007143 2:8.178451408436839 3:7.724561557089536 4:3.5460167399920346 
0.38158551624532444 1:1.5582109810007143 2:8.178451408436839 3:4.20919975476771 4:-0.5800686809613058 
0.5484643952208023 1:1.5582109810007143 2:8.178451408436839 3:4.683493691586984 4:-0.3051896609402043 
0.16180500150426433 1:-1.8692957056181125 2:-9.329693776563502 3:0.470397710922583 4:0.24090617663760527 
0.23255616960663045 1:-1.8692957056181125 2:-9.329693776563502 3:0.11080134940637087 4:0.8565813186620548 
0.3173226363938132 1:-1.8692957056181125 2:-9.329693776563502 3:3.7136806017621034 4:3.177244963006025 
0.545866937238811 1:-1.8692957056181125 2:-9.329693776563502 3:-2.9509003661099236 4:-4.073223775280718 
0.14723849336948938 1:-1.8692957056181125 2:-9.329693776563502 3:4.554879631839803 4:6.0692558648830435 
0.6841909678626484 1:-1.8692957056181125 2:-9.329693776563502 3:6.593379992583458 4:6.749755023837778 
0.6134569051052379 1:-1.8692957056181125 2:-9.329693776563502 3:-7.043365858690656 4:-6.17368983749224 
0.6290906775455719 1:-1.8692957056181125 2:-9.329693776563502 3:-0.2543316170071792 4:-3.1294698259208005 
0.7435847443087915 1:-1.8692957056181125 2:-9.329693776563502 3:-9.69844523642741 4:-8.429117156369458 
0.7861152242551607 1:-1.8692957056181125 2:-9.329693776563502 3:0.5501388559336906 4:4.352922135969591 
1.0283995840131661 1:-1.8692957056181125 2:-9.329693776563502 3:-4.32798635084141 4:-0.27085163857601735 
0.3675879072406264 1:-1.8692957056181125 2:-9.329693776563502 3:-3.2053988579513737 4:1.153855514042526 
0.3868466107543358 1:-1.8692957056181125 2:-9.329693776563502 3:-9.08626632388923 4:-5.88425274605286 
0.7627169524327707 1:-1.8692957056181125 2:-9.329693776563502 3:7.724561557089536 4:3.5460167399920346 
0.35298297428188924 1:-1.8692957056181125 2:-9.329693776563502 3:4.20919975476771 4:-0.5800686809613058 
0.4996517647233134 1:-1.8692957056181125 2:-9.329693776563502 3:4.683493691586984 4:-0.3051896609402043 
1.0102948453017684 1:-1.8692957056181125 2:-9.329693776563502 3:1.5582109810007143 4:8.178451408436839 
0.23320173492150195 1:-7.2817661985536875 2:1.0265744811102309 3:6.593379992583458 4:6.749755023837778 
0.16189085732629807 1:-7.2817661985536875 2:1.0265744811102309 3:-9.69844523642741 4:-8.429117156369458 
0.5546279785737024 1:-7.2817661985536875 2:1.0265744811102309 3:-4.32798635084141 4:-0.27085163857601735 
1.0295447364297954 1:-7.2817661985536875 2:1.0265744811102309 3:-9.08626632388923 4:-5.88425274605286 
1.1486647131280967 1:-7.2817661985536875 2:1.0265744811102309 3:7.724561557089536 4:3.5460167399920346 
0.6769527664608541 1:-7.2817661985536875 2:1.0265744811102309 3:4.683493691586984 4:-0.3051896609402043 
1.385056589132396 1:-7.2817661985536875 2:1.0265744811102309 3:1.5582109810007143 4:8.178451408436839 
1.2974738752255135 1:-7.2817661985536875 2:1.0265744811102309 3:-1.8692957056181125 4:-9.329693776563502 
0.218458556591927 1:-2.263895887820773 2:8.100235083450261 3:-3.504942593971778 4:-3.3929509815087036 
0.31499507856785863 1:-2.263895887820773 2:8.100235083450261 3:3.7136806017621034 4:3.177244963006025 
0.2806324832999871 1:-2.263895887820773 2:8.100235083450261 3:-2.9509003661099236 4:-4.073223775280718 
0.23801169476865902 1:-2.263895887820773 2:8.100235083450261 3:6.593379992583458 4:6.749755023837778 
0.0988655324458566 1:-2.263895887820773 2:8.100235083450261 3:-7.043365858690656 4:-6.17368983749224 
0.3320980405825563 1:-2.263895887820773 2:8.100235083450261 3:-0.2543316170071792 4:-3.1294698259208005 
0.2493264390490637 1:-2.263895887820773 2:8.100235083450261 3:-9.69844523642741 4:-8.429117156369458 
0.5774069720199946 1:-2.263895887820773 2:8.100235083450261 3:0.5501388559336906 4:4.352922135969591 
0.1944293083589911 1:-2.263895887820773 2:8.100235083450261 3:-4.32798635084141 4:-0.27085163857601735 
0.8235645656209182 1:-2.263895887820773 2:8.100235083450261 3:-3.2053988579513737 4:1.153855514042526 
0.33955212414766334 1:-2.263895887820773 2:8.100235083450261 3:-9.08626632388923 4:-5.88425274605286 
0.5278247144248663 1:-2.263895887820773 2:8.100235083450261 3:7.724561557089536 4:3.5460167399920346 
0.29202594601011767 1:-2.263895887820773 2:8.100235083450261 3:4.20919975476771 4:-0.5800686809613058 
0.25009640506691344 1:-2.263895887820773 2:8.100235083450261 3:4.683493691586984 4:-0.3051896609402043 
0.7051921654719489 1:-2.263895887820773 2:8.100235083450261 3:1.5582109810007143 4:8.178451408436839 
0.9992803598144503 1:-2.263895887820773 2:8.100235083450261 3:-1.8692957056181125 4:-9.329693776563502 
0.948415273657962 1:-2.263895887820773 2:8.100235083450261 3:-7.2817661985536875 4:1.0265744811102309 
0.5368534269027427 1:-4.876577582041916 2:6.195776575438302 3:-2.9509003661099236 4:-4.073223775280718 
0.19491236169107484 1:-4.876577582041916 2:6.195776575438302 3:4.554879631839803 4:6.0692558648830435 
0.4983844608792601 1:-4.876577582041916 2:6.195776575438302 3:6.593379992583458 4:6.749755023837778 
0.4015065942648605 1:-4.876577582041916 2:6.195776575438302 3:-7.043365858690656 4:-6.17368983749224 
0.5440830564553509 1:-4.876577582041916 2:6.195776575438302 3:-9.69844523642741 4:-8.429117156369458 
0.0779128554762204 1:-4.876577582041916 2:6.195776575438302 3:0.5501388559336906 4:4.352922135969591 
0.2748405633067952 1:-4.876577582041916 2:6.195776575438302 3:-4.32798635084141 4:-0.27085163857601735 
0.3480135424532271 1:-4.876577582041916 2:6.195776575438302 3:-9.08626632388923 4:-5.88425274605286 
0.6477015766063193 1:-4.876577582041916 2:6.195776575438302 3:7.724561557089536 4:3.5460167399920346 
0.6175539046058294 1:-4.876577582041916 2:6.195776575438302 3:4.683493691586984 4:-0.3051896609402043 
0.5530341166353343 1:-4.876577582041916 2:6.195776575438302 3:1.5582109810007143 4:8.178451408436839 
0.7174661191608971 1:-4.876577582041916 2:6.195776575438302 3:-1.8692957056181125 4:-9.329693776563502 
0.6705857374345656 1:-4.876577582041916 2:6.195776575438302 3:-7.2817661985536875 4:1.0265744811102309 
0.9808964091243407 1:-4.876577582041916 2:6.195776575438302 3:-2.263895887820773 4:8.100235083450261 
0.2706246782873444 1:9.593584117976391 2:-4.25393744293729 3:0.470397710922583 4:0.24090617663760527 
0.2453429257936542 1:9.593584117976391 2:-4.25393744293729 3:0.11080134940637087 4:0.8565813186620548 
0.4021182000422436 1:9.593584117976391 2:-4.25393744293729 3:-3.504942593971778 4:-3.3929509815087036 
0.4218436973684673 1:9.593584117976391 2:-4.25393744293729 3:3.7136806017621034 4:3.177244963006025 
0.0011880183749600213 1:9.593584117976391 2:-4.25393744293729 3:1.1972221846466642 4:2.604229290193196 
0.2720058091797036 1:9.593584117976391 2:-4.25393744293729 3:-2.9509003661099236 4:-4.073223775280718 
0.19005732185325955 1:9.593584117976391 2:-4.25393744293729 3:4.554879631839803 4:6.0692558648830435 
0.6484514243465601 1:9.593584117976391 2:-4.25393744293729 3:6.593379992583458 4:6.749755023837778 
0.5615838484004255 1:9.593584117976391 2:-4.25393744293729 3:-7.043365858690656 4:-6.17368983749224 
0.6316265348688648 1:9.593584117976391 2:-4.25393744293729 3:-0.2543316170071792 4:-3.1294698259208005 
0.7142756300996927 1:9.593584117976391 2:-4.25393744293729 3:-9.69844523642741 4:-8.429117156369458 
0.5885095973036156 1:9.593584117976391 2:-4.25393744293729 3:0.5501388559336906 4:4.352922135969591 
0.18638503643943674 1:9.593584117976391 2:-4.25393744293729 3:-4.32798635084141 4:-0.27085163857601735 
0.5356396559283464 1:9.593584117976391 2:-4.25393744293729 3:-3.2053988579513737 4:1.153855514042526 
0.3425324729720529 1:9.593584117976391 2:-4.25393744293729 3:-9.08626632388923 4:-5.88425274605286 
0.7159715019542108 1:9.593584117976391 2:-4.25393744293729 3:7.724561557089536 4:3.5460167399920346 
0.3278884643364205 1:9.593584117976391 2:-4.25393744293729 3:4.20919975476771 4:-0.5800686809613058 
0.49443453768913453 1:9.593584117976391 2:-4.25393744293729 3:4.683493691586984 4:-0.3051896609402043 
0.7410558976968585 1:9.593584117976391 2:-4.25393744293729 3:1.5582109810007143 4:8.178451408436839 
0.9758742988481133 1:9.593584117976391 2:-4.25393744293729 3:-1.8692957056181125 4:-9.329693776563502 
0.8549135687955314 1:9.593584117976391 2:-4.25393744293729 3:-7.2817661985536875 4:1.0265744811102309 
0.6245742191379126 1:9.593584117976391 2:-4.25393744293729 3:-2.263895887820773 4:8.100235083450261 
0.7822639750629279 1:9.593584117976391 2:-4.25393744293729 3:-4.876577582041916 4:6.195776575438302 
0.26559215655472146 1:5.406289901106485 2:-8.636991709801956 3:0.470397710922583 4:0.24090617663760527 
0.23163585433249187 1:5.406289901106485 2:-8.636991709801956 3:0.11080134940637087 4:0.8565813186620548 
0.39766385326122966 1:5.406289901106485 2:-8.636991709801956 3:-3.504942593971778 4:-3.3929509815087036 
0.418009791891976 1:5.406289901106485 2:-8.636991709801956 3:3.7136806017621034 4:3.177244963006025 
0.008931524253594078 1:5.406289901106485 2:-8.636991709801956 3:1.1972221846466642 4:2.604229290193196 
0.276671512692278 1:5.406289901106485 2:-8.636991709801956 3:-2.9509003661099236 4:-4.073223775280718 
0.19716459719696394 1:5.406289901106485 2:-8.636991709801956 3:4.554879631839803 4:6.0692558648830435 
0.6484791994488537 1:5.406289901106485 2:-8.636991709801956 3:6.593379992583458 4:6.749755023837778 
0.5628203097019283 1:5.406289901106485 2:-8.636991709801956 3:-7.043365858690656 4:-6.17368983749224 
0.6266391613401153 1:5.406289901106485 2:-8.636991709801956 3:-0.2543316170071792 4:-3.1294698259208005 
0.7173768174310753 1:5.406289901106485 2:-8.636991709801956 3:-9.69844523642741 4:-8.429117156369458 
0.5852069153918737 1:5.406289901106485 2:-8.636991709801956 3:0.5501388559336906 4:4.352922135969591 
0.18903180224664376 1:5.406289901106485 2:-8.636991709801956 3:-4.32798635084141 4:-0.27085163857601735 
0.5357339205496511 1:5.406289901106485 2:-8.636991709801956 3:-3.2053988579513737 4:1.153855514042526 
0.3460843571450297 1:5.406289901106485 2:-8.636991709801956 3:-9.08626632388923 4:-5.88425274605286 
0.7210267468516076 1:5.406289901106485 2:-8.636991709801956 3:7.724561557089536 4:3.5460167399920346 
0.35085623845088126 1:5.406289901106485 2:-8.636991709801956 3:4.20919975476771 4:-0.5800686809613058 
0.46396482167758196 1:5.406289901106485 2:-8.636991709801956 3:4.683493691586984 4:-0.3051896609402043 
0.7340021353947748 1:5.406289901106485 2:-8.636991709801956 3:1.5582109810007143 4:8.178451408436839 
0.969449838188598 1:5.406289901106485 2:-8.636991709801956 3:-1.8692957056181125 4:-9.329693776563502 
0.8513252865904118 1:5.406289901106485 2:-8.636991709801956 3:-7.2817661985536875 4:1.0265744811102309 
0.6226992562856635 1:5.406289901106485 2:-8.636991709801956 3:-2.263895887820773 4:8.100235083450261 
0.7787687844499985 1:5.406289901106485 2:-8.636991709801956 3:-4.876577582041916 4:6.195776575438302 
0.9964822721267532 1:5.406289901106485 2:-8.636991709801956 3:9.593584117976391 4:-4.25393744293729 
-32768.0 1:0.06002203933122413 2:0.062178515015155186 3:0.0025252499901017023 4:-0.04382040192125956 
-32768.0 1:0.06002203933122413 2:0.062178515015155186 3:-0.038677154636185186 4:0.01906838961436798 
-32768.0 1:0.06002203933122413 2:0.062178515015155186 3:-0.06861779555054598 4:-0.12457270177389801 
-32768.0 1:0.06002203933122413 2:0.062178515015155186 3:-0.02423073338119737 4:-0.10917923922538411 
-32768.0 1:0.0025252499901017023 2:-0.04382040192125956 3:-0.038677154636185186 4:0.01906838961436798 
-32768.0 1:0.0025252499901017023 2:-0.04382040192125956 3:-0.06861779555054598 4:-0.12457270177389801 
-32768.0 1:0.0025252499901017023 2:-0.04382040192125956 3:-0.02423073338119737 4:-0.10917923922538411 
-32768.0 1:0.0025252499901017023 2:-0.04382040192125956 3:-0.05294346307768142 4:-0.15175161221314432 
-32768.0 1:0.0025252499901017023 2:-0.04382040192125956 3:-0.09420761769933207 4:0.031067314152313952 
-32768.0 1:-0.038677154636185186 2:0.01906838961436798 3:-0.06861779555054598 4:-0.12457270177389801 
-32768.0 1:-0.038677154636185186 2:0.01906838961436798 3:-0.02423073338119737 4:-0.10917923922538411 
-32768.0 1:-0.038677154636185186 2:0.01906838961436798 3:-0.05294346307768142 4:-0.15175161221314432 
-32768.0 1:-0.038677154636185186 2:0.01906838961436798 3:-0.09420761769933207 4:0.031067314152313952 
-32768.0 1:-0.06861779555054598 2:-0.12457270177389801 3:-0.02423073338119737 4:-0.10917923922538411 
-32768.0 1:-0.06861779555054598 2:-0.12457270177389801 3:-0.05294346307768142 4:-0.15175161221314432 
-32768.0 1:-0.06861779555054598 2:-0.12457270177389801 3:-0.09420761769933207 4:0.031067314152313952 
-32768.0 1:-0.02423073338119737 2:-0.10917923922538411 3:-0.05294346307768142 4:-0.15175161221314432 
-32768.0 1:-0.02423073338119737 2:-0.10917923922538411 3:-0.09420761769933207 4:0.031067314152313952 
-32768.0 1:-0.02423073338119737 2:-0.10917923922538411 3:-0.22423025814248687 4:-0.10799939124648814 
-32768.0 1:-0.05294346307768142 2:-0.15175161221314432 3:-0.2459664497783673 4:-0.29677499987253303 
-32768.0 1:-0.05294346307768142 2:-0.15175161221314432 3:-0.09420761769933207 4:0.031067314152313952 
-32768.0 1:-0.05294346307768142 2:-0.15175161221314432 3:-0.22423025814248687 4:-0.10799939124648814 
-32768.0 1:-0.2459664497783673 2:-0.29677499987253303 3:-0.09420761769933207 4:0.031067314152313952 
-32768.0 1:-0.2459664497783673 2:-0.29677499987253303 3:-0.22423025814248687 4:-0.10799939124648814 
-32768.0 1:-0.2459664497783673 2:-0.29677499987253303 3:-0.1876241256142665 4:-0.288892289970653 
-32768.0 1:-0.2459664497783673 2:-0.29677499987253303 3:-0.26305673710981753 4:-0.34232929286433683 
-32768.0 1:-0.2459664497783673 2:-0.29677499987253303 3:-0.2820167157692401 4:-0.36640694211743846 
-32768.0 1:-0.2459664497783673 2:-0.29677499987253303 3:-0.06775211129758249 4:-0.21813222901308182 
-49.3223916690663 1:-0.09420761769933207 2:0.031067314152313952 3:-0.22423025814248687 4:-0.10799939124648814 
-23488.534709703308 1:-0.22423025814248687 2:-0.10799939124648814 3:-0.1876241256142665 4:-0.288892289970653 
-32768.0 1:-0.22423025814248687 2:-0.10799939124648814 3:-0.06775211129758249 4:-0.21813222901308182 
-24313.915696379034 1:-0.22423025814248687 2:-0.10799939124648814 3:0.4024153479296955 4:0.20307981523507104 
-32768.0 1:-0.1876241256142665 2:-0.288892289970653 3:-0.26305673710981753 4:-0.34232929286433683 
-32768.0 1:-0.1876241256142665 2:-0.288892289970653 3:-0.2820167157692401 4:-0.36640694211743846 
-32768.0 1:-0.1876241256142665 2:-0.288892289970653 3:-0.06775211129758249 4:-0.21813222901308182 
-32768.0 1:-0.26305673710981753 2:-0.34232929286433683 3:-0.2820167157692401 4:-0.36640694211743846 
-32768.0 1:-0.26305673710981753 2:-0.34232929286433683 3:-0.06775211129758249 4:-0.21813222901308182 
-32768.0 1:-0.2820167157692401 2:-0.36640694211743846 3:-0.06775211129758249 4:-0.21813222901308182 
-9901.884527558994 1:-0.2820167157692401 2:-0.36640694211743846 3:0.4024153479296955 4:0.20307981523507104 
-3980.374576247739 1:0.470397710922583 2:0.24090617663760527 3:-0.7259998304899913 4:-0.8359214535046142 
-0.1557248042975614 1:0.470397710922583 2:0.24090617663760527 3:-1.8692957056181125 4:-9.329693776563502 
-0.27896341347103826 1:0.470397710922583 2:0.24090617663760527 3:9.593584117976391 4:-4.25393744293729 
-0.26003590399475557 1:0.470397710922583 2:0.24090617663760527 3:5.406289901106485 4:-8.636991709801956 
-19.886709103989 1:-0.7259998304899913 2:-0.8359214535046142 3:-2.905201486500802 4:-2.129605252636276 
-1.7741428582383878 1:-0.7259998304899913 2:-0.8359214535046142 3:6.593379992583458 4:6.749755023837778 
-1.4950187511918158 1:-0.7259998304899913 2:-0.8359214535046142 3:-7.043365858690656 4:-6.17368983749224 
-740.7687588818936 1:-0.8355487067458591 2:-0.15748489467956017 3:0.11080134940637087 4:0.8565813186620548 
-0.09519577797077142 1:-0.8355487067458591 2:-0.15748489467956017 3:-9.69844523642741 4:-8.429117156369458 
-0.6814963925787477 1:0.11080134940637087 2:0.8565813186620548 3:-9.69844523642741 4:-8.429117156369458 
-0.23870852424028252 1:0.11080134940637087 2:0.8565813186620548 3:-1.8692957056181125 4:-9.329693776563502 
-0.2360054367117415 1:0.11080134940637087 2:0.8565813186620548 3:9.593584117976391 4:-4.25393744293729 
-0.2390423036676622 1:0.11080134940637087 2:0.8565813186620548 3:5.406289901106485 4:-8.636991709801956 
-1.4676481820476055 1:-2.905201486500802 2:-2.129605252636276 3:4.554879631839803 4:6.0692558648830435 
-0.5457905185522787 1:-2.905201486500802 2:-2.129605252636276 3:6.593379992583458 4:6.749755023837778 
-1.7773453023505394 1:-2.905201486500802 2:-2.129605252636276 3:-7.043365858690656 4:-6.17368983749224 
-0.9828040230700298 1:-2.905201486500802 2:-2.129605252636276 3:-9.69844523642741 4:-8.429117156369458 
-12.657978417289312 1:-3.504942593971778 2:-3.3929509815087036 3:1.1972221846466642 4:2.604229290193196 
-1.8244564422131326 1:-3.504942593971778 2:-3.3929509815087036 3:-2.9509003661099236 4:-4.073223775280718 
-0.2217808937530315 1:-3.504942593971778 2:-3.3929509815087036 3:-2.263895887820773 4:8.100235083450261 
-0.3989196313940167 1:-3.504942593971778 2:-3.3929509815087036 3:9.593584117976391 4:-4.25393744293729 
-0.39823511191310623 1:-3.504942593971778 2:-3.3929509815087036 3:5.406289901106485 4:-8.636991709801956 
-18.691994886940417 1:3.7136806017621034 2:3.177244963006025 3:1.1972221846466642 4:2.604229290193196 
-2.162545129243304 1:3.7136806017621034 2:3.177244963006025 3:-2.9509003661099236 4:-4.073223775280718 
-8.412240731020438 1:3.7136806017621034 2:3.177244963006025 3:-0.2543316170071792 4:-3.1294698259208005 
-10.671727248350463 1:3.7136806017621034 2:3.177244963006025 3:-3.2053988579513737 4:1.153855514042526 
-0.6583662002127301 1:3.7136806017621034 2:3.177244963006025 3:7.724561557089536 4:3.5460167399920346 
-0.3173254942264267 1:3.7136806017621034 2:3.177244963006025 3:-1.8692957056181125 4:-9.329693776563502 
-0.31552679074662937 1:3.7136806017621034 2:3.177244963006025 3:-2.263895887820773 4:8.100235083450261 
-0.41990867129744325 1:3.7136806017621034 2:3.177244963006025 3:9.593584117976391 4:-4.25393744293729 
-0.4195340214445403 1:3.7136806017621034 2:3.177244963006025 3:5.406289901106485 4:-8.636991709801956 
-5.397828675071297 1:1.1972221846466642 2:2.604229290193196 3:4.554879631839803 4:6.0692558648830435 
-1.0055655967119452 1:1.1972221846466642 2:2.604229290193196 3:-7.043365858690656 4:-6.17368983749224 
-1.1684895757290712 1:1.1972221846466642 2:2.604229290193196 3:7.724561557089536 4:3.5460167399920346 
-0.003987449118301887 1:1.1972221846466642 2:2.604229290193196 3:9.593584117976391 4:-4.25393744293729 
-0.005097828463378969 1:1.1972221846466642 2:2.604229290193196 3:5.406289901106485 4:-8.636991709801956 
-1.1013066448957751 1:-2.9509003661099236 2:-4.073223775280718 3:4.554879631839803 4:6.0692558648830435 
-0.5573309213690731 1:-2.9509003661099236 2:-4.073223775280718 3:6.593379992583458 4:6.749755023837778 
-0.462598410282448 1:-2.9509003661099236 2:-4.073223775280718 3:7.724561557089536 4:3.5460167399920346 
-0.0348897306799856 1:-2.9509003661099236 2:-4.073223775280718 3:1.5582109810007143 4:8.178451408436839 
-0.5455225679114658 1:-2.9509003661099236 2:-4.073223775280718 3:-1.8692957056181125 4:-9.329693776563502 
-0.27850847251447286 1:-2.9509003661099236 2:-4.073223775280718 3:-2.263895887820773 4:8.100235083450261 
-0.5366604811343586 1:-2.9509003661099236 2:-4.073223775280718 3:-4.876577582041916 4:6.195776575438302 
-0.2758114822191413 1:-2.9509003661099236 2:-4.073223775280718 3:9.593584117976391 4:-4.25393744293729 
-0.2759129605501638 1:-2.9509003661099236 2:-4.073223775280718 3:5.406289901106485 4:-8.636991709801956 
-3.4426416000352984 1:1.7547812709886905 2:3.830852113149133 3:4.554879631839803 4:6.0692558648830435 
-0.9757725469529415 1:1.7547812709886905 2:3.830852113149133 3:6.593379992583458 4:6.749755023837778 
-4.388993707074674 1:1.7547812709886905 2:3.830852113149133 3:-7.043365858690656 4:-6.17368983749224 
-3.798007871890581 1:1.7547812709886905 2:3.830852113149133 3:-9.69844523642741 4:-8.429117156369458 
-1.25819034195319 1:4.554879631839803 2:6.0692558648830435 3:6.593379992583458 4:6.749755023837778 
-0.07126926601315668 1:4.554879631839803 2:6.0692558648830435 3:-7.043365858690656 4:-6.17368983749224 
-0.120759594927836 1:4.554879631839803 2:6.0692558648830435 3:-9.69844523642741 4:-8.429117156369458 
-2.156506911755828 1:4.554879631839803 2:6.0692558648830435 3:0.5501388559336906 4:4.352922135969591 
-0.10206775987078619 1:4.554879631839803 2:6.0692558648830435 3:7.724561557089536 4:3.5460167399920346 
-0.9865927869716126 1:4.554879631839803 2:6.0692558648830435 3:4.683493691586984 4:-0.3051896609402043 
-0.32833805099143415 1:4.554879631839803 2:6.0692558648830435 3:1.5582109810007143 4:8.178451408436839 
-0.14732646556194245 1:4.554879631839803 2:6.0692558648830435 3:-1.8692957056181125 4:-9.329693776563502 
-0.19443285185006773 1:4.554879631839803 2:6.0692558648830435 3:-4.876577582041916 4:6.195776575438302 
-0.19133919399617663 1:4.554879631839803 2:6.0692558648830435 3:9.593584117976391 4:-4.25393744293729 
-0.19678198759409207 1:4.554879631839803 2:6.0692558648830435 3:5.406289901106485 4:-8.636991709801956 
-0.9023463473669887 1:6.593379992583458 2:6.749755023837778 3:-7.043365858690656 4:-6.17368983749224 
-2.623313964043458 1:6.593379992583458 2:6.749755023837778 3:-0.2543316170071792 4:-3.1294698259208005 
-0.853800886861005 1:6.593379992583458 2:6.749755023837778 3:-9.69844523642741 4:-8.429117156369458 
-3.89613899248104 1:6.593379992583458 2:6.749755023837778 3:0.5501388559336906 4:4.352922135969591 
-1.7128126332831732 1:6.593379992583458 2:6.749755023837778 3:-4.32798635084141 4:-0.27085163857601735 
-0.41741175844652645 1:6.593379992583458 2:6.749755023837778 3:-3.2053988579513737 4:1.153855514042526 
-0.338528187367972 1:6.593379992583458 2:6.749755023837778 3:-9.08626632388923 4:-5.88425274605286 
-0.9797197210691362 1:6.593379992583458 2:6.749755023837778 3:7.724561557089536 4:3.5460167399920346 
-0.5319673977434599 1:6.593379992583458 2:6.749755023837778 3:4.20919975476771 4:-0.5800686809613058 
-0.38329473432354216 1:6.593379992583458 2:6.749755023837778 3:1.5582109810007143 4:8.178451408436839 
-0.6838507670466589 1:6.593379992583458 2:6.749755023837778 3:-1.8692957056181125 4:-9.329693776563502 
-0.2329845330774941 1:6.593379992583458 2:6.749755023837778 3:-7.2817661985536875 4:1.0265744811102309 
-0.2382355531340779 1:6.593379992583458 2:6.749755023837778 3:-2.263895887820773 4:8.100235083450261 
-0.4982400430718297 1:6.593379992583458 2:6.749755023837778 3:-4.876577582041916 4:6.195776575438302 
-0.6473170762026175 1:6.593379992583458 2:6.749755023837778 3:9.593584117976391 4:-4.25393744293729 
-0.6485181817008818 1:6.593379992583458 2:6.749755023837778 3:5.406289901106485 4:-8.636991709801956 
-32.52720858148767 1:-7.043365858690656 2:-6.17368983749224 3:-7.3393283332578925 4:-6.386355188834248 
-0.8582440651293378 1:-7.043365858690656 2:-6.17368983749224 3:7.724561557089536 4:3.5460167399920346 
-0.5806490457650287 1:-7.043365858690656 2:-6.17368983749224 3:4.20919975476771 4:-0.5800686809613058 
-0.18644968758342279 1:-7.043365858690656 2:-6.17368983749224 3:4.683493691586984 4:-0.3051896609402043 
-0.20439248505897167 1:-7.043365858690656 2:-6.17368983749224 3:1.5582109810007143 4:8.178451408436839 
-0.612532238630635 1:-7.043365858690656 2:-6.17368983749224 3:-1.8692957056181125 4:-9.329693776563502 
-0.09763170760209833 1:-7.043365858690656 2:-6.17368983749224 3:-2.263895887820773 4:8.100235083450261 
-0.4025628591333221 1:-7.043365858690656 2:-6.17368983749224 3:-4.876577582041916 4:6.195776575438302 
-0.5611215171211515 1:-7.043365858690656 2:-6.17368983749224 3:9.593584117976391 4:-4.25393744293729 
-0.5624885453593704 1:-7.043365858690656 2:-6.17368983749224 3:5.406289901106485 4:-8.636991709801956 
-4.436165688207145 1:-7.3393283332578925 2:-6.386355188834248 3:-0.2543316170071792 4:-3.1294698259208005 
-6.687718356039229 1:-7.3393283332578925 2:-6.386355188834248 3:0.5501388559336906 4:4.352922135969591 
-3.074919633529563 1:-7.3393283332578925 2:-6.386355188834248 3:-4.32798635084141 4:-0.27085163857601735 
-1.5186929111275447 1:-7.3393283332578925 2:-6.386355188834248 3:-3.2053988579513737 4:1.153855514042526 
-0.5008377019983821 1:-0.2543316170071792 2:-3.1294698259208005 3:-9.69844523642741 4:-8.429117156369458 
-8.938515668775095 1:-0.2543316170071792 2:-3.1294698259208005 3:-4.32798635084141 4:-0.27085163857601735 
-2.6837832622707007 1:-0.2543316170071792 2:-3.1294698259208005 3:-9.08626632388923 4:-5.88425274605286 
-1.9807516064303001 1:-0.2543316170071792 2:-3.1294698259208005 3:7.724561557089536 4:3.5460167399920346 
-0.6693912574560541 1:-0.2543316170071792 2:-3.1294698259208005 3:1.5582109810007143 4:8.178451408436839 
-0.6297317598766092 1:-0.2543316170071792 2:-3.1294698259208005 3:-1.8692957056181125 4:-9.329693776563502 
-0.3322667013532497 1:-0.2543316170071792 2:-3.1294698259208005 3:-2.263895887820773 4:8.100235083450261 
-0.6304617587048609 1:-0.2543316170071792 2:-3.1294698259208005 3:9.593584117976391 4:-4.25393744293729 
-0.6272511454432664 1:-0.2543316170071792 2:-3.1294698259208005 3:5.406289901106485 4:-8.636991709801956 
-4.58463348047373 1:-9.69844523642741 2:-8.429117156369458 3:0.5501388559336906 4:4.352922135969591 
-1.5615687064228596 1:-9.69844523642741 2:-8.429117156369458 3:-4.32798635084141 4:-0.27085163857601735 
-0.8839095697161359 1:-9.69844523642741 2:-8.429117156369458 3:-3.2053988579513737 4:1.153855514042526 
-2.358886746739095 1:-9.69844523642741 2:-8.429117156369458 3:-9.08626632388923 4:-5.88425274605286 
-0.9562173311537603 1:-9.69844523642741 2:-8.429117156369458 3:7.724561557089536 4:3.5460167399920346 
-0.8927745406558318 1:-9.69844523642741 2:-8.429117156369458 3:4.20919975476771 4:-0.5800686809613058 
-0.3929038319976038 1:-9.69844523642741 2:-8.429117156369458 3:1.5582109810007143 4:8.178451408436839 
-0.7430143754993755 1:-9.69844523642741 2:-8.429117156369458 3:-1.8692957056181125 4:-9.329693776563502 
-0.16068851160229208 1:-9.69844523642741 2:-8.429117156369458 3:-7.2817661985536875 4:1.0265744811102309 
-0.2486077801666981 1:-9.69844523642741 2:-8.429117156369458 3:-2.263895887820773 4:8.100235083450261 
-0.5446351824828294 1:-9.69844523642741 2:-8.429117156369458 3:-4.876577582041916 4:6.195776575438302 
-0.7140712446496047 1:-9.69844523642741 2:-8.429117156369458 3:9.593584117976391 4:-4.25393744293729 
-0.717671762684671 1:-9.69844523642741 2:-8.429117156369458 3:5.406289901106485 4:-8.636991709801956 
-5.715194661934959 1:0.5501388559336906 2:4.352922135969591 3:-4.32798635084141 4:-0.27085163857601735 
-9.70180003480893 1:0.5501388559336906 2:4.352922135969591 3:-3.2053988579513737 4:1.153855514042526 
-3.752172358601881 1:0.5501388559336906 2:4.352922135969591 3:-9.08626632388923 4:-5.88425274605286 
-1.9678907340545797 1:0.5501388559336906 2:4.352922135969591 3:7.724561557089536 4:3.5460167399920346 
-0.40809620870515784 1:0.5501388559336906 2:4.352922135969591 3:1.5582109810007143 4:8.178451408436839 
-0.7853200989312802 1:0.5501388559336906 2:4.352922135969591 3:-1.8692957056181125 4:-9.329693776563502 
-0.5762197480848412 1:0.5501388559336906 2:4.352922135969591 3:-2.263895887820773 4:8.100235083450261 
-0.07826211603054287 1:0.5501388559336906 2:4.352922135969591 3:-4.876577582041916 4:6.195776575438302 
-0.5875089764345034 1:0.5501388559336906 2:4.352922135969591 3:9.593584117976391 4:-4.25393744293729 
-0.5860989668583322 1:0.5501388559336906 2:4.352922135969591 3:5.406289901106485 4:-8.636991709801956 
-2.719635014643611 1:-4.32798635084141 2:-0.27085163857601735 3:-9.08626632388923 4:-5.88425274605286 
-1.2158134400087388 1:-4.32798635084141 2:-0.27085163857601735 3:7.724561557089536 4:3.5460167399920346 
-1.5868250915742315 1:-4.32798635084141 2:-0.27085163857601735 3:1.5582109810007143 4:8.178451408436839 
-1.0301151838329332 1:-4.32798635084141 2:-0.27085163857601735 3:-1.8692957056181125 4:-9.329693776563502 
-0.5547165421897907 1:-4.32798635084141 2:-0.27085163857601735 3:-7.2817661985536875 4:1.0265744811102309 
-0.19152358047617718 1:-4.32798635084141 2:-0.27085163857601735 3:-2.263895887820773 4:8.100235083450261 
-0.27537717281378354 1:-4.32798635084141 2:-0.27085163857601735 3:-4.876577582041916 4:6.195776575438302 
-0.18658427292577298 1:-4.32798635084141 2:-0.27085163857601735 3:9.593584117976391 4:-4.25393744293729 
-0.18900058775040793 1:-4.32798635084141 2:-0.27085163857601735 3:5.406289901106485 4:-8.636991709801956 
-1.8194243259434526 1:-3.2053988579513737 2:1.153855514042526 3:-9.08626632388923 4:-5.88425274605286 
-1.6528761308731177 1:-3.2053988579513737 2:1.153855514042526 3:7.724561557089536 4:3.5460167399920346 
-1.7475502760658883 1:-3.2053988579513737 2:1.153855514042526 3:1.5582109810007143 4:8.178451408436839 
-0.3650148874224825 1:-3.2053988579513737 2:1.153855514042526 3:-1.8692957056181125 4:-9.329693776563502 
-0.8253667707378602 1:-3.2053988579513737 2:1.153855514042526 3:-2.263895887820773 4:8.100235083450261 
-0.5367176212378523 1:-3.2053988579513737 2:1.153855514042526 3:9.593584117976391 4:-4.25393744293729 
-0.5352658813021953 1:-3.2053988579513737 2:1.153855514042526 3:5.406289901106485 4:-8.636991709801956 
-0.4028092211672462 1:-9.08626632388923 2:-5.88425274605286 3:7.724561557089536 4:3.5460167399920346 
-0.4071317575942581 1:-9.08626632388923 2:-5.88425274605286 3:4.20919975476771 4:-0.5800686809613058 
-0.7178743940141344 1:-9.08626632388923 2:-5.88425274605286 3:1.5582109810007143 4:8.178451408436839 
-0.38792016713950495 1:-9.08626632388923 2:-5.88425274605286 3:-1.8692957056181125 4:-9.329693776563502 
-1.0306108944691883 1:-9.08626632388923 2:-5.88425274605286 3:-7.2817661985536875 4:1.0265744811102309 
-0.34066104556856 1:-9.08626632388923 2:-5.88425274605286 3:-2.263895887820773 4:8.100235083450261 
-0.3473599500624416 1:-9.08626632388923 2:-5.88425274605286 3:-4.876577582041916 4:6.195776575438302 
-0.3428188271053651 1:-9.08626632388923 2:-5.88425274605286 3:9.593584117976391 4:-4.25393744293729 
-0.34628431294337825 1:-9.08626632388923 2:-5.88425274605286 3:5.406289901106485 4:-8.636991709801956 
-0.6945994215713881 1:7.724561557089536 2:3.5460167399920346 3:4.20919975476771 4:-0.5800686809613058 
-0.2392957693195277 1:7.724561557089536 2:3.5460167399920346 3:4.683493691586984 4:-0.3051896609402043 
-1.0009955172239733 1:7.724561557089536 2:3.5460167399920346 3:1.5582109810007143 4:8.178451408436839 
-0.762943839452202 1:7.724561557089536 2:3.5460167399920346 3:-1.8692957056181125 4:-9.329693776563502 
-1.1478512838141859 1:7.724561557089536 2:3.5460167399920346 3:-7.2817661985536875 4:1.0265744811102309 
-0.5277008577089388 1:7.724561557089536 2:3.5460167399920346 3:-2.263895887820773 4:8.100235083450261 
-0.6480551185594642 1:7.724561557089536 2:3.5460167399920346 3:-4.876577582041916 4:6.195776575438302 
-0.7159647728513984 1:7.724561557089536 2:3.5460167399920346 3:9.593584117976391 4:-4.25393744293729 
-0.7214937172201739 1:7.724561557089536 2:3.5460167399920346 3:5.406289901106485 4:-8.636991709801956 
-0.3732698720287863 1:4.20919975476771 2:-0.5800686809613058 3:1.5582109810007143 4:8.178451408436839 
-0.3552808446291139 1:4.20919975476771 2:-0.5800686809613058 3:-1.8692957056181125 4:-9.329693776563502 
-0.2927401079134709 1:4.20919975476771 2:-0.5800686809613058 3:-2.263895887820773 4:8.100235083450261 
-0.32211653891224606 1:4.20919975476771 2:-0.5800686809613058 3:9.593584117976391 4:-4.25393744293729 
-0.357405271041544 1:4.20919975476771 2:-0.5800686809613058 3:5.406289901106485 4:-8.636991709801956 
-0.5569468814704809 1:4.683493691586984 2:-0.3051896609402043 3:1.5582109810007143 4:8.178451408436839 
-0.4980244234294489 1:4.683493691586984 2:-0.3051896609402043 3:-1.8692957056181125 4:-9.329693776563502 
-0.6772788722201428 1:4.683493691586984 2:-0.3051896609402043 3:-7.2817661985536875 4:1.0265744811102309 
-0.24924926715639067 1:4.683493691586984 2:-0.3051896609402043 3:-2.263895887820773 4:8.100235083450261 
-0.6172759607509 1:4.683493691586984 2:-0.3051896609402043 3:-4.876577582041916 4:6.195776575438302 
-0.49988188428464636 1:4.683493691586984 2:-0.3051896609402043 3:9.593584117976391 4:-4.25393744293729 
-0.45810173956533157 1:4.683493691586984 2:-0.3051896609402043 3:5.406289901106485 4:-8.636991709801956 
-1.0104482709278113 1:1.5582109810007143 2:8.178451408436839 3:-1.8692957056181125 4:-9.329693776563502 
-1.3851482016297318 1:1.5582109810007143 2:8.178451408436839 3:-7.2817661985536875 4:1.0265744811102309 
-0.7044668301119097 1:1.5582109810007143 2:8.178451408436839 3:-2.263895887820773 4:8.100235083450261 
-0.5538130695645809 1:1.5582109810007143 2:8.178451408436839 3:-4.876577582041916 4:6.195776575438302 
-0.7406198612487908 1:1.5582109810007143 2:8.178451408436839 3:9.593584117976391 4:-4.25393744293729 
-0.7340952209819912 1:1.5582109810007143 2:8.178451408436839 3:5.406289901106485 4:-8.636991709801956 
-1.2974922147951544 1:-1.8692957056181125 2:-9.329693776563502 3:-7.2817661985536875 4:1.0265744811102309 
-0.9985221039707419 1:-1.8692957056181125 2:-9.329693776563502 3:-2.263895887820773 4:8.100235083450261 
-0.7175543703970655 1:-1.8692957056181125 2:-9.329693776563502 3:-4.876577582041916 4:6.195776575438302 
-0.9758547353645772 1:-1.8692957056181125 2:-9.329693776563502 3:9.593584117976391 4:-4.25393744293729 
-0.9694689113498135 1:-1.8692957056181125 2:-9.329693776563502 3:5.406289901106485 4:-8.636991709801956 
-0.9492237439557468 1:-7.2817661985536875 2:1.0265744811102309 3:-2.263895887820773 4:8.100235083450261 
-0.6701054967400571 1:-7.2817661985536875 2:1.0265744811102309 3:-4.876577582041916 4:6.195776575438302 
-0.8545564824857297 1:-7.2817661985536875 2:1.0265744811102309 3:9.593584117976391 4:-4.25393744293729 
-0.8514362625049475 1:-7.2817661985536875 2:1.0265744811102309 3:5.406289901106485 4:-8.636991709801956 
-0.9804200328111888 1:-2.263895887820773 2:8.100235083450261 3:-4.876577582041916 4:6.195776575438302 
-0.6246938416972135 1:-2.263895887820773 2:8.100235083450261 3:9.593584117976391 4:-4.25393744293729 
-0.6230256705858618 1:-2.263895887820773 2:8.100235083450261 3:5.406289901106485 4:-8.636991709801956 
-0.7822744109524137 1:-4.876577582041916 2:6.195776575438302 3:9.593584117976391 4:-4.25393744293729 
-0.7787308405794429 1:-4.876577582041916 2:6.195776575438302 3:5.406289901106485 4:-8.636991709801956 
-0.9969202368256381 1:9.593584117976391 2:-4.25393744293729 3:5.406289901106485 4:-8.636991709801956 
