svm_type c_svc
kernel_type rbf
gamma 0.125
nr_class 2
total_sv 504
rho 8.428046248403935E-5
label 1 -1
nr_sv 252 252
SV
32768.0 1:0.10779402601974931 2:0.012776743132131969 3:0.11668410604761861 4:0.01894890071867107 
32768.0 1:0.1024901780165797 2:0.003977681901282596 3:0.11668410604761861 4:0.01894890071867107 
32768.0 1:0.1024901780165797 2:0.003977681901282596 3:0.10779402601974931 4:0.012776743132131969 
32768.0 1:0.08552774555085117 2:6.018570526912471E-4 3:0.11668410604761861 4:0.01894890071867107 
32768.0 1:0.08552774555085117 2:6.018570526912471E-4 3:0.10779402601974931 4:0.012776743132131969 
32768.0 1:0.08552774555085117 2:6.018570526912471E-4 3:0.1024901780165797 4:0.003977681901282596 
32768.0 1:0.09231426331760413 2:-0.020081685106913983 3:0.11668410604761861 4:0.01894890071867107 
32768.0 1:0.09231426331760413 2:-0.020081685106913983 3:0.10779402601974931 4:0.012776743132131969 
32768.0 1:0.09231426331760413 2:-0.020081685106913983 3:0.1024901780165797 4:0.003977681901282596 
32768.0 1:0.09231426331760413 2:-0.020081685106913983 3:0.08552774555085117 4:6.018570526912471E-4 
32768.0 1:0.0944348802924769 2:0.04224887519263221 3:0.11668410604761861 4:0.01894890071867107 
32768.0 1:0.0944348802924769 2:0.04224887519263221 3:0.10779402601974931 4:0.012776743132131969 
32768.0 1:0.0944348802924769 2:0.04224887519263221 3:0.1024901780165797 4:0.003977681901282596 
32768.0 1:0.0944348802924769 2:0.04224887519263221 3:0.08552774555085117 4:6.018570526912471E-4 
32768.0 1:0.0944348802924769 2:0.04224887519263221 3:0.09231426331760413 4:-0.020081685106913983 
32768.0 1:0.13704961485558878 2:0.06529403737540615 3:0.11668410604761861 4:0.01894890071867107 
32768.0 1:0.13704961485558878 2:0.06529403737540615 3:0.10779402601974931 4:0.012776743132131969 
32768.0 1:0.13704961485558878 2:0.06529403737540615 3:0.1024901780165797 4:0.003977681901282596 
32768.0 1:0.13704961485558878 2:0.06529403737540615 3:0.08552774555085117 4:6.018570526912471E-4 
32768.0 1:0.13704961485558878 2:0.06529403737540615 3:0.09231426331760413 4:-0.020081685106913983 
32768.0 1:0.13704961485558878 2:0.06529403737540615 3:0.0944348802924769 4:0.04224887519263221 
32768.0 1:-0.021886978564724238 2:0.023449380799780453 3:0.11668410604761861 4:0.01894890071867107 
32768.0 1:-0.021886978564724238 2:0.023449380799780453 3:0.10779402601974931 4:0.012776743132131969 
32768.0 1:-0.021886978564724238 2:0.023449380799780453 3:0.1024901780165797 4:0.003977681901282596 
32768.0 1:-0.021886978564724238 2:0.023449380799780453 3:0.08552774555085117 4:6.018570526912471E-4 
32768.0 1:-0.021886978564724238 2:0.023449380799780453 3:0.09231426331760413 4:-0.020081685106913983 
32768.0 1:-0.021886978564724238 2:0.023449380799780453 3:0.0944348802924769 4:0.04224887519263221 
32768.0 1:-0.021886978564724238 2:0.023449380799780453 3:0.13704961485558878 4:0.06529403737540615 
32768.0 1:0.08668486738695798 2:-0.06133626607753102 3:0.11668410604761861 4:0.01894890071867107 
32768.0 1:0.08668486738695798 2:-0.06133626607753102 3:0.10779402601974931 4:0.012776743132131969 
32768.0 1:0.08668486738695798 2:-0.06133626607753102 3:0.1024901780165797 4:0.003977681901282596 
32768.0 1:0.08668486738695798 2:-0.06133626607753102 3:0.08552774555085117 4:6.018570526912471E-4 
32768.0 1:0.08668486738695798 2:-0.06133626607753102 3:0.09231426331760413 4:-0.020081685106913983 
32768.0 1:0.08668486738695798 2:-0.06133626607753102 3:0.0944348802924769 4:0.04224887519263221 
32768.0 1:0.08668486738695798 2:-0.06133626607753102 3:0.13704961485558878 4:0.06529403737540615 
32768.0 1:0.08668486738695798 2:-0.06133626607753102 3:-0.021886978564724238 4:0.023449380799780453 
32768.0 1:0.08668486738695798 2:-0.06133626607753102 3:0.47196534066452883 4:0.12720873801789664 
32768.0 1:0.03463052813903692 2:-0.07591534706541882 3:0.11668410604761861 4:0.01894890071867107 
32768.0 1:0.03463052813903692 2:-0.07591534706541882 3:0.10779402601974931 4:0.012776743132131969 
32768.0 1:0.03463052813903692 2:-0.07591534706541882 3:0.1024901780165797 4:0.003977681901282596 
32768.0 1:0.03463052813903692 2:-0.07591534706541882 3:0.08552774555085117 4:6.018570526912471E-4 
32768.0 1:0.03463052813903692 2:-0.07591534706541882 3:0.09231426331760413 4:-0.020081685106913983 
32768.0 1:0.03463052813903692 2:-0.07591534706541882 3:0.0944348802924769 4:0.04224887519263221 
32768.0 1:0.03463052813903692 2:-0.07591534706541882 3:0.13704961485558878 4:0.06529403737540615 
32768.0 1:0.03463052813903692 2:-0.07591534706541882 3:-0.021886978564724238 4:0.023449380799780453 
32768.0 1:0.03463052813903692 2:-0.07591534706541882 3:0.47196534066452883 4:0.12720873801789664 
32768.0 1:0.03463052813903692 2:-0.07591534706541882 3:0.08668486738695798 4:-0.06133626607753102 
21880.569640304206 1:1.3044946303050007 2:1.5781880654232598 3:0.0944348802924769 4:0.04224887519263221 
32768.0 1:1.3044946303050007 2:1.5781880654232598 3:0.13704961485558878 4:0.06529403737540615 
32768.0 1:1.3044946303050007 2:1.5781880654232598 3:0.47196534066452883 4:0.12720873801789664 
32768.0 1:0.2935523583037127 2:-0.04429578979393867 3:-0.021886978564724238 4:0.023449380799780453 
32768.0 1:0.2935523583037127 2:-0.04429578979393867 3:0.47196534066452883 4:0.12720873801789664 
32768.0 1:0.2935523583037127 2:-0.04429578979393867 3:0.08668486738695798 4:-0.06133626607753102 
32768.0 1:0.2935523583037127 2:-0.04429578979393867 3:0.03463052813903692 4:-0.07591534706541882 
32768.0 1:0.2935523583037127 2:-0.04429578979393867 3:1.3044946303050007 4:1.5781880654232598 
32768.0 1:0.2753460932772599 2:0.22370847407321542 3:0.11668410604761861 4:0.01894890071867107 
32768.0 1:0.2753460932772599 2:0.22370847407321542 3:0.10779402601974931 4:0.012776743132131969 
32768.0 1:0.2753460932772599 2:0.22370847407321542 3:0.1024901780165797 4:0.003977681901282596 
32768.0 1:0.2753460932772599 2:0.22370847407321542 3:0.08552774555085117 4:6.018570526912471E-4 
32768.0 1:0.2753460932772599 2:0.22370847407321542 3:0.09231426331760413 4:-0.020081685106913983 
32768.0 1:0.2753460932772599 2:0.22370847407321542 3:0.0944348802924769 4:0.04224887519263221 
32768.0 1:0.2753460932772599 2:0.22370847407321542 3:0.13704961485558878 4:0.06529403737540615 
32768.0 1:0.2753460932772599 2:0.22370847407321542 3:-0.021886978564724238 4:0.023449380799780453 
32768.0 1:0.2753460932772599 2:0.22370847407321542 3:0.47196534066452883 4:0.12720873801789664 
32768.0 1:0.2753460932772599 2:0.22370847407321542 3:0.08668486738695798 4:-0.06133626607753102 
32768.0 1:0.2753460932772599 2:0.22370847407321542 3:0.03463052813903692 4:-0.07591534706541882 
32768.0 1:0.2753460932772599 2:0.22370847407321542 3:1.3044946303050007 4:1.5781880654232598 
32768.0 1:0.2753460932772599 2:0.22370847407321542 3:0.2935523583037127 4:-0.04429578979393867 
32768.0 1:0.43265369889690486 2:-0.015579329202332137 3:0.47196534066452883 4:0.12720873801789664 
6305.16084266483 1:0.43265369889690486 2:-0.015579329202332137 3:0.2753460932772599 4:0.22370847407321542 
32457.85313217726 1:1.191905034988988 2:1.2059051506094087 3:0.47196534066452883 4:0.12720873801789664 
9062.066164722946 1:1.191905034988988 2:1.2059051506094087 3:0.43265369889690486 4:-0.015579329202332137 
32768.0 1:0.4512663018182912 2:-0.030774813642385223 3:0.47196534066452883 4:0.12720873801789664 
32768.0 1:0.4512663018182912 2:-0.030774813642385223 3:0.43265369889690486 4:-0.015579329202332137 
32768.0 1:0.4512663018182912 2:-0.030774813642385223 3:1.191905034988988 4:1.2059051506094087 
32768.0 1:0.16879427738871622 2:0.32137154742322216 3:0.43265369889690486 4:-0.015579329202332137 
32768.0 1:0.16879427738871622 2:0.32137154742322216 3:1.191905034988988 4:1.2059051506094087 
32768.0 1:0.16879427738871622 2:0.32137154742322216 3:0.4512663018182912 4:-0.030774813642385223 
32768.0 1:0.16879427738871622 2:0.32137154742322216 3:-0.1966296057185477 4:0.2771014724266162 
2744.3992987696083 1:0.6851552276419732 2:0.7755064853082304 3:-0.1966296057185477 4:0.2771014724266162 
7118.018353566238 1:-0.3304593079019604 2:-0.2524149662125802 3:-0.1966296057185477 4:0.2771014724266162 
24380.86459586403 1:-0.3304593079019604 2:-0.2524149662125802 3:0.6851552276419732 4:0.7755064853082304 
11266.492181675092 1:0.5314490139009005 2:-0.1062967719764074 3:1.191905034988988 4:1.2059051506094087 
22936.329084056815 1:0.5314490139009005 2:-0.1062967719764074 3:-0.1966296057185477 4:0.2771014724266162 
32768.0 1:0.5314490139009005 2:-0.1062967719764074 3:0.6851552276419732 4:0.7755064853082304 
10903.98527263768 1:0.5314490139009005 2:-0.1062967719764074 3:-0.3304593079019604 4:-0.2524149662125802 
952.7086855237256 1:0.4733373595436478 2:-0.41102263268053624 3:1.8266599612980605 4:2.7342239833536732 
8.578032663593264 1:1.2114007134174034 2:0.8187966743029831 3:-0.1966296057185477 4:0.2771014724266162 
9930.221648171619 1:1.2114007134174034 2:0.8187966743029831 3:0.6851552276419732 4:0.7755064853082304 
61.41899758542402 1:1.2114007134174034 2:0.8187966743029831 3:1.8266599612980605 4:2.7342239833536732 
18526.131854074516 1:1.2114007134174034 2:0.8187966743029831 3:0.4733373595436478 4:-0.41102263268053624 
783.7945661381782 1:-0.9743590936411759 2:-0.04026237365936475 3:1.8266599612980605 4:2.7342239833536732 
3555.83246081387 1:-0.9743590936411759 2:-0.04026237365936475 3:0.4733373595436478 4:-0.41102263268053624 
1781.0408681243875 1:1.5971205993469562 2:1.2196998828580439 3:-0.9743590936411759 4:-0.04026237365936475 
748.261334735804 1:-1.6223469584980548 2:0.21513097414171425 3:-0.20335347663017017 4:1.6241700655808504 
664.632693328486 1:-1.6223469584980548 2:0.21513097414171425 3:-1.1249910672595715 4:-0.9879375973392958 
235.90755959487618 1:0.1082773932383903 2:2.832522430308644 3:-1.1249910672595715 4:-0.9879375973392958 
114.7259567544857 1:0.1082773932383903 2:2.832522430308644 3:-1.6223469584980548 4:0.21513097414171425 
345.9967924841119 1:0.1082773932383903 2:2.832522430308644 3:0.06226056193016127 4:-2.5655546835063543 
4.462763059079109 1:-2.0869051099562297 2:8.60813859955308 3:1.8266599612980605 4:2.7342239833536732 
2.0126873039989808 1:-2.0869051099562297 2:8.60813859955308 3:1.5971205993469562 4:1.2196998828580439 
4.635340618637277 1:-2.0869051099562297 2:8.60813859955308 3:-1.1249910672595715 4:-0.9879375973392958 
1.860286541862634 1:-2.0869051099562297 2:8.60813859955308 3:0.06226056193016127 4:-2.5655546835063543 
17.26034378460293 1:3.039266459617382 2:4.867619299444289 3:0.4733373595436478 4:-0.41102263268053624 
58.5513768905626 1:3.039266459617382 2:4.867619299444289 3:-1.6223469584980548 4:0.21513097414171425 
12.219115551723991 1:3.039266459617382 2:4.867619299444289 3:0.06226056193016127 4:-2.5655546835063543 
3.9967686991179594 1:3.039266459617382 2:4.867619299444289 3:-0.6480350934765973 4:3.9726377761079483 
2.4821292119633194 1:3.039266459617382 2:4.867619299444289 3:-2.0869051099562297 4:8.60813859955308 
92.83209776428785 1:-1.692288452750164 2:-1.8629494252595475 3:-0.6480350934765973 4:3.9726377761079483 
4.915177789310886 1:-1.692288452750164 2:-1.8629494252595475 3:-2.0869051099562297 4:8.60813859955308 
9.289864071130062 1:-1.692288452750164 2:-1.8629494252595475 3:3.039266459617382 4:4.867619299444289 
26.362274417191365 1:0.558511608770647 2:-4.741090331439512 3:1.8266599612980605 4:2.7342239833536732 
80.06450015538644 1:0.558511608770647 2:-4.741090331439512 3:-0.6480350934765973 4:3.9726377761079483 
0.01596460732488826 1:0.558511608770647 2:-4.741090331439512 3:-2.0869051099562297 4:8.60813859955308 
24.205004524341053 1:2.6525158166491543 2:1.5163901445544816 3:-0.6480350934765973 4:3.9726377761079483 
6.593604001371992 1:2.6525158166491543 2:1.5163901445544816 3:-2.0869051099562297 4:8.60813859955308 
6.42254372662134 1:2.6525158166491543 2:1.5163901445544816 3:3.039266459617382 4:4.867619299444289 
40.12334548368066 1:2.6525158166491543 2:1.5163901445544816 3:-1.692288452750164 4:-1.8629494252595475 
1.2754138170435503 1:0.32194077892452355 2:8.537454642579293 3:-2.0869051099562297 4:8.60813859955308 
3.66876987719223 1:0.32194077892452355 2:8.537454642579293 3:3.039266459617382 4:4.867619299444289 
2.105280396582893 1:0.32194077892452355 2:8.537454642579293 3:-1.692288452750164 4:-1.8629494252595475 
4.325044836749061 1:0.32194077892452355 2:8.537454642579293 3:0.558511608770647 4:-4.741090331439512 
4.604421102687316 1:0.32194077892452355 2:8.537454642579293 3:2.6525158166491543 4:1.5163901445544816 
0.6467089110536582 1:-0.3226848854818445 2:-9.482679916483221 3:-2.0869051099562297 4:8.60813859955308 
1.6472399900255794 1:-0.3226848854818445 2:-9.482679916483221 3:3.039266459617382 4:4.867619299444289 
1.383317385443292 1:-0.3226848854818445 2:-9.482679916483221 3:-1.692288452750164 4:-1.8629494252595475 
1.3006045580231944 1:-0.3226848854818445 2:-9.482679916483221 3:0.558511608770647 4:-4.741090331439512 
0.3726594194547838 1:-0.3226848854818445 2:-9.482679916483221 3:2.6525158166491543 4:1.5163901445544816 
0.5198348108134593 1:-0.3226848854818445 2:-9.482679916483221 3:0.32194077892452355 4:8.537454642579293 
0.562648001281876 1:3.122067584326098 2:-2.6526719152382183 3:-2.0869051099562297 4:8.60813859955308 
1.3787778904007084 1:3.122067584326098 2:-2.6526719152382183 3:0.32194077892452355 4:8.537454642579293 
1.1006060433619975 1:3.122067584326098 2:-2.6526719152382183 3:-0.3226848854818445 4:-9.482679916483221 
3.069200552134893 1:4.389375184601551 2:3.776897756026143 3:0.32194077892452355 4:8.537454642579293 
2.743671422353992 1:4.389375184601551 2:3.776897756026143 3:-0.3226848854818445 4:-9.482679916483221 
0.2617191200144378 1:-3.6493660687646967 2:-5.2391975217532405 3:0.32194077892452355 4:8.537454642579293 
1.0311355844792351 1:-3.6493660687646967 2:-5.2391975217532405 3:-0.3226848854818445 4:-9.482679916483221 
1.8899601614589145 1:-3.6493660687646967 2:-5.2391975217532405 3:4.389375184601551 4:3.776897756026143 
0.7198451894212647 1:-4.363578788774436 2:-0.8499956765330179 3:0.32194077892452355 4:8.537454642579293 
1.4330810572562525 1:-4.363578788774436 2:-0.8499956765330179 3:-0.3226848854818445 4:-9.482679916483221 
11.542805492243586 1:-4.363578788774436 2:-0.8499956765330179 3:4.389375184601551 4:3.776897756026143 
0.0931817973982461 1:3.997844397783016 2:-5.37093879468463 3:-2.0869051099562297 4:8.60813859955308 
0.3328998874798555 1:3.997844397783016 2:-5.37093879468463 3:0.32194077892452355 4:8.537454642579293 
0.7733636409271293 1:3.997844397783016 2:-5.37093879468463 3:-0.3226848854818445 4:-9.482679916483221 
1.5922094059481928 1:3.997844397783016 2:-5.37093879468463 3:3.122067584326098 4:-2.6526719152382183 
1.7998556120327587 1:3.997844397783016 2:-5.37093879468463 3:-3.6493660687646967 4:-5.2391975217532405 
2.103453754693075 1:3.997844397783016 2:-5.37093879468463 3:-4.363578788774436 4:-0.8499956765330179 
3.59400395415226 1:-5.252613517559224 2:-2.5507910799802147 3:-4.363578788774436 4:-0.8499956765330179 
2.1643192929558768 1:-5.252613517559224 2:-2.5507910799802147 3:3.997844397783016 4:-5.37093879468463 
0.02233136713420492 1:6.088695203133305 2:6.0167384767587535 3:-2.0869051099562297 4:8.60813859955308 
0.46801447208060815 1:6.088695203133305 2:6.0167384767587535 3:0.32194077892452355 4:8.537454642579293 
0.45166203861375936 1:6.088695203133305 2:6.0167384767587535 3:-0.3226848854818445 4:-9.482679916483221 
0.809659138280837 1:6.088695203133305 2:6.0167384767587535 3:3.122067584326098 4:-2.6526719152382183 
1.632832204906859 1:6.088695203133305 2:6.0167384767587535 3:4.389375184601551 4:3.776897756026143 
0.6523064070286554 1:6.088695203133305 2:6.0167384767587535 3:-3.6493660687646967 4:-5.2391975217532405 
0.882123134774112 1:6.088695203133305 2:6.0167384767587535 3:3.997844397783016 4:-5.37093879468463 
30.13533605526073 1:6.088695203133305 2:6.0167384767587535 3:-5.252613517559224 4:-2.5507910799802147 
0.12727735114663438 1:-6.241915167517145 2:5.492104783807623 3:-0.6480350934765973 4:3.9726377761079483 
0.5288012583888113 1:-6.241915167517145 2:5.492104783807623 3:-2.0869051099562297 4:8.60813859955308 
0.3122774648505762 1:-6.241915167517145 2:5.492104783807623 3:3.039266459617382 4:4.867619299444289 
1.2030418098659479 1:-6.241915167517145 2:5.492104783807623 3:0.558511608770647 4:-4.741090331439512 
1.0687705181805867 1:-6.241915167517145 2:5.492104783807623 3:2.6525158166491543 4:1.5163901445544816 
0.5827407024094795 1:-6.241915167517145 2:5.492104783807623 3:0.32194077892452355 4:8.537454642579293 
0.83802515134487 1:-6.241915167517145 2:5.492104783807623 3:-0.3226848854818445 4:-9.482679916483221 
0.4760932490396439 1:-6.241915167517145 2:5.492104783807623 3:3.122067584326098 4:-2.6526719152382183 
0.21906786231286324 1:-6.241915167517145 2:5.492104783807623 3:4.389375184601551 4:3.776897756026143 
0.0974993702946956 1:-6.241915167517145 2:5.492104783807623 3:-3.6493660687646967 4:-5.2391975217532405 
0.8605950211943304 1:-6.241915167517145 2:5.492104783807623 3:3.997844397783016 4:-5.37093879468463 
25.14136371723797 1:-6.241915167517145 2:5.492104783807623 3:-5.252613517559224 4:-2.5507910799802147 
0.7047070015403195 1:-6.241915167517145 2:5.492104783807623 3:6.088695203133305 4:6.0167384767587535 
18.755596293049855 1:-5.713818316577286 2:-3.054171568169144 3:-5.252613517559224 4:-2.5507910799802147 
2.893372143325887 1:-5.713818316577286 2:-3.054171568169144 3:6.088695203133305 4:6.0167384767587535 
25.105633565357657 1:-5.794478048153526 2:-2.730567772551902 3:6.088695203133305 4:6.0167384767587535 
27.065626064059128 1:-5.794478048153526 2:-2.730567772551902 3:-6.241915167517145 4:5.492104783807623 
63.523898748321045 1:-5.794478048153526 2:-2.730567772551902 3:-5.713818316577286 4:-3.054171568169144 
0.5435543019861878 1:-6.158282125109029 2:-7.2130324128195245 3:-1.6223469584980548 4:0.21513097414171425 
0.13508298044627043 1:-6.158282125109029 2:-7.2130324128195245 3:0.06226056193016127 4:-2.5655546835063543 
0.3535322988993381 1:-6.158282125109029 2:-7.2130324128195245 3:-0.6480350934765973 4:3.9726377761079483 
0.4178440640919278 1:-6.158282125109029 2:-7.2130324128195245 3:-2.0869051099562297 4:8.60813859955308 
0.10822888113462922 1:-6.158282125109029 2:-7.2130324128195245 3:3.039266459617382 4:4.867619299444289 
0.4224207735149721 1:-6.158282125109029 2:-7.2130324128195245 3:0.558511608770647 4:-4.741090331439512 
0.49415358965809236 1:-6.158282125109029 2:-7.2130324128195245 3:2.6525158166491543 4:1.5163901445544816 
0.4358625046022553 1:-6.158282125109029 2:-7.2130324128195245 3:0.32194077892452355 4:8.537454642579293 
0.45667697329818074 1:-6.158282125109029 2:-7.2130324128195245 3:-0.3226848854818445 4:-9.482679916483221 
0.5496719668608252 1:-6.158282125109029 2:-7.2130324128195245 3:3.122067584326098 4:-2.6526719152382183 
0.18846340579298523 1:-6.158282125109029 2:-7.2130324128195245 3:-3.6493660687646967 4:-5.2391975217532405 
0.7273173717918113 1:-6.158282125109029 2:-7.2130324128195245 3:3.997844397783016 4:-5.37093879468463 
0.3962071736913532 1:-6.158282125109029 2:-7.2130324128195245 3:6.088695203133305 4:6.0167384767587535 
2.7183667187746225 1:-6.158282125109029 2:-7.2130324128195245 3:-6.241915167517145 4:5.492104783807623 
2.2213087784225145 1:-6.158282125109029 2:-7.2130324128195245 3:-5.794478048153526 4:-2.730567772551902 
0.003352499362437783 1:6.817399097301163 2:-0.4789954038509858 3:-2.0869051099562297 4:8.60813859955308 
0.4986785640116962 1:6.817399097301163 2:-0.4789954038509858 3:0.32194077892452355 4:8.537454642579293 
0.6305016355274271 1:6.817399097301163 2:-0.4789954038509858 3:-0.3226848854818445 4:-9.482679916483221 
0.5744580919443101 1:6.817399097301163 2:-0.4789954038509858 3:3.997844397783016 4:-5.37093879468463 
0.8739487001277778 1:6.817399097301163 2:-0.4789954038509858 3:6.088695203133305 4:6.0167384767587535 
3.440375827895885 1:6.817399097301163 2:-0.4789954038509858 3:-6.241915167517145 4:5.492104783807623 
1.1718779418852587 1:6.817399097301163 2:-0.4789954038509858 3:-5.713818316577286 4:-3.054171568169144 
1.7285531481620768 1:6.817399097301163 2:-0.4789954038509858 3:-6.158282125109029 4:-7.2130324128195245 
0.17304263890836266 1:-7.846960042382747 2:5.6298207486636045 3:-0.6480350934765973 4:3.9726377761079483 
1.5405363946591126 1:-7.846960042382747 2:5.6298207486636045 3:-6.241915167517145 4:5.492104783807623 
2.1521487998351394 1:-7.846960042382747 2:5.6298207486636045 3:-5.713818316577286 4:-3.054171568169144 
0.9878852593760894 1:-7.846960042382747 2:5.6298207486636045 3:-5.794478048153526 4:-2.730567772551902 
3.460358616844399 1:-7.846960042382747 2:5.6298207486636045 3:-6.158282125109029 4:-7.2130324128195245 
3.5602490151774044 1:-7.846960042382747 2:5.6298207486636045 3:6.817399097301163 4:-0.4789954038509858 
1.166431465225759 1:-7.51564885290615 2:-5.203626308108829 3:-5.794478048153526 4:-2.730567772551902 
3.912426829569549 1:-7.51564885290615 2:-5.203626308108829 3:6.817399097301163 4:-0.4789954038509858 
1.2761883039023876 1:-7.51564885290615 2:-5.203626308108829 3:-7.846960042382747 4:5.6298207486636045 
0.18552151301722652 1:7.8663997051719505 2:-4.14214851686368 3:4.389375184601551 4:3.776897756026143 
0.8222816219080673 1:7.8663997051719505 2:-4.14214851686368 3:6.088695203133305 4:6.0167384767587535 
1.8070767857130314 1:7.8663997051719505 2:-4.14214851686368 3:-5.794478048153526 4:-2.730567772551902 
1.8675735128152589 1:7.8663997051719505 2:-4.14214851686368 3:6.817399097301163 4:-0.4789954038509858 
2.38342297247251 1:7.8663997051719505 2:-4.14214851686368 3:-7.846960042382747 4:5.6298207486636045 
23.833103821710708 1:7.8663997051719505 2:-4.14214851686368 3:-7.51564885290615 4:-5.203626308108829 
0.006578073524003084 1:-7.877393883303572 2:-4.7354394234019415 3:1.8266599612980605 4:2.7342239833536732 
0.040828937677452895 1:-7.877393883303572 2:-4.7354394234019415 3:1.5971205993469562 4:1.2196998828580439 
0.3396393033505023 1:-7.877393883303572 2:-4.7354394234019415 3:-0.6480350934765973 4:3.9726377761079483 
0.334197957892604 1:-7.877393883303572 2:-4.7354394234019415 3:-2.0869051099562297 4:8.60813859955308 
0.4744620414007184 1:-7.877393883303572 2:-4.7354394234019415 3:0.558511608770647 4:-4.741090331439512 
0.1261726385935371 1:-7.877393883303572 2:-4.7354394234019415 3:2.6525158166491543 4:1.5163901445544816 
0.5028910871609188 1:-7.877393883303572 2:-4.7354394234019415 3:0.32194077892452355 4:8.537454642579293 
0.6663484413317277 1:-7.877393883303572 2:-4.7354394234019415 3:-0.3226848854818445 4:-9.482679916483221 
10.243416433216643 1:-7.877393883303572 2:-4.7354394234019415 3:-7.51564885290615 4:-5.203626308108829 
98.13949770988727 1:-7.877393883303572 2:-4.7354394234019415 3:7.8663997051719505 4:-4.14214851686368 
0.21207014265166718 1:8.124294636193039 2:-3.9356759753441324 3:-1.6223469584980548 4:0.21513097414171425 
0.5715215420437058 1:8.124294636193039 2:-3.9356759753441324 3:-0.6480350934765973 4:3.9726377761079483 
0.6073450091478712 1:8.124294636193039 2:-3.9356759753441324 3:-2.0869051099562297 4:8.60813859955308 
0.3586592945246373 1:8.124294636193039 2:-3.9356759753441324 3:3.039266459617382 4:4.867619299444289 
0.08860861316210711 1:8.124294636193039 2:-3.9356759753441324 3:-1.692288452750164 4:-1.8629494252595475 
0.7588377405918328 1:8.124294636193039 2:-3.9356759753441324 3:0.558511608770647 4:-4.741090331439512 
0.3032630223459297 1:8.124294636193039 2:-3.9356759753441324 3:2.6525158166491543 4:1.5163901445544816 
0.4481103890798125 1:8.124294636193039 2:-3.9356759753441324 3:0.32194077892452355 4:8.537454642579293 
0.724930727969891 1:8.124294636193039 2:-3.9356759753441324 3:-0.3226848854818445 4:-9.482679916483221 
0.3212482186647803 1:8.124294636193039 2:-3.9356759753441324 3:-7.846960042382747 4:5.6298207486636045 
38.424088955285654 1:8.124294636193039 2:-3.9356759753441324 3:7.8663997051719505 4:-4.14214851686368 
75.22878857611971 1:8.124294636193039 2:-3.9356759753441324 3:-7.877393883303572 4:-4.7354394234019415 
0.3103641493616112 1:-9.63928948568799 2:6.53100906966278 3:0.4733373595436478 4:-0.41102263268053624 
0.37849253538575844 1:-9.63928948568799 2:6.53100906966278 3:-1.6223469584980548 4:0.21513097414171425 
0.1646473766830895 1:-9.63928948568799 2:6.53100906966278 3:0.06226056193016127 4:-2.5655546835063543 
0.5664495409824347 1:-9.63928948568799 2:6.53100906966278 3:-0.6480350934765973 4:3.9726377761079483 
0.5195094039739829 1:-9.63928948568799 2:6.53100906966278 3:-2.0869051099562297 4:8.60813859955308 
0.33118271672654565 1:-9.63928948568799 2:6.53100906966278 3:3.039266459617382 4:4.867619299444289 
0.3263113765486549 1:-9.63928948568799 2:6.53100906966278 3:0.558511608770647 4:-4.741090331439512 
0.253562746093002 1:-9.63928948568799 2:6.53100906966278 3:2.6525158166491543 4:1.5163901445544816 
0.49229843945173113 1:-9.63928948568799 2:6.53100906966278 3:0.32194077892452355 4:8.537454642579293 
0.7754069445085331 1:-9.63928948568799 2:6.53100906966278 3:-0.3226848854818445 4:-9.482679916483221 
0.16310199152000707 1:-9.63928948568799 2:6.53100906966278 3:3.122067584326098 4:-2.6526719152382183 
0.09357032930146503 1:-9.63928948568799 2:6.53100906966278 3:4.389375184601551 4:3.776897756026143 
0.4787489985009927 1:-9.63928948568799 2:6.53100906966278 3:3.997844397783016 4:-5.37093879468463 
0.6769607315326016 1:-9.63928948568799 2:6.53100906966278 3:6.088695203133305 4:6.0167384767587535 
1.009891935899431 1:-9.63928948568799 2:6.53100906966278 3:-7.846960042382747 4:5.6298207486636045 
1.7852851015057434 1:-9.63928948568799 2:6.53100906966278 3:7.8663997051719505 4:-4.14214851686368 
1.2822641311315954 1:-9.63928948568799 2:6.53100906966278 3:-7.877393883303572 4:-4.7354394234019415 
0.5223828133352494 1:-9.63928948568799 2:6.53100906966278 3:8.124294636193039 4:-3.9356759753441324 
-32768.0 1:0.11668410604761861 2:0.01894890071867107 3:0.10779402601974931 4:0.012776743132131969 
-32768.0 1:0.11668410604761861 2:0.01894890071867107 3:0.1024901780165797 4:0.003977681901282596 
-32768.0 1:0.11668410604761861 2:0.01894890071867107 3:0.08552774555085117 4:6.018570526912471E-4 
-32768.0 1:0.11668410604761861 2:0.01894890071867107 3:0.09231426331760413 4:-0.020081685106913983 
-32768.0 1:0.11668410604761861 2:0.01894890071867107 3:0.0944348802924769 4:0.04224887519263221 
-32768.0 1:0.11668410604761861 2:0.01894890071867107 3:0.13704961485558878 4:0.06529403737540615 
-32768.0 1:0.11668410604761861 2:0.01894890071867107 3:-0.021886978564724238 4:0.023449380799780453 
-32768.0 1:0.11668410604761861 2:0.01894890071867107 3:0.08668486738695798 4:-0.06133626607753102 
-32768.0 1:0.11668410604761861 2:0.01894890071867107 3:0.03463052813903692 4:-0.07591534706541882 
-32768.0 1:0.11668410604761861 2:0.01894890071867107 3:0.2753460932772599 4:0.22370847407321542 
-32768.0 1:0.10779402601974931 2:0.012776743132131969 3:0.1024901780165797 4:0.003977681901282596 
-32768.0 1:0.10779402601974931 2:0.012776743132131969 3:0.08552774555085117 4:6.018570526912471E-4 
-32768.0 1:0.10779402601974931 2:0.012776743132131969 3:0.09231426331760413 4:-0.020081685106913983 
-32768.0 1:0.10779402601974931 2:0.012776743132131969 3:0.0944348802924769 4:0.04224887519263221 
-32768.0 1:0.10779402601974931 2:0.012776743132131969 3:0.13704961485558878 4:0.06529403737540615 
-32768.0 1:0.10779402601974931 2:0.012776743132131969 3:-0.021886978564724238 4:0.023449380799780453 
-32768.0 1:0.10779402601974931 2:0.012776743132131969 3:0.08668486738695798 4:-0.06133626607753102 
-32768.0 1:0.10779402601974931 2:0.012776743132131969 3:0.03463052813903692 4:-0.07591534706541882 
-32768.0 1:0.10779402601974931 2:0.012776743132131969 3:0.2753460932772599 4:0.22370847407321542 
-32768.0 1:0.1024901780165797 2:0.003977681901282596 3:0.08552774555085117 4:6.018570526912471E-4 
-32768.0 1:0.1024901780165797 2:0.003977681901282596 3:0.09231426331760413 4:-0.020081685106913983 
-32768.0 1:0.1024901780165797 2:0.003977681901282596 3:0.0944348802924769 4:0.04224887519263221 
-32768.0 1:0.1024901780165797 2:0.003977681901282596 3:0.13704961485558878 4:0.06529403737540615 
-32768.0 1:0.1024901780165797 2:0.003977681901282596 3:-0.021886978564724238 4:0.023449380799780453 
-32768.0 1:0.1024901780165797 2:0.003977681901282596 3:0.08668486738695798 4:-0.06133626607753102 
-32768.0 1:0.1024901780165797 2:0.003977681901282596 3:0.03463052813903692 4:-0.07591534706541882 
-32768.0 1:0.1024901780165797 2:0.003977681901282596 3:0.2753460932772599 4:0.22370847407321542 
-32768.0 1:0.08552774555085117 2:6.018570526912471E-4 3:0.09231426331760413 4:-0.020081685106913983 
-32768.0 1:0.08552774555085117 2:6.018570526912471E-4 3:0.0944348802924769 4:0.04224887519263221 
-32768.0 1:0.08552774555085117 2:6.018570526912471E-4 3:0.13704961485558878 4:0.06529403737540615 
-32768.0 1:0.08552774555085117 2:6.018570526912471E-4 3:-0.021886978564724238 4:0.023449380799780453 
-32768.0 1:0.08552774555085117 2:6.018570526912471E-4 3:0.08668486738695798 4:-0.06133626607753102 
-32768.0 1:0.08552774555085117 2:6.018570526912471E-4 3:0.03463052813903692 4:-0.07591534706541882 
-32768.0 1:0.08552774555085117 2:6.018570526912471E-4 3:0.2753460932772599 4:0.22370847407321542 
-32768.0 1:0.09231426331760413 2:-0.020081685106913983 3:0.0944348802924769 4:0.04224887519263221 
-32768.0 1:0.09231426331760413 2:-0.020081685106913983 3:0.13704961485558878 4:0.06529403737540615 
-32768.0 1:0.09231426331760413 2:-0.020081685106913983 3:-0.021886978564724238 4:0.023449380799780453 
-32768.0 1:0.09231426331760413 2:-0.020081685106913983 3:0.08668486738695798 4:-0.06133626607753102 
-32768.0 1:0.09231426331760413 2:-0.020081685106913983 3:0.03463052813903692 4:-0.07591534706541882 
-32768.0 1:0.09231426331760413 2:-0.020081685106913983 3:0.2753460932772599 4:0.22370847407321542 
-32768.0 1:0.0944348802924769 2:0.04224887519263221 3:0.13704961485558878 4:0.06529403737540615 
-32768.0 1:0.0944348802924769 2:0.04224887519263221 3:-0.021886978564724238 4:0.023449380799780453 
-32768.0 1:0.0944348802924769 2:0.04224887519263221 3:0.08668486738695798 4:-0.06133626607753102 
-32768.0 1:0.0944348802924769 2:0.04224887519263221 3:0.03463052813903692 4:-0.07591534706541882 
-21880.388214096718 1:0.0944348802924769 2:0.04224887519263221 3:1.3044946303050007 4:1.5781880654232598 
-32768.0 1:0.0944348802924769 2:0.04224887519263221 3:0.2753460932772599 4:0.22370847407321542 
-32768.0 1:0.13704961485558878 2:0.06529403737540615 3:-0.021886978564724238 4:0.023449380799780453 
-32768.0 1:0.13704961485558878 2:0.06529403737540615 3:0.08668486738695798 4:-0.06133626607753102 
-32768.0 1:0.13704961485558878 2:0.06529403737540615 3:0.03463052813903692 4:-0.07591534706541882 
-32768.0 1:0.13704961485558878 2:0.06529403737540615 3:1.3044946303050007 4:1.5781880654232598 
-32768.0 1:0.13704961485558878 2:0.06529403737540615 3:0.2753460932772599 4:0.22370847407321542 
-32768.0 1:-0.021886978564724238 2:0.023449380799780453 3:0.08668486738695798 4:-0.06133626607753102 
-32768.0 1:-0.021886978564724238 2:0.023449380799780453 3:0.03463052813903692 4:-0.07591534706541882 
-32768.0 1:-0.021886978564724238 2:0.023449380799780453 3:0.2935523583037127 4:-0.04429578979393867 
-32768.0 1:-0.021886978564724238 2:0.023449380799780453 3:0.2753460932772599 4:0.22370847407321542 
-32768.0 1:0.47196534066452883 2:0.12720873801789664 3:0.08668486738695798 4:-0.06133626607753102 
-32768.0 1:0.47196534066452883 2:0.12720873801789664 3:0.03463052813903692 4:-0.07591534706541882 
-32768.0 1:0.47196534066452883 2:0.12720873801789664 3:1.3044946303050007 4:1.5781880654232598 
-32768.0 1:0.47196534066452883 2:0.12720873801789664 3:0.2935523583037127 4:-0.04429578979393867 
-32768.0 1:0.47196534066452883 2:0.12720873801789664 3:0.2753460932772599 4:0.22370847407321542 
-32768.0 1:0.47196534066452883 2:0.12720873801789664 3:0.43265369889690486 4:-0.015579329202332137 
-32487.35774677986 1:0.47196534066452883 2:0.12720873801789664 3:1.191905034988988 4:1.2059051506094087 
-32768.0 1:0.47196534066452883 2:0.12720873801789664 3:0.4512663018182912 4:-0.030774813642385223 
-32768.0 1:0.08668486738695798 2:-0.06133626607753102 3:0.03463052813903692 4:-0.07591534706541882 
-32768.0 1:0.08668486738695798 2:-0.06133626607753102 3:0.2935523583037127 4:-0.04429578979393867 
-32768.0 1:0.08668486738695798 2:-0.06133626607753102 3:0.2753460932772599 4:0.22370847407321542 
-32768.0 1:0.03463052813903692 2:-0.07591534706541882 3:0.2935523583037127 4:-0.04429578979393867 
-32768.0 1:0.03463052813903692 2:-0.07591534706541882 3:0.2753460932772599 4:0.22370847407321542 
-32768.0 1:1.3044946303050007 2:1.5781880654232598 3:0.2935523583037127 4:-0.04429578979393867 
-32768.0 1:1.3044946303050007 2:1.5781880654232598 3:0.2753460932772599 4:0.22370847407321542 
-32768.0 1:0.2935523583037127 2:-0.04429578979393867 3:0.2753460932772599 4:0.22370847407321542 
-6304.149494000981 1:0.2753460932772599 2:0.22370847407321542 3:0.43265369889690486 4:-0.015579329202332137 
-9025.674852573877 1:0.43265369889690486 2:-0.015579329202332137 3:1.191905034988988 4:1.2059051506094087 
-32768.0 1:0.43265369889690486 2:-0.015579329202332137 3:0.4512663018182912 4:-0.030774813642385223 
-32768.0 1:0.43265369889690486 2:-0.015579329202332137 3:0.16879427738871622 4:0.32137154742322216 
-32768.0 1:1.191905034988988 2:1.2059051506094087 3:0.4512663018182912 4:-0.030774813642385223 
-32768.0 1:1.191905034988988 2:1.2059051506094087 3:0.16879427738871622 4:0.32137154742322216 
-11276.328017796435 1:1.191905034988988 2:1.2059051506094087 3:0.5314490139009005 4:-0.1062967719764074 
-32768.0 1:0.4512663018182912 2:-0.030774813642385223 3:0.16879427738871622 4:0.32137154742322216 
-32768.0 1:-0.1966296057185477 2:0.2771014724266162 3:0.16879427738871622 4:0.32137154742322216 
-2742.8260625060566 1:-0.1966296057185477 2:0.2771014724266162 3:0.6851552276419732 4:0.7755064853082304 
-7117.821016237277 1:-0.1966296057185477 2:0.2771014724266162 3:-0.3304593079019604 4:-0.2524149662125802 
-22937.56913117246 1:-0.1966296057185477 2:0.2771014724266162 3:0.5314490139009005 4:-0.1062967719764074 
-9.884442932925898 1:-0.1966296057185477 2:0.2771014724266162 3:1.2114007134174034 4:0.8187966743029831 
-24382.93866743439 1:0.6851552276419732 2:0.7755064853082304 3:-0.3304593079019604 4:-0.2524149662125802 
-32768.0 1:0.6851552276419732 2:0.7755064853082304 3:0.5314490139009005 4:-0.1062967719764074 
-9925.586817463158 1:0.6851552276419732 2:0.7755064853082304 3:1.2114007134174034 4:0.8187966743029831 
-10903.876681526286 1:-0.3304593079019604 2:-0.2524149662125802 3:0.5314490139009005 4:-0.1062967719764074 
-952.6411750008766 1:1.8266599612980605 2:2.7342239833536732 3:0.4733373595436478 4:-0.41102263268053624 
-61.32241903569305 1:1.8266599612980605 2:2.7342239833536732 3:1.2114007134174034 4:0.8187966743029831 
-783.8859098299079 1:1.8266599612980605 2:2.7342239833536732 3:-0.9743590936411759 4:-0.04026237365936475 
-4.462774478710366 1:1.8266599612980605 2:2.7342239833536732 3:-2.0869051099562297 4:8.60813859955308 
-26.36100584051708 1:1.8266599612980605 2:2.7342239833536732 3:0.558511608770647 4:-4.741090331439512 
-0.007642103028060811 1:1.8266599612980605 2:2.7342239833536732 3:-7.877393883303572 4:-4.7354394234019415 
-18526.919692585656 1:0.4733373595436478 2:-0.41102263268053624 3:1.2114007134174034 4:0.8187966743029831 
-3555.4339841409683 1:0.4733373595436478 2:-0.41102263268053624 3:-0.9743590936411759 4:-0.04026237365936475 
-17.25879066480026 1:0.4733373595436478 2:-0.41102263268053624 3:3.039266459617382 4:4.867619299444289 
-0.3115580402485391 1:0.4733373595436478 2:-0.41102263268053624 3:-9.63928948568799 4:6.53100906966278 
-1780.758275786463 1:-0.9743590936411759 2:-0.04026237365936475 3:1.5971205993469562 4:1.2196998828580439 
-2.015545468418661 1:1.5971205993469562 2:1.2196998828580439 3:-2.0869051099562297 4:8.60813859955308 
-0.03999659614466549 1:1.5971205993469562 2:1.2196998828580439 3:-7.877393883303572 4:-4.7354394234019415 
-748.2489602057769 1:-0.20335347663017017 2:1.6241700655808504 3:-1.6223469584980548 4:0.21513097414171425 
-664.6732468270112 1:-1.1249910672595715 2:-0.9879375973392958 3:-1.6223469584980548 4:0.21513097414171425 
-235.93364116760878 1:-1.1249910672595715 2:-0.9879375973392958 3:0.1082773932383903 4:2.832522430308644 
-4.633766580057746 1:-1.1249910672595715 2:-0.9879375973392958 3:-2.0869051099562297 4:8.60813859955308 
-114.6994955802044 1:-1.6223469584980548 2:0.21513097414171425 3:0.1082773932383903 4:2.832522430308644 
-58.541857753349056 1:-1.6223469584980548 2:0.21513097414171425 3:3.039266459617382 4:4.867619299444289 
-0.5433563107717744 1:-1.6223469584980548 2:0.21513097414171425 3:-6.158282125109029 4:-7.2130324128195245 
-0.2122528744195906 1:-1.6223469584980548 2:0.21513097414171425 3:8.124294636193039 4:-3.9356759753441324 
-0.3782423878614184 1:-1.6223469584980548 2:0.21513097414171425 3:-9.63928948568799 4:6.53100906966278 
-346.0257088342177 1:0.06226056193016127 2:-2.5655546835063543 3:0.1082773932383903 4:2.832522430308644 
-1.8597512935468632 1:0.06226056193016127 2:-2.5655546835063543 3:-2.0869051099562297 4:8.60813859955308 
-12.23164793092739 1:0.06226056193016127 2:-2.5655546835063543 3:3.039266459617382 4:4.867619299444289 
-0.13537442280202952 1:0.06226056193016127 2:-2.5655546835063543 3:-6.158282125109029 4:-7.2130324128195245 
-0.1628529123016433 1:0.06226056193016127 2:-2.5655546835063543 3:-9.63928948568799 4:6.53100906966278 
-3.9957036695599686 1:-0.6480350934765973 2:3.9726377761079483 3:3.039266459617382 4:4.867619299444289 
-92.8179394288756 1:-0.6480350934765973 2:3.9726377761079483 3:-1.692288452750164 4:-1.8629494252595475 
-80.05695492448356 1:-0.6480350934765973 2:3.9726377761079483 3:0.558511608770647 4:-4.741090331439512 
-24.221537365051898 1:-0.6480350934765973 2:3.9726377761079483 3:2.6525158166491543 4:1.5163901445544816 
-0.12760463857195187 1:-0.6480350934765973 2:3.9726377761079483 3:-6.241915167517145 4:5.492104783807623 
-0.35341227336258757 1:-0.6480350934765973 2:3.9726377761079483 3:-6.158282125109029 4:-7.2130324128195245 
-0.17232394096995862 1:-0.6480350934765973 2:3.9726377761079483 3:-7.846960042382747 4:5.6298207486636045 
-0.33970643994143196 1:-0.6480350934765973 2:3.9726377761079483 3:-7.877393883303572 4:-4.7354394234019415 
-0.5715118439089644 1:-0.6480350934765973 2:3.9726377761079483 3:8.124294636193039 4:-3.9356759753441324 
-0.5665082478367788 1:-0.6480350934765973 2:3.9726377761079483 3:-9.63928948568799 4:6.53100906966278 
-2.48253768842105 1:-2.0869051099562297 2:8.60813859955308 3:3.039266459617382 4:4.867619299444289 
-4.917583393837717 1:-2.0869051099562297 2:8.60813859955308 3:-1.692288452750164 4:-1.8629494252595475 
-0.015346966537440816 1:-2.0869051099562297 2:8.60813859955308 3:0.558511608770647 4:-4.741090331439512 
-6.590784602067178 1:-2.0869051099562297 2:8.60813859955308 3:2.6525158166491543 4:1.5163901445544816 
-1.2753427590433992 1:-2.0869051099562297 2:8.60813859955308 3:0.32194077892452355 4:8.537454642579293 
-0.6459014903140939 1:-2.0869051099562297 2:8.60813859955308 3:-0.3226848854818445 4:-9.482679916483221 
-0.5625205880693042 1:-2.0869051099562297 2:8.60813859955308 3:3.122067584326098 4:-2.6526719152382183 
-0.09332290094746863 1:-2.0869051099562297 2:8.60813859955308 3:3.997844397783016 4:-5.37093879468463 
-0.022389680393336126 1:-2.0869051099562297 2:8.60813859955308 3:6.088695203133305 4:6.0167384767587535 
-0.5292106988132691 1:-2.0869051099562297 2:8.60813859955308 3:-6.241915167517145 4:5.492104783807623 
-0.41635124817831354 1:-2.0869051099562297 2:8.60813859955308 3:-6.158282125109029 4:-7.2130324128195245 
-0.002584921196750598 1:-2.0869051099562297 2:8.60813859955308 3:6.817399097301163 4:-0.4789954038509858 
-0.3352851337121364 1:-2.0869051099562297 2:8.60813859955308 3:-7.877393883303572 4:-4.7354394234019415 
-0.6084025543230691 1:-2.0869051099562297 2:8.60813859955308 3:8.124294636193039 4:-3.9356759753441324 
-0.5203707417715353 1:-2.0869051099562297 2:8.60813859955308 3:-9.63928948568799 4:6.53100906966278 
-9.29020384105869 1:3.039266459617382 2:4.867619299444289 3:-1.692288452750164 4:-1.8629494252595475 
-6.437602472237765 1:3.039266459617382 2:4.867619299444289 3:2.6525158166491543 4:1.5163901445544816 
-3.6673171484565974 1:3.039266459617382 2:4.867619299444289 3:0.32194077892452355 4:8.537454642579293 
-1.6472706913201256 1:3.039266459617382 2:4.867619299444289 3:-0.3226848854818445 4:-9.482679916483221 
-0.3123264832961372 1:3.039266459617382 2:4.867619299444289 3:-6.241915167517145 4:5.492104783807623 
-0.10789875956471433 1:3.039266459617382 2:4.867619299444289 3:-6.158282125109029 4:-7.2130324128195245 
-0.3583042969316362 1:3.039266459617382 2:4.867619299444289 3:8.124294636193039 4:-3.9356759753441324 
-0.33155698804532263 1:3.039266459617382 2:4.867619299444289 3:-9.63928948568799 4:6.53100906966278 
-40.178795388300195 1:-1.692288452750164 2:-1.8629494252595475 3:2.6525158166491543 4:1.5163901445544816 
-2.1047178909594533 1:-1.692288452750164 2:-1.8629494252595475 3:0.32194077892452355 4:8.537454642579293 
-1.3832389327966859 1:-1.692288452750164 2:-1.8629494252595475 3:-0.3226848854818445 4:-9.482679916483221 
-0.08838334607726023 1:-1.692288452750164 2:-1.8629494252595475 3:8.124294636193039 4:-3.9356759753441324 
-4.325121679837056 1:0.558511608770647 2:-4.741090331439512 3:0.32194077892452355 4:8.537454642579293 
-1.3004332243786825 1:0.558511608770647 2:-4.741090331439512 3:-0.3226848854818445 4:-9.482679916483221 
-1.2029666212472903 1:0.558511608770647 2:-4.741090331439512 3:-6.241915167517145 4:5.492104783807623 
-0.4215586569586646 1:0.558511608770647 2:-4.741090331439512 3:-6.158282125109029 4:-7.2130324128195245 
-0.47463936890568836 1:0.558511608770647 2:-4.741090331439512 3:-7.877393883303572 4:-4.7354394234019415 
-0.7590087722097504 1:0.558511608770647 2:-4.741090331439512 3:8.124294636193039 4:-3.9356759753441324 
-0.3272432800939613 1:0.558511608770647 2:-4.741090331439512 3:-9.63928948568799 4:6.53100906966278 
-4.602673136033699 1:2.6525158166491543 2:1.5163901445544816 3:0.32194077892452355 4:8.537454642579293 
-0.3728565835960861 1:2.6525158166491543 2:1.5163901445544816 3:-0.3226848854818445 4:-9.482679916483221 
-1.0682067611982418 1:2.6525158166491543 2:1.5163901445544816 3:-6.241915167517145 4:5.492104783807623 
-0.4945502175570227 1:2.6525158166491543 2:1.5163901445544816 3:-6.158282125109029 4:-7.2130324128195245 
-0.12576169821655608 1:2.6525158166491543 2:1.5163901445544816 3:-7.877393883303572 4:-4.7354394234019415 
-0.30303206233316643 1:2.6525158166491543 2:1.5163901445544816 3:8.124294636193039 4:-3.9356759753441324 
-0.2527628167705994 1:2.6525158166491543 2:1.5163901445544816 3:-9.63928948568799 4:6.53100906966278 
-0.5206318018701858 1:0.32194077892452355 2:8.537454642579293 3:-0.3226848854818445 4:-9.482679916483221 
-1.3786636307263878 1:0.32194077892452355 2:8.537454642579293 3:3.122067584326098 4:-2.6526719152382183 
-3.0702231053437163 1:0.32194077892452355 2:8.537454642579293 3:4.389375184601551 4:3.776897756026143 
-0.26118528677716296 1:0.32194077892452355 2:8.537454642579293 3:-3.6493660687646967 4:-5.2391975217532405 
-0.7200446478922093 1:0.32194077892452355 2:8.537454642579293 3:-4.363578788774436 4:-0.8499956765330179 
-0.3324471645148163 1:0.32194077892452355 2:8.537454642579293 3:3.997844397783016 4:-5.37093879468463 
-0.4673831446634141 1:0.32194077892452355 2:8.537454642579293 3:6.088695203133305 4:6.0167384767587535 
-0.582618324798363 1:0.32194077892452355 2:8.537454642579293 3:-6.241915167517145 4:5.492104783807623 
-0.4368449896776982 1:0.32194077892452355 2:8.537454642579293 3:-6.158282125109029 4:-7.2130324128195245 
-0.49926819957152385 1:0.32194077892452355 2:8.537454642579293 3:6.817399097301163 4:-0.4789954038509858 
-0.5020198515728541 1:0.32194077892452355 2:8.537454642579293 3:-7.877393883303572 4:-4.7354394234019415 
-0.44747036243485555 1:0.32194077892452355 2:8.537454642579293 3:8.124294636193039 4:-3.9356759753441324 
-0.49169950027610815 1:0.32194077892452355 2:8.537454642579293 3:-9.63928948568799 4:6.53100906966278 
-1.1005080603163915 1:-0.3226848854818445 2:-9.482679916483221 3:3.122067584326098 4:-2.6526719152382183 
-2.7438779068011243 1:-0.3226848854818445 2:-9.482679916483221 3:4.389375184601551 4:3.776897756026143 
-1.0310598837837937 1:-0.3226848854818445 2:-9.482679916483221 3:-3.6493660687646967 4:-5.2391975217532405 
-1.4333915966088608 1:-0.3226848854818445 2:-9.482679916483221 3:-4.363578788774436 4:-0.8499956765330179 
-0.7727961213221571 1:-0.3226848854818445 2:-9.482679916483221 3:3.997844397783016 4:-5.37093879468463 
-0.4516504946493461 1:-0.3226848854818445 2:-9.482679916483221 3:6.088695203133305 4:6.0167384767587535 
-0.8378839239226228 1:-0.3226848854818445 2:-9.482679916483221 3:-6.241915167517145 4:5.492104783807623 
-0.45659307576538866 1:-0.3226848854818445 2:-9.482679916483221 3:-6.158282125109029 4:-7.2130324128195245 
-0.630699443639897 1:-0.3226848854818445 2:-9.482679916483221 3:6.817399097301163 4:-0.4789954038509858 
-0.666576279808404 1:-0.3226848854818445 2:-9.482679916483221 3:-7.877393883303572 4:-4.7354394234019415 
-0.7250967846545188 1:-0.3226848854818445 2:-9.482679916483221 3:8.124294636193039 4:-3.9356759753441324 
-0.7752968875736664 1:-0.3226848854818445 2:-9.482679916483221 3:-9.63928948568799 4:6.53100906966278 
-1.5919784772546652 1:3.122067584326098 2:-2.6526719152382183 3:3.997844397783016 4:-5.37093879468463 
-0.808521731188245 1:3.122067584326098 2:-2.6526719152382183 3:6.088695203133305 4:6.0167384767587535 
-0.4756427632795695 1:3.122067584326098 2:-2.6526719152382183 3:-6.241915167517145 4:5.492104783807623 
-0.5501047356892778 1:3.122067584326098 2:-2.6526719152382183 3:-6.158282125109029 4:-7.2130324128195245 
-0.16290399793378144 1:3.122067584326098 2:-2.6526719152382183 3:-9.63928948568799 4:6.53100906966278 
-1.8872065061045975 1:4.389375184601551 2:3.776897756026143 3:-3.6493660687646967 4:-5.2391975217532405 
-11.53913752016861 1:4.389375184601551 2:3.776897756026143 3:-4.363578788774436 4:-0.8499956765330179 
-1.6316366388827144 1:4.389375184601551 2:3.776897756026143 3:6.088695203133305 4:6.0167384767587535 
-0.21962672925618018 1:4.389375184601551 2:3.776897756026143 3:-6.241915167517145 4:5.492104783807623 
-0.18609682222355747 1:4.389375184601551 2:3.776897756026143 3:7.8663997051719505 4:-4.14214851686368 
-0.09313689479757188 1:4.389375184601551 2:3.776897756026143 3:-9.63928948568799 4:6.53100906966278 
-1.8000869887910267 1:-3.6493660687646967 2:-5.2391975217532405 3:3.997844397783016 4:-5.37093879468463 
-0.6530116834263516 1:-3.6493660687646967 2:-5.2391975217532405 3:6.088695203133305 4:6.0167384767587535 
-0.09484897783916234 1:-3.6493660687646967 2:-5.2391975217532405 3:-6.241915167517145 4:5.492104783807623 
-0.18871226933420923 1:-3.6493660687646967 2:-5.2391975217532405 3:-6.158282125109029 4:-7.2130324128195245 
-2.104373186882422 1:-4.363578788774436 2:-0.8499956765330179 3:3.997844397783016 4:-5.37093879468463 
-3.5912691119407585 1:-4.363578788774436 2:-0.8499956765330179 3:-5.252613517559224 4:-2.5507910799802147 
-2.1635546202547298 1:3.997844397783016 2:-5.37093879468463 3:-5.252613517559224 4:-2.5507910799802147 
-0.8822530252687013 1:3.997844397783016 2:-5.37093879468463 3:6.088695203133305 4:6.0167384767587535 
-0.861152663663456 1:3.997844397783016 2:-5.37093879468463 3:-6.241915167517145 4:5.492104783807623 
-0.7273661302003644 1:3.997844397783016 2:-5.37093879468463 3:-6.158282125109029 4:-7.2130324128195245 
-0.5743301649279484 1:3.997844397783016 2:-5.37093879468463 3:6.817399097301163 4:-0.4789954038509858 
-0.47797060737326635 1:3.997844397783016 2:-5.37093879468463 3:-9.63928948568799 4:6.53100906966278 
-30.131587763049673 1:-5.252613517559224 2:-2.5507910799802147 3:6.088695203133305 4:6.0167384767587535 
-25.144873413363026 1:-5.252613517559224 2:-2.5507910799802147 3:-6.241915167517145 4:5.492104783807623 
-18.766256937956765 1:-5.252613517559224 2:-2.5507910799802147 3:-5.713818316577286 4:-3.054171568169144 
-0.7041720719575236 1:6.088695203133305 2:6.0167384767587535 3:-6.241915167517145 4:5.492104783807623 
-2.888829412437276 1:6.088695203133305 2:6.0167384767587535 3:-5.713818316577286 4:-3.054171568169144 
-25.11406580434853 1:6.088695203133305 2:6.0167384767587535 3:-5.794478048153526 4:-2.730567772551902 
-0.39634016986885856 1:6.088695203133305 2:6.0167384767587535 3:-6.158282125109029 4:-7.2130324128195245 
-0.8740640162104713 1:6.088695203133305 2:6.0167384767587535 3:6.817399097301163 4:-0.4789954038509858 
-0.82199368855668 1:6.088695203133305 2:6.0167384767587535 3:7.8663997051719505 4:-4.14214851686368 
-0.6766225744055248 1:6.088695203133305 2:6.0167384767587535 3:-9.63928948568799 4:6.53100906966278 
-27.063733731263905 1:-6.241915167517145 2:5.492104783807623 3:-5.794478048153526 4:-2.730567772551902 
-2.7203370498689234 1:-6.241915167517145 2:5.492104783807623 3:-6.158282125109029 4:-7.2130324128195245 
-3.439684371677074 1:-6.241915167517145 2:5.492104783807623 3:6.817399097301163 4:-0.4789954038509858 
-1.540530027280477 1:-6.241915167517145 2:5.492104783807623 3:-7.846960042382747 4:5.6298207486636045 
-63.514657658688876 1:-5.713818316577286 2:-3.054171568169144 3:-5.794478048153526 4:-2.730567772551902 
-1.1719781386097723 1:-5.713818316577286 2:-3.054171568169144 3:6.817399097301163 4:-0.4789954038509858 
-2.181623185285316 1:-5.713818316577286 2:-3.054171568169144 3:-7.846960042382747 4:5.6298207486636045 
-2.2210921962979473 1:-5.794478048153526 2:-2.730567772551902 3:-6.158282125109029 4:-7.2130324128195245 
-0.9590536400636152 1:-5.794478048153526 2:-2.730567772551902 3:-7.846960042382747 4:5.6298207486636045 
-1.1668854480589066 1:-5.794478048153526 2:-2.730567772551902 3:-7.51564885290615 4:-5.203626308108829 
-1.807015490001052 1:-5.794478048153526 2:-2.730567772551902 3:7.8663997051719505 4:-4.14214851686368 
-1.7287353097081803 1:-6.158282125109029 2:-7.2130324128195245 3:6.817399097301163 4:-0.4789954038509858 
-3.4591410023961013 1:-6.158282125109029 2:-7.2130324128195245 3:-7.846960042382747 4:5.6298207486636045 
-3.560998794241828 1:6.817399097301163 2:-0.4789954038509858 3:-7.846960042382747 4:5.6298207486636045 
-3.9115983698174857 1:6.817399097301163 2:-0.4789954038509858 3:-7.51564885290615 4:-5.203626308108829 
-1.8675750765605983 1:6.817399097301163 2:-0.4789954038509858 3:7.8663997051719505 4:-4.14214851686368 
-1.2738178000125797 1:-7.846960042382747 2:5.6298207486636045 3:-7.51564885290615 4:-5.203626308108829 
-2.363668349161199 1:-7.846960042382747 2:5.6298207486636045 3:7.8663997051719505 4:-4.14214851686368 
-0.3404335981416892 1:-7.846960042382747 2:5.6298207486636045 3:8.124294636193039 4:-3.9356759753441324 
-1.0095494388898782 1:-7.846960042382747 2:5.6298207486636045 3:-9.63928948568799 4:6.53100906966278 
-23.83206415433161 1:-7.51564885290615 2:-5.203626308108829 3:7.8663997051719505 4:-4.14214851686368 
-10.24332416067725 1:-7.51564885290615 2:-5.203626308108829 3:-7.877393883303572 4:-4.7354394234019415 
-98.14282879185481 1:7.8663997051719505 2:-4.14214851686368 3:-7.877393883303572 4:-4.7354394234019415 
-38.423950806599265 1:7.8663997051719505 2:-4.14214851686368 3:8.124294636193039 4:-3.9356759753441324 
-1.804891260680467 1:7.8663997051719505 2:-4.14214851686368 3:-9.63928948568799 4:6.53100906966278 
-75.22649236461808 1:-7.877393883303572 2:-4.7354394234019415 3:8.124294636193039 4:-3.9356759753441324 
-1.2821998713167397 1:-7.877393883303572 2:-4.7354394234019415 3:-9.63928948568799 4:6.53100906966278 
-0.503354484248367 1:8.124294636193039 2:-3.9356759753441324 3:-9.63928948568799 4:6.53100906966278 
