svm_type c_svc
kernel_type rbf
gamma 0.25
nr_class 2
total_sv 2482
rho 0.002540547101327481
label 1 -1
nr_sv 1241 1241
SV
1.0 1:2.8602839551394212 2:-0.8624911467559967 3:-1.8499114311919234 4:1.7506503678040608 
1.0 1:-2.1868542603659824 2:0.3012094982087349 3:1.4077080646634794 4:1.1705978926635998 
0.7982274978136524 1:0.9209706674930297 2:0.8739735796111417 3:-1.1973078379537718 4:0.710170915088589 
1.0 1:-2.933855735389633 2:2.4410512613437496 3:1.1435305199900434 4:2.6106836272729437 
1.0 1:1.0726063593038284 2:-0.12963080944206107 3:1.5089922737457808 4:-0.5329017837032326 
1.0 1:-0.794612606721629 2:0.5996751035807697 3:0.18925935256209772 4:-0.6149911134455598 
0.6669037184011235 1:2.667366128023155 2:1.6408910472376697 3:-2.680502513765082 4:-0.5657592703915936 
1.0 1:1.3093032226914205 2:-1.6245967752905819 3:1.979539219252062 4:0.9126988423978125 
1.0 1:-0.0851346468167473 2:2.455149993003952 3:-1.2697200305656227 4:2.2486732919843484 
1.0 1:-2.6183644871241336 2:1.3745441332714101 3:-2.2574464764944744 4:-0.9880136426715409 
1.0 1:2.498936975951326 2:-0.1254278875078872 3:-1.2690462108871448 4:-1.286856531854142 
0.4834092658201062 1:-1.4723853837616954 2:2.953353499324823 3:-1.5599687852553363 4:2.5580820342191117 
1.0 1:0.027660791138661486 2:1.4556523047760035 3:2.168340167470672 4:0.027741496003143688 
1.0 1:-0.6626405244823691 2:0.47179193525238494 3:1.6932111693014724 4:-0.8491628794206484 
1.0 1:0.6062891284633656 2:-0.08062798898783183 3:0.45161581590976535 4:0.035382663632926074 
1.0 1:-0.1376014809261062 2:2.8613907354139005 3:2.690963027825143 4:-2.252006951591848 
1.0 1:2.3630712419695974 2:1.3486526726973067 3:0.7774222163285011 4:1.6751059946829219 
1.0 1:2.7777906202251526 2:-2.0117494992298885 3:-0.6780328019469046 4:2.1579994685245394 
1.0 1:-2.224309809870493 2:-1.2307803060970475 3:1.1981456394936674 4:-1.5383956520740496 
1.0 1:0.1524548512797552 2:-2.124632061076579 3:-2.3711253842230327 4:1.7846408783642054 
1.0 1:-1.8864644380264037 2:-2.8737683527915814 3:-1.6978193412784857 4:2.8183904259332646 
1.0 1:0.8614679610478493 2:-1.4691586098761253 3:1.733537255759238 4:-0.27844481766504353 
1.0 1:0.46380292516280835 2:0.19076293216289888 3:-0.314004200476298 4:0.22874515344784083 
1.0 1:0.7317397753123097 2:0.41003528445387155 3:-0.08840200481920132 4:0.7442848325867204 
1.0 1:-2.6332030160065423 2:-2.969321438019973 3:2.8737877695025538 4:-2.648367845666943 
1.0 1:-2.7521125519948817 2:-1.118119875796627 3:2.7417878516407415 4:-1.3234662014258372 
1.0 1:-0.12593662036434247 2:-2.2126809615074414 3:1.0152546826854651 4:2.112581952179448 
1.0 1:-0.9960964857275076 2:1.2631394966167544 3:-1.3758039669378632 4:0.2711694499920286 
1.0 1:2.351588104914194 2:1.3825733215505318 3:1.8721795375222352 4:-1.7128940224427982 
1.0 1:1.007056687973593 2:2.1334195114339503 3:-2.379507772008793 4:-1.6983305047031014 
1.0 1:-1.6837791034154472 2:-0.21011694734113318 3:1.821978542308353 4:-1.0223324774549627 
1.0 1:-1.936516637497176 2:-0.46899729866598855 3:1.8637653425179708 4:-0.7050770557342694 
1.0 1:2.648076512303416 2:0.019224369576432147 3:0.3193217759346324 4:1.6223281232500961 
1.0 1:-2.9097008695621063 2:0.9783336470074657 3:0.4080891235725315 4:-2.0842445542058434 
1.0 1:0.6906778621985846 2:2.8569239027931173 3:2.9217603060128092 4:-2.4597297771403945 
0.38851120864780236 1:-0.3205940906988177 2:-2.8125490020624313 3:-2.4406879124985283 4:2.3806821355873913 
1.0 1:-2.8944195198770095 2:0.7903773887297693 3:2.869822118212417 4:0.47713951709693647 
1.0 1:-0.9237947009545853 2:2.1028460245527136 3:-0.4848052645794996 4:1.952287166229153 
1.0 1:-1.5116213524478572 2:-0.014827461122753311 3:-0.47926276418371483 4:1.069010191025625 
1.0 1:-1.3818423496002274 2:-1.060734194300303 3:-1.758705590343594 4:-0.08506869250472039 
1.0 1:0.6359675875802221 2:-0.15015785144010266 3:-0.8868204389888226 4:0.4868409702250108 
1.0 1:-0.9056790637705456 2:-2.0373969898648108 3:-2.734677331020537 4:1.033513435839072 
1.0 1:1.9369035542596027 2:-2.13699966556607 3:-2.803748436632689 4:0.3107207975564901 
1.0 1:-2.667750330358331 2:2.605625510833001 3:1.5849709539657355 4:2.460229810677807 
1.0 1:1.0183396201997768 2:1.9696286855986702 3:2.4938351778383296 4:-1.4314604147423324 
1.0 1:-1.9181789391847952 2:2.753296639454001 3:0.5048057188707499 4:-2.6727671595165714 
1.0 1:0.34930089067422754 2:-2.104424022602985 3:-1.537114429174126 4:-1.9496310493995375 
1.0 1:-2.890653040926137 2:0.6677032498419008 3:-2.185180953447123 4:1.9852898835710304 
1.0 1:1.5933803775088886 2:-2.0539273215672473 3:-1.1891845933019995 4:2.015715434160959 
0.38810964301072437 1:-1.2387383372636822 2:2.834605392003849 3:2.971116603347524 4:-1.6718783523003855 
1.0 1:-2.844854439230902 2:-2.99570305382497 3:2.4413899433458965 4:2.926138252769716 
1.0 1:2.92574341070046 2:1.9116980946372708 3:-2.9126397613744888 4:-1.1156892632689888 
1.0 1:-0.9102815710152378 2:-0.3405473834419575 3:-0.7991169178762592 4:-0.8099542726749902 
1.0 1:-1.4398477036326793 2:-2.831043413048936 3:-1.6280869634318262 4:2.5091652871059593 
1.0 1:2.6668115833356376 2:-2.5292584880650253 3:-0.13822675369679538 4:-2.558443228253907 
1.0 1:-2.2467925884772653 2:1.9652255127599954 3:-0.3014319849064054 4:1.885089127711937 
1.0 1:-2.8742579564373596 2:2.9662150539005205 3:1.274116002858106 4:2.875198097308703 
1.0 1:-2.4625455683816093 2:-2.1080915092974926 3:-0.6940029796430383 4:-2.1371523746596215 
1.0 1:-1.0020221800820204 2:2.481141458528094 3:-1.398499813528303 4:-2.355914375437419 
1.0 1:-0.46862511189702033 2:-1.6991925208776266 3:-2.047095175745207 4:-1.5594057193758921 
1.0 1:0.5818917292815636 2:-0.20896606085436253 3:1.6451288388038878 4:-0.6746595017004956 
1.0 1:1.3960154456197928 2:2.3935310625692 3:-0.6221590184121297 4:2.359835336028782 
1.0 1:1.3648312414696997 2:0.12095541596796103 3:-0.3618132330686793 4:-1.0264269261817869 
1.0 1:-2.545659143096383 2:1.2514875866252386 3:-2.2491756863378147 4:-1.30951637235047 
1.0 1:-1.2431955214534196 2:-2.3527732627180207 3:0.03287667658459032 4:-2.073618693172669 
1.0 1:-0.13638229557523435 2:-0.09767627281338706 3:-0.31613310061513167 4:0.9659911546704731 
1.0 1:0.09414367824196126 2:-0.06339982472099243 3:-0.1762327176807759 4:-0.446999376721533 
1.0 1:1.6450214335149385 2:2.706557208605081 3:-1.8635253289279796 4:2.585863431408343 
1.0 1:-2.220901397199536 2:2.7038193609777954 3:-2.295845831446971 4:2.4045849868372766 
1.0 1:-0.9820938936030646 2:1.1081039125188339 3:1.1324802114746684 4:-0.9434108851664288 
1.0 1:0.06912355125425859 2:-2.929320808414023 3:-0.3532901529242979 4:-2.7968324263382645 
1.0 1:2.005416599620735 2:1.0392482174725033 3:-2.0280318992605104 4:-0.1732615962395798 
1.0 1:1.6350088092414212 2:1.0272424137800609 3:1.9667014829978102 4:-0.7794901388278024 
1.0 1:0.7561362805419906 2:2.5294566268755987 3:1.1527812780532343 4:2.499245337631095 
0.04452337147911285 1:2.1042193375887006 2:2.1634680866299836 3:-2.7199704598180396 4:-0.736927084656971 
1.0 1:1.626033676984841 2:0.21617939418912113 3:-1.6485698298894638 4:0.9874243932925645 
1.0 1:-1.421386396576982 2:2.437469756687642 3:2.229619458106358 4:-2.1749601454232677 
1.0 1:1.8849280516273745 2:-2.7029188979363936 3:-0.7556520640967963 4:2.6067280967116537 
1.0 1:1.6600338144003126 2:-2.7345680038769906 3:-0.0920613937860799 4:2.6048942123222414 
1.0 1:2.87108405605062 2:2.3844458744044585 3:0.4767559636114592 4:2.553648579869531 
1.0 1:-2.8694136097172516 2:0.0782122847988942 3:-1.7056839192718805 4:-1.6748830569549986 
1.0 1:2.6566905566469723 2:-1.6737174496328808 3:2.3413215470275457 4:-1.921888657527901 
1.0 1:-1.763295423492169 2:1.2357047943766222 3:1.7650281136620858 4:-0.715963962598996 
1.0 1:-2.9372885358557803 2:1.2809768459680668 3:0.1785402582494004 4:2.0252915177466164 
1.0 1:-1.0421844909677576 2:-0.4775977833933409 3:1.762018642354482 4:-0.4011073682901483 
1.0 1:0.37503504820395106 2:2.514087303187408 3:2.487267913324576 4:-2.410816065064887 
1.0 1:-0.0209097099639103 2:-0.1812870634187178 3:-0.2940034222852578 4:0.9104417299856191 
1.0 1:-0.7971575949466913 2:-1.0021860874180653 3:-0.3444737443991843 4:-1.1196013198638348 
1.0 1:-1.4564475655462295 2:-0.11635462406778 3:0.641453539415014 4:0.9012691474632673 
1.0 1:-1.3421501101951399 2:0.5054278176239837 3:-0.45226521566257444 4:-0.6731546560332021 
1.0 1:-2.934493263437919 2:-0.6996682571396341 3:2.00975983265554 4:-2.167397280845556 
1.0 1:2.8691360643341546 2:2.1980509312530563 3:-0.2244187499306993 4:2.083438450953098 
1.0 1:0.024294922568735125 2:-1.5921771922230525 3:-0.7792908699666677 4:-1.4531094470277084 
1.0 1:2.9302657953743387 2:0.192277286961018 3:2.668493794870882 4:0.5339647969085088 
1.0 1:2.418250961575897 2:-0.59078031596936 3:2.1569254745298347 4:-0.36250441359351226 
1.0 1:-2.3094644511890805 2:-0.02700535057466446 3:-2.093967394423608 4:-0.3848531224036789 
1.0 1:-1.0308072951261926 2:-1.2118806544544996 3:-0.6355582366167783 4:-1.0531151472990259 
1.0 1:2.9858269218955886 2:-0.5045953696109033 3:-0.9852322324046032 4:1.9034424151153126 
1.0 1:-0.9928169194135541 2:-0.20828439929996198 3:-0.8265640451876429 4:0.526612256599668 
1.0 1:0.5680330768184355 2:-1.5089823366147792 3:-1.8708491805232665 4:-0.28673751780729667 
1.0 1:2.8781921679627613 2:2.3035931982527065 3:0.28139537607973397 4:-2.4715048481971587 
1.0 1:0.7783654130888819 2:2.7148080447267735 3:0.9563089461423739 4:-2.4895734566089383 
1.0 1:-2.0526850160489927 2:-2.987704030711004 3:-1.637378850812841 4:-2.692715563373591 
1.0 1:2.331768028915893 2:-2.721219720892361 3:-2.83838374708991 4:-2.273671478110413 
1.0 1:-1.06830617040803 2:2.254006181069056 3:2.7353630526749573 4:1.318012554470528 
1.0 1:2.4448643757088617 2:1.2297956306305948 3:-2.0139003563290423 4:-1.5008114191129085 
1.0 1:-0.6233778228588863 2:-2.349295396550336 3:2.638252548952741 4:1.7212828092011527 
1.0 1:1.5036697486355326 2:-2.1751696812078234 3:-0.5659360944697301 4:1.963383436625289 
1.0 1:-2.763161346109915 2:-1.6919325616342782 3:1.4213528252505314 4:2.204329153015662 
1.0 1:-1.2432359347483755 2:-2.519636657568932 3:2.4623407116687357 4:2.1294974374112705 
1.0 1:-1.363343774749656 2:-0.3459172570475787 3:-1.5772018708306605 4:0.3415051673198916 
1.0 1:-0.9003377996508172 2:-2.815802359985888 3:-0.6284436113222398 4:-2.59368052156046 
0.25663011315850587 1:2.617920323999719 2:-2.289018597794292 3:-0.7432391929022901 4:-2.1422883957007364 
1.0 1:-0.734307832846306 2:2.1749655231353726 3:-2.2587548346561195 4:-1.9987486082894057 
1.0 1:-2.676786831606795 2:2.116114389961135 3:0.08742410790677936 4:-2.3085077101978024 
1.0 1:-0.10971042851521835 2:1.1561934725188683 3:-0.07564143748223072 4:-1.0813041130570078 
1.0 1:1.4851010150198323 2:-2.841553367085326 3:1.0831402707971272 4:-2.7378858684373775 
1.0 1:-1.0243123640522203 2:1.046456966665485 3:1.6741343250255356 4:-0.5216834233983878 
1.0 1:-0.6658649050256714 2:0.3805006929559688 3:-0.4109552887090585 4:-0.07914593919903687 
0.6524635432412212 1:1.3140339243177037 2:2.649028826047102 3:2.9517190409904783 4:-1.236661234555629 
1.0 1:0.6832086362484608 2:-1.7067704073707557 3:-2.300656186234538 4:0.7849047294668069 
1.0 1:1.0551587879115334 2:2.3691959018778275 3:-0.5969641396636721 4:2.3114716742000065 
1.0 1:-0.0695819638048137 2:-2.1088442655074626 3:1.0517363863636728 4:1.9284790317790463 
1.0 1:0.888596627465547 2:0.26575239661144373 3:-1.819833177166602 4:0.6258907243677427 
1.0 1:-0.11164979256454746 2:1.9869782729364005 3:2.634934213610762 4:1.1068522833818282 
1.0 1:2.8077129988669243 2:-1.3085241760808757 3:-2.604756032133765 4:-1.2696394867086205 
0.20388973575174243 1:0.9356719558465646 2:-1.945664650160939 3:2.3340051676552256 4:1.2381739256158095 
1.0 1:-1.4351146702102393 2:-1.02116092534867 3:-2.085308511623937 4:0.9831935284134827 
1.0 1:2.714026993172166 2:2.606681472649527 3:-2.810319535075426 4:2.5208915815384767 
1.0 1:0.33135858382030514 2:-2.698801939552315 3:1.3195155907943323 4:2.5124159332217597 
1.0 1:2.5021341756394913 2:-2.4293755358664963 3:-2.553527768917655 4:1.921679146431573 
1.0 1:-0.3460577681481559 2:2.9722439942289154 3:0.7730118358864637 4:2.8128539219726827 
1.0 1:1.278477611292927 2:-1.718565337550248 3:-1.8272252374598397 4:1.6777709354110675 
1.0 1:-2.4631424441795824 2:0.14179583946033322 3:-1.566927493548 4:1.6503857088563634 
1.0 1:-2.0708891646645022 2:1.2779604146706143 3:1.9898074011667068 4:0.8736998114697974 
1.0 1:2.6733883585158833 2:-0.748952188479518 3:2.3628080519538925 4:-0.12059798229969844 
1.0 1:0.17812343911796877 2:0.8926217980890965 3:0.17197213957337307 4:0.6523535901800127 
1.0 1:1.3320817334239052 2:-1.2236161863362602 3:-1.4792953693489108 4:0.8353366687620456 
1.0 1:-2.9403416746810573 2:1.3540007125676803 3:2.5055722180248385 4:-1.9568839283710247 
1.0 1:2.46724200600579 2:2.8397245044930344 3:-2.6654195013160495 4:2.485818875460684 
1.0 1:-1.179734404475556 2:-0.5737804922137679 3:0.8997039716953872 4:0.5623609859220182 
1.0 1:0.8186215202675652 2:1.7051076381318746 3:-2.404575355589741 4:0.8650854577739983 
1.0 1:1.9005195859160215 2:-2.361881729911638 3:2.9640613480271623 4:-0.9703240517981502 
1.0 1:-0.7215717706064457 2:-2.861751667291125 3:2.372939742468282 4:-2.516255839747839 
1.0 1:-2.4567454950817518 2:-0.5557927226571215 3:-2.314719289344127 4:1.05950666450237 
1.0 1:2.803258965888834 2:0.6002971678779008 3:-2.447102594194477 4:1.7272118155395 
1.0 1:-0.9193146214940037 2:-1.9291505349588909 3:1.985067247508405 4:1.5229474887288115 
1.0 1:-1.9616002322115205 2:-2.6893545773602714 3:2.59374994463525 4:-2.1592653144318774 
1.0 1:0.481296106298035 2:-1.369998973241721 3:1.772231444492149 4:-1.0827850024231436 
0.5323897882909174 1:-0.6312681550635333 2:-2.0726853479983056 3:2.002111332832426 4:-1.6021358774370502 
1.0 1:-2.7419934510405013 2:1.4212759353527604 3:0.0018520617544031505 4:-1.9336571459362415 
1.0 1:-2.403681612591913 2:1.9926734334844602 3:-2.3087319287790433 4:-1.7655228340637446 
1.0 1:0.9300010982390516 2:-1.4542373971565876 3:-1.7145501618950423 4:-1.1458860552606163 
0.7349406139031706 1:-1.1828010897569026 2:-1.6555542763683717 3:-2.2117529849356754 4:-0.04166970834754504 
1.0 1:-2.7403943368016095 2:0.09228061876034924 3:-2.5873692116400284 4:1.5512117309497817 
1.0 1:1.8261053501694091 2:2.1248755942495747 3:-0.3614019515681264 4:-1.923930328215767 
1.0 1:2.8947719755848516 2:1.028027105682838 3:2.9075687967427473 4:-0.18178757688725591 
1.0 1:-2.133281721409421 2:-2.471156680807078 3:2.4529630363489527 4:-2.2725349892741926 
1.0 1:-0.7742899056294203 2:0.46877374046956505 3:1.6194874568105744 4:-0.996682473045635 
1.0 1:0.19989282224321006 2:-2.8061302277667814 3:-0.9794522442762148 4:2.641513339584467 
1.0 1:-2.371091191266596 2:0.38400546468051194 3:2.1641058104871247 4:-0.6486427548018617 
1.0 1:-0.7206599704642217 2:1.2831185702416918 3:-2.048235984740521 4:0.4620571736097176 
1.0 1:2.271177537047115 2:2.890662421010118 3:2.177668937710952 4:2.6425558263189033 
1.0 1:2.571974084159632 2:-1.6024539197204897 3:2.2095199986446907 4:1.3614542745884912 
1.0 1:-1.252603816499495 2:1.9051395192280645 3:-0.007598134458934684 4:1.661354973730011 
1.0 1:2.795890010809796 2:-2.835391349772283 3:0.7680877232338781 4:2.672514401112203 
1.0 1:0.5514229523950328 2:2.4780072790069267 3:0.801666061115666 4:-2.3605389510838264 
1.0 1:1.0620115039064053 2:0.08721315171087747 3:-0.17281230145341708 4:-0.9349122968942605 
1.0 1:1.7133760170005703 2:1.6719804734790418 3:-1.058488741303086 4:1.5751457443689565 
1.0 1:-1.7110826738680975 2:-0.655148414824383 3:1.798516465780709 4:-0.6169760314908153 
1.0 1:1.618758499640972 2:-2.5789324936870988 3:-2.7792704086060587 4:2.1542271556560952 
1.0 1:2.5698952923022613 2:-1.5658782446486808 3:-1.976796044697165 4:1.7225374276510625 
1.0 1:-1.484927867745297 2:2.700024852659431 3:-2.663491658618561 4:-2.0299847493467635 
1.0 1:1.3930799371647045 2:2.537095668208035 3:-0.8447577368159727 4:-2.253425902842385 
1.0 1:-1.0826047567389747 2:2.670570579559767 3:0.6321198459017929 4:-2.511482195873297 
1.0 1:2.3594645222084165 2:1.6887326442644046 3:-1.2050647319136936 4:-1.800275464481872 
1.0 1:-0.5742172451074578 2:2.189109029692936 3:1.8396362057966826 4:-2.1711166869216556 
1.0 1:2.347489267621216 2:-0.13711486834629708 3:1.4613102312296893 4:-1.4092051385853366 
0.6812274818578536 1:2.7836589680935484 2:-1.0144676836046003 3:-2.652546544345636 4:0.3786855716179434 
1.0 1:-1.641006159554706 2:1.4140086010710298 3:-2.050441721380504 4:0.6100151058512225 
1.0 1:-1.0446335815343855 2:-0.8427722203191145 3:-1.352382390429523 4:1.0786480391757198 
1.0 1:2.1961622620348202 2:2.339408408178905 3:-2.3044872157888463 4:-2.2594337884767 
1.0 1:0.9148325904170924 2:0.029592356486148365 3:-0.22018544438795137 4:-0.7983866353030054 
1.0 1:-0.4110854735794302 2:1.7149264188569222 3:-2.2054803539190746 4:-1.2437380271154082 
1.0 1:-1.5446509372318564 2:-1.086722701356918 3:1.6172780503124702 4:-0.9200070545960308 
1.0 1:2.309458860709067 2:-0.5233167339773938 3:0.5228941926831254 4:1.1992811431325465 
1.0 1:1.04624348643809 2:-1.4773017189927864 3:-1.988672860838155 4:-0.845821928975471 
1.0 1:-1.7884684774538697 2:2.784755422478386 3:-1.47547490373962 4:-2.4260622423192566 
1.0 1:-1.1279811242170674 2:-1.8024636553477336 3:-2.4108292029916663 4:0.8482629014763436 
1.0 1:1.5341183961908105 2:1.70908519653934 3:2.3144428961015047 4:0.6518517284061571 
1.0 1:2.933171997488916 2:-2.9172088787037143 3:-2.44174704765424 4:2.072206081973353 
1.0 1:-0.6091438611173952 2:2.497603882812366 3:-1.5988891080531291 4:2.3319864776797306 
1.0 1:-1.4606482740800473 2:1.7783015141433764 3:1.067164230319946 4:-1.7420666085437133 
1.0 1:-0.6900155199900119 2:1.0936960609719084 3:-0.12854842632629856 4:-0.6479195624679108 
1.0 1:-2.867570613962235 2:1.1621916835424824 3:-1.4804181623208463 4:-1.8945833751751067 
1.0 1:-0.15251561669012673 2:-0.09603060469661447 3:0.14802659966724385 4:0.5340683533607342 
1.0 1:0.718322325399791 2:-1.6552821210489153 3:-1.9686640427510544 4:1.2000959271403697 
1.0 1:-2.244103060364423 2:1.0106690878666018 3:-1.9549220419308153 4:-0.5132917588234441 
1.0 1:-0.6081585933206938 2:1.0826326629024543 3:-0.2746214307891819 4:0.8900857703549814 
1.0 1:1.3101316007291404 2:1.233160433272312 3:-1.496366423004899 4:1.2748144066151916 
1.0 1:-0.985050043258334 2:-0.09574233451107841 3:-0.24749069240758814 4:1.0294218734059102 
1.0 1:-2.8059252538965263 2:-2.272707213020373 3:-1.2750418836221278 4:-2.278062549435817 
1.0 1:-2.506277272560555 2:0.4913980606708156 3:1.972661393811815 4:-1.4721033407791468 
0.5390051929141546 1:-1.685777761938529 2:-1.2478019871713506 3:1.64657252699178 4:0.967374978669804 
1.0 1:1.3108911665985334 2:1.321517691134976 3:-0.1557759635396972 4:-1.3106995644202883 
1.0 1:0.8821161962723952 2:2.7412426449069023 3:0.21305088304053205 4:2.6485036997261586 
1.0 1:-2.60000247446303 2:0.641004492644806 3:-1.4495121880368045 4:-1.5130371758522878 
1.0 1:-1.4103127445155053 2:2.3031502225082248 3:-2.8231166134663868 4:1.1275355762729193 
1.0 1:-1.4437921308852306 2:1.58422830971649 3:2.148772797973815 4:0.14076166689068675 
1.0 1:-1.0817695384730046 2:-0.33707149627660354 3:-1.550228725091472 4:-0.44363021057097246 
1.0 1:0.8242696254752668 2:2.846839200940046 3:0.1096557012273141 4:2.766730025359915 
1.0 1:1.2120255102895663 2:-2.301144371930544 3:-1.8698538679158736 4:-2.2030194782269152 
0.49237440499508645 1:-1.3967601958428124 2:-2.5907912913277684 3:-2.8144606186458456 4:1.6584960185638955 
1.0 1:2.2583274589073064 2:2.5412543492027737 3:-2.5394614353900504 4:2.4750991421138666 
1.0 1:-0.3033379516413072 2:1.6438527438095552 3:-2.1755318116077964 4:-0.17022167475166372 
1.0 1:2.7823632938540968 2:-1.4880615668246138 3:-2.735947864879091 4:0.5117776726663302 
1.0 1:2.9241256359345575 2:1.3888280250395035 3:-2.955916593348737 4:-0.014411604155199195 
1.0 1:-1.5067197030942925 2:-2.112052871959195 3:1.8154110957771683 4:-1.984836490751207 
1.0 1:-1.656821887795599 2:2.940478284543011 3:0.7317391462325225 4:-2.710727650836678 
1.0 1:2.508818494617031 2:-0.6152860114684437 3:-0.5872061460026762 4:-1.6273731222539125 
1.0 1:-0.20200069473536925 2:2.563724181988081 3:2.5739607754984886 4:2.2001550443258955 
1.0 1:-2.2660848371366833 2:-0.03357654328116454 3:-1.8091999706728632 4:-1.099049985804748 
1.0 1:-2.917594752554168 2:0.8238523272529684 3:-2.6481189141285606 4:-0.796247022863269 
1.0 1:2.9285310746508526 2:0.04459423780988752 3:2.5115836940015015 4:-0.9282524955838255 
1.0 1:0.8591619351507128 2:-0.16557680714801723 3:0.6804290825490247 4:-0.6394283564958502 
1.0 1:-1.2712677732179993 2:-1.0081727832776517 3:1.5643567578986262 4:-0.704487483873625 
1.0 1:-1.9835230432358244 2:1.5249319207096148 3:0.4755384424836556 4:1.403927970404562 
1.0 1:1.7019752022463897 2:-2.965164094700418 3:-2.919748303443867 4:2.522825683857138 
1.0 1:-1.113646603335304 2:1.9036347413827694 3:-2.2949553254555166 4:-1.3193915923255721 
1.0 1:0.5414612175715091 2:2.6409634771204695 3:-1.8440385319628552 4:2.5281071661865653 
1.0 1:-1.1221711432566395 2:1.5706231895717961 3:-1.715551838463629 4:-0.9355501765890869 
1.0 1:-2.8479089887122746 2:0.7667422068876779 3:1.7938418760066805 4:2.046936126577028 
0.30116166347984097 1:0.7588719847407545 2:-2.6380148878047165 3:-0.3103129099822385 4:-2.349196814653516 
0.1597900123713777 1:1.437784152458219 2:-2.8921231987794185 3:2.477828172475865 4:-2.4792834165709325 
1.0 1:1.262624920162279 2:-0.17510549929101915 3:-0.16459351927793733 4:0.7006451088996742 
1.0 1:-0.72054638763554 2:1.8843797104236277 3:-2.4302116355899197 4:-1.5091048593709435 
1.0 1:2.4190331270527605 2:-2.265268964809013 3:1.2166984351984924 4:2.0409188175429485 
1.0 1:2.3196279743345087 2:-2.145945638923872 3:-1.770756831034109 4:2.1885997213372446 
1.0 1:2.943028070682712 2:1.446786405725184 3:2.9049516137408578 4:-0.35625399524761586 
1.0 1:0.6875036522848669 2:-2.3008380017346592 3:-0.5304683008737621 4:-2.2213696841843156 
1.0 1:1.5634131731229357 2:-2.201908810254738 3:0.7698635731817967 4:2.1141178614947784 
1.0 1:2.6894019017958932 2:0.7082196254616272 3:-2.646189496215091 4:-0.8234573853463206 
1.0 1:-1.3026146214861904 2:2.309144272325814 3:-2.748781537664424 4:-1.773855498422235 
1.0 1:-2.2157492859445647 2:1.257361201681374 3:-1.6384847725385723 4:1.0472005592943794 
1.0 1:-2.3986776215381775 2:2.5974904727459127 3:-2.6800397683595496 4:-2.358893736511403 
1.0 1:0.49016090319969946 2:1.0015778498032055 3:-1.304301089770681 4:0.9748117959654503 
1.0 1:2.6717193209652272 2:2.0032638964351377 3:-2.590280035932854 4:1.845191898219436 
1.0 1:2.912734303392671 2:-0.9254654459194116 3:-2.837722479313011 4:0.43671477526318203 
1.0 1:2.875888131130023 2:0.10376812074674129 3:-2.5783299859046482 4:2.020089445077454 
1.0 1:2.1061488369644032 2:-2.5551766105806806 3:-2.512624050817121 4:-1.7911381220010867 
1.0 1:2.981327308215643 2:-0.5707155509074235 3:0.1540117856251304 4:-2.2491837562835224 
0.6523463777294497 1:-0.4856751741504222 2:-1.0762824977126302 3:0.522442496802143 4:-0.6120457306803423 
1.0 1:0.9450016998596878 2:2.6795594847219526 3:-0.7997722300441796 4:2.665066802591913 
1.0 1:-2.0546805824746253 2:-2.14656822877084 3:2.827395515362261 4:-1.0841714688110722 
1.0 1:-2.091676958073001 2:-2.3752786637560614 3:2.6912878282071366 4:1.5839151568836363 
1.0 1:-1.419075850160188 2:-1.3381906156156174 3:1.0493315908639362 4:1.3058407145825446 
1.0 1:2.329894845040303 2:-2.4107387781738696 3:1.8288683472701122 4:-2.454520784418067 
1.0 1:0.7506242561814465 2:-1.61125742510643 3:1.462059926318325 4:1.3525623140972 
1.0 1:-2.214031905309934 2:1.7250213329537065 3:2.3519290792529066 4:-0.9709672182325688 
1.0 1:0.598002043148242 2:-1.6606683819917687 3:-0.7718636781218007 4:-1.5637098476427154 
1.0 1:1.1357504141976824 2:0.18831439061807279 3:0.8062987230902331 4:0.1709209558211055 
1.0 1:-2.790426194320106 2:-1.067575520696267 3:2.6737594433365723 4:-1.1945993003862514 
1.0 1:0.945947477719338 2:0.9547081925030572 3:-1.054971713705366 4:1.105720257341063 
1.0 1:2.250482022764661 2:-2.5130961450854334 3:0.6558887065295815 4:-2.4849633519299053 
1.0 1:0.5166047929499493 2:-2.9422051862205993 3:-2.0412179998319075 4:-2.373663806054603 
1.0 1:0.9499536370581481 2:-0.3628424163428896 3:0.435165988250482 4:-0.2797451686098633 
1.0 1:-1.209424776113634 2:0.6139155375319603 3:1.3597556390417558 4:-0.5981368676959764 
1.0 1:1.027253677266297 2:-0.3599896141611458 3:1.7534764453021214 4:-0.5192678183763312 
1.0 1:1.4444396093338876 2:2.812063868703322 3:2.690368232681436 4:-2.698319695391462 
0.37370592901080474 1:0.4850569640750418 2:-1.9576773476802243 3:1.2751548905605454 4:1.744429712638781 
1.0 1:2.5491701805344 2:1.7244887006264464 3:1.6615379990028063 4:-2.0772698739847475 
1.0 1:1.9304846802921467 2:0.12223863545500319 3:-1.3896210770142121 4:1.1730097258803678 
1.0 1:1.4634111286363953 2:1.8651640899423043 3:-0.733893289932662 4:-1.6402412849162569 
1.0 1:2.5293919379413508 2:-2.6953824531804003 3:2.7537710449136723 4:2.265220658812174 
0.27805679072420236 1:2.318608694109684 2:0.042445998058943196 3:-0.51306104266761 4:-1.1763908002760606 
1.0 1:-2.1298770257577937 2:-2.872310378782666 3:-2.190064470626526 4:-2.5879989455856434 
1.0 1:-1.1966318583080349 2:1.7764899231740907 3:-2.3064243318417565 4:1.2012817603359127 
1.0 1:2.7014029219289686 2:-1.8993121308731389 3:2.702870717865061 4:-0.18382134156250693 
1.0 1:-2.9888062558044983 2:1.0156125239197906 3:-2.640471131813276 4:1.0712498579973746 
1.0 1:-0.746170563275899 2:-0.6373523391960213 3:0.20354318303085972 4:-1.0208408023898876 
0.9307752914140137 1:0.8123024271332789 2:-1.7176185575310507 3:-0.14156507815721472 4:-1.4110264528140717 
1.0 1:0.38537861196156203 2:0.3793580192098677 3:-0.025633834450232165 4:0.9315940810843384 
1.0 1:2.5227906763785226 2:-1.795704080142913 3:-1.5072174496333337 4:1.877258741121732 
1.0 1:2.8885661330687142 2:1.3101752206162296 3:1.988587671164056 4:-1.9211502904617597 
1.0 1:-1.1528971508109214 2:1.9445282345512116 3:-0.7201055363684936 4:-1.9140914676839313 
1.0 1:-1.9120860258922125 2:2.538458111399239 3:-0.3075684630446201 4:2.462626454638386 
1.0 1:-1.35911200650366 2:-1.5214199096713712 3:2.35300582801997 4:0.05655654085526921 
1.0 1:1.2841074078079333 2:-2.769265248808497 3:2.7492474744216038 4:1.9856306849459975 
1.0 1:-0.39202977669440137 2:0.22623211133196278 3:0.5570366221118717 4:-0.43468884365808114 
1.0 1:-0.8609744345535887 2:-2.325546513667357 3:1.862561141268358 4:-2.045938836412683 
1.0 1:1.353472832116167 2:2.0813909272593465 3:2.3362493347685316 4:-1.2790267976897476 
1.0 1:-0.7979415842766081 2:1.6555642620942135 3:1.618577124614019 4:1.0771426689068833 
1.0 1:1.1387225504653626 2:0.15395573340796379 3:-1.24295561897011 4:-0.3337436757874421 
0.9078319707199268 1:1.0692902083505302 2:-2.7445872709489603 3:2.9066922643561774 4:1.7045547765499245 
1.0 1:0.796953937835805 2:-2.5015857824296392 3:2.7679046149405475 4:1.9872923407422693 
1.0 1:-0.9763088930143075 2:0.19751425826662122 3:-0.7665387112596972 4:0.6420325249460826 
1.0 1:-1.7677995486961882 2:1.8184543420181454 3:-2.3301120011655665 4:0.4297443975320917 
1.0 1:1.2020890291753157 2:-1.6250555367087987 3:-1.2882367860362014 4:-1.3652008116030312 
0.2321766745238714 1:2.3886917891001818 2:0.3616291583593954 3:2.116642801166335 4:-0.14327447496463408 
1.0 1:1.4951948950984266 2:2.2075522799981506 3:-1.1480354208539838 4:-2.1177688033923467 
1.0 1:0.836529379384423 2:-1.1630760319484101 3:0.1798100930669944 4:-1.0679345761629133 
1.0 1:0.98622221276769 2:-2.928590517645116 3:-2.0322463904689902 4:-2.4648028243719255 
1.0 1:1.6336558351897892 2:-2.048398742300363 3:1.877895209156439 4:-2.0211589707620132 
1.0 1:-1.1771122701906644 2:0.8910339122021469 3:-1.6182373098399723 4:1.0258990399800307 
1.0 1:-0.41850965940867013 2:1.605880147437995 3:2.0501272223396407 4:1.3842927757797854 
1.0 1:-0.24667455851757927 2:2.4351553536652655 3:-2.8389049051807866 4:1.9315847232353585 
1.0 1:1.4880140355132991 2:-2.6914634155843706 3:2.7500357712297583 4:-2.413534975770276 
1.0 1:2.2475012999443 2:-1.8618858064701946 3:-0.8173117856912004 4:-1.6369517074318323 
1.0 1:-2.2146520312829057 2:1.7304052767901785 3:1.132828765386457 4:1.5803097511110515 
1.0 1:-2.4295707977186627 2:0.495414060731301 3:-0.9648955881494555 4:-1.3289950970940663 
1.0 1:-1.7149231094694881 2:-1.993479032762478 3:-0.58321713123747 4:1.8431562978845166 
1.0 1:-2.980600068291614 2:2.402242502449709 3:2.976174887569773 4:-2.3388586454430254 
1.0 1:-2.6909866434534195 2:0.09878889789574055 3:2.3149091891468716 4:1.6713588401904684 
1.0 1:-2.611187467337166 2:2.825688343970816 3:-2.71584177102053 4:-2.1821408658301253 
1.0 1:-1.9771554904798598 2:2.831774425760132 3:2.7643461492166566 4:-2.3193725966285577 
1.0 1:0.6400827845408261 2:0.8671415628732652 3:1.1982303835502768 4:-0.5672143204573786 
0.6406067376493539 1:-0.36608762851024884 2:2.6354593220383333 3:0.5622238112063107 4:2.4119291711052564 
1.0 1:2.029084701557397 2:2.54684630730344 3:2.415728350668198 4:-2.0552663549943118 
0.639399922711461 1:-2.2584125226028218 2:1.5447096969235679 3:-0.03450170587849683 4:1.2762402703575226 
1.0 1:1.4996880287108159 2:-1.8852530672050323 3:-2.216489946603073 4:-0.8848029680998402 
1.0 1:-1.8973938505161136 2:2.025412167092871 3:1.5170959805814193 4:1.680979338929457 
1.0 1:0.27012098566102527 2:-2.3290172516835304 3:-2.138178829552034 4:2.3136042583640495 
1.0 1:1.6146150426936605 2:1.794278941030957 3:0.5760696701276224 4:-1.818170808380469 
1.0 1:1.5548361669950657 2:0.09961801344257246 3:1.5148688806825563 4:0.5769342747516999 
1.0 1:-1.6231044510610722 2:-1.9306046917996789 3:-2.141543678737157 4:-1.4576263258991298 
1.0 1:1.2800651049190594 2:1.9753339609145346 3:-0.3856104788499588 4:-1.8951739899783664 
1.0 1:-0.9689230281553853 2:-0.20448563077776583 3:-0.36015880445474285 4:-1.0165593855210653 
1.0 1:0.35176165654675473 2:-2.2909259028844766 3:1.8973986544475934 4:-2.053051641434064 
1.0 1:0.8629556337703582 2:-0.8791736146476421 3:-1.5484746922566086 4:0.7960561390170128 
1.0 1:-2.794376070559192 2:-2.0135912393528157 3:-2.1508831374956396 4:1.947033014228298 
1.0 1:1.9777023067726005 2:-2.811968123321901 3:0.6642593468691343 4:2.774981018028044 
0.44963271388889936 1:-2.7338570603752053 2:0.7839248851342393 3:0.07313939802753881 4:-1.546228779733239 
1.0 1:-2.534655973799599 2:-0.8482059213149842 3:-2.281251008470471 4:1.489980245946967 
1.0 1:2.8757036902343436 2:-0.11716802455029186 3:1.3203558861038673 4:1.6845010313717255 
1.0 1:1.2522069057404224 2:-2.747558262326853 3:-0.8690926667898164 4:2.489504246265349 
1.0 1:2.231605372383446 2:-1.8694038494098668 3:0.8254849399882691 4:1.8229028855448308 
0.010900495231140667 1:1.6902310942767582 2:2.7934264881094757 3:2.2277555699066944 4:2.104120471981078 
0.09759401187052473 1:1.8236824833471368 2:0.8797155739662609 3:-1.849483503911971 4:-0.01616282242360908 
1.0 1:0.3213564182776057 2:-2.882869531177232 3:-0.8448110955876643 4:2.7472372281496398 
1.0 1:1.824572995064438 2:2.2720784264152902 3:-2.6937389309558752 4:-1.1854080410132608 
1.0 1:-2.322566643649402 2:-1.9860951165258676 3:2.5398086167885427 4:1.158963158085843 
1.0 1:-1.026960516875641 2:-2.311194770141629 3:2.8061229688793987 4:-0.3184573826478262 
1.0 1:-2.6201149851318353 2:-1.4500517730434503 3:0.43673943498169693 4:1.962979885304023 
1.0 1:-0.6558025335081874 2:0.17475316588892836 3:-0.06144422659326058 4:0.5294918759069841 
1.0 1:-2.173612125225336 2:0.21062110341141177 3:-0.6819003598295088 4:-1.0895587115740046 
1.0 1:-0.22042763342460772 2:1.1390817316519617 3:0.2889003999207836 4:1.065760314417914 
1.0 1:-0.9042050455111437 2:1.4125349039833242 3:0.5243025349381673 4:-1.41719926752878 
1.0 1:-2.7373755401719273 2:-2.6714647694139657 3:-2.4333000088548604 4:2.689679633195376 
1.0 1:2.2269235125074975 2:1.0921704358629285 3:2.1925560920103417 4:0.4860768169722817 
1.0 1:0.26973039764984963 2:2.252708767517169 3:-2.43806971583787 4:-1.7670073911712987 
1.0 1:1.3587418546314851 2:0.5391310115287387 3:-1.7937200657862353 4:0.2748621923243354 
1.0 1:-2.698005573754556 2:-1.4971217150744278 3:-2.7353267287005614 4:-0.1647686460756046 
1.0 1:1.088090408026719 2:2.388865812135524 3:2.4964835856658922 4:-1.87676133111301 
1.0 1:1.1890987430048419 2:-1.4260510931452832 3:1.0755595462538423 4:-1.1606622718625546 
1.0 1:-1.5771609583990758 2:0.01153984522898599 3:0.7087509285293242 4:0.6117064636494934 
1.0 1:0.5341337318825589 2:-2.9707815615508157 3:2.258678386777256 4:2.5745759303075153 
1.0 1:0.190459461567364 2:2.763139446836367 3:1.0612810048124592 4:-2.6882133458631454 
1.0 1:1.175406622464623 2:-2.012318744083827 3:-0.454203967952213 4:-1.695790641875231 
1.0 1:0.6962028196513412 2:0.25355682412533825 3:1.878798575575074 4:-0.604217978519354 
1.0 1:-0.7099359685362256 2:2.425795907357659 3:-1.4535467341769746 4:-2.3876864718626467 
0.19369014125367404 1:-0.31164556269066057 2:1.2584996168175562 3:-0.5650293002569644 4:-0.7221836850316705 
1.0 1:-1.2947738697332156 2:0.5008580839225848 3:0.6080177795838198 4:0.5371980254549837 
1.0 1:-2.9206150861905336 2:-0.978359241478058 3:-2.0352260282710444 4:1.9281977529480578 
1.0 1:-2.9711105739897596 2:-2.811309416538567 3:2.360878252812013 4:2.9094647159874794 
0.09272753741999772 1:-1.2886158714304308 2:-0.4524967306173769 3:-1.1380383080776917 4:0.7416275043103596 
1.0 1:-0.7336575114289753 2:2.3593989035604848 3:-2.7997088928525473 4:1.5090439734191716 
1.0 1:2.815556884567532 2:0.3264505518807427 3:2.2242126340793638 4:1.913570284111971 
1.0 1:0.866510958590899 2:0.7184642082818243 3:0.49322919492336215 4:0.9404324353198602 
0.9006739823635165 1:-2.406409172937696 2:-2.9325713421257538 3:-1.4677307114667097 4:-2.616957169318274 
1.0 1:2.5508303726646684 2:-1.1200444356082033 3:1.9083429533082306 4:1.387246589466628 
1.0 1:2.609553805669037 2:-2.601516415713475 3:-1.27723999914217 4:2.695277256378514 
1.0 1:2.667664946833886 2:0.18776149996636918 3:-1.010665683081807 4:1.908443235107137 
1.0 1:-1.3624597886466947 2:0.1569919523261394 3:-0.9328721013340588 4:0.5711235997327677 
1.0 1:2.1357065142660803 2:-0.5166654952547091 3:-1.6704874149583748 4:-0.9615336985626377 
1.0 1:-2.5226779661000824 2:-0.5566830620046752 3:2.081617622166228 4:1.3476330950603437 
1.0 1:0.77560482337322 2:-0.22041965087356225 3:-0.09079914473931011 4:0.06379448265940069 
1.0 1:-1.1593386070438 2:0.053278136772082735 3:1.036498429559984 4:0.3446221471059529 
1.0 1:1.9278340508472152 2:0.03510804840031829 3:1.5962364751372664 4:-0.39821657990688514 
1.0 1:-2.887957176646526 2:-1.900655694085909 3:2.5772211032011523 4:1.7159657353281024 
1.0 1:1.070049135333535 2:0.7230915480958042 3:1.5214897782504342 4:-0.36419574878862354 
1.0 1:1.003647331279999 2:1.661981236106959 3:-2.3441459541789116 4:-0.6624632099892742 
1.0 1:1.1782379736566302 2:-1.5487103024590059 3:-2.226972841433322 4:-0.49355307760275563 
1.0 1:2.8635112116937407 2:2.5076801144610306 3:1.4846155888571153 4:-2.783346948816813 
0.7395719397108369 1:-1.2197949668980512 2:-2.9242268088769334 3:-1.2030962741503197 4:2.5892737245865356 
1.0 1:1.4628984995574508 2:2.065768282728622 3:-0.653202735986836 4:-1.9820711448696735 
1.0 1:2.3568649465629274 2:-2.95337837108329 3:1.1993938608677284 4:-2.768538391676504 
1.0 1:-2.1572359728441692 2:2.331225825969233 3:-2.5139844484774527 4:-2.1050419973492644 
0.85499042998359 1:-0.34397365522770657 2:-1.4236931635070473 3:1.5936152679027378 4:0.48261847818432624 
1.0 1:2.253941329958889 2:-1.5110682689480492 3:-0.7277954774872071 4:-1.5291302954940371 
1.0 1:-2.052185862994056 2:-1.7730667588378461 3:2.576979647303789 4:-0.7931041741197931 
0.716132282347045 1:2.9099054635063353 2:1.6903575165977374 3:-0.2790035242561697 4:1.879985172698267 
1.0 1:1.0046519569786507 2:0.12046774121723666 3:-0.978281000677107 4:0.6781549429755676 
1.0 1:0.7013746659570865 2:-2.395678521694121 3:-1.600015664944036 4:2.3829821977023546 
1.0 1:-0.6762111151156511 2:1.123967654386952 3:-1.6295513913780841 4:0.7861622892880524 
1.0 1:2.4998370116458806 2:-1.3062731731165678 3:-2.4862996213150717 4:1.213305166934529 
1.0 1:-1.6848712175699152 2:-2.060041632406951 3:-2.556915260348827 4:-1.510105528202098 
1.0 1:2.9208210425133068 2:0.058240863010773684 3:1.843008856400285 4:2.064539479939641 
1.0 1:0.31185438889409844 2:1.76447314050377 3:-2.3566429009198173 4:0.5872796974749205 
1.0 1:2.8652801854943326 2:-1.5852083649921 3:-2.526269197856722 4:-1.8643102777631393 
1.0 1:-2.6113921287642863 2:-2.141577710197417 3:-0.04835948834235543 4:2.3637400175151266 
1.0 1:-2.6011726769121126 2:-1.9449697876365601 3:2.194686415247889 4:-2.1290353224408496 
0.012499825410082198 1:-2.398869643538854 2:1.4734707133312424 3:-2.0788775099921075 4:-0.6194041699836631 
1.0 1:-1.2953804832827718 2:2.989123453609198 3:2.8103852165725325 4:2.478360842053899 
1.0 1:2.436914246918034 2:-0.6637503004874102 3:0.9257340775300648 4:1.4393732487130306 
1.0 1:-0.4155898958406683 2:2.996098781798658 3:1.674861750159793 4:-2.816518722424143 
1.0 1:-0.5176011904378788 2:-2.32188972247983 3:1.937395203477022 4:-2.32356225931781 
1.0 1:2.817184030951659 2:1.558307965388725 3:-1.2807452815425198 4:-2.1067231258296255 
0.9231251262520425 1:-0.15549468388289295 2:-1.651712164675225 3:-1.23575438526519 4:1.4166053169197323 
1.0 1:-2.896524484873815 2:2.099078395343116 3:-2.660949730778347 4:1.2711993064220233 
1.0 1:2.7545760550247778 2:-1.2315363829999084 3:-0.11884750239337499 4:-1.5869852695036526 
1.0 1:2.309186092828832 2:-0.9929590842370637 3:1.956483409413985 4:-0.919122261484821 
1.0 1:0.8195915126849611 2:1.9729604772195866 3:2.6446770867712077 4:-0.2366835746068931 
1.0 1:-1.9072575342057185 2:-2.682155926194607 3:-1.0852838160635325 4:2.325021199759349 
1.0 1:1.6800369599049363 2:2.493848458585767 3:-2.631597355048369 4:-1.9718758707390742 
1.0 1:2.649241788694696 2:-2.4915737431614917 3:1.8444526091620785 4:-2.633500131952064 
1.0 1:2.221996768181156 2:-1.7073887214701047 3:0.5003595700999702 4:1.724972113360084 
1.0 1:-1.128102443982904 2:1.2619145977545432 3:-1.5525975656613387 4:-0.16870927812931227 
1.0 1:2.856942697909728 2:0.7339297044098096 3:-2.7948066794380075 4:0.23470816843531395 
1.0 1:2.3429092260811544 2:-0.7537538688634479 3:1.0406009571706802 4:1.1840018406616564 
1.0 1:-2.9965740857192302 2:2.9222537099069084 3:-0.9377994356082135 4:-2.8200824708026846 
1.0 1:-1.1057728689879471 2:-1.7507413813221737 3:2.3166745685187187 4:-1.2058648711372695 
1.0 1:-1.2851364049718998 2:2.3922390670897484 3:-2.95524729731133 4:0.4653398738639452 
0.9148424936800065 1:2.363867397568136 2:2.9977769566401693 3:-2.4132261839202833 4:2.5462647401853538 
1.0 1:1.095342013247967 2:-2.002180498849271 3:2.6964851126762066 4:0.7052073426817083 
0.8437711041986243 1:1.9055549915902417 2:2.5499031014611715 3:1.8084246407187063 4:1.9785246337466083 
1.0 1:-2.693814275691895 2:0.2707043211079442 3:2.084499003905047 4:1.008553037874498 
1.0 1:-1.959306456796702 2:-2.3993293598304497 3:-2.711949642302058 4:1.9224361494787245 
1.0 1:-1.0070032086410652 2:0.6554010936375514 3:-0.026139607897893928 4:-0.34881091255026275 
1.0 1:-1.999072682928928 2:1.6880676383699051 3:1.4695607691307913 4:-1.5856829947037245 
1.0 1:-0.6549200055202865 2:-2.4930724935534596 3:-2.6623257301851355 4:2.041932591729749 
1.0 1:1.2099668777448938 2:-1.3051166303252622 3:1.4423085643597702 4:0.7593412590904715 
1.0 1:1.9721292030927422 2:-2.9234958425014037 3:2.5941533455974284 4:2.716064903083038 
0.529932551584534 1:0.886269154727099 2:1.5947191958014106 3:-1.5778262108732337 4:1.2569364716174536 
1.0 1:2.6940946058105038 2:0.958553389514143 3:0.7339536993231303 4:1.871831796944234 
1.0 1:-1.8822817605471243 2:-1.9908521650991176 3:0.5193371968244423 4:-2.0182438434286962 
1.0 1:2.3178578709914226 2:0.35051108138279397 3:1.562159570040086 4:-1.442810423175505 
1.0 1:2.443254468753331 2:2.7878704708286657 3:-2.7692801463232763 4:-2.6330312551065096 
1.0 1:-1.1745404883966983 2:2.252056026076368 3:1.8018983710399057 4:-2.048791452786851 
1.0 1:-0.31605315191037137 2:-2.623270777668929 3:1.9190080332483064 4:2.3998826147594667 
1.0 1:2.6852212978674834 2:-2.0988532294069207 3:2.376409948035952 4:-2.0595662017708665 
1.0 1:-2.400434518398571 2:0.615354042326095 3:-2.161341505279143 4:-0.18244249536315787 
1.0 1:2.4205829767883817 2:2.8784021905548927 3:2.1952104140674673 4:-2.847951425725049 
1.0 1:-1.9508323420913698 2:-1.763439853024811 3:2.3648567311737176 4:-1.690023591052775 
1.0 1:0.3330887567146919 2:-1.5178899711574745 3:2.0575414134623675 4:0.6057807115923795 
0.3877426864912158 1:-2.679622768424287 2:2.694510056039914 3:0.8369895439379088 4:2.550170017769943 
1.0 1:0.4506156815698449 2:0.8018817725185271 3:0.22140963790235305 4:0.861212870885 
1.0 1:-1.4384134676048599 2:0.08897107151060359 3:-1.4941645379043638 4:1.0695493337353474 
1.0 1:-2.093907883961636 2:2.3709280910686132 3:2.297793176425444 4:2.100681200862566 
1.0 1:0.15684301704347292 2:-0.19835893152902848 3:-0.31199125268927685 4:0.7381219811679307 
1.0 1:2.7525954837664 2:2.6786505121396225 3:1.873261913745499 4:-2.759500482805522 
1.0 1:0.8536165983843947 2:-0.8383431684520193 3:-0.3733523090485482 4:-0.3865044920039334 
1.0 1:1.980532239281141 2:0.5295279167661744 3:1.5508850145494641 4:-1.1660372678426194 
1.0 1:2.786204366871317 2:-2.173351718905567 3:-2.7786958576297978 4:-2.0947584033878486 
1.0 1:0.004977723220564316 2:-2.064838576631656 3:1.7527454957485855 4:1.9244017968216252 
1.0 1:1.4467208605053927 2:2.2031982024078185 3:2.8432014256233935 4:0.18422027969966664 
1.0 1:-0.2246315184885938 2:-2.8165740562389723 3:1.8632059170373476 4:2.5618575391272955 
1.0 1:-0.5837816359699745 2:-0.05417924440914542 3:-0.39910200962222664 4:0.7736300377750834 
1.0 1:-1.6161446458809055 2:-0.9308384470378058 3:1.8960418346277994 4:0.49315053535313247 
1.0 1:-2.551805793327724 2:0.27948678989480347 3:-1.9047022729626122 4:-1.1741689283783125 
1.0 1:1.5696233789038658 2:2.5479945772245944 3:2.649401696233902 4:2.2035785135774453 
1.0 1:0.8263903509115319 2:0.28853088377334374 3:0.8159371089088769 4:0.7294259704895207 
1.0 1:-0.07952665577720273 2:1.2037725606846723 3:-0.616930696023197 4:1.1486245548464051 
1.0 1:-2.6164271808041706 2:1.152099270510058 3:0.413748759873414 4:-1.636336584126485 
1.0 1:1.6473990451142495 2:-1.4656998593630441 3:1.944084500546725 4:0.7393274256739103 
1.0 1:-0.16617189106743235 2:-1.3575026366972174 3:1.5266836631013518 4:0.3377307823560564 
1.0 1:2.5963414710099926 2:2.489813399688427 3:0.8958071415379966 4:-2.641484823089463 
1.0 1:0.9239848629344117 2:-0.360610993500586 3:0.044840885296900834 4:-0.9458449208158692 
1.0 1:0.7623297275294154 2:-0.056819196991750635 3:0.9234619052040316 4:-0.8103276873442788 
1.0 1:-2.689810206288557 2:0.9024447571272357 3:-2.0200878504437707 4:-1.2895967860153237 
1.0 1:0.7380899353330544 2:-1.3924099012576145 3:1.9715465948776776 4:-0.34110118097524034 
1.0 1:0.7030019855645018 2:-2.000762345645064 3:-2.6784758377682394 4:0.31643258277012415 
1.0 1:-2.0461656425576065 2:2.12261805583769 3:2.3357031331917346 4:1.5929476118299972 
1.0 1:1.2154028026241694 2:0.21907219142995848 3:-1.248974171894884 4:-0.06098365194972744 
1.0 1:-0.4474635980075005 2:1.6549730038371686 3:1.893954868624177 4:1.1310144402870086 
1.0 1:-0.6086894174813956 2:-0.4041378825531522 3:0.6207914020049619 4:-0.5391343177407567 
1.0 1:-1.1401432156918 2:1.9414381527920823 3:-2.4062916479321284 4:-0.8148157444948384 
1.0 1:-0.7283535531771884 2:-1.4452557289584014 3:-1.1320356329023644 4:-1.1272794446764982 
1.0 1:-2.3920553148550745 2:-0.13562226785587753 3:-1.8300755505714583 4:-1.3057485187530717 
1.0 1:2.9415586241285503 2:0.3520485652592359 3:-2.757332203034259 4:-0.7879917613801044 
1.0 1:-1.947512173335455 2:-0.11052804069490763 3:1.7143144652728373 4:-0.4567746138305593 
1.0 1:-2.3980948013639285 2:-0.23692766266673124 3:0.6653934041809411 4:-1.5511338256556257 
1.0 1:0.1269323270067664 2:-2.383162704631623 3:2.2569184238967988 4:-1.9793149780021606 
1.0 1:2.4824256227730497 2:1.0494466181434465 3:-0.6708925899547807 4:-1.6118459996839294 
1.0 1:-2.0154706721335467 2:1.0375236701490964 3:-1.3410066706738115 4:0.985431474057898 
1.0 1:1.7913531651842503 2:0.26330728474974363 3:1.1244032052649442 4:0.6736442223571962 
1.0 1:1.8058638786622392 2:-0.754755543347947 3:-0.026993240739518042 4:-0.9211400842337426 
1.0 1:-2.4593529448719456 2:1.4997096388345252 3:-0.1807839083273197 4:-1.6105778052483746 
1.0 1:-1.0043904231836611 2:-2.2631781770889488 3:-0.2928670717675211 4:-2.1501345546957875 
1.0 1:1.3798679855663794 2:0.32935783329367635 3:1.434465841318994 4:-0.1680182482315305 
1.0 1:-1.2930601349117101 2:-2.0875099755735613 3:-2.2697332895224225 4:-1.8890077927401356 
1.0 1:0.21668152851493208 2:0.3218231591813617 3:-0.32786946775765247 4:0.8080198719247059 
1.0 1:1.9450613535094754 2:-0.7747118254059223 3:-1.6548903012691338 4:0.9146380898013671 
1.0 1:1.8514971386313046 2:-1.3392906198757366 3:0.3551861165365434 4:-1.1338420286819593 
1.0 1:-1.5547573279218447 2:-1.9527524683383668 3:-2.5166805538064634 4:0.09946819847197562 
1.0 1:2.085271681431122 2:-2.1519568821179473 3:-2.7819573268905784 4:0.047762411344968926 
1.0 1:1.3671766301590838 2:2.927932745306596 3:2.552973341901864 4:-2.810570911572581 
1.0 1:1.8554525728512297 2:2.8781110952921782 3:-2.8657509656740916 4:-2.616447666539551 
1.0 1:-1.5236169353503204 2:2.9512128171931886 3:-0.15048197148485362 4:-2.793693194452893 
1.0 1:-1.2576555869250596 2:-2.7858074090661713 3:0.5655945053309743 4:-2.7854257805092146 
1.0 1:-0.8343481348909795 2:-1.3755929674689509 3:1.973160502886456 4:-0.1548715221941961 
1.0 1:1.5098673225020898 2:-0.005517585688266703 3:1.1383527464092715 4:-0.8831940492291628 
1.0 1:1.7660379329196318 2:-1.4515737579074468 3:-0.8371206752410155 4:1.3932645418940595 
1.0 1:-2.5718627918988255 2:-2.345412662109175 3:2.015725403973503 4:2.3442521535047702 
1.0 1:0.4049210157818193 2:1.991149082481762 3:-0.6376563349142327 4:1.932965194460203 
1.0 1:2.2002697955792776 2:1.3636204455728134 3:0.24601504485582593 4:1.5818354447715886 
1.0 1:-2.5370605570660825 2:0.1724619056738694 3:0.5518296641659518 4:-1.61123716421742 
1.0 1:2.723736122889049 2:-0.37346012418909996 3:2.446171038042483 4:-0.9670933801827548 
1.0 1:0.7058900952959203 2:-0.5112731892619375 3:-0.12911650291922525 4:-0.9070425356333661 
1.0 1:-2.6810945093472474 2:-0.43527593963770284 3:1.7030767993467564 4:1.364833987527561 
1.0 1:1.2049514781423494 2:-1.7039665650379632 3:-1.6135813333546667 4:-1.578387105833644 
1.0 1:-1.05064075208895 2:2.807550893221119 3:-2.401111946263325 4:2.7622079539498383 
1.0 1:1.6103177292317004 2:0.7592631994882778 3:-1.7210551244102206 4:0.3849391961885689 
1.0 1:-2.905488791097815 2:-2.4849012136721154 3:1.2896543854011673 4:2.73706747989578 
1.0 1:2.837268283649664 2:0.6661240780519004 3:-0.08441616888004833 4:-1.857932291075574 
1.0 1:-2.884179384021669 2:-0.17099046359062434 3:0.7360653902347709 4:1.8421925757292565 
0.19450756404044584 1:2.470487055813301 2:-1.6187188001389066 3:-2.529560779834533 4:0.0050430549495027064 
1.0 1:0.42260834391855556 2:0.21848873611782813 3:-0.016290369908777965 4:-0.6898734438059242 
1.0 1:-1.8053961785042254 2:2.641268146710238 3:-1.1168023667183022 4:-2.495958016029527 
1.0 1:-1.200014517061626 2:-2.5271065010820695 3:1.948267597392843 4:-2.411841779984566 
1.0 1:0.9471378173426068 2:2.4293360942943756 3:-2.9165922533650095 4:1.8165917542994579 
1.0 1:2.788034604447681 2:-2.3233541747774535 3:2.3731983022933725 4:-2.482600700100876 
1.0 1:1.2361229872479043 2:2.3465495956045297 3:2.8214498977060676 4:1.1179473686883048 
1.0 1:-0.3708309492737781 2:-1.185568294587477 3:1.547693272815701 4:-1.0148316677738913 
1.0 1:2.3966831486311477 2:1.165274255748253 3:2.172085941808322 4:1.486812801670934 
1.0 1:-0.8629930306146963 2:1.3928982666933032 3:-1.5725673279308077 4:1.133557589362081 
1.0 1:1.9232800409243787 2:-1.9917913594741583 3:0.45781853199904166 4:-1.7020529088417062 
1.0 1:-1.7208878970738446 2:2.320773789932111 3:2.8330371902044296 4:-1.4054651931803652 
1.0 1:1.9040202171625737 2:-1.0733510604224297 3:-1.6598975725156007 4:0.3019545659058913 
1.0 1:1.8565734389066493 2:0.10275550934946273 3:1.784475424603056 4:0.38786290222383485 
1.0 1:2.5987009347980417 2:-2.468491509210391 3:-2.119816391754695 4:2.007286779234007 
1.0 1:1.1517458986170623 2:-2.7942076295416207 3:-2.215485460607887 4:2.5022769262355604 
1.0 1:1.4046140042517878 2:-0.8818866935467964 3:-0.6997093239612334 4:0.6927077636325223 
1.0 1:1.4279174891033655 2:1.9723744191283166 3:-2.4520858547518105 4:1.1436107210084798 
1.0 1:-2.7057387952321252 2:2.0985806908145643 3:1.7085212102162595 4:2.1293284334675002 
1.0 1:0.05530808000832533 2:-1.638108860000938 3:0.4336480775071835 4:-1.449206203668551 
1.0 1:-0.8184122703844247 2:-2.380458266183172 3:1.0272955200034553 4:-2.3102433953108212 
1.0 1:-2.239536173332487 2:2.630216081589257 3:2.8875630961237433 4:-2.026016687148654 
1.0 1:1.8761733786661234 2:-1.9250647080228536 3:2.6440366400213104 4:-0.8498503697720069 
1.0 1:-1.8664745827056326 2:-2.21784429076629 3:-2.6985758104043356 4:-1.0555714134914245 
1.0 1:-0.3579912286439125 2:-1.428418925050113 3:-1.210563129263947 4:1.437231969152939 
1.0 1:2.801789088106605 2:1.4798523171382778 3:2.706122044557413 4:-1.8134145072165326 
1.0 1:2.51707208989074 2:-1.2934690876141037 3:0.48314616543624644 4:-1.7052938139418057 
1.0 1:-1.4622395600328457 2:-2.7988887686475112 3:1.2936605221787656 4:2.6270249842992435 
1.0 1:2.442853508243715 2:0.7582357445120328 3:-2.0171342651315696 4:-1.415600704121222 
1.0 1:-0.6581076766430736 2:2.016387905908215 3:-2.1739425354741257 4:1.5393078228532882 
1.0 1:-1.819535004619699 2:2.5868193602753564 3:1.535174636831141 4:2.2543458438045807 
1.0 1:0.9250339329111702 2:-0.13113060298578322 3:-0.19623907476492322 4:-0.6376377804905411 
1.0 1:0.8116074272803337 2:-0.5501670986533128 3:-0.235188559029998 4:-0.2219654289723854 
1.0 1:2.8749309485996384 2:-2.426037737796614 3:-1.6710697997723114 4:-2.51392438112767 
1.0 1:1.8420805407407042 2:-1.8376191108841524 3:1.0621607846410275 4:-1.5809982295574727 
1.0 1:0.03949590987473447 2:-2.2026128201811197 3:-2.157198516561103 4:2.079106222057181 
0.38012099162532903 1:2.63397167825623 2:2.5048152835789095 3:0.3864747002316732 4:-2.4761552783385565 
1.0 1:2.450288240184923 2:2.4094685649339174 3:-2.3690268968934736 4:-2.087132548963875 
1.0 1:2.590697464059712 2:1.6681672334052688 3:-2.2749166399863534 4:1.5441432778076574 
1.0 1:0.2511428335896909 2:2.6954862652252385 3:-0.2906179313081068 4:-2.4669390443575345 
1.0 1:-1.6181762908287045 2:2.195135449636089 3:2.6244208181681072 4:-1.6640685902875294 
1.0 1:0.9565714567918294 2:-1.3360640942010196 3:-1.8527268870622104 4:-0.700338748875541 
1.0 1:1.3315014146594595 2:1.7707985924084744 3:-2.052897402568502 4:1.7562700234285877 
1.0 1:2.924458133634179 2:1.6367009191612114 3:-2.718930471401967 4:-1.5605103229375505 
1.0 1:1.685367975339799 2:-2.17591066704467 3:2.618165515493314 4:-1.5142763750028008 
1.0 1:-2.271461713557892 2:-1.468246254656836 3:2.3828188141741857 4:1.2314127606603773 
1.0 1:-2.655219587719786 2:-0.44738979485934455 3:0.8079589647983445 4:-1.56271514983061 
1.0 1:-0.3784356917014657 2:2.924413119393019 3:0.20500324827846542 4:-2.8695222069959434 
1.0 1:-1.3109394112334167 2:0.28722694052384773 3:1.5030083610358578 4:-0.32129016211727407 
1.0 1:-0.837573536459085 2:2.989309703574999 3:1.3140181594815683 4:-2.7321254822649537 
1.0 1:-1.7903142690939116 2:-2.4054971678168027 3:1.0917809794507836 4:2.3082551547380312 
1.0 1:2.922384894495718 2:2.919517241693934 3:-1.6261137784587274 4:-2.98391383040436 
1.0 1:2.8197738766300726 2:-1.982043755246642 3:2.638933253005405 4:-1.7792036380239655 
1.0 1:-2.571428775761546 2:2.0509874541485424 3:-2.3929211528245125 4:1.9162315848842182 
1.0 1:2.9574828024171427 2:0.03709217685101113 3:0.11187555090014974 4:-1.9365738808054953 
1.0 1:-2.816136238732989 2:-0.16828412613387694 3:-2.3001684505867335 4:1.6320166541053962 
1.0 1:-2.458179421980705 2:1.7376245570757098 3:-2.494040867909125 4:-1.249654050786794 
1.0 1:-2.8698351233963284 2:-0.2816282163810862 3:2.1812306701322983 4:1.2231860128249779 
1.0 1:1.8945884960221833 2:2.5500406469837973 3:2.1431283927383222 4:-2.507788818761803 
1.0 1:-0.2069840142306163 2:-0.5572821334270007 3:1.0386630328396615E-4 4:0.5101862225456357 
1.0 1:2.6447402780664127 2:0.44906113264056274 3:2.514752575033643 4:-0.7692217192719836 
1.0 1:-0.6909568680987652 2:1.8387868967681258 3:-2.52361989299567 4:-0.3506142224497867 
1.0 1:1.5703039019498986 2:-2.079487919046788 3:-0.20446387942022246 4:-2.0644464262115685 
1.0 1:-1.693155422631146 2:2.6693870852817545 3:-1.803528239398234 4:2.663574577757522 
0.8309440531391139 1:-2.2748635376975255 2:0.30516918901911216 3:1.9496316136798133 4:0.07766210371207974 
1.0 1:-2.3410242999206132 2:2.466319884890211 3:1.755221746144361 4:2.3727150709997322 
1.0 1:-2.4261265676106354 2:1.0408328639460795 3:-0.09362481310526993 4:-1.4950994617649251 
1.0 1:1.7095194947871513 2:-2.565997972458285 3:-2.5100850316893197 4:2.347899005811303 
1.0 1:1.9595429666660642 2:-0.19302975554211171 3:0.08417849234222975 4:1.0048064269389603 
1.0 1:2.5968912264891078 2:0.023001571851772363 3:-2.489784244056633 4:-0.08747835964651084 
1.0 1:-1.534835681351694 2:2.5073010274122747 3:0.9994953761909123 4:2.3743329637499366 
1.0 1:-0.5784367223943306 2:-0.47948548938633095 3:-0.0864099881768149 4:0.5236947947075411 
1.0 1:1.0191568845888865 2:0.5280673263278195 3:-1.9414248768571385 4:0.8856347061965197 
1.0 1:0.36320747911484585 2:2.0561414203625255 3:0.6576582303809381 4:1.913096199462558 
1.0 1:-2.0762877568245526 2:-0.11527839124007873 3:1.9291988511791018 4:-0.2564238151682835 
1.0 1:1.076480733029227 2:-2.710271131488255 3:2.000017906512674 4:-2.372044209489124 
1.0 1:-2.963000539454084 2:-0.008125706782831048 3:2.744955241980277 4:1.9200949311976645 
1.0 1:-2.9616499040954443 2:0.04048313976785392 3:1.7203317912181455 4:2.060664717408255 
1.0 1:0.8729731279676616 2:-1.5021904528299994 3:1.918722678363035 4:-0.12587123777981765 
1.0 1:-2.517040095317365 2:-0.1355999125753427 3:1.6860434685793722 4:1.4105928251293054 
1.0 1:-1.4263363814324688 2:0.5945283769125195 3:-0.18936985917066418 4:0.6334229180196841 
1.0 1:-0.7330585153206487 2:2.4914205513808283 3:0.2281220951560952 4:2.4191439027149104 
1.0 1:-1.363890334835459 2:-1.379299887077342 3:1.9653244086651882 4:0.9497024764950003 
1.0 1:-2.8038488370636516 2:0.40038076042218207 3:-0.9215756754610397 4:-1.7906187544755805 
1.0 1:1.6196289069124632 2:1.2142920779890385 3:-1.6679542999708725 4:1.1800734003380415 
1.0 1:-2.332385182678246 2:2.4675670101503218 3:-2.8983663483540316 4:-1.5250621325505225 
1.0 1:-2.8737278817221337 2:2.7490681657533034 3:2.5042933428631704 4:-2.3259218081878466 
1.0 1:2.7930082957543583 2:-1.3118938829990012 3:1.10615122258201 4:1.867133296229306 
1.0 1:-1.9487222667877095 2:2.6333587206821796 3:0.564883902183381 4:2.581782876476522 
1.0 1:1.3887053368511686 2:-1.3475831902441415 3:0.5105896572059212 4:1.0542205132045572 
1.0 1:2.3364567643946756 2:-1.2369491815777331 3:2.2400410358853162 4:0.7867668063846068 
1.0 1:2.720528120606275 2:-0.4575755561435095 3:-1.684429077671864 4:-1.3573884841273984 
1.0 1:-0.8582037299341557 2:-2.0334520691432263 3:-1.6431973813460699 4:1.8559426827906866 
1.0 1:0.5210297088510558 2:-1.2887922118020556 3:0.23071511240880865 4:0.8917801358645344 
1.0 1:-1.6755910082170982 2:-0.4663959230815394 3:-2.0391033198040716 4:0.9181139099927296 
0.42668283806033896 1:0.8982942161634976 2:2.708559023768503 3:-1.3369050369423927 4:2.3840862680552943 
1.0 1:-2.1646484734727083 2:-2.3881966491999904 3:2.87736913779862 4:-1.7768412232401276 
1.0 1:-1.7412227381715157 2:-1.2501464911834035 3:-1.538818460890188 4:-1.1884917255902292 
0.8290888748502322 1:1.248187216863762 2:-2.62933189055972 3:0.7971594877157011 4:2.3563699482913556 
0.46978663099984874 1:2.0660351718340646 2:2.889268990158967 3:2.367202205080036 4:2.12612801023994 
1.0 1:0.17981530226660572 2:1.6513755044332097 3:-1.6925132766302342 4:-1.3888976906507908 
0.5120013924356883 1:1.0865459841800147 2:1.2990904833625332 3:-1.754890806022289 4:-0.2103816970278881 
1.0 1:-1.9314577121892353 2:-1.2963898440111385 3:-2.159837498473071 4:0.7635534605662397 
1.0 1:2.8131912595821214 2:0.4294977371115937 3:-2.2040724266046237 4:2.111514205997366 
1.0 1:0.8703331435973475 2:1.5823922595790858 3:2.3865829389222544 4:-0.6384101604970684 
0.36731786051655646 1:-2.718855367671946 2:-1.495758876639366 3:-2.5359945040354543 4:1.2856748156444622 
1.0 1:-1.3730339199578017 2:1.4295391048835824 3:-1.7000279878009725 4:0.8011469013828592 
1.0 1:-0.6650338766885363 2:1.276826749765169 3:-1.591681165097434 4:0.943123816349882 
1.0 1:1.302842900591154 2:-2.2183758942715213 3:-1.9632920507059888 4:-2.039886252386365 
1.0 1:-0.754325801276797 2:-0.8641476145075501 3:-0.7445930103229198 4:-0.6982342224877611 
1.0 1:2.659179355694758 2:-0.17927231184864237 3:2.2138050101256956 4:-1.0854127514276593 
1.0 1:-2.8968385877876695 2:0.43869527805440217 3:1.868877985779262 4:-2.1217912864270563 
1.0 1:-0.39092775729881424 2:1.6708601014479125 3:1.9706013251100378 4:-1.267366461175213 
1.0 1:-1.8406527988087849 2:1.8194427980797265 3:-2.2032170381897713 4:-0.8812286857685339 
1.0 1:-1.017781177374308 2:2.0209129518063422 3:0.24713343619561537 4:1.8628362211719243 
1.0 1:0.6584823563891399 2:-2.3213614253509967 3:-1.9361691440222988 4:2.1267166430311284 
1.0 1:2.216140082015989 2:0.3618786962527433 3:-2.1625505214222898 4:-0.6449770317260723 
1.0 1:0.585387984257783 2:2.7200956529378244 3:0.09798777409653554 4:-2.676979864232314 
1.0 1:-2.7044772385423346 2:2.5109999696015204 3:-1.4390433625959462 4:2.451949385172816 
1.0 1:2.841785134023335 2:-0.8786398960352056 3:2.0235644133939656 4:-1.8065401831204033 
1.0 1:-1.9292396678510035 2:-1.7895378204614818 3:1.3169540734398235 4:-1.7286213002326016 
1.0 1:1.3034865871299672 2:2.511969641948729 3:2.2241571316598003 4:-2.445937277481996 
1.0 1:1.2288078930597761 2:1.0872536251991833 3:1.0344773226870692 4:0.9410268065823105 
1.0 1:1.2873346175251559 2:1.2932855788647926 3:2.037615123669059 4:-0.08429472672718782 
1.0 1:2.494598267694587 2:-2.8701360705334307 3:2.05430841295531 4:2.7487331464270843 
1.0 1:2.950125682868653 2:-2.8067249456538725 3:2.4191928004233345 4:2.850345485452174 
1.0 1:1.0600428657628176 2:0.5442229924304286 3:-0.5233194854435566 4:-0.6270160677174698 
1.0 1:0.9094974954114723 2:-0.45535054194127106 3:-1.5764940909229141 4:0.8472747922834788 
1.0 1:2.6143027280011766 2:-0.3912890968238145 3:1.1208061828539804 4:-1.5692079820721248 
1.0 1:2.2124238642647 2:-2.787447037480331 3:-1.6118619832266972 4:-2.711045889805828 
1.0 1:1.0534892242284848 2:1.0599917802065677 3:1.4891510969492021 4:-0.7148093653428508 
1.0 1:-0.7781443726452328 2:1.351307353069677 3:1.330969980224329 4:0.42797966188635556 
0.6229868008579658 1:2.375231926711174 2:2.612683623320487 3:-0.3127204100600996 4:-2.490409275007534 
1.0 1:-0.5738314525778079 2:-1.687856676423695 3:-2.1921973169662516 4:1.5156088065251567 
1.0 1:0.8419896135505955 2:-1.521879548487572 3:-2.219975830366813 4:-0.35934459616688946 
1.0 1:2.1338775854303575 2:-2.5929920664644515 3:-1.6862863509493577 4:-2.3546834374066945 
1.0 1:2.9627661286394487 2:-2.7417077623866084 3:-2.66758546017033 4:-2.813338122854408 
1.0 1:-1.6005006966828277 2:1.6193039966342377 3:1.6659355088833334 4:0.9540475180658057 
1.0 1:-2.6510374230470557 2:1.2664526355015606 3:-2.27193284698465 4:-0.3288163088475556 
1.0 1:-2.920146124414921 2:-2.4015821124048204 3:2.4398586356592737 4:2.307494380693864 
0.11990555835438055 1:1.331150589091389 2:2.6783071166470127 3:2.5099866540754117 4:-1.9600554098066112 
1.0 1:1.3953227156483448 2:1.5311624106856343 3:-0.8230159492731208 4:1.4762122160926847 
0.05026183944935652 1:2.504656027034425 2:-0.12113504738881913 3:2.0368627244156876 4:0.24779396382504146 
1.0 1:2.127252552331219 2:1.9318576306215722 3:2.1289479677770444 4:-1.99152459530909 
1.0 1:-0.859075337471146 2:-2.508179743615011 3:-0.05767739926620051 4:-2.250205659208897 
1.0 1:1.8653932265545545 2:-2.141333465648972 3:-1.6055221552932533 4:1.8943184545665108 
1.0 1:-1.115390346382459 2:-0.10544491623561392 3:0.07676684532393861 4:0.9047383540669887 
1.0 1:1.0714981840179896 2:0.42473123932234963 3:2.0450815779179012 4:-0.8296708601218646 
1.0 1:0.20232462616540164 2:-1.256950359307212 3:-1.5028859925652278 4:-0.4720933965401583 
1.0 1:2.6555288960966683 2:0.9650821027014921 3:-2.0843793879517922 4:1.9155458371979406 
1.0 1:-1.163149798999759 2:-0.03099961783861847 3:0.642959368223158 4:0.813594335886498 
1.0 1:1.6634475546666159 2:-2.3141345459916987 3:0.14827178688504847 4:-2.0479543078636917 
1.0 1:0.46029471439605224 2:0.46749327170958754 3:0.37161946434468185 4:-0.5922848711768869 
1.0 1:-1.7975731076227 2:2.871554534041815 3:2.62425408468258 4:2.6673079940603834 
1.0 1:-1.4456155880372663 2:-1.6755255176811261 3:0.703615916791567 4:1.5954939627199176 
0.036027120472663196 1:-2.5658311241819387 2:1.7032754178633203 3:-0.2492911859451807 4:-1.763689318390086 
0.39950211524048607 1:2.5140951465466954 2:-0.7528731409418522 3:1.362722180887063 4:-1.3830449666556408 
1.0 1:0.38012442866391827 2:0.28356791326284986 3:0.2347859939501023 4:0.28222562338664714 
1.0 1:1.4200419358952552 2:-0.5942632790135258 3:-1.5097917418022282 4:0.7585593210335518 
1.0 1:-2.8120439207779957 2:1.741780765077377 3:0.1692601219493742 4:1.8779451769564417 
1.0 1:0.47236807841413175 2:2.648836196296212 3:0.15841326445961887 4:-2.5186896280922326 
1.0 1:-1.4138721752035732 2:0.5755460126595733 3:0.2806335172926946 4:-0.895505792564443 
1.0 1:2.9547164154303243 2:1.590794224693179 3:-1.2457674187415009 4:-2.1598916534069605 
1.0 1:-2.379534280090168 2:1.8458720233734078 3:-1.9008066382882767 4:-1.7579207080153496 
0.11208399804758179 1:-2.8853089470129762 2:-1.481197554293905 3:-2.5989026649421167 4:-1.1274123113396604 
1.0 1:-1.8061047996893183 2:-1.4998286312622684 3:2.024354345061953 4:1.2048050121201404 
1.0 1:-2.242832103738851 2:1.4821222970352887 3:2.165554764354088 4:-0.9996796907785332 
0.5509799253014659 1:2.395197007990527 2:0.4659825522250843 3:1.941395076602852 4:0.591739452754862 
1.0 1:1.8679690081405946 2:-1.0492283605847073 3:1.8375919120978157 4:-0.6598840822212728 
1.0 1:-1.6911308644638985 2:-0.09485920538650176 3:-0.5522379140236955 4:1.0600687642536792 
1.0 1:-2.0337114576092166 2:-0.6471068498026238 3:1.8028531430146617 4:-1.2881882940437857 
1.0 1:2.2892401672046696 2:-0.5806118591126871 3:2.120006993286708 4:-0.8041879438935016 
1.0 1:-2.5134253640303994 2:-0.7332899624950725 3:0.9503805428616701 4:-1.4440702794352653 
1.0 1:-0.46650032579555145 2:-2.322063337653278 3:2.577605589614846 4:1.7259173523018123 
1.0 1:-2.0082405219063926 2:-2.7266002092983657 3:-2.8684486489287484 4:2.065339938086898 
1.0 1:2.688216379765186 2:-1.1307392619058967 3:1.1143203695978505 4:1.606267390415196 
1.0 1:1.2977583191480582 2:-2.664166397635345 3:-2.9533982948215676 4:2.185754101673495 
1.0 1:-1.1317348858490035 2:0.9625981759282847 3:0.22422046298567588 4:0.700818755127992 
0.6465656665728632 1:-1.0396779569497354 2:2.8122905845140176 3:0.2156194376737454 4:-2.556290015719255 
1.0 1:1.0199243466941321 2:-2.1632115136581724 3:-1.957122470094821 4:-1.6335384852517152 
1.0 1:2.7559410428805577 2:-2.285853274248006 3:0.0694989425759178 4:-2.5013011631299795 
1.0 1:-0.8824982986855671 2:2.192672938471396 3:2.45570363532293 4:1.809385746133378 
1.0 1:1.0979016798585386 2:-0.9249453560801009 3:0.34703278831772666 4:-0.6136296261903391 
1.0 1:-1.6651329833588393 2:-1.2214205517748682 3:2.013610285172711 4:0.3358183866490022 
1.0 1:2.590117727397749 2:0.22716548698025638 3:1.5902424129381973 4:-1.787301700076259 
1.0 1:2.345466996622309 2:2.3654719072347423 3:-2.4920724169616126 4:1.965878090124158 
1.0 1:2.993244483750693 2:-0.4618923011470937 3:-2.6899535208915935 4:1.5025033257166927 
1.0 1:-2.4901600270442317 2:0.3626922459213267 3:-1.2985560087542611 4:1.4387850008989118 
1.0 1:2.9199214580896045 2:-1.8288129708333383 3:2.5407215038970947 4:-2.1106098394592685 
1.0 1:-1.2683941570977944 2:-1.9235530356491886 3:2.4951950612996803 4:1.0496822785133366 
1.0 1:-1.17316425455352 2:1.71202871654656 3:-1.392732289897253 4:1.6783424910484859 
1.0 1:0.7236216307782766 2:-1.393003254473686 3:-1.146651627217423 4:1.2658258698139062 
1.0 1:1.2091883596865662 2:2.75248021788685 3:-2.6196275903098982 4:-2.1518814439279814 
1.0 1:-0.30588148963599576 2:-1.2063501087519195 3:-2.066889670468134 4:0.5286961956536407 
1.0 1:2.156324886024448 2:2.536731765388797 3:-2.6317978930368655 4:2.408320275776096 
1.0 1:0.35126857623870295 2:2.8412106520121787 3:-0.1992265164295158 4:-2.7364971523090156 
0.10838138754379663 1:2.5326869487469397 2:-2.7129188102075337 3:1.1708728628169693 4:-2.5437696626128723 
1.0 1:-0.2879459390460326 2:2.3535811191596365 3:-1.1615400447936486 4:2.2626076001573883 
1.0 1:-2.269327174995877 2:0.2231419685534471 3:-1.689904587892975 4:-1.2583311774747188 
1.0 1:-0.0568831965545635 2:0.3676834565170295 3:-0.0032453329246836687 4:0.8053036071530179 
1.0 1:2.9692433059714807 2:1.5028057932115404 3:-0.6513420894745642 4:-2.2331028036727414 
0.003986736290347954 1:-1.2568379678536148 2:0.4183016332460393 3:-0.3784490465980826 4:-0.06420308771536108 
1.0 1:-0.8803971973314448 2:-1.028627562267566 3:0.4658120062881002 4:0.8866597554650875 
1.0 1:2.346522414166998 2:0.23977189379119027 3:-1.6820173736199742 4:1.315411005126757 
1.0 1:0.6945468426401927 2:-2.576211027590004 3:2.571580401351302 4:-2.35620773469895 
1.0 1:2.7244313063339773 2:1.1594598185458758 3:1.947633650358979 4:1.743624575479759 
1.0 1:2.2771353107280428 2:1.83988279594515 3:2.6105917344015888 4:0.8258082895640356 
1.0 1:0.9738927387913203 2:-0.14842050598180007 3:1.0840620667669534 4:-0.5913691508305272 
1.0 1:-2.0738318115554195 2:-0.264773441834662 3:-1.0314709362729026 4:-0.9792437171259266 
1.0 1:-2.8899714062605892 2:-1.4409228444053281 3:-2.8507638587590822 4:-0.35139377307374725 
1.0 1:-0.42089933201377416 2:1.4616745997182838 3:1.957726993446183 4:-0.12478353840840305 
1.0 1:1.9808779967326695 2:2.5956950577868043 3:-1.9646172901906898 4:2.339364123745812 
1.0 1:0.8911975182014281 2:2.1490295854639596 3:-2.672617181110278 4:-0.9438930641381472 
1.0 1:-0.6545393945278508 2:-1.100613465407021 3:-1.8258588582515423 4:1.1034334156850492 
1.0 1:-1.1294873586556489 2:-1.0262820034044664 3:-1.1796678976051909 4:-0.9366973693414613 
1.0 1:2.8836909786993914 2:2.587452547439278 3:-0.7891870873287871 4:2.66176379580931 
1.0 1:0.31475420302648144 2:2.039240673057158 3:-2.599922923746774 4:0.5951252110873044 
0.4718689181200853 1:-1.9866561183391793 2:2.487350809327427 3:-2.871349278964382 4:-0.7605536118799971 
1.0 1:0.9821662855140736 2:1.529065813816887 3:-0.2210031201473117 4:1.5005793197581898 
1.0 1:0.1645660586870917 2:-1.5797486119181001 3:-1.6472165580674691 4:-1.1921041780474335 
1.0 1:2.850904946636539 2:0.3834140177072647 3:-0.974464059972982 4:2.062064209457144 
1.0 1:0.5788889939096326 2:1.2744851463626383 3:-1.6659566799165828 4:1.0016279336356677 
1.0 1:2.8063067715482175 2:2.6503274205389973 3:0.0024228408672518948 4:2.6205957836129947 
1.0 1:0.38265659352506937 2:0.8474581810562163 3:0.17445111793271922 4:0.86313144362626 
1.0 1:2.7156157577918023 2:-2.750220363682712 3:0.5888961469510249 4:-2.681659477442744 
1.0 1:-2.410659551230448 2:-2.4854695106792764 3:0.01887689732353378 4:-2.3833534747222154 
1.0 1:2.643418205312091 2:-1.9993942679824308 3:-1.6299205204817853 4:2.003958013188607 
1.0 1:-0.6168227290475771 2:2.4225067151988533 3:0.713642812145234 4:2.25144315662514 
1.0 1:0.22976350925278163 2:2.3158882563852368 3:1.3702777059756328 4:2.242188986964052 
1.0 1:-0.3476905534805078 2:-2.878596799158947 3:-2.6074751987615574 4:-2.43410109358022 
1.0 1:-0.0344466066263241 2:-2.8469652787735313 3:1.916956315747583 4:2.455453259526352 
1.0 1:1.722492600780675 2:-1.4803727280213426 3:-1.6391006200034106 4:-1.2796060382866812 
1.0 1:0.0529209112056007 2:-1.0699741391666124 3:-0.30559412653906687 4:-0.9547893432065271 
1.0 1:-2.546039166245112 2:2.888837921843818 3:1.9385599008754741 4:2.525109090680231 
1.0 1:-2.8460732111469356 2:2.2149587092025165 3:-1.6673581984664394 4:2.5294683591462928 
1.0 1:-2.7887327425488015 2:2.9706273152434104 3:-2.3548222437201023 4:-2.7610048379798506 
1.0 1:1.4916708724054621 2:1.461466144766517 3:1.9754352165434406 4:-1.2658310684940166 
1.0 1:-1.2764075325066468 2:-0.09317995721862038 3:-0.6623681157416664 4:-0.5779091118525533 
1.0 1:0.37711510478060634 2:-1.5719813746089868 3:-0.5996409392800116 4:1.406045272301389 
1.0 1:2.809637330985842 2:2.9872632112953537 3:1.7239945876486198 4:2.7537521467003283 
1.0 1:0.8874774226373628 2:-2.9578873041074902 3:0.13112608330205347 4:-2.9040399228606906 
1.0 1:0.568655998602382 2:2.6093855663886343 3:-1.030568166837712 4:-2.500093213057352 
1.0 1:-0.36491605616304523 2:1.0093330567232424 3:1.8716265996966273 4:-0.8201085951507336 
1.0 1:2.988998766541488 2:2.4861562016347913 3:-0.5103602821208142 4:2.866463230003043 
1.0 1:-1.865812927447189 2:-2.569476469227549 3:1.997674086947223 4:-2.3578222876718837 
1.0 1:1.3867812682441707 2:-1.205569121388834 3:1.422693451012882 4:0.11229291673856161 
1.0 1:-2.861696246144394 2:-1.3168820976741034 3:-0.9316561743499321 4:2.113708921174719 
1.0 1:-0.5465300741682189 2:-2.242988690001757 3:-0.5202414536063075 4:-2.206402182266737 
1.0 1:-0.8448531763483776 2:-0.16995492117365532 3:1.195544572560905 4:-0.4130654065326541 
1.0 1:1.2965117198499974 2:0.4840818776007741 3:1.2587591757607148 4:-0.6161232447258176 
1.0 1:2.330829432602485 2:2.066997991619626 3:2.486303587102278 4:-1.567704863841973 
1.0 1:-0.12014167098292497 2:-1.5159534080350423 3:-1.7069309141001061 4:-0.9690963910466289 
1.0 1:-0.9805131802722046 2:2.265288128017674 3:1.2676445171079966 4:2.1211248361142694 
1.0 1:2.611801154909487 2:-0.48304417612286665 3:-2.4739983279008686 4:-1.3450192462480142 
1.0 1:2.2551733025034215 2:2.4463578239133725 3:0.7226638704065454 4:-2.3615466081120307 
1.0 1:0.47681578571507793 2:1.7638937204533849 3:-0.33764152650697693 4:-1.5183904369585914 
1.0 1:1.011792683825466 2:2.2176348704156266 3:-2.7016817844090006 4:1.4656191248376738 
0.8955413825920064 1:0.41294763833733095 2:2.287814505700947 3:0.966833213406374 4:2.0661215379731184 
1.0 1:-0.08601483139541925 2:-2.498160131195533 3:0.4348052223395396 4:2.4797124451367485 
1.0 1:-2.787071844838774 2:0.9619975262842693 3:0.9742545422676049 4:-2.001305257048355 
1.0 1:-1.2067329843925951 2:-2.115141633530483 3:-2.005038234636474 4:-1.6181393717455463 
1.0 1:-2.366824526356482 2:0.06795348580793864 3:-0.2833060609209857 4:1.5701340784847022 
1.0 1:1.141462928651138 2:-2.689151811316314 3:-2.7221899576006776 4:2.330255242506248 
1.0 1:-2.3292625054059446 2:-2.3608529332366865 3:-0.9026223279298797 4:-2.226476175641216 
1.0 1:-1.8739974450701506 2:1.7978847365309518 3:-1.8284016550199074 4:1.5380161312176606 
1.0 1:-1.9899398864501 2:-0.37924189542728887 3:-1.8613494655116654 4:0.0435062649214022 
0.49554476863044256 1:1.7464345602751936 2:0.6922822098778116 3:1.0784737485247935 4:0.7226831180677591 
1.0 1:2.7658786298947327 2:-0.775458123978391 3:-1.701204240430207 4:-1.3723778639446214 
1.0 1:2.1145466035410516 2:-2.10209064775898 3:-0.6744925954732771 4:1.9614983959832382 
1.0 1:0.41064155063524477 2:-2.640360600825178 3:-2.602597764642612 4:-2.0638172465420372 
1.0 1:-2.923072758986397 2:-0.49846601915973937 3:-1.8854841253318582 4:1.9177723274451577 
1.0 1:-1.4519689215453127 2:-0.22736107721641405 3:-1.5834873203475834 4:-0.40857288109015116 
1.0 1:-2.449621413375155 2:-1.9539624312225417 3:0.17104192660277906 4:-1.9277498241230728 
1.0 1:-0.22360807938709312 2:-1.1996821949513465 3:-1.953814704172308 4:0.5555120733801189 
1.0 1:2.626283142797558 2:0.10695612512380233 3:-0.8116309350296634 4:-1.770437780958629 
1.0 1:-2.6253745935783477 2:1.976159666444848 3:1.221960100692319 4:-2.1310399902471158 
1.0 1:0.3021419698140356 2:1.4673640460728794 3:0.39013759818049454 4:1.4046158222226681 
1.0 1:1.5954480449481503 2:-1.8305913670712182 3:-1.5591131228384731 4:1.729465063119011 
1.0 1:-1.2416532064704864 2:2.0900834538676203 3:-0.6645073930176485 4:-1.975829247947256 
1.0 1:1.1565373142206574 2:0.08181148202775168 3:0.0839835004090886 4:-0.866628748516371 
1.0 1:-1.8279850887330362 2:0.8630703554031236 3:0.3207050773368344 4:0.853777119951788 
1.0 1:1.2707889077929748 2:1.9965461314045876 3:0.2692443079480324 4:1.695692842248762 
1.0 1:0.508196985466828 2:-1.054926170970842 3:1.2096660768168916 4:-0.901125435748512 
1.0 1:2.7232051039086316 2:-1.7236629442711504 3:-2.5201573548584553 4:1.4415335527240751 
1.0 1:-2.4370445315706672 2:-0.09902168273615704 3:-2.112745662577607 4:0.7943883562225303 
1.0 1:0.1557674759649013 2:0.6164609581273799 3:0.016164143234161644 4:-0.7899339099898608 
1.0 1:-0.7882030505713771 2:0.13789797907909893 3:0.4693723920189708 4:1.012701512348048 
1.0 1:1.93346352903582 2:-1.255869206114057 3:-1.9857409292598724 4:-0.08902279979849016 
1.0 1:1.0015774870833904 2:-2.524509998862495 3:0.8585623973156638 4:-2.4183640816099534 
1.0 1:2.269521429388421 2:1.955195176988775 3:2.663522638488275 4:1.3728995263859953 
1.0 1:1.5431565787509456 2:2.4243913461427526 3:-1.3579532725738706 4:2.141005765978204 
1.0 1:0.7283859635851119 2:1.8062915970541347 3:-2.527448905595171 4:-0.3947249249998919 
1.0 1:-2.6991046434601436 2:2.3020968909105437 3:-0.6737649252626138 4:2.2698608325794365 
1.0 1:-2.849028056615356 2:2.835807575742315 3:-2.148817303450199 4:2.693076998106949 
1.0 1:-1.5450379384898225 2:-0.7626119897465081 3:1.7251341891096847 4:-0.8272912421935741 
1.0 1:0.8709192782706706 2:-1.6574505538875266 3:2.144784694613025 4:0.5004920104232478 
1.0 1:2.5633788726495266 2:-2.4172941773209797 3:1.1522866685226267 4:-2.2968731110788556 
0.09087970106843972 1:0.41526279442036085 2:2.7959408660676637 3:-2.4893624151887384 4:2.2828641613592793 
1.0 1:1.0761663661050611 2:1.7894208996199088 3:-1.2921943832597491 4:1.5130303125923266 
1.0 1:1.394113064495983 2:1.1922886263996237 3:1.308269437846225 4:1.123787246275387 
1.0 1:-2.7248900803431115 2:1.4599439407589612 3:-2.6591962306370216 4:0.8939848033935256 
1.0 1:-1.3086525705228458 2:-1.6628380618241407 3:1.0242242783658444 4:1.5523960555645993 
1.0 1:2.0040807841088117 2:0.05480786678798574 3:-0.31467162301935386 4:1.227749361989408 
1.0 1:2.9147708978152944 2:-2.2267946449999236 3:-1.2276798349294729 4:-2.585444788828401 
1.0 1:2.826712544596498 2:2.009575048764331 3:-2.785182482536704 4:1.9439204446180152 
1.0 1:-0.8017743177175172 2:-0.7308585068304498 3:-1.263509014547641 4:0.883307975702623 
1.0 1:0.3429285977427544 2:1.9529393100615304 3:1.7976771768470694 4:1.796918253233108 
1.0 1:2.863014724262172 2:-0.8981254449730115 3:-0.5448577103227228 4:1.9532781558119545 
1.0 1:2.3050395295204793 2:-0.038987713509538634 3:-1.2407509452634333 4:1.3265924104906794 
1.0 1:-0.06331360472410744 2:-2.7322643540952254 3:-2.1434389847872235 4:-2.5473600652113326 
1.0 1:0.5361093468445405 2:-0.9831678366777682 3:1.5302897097148265 4:-0.682091634948275 
1.0 1:-2.385137275258201 2:0.20900766246603075 3:-1.765590607003305 4:1.345373364583697 
1.0 1:1.4409072192199488 2:0.8721544221406854 3:0.5630275129374029 4:1.0458530836886146 
1.0 1:2.5382482769558306 2:-0.40520140801812654 3:0.202516223784597 4:-1.3919280303668138 
1.0 1:0.6361436815325789 2:-1.5051903224569358 3:2.068488001530647 4:-0.6406940932146581 
1.0 1:1.8532153635408688 2:0.2713265284235013 3:-1.351101135718071 4:0.9332525389551232 
1.0 1:0.43479685464342244 2:-1.0441888472213756 3:0.4955856623945625 4:0.5171562753765164 
1.0 1:1.9690317843033647 2:-2.781211512087012 3:1.728702201119603 4:2.646478673177031 
1.0 1:2.8087346874151784 2:-0.7705911635707205 3:-0.20531828922842063 4:2.078383788825877 
1.0 1:0.13785726324224992 2:1.998926375253655 3:-2.2139001356924566 4:1.7346341284849336 
1.0 1:-1.9013042894361376 2:1.4033052004547846 3:2.0784412083934956 4:0.37094132449471284 
1.0 1:1.6691923841122598 2:2.829204229011206 3:0.33360797841404705 4:-2.7349655384331366 
1.0 1:1.1231305155741542 2:0.5020002322887086 3:1.7259739756305923 4:-0.7760823017310795 
1.0 1:2.2930426417142127 2:1.2865499951371822 3:0.2775620621512253 4:1.4810638614278502 
1.0 1:-1.4944396817819388 2:0.8605212194581013 3:1.6386605532688454 4:-0.9107404518729978 
1.0 1:-0.897496010852405 2:0.2668545153258531 3:1.6570247983854196 4:-0.2959953886063072 
1.0 1:-2.0340660271588145 2:0.14789753609673423 3:-1.5929770852724285 4:1.0194821856181127 
1.0 1:1.8909042642516523 2:1.753380270862175 3:-0.7331566639523625 4:-1.6202483771952452 
1.0 1:1.5589377780420777 2:2.1171273692861865 3:-2.7253797846695775 4:-0.8679443512270346 
1.0 1:-2.3328606020988825 2:2.590831718791868 3:2.7867046438835446 4:-2.3227519734651927 
1.0 1:1.7238571047426277 2:1.4326456114441584 3:2.118694059596664 4:0.4063591919952816 
1.0 1:0.7486896361273797 2:-0.0021777101126184426 3:0.6525428798713896 4:-0.15362106171027434 
1.0 1:0.1439931492312392 2:2.8330357363870227 3:-2.506344843975136 4:2.645517352015794 
1.0 1:2.5687573254198655 2:-2.4938189018254664 3:-2.792606070250956 4:-1.838659726029342 
1.0 1:-2.787762945118332 2:2.9456096061637282 3:-0.7761799883630902 4:2.734021042674053 
1.0 1:-1.4708078304707632 2:0.23320077651774543 3:0.3730675867611202 4:0.97255782948759 
1.0 1:-0.5684735256930421 2:-0.7300514932432608 3:0.1430852744458654 4:-0.4617835083645568 
1.0 1:-2.891177641901519 2:0.19510471626658882 3:-2.386488527396054 4:-1.7115691689887793 
0.49154831338617916 1:2.450870413750137 2:1.545940721059755 3:-1.2723894240170972 4:-1.7100398627481423 
1.0 1:1.6166252158276597 2:2.6207443199386162 3:-2.87296451228234 4:-1.691735601976639 
1.0 1:0.04518154156585507 2:-2.211591360468073 3:1.9432584715078918 4:-2.0722018438632093 
1.0 1:1.9105929220879054 2:-0.42426089401256173 3:1.463862215253368 4:-0.7214065942351112 
1.0 1:-1.7451715789245177 2:-1.194258989098333 3:-1.773414742702305 4:-0.8280995734328855 
1.0 1:-0.16329673770430891 2:-1.345902606817505 3:-2.0129494486675106 4:1.1162113666328084 
1.0 1:-1.1994164671201706 2:-0.369261450293842 3:-1.646460917552312 4:-0.6237404243086364 
1.0 1:2.301115828221027 2:-1.8970332456974952 3:1.1896312001534495 4:1.8367311770161672 
1.0 1:0.13506001820485278 2:2.144165498354326 3:0.7549622412760207 4:2.0336084873244427 
1.0 1:1.5752508380660313 2:2.415249209917656 3:-1.9997747158929673 4:2.3458430700600092 
1.0 1:-2.264593895508752 2:-2.0549608625215297 3:2.331309734602799 4:-1.932232752609447 
1.0 1:1.559747949056505 2:2.965312086259023 3:-0.9640679260575988 4:-2.849877138667592 
1.0 1:-0.6300871697800797 2:2.088883107467853 3:2.6837863642080335 4:1.4095707289039627 
1.0 1:1.7543543309350906 2:-2.4615032855504833 3:0.21290575393573566 4:-2.320685469764386 
1.0 1:-2.9687615708409534 2:-1.1902840278103957 3:-2.745053787611335 4:-0.41397020568385806 
1.0 1:0.3729754633844886 2:-0.33001535992436126 3:0.4221068335077665 4:0.653713165038589 
1.0 1:-0.3674727416548651 2:2.862549831698111 3:-1.288932584745183 4:-2.6142022476897813 
1.0 1:-2.910071836331887 2:2.033587773209148 3:-2.1731576623640483 4:2.036633309288448 
1.0 1:-1.3099128171429812 2:-1.6685262717876266 3:-1.4514179175910564 4:1.503007867433434 
1.0 1:-1.3954076549257988 2:-0.9234083475224145 3:0.11027897405364903 4:1.2111117352728213 
1.0 1:-2.9786203333776418 2:-1.4523398613479093 3:0.03777445871129623 4:2.0848313698313596 
1.0 1:-0.010013348401780425 2:-1.9389791941899555 3:2.09938581049334 4:1.5963180817278477 
1.0 1:-0.8948299123223721 2:2.9931351824938095 3:-1.1436583250640382 4:-2.9407744597868275 
1.0 1:2.7262648852484417 2:-0.012118163380718956 3:2.1171504869517865 4:1.817654141126655 
1.0 1:1.373533276132193 2:-2.633106689081757 3:1.148558126186029 4:2.5323265720033623 
1.0 1:-0.6148916649847261 2:-0.4564380738066437 3:-1.450472330335817 4:0.8327223185705296 
1.0 1:1.2717682448081662 2:-2.744098656536233 3:0.8153377265517442 4:2.668470863229897 
0.34966594242439897 1:-0.09741089359223233 2:-2.9009196479604493 3:1.8414412650674246 4:-2.522866408197495 
1.0 1:1.5525687825738488 2:0.028405829950633607 3:-0.9631810815751625 4:0.7269957398738092 
1.0 1:-2.3511425291223818 2:-0.16765685321306975 3:1.9246240736904234 4:1.177039975096774 
1.0 1:2.6920697640190188 2:-1.664841632210867 3:2.3715454726911473 4:1.1868362377074801 
1.0 1:-2.9433870455116087 2:0.13131625167867086 3:-0.701300606457616 4:1.8346698428573522 
1.0 1:-1.9083062467195533 2:2.8805865476178205 3:0.883597197070866 4:2.5831592054230055 
1.0 1:-2.946560564359658 2:2.733521234448821 3:-1.4637705498306706 4:2.955482160713153 
1.0 1:-0.9954575341202043 2:-0.22860273356229882 3:0.607022349884497 4:-1.1010848882743327 
1.0 1:2.4382814099068466 2:-1.0765175387303207 3:-1.0284910886912788 4:1.533384932303277 
1.0 1:2.710743350519243 2:1.7105810188632506 3:-2.3575294749766673 4:1.9175582015686756 
1.0 1:-1.164799993879467 2:-2.90367476755273 3:0.7014227156844408 4:2.8107897716168555 
1.0 1:0.18189384276167525 2:-2.5180532019293125 3:2.507463190382123 4:2.345202351230109 
1.0 1:-2.83191794204504 2:0.9303971007977786 3:0.6833427205121552 4:-2.0783549347321824 
1.0 1:-0.029345185294225105 2:-0.11483441362136572 3:0.2503404202142591 4:0.6790720845592413 
1.0 1:2.408080797092055 2:1.2014212235499864 3:1.160063666905526 4:1.490537337345657 
1.0 1:-2.7151091455854237 2:-1.8979664937058887 3:-0.924444008763431 4:-1.9702080465531742 
1.0 1:-0.701992678191409 2:1.656838542960924 3:0.8415240502889088 4:-1.4505038121323035 
0.6443175302123051 1:2.7459040433927284 2:-1.3915586742414587 3:-2.0491563855512696 4:-1.3229247011434069 
1.0 1:-0.4534361653208201 2:2.866247860085449 3:1.4031158476691143 4:2.5627604288585375 
1.0 1:-0.9483788974150565 2:1.7890692444694274 3:-2.302309606515391 4:0.17101715192988717 
1.0 1:-0.07810426843729038 2:-2.3666612502272453 3:2.3141288990178253 4:-2.107431984872124 
1.0 1:-0.41266374426047064 2:1.5038819507554841 3:-2.2321279469387156 4:-0.21127514995197286 
1.0 1:0.52300477642359 2:0.6406894196165868 3:0.15807381100631387 4:-0.8770865247479045 
1.0 1:-2.573383297543627 2:1.1646270541236632 3:1.5935995593997139 4:1.5086457117993053 
1.0 1:-2.6640103555789665 2:-2.76196960191684 3:-1.416616212226591 4:-2.8794694845815276 
1.0 1:-2.646690287107776 2:-0.0823174721008044 3:-2.380951207478188 4:1.6443453286787946 
0.1162610745618251 1:-2.8763496388859155 2:0.9887755099789661 3:1.8485607757598936 4:1.4955948271818922 
0.5197998631030335 1:2.831760035236704 2:-1.3535920279386624 3:0.8317269003047577 4:1.6130247233441828 
1.0 1:2.765243786508065 2:0.37583043770581454 3:-0.23574261207198605 4:2.0773303523964897 
1.0 1:2.9063801042581483 2:-1.154818642603033 3:-2.673418406292531 4:1.41320084506784 
1.0 1:2.4597189970910964 2:0.9388668329181877 3:1.6709087687131021 4:-1.626749559031296 
1.0 1:1.015030441035479 2:-0.9401638616911799 3:-0.1668761805328132 4:0.5207013984957931 
1.0 1:-2.4160044815827897 2:2.7259916201472594 3:0.27004517047522897 4:2.5955915116358566 
1.0 1:-2.497392286769046 2:1.2567423324267895 3:0.3683564917348211 4:-1.6809054930120502 
1.0 1:-1.8115716344265356 2:-2.860454423679317 3:-2.1517276743641225 4:2.772622113312368 
1.0 1:-2.7235643128238776 2:-0.9834531912880284 3:-2.3511523908944145 4:1.6273598270406948 
1.0 1:-1.353325063826862 2:0.264142175027654 3:0.06453409724583493 4:-0.6181551662666522 
1.0 1:2.891028666971759 2:1.892429640478163 3:-0.5976539754906313 4:-2.3420847225323818 
0.36287743721273213 1:1.1073494359821918 2:-1.8962696398167675 3:-1.1529507039237452 4:-1.555537263373584 
1.0 1:1.750218502124227 2:-1.2301817628575211 3:1.8316820402763079 4:-0.9623052334746179 
1.0 1:2.979615287269624 2:2.558361777246254 3:2.925335991787754 4:1.7554704070082014 
1.0 1:-2.310084429686279 2:1.3280188626340437 3:-2.2973324098506565 4:-0.8177435155909487 
1.0 1:0.6090712083966509 2:2.3945444372506848 3:1.776013004885037 4:-2.25659786609439 
1.0 1:-2.829965105152963 2:-2.552991713593761 3:1.7003735222633423 4:2.7094094496221253 
1.0 1:0.10805835220973195 2:1.7621682155417913 3:1.9281958147769571 4:1.209931815116899 
1.0 1:-0.24255029212971796 2:2.381952970323259 3:-0.37995652275754543 4:-2.242946654791629 
1.0 1:0.5472404146665963 2:0.37528863004713214 3:0.43901506829390596 4:0.7243339132138377 
0.9409045369187116 1:-0.33754683809944486 2:2.0572140455512917 3:2.406626553228479 4:1.390161816022147 
1.0 1:-1.7776004793944944 2:2.9469686768559376 3:-2.565485618899475 4:2.7723461163737873 
1.0 1:2.4817518993365346 2:-0.3667492654745894 3:-1.958539719215271 4:-1.2709432299971706 
1.0 1:-2.9058092698992457 2:-0.9655382415955691 3:0.3349861871171564 4:2.1024006781477746 
1.0 1:1.0270533663538872 2:2.559970186207011 3:1.9964037269721275 4:-2.456320506751491 
1.0 1:-2.8486322050600204 2:-0.3027292197312602 3:-0.30331103465472176 4:-1.5453631366249245 
1.0 1:-0.7088549582583545 2:-0.13038428882289962 3:-0.5195236377221766 4:0.08527130543525406 
1.0 1:2.487371805344338 2:-2.6621773505560413 3:2.0525598059902186 4:-2.566447385446629 
1.0 1:-2.6876076041912143 2:1.1408757040099535 3:2.6206616258170663 4:-1.49171300110108 
1.0 1:-1.3997365971046964 2:-0.6359486275315972 3:1.5132094852629947 4:-0.8241046108089288 
1.0 1:-0.8675520111714967 2:0.13995666962226463 3:-0.07376495627199872 4:-0.8092856192173844 
0.5049880846409219 1:1.0379271478379415 2:2.4054466616410695 3:-2.8705057406425047 4:-1.1536039473223816 
1.0 1:-2.9539342271666214 2:-0.15268217256448435 3:-1.9481660017018196 4:2.1621683611264926 
0.09717707494568632 1:-2.957862573210635 2:2.111388879526054 3:-2.4868508664547013 4:-1.5798546324598945 
1.0 1:-2.2870488665463515 2:0.9800050955493336 3:2.210830888474843 4:0.44130203393162526 
1.0 1:2.6780536736893286 2:0.5517666654341168 3:2.1715743268924395 4:-1.8518207969475757 
1.0 1:-0.39303377452267285 2:-2.093489256597469 3:2.7008555421155545 4:-0.8682708171428176 
1.0 1:2.7613896469951786 2:1.0657065963628416 3:-2.2091567749765786 4:-1.4443900773527194 
1.0 1:1.8418149277237497 2:-2.381700661661255 3:2.54873161726647 4:-1.8401750526415568 
1.0 1:-2.4115132755939936 2:-2.833227044364755 3:2.8893624324635385 4:-2.513230347845878 
1.0 1:-0.8035948614346218 2:0.3057217804828363 3:0.21704454385076774 4:1.0421018769281492 
1.0 1:-1.821791319115993 2:2.1485007421905333 3:2.169401423963577 4:-1.8574340488140735 
1.0 1:2.3856500565584993 2:-2.365057654368063 3:2.8567930658973464 4:1.3439292385802275 
0.7781965204831149 1:-2.1655830636236537 2:-2.9128924358571235 3:1.2418253791053642 4:-2.4202885976815542 
1.0 1:-1.1710535155399087 2:2.125285928992179 3:-2.469795382211938 4:1.3667004552940791 
0.274676049504825 1:1.0683846646233606 2:0.040052107829161965 3:0.40506365883060325 4:-0.1930361396647656 
1.0 1:0.9131381550305872 2:-0.5551957921336037 3:1.173323729520929 4:-0.7171181360125823 
1.0 1:0.3448237904133819 2:-0.6111199786221818 3:-0.011055963478909933 4:-0.7780620116973964 
1.0 1:1.2503547392828944 2:0.06528921117989589 3:-1.9627574189030936 4:0.7428175558825171 
1.0 1:0.6905769998815541 2:2.289110540928846 3:-2.9058677167648392 4:1.0089318083072565 
1.0 1:0.9737926682178595 2:2.4317349025030395 3:2.1513821541893687 4:1.9272722998128167 
1.0 1:2.6496149377187708 2:-0.16408833464254538 3:0.3699980769589558 4:-1.594351989381644 
1.0 1:-0.4930135344918887 2:-1.7093382568248088 3:-2.3825331060076977 4:1.0524419023792173 
1.0 1:-2.7233466584411756 2:1.7875850356507312 3:-1.3314897026300903 4:-2.088092716004795 
1.0 1:1.0405979940177743 2:1.5756149993530295 3:1.404402037836461 4:1.1347496083833502 
1.0 1:2.7437355758309505 2:2.5798562416635398 3:-1.7998843966781835 4:2.6262053303313606 
1.0 1:1.784824144349196 2:1.9992107960479961 3:1.2968534837266628 4:1.720566982873762 
1.0 1:2.6049969830090984 2:1.0681896176507635 3:1.158804564473383 4:-1.78509158841697 
1.0 1:2.991815854024699 2:-1.721638053088869 3:2.8706016667478025 4:0.1605828025330242 
1.0 1:0.2249921032499935 2:-1.5270441225965075 3:0.5419074283038184 4:-1.409760436682928 
1.0 1:2.825400896762592 2:-0.9941663259363821 3:-1.8306199470564708 4:-1.9905043143238645 
1.0 1:1.22104284582335 2:-0.12035824867293511 3:0.6729441769373835 4:-0.7699384140657228 
1.0 1:2.279871380787618 2:2.4994961713949784 3:2.383959288311179 4:-2.285373223438084 
1.0 1:-2.957334485778926 2:-1.2376940458714831 3:-1.8086854896944782 4:2.2555648399408588 
1.0 1:-0.24994933871373712 2:-1.1030211454215373 3:1.1412390354193527 4:-1.0177528090675763 
1.0 1:-1.5664893735152292 2:2.4501248254669155 3:-0.2119661203462976 4:-2.279088700781523 
1.0 1:1.0470485955604603 2:-1.5280569199342853 3:-1.5213255243005266 4:1.1614087101109571 
1.0 1:-2.674713339391871 2:2.5399195909496997 3:-0.8881260676632997 4:-2.4240760319155608 
1.0 1:-0.3722361529627226 2:2.347822152787329 3:1.6320193377335654 4:-2.301922379175917 
1.0 1:2.1980004343190576 2:-0.9730714087581926 3:1.366821742534471 4:1.0951624483134241 
1.0 1:-1.831221666027648 2:-2.458077768136996 3:-2.3910104294697185 4:-2.297710089129108 
0.255504978654023 1:0.8416594101608116 2:2.0232530862089506 3:2.502295761294504 4:0.919500066049372 
1.0 1:1.866380244970419 2:2.8179681349113794 3:-0.5099434310783933 4:2.298897545340237 
1.0 1:1.7148559426719407 2:2.2733082663426183 3:-2.8858979094744663 4:1.3420341981603006 
1.0 1:1.179525849894166 2:-2.3869568243614587 3:0.6967211614922457 4:2.176804328657506 
1.0 1:0.3273332074100007 2:-2.9773722211248517 3:0.2980979147748309 4:-2.7051915753659275 
1.0 1:2.9354292402570863 2:0.853661074052066 3:0.8840251332063952 4:-1.9205237894556106 
0.32404503444477356 1:0.5954108623858457 2:-2.98401035862295 3:0.8348971146823484 4:-2.7001654469802645 
1.0 1:-0.696599775754372 2:0.3350055389294363 3:-1.7072118515474664 4:0.897647351925762 
1.0 1:0.7302404687779127 2:1.9459063595505426 3:-2.1272224132845468 4:-1.866173272115282 
1.0 1:-0.5693700613621897 2:-0.0736600325368445 3:-0.5958473882689717 4:-0.7600574125704956 
1.0 1:2.775361982324165 2:-2.4592687518915977 3:0.8573002183874568 4:-2.502462310396681 
1.0 1:0.9824917508775686 2:2.0159715227454207 3:-0.320160966031279 4:1.859988744316744 
1.0 1:-0.1596255439318035 2:-1.4177737597723683 3:-1.8681143494211536 4:-0.19761206792845065 
1.0 1:0.1426277039137974 2:-2.185136766955469 3:2.7809485495003217 4:-1.2469666667551493 
1.0 1:-1.1891316227458557 2:0.4769433656819588 3:-0.7127760125352992 4:0.6803870660316714 
1.0 1:-2.9926789060506787 2:2.6587608635151123 3:-0.045166247963572256 4:-2.4385778286140125 
1.0 1:0.13958435787520776 2:1.0952906878077282 3:-0.3810642760180349 4:1.102960709089703 
1.0 1:0.691657166231369 2:1.791124253898039 3:2.2449586137996294 4:-0.9816703214036081 
1.0 1:-1.8328154177627574 2:0.4015602778810565 3:0.1315707890320308 4:-1.0706816526329945 
1.0 1:0.8519389762291149 2:1.4073299546472617 3:1.9378902665925883 4:0.9435246464928218 
1.0 1:-0.7071512750872658 2:2.2458030951413868 3:-0.1981379112316571 4:-2.112486380574778 
0.7057449331996435 1:-2.541155834675396 2:-2.3381086561783984 3:-2.2824897785058154 4:-1.9845818030230722 
1.0 1:-1.2676255703063313 2:-2.0148742287118644 3:1.6267302795141971 4:1.768645420116658 
1.0 1:2.693494179485239 2:2.7175414737955 3:-1.6271898846322554 4:-2.531704095565444 
1.0 1:0.6424536647220421 2:-0.9753344717596383 3:-0.4469398841079983 4:-0.6424201998247331 
1.0 1:-1.9420064403175852 2:-1.7127676205494153 3:-1.2658011222607832 4:1.6896271081943237 
1.0 1:0.40305107157286224 2:-2.088660353417288 3:-1.5121098773143002 4:-1.9841375115327764 
0.0057732405443851175 1:-0.4273543224278445 2:2.2166916745704746 3:1.8363821093376442 4:-1.8908371575041527 
1.0 1:-0.017898721965124997 2:-1.7855964000781839 3:1.3096199334157441 4:-1.6463540340644822 
1.0 1:1.6620382760509127 2:-0.038157768840604796 3:-1.3585017376604747 4:0.8157476955284082 
1.0 1:-0.44401125937301317 2:-2.052040388972101 3:-2.6294994577237807 4:-1.1792081687208114 
1.0 1:-1.0303986787839448 2:-2.210389329790452 3:0.7096619078159884 4:2.00554363058845 
0.8669772317551294 1:-1.6144885735181254 2:2.908129372521874 3:-2.9609140372697595 4:-1.974127856187271 
0.9819416394368865 1:-2.703146834593296 2:2.179124401419695 3:2.641074702796123 4:1.5477601158824146 
1.0 1:-2.948697059561248 2:-0.46943962562876923 3:2.589711075315015 4:-1.2416039627556772 
1.0 1:2.8297031752088815 2:1.217134925852972 3:-0.45492780524447646 4:-1.977891717091048 
1.0 1:1.560230168409723 2:-1.7722455479393653 3:0.8273578266669257 4:1.5535368241616732 
1.0 1:-1.7460180461100474 2:-1.3884746989904482 3:-0.5782056567995448 4:-1.3466366489580144 
1.0 1:-1.062115293287321 2:1.6544109905910485 3:1.483574998843268 4:-1.416153818289273 
1.0 1:-2.8612512617769346 2:-1.642970548394816 3:-1.5247008683659538 4:-2.212591211782256 
1.0 1:0.20362106322476317 2:-1.6725205073044838 3:-1.3619447971996612 4:-1.5067770341116222 
1.0 1:0.9256342225812725 2:-2.2198836858616353 3:-2.8084971636609137 4:-0.8128782736116132 
1.0 1:2.469401267381027 2:-2.010765230741602 3:0.618558582032445 4:-1.9954435575477014 
1.0 1:2.977473321019446 2:-2.739210229611485 3:2.197512506504126 4:2.7526408870323946 
1.0 1:2.485691470802786 2:-0.4017141700389703 3:-1.8131871323001552 4:1.5203027411813121 
1.0 1:-2.9330164757174577 2:-0.30675104206133913 3:-2.1354484351784104 4:-2.2084074130840503 
1.0 1:-2.2302172398936633 2:0.0880674031206201 3:-1.4324476988682349 4:1.3660939763250026 
1.0 1:-2.6077771164273624 2:1.3707672045510821 3:-0.36301973663363857 4:1.899765576563924 
1.0 1:2.6777159501766246 2:0.7958116459212874 3:2.585609707810724 4:-0.5815261497812171 
1.0 1:2.6927566957468865 2:-2.9630209851906337 3:-0.4100653903142312 4:-2.914632831855366 
1.0 1:-0.6048409189304103 2:1.7481894816062564 3:2.2595466823107615 4:0.8975841117193396 
1.0 1:2.4356620577788863 2:-0.160497034102596 3:1.8712126641966085 4:-1.596034665937682 
1.0 1:-0.9541038138960711 2:1.4472443774563637 3:-0.1250665779568117 4:1.185867469801867 
1.0 1:-2.7344606247216534 2:-2.0616512398707383 3:-2.4708261229554123 4:2.0082622861587955 
1.0 1:-2.1955427922312687 2:-2.9979351525405384 3:-0.12544676502655347 4:2.8968614361351324 
1.0 1:-2.6573795098076833 2:0.9844474586022354 3:0.3669285223799107 4:1.6829483761654989 
1.0 1:2.7099558454020953 2:-1.7529595013216475 3:-1.0524789471440643 4:-2.094420782741552 
1.0 1:2.827934016729784 2:1.0731017752383156 3:2.1131972629981584 4:-1.7227143884783214 
0.3646660232203239 1:1.1946669432544348 2:-0.33654658306515756 3:-0.33176285026587427 4:0.40210193592394733 
1.0 1:0.26880694091711516 2:2.2086744784692467 3:2.6233116575194133 4:1.530463089324362 
1.0 1:2.9520455674051576 2:0.6769653937054989 3:-2.670860947908923 4:1.7841352734321967 
1.0 1:2.979116445970017 2:-2.684223932338667 3:2.9122926077740194 4:-2.5003678556816964 
1.0 1:-2.9452326599889607 2:-2.2226562671484955 3:-1.7639970882463816 4:-2.4993583138758915 
1.0 1:-0.1854350560359892 2:-2.415206197603502 3:-2.800429076924507 4:-1.2666686017714044 
1.0 1:1.48936700618866 2:1.5646804980260594 3:1.9141788123583159 4:-1.5887666191682204 
1.0 1:1.3021115724652006 2:-1.5394419042277934 3:1.0225892155268774 4:1.2557270022518725 
1.0 1:1.2909625669056743 2:-2.8524537957971594 3:2.7674354637125367 4:-2.5957189499270714 
1.0 1:-2.2758006780122852 2:1.4909880838767433 3:2.1039261964250993 4:-1.4086943221428054 
1.0 1:0.35408783108197905 2:2.768419218753644 3:2.2904200827207597 4:2.472017663707489 
1.0 1:1.5283500511619488 2:-1.3234690816237802 3:-1.840451926784892 4:-0.3401513140367879 
1.0 1:-2.7256388240292697 2:-0.2626481204102829 3:2.568298239425285 4:-1.010767091219704 
1.0 1:0.6236116765236567 2:-0.3232660845669426 3:0.006174286725665962 4:0.4503087223578821 
1.0 1:0.19966629502023336 2:1.9154487748825209 3:-0.25657313816580374 4:-1.6838126068935202 
1.0 1:-2.7976004234523146 2:-0.5336511823575286 3:-2.3468783243754014 4:-1.6857924413913332 
1.0 1:0.67412901212334 2:-0.9804691014251671 3:-1.5091178280586195 4:0.8795110941521234 
1.0 1:0.40917075391028346 2:-0.4426835200861412 3:-0.22639043562365796 4:0.9627785682297355 
1.0 1:0.9776506089048209 2:-0.8073228128994522 3:0.06805485849316778 4:-0.3550749507212123 
0.6882623526669276 1:-2.457058764718071 2:-1.6700614765701673 3:2.5107465216333424 4:0.5906848001514806 
1.0 1:-1.3308171244178284 2:-1.9613817763714856 3:-2.1195068433041957 4:-1.387012025084656 
1.0 1:0.35676812838411787 2:0.9599784049134833 3:-1.855511722824185 4:0.7821862497119408 
1.0 1:1.3839914545391119 2:-0.013011035858474018 3:-1.5178374281108837 4:-0.35295366493581926 
1.0 1:-2.678487663861333 2:-2.2781947050893137 3:-2.8587608117028935 4:-2.0540831438856877 
1.0 1:-1.16544593856337 2:-0.8217903610236993 3:1.2654959832041108 4:-0.6788654843888077 
1.0 1:-2.7040930522232958 2:0.11697782449126069 3:-2.1396474072046607 4:-1.7676685363222913 
1.0 1:-2.5379474195382294 2:-0.10418312715334936 3:-2.253518493860572 4:-1.2287020968894438 
1.0 1:-1.0045621380336187 2:-0.48582463112477675 3:1.5178275822777934 4:-0.6573070302864039 
1.0 1:-0.10266683522564646 2:-1.6721966814749094 3:1.8806381832433332 4:1.251763476010996 
1.0 1:0.4952953084239226 2:2.2140282370684594 3:2.506303535073425 4:-1.5503402704359928 
1.0 1:-2.9179016371996345 2:2.0287801260269367 3:1.8922697346512176 4:-2.311778858064541 
1.0 1:1.529498202256683 2:2.4721184778035767 3:2.15749883444804 4:2.3227618192464385 
1.0 1:2.7257800606807723 2:-1.1484484306468776 3:2.136521169022532 4:0.9587033539475653 
0.5637456449048757 1:-2.951698566827195 2:-1.9855381375120418 3:2.559153742754324 4:-2.1236433106954014 
1.0 1:0.21960001953431899 2:-2.2597566471055037 3:1.141145192088811 4:-2.076279294268164 
1.0 1:-2.544280382713861 2:0.6348658434650869 3:2.4372596518669902 4:0.10064441794218834 
1.0 1:1.726334092995003 2:0.8891027238781564 3:-1.4410895194446054 4:1.130379377361436 
1.0 1:2.993733806099933 2:1.866676200895195 3:-1.9301208534317091 4:2.572555182394811 
1.0 1:2.7092030760183676 2:-1.133389439046254 3:1.6645290082624487 4:-1.955439591744149 
1.0 1:-2.367636328108731 2:1.7937338653356323 3:1.7306544621347462 4:1.69404388526564 
1.0 1:-2.801165396739918 2:2.851954411096867 3:2.464080278824332 4:-2.398555867101858 
1.0 1:-1.1442235865698605 2:1.7596893999588077 3:2.0581697931899927 4:-1.2134114064856973 
1.0 1:-1.1564486738350355 2:1.9690137568445174 3:1.6721140273425958 4:-1.745171739386404 
1.0 1:-2.6932986674296933 2:-1.425200639707208 3:-2.1678583110916416 4:-1.9339494326904423 
1.0 1:-1.976196989445806 2:2.802060000224232 3:-2.706798844854705 4:2.0745590410772654 
1.0 1:2.4656628103948695 2:1.7587338418280587 3:1.3648530872112539 4:1.8554653413909088 
1.0 1:0.8751048607814343 2:2.318575265735986 3:-1.6237999267977203 4:-2.1087249672264496 
1.0 1:-2.1110740925383933 2:2.0436195447107814 3:2.73300715980679 4:-0.06520585335245305 
1.0 1:-2.9811226547760437 2:-0.6287631427098387 3:-1.3632318064680535 4:-2.011545499798291 
1.0 1:1.140053774629321 2:0.6893222474073216 3:0.36445527201874345 4:-0.9329950397279573 
1.0 1:1.9966855886126609 2:-2.784086753075311 3:-1.1627045251433141 4:-2.7504193228752514 
1.0 1:2.7447261287354325 2:2.8836809277312514 3:2.9728489525707245 4:-1.860307124919591 
1.0 1:-2.8405234578409018 2:0.6515930598438656 3:2.7516843171183916 4:-0.41818505723023713 
1.0 1:1.781044090042852 2:-1.9108491761440005 3:1.8035680373414964 4:1.570474133178098 
1.0 1:2.5094636461083444 2:1.8606821650705814 3:2.5669708437618244 4:1.469860130362784 
1.0 1:-1.0470339151889014 2:0.13866346534591178 3:0.7163950856435728 4:0.8348881160495556 
1.0 1:-0.2608324058964124 2:1.5532055309064263 3:0.07384479034166322 4:-1.5084076208655937 
