svm_type c_svc
kernel_type rbf
gamma 0.125
nr_class 2
total_sv 376
rho -1.1458874606747812E-4
label 1 -1
nr_sv 188 188
SV
8192.0 1:-2.007763125698707 2:-0.029372124369222413 3:-2.007599794884123 4:-0.02428763501602968 
8192.0 1:-2.0076038708280217 2:0.031793673206277594 3:-2.007599794884123 4:-0.02428763501602968 
8192.0 1:-2.0076038708280217 2:0.031793673206277594 3:-2.007763125698707 4:-0.029372124369222413 
8192.0 1:-2.007822459470398 2:-0.04092530507200918 3:-2.007599794884123 4:-0.02428763501602968 
8192.0 1:-2.007822459470398 2:-0.04092530507200918 3:-2.007763125698707 4:-0.029372124369222413 
8192.0 1:-2.007822459470398 2:-0.04092530507200918 3:-2.0076038708280217 4:0.031793673206277594 
8192.0 1:-1.9917325556955077 2:0.06125498630396029 3:-2.007599794884123 4:-0.02428763501602968 
8192.0 1:-1.9917325556955077 2:0.06125498630396029 3:-2.007763125698707 4:-0.029372124369222413 
8192.0 1:-1.9917325556955077 2:0.06125498630396029 3:-2.0076038708280217 4:0.031793673206277594 
8192.0 1:-1.9917325556955077 2:0.06125498630396029 3:-2.007822459470398 4:-0.04092530507200918 
8192.0 1:-1.9904173291401788 2:0.06333713547423123 3:-2.007599794884123 4:-0.02428763501602968 
8192.0 1:-1.9904173291401788 2:0.06333713547423123 3:-2.007763125698707 4:-0.029372124369222413 
8192.0 1:-1.9904173291401788 2:0.06333713547423123 3:-2.0076038708280217 4:0.031793673206277594 
8192.0 1:-1.9904173291401788 2:0.06333713547423123 3:-2.007822459470398 4:-0.04092530507200918 
8192.0 1:-1.9904173291401788 2:0.06333713547423123 3:-1.9917325556955077 4:0.06125498630396029 
8192.0 1:-2.031400994687767 2:-0.039967871794057606 3:-2.007599794884123 4:-0.02428763501602968 
8192.0 1:-2.031400994687767 2:-0.039967871794057606 3:-2.007763125698707 4:-0.029372124369222413 
8192.0 1:-2.031400994687767 2:-0.039967871794057606 3:-2.0076038708280217 4:0.031793673206277594 
8192.0 1:-2.031400994687767 2:-0.039967871794057606 3:-2.007822459470398 4:-0.04092530507200918 
8192.0 1:-2.031400994687767 2:-0.039967871794057606 3:-1.9917325556955077 4:0.06125498630396029 
8192.0 1:-2.031400994687767 2:-0.039967871794057606 3:-1.9904173291401788 4:0.06333713547423123 
8192.0 1:-1.9527319798786071 2:-0.033766712157861374 3:-2.007599794884123 4:-0.02428763501602968 
8192.0 1:-1.9527319798786071 2:-0.033766712157861374 3:-2.007763125698707 4:-0.029372124369222413 
8192.0 1:-1.9527319798786071 2:-0.033766712157861374 3:-2.0076038708280217 4:0.031793673206277594 
8192.0 1:-1.9527319798786071 2:-0.033766712157861374 3:-2.007822459470398 4:-0.04092530507200918 
8192.0 1:-1.9527319798786071 2:-0.033766712157861374 3:-1.9917325556955077 4:0.06125498630396029 
8192.0 1:-1.9527319798786071 2:-0.033766712157861374 3:-1.9904173291401788 4:0.06333713547423123 
8192.0 1:-1.9527319798786071 2:-0.033766712157861374 3:-2.031400994687767 4:-0.039967871794057606 
8192.0 1:-1.9753695493486985 2:0.08779494530551864 3:-2.007599794884123 4:-0.02428763501602968 
8192.0 1:-1.9753695493486985 2:0.08779494530551864 3:-2.007763125698707 4:-0.029372124369222413 
8192.0 1:-1.9753695493486985 2:0.08779494530551864 3:-2.0076038708280217 4:0.031793673206277594 
8192.0 1:-1.9753695493486985 2:0.08779494530551864 3:-2.007822459470398 4:-0.04092530507200918 
8192.0 1:-1.9753695493486985 2:0.08779494530551864 3:-1.9917325556955077 4:0.06125498630396029 
8192.0 1:-1.9753695493486985 2:0.08779494530551864 3:-1.9904173291401788 4:0.06333713547423123 
8192.0 1:-1.9753695493486985 2:0.08779494530551864 3:-2.031400994687767 4:-0.039967871794057606 
8192.0 1:-1.9753695493486985 2:0.08779494530551864 3:-1.9527319798786071 4:-0.033766712157861374 
8192.0 1:-1.9666309386617593 2:0.0938760478020524 3:-2.007599794884123 4:-0.02428763501602968 
8192.0 1:-1.9666309386617593 2:0.0938760478020524 3:-2.007763125698707 4:-0.029372124369222413 
8192.0 1:-1.9666309386617593 2:0.0938760478020524 3:-2.0076038708280217 4:0.031793673206277594 
8192.0 1:-1.9666309386617593 2:0.0938760478020524 3:-2.007822459470398 4:-0.04092530507200918 
8192.0 1:-1.9666309386617593 2:0.0938760478020524 3:-1.9917325556955077 4:0.06125498630396029 
8192.0 1:-1.9666309386617593 2:0.0938760478020524 3:-1.9904173291401788 4:0.06333713547423123 
8192.0 1:-1.9666309386617593 2:0.0938760478020524 3:-2.031400994687767 4:-0.039967871794057606 
8192.0 1:-1.9666309386617593 2:0.0938760478020524 3:-1.9527319798786071 4:-0.033766712157861374 
8192.0 1:-1.9666309386617593 2:0.0938760478020524 3:-1.9753695493486985 4:0.08779494530551864 
8192.0 1:-1.96186849556364 2:0.09718939763894235 3:-2.007599794884123 4:-0.02428763501602968 
8192.0 1:-1.96186849556364 2:0.09718939763894235 3:-2.007763125698707 4:-0.029372124369222413 
8192.0 1:-1.96186849556364 2:0.09718939763894235 3:-2.0076038708280217 4:0.031793673206277594 
8192.0 1:-1.96186849556364 2:0.09718939763894235 3:-2.007822459470398 4:-0.04092530507200918 
8192.0 1:-1.96186849556364 2:0.09718939763894235 3:-1.9917325556955077 4:0.06125498630396029 
8192.0 1:-1.96186849556364 2:0.09718939763894235 3:-1.9904173291401788 4:0.06333713547423123 
8192.0 1:-1.96186849556364 2:0.09718939763894235 3:-2.031400994687767 4:-0.039967871794057606 
8192.0 1:-1.96186849556364 2:0.09718939763894235 3:-1.9527319798786071 4:-0.033766712157861374 
8192.0 1:-1.96186849556364 2:0.09718939763894235 3:-1.9753695493486985 4:0.08779494530551864 
8192.0 1:-1.96186849556364 2:0.09718939763894235 3:-1.9666309386617593 4:0.0938760478020524 
8192.0 1:-1.9481403568205742 2:0.10374495047326011 3:-2.007599794884123 4:-0.02428763501602968 
8192.0 1:-1.9481403568205742 2:0.10374495047326011 3:-2.007763125698707 4:-0.029372124369222413 
8192.0 1:-1.9481403568205742 2:0.10374495047326011 3:-2.0076038708280217 4:0.031793673206277594 
8192.0 1:-1.9481403568205742 2:0.10374495047326011 3:-2.007822459470398 4:-0.04092530507200918 
8192.0 1:-1.9481403568205742 2:0.10374495047326011 3:-1.9917325556955077 4:0.06125498630396029 
8192.0 1:-1.9481403568205742 2:0.10374495047326011 3:-1.9904173291401788 4:0.06333713547423123 
8192.0 1:-1.9481403568205742 2:0.10374495047326011 3:-2.031400994687767 4:-0.039967871794057606 
8192.0 1:-1.9481403568205742 2:0.10374495047326011 3:-1.9527319798786071 4:-0.033766712157861374 
8192.0 1:-1.9481403568205742 2:0.10374495047326011 3:-1.9753695493486985 4:0.08779494530551864 
8192.0 1:-1.9481403568205742 2:0.10374495047326011 3:-1.9666309386617593 4:0.0938760478020524 
8192.0 1:-1.9481403568205742 2:0.10374495047326011 3:-1.96186849556364 4:0.09718939763894235 
8192.0 1:-1.9037596516427373 2:0.11760848690831213 3:-2.007599794884123 4:-0.02428763501602968 
8192.0 1:-1.9037596516427373 2:0.11760848690831213 3:-2.007763125698707 4:-0.029372124369222413 
8192.0 1:-1.9037596516427373 2:0.11760848690831213 3:-2.0076038708280217 4:0.031793673206277594 
8192.0 1:-1.9037596516427373 2:0.11760848690831213 3:-2.007822459470398 4:-0.04092530507200918 
8192.0 1:-1.9037596516427373 2:0.11760848690831213 3:-1.9917325556955077 4:0.06125498630396029 
8192.0 1:-1.9037596516427373 2:0.11760848690831213 3:-1.9904173291401788 4:0.06333713547423123 
8192.0 1:-1.9037596516427373 2:0.11760848690831213 3:-2.031400994687767 4:-0.039967871794057606 
8192.0 1:-1.9037596516427373 2:0.11760848690831213 3:-1.9527319798786071 4:-0.033766712157861374 
8192.0 1:-1.9037596516427373 2:0.11760848690831213 3:-1.9753695493486985 4:0.08779494530551864 
8192.0 1:-1.9037596516427373 2:0.11760848690831213 3:-1.9666309386617593 4:0.0938760478020524 
8192.0 1:-1.9037596516427373 2:0.11760848690831213 3:-1.96186849556364 4:0.09718939763894235 
8192.0 1:-1.9037596516427373 2:0.11760848690831213 3:-1.9481403568205742 4:0.10374495047326011 
279.7354157046872 1:-1.952671250810699 2:0.22012912534303813 3:-1.9527319798786071 4:-0.033766712157861374 
8192.0 1:-1.952671250810699 2:0.22012912534303813 3:-1.9753695493486985 4:0.08779494530551864 
8192.0 1:-1.952671250810699 2:0.22012912534303813 3:-1.9666309386617593 4:0.0938760478020524 
8192.0 1:-1.952671250810699 2:0.22012912534303813 3:-1.96186849556364 4:0.09718939763894235 
8192.0 1:-1.952671250810699 2:0.22012912534303813 3:-1.9481403568205742 4:0.10374495047326011 
8192.0 1:-1.952671250810699 2:0.22012912534303813 3:-1.9037596516427373 4:0.11760848690831213 
1593.4968217746482 1:-2.0870786559856245 2:0.20551864769702854 3:-1.9753695493486985 4:0.08779494530551864 
8192.0 1:-2.0870786559856245 2:0.20551864769702854 3:-1.9666309386617593 4:0.0938760478020524 
8192.0 1:-2.0870786559856245 2:0.20551864769702854 3:-1.96186849556364 4:0.09718939763894235 
8192.0 1:-2.0870786559856245 2:0.20551864769702854 3:-1.9481403568205742 4:0.10374495047326011 
8192.0 1:-2.0870786559856245 2:0.20551864769702854 3:-1.9037596516427373 4:0.11760848690831213 
8192.0 1:-2.0870786559856245 2:0.20551864769702854 3:-1.952671250810699 4:0.22012912534303813 
8192.0 1:-1.8764949078679791 2:-0.156098553650253 3:-1.9481403568205742 4:0.10374495047326011 
8192.0 1:-1.8764949078679791 2:-0.156098553650253 3:-1.9037596516427373 4:0.11760848690831213 
8192.0 1:-1.8764949078679791 2:-0.156098553650253 3:-1.952671250810699 4:0.22012912534303813 
8192.0 1:-1.8764949078679791 2:-0.156098553650253 3:-2.0870786559856245 4:0.20551864769702854 
8192.0 1:-2.13223357469597 2:0.01642068266884249 3:-2.007599794884123 4:-0.02428763501602968 
8192.0 1:-2.13223357469597 2:0.01642068266884249 3:-2.007763125698707 4:-0.029372124369222413 
8192.0 1:-2.13223357469597 2:0.01642068266884249 3:-2.0076038708280217 4:0.031793673206277594 
8192.0 1:-2.13223357469597 2:0.01642068266884249 3:-2.007822459470398 4:-0.04092530507200918 
8192.0 1:-2.13223357469597 2:0.01642068266884249 3:-1.9917325556955077 4:0.06125498630396029 
8192.0 1:-2.13223357469597 2:0.01642068266884249 3:-1.9904173291401788 4:0.06333713547423123 
8192.0 1:-2.13223357469597 2:0.01642068266884249 3:-2.031400994687767 4:-0.039967871794057606 
8192.0 1:-2.13223357469597 2:0.01642068266884249 3:-1.9527319798786071 4:-0.033766712157861374 
8192.0 1:-2.13223357469597 2:0.01642068266884249 3:-1.9753695493486985 4:0.08779494530551864 
8192.0 1:-2.13223357469597 2:0.01642068266884249 3:-1.9666309386617593 4:0.0938760478020524 
8192.0 1:-2.13223357469597 2:0.01642068266884249 3:-1.96186849556364 4:0.09718939763894235 
8192.0 1:-2.13223357469597 2:0.01642068266884249 3:-1.9481403568205742 4:0.10374495047326011 
8192.0 1:-2.13223357469597 2:0.01642068266884249 3:-1.9037596516427373 4:0.11760848690831213 
8192.0 1:-2.13223357469597 2:0.01642068266884249 3:-1.952671250810699 4:0.22012912534303813 
8192.0 1:-2.13223357469597 2:0.01642068266884249 3:-2.0870786559856245 4:0.20551864769702854 
8192.0 1:-2.13223357469597 2:0.01642068266884249 3:-1.8764949078679791 4:-0.156098553650253 
8192.0 1:-1.853225081577431 2:-0.08363106612550915 3:-1.9527319798786071 4:-0.033766712157861374 
8192.0 1:-1.853225081577431 2:-0.08363106612550915 3:-1.9753695493486985 4:0.08779494530551864 
8192.0 1:-1.853225081577431 2:-0.08363106612550915 3:-1.9666309386617593 4:0.0938760478020524 
8192.0 1:-1.853225081577431 2:-0.08363106612550915 3:-1.96186849556364 4:0.09718939763894235 
8192.0 1:-1.853225081577431 2:-0.08363106612550915 3:-1.9481403568205742 4:0.10374495047326011 
8192.0 1:-1.853225081577431 2:-0.08363106612550915 3:-1.9037596516427373 4:0.11760848690831213 
8192.0 1:-1.853225081577431 2:-0.08363106612550915 3:-1.952671250810699 4:0.22012912534303813 
8192.0 1:-1.853225081577431 2:-0.08363106612550915 3:-2.0870786559856245 4:0.20551864769702854 
8192.0 1:-1.853225081577431 2:-0.08363106612550915 3:-1.8764949078679791 4:-0.156098553650253 
8192.0 1:-1.853225081577431 2:-0.08363106612550915 3:-2.13223357469597 4:0.01642068266884249 
8192.0 1:-1.8569760960999826 2:-0.11388913420338774 3:-1.96186849556364 4:0.09718939763894235 
8192.0 1:-1.8569760960999826 2:-0.11388913420338774 3:-1.9481403568205742 4:0.10374495047326011 
8192.0 1:-1.8569760960999826 2:-0.11388913420338774 3:-1.9037596516427373 4:0.11760848690831213 
8192.0 1:-1.8569760960999826 2:-0.11388913420338774 3:-1.952671250810699 4:0.22012912534303813 
8192.0 1:-1.8569760960999826 2:-0.11388913420338774 3:-2.0870786559856245 4:0.20551864769702854 
8192.0 1:-1.8569760960999826 2:-0.11388913420338774 3:-1.8764949078679791 4:-0.156098553650253 
8192.0 1:-1.8569760960999826 2:-0.11388913420338774 3:-1.853225081577431 4:-0.08363106612550915 
8192.0 1:-1.8074678486809796 2:-0.15620781703148887 3:-2.0870786559856245 4:0.20551864769702854 
8192.0 1:-1.8074678486809796 2:-0.15620781703148887 3:-1.8764949078679791 4:-0.156098553650253 
8192.0 1:-1.8074678486809796 2:-0.15620781703148887 3:-1.853225081577431 4:-0.08363106612550915 
8192.0 1:-1.8074678486809796 2:-0.15620781703148887 3:-1.8569760960999826 4:-0.11388913420338774 
6481.052889335253 1:-0.3122842525064699 2:-0.90159567442342 3:-1.0713898101191928 4:-0.1860123723845716 
4712.842751241792 1:-0.3122842525064699 2:-0.90159567442342 3:-1.0831071235549499 4:0.275391888238052 
7064.918585250136 1:-2.442167259662538 2:-0.03383072863345256 3:-1.8964118796907956 4:0.4415410538116401 
8192.0 1:-2.442167259662538 2:-0.03383072863345256 3:-1.0713898101191928 4:-0.1860123723845716 
8192.0 1:-2.442167259662538 2:-0.03383072863345256 3:-1.0831071235549499 4:0.275391888238052 
534.3406792724761 1:-2.442167259662538 2:-0.03383072863345256 3:-0.3122842525064699 4:-0.90159567442342 
8192.0 1:-1.08971487947255 2:-0.47452354356883286 3:-0.3122842525064699 4:-0.90159567442342 
8192.0 1:-1.0667707985817982 2:0.46767639639213704 3:-0.3122842525064699 4:-0.90159567442342 
5340.096732349177 1:-1.0667707985817982 2:0.46767639639213704 3:-2.442167259662538 4:-0.03383072863345256 
4456.620645475875 1:-1.0667707985817982 2:0.46767639639213704 3:-1.08971487947255 4:-0.47452354356883286 
2680.958140500484 1:-1.0512479054719963 2:0.4950806770412605 3:-0.3122842525064699 4:-0.90159567442342 
8192.0 1:-1.0512479054719963 2:0.4950806770412605 3:-1.0667707985817982 4:0.46767639639213704 
2878.0400236223545 1:-1.053252673821799 2:0.5521325907535968 3:-1.0512479054719963 4:0.4950806770412605 
8192.0 1:-0.9231232959659916 2:-0.6477081304406953 3:-1.0544861177986402 4:0.6202276685697241 
1270.0212092818956 1:-0.9231232959659916 2:-0.6477081304406953 3:-2.010739872405453 4:-1.183604584610063 
175.9163989618541 1:0.6502718399243776 2:-0.7728984871779858 3:-0.3122842525064699 4:-0.90159567442342 
1112.3659080818443 1:0.6502718399243776 2:-0.7728984871779858 3:-2.442167259662538 4:-0.03383072863345256 
932.7485407273745 1:0.6502718399243776 2:-0.7728984871779858 3:-1.0544861177986402 4:0.6202276685697241 
221.1709882737696 1:0.6502718399243776 2:-0.7728984871779858 3:-2.010739872405453 4:-1.183604584610063 
361.3860626371546 1:0.2812427133742945 2:-2.0532615355639505 3:-0.3122842525064699 4:-0.90159567442342 
361.4962370875298 1:0.2812427133742945 2:-2.0532615355639505 3:-1.0544861177986402 4:0.6202276685697241 
0.03279235929661017 1:0.2812427133742945 2:-2.0532615355639505 3:-0.9231232959659916 4:-0.6477081304406953 
54.25266358241277 1:-2.55157638366988 2:1.9939479883897189 3:0.2812427133742945 4:-2.0532615355639505 
9.230906458208842 1:0.3021159802232498 2:4.222592967095949 3:-1.0438306805757605 4:-2.8898190513942623 
27.4923104560549 1:1.3501719743017497 2:-0.6765660476709713 3:-1.0438306805757605 4:-2.8898190513942623 
22.2884585865877 1:1.3501719743017497 2:-0.6765660476709713 3:0.3021159802232498 4:4.222592967095949 
26.30141887333045 1:-3.235184751509169 2:-3.806608699595282 3:-2.010739872405453 4:-1.183604584610063 
1.0764108331034374 1:-3.235184751509169 2:-3.806608699595282 3:0.2812427133742945 4:-2.0532615355639505 
18.703552024417252 1:-3.235184751509169 2:-3.806608699595282 3:-1.0438306805757605 4:-2.8898190513942623 
21.722899218715177 1:-3.235184751509169 2:-3.806608699595282 3:1.3501719743017497 4:-0.6765660476709713 
13.36526329182058 1:-3.7973991441480193 2:-1.2651169778667604 3:-3.235184751509169 4:-3.806608699595282 
36.51868097575739 1:1.9519837111508584 2:2.1308686412519853 3:-3.7973991441480193 4:-1.2651169778667604 
12.687955622166623 1:-4.324019420817015 2:0.5330772836538022 3:-3.235184751509169 4:-3.806608699595282 
39.61527075870382 1:-4.361818726748616 2:-1.2370702749660154 3:1.8435975671095575 4:-1.6204114561452885 
60.70125115480911 1:-4.361818726748616 2:-1.2370702749660154 3:-4.324019420817015 4:0.5330772836538022 
2.572581585411743 1:-4.300786869504854 2:4.557794645181755 3:-3.235184751509169 4:-3.806608699595282 
3.0877758162922047 1:2.460347054043714 2:1.8954026153156978 3:-4.300786869504854 4:4.557794645181755 
0.6243067590895791 1:-4.821121693896676 2:2.862898647202865 3:-4.300786869504854 4:4.557794645181755 
8.47945979432016 1:-4.927787297410559 2:0.060475343660334246 3:-4.821121693896676 4:2.862898647202865 
1.044406380563373 1:3.30548797819171 2:-4.573034846893982 3:-4.300786869504854 4:4.557794645181755 
6.40817154844087 1:3.7125351010378633 2:1.09512758065899 3:3.30548797819171 4:-4.573034846893982 
0.1409124519628781 1:3.9834714624424965 2:0.30215444523436386 3:3.30548797819171 4:-4.573034846893982 
8.698169468356635 1:3.9834714624424965 2:0.30215444523436386 3:3.7125351010378633 4:1.09512758065899 
10.35759768975906 1:4.00521975224137 2:2.3470033650503996 3:3.9834714624424965 4:0.30215444523436386 
4.216445346501957 1:4.003536410887422 2:4.473794182588069 3:3.9834714624424965 4:0.30215444523436386 
13.119932336900595 1:4.003536410887422 2:4.473794182588069 3:4.00521975224137 4:2.3470033650503996 
0.0858634199464215 1:4.215181143514608 2:4.8177462956625945 3:-4.300786869504854 4:4.557794645181755 
2.1960416716581173 1:4.215181143514608 2:4.8177462956625945 3:3.30548797819171 4:-4.573034846893982 
10.685516763086424 1:4.215181143514608 2:4.8177462956625945 3:3.9834714624424965 4:0.30215444523436386 
23.27037380395705 1:4.215181143514608 2:4.8177462956625945 3:4.003536410887422 4:4.473794182588069 
10.054393031437638 1:4.4639467693918515 2:1.2634036572983733 3:4.00521975224137 4:2.3470033650503996 
24.60300860869826 1:4.4639467693918515 2:1.2634036572983733 3:4.215181143514608 4:4.8177462956625945 
1.5205144296298825 1:4.9904628498551045 2:-4.226193412309108 3:3.30548797819171 4:-4.573034846893982 
0.15180670405423421 1:4.9904628498551045 2:-4.226193412309108 3:3.9834714624424965 4:0.30215444523436386 
0.11700555388366053 1:4.9904628498551045 2:-4.226193412309108 3:4.00521975224137 4:2.3470033650503996 
2.8093128761947974 1:4.9904628498551045 2:-4.226193412309108 3:4.215181143514608 4:4.8177462956625945 
4.441878665269154 1:4.9904628498551045 2:-4.226193412309108 3:4.4639467693918515 4:1.2634036572983733 
-8192.0 1:-2.007599794884123 2:-0.02428763501602968 3:-2.007763125698707 4:-0.029372124369222413 
-8192.0 1:-2.007599794884123 2:-0.02428763501602968 3:-2.0076038708280217 4:0.031793673206277594 
-8192.0 1:-2.007599794884123 2:-0.02428763501602968 3:-2.007822459470398 4:-0.04092530507200918 
-8192.0 1:-2.007599794884123 2:-0.02428763501602968 3:-1.9917325556955077 4:0.06125498630396029 
-8192.0 1:-2.007599794884123 2:-0.02428763501602968 3:-1.9904173291401788 4:0.06333713547423123 
-8192.0 1:-2.007599794884123 2:-0.02428763501602968 3:-2.031400994687767 4:-0.039967871794057606 
-8192.0 1:-2.007599794884123 2:-0.02428763501602968 3:-1.9527319798786071 4:-0.033766712157861374 
-8192.0 1:-2.007599794884123 2:-0.02428763501602968 3:-1.9753695493486985 4:0.08779494530551864 
-8192.0 1:-2.007599794884123 2:-0.02428763501602968 3:-1.9666309386617593 4:0.0938760478020524 
-8192.0 1:-2.007599794884123 2:-0.02428763501602968 3:-1.96186849556364 4:0.09718939763894235 
-8192.0 1:-2.007599794884123 2:-0.02428763501602968 3:-1.9481403568205742 4:0.10374495047326011 
-8192.0 1:-2.007599794884123 2:-0.02428763501602968 3:-1.9037596516427373 4:0.11760848690831213 
-8192.0 1:-2.007599794884123 2:-0.02428763501602968 3:-2.13223357469597 4:0.01642068266884249 
-8192.0 1:-2.007763125698707 2:-0.029372124369222413 3:-2.0076038708280217 4:0.031793673206277594 
-8192.0 1:-2.007763125698707 2:-0.029372124369222413 3:-2.007822459470398 4:-0.04092530507200918 
-8192.0 1:-2.007763125698707 2:-0.029372124369222413 3:-1.9917325556955077 4:0.06125498630396029 
-8192.0 1:-2.007763125698707 2:-0.029372124369222413 3:-1.9904173291401788 4:0.06333713547423123 
-8192.0 1:-2.007763125698707 2:-0.029372124369222413 3:-2.031400994687767 4:-0.039967871794057606 
-8192.0 1:-2.007763125698707 2:-0.029372124369222413 3:-1.9527319798786071 4:-0.033766712157861374 
-8192.0 1:-2.007763125698707 2:-0.029372124369222413 3:-1.9753695493486985 4:0.08779494530551864 
-8192.0 1:-2.007763125698707 2:-0.029372124369222413 3:-1.9666309386617593 4:0.0938760478020524 
-8192.0 1:-2.007763125698707 2:-0.029372124369222413 3:-1.96186849556364 4:0.09718939763894235 
-8192.0 1:-2.007763125698707 2:-0.029372124369222413 3:-1.9481403568205742 4:0.10374495047326011 
-8192.0 1:-2.007763125698707 2:-0.029372124369222413 3:-1.9037596516427373 4:0.11760848690831213 
-8192.0 1:-2.007763125698707 2:-0.029372124369222413 3:-2.13223357469597 4:0.01642068266884249 
-8192.0 1:-2.0076038708280217 2:0.031793673206277594 3:-2.007822459470398 4:-0.04092530507200918 
-8192.0 1:-2.0076038708280217 2:0.031793673206277594 3:-1.9917325556955077 4:0.06125498630396029 
-8192.0 1:-2.0076038708280217 2:0.031793673206277594 3:-1.9904173291401788 4:0.06333713547423123 
-8192.0 1:-2.0076038708280217 2:0.031793673206277594 3:-2.031400994687767 4:-0.039967871794057606 
-8192.0 1:-2.0076038708280217 2:0.031793673206277594 3:-1.9527319798786071 4:-0.033766712157861374 
-8192.0 1:-2.0076038708280217 2:0.031793673206277594 3:-1.9753695493486985 4:0.08779494530551864 
-8192.0 1:-2.0076038708280217 2:0.031793673206277594 3:-1.9666309386617593 4:0.0938760478020524 
-8192.0 1:-2.0076038708280217 2:0.031793673206277594 3:-1.96186849556364 4:0.09718939763894235 
-8192.0 1:-2.0076038708280217 2:0.031793673206277594 3:-1.9481403568205742 4:0.10374495047326011 
-8192.0 1:-2.0076038708280217 2:0.031793673206277594 3:-1.9037596516427373 4:0.11760848690831213 
-8192.0 1:-2.0076038708280217 2:0.031793673206277594 3:-2.13223357469597 4:0.01642068266884249 
-8192.0 1:-2.007822459470398 2:-0.04092530507200918 3:-1.9917325556955077 4:0.06125498630396029 
-8192.0 1:-2.007822459470398 2:-0.04092530507200918 3:-1.9904173291401788 4:0.06333713547423123 
-8192.0 1:-2.007822459470398 2:-0.04092530507200918 3:-2.031400994687767 4:-0.039967871794057606 
-8192.0 1:-2.007822459470398 2:-0.04092530507200918 3:-1.9527319798786071 4:-0.033766712157861374 
-8192.0 1:-2.007822459470398 2:-0.04092530507200918 3:-1.9753695493486985 4:0.08779494530551864 
-8192.0 1:-2.007822459470398 2:-0.04092530507200918 3:-1.9666309386617593 4:0.0938760478020524 
-8192.0 1:-2.007822459470398 2:-0.04092530507200918 3:-1.96186849556364 4:0.09718939763894235 
-8192.0 1:-2.007822459470398 2:-0.04092530507200918 3:-1.9481403568205742 4:0.10374495047326011 
-8192.0 1:-2.007822459470398 2:-0.04092530507200918 3:-1.9037596516427373 4:0.11760848690831213 
-8192.0 1:-2.007822459470398 2:-0.04092530507200918 3:-2.13223357469597 4:0.01642068266884249 
-8192.0 1:-1.9917325556955077 2:0.06125498630396029 3:-1.9904173291401788 4:0.06333713547423123 
-8192.0 1:-1.9917325556955077 2:0.06125498630396029 3:-2.031400994687767 4:-0.039967871794057606 
-8192.0 1:-1.9917325556955077 2:0.06125498630396029 3:-1.9527319798786071 4:-0.033766712157861374 
-8192.0 1:-1.9917325556955077 2:0.06125498630396029 3:-1.9753695493486985 4:0.08779494530551864 
-8192.0 1:-1.9917325556955077 2:0.06125498630396029 3:-1.9666309386617593 4:0.0938760478020524 
-8192.0 1:-1.9917325556955077 2:0.06125498630396029 3:-1.96186849556364 4:0.09718939763894235 
-8192.0 1:-1.9917325556955077 2:0.06125498630396029 3:-1.9481403568205742 4:0.10374495047326011 
-8192.0 1:-1.9917325556955077 2:0.06125498630396029 3:-1.9037596516427373 4:0.11760848690831213 
-8192.0 1:-1.9917325556955077 2:0.06125498630396029 3:-2.13223357469597 4:0.01642068266884249 
-8192.0 1:-1.9904173291401788 2:0.06333713547423123 3:-2.031400994687767 4:-0.039967871794057606 
-8192.0 1:-1.9904173291401788 2:0.06333713547423123 3:-1.9527319798786071 4:-0.033766712157861374 
-8192.0 1:-1.9904173291401788 2:0.06333713547423123 3:-1.9753695493486985 4:0.08779494530551864 
-8192.0 1:-1.9904173291401788 2:0.06333713547423123 3:-1.9666309386617593 4:0.0938760478020524 
-8192.0 1:-1.9904173291401788 2:0.06333713547423123 3:-1.96186849556364 4:0.09718939763894235 
-8192.0 1:-1.9904173291401788 2:0.06333713547423123 3:-1.9481403568205742 4:0.10374495047326011 
-8192.0 1:-1.9904173291401788 2:0.06333713547423123 3:-1.9037596516427373 4:0.11760848690831213 
-8192.0 1:-1.9904173291401788 2:0.06333713547423123 3:-2.13223357469597 4:0.01642068266884249 
-8192.0 1:-2.031400994687767 2:-0.039967871794057606 3:-1.9527319798786071 4:-0.033766712157861374 
-8192.0 1:-2.031400994687767 2:-0.039967871794057606 3:-1.9753695493486985 4:0.08779494530551864 
-8192.0 1:-2.031400994687767 2:-0.039967871794057606 3:-1.9666309386617593 4:0.0938760478020524 
-8192.0 1:-2.031400994687767 2:-0.039967871794057606 3:-1.96186849556364 4:0.09718939763894235 
-8192.0 1:-2.031400994687767 2:-0.039967871794057606 3:-1.9481403568205742 4:0.10374495047326011 
-8192.0 1:-2.031400994687767 2:-0.039967871794057606 3:-1.9037596516427373 4:0.11760848690831213 
-8192.0 1:-2.031400994687767 2:-0.039967871794057606 3:-2.13223357469597 4:0.01642068266884249 
-8192.0 1:-1.9527319798786071 2:-0.033766712157861374 3:-1.9753695493486985 4:0.08779494530551864 
-8192.0 1:-1.9527319798786071 2:-0.033766712157861374 3:-1.9666309386617593 4:0.0938760478020524 
-8192.0 1:-1.9527319798786071 2:-0.033766712157861374 3:-1.96186849556364 4:0.09718939763894235 
-8192.0 1:-1.9527319798786071 2:-0.033766712157861374 3:-1.9481403568205742 4:0.10374495047326011 
-8192.0 1:-1.9527319798786071 2:-0.033766712157861374 3:-1.9037596516427373 4:0.11760848690831213 
-278.74857319918243 1:-1.9527319798786071 2:-0.033766712157861374 3:-1.952671250810699 4:0.22012912534303813 
-8192.0 1:-1.9527319798786071 2:-0.033766712157861374 3:-2.13223357469597 4:0.01642068266884249 
-8192.0 1:-1.9527319798786071 2:-0.033766712157861374 3:-1.853225081577431 4:-0.08363106612550915 
-8192.0 1:-1.9753695493486985 2:0.08779494530551864 3:-1.9666309386617593 4:0.0938760478020524 
-8192.0 1:-1.9753695493486985 2:0.08779494530551864 3:-1.96186849556364 4:0.09718939763894235 
-8192.0 1:-1.9753695493486985 2:0.08779494530551864 3:-1.9481403568205742 4:0.10374495047326011 
-8192.0 1:-1.9753695493486985 2:0.08779494530551864 3:-1.9037596516427373 4:0.11760848690831213 
-8192.0 1:-1.9753695493486985 2:0.08779494530551864 3:-1.952671250810699 4:0.22012912534303813 
-1594.8401408825302 1:-1.9753695493486985 2:0.08779494530551864 3:-2.0870786559856245 4:0.20551864769702854 
-8192.0 1:-1.9753695493486985 2:0.08779494530551864 3:-2.13223357469597 4:0.01642068266884249 
-8192.0 1:-1.9753695493486985 2:0.08779494530551864 3:-1.853225081577431 4:-0.08363106612550915 
-8192.0 1:-1.9666309386617593 2:0.0938760478020524 3:-1.96186849556364 4:0.09718939763894235 
-8192.0 1:-1.9666309386617593 2:0.0938760478020524 3:-1.9481403568205742 4:0.10374495047326011 
-8192.0 1:-1.9666309386617593 2:0.0938760478020524 3:-1.9037596516427373 4:0.11760848690831213 
-8192.0 1:-1.9666309386617593 2:0.0938760478020524 3:-1.952671250810699 4:0.22012912534303813 
-8192.0 1:-1.9666309386617593 2:0.0938760478020524 3:-2.0870786559856245 4:0.20551864769702854 
-8192.0 1:-1.9666309386617593 2:0.0938760478020524 3:-2.13223357469597 4:0.01642068266884249 
-8192.0 1:-1.9666309386617593 2:0.0938760478020524 3:-1.853225081577431 4:-0.08363106612550915 
-8192.0 1:-1.96186849556364 2:0.09718939763894235 3:-1.9481403568205742 4:0.10374495047326011 
-8192.0 1:-1.96186849556364 2:0.09718939763894235 3:-1.9037596516427373 4:0.11760848690831213 
-8192.0 1:-1.96186849556364 2:0.09718939763894235 3:-1.952671250810699 4:0.22012912534303813 
-8192.0 1:-1.96186849556364 2:0.09718939763894235 3:-2.0870786559856245 4:0.20551864769702854 
-8192.0 1:-1.96186849556364 2:0.09718939763894235 3:-2.13223357469597 4:0.01642068266884249 
-8192.0 1:-1.96186849556364 2:0.09718939763894235 3:-1.853225081577431 4:-0.08363106612550915 
-8192.0 1:-1.96186849556364 2:0.09718939763894235 3:-1.8569760960999826 4:-0.11388913420338774 
-8192.0 1:-1.9481403568205742 2:0.10374495047326011 3:-1.9037596516427373 4:0.11760848690831213 
-8192.0 1:-1.9481403568205742 2:0.10374495047326011 3:-1.952671250810699 4:0.22012912534303813 
-8192.0 1:-1.9481403568205742 2:0.10374495047326011 3:-2.0870786559856245 4:0.20551864769702854 
-8192.0 1:-1.9481403568205742 2:0.10374495047326011 3:-1.8764949078679791 4:-0.156098553650253 
-8192.0 1:-1.9481403568205742 2:0.10374495047326011 3:-2.13223357469597 4:0.01642068266884249 
-8192.0 1:-1.9481403568205742 2:0.10374495047326011 3:-1.853225081577431 4:-0.08363106612550915 
-8192.0 1:-1.9481403568205742 2:0.10374495047326011 3:-1.8569760960999826 4:-0.11388913420338774 
-8192.0 1:-1.9037596516427373 2:0.11760848690831213 3:-1.952671250810699 4:0.22012912534303813 
-8192.0 1:-1.9037596516427373 2:0.11760848690831213 3:-2.0870786559856245 4:0.20551864769702854 
-8192.0 1:-1.9037596516427373 2:0.11760848690831213 3:-1.8764949078679791 4:-0.156098553650253 
-8192.0 1:-1.9037596516427373 2:0.11760848690831213 3:-2.13223357469597 4:0.01642068266884249 
-8192.0 1:-1.9037596516427373 2:0.11760848690831213 3:-1.853225081577431 4:-0.08363106612550915 
-8192.0 1:-1.9037596516427373 2:0.11760848690831213 3:-1.8569760960999826 4:-0.11388913420338774 
-8192.0 1:-1.952671250810699 2:0.22012912534303813 3:-2.0870786559856245 4:0.20551864769702854 
-8192.0 1:-1.952671250810699 2:0.22012912534303813 3:-1.8764949078679791 4:-0.156098553650253 
-8192.0 1:-1.952671250810699 2:0.22012912534303813 3:-2.13223357469597 4:0.01642068266884249 
-8192.0 1:-1.952671250810699 2:0.22012912534303813 3:-1.853225081577431 4:-0.08363106612550915 
-8192.0 1:-1.952671250810699 2:0.22012912534303813 3:-1.8569760960999826 4:-0.11388913420338774 
-8192.0 1:-2.0870786559856245 2:0.20551864769702854 3:-1.8764949078679791 4:-0.156098553650253 
-8192.0 1:-2.0870786559856245 2:0.20551864769702854 3:-2.13223357469597 4:0.01642068266884249 
-8192.0 1:-2.0870786559856245 2:0.20551864769702854 3:-1.853225081577431 4:-0.08363106612550915 
-8192.0 1:-2.0870786559856245 2:0.20551864769702854 3:-1.8569760960999826 4:-0.11388913420338774 
-8192.0 1:-2.0870786559856245 2:0.20551864769702854 3:-1.8074678486809796 4:-0.15620781703148887 
-8192.0 1:-1.8764949078679791 2:-0.156098553650253 3:-2.13223357469597 4:0.01642068266884249 
-8192.0 1:-1.8764949078679791 2:-0.156098553650253 3:-1.853225081577431 4:-0.08363106612550915 
-8192.0 1:-1.8764949078679791 2:-0.156098553650253 3:-1.8569760960999826 4:-0.11388913420338774 
-8192.0 1:-1.8764949078679791 2:-0.156098553650253 3:-1.8074678486809796 4:-0.15620781703148887 
-8192.0 1:-2.13223357469597 2:0.01642068266884249 3:-1.853225081577431 4:-0.08363106612550915 
-8192.0 1:-1.853225081577431 2:-0.08363106612550915 3:-1.8569760960999826 4:-0.11388913420338774 
-8192.0 1:-1.853225081577431 2:-0.08363106612550915 3:-1.8074678486809796 4:-0.15620781703148887 
-8192.0 1:-1.8569760960999826 2:-0.11388913420338774 3:-1.8074678486809796 4:-0.15620781703148887 
-7064.429654936454 1:-1.8964118796907956 2:0.4415410538116401 3:-2.442167259662538 4:-0.03383072863345256 
-6479.156427982787 1:-1.0713898101191928 2:-0.1860123723845716 3:-0.3122842525064699 4:-0.90159567442342 
-8192.0 1:-1.0713898101191928 2:-0.1860123723845716 3:-2.442167259662538 4:-0.03383072863345256 
-4717.370997676724 1:-1.0831071235549499 2:0.275391888238052 3:-0.3122842525064699 4:-0.90159567442342 
-8192.0 1:-1.0831071235549499 2:0.275391888238052 3:-2.442167259662538 4:-0.03383072863345256 
-534.1182972030796 1:-0.3122842525064699 2:-0.90159567442342 3:-2.442167259662538 4:-0.03383072863345256 
-8192.0 1:-0.3122842525064699 2:-0.90159567442342 3:-1.08971487947255 4:-0.47452354356883286 
-8192.0 1:-0.3122842525064699 2:-0.90159567442342 3:-1.0667707985817982 4:0.46767639639213704 
-2678.6371687489686 1:-0.3122842525064699 2:-0.90159567442342 3:-1.0512479054719963 4:0.4950806770412605 
-175.9567261788833 1:-0.3122842525064699 2:-0.90159567442342 3:0.6502718399243776 4:-0.7728984871779858 
-361.3860504563224 1:-0.3122842525064699 2:-0.90159567442342 3:0.2812427133742945 4:-2.0532615355639505 
-5340.292243940876 1:-2.442167259662538 2:-0.03383072863345256 3:-1.0667707985817982 4:0.46767639639213704 
-1112.3774260114562 1:-2.442167259662538 2:-0.03383072863345256 3:0.6502718399243776 4:-0.7728984871779858 
-4456.303718784775 1:-1.08971487947255 2:-0.47452354356883286 3:-1.0667707985817982 4:0.46767639639213704 
-8192.0 1:-1.0667707985817982 2:0.46767639639213704 3:-1.0512479054719963 4:0.4950806770412605 
-2878.0336637216 1:-1.0512479054719963 2:0.4950806770412605 3:-1.053252673821799 4:0.5521325907535968 
-8192.0 1:-1.0544861177986402 2:0.6202276685697241 3:-0.9231232959659916 4:-0.6477081304406953 
-932.6273191843255 1:-1.0544861177986402 2:0.6202276685697241 3:0.6502718399243776 4:-0.7728984871779858 
-361.3721770102723 1:-1.0544861177986402 2:0.6202276685697241 3:0.2812427133742945 4:-2.0532615355639505 
-1270.21619144037 1:-2.010739872405453 2:-1.183604584610063 3:-0.9231232959659916 4:-0.6477081304406953 
-221.21908153551064 1:-2.010739872405453 2:-1.183604584610063 3:0.6502718399243776 4:-0.7728984871779858 
-26.28304676580543 1:-2.010739872405453 2:-1.183604584610063 3:-3.235184751509169 4:-3.806608699595282 
-0.12811295346460677 1:-0.9231232959659916 2:-0.6477081304406953 3:0.2812427133742945 4:-2.0532615355639505 
-54.28326244387372 1:0.2812427133742945 2:-2.0532615355639505 3:-2.55157638366988 4:1.9939479883897189 
-1.070981964939854 1:0.2812427133742945 2:-2.0532615355639505 3:-3.235184751509169 4:-3.806608699595282 
-9.23590294077785 1:-1.0438306805757605 2:-2.8898190513942623 3:0.3021159802232498 4:4.222592967095949 
-27.482600549540297 1:-1.0438306805757605 2:-2.8898190513942623 3:1.3501719743017497 4:-0.6765660476709713 
-18.70775525075855 1:-1.0438306805757605 2:-2.8898190513942623 3:-3.235184751509169 4:-3.806608699595282 
-22.29825756195088 1:0.3021159802232498 2:4.222592967095949 3:1.3501719743017497 4:-0.6765660476709713 
-21.720464226165635 1:1.3501719743017497 2:-0.6765660476709713 3:-3.235184751509169 4:-3.806608699595282 
-13.369154172451225 1:-3.235184751509169 2:-3.806608699595282 3:-3.7973991441480193 4:-1.2651169778667604 
-12.690073535390788 1:-3.235184751509169 2:-3.806608699595282 3:-4.324019420817015 4:0.5330772836538022 
-2.5723348532797226 1:-3.235184751509169 2:-3.806608699595282 3:-4.300786869504854 4:4.557794645181755 
-36.517271434027236 1:-3.7973991441480193 2:-1.2651169778667604 3:1.9519837111508584 4:2.1308686412519853 
-39.61865392681692 1:1.8435975671095575 2:-1.6204114561452885 3:-4.361818726748616 4:-1.2370702749660154 
-60.70554216393721 1:-4.324019420817015 2:0.5330772836538022 3:-4.361818726748616 4:-1.2370702749660154 
-3.087907577204816 1:-4.300786869504854 2:4.557794645181755 3:2.460347054043714 4:1.8954026153156978 
-0.6242978530965224 1:-4.300786869504854 2:4.557794645181755 3:-4.821121693896676 4:2.862898647202865 
-1.044029085155114 1:-4.300786869504854 2:4.557794645181755 3:3.30548797819171 4:-4.573034846893982 
-0.08621646354882109 1:-4.300786869504854 2:4.557794645181755 3:4.215181143514608 4:4.8177462956625945 
-8.479694753230891 1:-4.821121693896676 2:2.862898647202865 3:-4.927787297410559 4:0.060475343660334246 
-6.418389261482747 1:3.30548797819171 2:-4.573034846893982 3:3.7125351010378633 4:1.09512758065899 
-0.13094313927371373 1:3.30548797819171 2:-4.573034846893982 3:3.9834714624424965 4:0.30215444523436386 
-2.194220597536952 1:3.30548797819171 2:-4.573034846893982 3:4.215181143514608 4:4.8177462956625945 
-1.5212451009039243 1:3.30548797819171 2:-4.573034846893982 3:4.9904628498551045 4:-4.226193412309108 
-8.694734905665694 1:3.7125351010378633 2:1.09512758065899 3:3.9834714624424965 4:0.30215444523436386 
-10.36534149940909 1:3.9834714624424965 2:0.30215444523436386 3:4.00521975224137 4:2.3470033650503996 
-4.196638905199446 1:3.9834714624424965 2:0.30215444523436386 3:4.003536410887422 4:4.473794182588069 
-10.703150566387755 1:3.9834714624424965 2:0.30215444523436386 3:4.215181143514608 4:4.8177462956625945 
-0.14866349485494418 1:3.9834714624424965 2:0.30215444523436386 3:4.9904628498551045 4:-4.226193412309108 
-13.12253843269539 1:4.00521975224137 2:2.3470033650503996 3:4.003536410887422 4:4.473794182588069 
-10.05323254216259 1:4.00521975224137 2:2.3470033650503996 3:4.4639467693918515 4:1.2634036572983733 
-0.10828884788933907 1:4.00521975224137 2:2.3470033650503996 3:4.9904628498551045 4:-4.226193412309108 
-23.269752324395018 1:4.003536410887422 2:4.473794182588069 3:4.215181143514608 4:4.8177462956625945 
-24.600526530878366 1:4.215181143514608 2:4.8177462956625945 3:4.4639467693918515 4:1.2634036572983733 
-2.8124520922583427 1:4.215181143514608 2:4.8177462956625945 3:4.9904628498551045 4:-4.226193412309108 
-4.451800868550394 1:4.4639467693918515 2:1.2634036572983733 3:4.9904628498551045 4:-4.226193412309108 
